
\data\
ngram 1=110
ngram 2=311

\1-grams:
-2.884795	!=	-99
-2.039697	"	-99
-2.884795	"Computer	-99
-2.884795	"a	-99
-2.884795	"is	-99
-2.185825	&&	-99
-1.353316	(	-99
-1.353316	)	-99
-2.583765	*	-99
-1.930553	+	-99
-2.282735	++	-99
-2.185825	,	-99
-2.185825	-	-99
-1.486855	.	-99
-2.884795	/	-99
-1.843403	0	-99
-2.039697	1	-99
-2.583765	10	-99
-2.884795	1000000000.0	-99
-2.884795	17	-99
-2.583765	2	-99
-2.884795	307	-99
-1.160519	;	-99
-2.407674	<	-99
-0.7984355	</s>
-99	<s>	-99
-99	<unk>
-1.305012	=	-99
-1.981705	==	-99
-2.884795	>	-99
-2.884795	Eight	-99
-2.884795	Five	-99
-2.884795	Four	-99
-2.583765	NANOS_PER_SEC	-99
-2.884795	Nine	-99
-2.884795	One	-99
-2.884795	Science"	-99
-2.884795	Seven	-99
-2.884795	Six	-99
-2.185825	String	-99
-2.884795	Two	-99
-2.106644	VanillaBoilerplate	-99
-2.106644	[	-99
-2.106644	]	-99
-1.805614	a	-99
-2.884795	add	-99
-1.805614	b	-99
-2.407674	base	-99
-2.407674	boolean	-99
-1.805614	c	-99
-2.884795	char	-99
-1.930553	class	-99
-2.884795	creativeMethod	-99
-2.583765	double	-99
-2.407674	else	-99
-2.884795	equals	-99
-2.407674	exp	-99
-2.583765	fact	-99
-2.583765	final	-99
-2.884795	for	-99
-2.884795	fun"	-99
-2.884795	getA	-99
-2.884795	getB	-99
-2.884795	getC	-99
-2.282735	i	-99
-2.407674	if	-99
-1.393434	int	-99
-2.884795	isSquare	-99
-2.583765	length	-99
-2.407674	list	-99
-2.407674	mat	-99
-1.930553	n	-99
-2.884795	null	-99
-2.407674	numRows	-99
-2.282735	pos	-99
-2.583765	pow	-99
-2.185825	private	-99
-1.422397	public	-99
-2.884795	reallyCreative	-99
-1.805614	result	-99
-1.884795	return	-99
-2.185825	row	-99
-2.583765	s1	-99
-2.407674	s2	-99
-2.884795	s3	-99
-2.583765	s4	-99
-2.884795	s5	-99
-2.583765	setA	-99
-2.884795	setB	-99
-2.884795	setC	-99
-2.583765	size	-99
-2.407674	slowfib	-99
-2.282735	square	-99
-2.106644	static	-99
-2.884795	string	-99
-2.884795	substring	-99
-1.680675	this	-99
-2.884795	time	-99
-2.884795	toString	-99
-2.884795	true	-99
-1.981705	v	-99
-2.583765	value	-99
-2.039697	void	-99
-2.583765	while	-99
-1.805614	x	-99
-2.583765	y	-99
-2.884795	z	-99
-1.379645	{	-99
-2.884795	||	-99
-1.379645	}	-99

\2-grams:
0	!= null
-0.845098	" "
-0.243038	" +
-0.845098	" b
-0.845098	" c
0	"Computer Science"
0	"a =
0	"is fun"
-0.69897	&& (
-0.69897	&& row
-0.39794	&& this
-0.69897	&& value
-0.6863809	( )
-1.531479	( 10
-1.230449	( VanillaBoilerplate
-1.531479	( a
-1.531479	( base
-1.531479	( char
-1.531479	( exp
-0.4900862	( int
-1.230449	( mat
-0.8325089	( n
-1.531479	( pos
-1.531479	( square
-1.531479	) &&
-1.531479	) +
-1.531479	) /
-0.8325089	) ;
-1.054358	) </s>
-0.1697511	) {
-0.30103	* fact
-0.30103	* pow
-0.4771213	+ "
-0.9542425	+ a
-0.9542425	+ b
-0.9542425	+ c
-0.9542425	+ s4
-0.9542425	+ slowfib
-0.9542425	+ x
-0.60206	++ )
-0.1249387	++ ;
-0.69897	, 17
-0.69897	, exp
-0.2218488	, int
-0.2218488	- 1
-0.69897	- 2
-0.69897	- b
-0.49485	. a
-0.552842	. b
-0.552842	. c
-1.09691	. length
-1.39794	. substring
0	/ NANOS_PER_SEC
-0.7403627	0 )
-0.08715018	0 ;
-0.3679768	1 )
-0.3679768	1 ;
-0.845098	1 ||
-0.30103	10 ,
-0.30103	10 ;
0	1000000000.0 ;
0	17 )
0	2 )
0	307 ;
-0.01670569	; </s>
-1.423246	; i
-0.4771213	< list
-0.4771213	< numRows
-0.4771213	< size
-1.38739	<s> String
-2.08636	<s> a
-2.08636	<s> b
-2.08636	<s> boolean
-2.08636	<s> c
-1.609239	<s> else
-2.08636	<s> final
-2.08636	<s> for
-1.609239	<s> if
-1.308209	<s> int
-2.08636	<s> list
-2.08636	<s> pos
-1.38739	<s> private
-0.7641405	<s> public
-1.308209	<s> result
-1.08636	<s> return
-2.08636	<s> row
-2.08636	<s> square
-1.08636	<s> this
-1.78533	<s> while
-1.132117	<s> {
-0.5812098	<s> }
-1.102662	= "
-1.579784	= "Computer
-1.579784	= "is
-1.579784	= (
-0.6255411	= 0
-1.102662	= 1
-1.579784	= 10
-1.579784	= 1000000000.0
-1.579784	= 307
-1.579784	= base
-1.579784	= c
-1.579784	= n
-1.579784	= s1
-1.278754	= s2
-1.579784	= slowfib
-1.579784	= true
-1.102662	= v
-0.8808136	= x
-1.579784	= y
-0.60206	== 0
-0.90309	== 1
-0.90309	== 2
-0.90309	== numRows
-0.4259687	== v
0	> pos
0	Eight </s>
0	Five </s>
0	Four </s>
-0.30103	NANOS_PER_SEC ;
-0.30103	NANOS_PER_SEC =
0	Nine </s>
0	One </s>
0	Science" ;
0	Seven </s>
0	Six </s>
-0.69897	String s1
-0.69897	String s2
-0.69897	String s3
-0.69897	String s4
-0.69897	String s5
0	Two </s>
-0.30103	VanillaBoilerplate (
-0.7781513	VanillaBoilerplate </s>
-0.4771213	VanillaBoilerplate v
-0.30103	[ ]
-0.7781513	[ i
-0.4771213	[ row
-0.7781513	] !=
-0.7781513	] ++
-0.7781513	] .
-0.7781513	] [
-0.7781513	] list
-0.7781513	] mat
-1.079181	a &&
-1.079181	a +
-1.079181	a -
-0.60206	a ;
-0.3802112	a =
-1.079181	a ==
0	add (
-1.079181	b &&
-1.079181	b )
-1.079181	b +
-0.60206	b ;
-0.3802112	b =
-1.079181	b ==
-0.4771213	base *
-0.1760913	base ,
-0.4771213	boolean equals
-0.4771213	boolean isSquare
-0.4771213	boolean square
-0.30103	c ;
-0.3802112	c =
-1.079181	c ==
0	char [
-0.9542425	class Eight
-0.9542425	class Five
-0.9542425	class Four
-0.9542425	class Nine
-0.9542425	class One
-0.9542425	class Seven
-0.9542425	class Six
-0.9542425	class Two
-0.9542425	class VanillaBoilerplate
0	creativeMethod (
-0.30103	double NANOS_PER_SEC
-0.30103	double time
0	else </s>
0	equals (
-0.4771213	exp )
-0.4771213	exp -
-0.4771213	exp ==
0	fact (
-0.30103	final double
-0.30103	final int
0	for (
0	fun" ;
0	getA (
0	getB (
0	getC (
-0.60206	i ++
-0.60206	i <
-0.60206	i =
-0.60206	i ]
0	if (
-1.491362	int [
-1.491362	int a
-1.491362	int b
-1.491362	int base
-1.491362	int c
-1.491362	int exp
-1.491362	int fact
-1.491362	int getA
-1.491362	int getB
-1.491362	int getC
-1.491362	int i
-1.190332	int n
-1.491362	int numRows
-1.491362	int pos
-1.491362	int pow
-1.01424	int result
-1.491362	int row
-1.491362	int size
-1.491362	int slowfib
-1.491362	int value
-0.7132105	int x
-1.491362	int y
-1.491362	int z
0	isSquare (
-0.30103	length ;
-0.30103	length ==
-0.4771213	list )
-0.4771213	list .
-0.4771213	list [
-0.4771213	mat )
-0.1760913	mat [
-0.6532125	n )
-0.9542425	n *
-0.4771213	n -
-0.4771213	n ==
0	null )
-0.1760913	numRows )
-0.4771213	numRows =
-0.60206	pos )
-0.60206	pos ++
-0.60206	pos <
-0.60206	pos =
0	pow (
-0.09691001	private int
-0.69897	private static
-0.9852768	public VanillaBoilerplate
-1.462398	public boolean
-0.5081555	public class
-1.462398	public double
-0.9852768	public int
-0.763428	public static
-1.462398	public string
-0.6842467	public void
0	reallyCreative (
-0.60206	result ;
-0.1249387	result =
-1	return "a
-1	return (
-0.5228788	return result
-1	return square
-0.39794	return this
-0.69897	row ++
-0.69897	row <
-0.69897	row =
-0.39794	row ]
-0.30103	s1 +
-0.30103	s1 =
-0.4771213	s2 +
-0.4771213	s2 .
-0.4771213	s2 =
0	s3 =
-0.30103	s4 ;
-0.30103	s4 =
0	s5 =
0	setA (
0	setB (
0	setC (
-0.30103	size &&
-0.30103	size ;
0	slowfib (
-0.60206	square &&
-0.60206	square ;
-0.30103	square =
-0.7781513	static boolean
-0.7781513	static final
-0.30103	static int
-0.7781513	static void
0	string toString
0	substring (
0	this .
0	time (
0	toString (
0	true ;
-0.60206	v )
-0.1249387	v .
-0.30103	value )
-0.30103	value >
-0.845098	void add
-0.845098	void creativeMethod
-0.845098	void reallyCreative
-0.544068	void setA
-0.845098	void setB
-0.845098	void setC
0	while (
-0.4771213	x )
-1.079181	x ,
-0.30103	x ;
-1.079181	x =
-0.30103	y ,
-0.30103	y ;
0	z )
0	{ </s>
0	|| n
-0.1249387	} </s>
-0.60206	} public

\end\
