
\data\
ngram 1=123

\1-grams:
-2.906335	!=
-1.952093	"
-2.906335	"Computer
-2.605305	"In
-2.605305	"\n"
-2.906335	"a
-2.906335	"is
-2.207365	&&
-1.338133	(
-1.338133	)
-2.605305	*
-1.792392	+
-2.605305	++
-1.952093	,
-2.207365	-
-1.414973	.
-2.906335	/
-1.827154	0
-2.061237	1
-2.429214	10
-2.906335	1000000000.0
-2.906335	15
-2.906335	17
-2.605305	2
-2.906335	307
-2.605305	5
-1.165972	;
-2.605305	<
-0.8129134	</s>
-99	<s>
-99	<unk>
-1.326551	=
-2.003245	==
-2.906335	>
-2.906335	Eight
-2.906335	Five
-2.906335	Four
-2.605305	NANOS_PER_SEC
-2.906335	Nine
-2.906335	One
-2.429214	Rectangle
-2.906335	Science"
-2.906335	Seven
-2.906335	Six
-2.207365	String
-2.605305	System
-2.906335	Three
-2.128184	VanillaBoilerplate
-2.304275	[
-2.304275	]
-1.827154	a
-2.906335	add
-2.906335	awt
-1.827154	b
-2.429214	base
-2.429214	boolean
-1.827154	c
-2.906335	char
-1.952093	class
-2.906335	creativeMethod
-2.605305	double
-2.429214	else
-2.906335	equals
-2.429214	exp
-2.605305	fact
-2.605305	final
-2.906335	fun"
-2.906335	getA
-2.906335	getB
-2.906335	getC
-2.605305	go.
-2.429214	if
-2.906335	import
-1.443937	int
-2.906335	isSquare
-2.906335	java
-2.906335	length
-2.429214	mat
-2.605305	method
-1.952093	n
-2.906335	new
-2.906335	null
-2.429214	numRows
-2.906335	ohsocreative
-2.605305	out
-2.304275	pos
-2.605305	pow
-2.605305	println
-2.207365	private
-1.443937	public
-2.128184	r1
-1.827154	result
-1.906335	return
-2.207365	row
-2.605305	s1
-2.429214	s2
-2.906335	s3
-2.605305	s4
-2.906335	s5
-2.605305	setA
-2.906335	setB
-2.906335	setC
-2.906335	setSize
-2.605305	size
-2.429214	slowfib
-2.304275	square
-2.128184	static
-2.906335	string
-2.906335	substring
-1.702215	this
-2.906335	time
-2.906335	toString
-2.906335	true
-2.003245	v
-2.605305	value
-2.061237	void
-2.605305	while
-1.827154	x
-2.605305	y
-2.906335	z
-1.414973	{
-2.906335	||
-1.414973	}

\end\
