
\data\
ngram 1=122
ngram 2=336
ngram 3=98
ngram 4=68
ngram 5=43
ngram 6=27
ngram 7=20

\1-grams:
-2.913284	!=	-99
-1.959041	"	-99
-2.913284	"Computer	-99
-2.612254	"In	-99
-2.612254	"\n"	-99
-2.913284	"a	-99
-2.913284	"is	-99
-2.214314	&&	-99
-1.345082	(	-99
-1.345082	)	-99
-2.612254	*	-99
-1.799341	+	-99
-2.311224	++	-99
-1.959041	,	-99
-2.311224	-	-99
-1.408134	.	-99
-1.799341	0	-99
-2.068186	1	-99
-2.436163	10	-99
-2.913284	15	-99
-2.913284	17	-99
-2.612254	2	-99
-2.913284	307	-99
-2.612254	5	-99
-1.165096	;	-99
-2.436163	<	-99
-0.8163739	</s>
-99	<s>	-99
-99	<unk>
-1.3335	=	-99
-2.010194	==	-99
-2.913284	>	-99
-2.913284	Eight	-99
-2.913284	Four	-99
-2.913284	Nine	-99
-2.913284	One	-99
-2.436163	Rectangle	-99
-2.913284	Science"	-99
-2.913284	Seven	-99
-2.913284	Six	-99
-2.214314	String	-99
-2.612254	System	-99
-2.913284	Three	-99
-2.913284	Two	-99
-2.135133	VanillaBoilerplate	-99
-2.135133	[	-99
-2.135133	]	-99
-1.871891	a	-99
-2.913284	add	-99
-2.913284	awt	-99
-1.871891	b	-99
-2.436163	base	-99
-2.436163	boolean	-99
-1.834103	c	-99
-2.913284	char	-99
-1.959041	class	-99
-2.913284	creativeMethod	-99
-2.436163	else	-99
-2.913284	equals	-99
-2.436163	exp	-99
-2.612254	fact	-99
-2.913284	final	-99
-2.913284	for	-99
-2.913284	fun"	-99
-2.913284	getA	-99
-2.913284	getB	-99
-2.913284	getC	-99
-2.612254	go.	-99
-2.311224	i	-99
-2.436163	if	-99
-2.913284	import	-99
-1.421922	int	-99
-2.913284	isSquare	-99
-2.913284	java	-99
-2.612254	length	-99
-2.436163	list	-99
-2.436163	mat	-99
-2.612254	method	-99
-1.959041	n	-99
-2.913284	new	-99
-2.913284	null	-99
-2.436163	numRows	-99
-2.913284	ohsocreative	-99
-2.612254	out	-99
-2.311224	pos	-99
-2.612254	pow	-99
-2.612254	println	-99
-2.214314	private	-99
-1.466126	public	-99
-2.135133	r1	-99
-2.913284	reallyCreative	-99
-1.834103	result	-99
-1.959041	return	-99
-2.214314	row	-99
-2.612254	s1	-99
-2.436163	s2	-99
-2.913284	s3	-99
-2.612254	s4	-99
-2.913284	s5	-99
-2.612254	setA	-99
-2.913284	setB	-99
-2.913284	setC	-99
-2.913284	setSize	-99
-2.612254	size	-99
-2.436163	slowfib	-99
-2.311224	square	-99
-2.135133	static	-99
-2.913284	string	-99
-2.913284	substring	-99
-1.709164	this	-99
-2.913284	toString	-99
-2.913284	true	-99
-2.010194	v	-99
-2.612254	value	-99
-2.010194	void	-99
-2.612254	while	-99
-1.834103	x	-99
-2.612254	y	-99
-2.913284	z	-99
-1.408134	{	-99
-2.913284	||	-99
-1.408134	}	-99

\2-grams:
0	!= null
-0.9542425	" "
-0.1760913	" +	-0.1035406
-0.9542425	" b
-0.9542425	" c
0	"Computer Science"
0	"In method	0
0	"\n" )	-0.3560776
0	"a =
0	"is fun"
-0.69897	&& (
-0.69897	&& row
-0.39794	&& this	0
-0.69897	&& value
-1.267172	( "In	0
-0.7231037	( )	-0.4810163
-1.568202	( 0
-1.267172	( 10	0
-1.267172	( VanillaBoilerplate	-0.30103
-1.568202	( base
-1.568202	( char
-1.568202	( exp
-0.526809	( int	-0.3096988
-1.267172	( mat	0
-0.8692317	( n	-0.30103
-1.568202	( pos
-1.568202	( square
-1.568202	) &&
-1.568202	) +
-0.6139592	) ;	0.447158
-1.09108	) </s>
-0.2064739	) {	0
-0.30103	* fact
-0.30103	* pow
-0.6368221	+ "
-0.8129134	+ "\n"	0
-1.113943	+ a
-1.113943	+ b
-1.113943	+ c
-0.8129134	+ r1	-0.30103
-1.113943	+ s4
-1.113943	+ slowfib
-1.113943	+ x
-0.60206	++ )
-0.1249387	++ ;	0.845098
-0.9542425	, 0
-0.9542425	, 15
-0.9542425	, 17
-0.6532125	, 5
-0.9542425	, exp
-0.4771213	, int
-0.1249387	- 1	-0.359022
-0.60206	- 2
-1.50515	. Rectangle
-0.60206	. a	-0.03778857
-1.50515	. awt
-0.6600519	. b	0.02020335
-0.6600519	. c	0.2340832
-1.20412	. length
-1.20412	. out	0
-1.20412	. println	0
-1.50515	. setSize
-1.50515	. substring
-0.8129134	0 )	-0.4403985
-0.8129134	0 ,
-0.1597008	0 ;	0.4929155
-0.3679768	1 )	-0.3560776
-0.3679768	1 ;	0.845098
-0.845098	1 ||
-0.1760913	10 ,
-0.4771213	10 ;
0	15 )
0	17 )
0	2 )
0	307 ;
-0.30103	5 )
-0.30103	5 ,
-0.01579427	; </s>
-1.447158	; i
-0.4771213	< list
-0.4771213	< numRows
-0.4771213	< size
-2.09691	<s> Rectangle
-1.39794	<s> String
-1.79588	<s> System	0
-2.09691	<s> a
-2.09691	<s> b
-2.09691	<s> boolean
-2.09691	<s> c
-1.619789	<s> else	0
-2.09691	<s> final
-2.09691	<s> for
-1.619789	<s> if	0
-1.318759	<s> int	-0.2568263
-2.09691	<s> list
-2.09691	<s> pos
-1.39794	<s> private	0
-0.7746907	<s> public	0.1249387
-2.09691	<s> r1
-1.318759	<s> result	-0.243038
-1.142668	<s> return	0
-2.09691	<s> row
-2.09691	<s> square
-1.09691	<s> this	0
-1.79588	<s> while	0
-1.142668	<s> {	0
-0.59176	<s> }	0
-1.102662	= "	-0.1249388
-1.579784	= "Computer
-1.579784	= "is
-1.579784	= (
-0.6255411	= 0	-0.4881166
-1.102662	= 1	-0.359022
-1.579784	= 10
-1.579784	= 307
-1.579784	= base
-1.579784	= c
-1.579784	= n
-1.579784	= new
-1.579784	= s1
-1.278754	= s2
-1.579784	= slowfib
-1.579784	= true
-1.102662	= v	0
-0.8808136	= x	-0.4771213
-1.579784	= y
-0.60206	== 0	-0.4045706
-0.90309	== 1
-0.90309	== 2
-0.90309	== numRows
-0.4259687	== v	0
0	> pos
0	Eight </s>
0	Four </s>
0	Nine </s>
0	One </s>
-0.4771213	Rectangle (
-0.4771213	Rectangle ;
-0.4771213	Rectangle r1
0	Science" ;
0	Seven </s>
0	Six </s>
-0.69897	String s1
-0.69897	String s2
-0.69897	String s3
-0.69897	String s4
-0.69897	String s5
0	System .	-0.4490925
0	Three </s>
0	Two </s>
-0.30103	VanillaBoilerplate (
-0.7781513	VanillaBoilerplate </s>
-0.4771213	VanillaBoilerplate v	-0.3521825
-0.30103	[ ]
-0.7781513	[ i
-0.4771213	[ row	-0.2552725
-0.7781513	] !=
-0.7781513	] ++
-0.7781513	] .
-0.7781513	] [
-0.7781513	] list
-0.7781513	] mat
-1.041393	a &&
-1.041393	a +
-0.5642715	a ;	0.845098
-0.3424227	a =	-0.3366703
-1.041393	a ==
0	add (
0	awt .
-1.041393	b &&
-1.041393	b +
-0.5642715	b ;	0.845098
-0.3424227	b =
-1.041393	b ==
-0.4771213	base *
-0.1760913	base ,
-0.4771213	boolean equals
-0.4771213	boolean isSquare
-0.4771213	boolean square
-0.30103	c ;	0.60206
-0.3802112	c =
-1.079181	c ==
0	char [
-0.9542425	class Eight
-0.9542425	class Four
-0.9542425	class Nine
-0.9542425	class One
-0.9542425	class Seven
-0.9542425	class Six
-0.9542425	class Three
-0.9542425	class Two
-0.9542425	class VanillaBoilerplate
0	creativeMethod (
0	else </s>
0	equals (
-0.4771213	exp )
-0.4771213	exp -
-0.4771213	exp ==
0	fact (
0	final int
0	for (
0	fun" ;
0	getA (
0	getB (
0	getC (
0	go. r1	-0.30103
-0.60206	i ++
-0.60206	i <
-0.60206	i =
-0.60206	i ]
0	if (	-0.4140695
0	import java
-1.491362	int [
-1.491362	int a
-1.491362	int b
-1.491362	int base
-1.491362	int c
-1.491362	int exp
-1.491362	int fact
-1.491362	int getA
-1.491362	int getB
-1.491362	int getC
-1.491362	int i
-1.190332	int n	-0.3679768
-1.491362	int numRows
-1.491362	int pos
-1.491362	int pow
-1.01424	int result	0
-1.491362	int row
-1.491362	int size
-1.491362	int slowfib
-1.491362	int value
-0.7132105	int x	-0.30103
-1.491362	int y
-1.491362	int z
0	isSquare (
0	java .
-0.30103	length ;
-0.30103	length ==
-0.4771213	list )
-0.4771213	list .
-0.4771213	list [
-0.4771213	mat )
-0.1760913	mat [	-0.30103
0	method go.	0
-0.6532125	n )	-0.05504757
-0.9542425	n *
-0.4771213	n -	0.1249388
-0.4771213	n ==
0	new Rectangle
0	null )
-0.1760913	numRows )
-0.4771213	numRows =
0	ohsocreative (
0	out .	-0.4490925
-0.60206	pos )
-0.60206	pos ++
-0.60206	pos <
-0.60206	pos =
0	pow (
0	println (	-0.4529876
-0.09691001	private int
-0.69897	private static
-0.9700368	public VanillaBoilerplate	-0.30103
-1.447158	public boolean
-0.4929155	public class
-0.9700368	public int
-0.748188	public static	0
-1.447158	public string
-0.6690068	public void	-0.05115253
-0.4771213	r1 "	0
-0.4771213	r1 +	-0.4045706
-0.7781513	r1 .
-0.7781513	r1 =
0	reallyCreative (
-0.60206	result ;	0.845098
-0.1249387	result =	-0.312311
-0.9542425	return "a
-0.4771213	return result	-0.4771213
-0.9542425	return square
-0.3521825	return this	0
-0.69897	row ++
-0.69897	row <
-0.69897	row =
-0.39794	row ]
-0.30103	s1 +
-0.30103	s1 =
-0.4771213	s2 +
-0.4771213	s2 .
-0.4771213	s2 =
0	s3 =
-0.30103	s4 ;
-0.30103	s4 =
0	s5 =
0	setA (	-0.3238929
0	setB (
0	setC (
0	setSize (
-0.30103	size &&
-0.30103	size ;
0	slowfib (	-0.4140695
-0.60206	square &&
-0.60206	square ;
-0.30103	square =
-0.7781513	static boolean
-0.30103	static int
-0.4771213	static void
0	string toString
0	substring (
0	this .	-0.7252988
0	toString (
0	true ;
-0.60206	v )	-0.05504757
-0.1249387	v .	-0.3399481
-0.30103	value )
-0.30103	value >
-0.90309	void add
-0.90309	void creativeMethod
-0.90309	void ohsocreative
-0.90309	void reallyCreative
-0.60206	void setA	0
-0.90309	void setB
-0.90309	void setC
0	while (
-0.4771213	x )	-0.2768963
-1.079181	x ,
-0.30103	x ;	0.60206
-1.079181	x =
-0.30103	y ,
-0.30103	y ;
0	z )
0	{ </s>
0	|| n
-0.1249387	} </s>
-1.50515	} import
-0.6600519	} public	-0.7346855

\3-grams:
-0.1249387	= " +
-0.1760913	r1 " +	-0.30103
0	( "In method	0
0	+ "\n" )	0
-0.1760913	if ( n	-0.30103
-0.1760913	println ( "In	0
-0.1760913	setA ( int	-0.2138799
-0.1760913	slowfib ( n	-0.1760913
-0.1760913	"\n" ) ;	0.5228788
-0.05799195	( ) {	0
-0.1760913	0 ) </s>
-0.1760913	1 ) ;	0.5228788
-0.1760913	n ) {	0
-0.1760913	v ) {	0
-0.09691001	x ) {	0
-0.4771213	" + r1	0
-0.1760913	r1 + "\n"	0
-0.1760913	n - 1	0.1249388
-0.1760913	System . out	0
-0.1760913	out . println	0
-0.4522977	this . a	-0.1760913
-0.5314789	this . b	-0.154902
-0.5314789	this . c	-0.154902
-0.544068	v . a
-0.544068	v . b
-0.544068	v . c	-0.2340832
-0.04575749	= 0 ;	0
-0.1760913	== 0 )	0
-0.1249387	- 1 )	0
-0.1249387	= 1 ;	0
-0.1760913	( 10 ,
-0.04575749	) ; </s>
-0.1249387	++ ; </s>
-0.05115252	0 ; </s>
-0.1249387	1 ; </s>
-0.1249387	a ; </s>
-0.1249387	b ; </s>
-0.06694679	c ; </s>
-0.1249387	result ; </s>
-0.06694679	x ; </s>
-0.2218488	a = x	0.1760913
-0.4771213	result = 0	0.39794
-0.4771213	result = 1	0
0	<s> System .	0
-0.1760913	( VanillaBoilerplate v	0
-0.1249387	public VanillaBoilerplate (
-0.1760913	mat [ row	0
-0.60206	. a ;	0.1249388
-0.30103	. a =	-0.20412
-0.544068	. b ;	0.1249388
-0.3679768	. b =
-0.3679768	. c ;	0.243038
-0.3679768	. c =
0	<s> else </s>
0	method go. r1	0
0	<s> if (	0
-0.7403627	( int n	0
-0.3424227	( int x	-0.2218488
-0.30103	<s> int result	0
-0.1760913	( mat [	0
0	"In method go.	0
-0.30103	( n -	0
-0.4771213	( n ==
-0.1760913	int n )	0
0	. out .	0
0	. println (	0
-0.09691001	<s> private int
-0.845098	<s> public VanillaBoilerplate	0
-1.021189	<s> public class
-0.845098	<s> public int
-0.6232493	<s> public static	0
-0.544068	<s> public void	0
-0.05799195	} public class
-0.1760913	+ r1 +	0
-0.1760913	go. r1 "	0
-0.06694679	<s> result =	-0.1249387
-0.1249387	int result =	-0.4259688
-0.1249387	return result ;	0
-0.4771213	<s> return result	0
-0.3521825	<s> return this	0
-0.1760913	[ row ]
0	void setA (	0
-0.30103	public static int
-0.4771213	public static void
0	&& this .
0	<s> this .	0.1890562
0	return this .	-0.1119737
-0.1249387	= v .
-0.1249387	== v .
-0.1760913	VanillaBoilerplate v )	0
-0.4771213	public void setA	0
0	<s> while (
-0.07918125	= x ;	0.06694674
-0.1760913	int x )	0
0	) { </s>
0	<s> { </s>
-0.1249387	<s> } </s>
-0.6600519	<s> } public	0

\4-grams:
-0.1760913	go. r1 " +	0
0	println ( "In method	0
0	r1 + "\n" )	0
-0.1760913	<s> if ( n	0
-0.1760913	. println ( "In	0
-0.1760913	void setA ( int	0
-0.1760913	+ "\n" ) ;	0
-0.1760913	== 0 ) </s>
-0.1760913	- 1 ) ;	0
-0.1760913	int n ) {	0
-0.1760913	VanillaBoilerplate v ) {	0
-0.09691001	int x ) {	0
-0.1760913	r1 " + r1	0
-0.1760913	+ r1 + "\n"	0
-0.1760913	( n - 1	0
-0.1760913	<s> System . out	0
-0.1760913	. out . println	0
-0.4393327	<s> this . a	-0.2218488
-0.5642715	<s> this . b	-0.20412
-0.5642715	<s> this . c	-0.20412
-0.30103	return this . a
-0.1249387	result = 0 ;	0.3521825
-0.1760913	n - 1 )
-0.1249387	result = 1 ;	0
-0.1760913	"\n" ) ; </s>
-0.1760913	1 ) ; </s>
-0.05115252	= 0 ; </s>
-0.1249387	= 1 ; </s>
-0.1760913	. a ; </s>
-0.1760913	. b ; </s>
-0.1249387	. c ; </s>
-0.1249387	return result ; </s>
-0.07918125	= x ; </s>
-0.1249387	. a = x	0
-0.30103	<s> result = 1	0
-0.1249387	int result = 0	0
-0.1249387	<s> public VanillaBoilerplate (
-0.1760913	( mat [ row	0
-0.1760913	this . a =	0
-0.2218488	this . b =
-0.2218488	this . c =
-0.1760913	v . c ;	0.1249388
0	"In method go. r1	0
-0.1760913	setA ( int x	0.2218488
0	( "In method go.	0
-0.1760913	if ( n ==
-0.1760913	slowfib ( n -
-0.1760913	( int n )	0
0	System . out .	0
0	out . println (	0
-0.05799195	<s> } public class
-0.1760913	" + r1 +	0
-0.1760913	method go. r1 "	0
-0.1249387	<s> int result =	0
-0.1249387	<s> return result ;	0
-0.1760913	mat [ row ]
0	public void setA (	0
-0.30103	<s> public static int
-0.4771213	<s> public static void
0	<s> return this .	0
-0.1760913	( VanillaBoilerplate v )	0
-0.4771213	<s> public void setA	0
-0.1249387	a = x ;	0.1760913
-0.09691001	( int x )	0
0	( ) { </s>
0	n ) { </s>
0	v ) { </s>
0	x ) { </s>

\5-grams:
-0.1760913	method go. r1 " +	0
0	. println ( "In method	0
0	+ r1 + "\n" )	0
-0.1760913	out . println ( "In	0
-0.1760913	public void setA ( int	0
-0.1760913	r1 + "\n" ) ;	0
-0.1760913	( int n ) {	0
-0.1760913	( VanillaBoilerplate v ) {	0
-0.09691001	( int x ) {	0
-0.1760913	go. r1 " + r1	0
-0.1760913	" + r1 + "\n"	0
-0.1760913	System . out . println	0
-0.30103	<s> return this . a
-0.1249387	int result = 0 ;	0
-0.1760913	( n - 1 )
-0.1249387	<s> result = 1 ;	0
-0.1760913	+ "\n" ) ; </s>
-0.1760913	- 1 ) ; </s>
-0.1249387	result = 0 ; </s>
-0.1249387	result = 1 ; </s>
-0.1760913	v . c ; </s>
-0.1249387	<s> return result ; </s>
-0.1249387	a = x ; </s>
-0.1249387	this . a = x	0
-0.1249387	<s> int result = 0	0
-0.09691001	<s> this . a =	0
-0.1249387	<s> this . b =
-0.1249387	<s> this . c =
0	( "In method go. r1	0
-0.1760913	void setA ( int x	0
0	println ( "In method go.	0
-0.1760913	<s> if ( n ==
0	<s> System . out .	0
0	. out . println (	0
-0.1760913	r1 " + r1 +	0
-0.1760913	"In method go. r1 "	0
-0.1760913	( mat [ row ]
0	<s> public void setA (	0
-0.1249387	. a = x ;	0
-0.1760913	setA ( int x )	0.2218488
0	int n ) { </s>
0	VanillaBoilerplate v ) { </s>
0	int x ) { </s>

\6-grams:
-0.1760913	"In method go. r1 " +	0
0	out . println ( "In method	0
0	" + r1 + "\n" )	0
-0.1760913	. out . println ( "In	0
-0.1760913	<s> public void setA ( int	0
-0.1760913	+ r1 + "\n" ) ;	0
-0.1760913	setA ( int x ) {	0
-0.1760913	method go. r1 " + r1	0
-0.1760913	r1 " + r1 + "\n"	0
-0.1760913	<s> System . out . println	0
-0.1249387	<s> int result = 0 ;	0
-0.1760913	r1 + "\n" ) ; </s>
-0.1249387	int result = 0 ; </s>
-0.1249387	<s> result = 1 ; </s>
-0.1249387	. a = x ; </s>
-0.1249387	<s> this . a = x	0
0	println ( "In method go. r1	0
-0.1760913	public void setA ( int x	0
0	. println ( "In method go.	0
0	System . out . println (	0
-0.1760913	go. r1 " + r1 +	0
-0.1760913	( "In method go. r1 "	0
-0.1249387	this . a = x ;	0
-0.1760913	void setA ( int x )	0
0	( int n ) { </s>
0	( VanillaBoilerplate v ) { </s>
0	( int x ) { </s>

\7-grams:
-0.1760913	( "In method go. r1 " +
0	. out . println ( "In method
0	r1 " + r1 + "\n" )
-0.1760913	System . out . println ( "In
-0.1760913	" + r1 + "\n" ) ;
-0.1760913	void setA ( int x ) {
-0.1760913	"In method go. r1 " + r1
-0.1760913	go. r1 " + r1 + "\n"
-0.1760913	+ r1 + "\n" ) ; </s>
-0.1249387	<s> int result = 0 ; </s>
-0.1249387	this . a = x ; </s>
0	. println ( "In method go. r1
-0.1760913	<s> public void setA ( int x
0	out . println ( "In method go.
0	<s> System . out . println (
-0.1760913	method go. r1 " + r1 +
-0.1760913	println ( "In method go. r1 "
-0.1249387	<s> this . a = x ;
-0.1760913	public void setA ( int x )
0	setA ( int x ) { </s>

\end\
