
\data\
ngram 1=181
ngram 2=862
ngram 3=160

\1-grams:
-2.272615	!	0.0226939
-1.996409	%	-0.0258413
-1.603608	&	-0.07240342
-2.624798	&&	-0.002728832
-1.231222	(	-0.04047507
-1.231222	)	-0.004821241
-1.593389	*	-0.01244034
-2.749736	*=	-0.003163448
-1.811884	+	0.02280419
-2.624798	+=	-0.009034488
-1.313044	,	-0.07812104
-1.695379	-	-0.01473587
-2.925828	--	-0.002241988
-2.925828	-=	0.0214551
-2.925828	.	-0.00431006
-2.925828	.05	0.007453072
-2.925828	.1	0.0214551
-2.925828	.5	0.007453072
-1.948104	/	-0.04914171
-1.948104	0	0.02496075
-2.925828	0.7	0.01682766
-2.925828	0x3f0	0.0214551
-2.925828	0x820008202625a0	0.01682766
-2.925828	0xf	0.001139778
-2.925828	0xfc0	-0.003793965
-2.925828	0xfe0	-0.002501035
-2.925828	0xff00ff00ff	0.01682766
-1.86513	1	0.04899213
-2.925828	1008	0.0214551
-2.624798	1023	0.02058973
-2.925828	1024	9.642635e-05
-2.925828	1024.	0.01682766
-2.925828	12	0.006130214
-2.925828	12359778	0.01682766
-2.925828	12365733	0.004021984
-2.448706	14	0.00166449
-2.925828	14202379	0.006394463
-2.527888	15	0.03916481
-2.527888	16	0.04506564
-2.624798	16711935	0.01589461
-2.925828	16774143	0.01682766
-2.624798	18	0.04299925
-2.925828	19	0.0214551
-2.925828	19205553	0.01682766
-2.925828	196	0.004021984
-2.147676	2	0.06428452
-2.749736	2.	0.01906229
-2.925828	20	0.006394463
-2.925828	23	0.01682766
-2.749736	24	0.02968546
-2.925828	250	0.01682766
-2.749736	255	0.02130653
-2.925828	258063	0.006130214
-2.925828	28	0.006130214
-1.948104	3	0.03501903
-2.624798	31	0.03728998
-2.272615	32	0.0603492
-2.749736	32768	0.03966969
-2.925828	3352537	0.006394463
-2.925828	38	0.0214551
-2.925828	3920	0.0214551
-1.996409	4	0.05432291
-2.624798	40	0.01668258
-2.925828	4092	-0.002501035
-2.749736	4190208	-0.001253035
-2.925828	4194304	0.007453072
-2.749736	42	0.03966969
-2.925828	488848	0.006394463
-2.624798	5	0.02148803
-2.925828	51	0.0214551
-2.925828	5298487	-0.00301867
-2.624798	56	0.03728998
-2.38176	6	0.01930276
-2.624798	63	0.0186503
-2.925828	65280	0.0214551
-2.925828	65307	0.01682766
-2.925828	6990400	0.01682766
-2.749736	7	0.01173115
-2.527888	768	0.02560553
-2.147676	8	0.009703521
-2.925828	81	9.642635e-05
-2.925828	96	-0.002501035
-2.925828	9858122	-0.00301867
-2.38176	:	-0.005682899
-1.313044	;	-0.09983347
-2.185465	<	-0.0211157
-1.55476	</s>
-2.022738	<<	-0.032124
-2.925828	<=	-0.00301867
-99	<s>	0.119774
-1.346044	=	-0.1115547
-2.527888	==	-0.004101988
-2.624798	>	-0.002464102
-1.811884	>>	-0.03231806
-2.38176	?	0.02054374
-2.624798	A	0.05221146
-2.527888	B	0.03492325
-2.527888	C	0.03450119
-2.527888	D	-0.004691747
-2.925828	DefaultGC	0.0214551
-2.925828	DefaultVisual	0.0214551
-2.925828	Display	0.006394463
-2.527888	E	0.03828656
-1.996409	F	0.04179115
-2.527888	G	0.01490354
-2.226858	H	0.06141999
-2.624798	I	0.0406533
-2.38176	J	0.0006690882
-2.624798	K	0.05734752
-1.925828	L	0.02206667
-2.624798	M	0.03542076
-2.624798	N	0.03628849
-2.527888	O	0.01431585
-2.624798	P	0.01668258
-2.527888	Q	0.03132378
-2.323768	R	-0.01458734
-2.925828	RootWindow	0.0214551
-2.624798	S	0.03070313
-2.925828	So	-0.00431006
-2.624798	U	0.03070313
-2.624798	V	0.03070313
-2.112914	W	0.05862432
-2.925828	Window	-0.003277255
-2.749736	X	0.01906229
-2.925828	XCheckWindowEvent	0.0214551
-2.925828	XCreateImage	0.0214551
-2.925828	XCreateSimpleWindow	0.007453072
-2.925828	XEvent	-0.003793965
-2.925828	XImage	0.006394463
-2.925828	XLookupKeysym	0.0214551
-2.925828	XMapWindow	0.0214551
-2.925828	XOpenDisplay	0.0214551
-2.925828	XPutImage	0.0214551
-2.925828	XSelectInput	0.0214551
-2.749736	Y	0.03308283
-1.7797	[	-0.008032292
-1.7797	]	0.05210119
-2.272615	^	0.001255509
-2.749736	^=	-0.004468814
-2.226858	_	0.05334437
-1.811884	a	0.01358555
-2.749736	abs	0.01906229
-1.996409	b	0.02189116
-2.749736	char	0.003422883
-2.147676	d	0.08409535
-2.323768	e	0.02068971
-2.38176	else	-0.0009453949
-2.272615	f	0.05811632
-2.925828	fabs	0.0214551
-2.448706	float	-0.01291367
-2.749736	for	0.01906229
-2.185465	h	0.06085529
-1.846646	i	0.08852857
-1.971585	if	-0.004709378
-2.527888	int	0.01325327
-2.185465	j	0.01440062
-2.226858	k	0.0239576
-1.884435	l	0.07893293
-2.925828	long	-0.003793965
-2.38176	m	0.06588682
-2.925828	main	0.0214551
-2.185465	n	0.08154189
-2.080729	o	0.03914727
-2.112914	p	0.0649947
-2.448706	q	0.005717596
-2.226858	r	0.08463815
-2.925828	round	0.0214551
-2.624798	s	0.0406533
-2.226858	t	0.05140441
-2.448706	u	0.05814084
-2.925828	unsigned	-0.00431006
-2.624798	w	0.0406533
-2.448706	x	0.0331797
-2.925828	xkey	0.01682766
-2.527888	y	0.01431585
-2.448706	z	-0.007045655
-1.884435	{	-0.02854136
-1.86513	|	-0.01515114
-2.624798	||	0.0208675
-1.884435	}	-0.03227086
-2.925828	~	0.004021984

\2-grams:
-1.672098	! (
-1.973128	! </s>
-1.973128	! H
-1.973128	! b
-1.973128	! l
-1.973128	! t
-1.815135	% 16
-1.690196	% 2	-0.0004062969
-1.690196	% 3	0.001684874
-1.991226	% 32
-1.991226	% 4
-1.991226	% 768
-1.991226	% 8
-1.815135	% </s>
-1.991226	% I
-1.991226	% w
-2.043362	& !
-2.043362	& (
-2.043362	& 0x3f0
-2.043362	& 0xf
-2.043362	& 0xfe0
-2.043362	& 0xff00ff00ff
-1.867271	& 1
-2.043362	& 1008
-1.742332	& 1023	0
-1.742332	& 15	-3.93372e-05
-2.043362	& 16
-1.867271	& 16711935
-2.043362	& 16774143
-1.566241	& 3	0.008071858
-2.043362	& 31
-2.043362	& 4092
-1.867271	& 4190208	0
-1.742332	& 63	0
-2.043362	& 65280
-1.867271	& </s>
-2.043362	& B
-2.043362	& C
-1.867271	& M
-2.043362	& e
-2.043362	& i
-2.043362	& r
-1.961421	&& 258063
-1.961421	&& F
-1.961421	&& a
-1.841985	( !
-2.143015	( &
-1.489802	( (	0.00182354
-2.143015	( )
-1.966924	( -
-2.143015	( .05
-2.143015	( .5
-2.143015	( 0
-1.966924	( 1
-2.143015	( 255
-1.966924	( 4	-0.0005195937
-2.143015	( ;
-1.745075	( </s>
-2.143015	( A
-1.598947	( F	0.003857784
-1.966924	( H
-2.143015	( J
-1.745075	( L	-0.0005422425
-2.143015	( N
-2.143015	( Q
-1.966924	( R	0.01177022
-2.143015	( U
-2.143015	( XCheckWindowEvent
-2.143015	( XMapWindow
-2.143015	( _
-1.540955	( a	0.003124603
-1.745075	( b
-2.143015	( char
-1.966924	( d
-1.966924	( f
-1.841985	( h
-1.598947	( i	0.001581107
-1.966924	( int	0.00232696
-1.444045	( j	-0.0001276787
-1.966924	( k
-1.841985	( l
-1.966924	( n
-1.966924	( q
-1.966924	( t
-2.143015	( x
-1.841985	) %	0.001776258
-2.143015	) &
-1.966924	) &&
-1.540955	) )	0.01801377
-1.665894	) *	0.01257737
-1.598947	) +
-1.665894	) ,
-1.841985	) -	-0.001018277
-2.143015	) -=
-1.841985	) /	-0.0005480065
-2.143015	) :
-1.101622	) ;	0.02024638
-1.966924	) <	-0.0003063632
-1.966924	) </s>
-1.966924	) <<
-1.841985	) >>	0.003545279
-2.143015	) ?
-2.143015	) G
-2.143015	) Q
-2.143015	) ]
-2.143015	) ^
-1.966924	) a
-1.966924	) b
-1.966924	) h
-2.143015	) if
-2.143015	) l
-2.143015	) r
-1.213596	) {	-0.0008302405
-2.143015	) |
-2.045323	* !
-1.30496	* (	0.0009701564
-2.045323	* )
-2.045323	* .1
-2.045323	* 3
-1.647383	* 4	-0.0005904734
-1.869232	* 42
-2.045323	* 51
-2.045323	* 5298487
-1.869232	* 768	-7.910887e-05
-2.045323	* 81
-2.045323	* </s>
-2.045323	* E
-1.744293	* L
-2.045323	* W
-2.045323	* Y
-2.045323	* b
-2.045323	* i
-2.045323	* j
-2.045323	* l
-1.744293	* n	-0.0002665916
-2.045323	* o
-1.869232	* p	-0.0003789328
-1.959041	*= 0.7
-1.959041	*= 1
-2.010724	+ !
-1.709694	+ (	-0.002466484
-1.834633	+ )	0.02018593
-2.010724	+ 0
-1.834633	+ 1
-2.010724	+ 18
-2.010724	+ 19205553
-2.010724	+ 2
-1.709694	+ 3	0.001684874
-1.834633	+ </s>
-1.834633	+ F
-2.010724	+ J
-2.010724	+ R
-2.010724	+ abs
-2.010724	+ d
-2.010724	+ i
-2.010724	+ t
-1.961421	+= A
-1.961421	+= E
-1.961421	+= d
-2.115611	, &
-2.115611	, (
-1.939519	, )
-1.270512	, 0	0.006255381
-1.638489	, 1	0.007566277
-2.115611	, 2
-2.115611	, 24
-2.115611	, 32
-1.814581	, B	0.002366732
-1.939519	, C	-7.910887e-05
-2.115611	, D
-2.115611	, DefaultGC
-2.115611	, DefaultVisual
-2.115611	, E
-2.115611	, F
-2.115611	, H
-2.115611	, I
-2.115611	, J
-2.115611	, K
-2.115611	, L
-2.115611	, Q
-2.115611	, RootWindow
-1.939519	, S
-1.939519	, U
-2.115611	, V
-1.717671	, W	-0.0004019383
-2.115611	, Y
-2.115611	, _
-2.115611	, a
-2.115611	, b
-2.115611	, d
-2.115611	, e
-2.115611	, f
-2.115611	, h
-2.115611	, i
-2.115611	, k
-2.115611	, l
-2.115611	, m
-2.115611	, n
-2.115611	, o
-1.717671	, p	0.002004131
-2.115611	, q
-2.115611	, r
-1.939519	, s
-2.115611	, t
-1.717671	, u	-3.890786e-05
-2.115611	, w
-2.115611	, x
-2.115611	, z
-1.72632	- (
-1.550228	- 1	0.001585838
-2.02735	- 14202379
-2.02735	- 19
-1.851258	- 3
-1.851258	- 32	-0.0002322369
-2.02735	- 488848
-2.02735	- 5
-2.02735	- 8
-1.72632	- </s>
-2.02735	- F
-2.02735	- R
-2.02735	- V
-1.851258	- W	0.001925022
-2.02735	- a
-2.02735	- b
-2.02735	- i
-2.02735	- l
-2.02735	- m
-2.02735	- o
-1.851258	- p	0.001925022
-1.956649	-- H
-1.956649	-= (
-1.956649	. xkey
-1.956649	.05 </s>
-1.956649	.1 )
-1.956649	.5 </s>
-1.995635	/ 1024.
-1.694605	/ 2
-1.819544	/ 2.	0
-1.995635	/ 32768
-1.518514	/ 4	-0.000401577
-1.995635	/ 768
-1.995635	/ I
-1.995635	/ fabs
-1.819544	/ p
-1.995635	/ w
-1.393575	0 )	0.02468318
-1.296665	0 ,	0.01163584
-1.819544	0 ;
-1.956649	0.7 ;
-1.956649	0x3f0 )
-1.956649	0x820008202625a0 ;
-1.956649	0xf |
-1.956649	0xfc0 ||
-1.956649	0xfe0 ^
-1.956649	0xff00ff00ff ;
-1.703291	1 &	0.0007539541
-1.606381	1 )
-2.004321	1 +
-1.5272	1 ,
-2.004321	1 -
-1.82823	1 ;
-1.606381	1 <<	-0.0004058643
-2.004321	1 ?
-2.004321	1 |
-1.956649	1008 )
-1.961421	1023 )
-1.78533	1023 |	0.001467822
-1.956649	1024 /
-1.956649	1024. ;
-1.956649	12 &
-1.956649	12359778 ;
-1.956649	12365733 -
-1.568202	14 &
-1.966142	14 ]
-1.956649	14202379 *
-1.787697	15 )	-0.002506255
-1.963788	15 ;
-1.963788	15 |
-1.787697	16 )
-1.963788	16 *
-1.963788	16 ;
-1.78533	16711935 ;	-0.002197556
-1.961421	16711935 |
-1.956649	16774143 ;
-1.961421	18 )
-1.961421	18 ,
-1.961421	18 ]
-1.956649	19 )
-1.956649	19205553 ;
-1.956649	196 -
-1.980003	2 %
-1.678973	2 &
-1.980003	2 )
-1.678973	2 *
-1.980003	2 ,
-1.980003	2 ;
-1.980003	2 ||
-1.78295	2. )	-0.000924123
-1.956649	20 *
-1.956649	23 ;
-1.959041	24 )
-1.959041	24 </s>
-1.956649	250 ,
-1.959041	255 -
-1.959041	255 ;
-1.956649	258063 &
-1.956649	28 &
-1.995635	3 &
-1.393575	3 )	0.02878105
-1.694605	3 *
-1.995635	3 +
-1.819544	3 ;
-1.995635	3 ?
-1.694605	3 ]
-1.961421	31 )
-1.78533	31 ;
-1.797037	32 )
-1.973128	32 +
-1.973128	32 ,
-1.973128	32 ;
-1.797037	32 <<	0.001782888
-1.973128	32 |
-1.959041	32768 )
-1.959041	32768 ,
-1.956649	3352537 *
-1.956649	38 )
-1.956649	3920 )
-1.991226	4 &
-1.690196	4 )
-1.991226	4 *
-1.815135	4 +	-0.0008158656
-1.815135	4 -
-1.991226	4 ;
-1.991226	4 <
-1.815135	4 ]
-1.690196	4 |
-1.660391	40 )
-1.956649	4092 ^
-1.78295	4190208 |
-1.956649	4194304 </s>
-1.959041	42 )
-1.959041	42 ;
-1.956649	488848 *
-1.961421	5 )
-1.961421	5 ?
-1.961421	5 ]
-1.956649	51 )
-1.956649	5298487 :
-1.961421	56 )
-1.78533	56 ;	0.01497047
-1.792392	6 &
-1.792392	6 *	0.0006781244
-1.968483	6 </s>
-1.968483	6 ]
-1.78533	63 )	-0.000924123
-1.961421	63 <<
-1.956649	65280 )
-1.956649	65307 ;
-1.956649	6990400 ;
-1.959041	7 -
-1.959041	7 </s>
-1.963788	768 ;
-1.963788	768 </s>
-1.787697	768 ]
-1.678973	8 &
-1.980003	8 &&
-1.803912	8 ;	-0.002197556
-1.803912	8 >>	0.001339446
-1.980003	8 ?
-1.803912	8 |	-0.0007200642
-1.956649	81 /
-1.956649	96 ^
-1.956649	9858122 :
-1.968483	: &
-1.968483	: 12365733
-1.968483	: 3352537
-1.968483	: R
-1.968483	: _
-1.968483	: i
-2.115611	; )
-2.115611	; *
-1.717671	; </s>
-2.115611	; F
-1.939519	; G	0.00232696
-2.115611	; J
-2.115611	; L
-1.814581	; P	0
-2.115611	; Window
-2.115611	; XEvent
-2.115611	; XImage
-2.115611	; XSelectInput
-1.939519	; _
-1.571543	; a	0.009884879
-1.939519	; b	0.008575913
-1.939519	; e
-1.939519	; else
-1.814581	; f	-0.0002580313
-1.814581	; float
-1.939519	; for	0
-1.939519	; i
-1.416641	; if	0.01559835
-2.115611	; int
-1.939519	; k
-1.939519	; l	0.008175969
-2.115611	; m
-2.115611	; main
-1.814581	; o	0.004117642
-2.115611	; r
-1.814581	; t	0.002111492
-1.939519	; y	0.004746434
-1.939519	; z	0.007100341
-1.302697	; }	0.01029677
-1.977724	< 0
-1.801632	< 14	0.004680865
-1.977724	< 16
-1.977724	< Q
-1.977724	< W
-1.977724	< abs
-1.977724	< l
-1.977724	< m
-1.977724	< p
-1.989005	<< 14
-1.812913	<< 18
-1.989005	<< 23
-1.989005	<< 24
-1.812913	<< 32
-1.812913	<< 56	-3.977166e-05
-1.812913	<< 6	-0.0001565018
-1.687975	<< 8	-0.0003030677
-1.989005	<< </s>
-1.956649	<= m
-1.876987	<s> &
-1.575957	<s> (
-2.053078	<s> )
-2.053078	<s> *
-1.876987	<s> ,
-1.752048	<s> -
-2.053078	<s> --
-2.053078	<s> 1
-2.053078	<s> 15
-2.053078	<s> 16711935
-1.876987	<s> 2
-2.053078	<s> 4
-2.053078	<s> 6
-2.053078	<s> 65307
-2.053078	<s> 8
-2.053078	<s> 96
-2.053078	<s> :
-2.053078	<s> ;
-1.876987	<s> =
-1.876987	<s> >>
-2.053078	<s> K
-2.053078	<s> L
-2.053078	<s> S
-2.053078	<s> XPutImage
-2.053078	<s> [
-2.053078	<s> a
-2.053078	<s> char
-2.053078	<s> i
-2.053078	<s> if
-2.053078	<s> int
-2.053078	<s> l
-2.053078	<s> s
-2.053078	<s> unsigned
-2.053078	<s> y
-2.053078	<s> {
-1.561442	= (
-1.929419	= 0
-2.10551	= 0x820008202625a0
-1.929419	= 1
-2.10551	= 1024
-2.10551	= 12359778
-2.10551	= 196
-2.10551	= 250
-2.10551	= 3
-2.10551	= 32768
-2.10551	= 6990400
-1.929419	= 7
-1.929419	= </s>
-1.929419	= D	0.004746434
-2.10551	= E
-1.929419	= F
-1.929419	= H
-2.10551	= J
-2.10551	= L
-2.10551	= N
-1.70757	= O	0
-1.929419	= R	0.01177022
-1.929419	= W
-2.10551	= X
-2.10551	= XCreateImage
-2.10551	= XCreateSimpleWindow
-2.10551	= XLookupKeysym
-2.10551	= XOpenDisplay
-2.10551	= _
-1.80448	= a	0.01454066
-2.10551	= d
-1.929419	= e	0.002172161
-1.80448	= h
-1.80448	= i
-2.10551	= k
-1.80448	= l
-2.10551	= m
-2.10551	= n
-1.80448	= o	-0.0003748769
-2.10551	= p
-2.10551	= q
-1.929419	= r
-2.10551	= round
-2.10551	= t
-1.929419	= z	0.007100341
-1.963788	== 3
-1.963788	== 4
-1.963788	== 8
-1.963788	== r
-1.961421	> 3
-1.961421	> F
-1.961421	> _
-2.010724	>> (
-2.010724	>> 12
-1.834633	>> 14	0.004680865
-2.010724	>> 2
-2.010724	>> 20
-2.010724	>> 28
-1.834633	>> 31	-3.977166e-05
-1.834633	>> 32	-0.0002322369
-2.010724	>> 38
-2.010724	>> 4
-1.709694	>> 40	0
-2.010724	>> 5
-2.010724	>> 56
-1.834633	>> 6
-1.612784	>> 8	0.001817725
-2.010724	>> </s>
-1.968483	? &
-1.968483	? (
-1.968483	? 9858122
-1.792392	? L	0.006077409
-1.968483	? k
-1.961421	A ,
-1.961421	A ;
-1.961421	A =
-1.662758	B )
-1.963788	B ,
-1.787697	C )
-1.963788	C ,
-1.963788	C :
-1.565848	D [	0.00133506
-1.956649	DefaultGC (
-1.956649	DefaultVisual (
-1.956649	Display *
-1.963788	E *
-1.787697	E ;
-1.963788	E =
-1.815135	F %
-1.815135	F &
-1.991226	F *
-1.991226	F ,
-1.593286	F -	-0.0009789397
-1.991226	F /
-1.815135	F <
-1.815135	F =
-1.991226	F >>
-1.963788	G ,
-1.662758	G [
-1.975432	H %
-1.975432	H &
-1.975432	H )
-1.975432	H /
-1.975432	H </s>
-1.975432	H =
-1.975432	H >>
-1.799341	H ]	0.02095026
-1.961421	I *
-1.961421	I ;
-1.961421	I =
-1.968483	J </s>
-1.491362	J [
-1.961421	K )
-1.961421	K ;
-1.961421	K =
-1.997823	L *
-1.821732	L +
-1.997823	L ,
-1.520702	L -
-1.997823	L <
-1.821732	L =
-1.821732	L ==
-1.997823	L >
-1.599883	L ]	0.01620383
-1.961421	M )
-1.961421	M .
-1.961421	M ;
-1.961421	N )
-1.961421	N <
-1.961421	N =
-1.565848	O (	-0.002427146
-1.660391	P (	0.005502447
-1.963788	Q )
-1.963788	Q <=
-1.787697	Q =
-1.368752	R %	0.001931061
-1.956649	RootWindow (
-1.78533	S ,
-1.961421	S =
-1.956649	So long
-1.78533	U ,
-1.961421	U =
-1.78533	V ,
-1.961421	V =
-1.982271	W )
-1.80618	W *	-0.001309497
-1.982271	W +
-1.681241	W ,	-0.001197518
-1.681241	W /
-1.80618	W ;
-1.956649	Window u
-1.78295	X (
-1.956649	XCheckWindowEvent (
-1.956649	XCreateImage (
-1.956649	XCreateSimpleWindow </s>
-1.956649	XEvent M
-1.956649	XImage *
-1.956649	XLookupKeysym (
-1.956649	XMapWindow (
-1.956649	XOpenDisplay (
-1.956649	XPutImage (
-1.956649	XSelectInput (
-1.959041	Y ,
-1.959041	Y =
-1.71391	[ (
-1.838849	[ 1	0.003666785
-2.01494	[ 3
-2.01494	[ 4
-2.01494	[ 5
-2.01494	[ 6
-2.01494	[ </s>
-1.838849	[ H	-0.0002694977
-1.537819	[ L	0.001558194
-1.838849	[ W	-0.0003789328
-2.01494	[ X
-1.838849	[ d
-2.01494	[ l
-1.71391	[ n	-0.0002665916
-2.01494	[ r
-1.617	] )	0.02026504
-1.838849	] *
-1.537819	] ,
-1.71391	] ;
-2.01494	] </s>
-1.202027	] =	0.00491244
-1.973128	^ (
-1.973128	^ 0xfc0
-1.973128	^ 255
-1.973128	^ 3920
-1.973128	^ f
-1.797037	^ l
-1.973128	^ ~
-1.959041	^= _
-1.959041	^= k
-1.975432	_ %
-1.975432	_ )
-1.799341	_ ,
-1.975432	_ /
-1.975432	_ =
-1.975432	_ >>
-1.975432	_ ?
-1.975432	_ ^=
-1.709694	a &
-1.709694	a +
-1.709694	a ,
-1.834633	a -	0.00101496
-2.010724	a /
-1.612784	a =
-1.311754	a [	-0.001450066
-1.78295	abs (	0.007074161
-1.991226	b &
-1.815135	b )
-1.815135	b *=
-1.815135	b <<	-0.0004849732
-1.447158	b =
-1.815135	b >>
-1.991226	b ^
-1.959041	char *
-1.959041	char J
-1.803912	d )
-1.980003	d +
-1.803912	d ,
-1.980003	d ;
-1.980003	d <<
-1.980003	d =
-1.803912	d >>
-1.980003	d ]
-1.970812	e +=
-1.669782	e ;	0.01501024
-1.79472	e <
-1.970812	e =
-1.792392	else </s>
-1.570543	else {
-1.973128	f &
-1.973128	f ,
-1.973128	f ;
-1.973128	f <<
-1.672098	f =
-1.973128	f |
-1.956649	fabs (
-1.966142	float C
-1.966142	float K
-1.966142	float N
-1.966142	float V
-1.966142	float a
-1.78295	for (
-1.977724	h ,
-1.977724	h -
-1.977724	h /
-1.977724	h ;
-1.977724	h <<
-1.801632	h =
-1.977724	h >>
-1.977724	h ^
-1.977724	h |
-1.705436	i &
-2.006466	i )
-1.705436	i *
-1.830375	i +	-0.0008158656
-2.006466	i +=
-2.006466	i ,
-1.705436	i -	-0.001018277
-2.006466	i ;
-2.006466	i <
-1.705436	i =
-1.705436	i >>
-2.006466	i |
-1.090346	if (	0.0007818043
-1.817345	if </s>
-1.662758	int )	-0.002466484
-1.963788	int G
-1.278754	j ,	0.01404191
-1.977724	j =
-1.975432	k %
-1.799341	k ,
-1.975432	k /
-1.975432	k :
-1.975432	k =
-1.975432	k >
-1.975432	k >>
-1.975432	k ^=
-1.826075	l )	0.002257535
-1.826075	l *
-2.002166	l +
-2.002166	l ,
-2.002166	l -
-2.002166	l ;
-1.458098	l =	-0.0001953961
-2.002166	l ==
-2.002166	l >
-1.826075	l ]
-1.826075	l ^
-2.002166	l |
-1.956649	long A
-1.968483	m )
-1.968483	m /
-1.792392	m ;
-1.968483	m </s>
-1.968483	m =
-1.956649	main (
-1.801632	n )
-1.977724	n +
-1.977724	n ,
-1.977724	n -
-1.977724	n ;
-1.977724	n </s>
-1.801632	n ]
-1.977724	n |
-1.808436	o &
-1.808436	o *
-1.984527	o ,
-1.507406	o =
-1.808436	o >>	-0.0008158656
-1.984527	o ]
-1.982271	p &
-1.982271	p )
-1.982271	p +
-1.681241	p ,
-1.681241	p /
-1.982271	p ;
-1.80618	p ]	0.00555593
-1.966142	q +
-1.966142	q +=
-1.790051	q </s>
-1.966142	q >>
-1.975432	r )
-1.975432	r ,
-1.975432	r ;
-1.674402	r =	-0.0003121262
-1.975432	r >>
-1.975432	r ]
-1.975432	r |
-1.956649	round (
-1.961421	s *
-1.961421	s ,
-1.961421	s =
-1.975432	t *
-1.975432	t ,
-1.975432	t ;
-1.674402	t =
-1.975432	t ==
-1.975432	t |
-1.975432	t ||
-1.966142	u )
-1.966142	u +
-1.790051	u ,	0.002881971
-1.966142	u =
-1.956649	unsigned So
-1.961421	w *
-1.961421	w ;
-1.961421	w =
-1.966142	x ,
-1.966142	x <<
-1.966142	x =
-1.790051	x >>
-1.956649	xkey ,
-1.565848	y (
-1.48902	z [	0.0008750651
-2.002166	{ Display
-2.002166	{ F
-2.002166	{ L
-1.826075	{ a	0.003505507
-2.002166	{ b
-2.002166	{ d
-1.826075	{ float
-2.002166	{ i
-1.604226	{ if	0.02724234
-1.826075	{ l	0.008175969
-1.826075	{ o	0.006497344
-2.002166	{ r
-2.002166	{ x
-2.002166	{ y
-1.82823	| !
-1.606381	| (
-2.004321	| 4194304
-2.004321	| _
-1.82823	| b	-0.0005195937
-1.82823	| d
-2.004321	| f
-1.703291	| i	-0.0009550964
-2.004321	| k
-2.004321	| l
-1.82823	| o	-0.0004146486
-1.82823	| x
-1.78533	|| (
-1.961421	|| i
-2.002166	} </s>
-2.002166	} D
-2.002166	} b
-2.002166	} e
-1.604226	} else	0.002289053
-2.002166	} h
-1.826075	} if	0.0295693
-2.002166	} q
-1.303196	} }	0.01051871
-1.956649	~ -

\3-grams:
-1.78533	) % 3
-1.79472	R % 2
-1.78533	1 & 15
-1.797037	( ( H
-1.797037	( ( i
-1.801632	* ( b
-1.78533	+ ( 4
-1.787697	O ( -
-1.78533	P ( a
-1.78295	abs ( (
-1.812913	if ( !
-1.812913	if ( F
-1.687975	if ( L
-1.812913	if ( t
-1.669782	) ) {
-1.78295	+ ) {
-1.669782	0 ) ,
-1.572872	0 ) ;
-1.78295	15 ) <
-1.78295	2. ) /
-1.79472	3 ) ;
-1.78295	63 ) -
-1.787697	] ) {
-1.78533	int ) h
-1.78295	l ) *
-1.665112	) * (
-1.78295	6 * n
-1.78295	W * p
-1.78295	4 + 1
-1.78295	i + F
-1.498311	0 , 0
-1.799341	0 , W
-1.660391	W , p
-1.799341	j , 0
-1.577492	j , u
-1.78295	u , 1
-1.78533	) - 32
-1.787697	F - p
-1.78295	a - </s>
-1.78533	i - W
-1.78533	) / p
-1.507406	, 0 )
-1.331315	, 0 ,
-1.790051	, 1 )
-1.665112	, 1 ,
-1.790051	- 1 &
-1.78295	[ 1 <<
-1.78533	& 1023 |
-1.78295	< 14 &
-1.78295	>> 14 &
-1.78533	& 15 )
-1.660391	% 2 *
-1.78295	/ 2. )
-1.78533	% 3 *
-1.665112	& 3 )
-1.790051	& 3 ;
-1.78533	+ 3 ]
-1.78295	>> 31 ;
-1.78295	- 32 )
-1.78295	>> 32 <<
-1.78295	( 4 -
-1.662758	* 4 |
-1.790051	/ 4 +
-1.660391	>> 40 )
-1.78295	& 4190208 |
-1.78295	<< 56 ;
-1.78295	<< 6 *
-1.78533	& 63 )
-1.78295	* 768 ]
-1.78533	<< 8 |
-1.787697	>> 8 &
-1.787697	>> 8 ;
-1.826075	) ; P
-1.826075	) ; a
-1.826075	) ; t
-1.701136	) ; }
-1.78295	16711935 ; z
-1.78295	56 ; }
-1.78295	8 ; G
-1.78533	e ; }
-1.78295	) < 14
-1.787697	1 << 18
-1.78295	32 << 8
-1.78295	b << 56
-1.80618	] = (
-1.681241	] = O
-1.80618	] = o
-1.792392	l = i
-1.78533	r = l
-1.78533	) >> 8
-1.78295	8 >> 40
-1.78295	o >> 32
-1.78533	, B )
-1.78295	, C )
-1.78295	= D [
-1.792392	( F -
-1.792392	( F <
-1.78295	; G [
-1.78295	[ H ]
-1.787697	( L ==
-1.78295	? L -
-1.665112	[ L ]
-1.565848	= O (
-1.660391	; P (
-1.78295	( R %
-1.78295	= R %
-1.662758	, W ,
-1.78295	- W /
-1.78295	[ W *
-1.787697	D [ (
-1.799341	a [ d
-1.674402	a [ n
-1.568202	z [ L
-1.78295	H ] =
-1.565848	L ] =
-1.78295	p ] ,
-1.79472	( a &
-1.79472	( a ,
-1.570543	; a [
-1.78533	= a [
-1.78295	{ a =
-1.78295	; b =
-1.78295	| b <<
-1.78295	= e ;
-1.662758	} else {
-1.660391	; f =
-1.78295	; for (
-1.792392	( i -
-1.660391	| i >>
-1.322219	; if (
-1.662758	{ if (
-1.78295	} if (
-1.78295	( int )
-1.276462	( j ,
-1.78295	; l =
-1.78295	{ l =
-1.78533	* n )
-1.78533	[ n ]
-1.660391	; o =
-1.78533	= o >>
-1.78295	{ o =
-1.78295	| o &
-1.78295	* p ]
-1.787697	, p ,
-1.78295	- p /
-1.78533	; t =
-1.787697	, u ,
-1.78295	; y (
-1.78295	; z [
-1.78295	= z [
-1.815135	) { a
-1.815135	) { float
-1.593286	) { if
-1.815135	) { o
-1.78295	1023 | i
-1.78295	8 | o
-1.681241	; } else
-1.80618	; } if
-1.50515	; } }
-1.577492	} } }

\end\
