
\data\
ngram 1=795
ngram 2=4940
ngram 3=2570

\1-grams:
-2.358149	!	0.1161731
-2.965116	!=	0.009170106
-2.816177	"	0.06848831
-4.006509	"!:E%;!ea!!!WqE0z!f/y}!%!!Qi6!uzt!n}?]!bl!ak!SetR<"	0.0224656
-4.006509	"!pv!;!Hm%Ro4"	-0.001051156
-3.404449	""	0.04875316
-3.705479	"#"	0.03156561
-3.705479	"$"	0.02397938
-4.006509	"%."	-0.001051156
-4.006509	"%c"	0.02507058
-3.830418	"%d	-0.0009762303
-4.006509	"%d,%dd%d\n"	0.02507058
-4.006509	"%d\n"	0.02507058
-4.006509	"%da%d,%d\n"	0.02507058
-4.006509	"%da%d\n"	0.02507058
-4.006509	"%dd%d\n"	0.02507058
-4.006509	"%f,%f,"	0.02507058
-3.529387	"%s"	0.02238836
-4.006509	"('A)"	0.02507058
-3.830418	"('A`)"	0.02760424
-4.006509	"(A`)"	0.02507058
-4.006509	"(O**"	0.0224656
-4.006509	")"	0.0326568
-4.006509	")$"	0.02627642
-4.006509	");"	0.0326568
-4.006509	"*"	-0.000922774
-4.006509	"*_[512],**p=_,**d,b,q;for(b=0;b"	-0.001051156
-4.006509	"*p=#b,P[9999],*d=P,*e[]="	-0.001051156
-4.006509	"++<512;p=_+q)_[q"	0.0224656
-4.006509	"-"	0.02507058
-4.006509	"/"	0.0326568
-4.006509	"/*;;	-0.0004302916
-4.006509	"11\x80"	0.005545195
-4.006509	"258EAFA5-"	-0.001051156
-4.006509	"8!@dP,!!o+fb"	0.0224656
-4.006509	"::::::::::::?_::::\"::.::::@:::'::-::::::::;!:):::::,:::::"	0.02627642
-3.705479	";"	0.05953466
-4.006509	";;"	0.0326568
-4.006509	";Gam"	-0.001051156
-4.006509	";GlockQ18"	-0.001051156
-4.006509	";Heca"	-0.001051156
-4.006509	";Time:Q"	0.0326568
-4.006509	";^Q<d|8=o;]Q<dj8<Pk8<c]'?;QQdi8?P'Q)d8<9`8?c;Qdh8=P']Q<`c8>PQ9_8"	0.0224656
-4.006509	"<	-0.0004302916
-4.006509	"<"	0.02507058
-4.006509	"<;iQ=/*do<;dQ=ook8?boc;aQ=odr8>oc;_Q<ox8>oc"	0.0224656
-4.006509	"<o_Q<o_QBdo`QQ';`Q=9`]8=bobQ_o_Q<o]8=';bQC(88cQ`bcgQ>oP']8<;cQ>98)^Q?''oc`Q>"	0.0224656
-4.006509	"=(p-_+1)*9%512]=(O*)p;"	0.0326568
-4.006509	"=:$"	0.02507058
-3.705479	">	-0.001521484
-4.006509	">b;og8=''`Q<`b8?'QQ9_8?c;dPe8dQa8<P]Q<``8=;'f8>QQ`]8?ocQQ_8=''_Q`8aQ"	0.0224656
-4.006509	"?guhljL!^P%	-0.001051156
-4.006509	"@"	0.02507058
-4.006509	"@+-"	0.02507058
-4.006509	"@CADBEHI"	0.0326568
-4.006509	"C:"	-0.0009869697
-4.006509	"CYOUQWIN!]Q=;of8BQQ)88bc]QA98P'Qo]8>oQQ_8CP;QQ98b`_8@P8(Q`]'^Q=`']QB)88"	0.0224656
-4.006509	"E914-47DA-95CA-C5AB0DC85B"	-0.001051156
-4.006509	"HTTP/1.1	-0.0004302916
-4.006509	"M@K~|JOEF\\^~_NHI]"	0.02627642
-4.006509	"NBLF\1Nblfgjmf\1"	0.02507058
-3.608569	"Q"	0.03102104
-4.006509	"Q(j"	-0.001051156
-4.006509	"Q(jam"	0.0224656
-4.006509	"Zj$x!~V!n&g8!cK!	-0.001051156
-4.006509	"\",\"%s\",\"%s\"},	-0.001051156
-4.006509	"\40main(){O"	-0.000922774
-4.006509	"\n"	0.0326568
-4.006509	"\n\n\n"	0.0224656
-4.006509	"\xe2%c%c\r\n"	-0.0009013733
-4.006509	"a"	-0.001051156
-4.006509	"bQQ]`8J;QQ`88bc99bd(`8iQ@''QQo^8E'`8c;QQ'Q``8?QQ`'kQ<o]8B9PQQ`';_Q<`_8<cbQ"	0.0224656
-3.830418	"d"	0.0316091
-4.006509	"e.6!r!%l6G!n~^<i=%pEwL%P!'<!FQt%u	-0.001051156
-4.006509	"e:|	-0.001051156
-4.006509	"eQII:"	-0.0009869697
-4.006509	"eQover."	0.0224656
-4.006509	"etu"	-0.001051156
-4.006509	"f\n"	0.02507058
-4.006509	"fl!"	0.005545195
-4.006509	"hello	-0.001051156
-4.006509	"laugh"	0.0326568
-4.006509	"m"	-0.001051156
-4.006509	"me"	-0.001029762
-4.006509	"med);"	0.0326568
-4.006509	"n:}nkD!Q!kN"	0.0224656
-4.006509	"o("	0.0326568
-4.006509	"oc']Q]8<;cQ>`8bbQA``QQ''`Q?88P;dQ=`)nQ?*/;;"	0.02627642
-4.006509	"oid	-0.001051156
-3.608569	"r"	0.05599351
-4.006509	"rn+0;}\n"	0.0326568
-4.006509	"syntax_error!"	0.0224656
-4.006509	"t"	-0.001051156
-4.006509	"throw	-0.001051156
-4.006509	"usage:	-0.001051156
-4.006509	"{;}"	0.001997441
-4.006509	"{\"%s\",	-0.001051156
-4.006509	"|~0y'vWtA@:LcO9d}y.!uL!Gd+ml(<+Ds!J"	0.0224656
-4.006509	"}$"	0.001997441
-2.38326	%	0.0391124
-3.608569	%=	0.002871958
-4.006509	%d\n"	0.02507058
-4.006509	%s	-0.001051156
-4.006509	%u/%u	-0.0004302916
-2.274115	&	0.08392291
-2.363056	&&	0.08519686
-4.006509	&=	0.0005134079
-3.353296	'	0.05360756
-3.529387	','	0.05827859
-3.830418	'128'	-0.002102311
-4.006509	'2d'	0.0326568
-4.006509	'='	0.0326568
-3.830418	'\n'	0.03211086
-2.789025	'_'	0.04384532
-4.006509	'a'	0.02507058
-4.006509	'b5sc!e"	0.0224656
-4.006509	'c'	-0.001051156
-4.006509	'd'	0.001997441
-4.006509	'width:256px;height:256px'	0.0224656
-4.006509	'ws'	0.004612184
-4.006509	'|'	0.001997441
-1.15525	(	-0.01171583
-1.126267	)	0.08731389
-1.559351	*	0.03748506
-2.635441	*=	0.05410453
-4.006509	*m,!*m?H:"	-0.001051156
-1.884293	+	0.1104254
-2.246841	++	0.1965526
-4.006509	+99*!	-0.001051156
-2.262216	+=	0.03873707
-1.233088	,	-0.09079039
-4.006509	,101	-0.001051156
-1.824665	-	0.03225982
-2.608569	--	0.1540141
-2.684289	-=	0.0682774
-2.426725	->	-0.02171112
-2.228358	.	-0.02409682
-3.705479	...	0.05653808
-3.705479	.05	0.08751065
-3.705479	.1	0.03435977
-4.006509	.27	0.0015022
-3.705479	.5	0.04024241
-2.399054	/	0.06012613
-3.404449	/=	0.005679803
-1.890898	0	0.03878661
-3.705479	0.5	0.037587
-4.006509	0.7	0.02627642
-4.006509	01	0.005545195
-4.006509	02	0.0224656
-4.006509	024	0.0326568
-4.006509	03	0.02627642
-4.006509	040	0.0326568
-4.006509	061	0.01105373
-4.006509	075	0.0326568
-3.830418	0u	0.05310488
-4.006509	0x1	-0.0006230685
-4.006509	0x3f0	0.0326568
-4.006509	0x67452301	0.02507058
-4.006509	0x820008202625a0	0.02627642
-4.006509	0x98BADCFE	0.0224656
-4.006509	0xEFCDAB89	0.02507058
-4.006509	0xf	-6.592332e-05
-4.006509	0xfc0	-0.000515981
-4.006509	0xfe0	-0.0004945602
-4.006509	0xff00ff00ff	0.02627642
-4.006509	0xffff	0.0326568
-2.013072	1	0.1025616
-4.006509	1.159922023e9	0.02507058
-3.830418	1.3	0.04904219
-3.830418	1.5	0.02573048
-4.006509	1.6937441874215991e190	0.02627642
-3.131448	10	0.1197152
-4.006509	1008	0.0326568
-4.006509	101	0.0001056497
-3.705479	1023	0.0321288
-4.006509	1024	0.0006422529
-4.006509	1024.	0.02627642
-3.705479	11	0.06067706
-4.006509	1103515245	0.00122253
-4.006509	112	0.02507058
-3.307539	12	0.06987244
-4.006509	123	0.001997441
-4.006509	12359778	0.02627642
-4.006509	12365733	0.005458319
-4.006509	124	0.005458319
-4.006509	127	0.02627642
-3.608569	128	0.06045107
-4.006509	128L	0.004612184
-3.830418	13	0.02678023
-4.006509	13000	0.02627642
-4.006509	138	0.0326568
-3.462441	14	0.004689814
-4.006509	14202379	0.01105373
-3.830418	14695981039346656037ULL	0.02573048
-3.404449	15	0.08910606
-4.006509	1500	0.001545242
-4.006509	158	0.0326568
-3.006509	16	0.1084633
-4.006509	1600	0.0007926206
-3.705479	16711935	0.02573219
-4.006509	16774143	0.02627642
-3.830418	16u	0.03211086
-3.830418	17	0.004066245
-4.006509	176	0.0006422529
-3.529387	18	0.09540505
-4.006509	19	0.0326568
-4.006509	1912	-2.303685e-05
-4.006509	19205553	0.02627642
-4.006509	193	0.004612184
-4.006509	1933008	0.0224656
-4.006509	194	0.02507058
-4.006509	1954	0.0326568
-4.006509	196	0.005458319
-4.006509	197	0.0326568
-4.006509	198	0.02627642
-3.830418	1LL	0.004820668
-3.830418	1u	0.0599123
-2.221179	2	0.1171433
-3.830418	2.	0.03211086
-4.006509	2.271681097355226e15	0.02507058
-3.353296	20	0.07139988
-4.006509	204	0.005545195
-4.006509	205	0.0326568
-3.830418	22	0.04470723
-4.006509	23	0.02627642
-4.006509	234	0.02627642
-3.404449	24	0.1255585
-4.006509	25	0.02627642
-4.006509	250	0.02507058
-3.404449	255	0.1021604
-3.608569	256	0.05891593
-4.006509	256L	0.004612184
-4.006509	257	0.02507058
-4.006509	258063	0.00122253
-3.830418	26	0.03103141
-4.006509	27	0.0326568
-4.006509	275	0.0326568
-4.006509	276	0.0326568
-4.006509	28	0.00122253
-4.006509	287	0.0326568
-4.006509	2L	0.0326568
-2.426725	3	0.1356238
-4.006509	3.135045272e9	0.02507058
-4.006509	3.9999e5	0.0326568
-3.404449	30	0.05201782
-4.006509	304	0.005458319
-4.006509	308438	0.01105373
-3.608569	31	0.06013249
-2.892565	32	0.1064817
-3.830418	32768	0.0599123
-4.006509	3285377520	0.004807299
-3.830418	33	0.03211086
-3.830418	333	0.03813226
-4.006509	3352537	0.01105373
-4.006509	34	0.0003202113
-3.529387	35	0.0429532
-3.830418	36	0.001451502
-3.830418	37	0.03126239
-3.830418	38	0.04470723
-4.006509	384	0.0326568
-4.006509	39	0.02627642
-4.006509	3920	0.0326568
-2.444216	4	0.1357989
-4.006509	4.023233417e9	0.02507058
-4.006509	4.294967296e9	0.02507058
-4.006509	4.5	0.0326568
-4.006509	4.503599627370496e15	0.02507058
-4.006509	4.522871578970112e217	0.02627642
-4.006509	4.6727004911171048e-153	0.02627642
-3.353296	40	0.0635232
-4.006509	4092	-0.0004945602
-3.830418	41	0.03211086
-4.006509	41088	0.02507058
-3.830418	4190208	-0.0006118621
-4.006509	4194304	0.0224656
-3.529387	42	0.0595886
-4.006509	44	0.004612184
-3.830418	45	0.03211086
-4.006509	48	0.02627642
-4.006509	480	0.02507058
-4.006509	488848	0.01105373
-4.006509	4L	0.004612184
-3.830418	4u	0.06122231
-2.727755	5	0.1418087
-4.006509	50	0.02627642
-4.006509	504	0.01105373
-4.006509	508	0.005545195
-4.006509	51	0.0326568
-3.608569	512	0.06851921
-4.006509	512L	0.0326568
-4.006509	516	0.005545195
-3.830418	5200	0.03225702
-4.006509	5298487	0.001997441
-3.705479	56	0.06067706
-4.006509	57	0.02627642
-3.830418	58	0.002479101
-3.830418	59	0.02646021
-4.006509	5toG57j/3"	0.0224656
-2.816177	6	0.1390248
-3.353296	60	0.04283183
-4.006509	60.	0.0006422529
-3.705479	61	0.02793046
-3.830418	62	0.02799389
-3.608569	63	0.05975711
-4.006509	63504	0.02627642
-3.193595	64	0.1366199
-4.006509	64u	0.0326568
-4.006509	65280	0.0326568
-4.006509	65307	0.02627642
-3.830418	65536	0.03225702
-4.006509	65544	0.0004704675
-4.006509	67	0.01105373
-4.006509	6990400	0.02627642
-2.927328	7	0.153755
-4.006509	7.5	0.0326568
-4.006509	7.90055321525613e115	0.02627642
-4.006509	70	0.0326568
-3.830418	74	0.05708333
-4.006509	75	0.001545242
-4.006509	76	0.0326568
-3.608569	768	0.05618103
-4.006509	77	0.02627642
-3.705479	79	0.0678205
-2.599969	8	0.09591539
-4.006509	8.44396048e8	0.02507058
-3.131448	80	0.09898739
-4.006509	8000	0.0224656
-3.705479	81	0.03946276
-4.006509	82	0.02627642
-4.006509	84	0.0326568
-3.705479	85	0.01607485
-3.830418	86400	0.03864897
-4.006509	88	0.0326568
-4.006509	881	0.02507058
-4.006509	8u	0.004612184
-3.052266	9	0.118427
-3.830418	90	0.06122231
-4.006509	91	0.0326568
-3.705479	92	0.06673837
-4.006509	96	-0.0004945602
-3.705479	97	0.009700611
-4.006509	9858122	0.001997441
-4.006509	99	0.005545195
-4.006509	9999	0.005545195
-4.006509	99999	0.0326568
-2.149176	:	0.1050705
-1.214117	;	-0.06663063
-2.16766	<	0.06934533
-1.277344	</s>
-2.529387	<<	0.05597052
-4.006509	<<=	0.002212941
-3.307539	<=	0.002653907
-4.006509	<P~6"	0.0224656
-99	<s>	0.279898
-1.385852	=	0.02115262
-2.559351	==	0.08655659
-2.444216	>	0.1130101
-3.462441	>=	0.03727486
-2.591536	>>	0.04697154
-3.705479	>>=	0.001428397
-2.217634	?	0.0911255
-4.006509	?"	-0.001051156
-2.522209	A	0.1437462
-4.006509	Acce	0.0224656
-4.006509	Alan	-0.001051156
-2.529387	B	0.1801387
-4.006509	BUFSIZ	0.0326568
-2.608569	C	0.2051346
-3.830418	COLS	0.006127015
-2.617343	D	0.2201077
-4.006509	DefaultGC	0.03039689
-4.006509	DefaultVisual	0.03039689
-4.006509	Display	0.01105373
-2.654326	E	0.2013433
-3.228358	EOF	0.0696626
-4.006509	ETIANMSURWDKGOHVF:L:PJBXCYZQ::54:3:::2&:+::::16=/:::(:7:::8:90"	0.0224656
-2.67407	F	0.1851979
-3.529387	FILE	0.008874083
-4.006509	FILENAME_MAX	0.001997441
-3.830418	F_	0.0599123
-2.860381	G	0.0902732
-2.522209	H	0.1813797
-2.522209	I	0.1942595
-3.006509	J	0.150857
-2.522209	K	0.2070339
-4.006509	KrgR'8@c]!%-q9V.3fa[E8X%dY'w!#H	-0.001051156
-2.343751	L	0.2427117
-3.705479	LINES	0.03169602
-4.006509	L_tmpnam	0.0326568
-2.860381	M	0.1539826
-2.727755	N	0.192232
-3.705479	NULL	0.03156561
-2.399054	O	0.2031182
-3.161411	O0	0.04628936
-3.404449	O1	0.1011986
-3.404449	O2	0.06334141
-3.462441	O3	0.08425251
-3.529387	O4	0.03324631
-3.462441	O5	0.07101431
-3.608569	O6	0.04807815
-3.705479	O7	0.07993115
-3.705479	O8	0.03376448
-3.705479	O9	0.01662355
-3.193595	OO	0.09034029
-3.353296	O_	0.02658965
-3.608569	O_o	0.05882248
-2.67407	P	0.1586714
-2.399054	Q	0.2151835
-3.193595	Q0	0.08559568
-3.462441	Q1	0.07829949
-3.404449	Q2	0.0612585
-3.462441	Q3	0.04334289
-3.608569	Q4	0.04447786
-3.608569	Q5	0.04807815
-3.608569	Q6	0.07024311
-3.705479	Q7	0.08130652
-3.705479	Q8	0.07278739
-3.830418	Q9	0.04337474
-3.193595	QO	0.05855598
-3.307539	QQ	0.0974937
-3.462441	Q_	0.02767403
-2.583263	R	0.21084
-4.006509	RAFT	0.0326568
-4.006509	RGB	0.0326568
-4.006509	RootWindow	0.03039689
-2.67407	S	0.1370358
-4.006509	SDL_AudioSpec	-0.0009441736
-4.006509	SDL_BlitSurface	0.03039689
-4.006509	SDL_CreateRGBSurface	0.03039689
-4.006509	SDL_Delay	0.03039689
-4.006509	SDL_Event	-0.0009655721
-4.006509	SDL_FillRect	0.03039689
-4.006509	SDL_Flip	0.03039689
-4.006509	SDL_Init	0.03039689
-4.006509	SDL_LoadWAV	0.03039689
-4.006509	SDL_MixAudio	0.03039689
-4.006509	SDL_OpenAudio	0.03039689
-4.006509	SDL_PauseAudio	0.03039689
-4.006509	SDL_PollEvent	0.03039689
-4.006509	SDL_Rect	0.0224656
-4.006509	SDL_SetVideoMode	0.03039689
-4.006509	SDL_Surface	0.01105373
-3.830418	SEEK_SET	0.03211086
-4.006509	SPEED	0.01105373
-4.006509	Sec	0.005458319
-4.006509	So	-0.0005802367
-2.320767	T	0.2649091
-4.006509	TIMESTEP	0.02507058
-4.006509	TIOCGWINSZ	0.02507058
-4.006509	TMP_MAX	0.0326568
-4.006509	Turing	0.03039689
-4.006509	Type	0.01714585
-2.654326	U	0.1988035
-4.006509	UV_DROP	0.001997441
-4.006509	Uint8Array	0.03039689
-4.006509	Upgrade	0.001997441
-2.567176	V	0.1414697
-2.307539	W	0.2100406
-3.830418	WebSocket	0.03635198
-4.006509	Window	0.001803584
-2.450206	X	0.2365467
-4.006509	XCheckWindowEvent	0.03039689
-4.006509	XCreateImage	0.03039689
-4.006509	XCreateSimpleWindow	0.0224656
-4.006509	XEvent	-0.0004945602
-4.006509	XImage	0.01105373
-4.006509	XLookupKeysym	0.03039689
-4.006509	XMapWindow	0.03039689
-4.006509	XOpenDisplay	0.03039689
-4.006509	XPutImage	0.03039689
-4.006509	XSelectInput	0.03039689
-2.591536	Y	0.18567
-2.751236	Z	0.1793451
-1.818988	[	0.06995067
-4.006509	[-d]	-0.001051156
-4.006509	\""	-0.0009655721
-4.006509	\n\t"	0.02507058
-1.818988	]	0.1003927
-2.860381	^	0.04497417
-3.529387	^=	0.02315547
-1.573539	_	0.1184093
-4.006509	_){putchar(_);}O"	-0.001051156
-3.307539	_0	0.09680039
-3.266146	_O	0.05743379
-3.266146	_Q	0.07867475
-2.444216	__	0.1908965
-4.006509	__LINE__	0.01105373
-3.830418	__STDC_VERSION__	0.001269908
-3.830418	__STDC__	0.05708333
-4.006509	__TIME__	0.02627642
-4.006509	__VA_ARGS__	0.004807299
-3.705479	___	0.06515591
-2.98532	____	0.04497569
-3.830418	_b	0.02985095
-3.830418	_c	0.02985095
-3.830418	_d	0.02985095
-3.608569	_f	0.08763121
-3.830418	_i	0.02985095
-3.830418	_k	0.03262771
-2.084822	a	0.219433
-3.830418	a_	0.02985095
-3.830418	abs	0.02985095
-4.006509	ageX	0.005458319
-3.404449	ala	0.0369989
-2.763471	and	0.05479289
-3.830418	ar	0.0599123
-3.529387	arg	0.04967697
-3.608569	argh	0.09000875
-3.161411	asn	0.04952109
-3.705479	asp	0.02234219
-3.608569	asx	0.057379
-3.830418	au	0.03211086
-2.120018	b	0.2397038
-3.529387	bA	0.07268145
-3.608569	bB	0.08076195
-3.608569	bC	0.05668906
-3.705479	bD	0.05579326
-3.529387	bE	0.06202066
-4.006509	b\nq(%s)\n"	0.0224656
-3.705479	ba	0.0293057
-3.462441	bb	0.08845987
-3.529387	bc	0.02821724
-3.705479	bd	0.05414177
-3.353296	be	0.08783728
-3.193595	bf	0.07817372
-3.608569	bg	0.08250587
-3.705479	bh	0.0293057
-3.830418	bi	0.03874298
-4.006509	binary	-0.0004302916
-3.705479	bj	0.0293057
-3.608569	bk	0.05360971
-3.830418	bl	0.02985095
-3.830418	bm	0.01730303
-3.830418	bn	0.04337474
-3.830418	bo	0.05131068
-3.353296	bp	0.02658965
-3.830418	bq	0.03565124
-3.830418	br	0.02452464
-3.07709	break	0.01815853
-3.705479	bs	0.06067706
-3.462441	bt	0.07247086
-3.462441	bu	0.05540504
-3.608569	buf	0.09771504
-3.830418	bv	0.05310488
-4.006509	bw	0.02507058
-3.830418	bx	0.06122231
-3.462441	by	0.04367812
-3.529387	bz	0.04057168
-2.235657	c	0.171967
-3.608569	calloc	0.02876113
-3.266146	case	-0.003812415
-4.006509	cb	0.02507058
-4.006509	ch	0.0326568
-2.727755	char	0.002162438
-4.006509	close	0.03039689
-2.945811	const	-0.01180741
-4.006509	continue	0.02627642
-3.705479	cos	0.0293057
-4.006509	crea	-0.0004302916
-4.006509	curs_set	0.03039689
-3.462441	cys	0.05673602
-2.103419	d	0.1608615
-4.006509	dA	0.0326568
-4.006509	dB	0.0326568
-4.006509	dC	0.0224656
-4.006509	dat	0.0224656
-4.006509	data	0.0326568
-3.705479	default	0.0009062488
-4.006509	defined	-0.001029762
-3.529387	do	0.02865938
-4.006509	double	0.0224656
-3.830418	dstr	0.03211086
-4.006509	dup	0.03039689
-3.830418	dup2	0.02985095
-2.221179	e	0.2333053
-4.006509	eep	0.02507058
-2.965116	else	0.01886168
-4.006509	elta_u	0.0326568
-4.006509	elta_v	0.0326568
-4.006509	er	0.0224656
-3.529387	err	0.02821724
-4.006509	errx	0.03039689
-3.529387	exit	0.02821724
-3.705479	exp	0.0293057
-3.705479	extern	-0.001607173
-2.207168	f	0.2193694
-4.006509	fabs	0.03039689
-4.006509	fclose	0.03039689
-4.006509	fgetc	0.03039689
-4.006509	fgets	0.03039689
-4.006509	file1	-0.001051156
-4.006509	file2"	0.02507058
-4.006509	flash	0.03039689
-3.404449	float	0.02576939
-4.006509	float_	0.0326568
-4.006509	flu	0.02507058
-3.705479	fopen	0.0293057
-2.45628	for	0.01908635
-4.006509	fputc	0.03039689
-3.705479	fread	0.0293057
-3.462441	free	0.02767403
-4.006509	fscanf	0.03039689
-3.830418	fseek	0.02985095
-4.006509	function	0.03039689
-3.608569	fw	0.03102104
-2.25446	g	0.1673072
-4.006509	getC	-0.0004302916
-4.006509	getch	0.03039689
-3.608569	getchar	0.0577133
-4.006509	getopt	0.03039689
-3.07709	gln	0.07518841
-3.266146	glu	0.05083386
-3.830418	glx	0.01792994
-3.462441	gly	0.02767403
-4.006509	go	0.0326568
-4.006509	goofy	0.0008141061
-3.608569	goto	0.002060103
-2.46869	h	0.2286923
-4.006509	height	0.01714585
-3.404449	his	0.06564631
-4.006509	ho	0.0326568
-4.006509	href	0.00148068
-1.977125	i	0.1814599
-2.462441	if	0.0195893
-3.529387	ile	0.0494587
-4.006509	initscr	0.03039689
-2.404449	int	0.09034517
-4.006509	int_	0.0326568
-4.006509	intw	0.0326568
-4.006509	ioctl	0.03039689
-4.006509	ipt	0.0004704675
-2.214117	j	0.1575902
-4.006509	jmp_buf	-0.0006658963
-2.358149	k	0.2279731
-4.006509	ket	-0.001051156
-3.830418	key	0.003496565
-4.006509	keysym	0.00148068
-2.316313	l	0.2245715
-4.006509	le	0.0326568
-4.006509	lea	0.02507058
-3.608569	leu	0.05039865
-4.006509	location	0.00148068
-2.927328	long	0.03042109
-4.006509	longjmp	0.03039689
-4.006509	lrand48	0.03039689
-3.830418	lu	0.04337474
-3.705479	lv	0.04282949
-3.307539	lys	0.05056728
-2.487995	m	0.2327741
-4.006509	mageData	0.03039689
-3.006509	main	0.04550955
-3.830418	malloc	0.02985095
-4.006509	memcmp	0.03039689
-3.830418	memcpy	0.02985095
-4.006509	memset	0.03039689
-3.307539	met	0.05723464
-4.006509	mva	0.02507058
-4.006509	mvaddstr	0.03039689
-3.830418	mvinch	0.02985095
-4.006509	mvinsch	0.03039689
-2.207168	n	0.2007589
-3.830418	ndif	0.02191966
-3.830418	new	-0.002080914
-2.307539	not	0.08237001
-4.006509	np	0.0326568
-2.084822	o	0.1434758
-4.006509	o(O	-0.001051156
-4.006509	ocket	0.005458319
-4.006509	oec	0.02507058
-3.830418	of	0.03211086
-4.006509	offsetLeft	0.02627642
-4.006509	offsetTop	0.004807299
-4.006509	on	0.001997441
-4.006509	onmousemove	0.01714585
-4.006509	ontext	0.03039689
-3.307539	op	0.07997536
-3.830418	open	0.02985095
-3.462441	optind	0.06212612
-2.224753	p	0.2013922
-4.006509	pageY	0.005458319
-3.608569	phe	0.02876113
-4.006509	pixels	0.02507058
-3.705479	pow	0.0293057
-4.006509	pread	0.03039689
-4.006509	prin	0.0224656
-3.193595	printf	0.02442898
-3.529387	pro	0.07312854
-4.006509	pt	0.001997441
-4.006509	pu	0.02507058
-4.006509	putImageData	0.03039689
-3.353296	putchar	0.02658965
-3.608569	puts	0.02876113
-3.830418	pyl	0.04463574
-2.544111	q	0.2347398
-2.522209	r	0.2070037
-3.830418	rand	0.02985095
-4.006509	rea	0.02507058
-3.830418	read	0.05468703
-3.608569	realloc	0.02876113
-4.006509	refresh	0.03039689
-2.77606	return	0.1153305
-3.830418	rewind	0.02985095
-4.006509	round	0.03039689
-4.006509	rror	-0.001051156
-2.224753	s	0.2367297
-4.006509	scanf	0.03039689
-4.006509	scr	-0.0004302916
-4.006509	script	0.0004704675
-3.307539	sec	0.0475082
-4.006509	send	0.03039689
-3.228358	ser	0.05543949
-4.006509	set	0.03039689
-4.006509	setjmp	0.03039689
-4.006509	shi	0.02507058
-3.830418	short	0.01110522
-3.830418	si	0.02452464
-4.006509	signal	0.03039689
-3.830418	sin	0.02985095
-4.006509	size_t	-0.0009013733
-3.131448	sizeof	0.02267016
-4.006509	slice	0.03039689
-4.006509	sprintf	0.03039689
-4.006509	sqrt	0.03039689
-4.006509	st_mtime	0.02627642
-4.006509	st_size	0.02627642
-3.705479	stat	0.03048616
-3.462441	static	-0.003293901
-3.830418	stdin	0.03211086
-4.006509	stdout	0.0326568
-3.705479	strchr	0.0293057
-4.006509	strcmp	0.03039689
-3.705479	strlen	0.0293057
-4.006509	strrchr	0.03039689
-4.006509	strtol	0.0224656
-3.307539	struct	0.00371938
-4.006509	style	0.01714585
-4.006509	subs	0.0224656
-3.608569	switch	0.02876113
-4.006509	sym	0.02627642
-4.006509	system	0.03039689
-2.363056	t	0.1718311
-4.006509	tch	0.02507058
-4.006509	teI	-0.0004302916
-4.006509	tf	0.03039689
-3.353296	thr	0.02154667
-4.006509	timeout	0.03039689
-3.608569	tla	0.04433358
-4.006509	tmpfile	0.03039689
-4.006509	to	0.02507058
-4.006509	tr	0.03039689
-3.266146	trp	0.1089622
-4.006509	typ	-0.0003445856
-3.830418	type	-0.000440289
-3.131448	typedef	0.01485785
-3.266146	tyr	0.06143921
-2.177205	u	0.1576522
-4.006509	ub	0.02507058
-3.830418	union	0.0001607512
-3.193595	unk	0.08396054
-3.307539	unsigned	-0.00516783
-4.006509	up"	0.0326568
-4.006509	upgrade	0.0224656
-4.006509	usl	0.02507058
-4.006509	usleep	0.03039689
-2.339056	v	0.1773262
-4.006509	va_arg	0.03039689
-4.006509	va_end	0.0224656
-4.006509	va_list	-0.0009869697
-4.006509	va_start	0.03039689
-4.006509	vad	0.02507058
-2.845141	val	0.1479502
-2.876175	void	0.07425228
-4.006509	voidw	0.03039689
-4.006509	volatile	0.0224656
-4.006509	vpr	0.02507058
-2.38326	w	0.2381244
-4.006509	webso	-0.0004302916
-2.945811	while	0.01907386
-4.006509	width	0.01714585
-4.006509	window	0.00148068
-4.006509	world!"	0.0326568
-3.705479	write	0.0293057
-2.325268	x	0.2055513
-4.006509	xkey	0.02507058
-3.830418	xle	0.04463574
-2.644781	xor	0.07827254
-2.329815	y	0.2048375
-2.432477	z	0.1892732
-3.830418	ze	0.02452464
-1.86663	{	0.1028275
-2.626297	|	0.0573861
-3.705479	|=	0.001199294
-2.876175	||	0.07535541
-1.869788	}	0.1527138
-2.802389	~	0.08994297

\2-grams:
-1.904076	! !	0.0005615111
-1.690196	! (	0.001937396
-2.644439	! )
-2.468347	! *
-2.644439	! --
-2.343409	! </s>
-2.644439	! D
-2.644439	! H
-2.644439	! K
-2.100371	! O	0.002734682
-2.468347	! O9	-2.061483e-06
-2.644439	! P
-2.644439	! Q
-2.644439	! Q0
-2.644439	! Q2
-2.343409	! QO	0.0005228549
-2.644439	! _0
-2.343409	! b
-2.644439	! c
-2.468347	! g
-2.468347	! i
-2.468347	! j
-2.644439	! k
-2.468347	! l
-2.644439	! memcmp
-2.644439	! n
-2.644439	! o
-2.644439	! printf
-2.468347	! s
-2.644439	! setjmp
-2.644439	! stat
-2.644439	! strcmp
-2.468347	! t
-2.167317	! u	-0.000380002
-2.343409	! v	0.003240535
-2.468347	! x
-2.644439	! z
-2.610128	!= '
-2.610128	!= -
-2.610128	!= 0
-2.610128	!= B
-2.434036	!= EOF	0.001609222
-2.610128	!= NULL
-2.610128	!= __
-2.434036	!= b	0.006694386
-2.610128	!= bk
-2.610128	!= f
-2.434036	!= gln	0.001589091
-2.434036	!= h	-0.0001257779
-2.610128	!= mvinch
-2.610128	!= sizeof
-2.610128	!= trp
-2.610128	!= u
-2.610128	!= v
-1.961685	" "
-2.614897	" "%d
-2.614897	" %d\n"
-2.614897	" %u/%u
-2.216957	" )	0.07349243
-2.216957	" ,	0.0007837123
-2.614897	" ,101
-2.614897	" </s>
-2.614897	" ETIANMSURWDKGOHVF:L:PJBXCYZQ::54:3:::2&:+::::16=/:::(:7:::8:90"
-2.614897	" Type
-2.614897	" \n\t"
-2.614897	" c
-2.614897	" ipt
-2.614897	" ket
-2.614897	" mageData
-2.614897	" ontext
-2.614897	" teI
-2.599337	"!:E%;!ea!!!WqE0z!f/y}!%!!Qi6!uzt!n}?]!bl!ak!SetR<" </s>
-2.599337	"!pv!;!Hm%Ro4" "n:}nkD!Q!kN"
-2.602602	"" "@CADBEHI"
-2.602602	"" ,
-2.426511	"" :
-2.301573	"" </s>
-2.299398	"#" )	0.02978277
-2.299398	"$" ,
-2.599337	"%." "f\n"
-2.599337	"%c" ,
-2.423792	"%d "
-2.599337	"%d,%dd%d\n" ,
-2.599337	"%d\n" ,
-2.599337	"%da%d,%d\n" ,
-2.599337	"%da%d\n" ,
-2.599337	"%dd%d\n" ,
-2.599337	"%f,%f," ,
-2.601517	"%s" "\",\"%s\",\"%s\"},
-2.203577	"%s" ,	0.0005632016
-2.599337	"('A)" ,
-2.599883	"('A`)" </s>
-2.599883	"('A`)" }
-2.599337	"(A`)" ,
-2.599337	"(O**" </s>
-2.599337	")" )
-2.599337	")$" ;
-2.599337	");" )
-2.599337	"*" ""
-2.599337	"*_[512],**p=_,**d,b,q;for(b=0;b" "++<512;p=_+q)_[q"
-2.599337	"*p=#b,P[9999],*d=P,*e[]=" "{\"%s\",
-2.599337	"++<512;p=_+q)_[q" </s>
-2.599337	"-" ,
-2.599337	"/" )
-2.599337	"/*;; "
-2.599337	"11\x80" [
-2.599337	"258EAFA5-" "E914-47DA-95CA-C5AB0DC85B"
-2.599337	"8!@dP,!!o+fb" </s>
-2.599337	"::::::::::::?_::::\"::.::::@:::'::-::::::::;!:):::::,:::::" ;
-2.600428	";" )
-2.600428	";" :
-2.600428	";" </s>
-2.599337	";;" )
-2.599337	";Gam" "eQover."
-2.599337	";GlockQ18" "C:"
-2.599337	";Heca" "t"
-2.599337	";Time:Q" )
-2.599337	";^Q<d|8=o;]Q<dj8<Pk8<c]'?;QQdi8?P'Q)d8<9`8?c;Qdh8=P']Q<`c8>PQ9_8" </s>
-2.599337	"< "
-2.599337	"<" ,
-2.599337	"<;iQ=/*do<;dQ=ook8?boc;aQ=odr8>oc;_Q<ox8>oc" </s>
-2.599337	"<o_Q<o_QBdo`QQ';`Q=9`]8=bobQ_o_Q<o]8=';bQC(88cQ`bcgQ>oP']8<;cQ>98)^Q?''oc`Q>" </s>
-2.599337	"=(p-_+1)*9%512]=(O*)p;" )
-2.599337	"=:$" ,
-2.299398	"> "	0.001005492
-2.599337	">b;og8=''`Q<`b8?'QQ9_8?c;dPe8dQa8<P]Q<``8=;'f8>QQ`]8?ocQQ_8=''_Q`8aQ" </s>
-2.599337	"?guhljL!^P% ?"
-2.599337	"@" ,
-2.599337	"@+-" ,
-2.599337	"@CADBEHI" )
-2.599337	"C:" "Q"
-2.599337	"CYOUQWIN!]Q=;of8BQQ)88bc]QA98P'Qo]8>oQQ_8CP;QQ98b`_8@P8(Q`]'^Q=`']QB)88" </s>
-2.599337	"E914-47DA-95CA-C5AB0DC85B" "11\x80"
-2.599337	"HTTP/1.1 "
-2.599337	"M@K~|JOEF\\^~_NHI]" ;
-2.599337	"NBLF\1Nblfgjmf\1" ,
-2.203033	"Q" )	0.07403975
-2.599337	"Q(j" "a"
-2.599337	"Q(jam" </s>
-2.599337	"Zj$x!~V!n&g8!cK! KrgR'8@c]!%-q9V.3fa[E8X%dY'w!#H
-2.599337	"\",\"%s\",\"%s\"}, b\nq(%s)\n"
-2.599337	"\40main(){O" ""
-2.599337	"\n" )
-2.599337	"\n\n\n" </s>
-2.599337	"\xe2%c%c\r\n" O_
-2.599337	"a" "m"
-2.599337	"bQQ]`8J;QQ`88bc99bd(`8iQ@''QQo^8E'`8c;QQ'Q``8?QQ`'kQ<o]8B9PQQ`';_Q<`_8<cbQ" </s>
-2.599883	"d" ")"
-2.599883	"d" )
-2.599337	"e.6!r!%l6G!n~^<i=%pEwL%P!'<!FQt%u 5toG57j/3"
-2.599337	"e:| 'b5sc!e"
-2.599337	"eQII:" "Q"
-2.599337	"eQover." </s>
-2.599337	"etu" "rn+0;}\n"
-2.599337	"f\n" ,
-2.599337	"fl!" [
-2.599337	"hello world!"
-2.599337	"laugh" )
-2.599337	"m" "me"
-2.599337	"me" "d"
-2.599337	"med);" )
-2.599337	"n:}nkD!Q!kN" </s>
-2.599337	"o(" )
-2.599337	"oc']Q]8<;cQ>`8bbQA``QQ''`Q?88P;dQ=`)nQ?*/;;" ;
-2.599337	"oid o(O
-2.299943	"r" )	0.03033009
-2.600973	"r" </s>
-2.599337	"rn+0;}\n" )
-2.599337	"syntax_error!" </s>
-2.599337	"t" "eQII:"
-2.599337	"throw up"
-2.599337	"usage: %s
-2.599337	"{;}" :
-2.599337	"{\"%s\", \""
-2.599337	"|~0y'vWtA@:LcO9d}y.!uL!Gd+ml(<+Ds!J" </s>
-2.599337	"}$" :
-2.34094	% (	0.00289948
-2.64197	% .27
-2.64197	% 03
-2.64197	% 1500
-2.465878	% 16
-2.64197	% 176
-2.64197	% 198
-1.766908	% 2	0.02233389
-2.097902	% 3	0.01037569
-2.64197	% 32
-2.64197	% 384
-2.097902	% 4	0.01057413
-2.34094	% 5
-2.64197	% 512
-2.64197	% 6
-2.24403	% 64
-2.64197	% 768
-2.34094	% 8
-2.64197	% 86400
-2.164848	% </s>
-2.465878	% >
-2.64197	% I
-2.64197	% O3
-2.64197	% O4
-2.03991	% Q	0.0006833107
-2.465878	% QQ
-2.64197	% _
-2.465878	% __	0.02685715
-2.64197	% c
-2.64197	% dA
-2.64197	% dB
-2.64197	% dC
-2.465878	% g
-2.64197	% s
-2.64197	% strlen
-2.64197	% w
-2.600973	%= 1
-2.600973	%= 64
-2.600973	%= 8
-2.600973	%= z
-2.599337	%d\n" ,
-2.599337	%s [-d]
-2.599337	%u/%u "
-2.653695	& !
-2.477603	& (
-2.255755	& *	0.0007161386
-2.653695	& --
-2.653695	& 0
-2.653695	& 0x3f0
-2.653695	& 0xf
-2.653695	& 0xfe0
-2.653695	& 0xff00ff00ff
-2.109627	& 1	0.01894658
-2.653695	& 1008
-2.352665	& 1023	0
-2.653695	& 128
-2.653695	& 14
-2.176574	& 15	0.0005384216
-2.477603	& 16
-2.477603	& 16711935
-2.653695	& 16774143
-2.109627	& 3	0.01092369
-2.653695	& 31
-2.653695	& 32
-2.653695	& 4
-2.653695	& 4092
-2.477603	& 4190208	0
-2.653695	& 6
-2.255755	& 63	0
-2.653695	& 64
-2.653695	& 65280
-2.653695	& 7
-2.653695	& 8
-2.653695	& 9
-2.352665	& </s>
-2.653695	& B
-2.653695	& C
-2.653695	& L
-2.477603	& M
-2.653695	& N
-2.477603	& OO
-2.653695	& Q
-2.653695	& S
-2.255755	& _	-0.0003325524
-2.653695	& a
-2.477603	& arg	0.001086397
-2.653695	& asn
-2.653695	& bE
-2.653695	& bn
-2.653695	& bo
-2.653695	& bv
-2.653695	& e
-2.477603	& glu	0.001613278
-2.653695	& h
-2.653695	& i
-2.653695	& k
-2.352665	& not	0.001232604
-2.477603	& o
-2.653695	& p
-2.653695	& r
-2.477603	& tyr	0.0005261822
-2.653695	& u
-2.653695	& v
-2.653695	& w
-2.477603	& x
-2.653695	& y
-2.477603	& z	-0.000136262
-2.477603	& ~	0.002060765
-1.944976	&& !	0.001647951
-1.453614	&& (	0.01175731
-2.467855	&& *
-2.643946	&& ++
-2.643946	&& 0
-2.643946	&& 101
-2.643946	&& 258063
-2.467855	&& </s>
-2.342916	&& A	0.005540766
-2.643946	&& B
-2.643946	&& F
-2.643946	&& G
-2.643946	&& R
-2.643946	&& T
-2.643946	&& Z
-2.643946	&& _
-2.643946	&& _0
-2.342916	&& a	0.001540514
-2.643946	&& b
-2.643946	&& bf
-2.643946	&& bg
-2.643946	&& fscanf
-2.643946	&& g
-2.643946	&& h
-2.643946	&& j
-2.467855	&& n
-2.467855	&& o	0.01168167
-2.643946	&& putchar
-2.643946	&& q
-2.643946	&& r
-2.643946	&& read
-2.246006	&& s	-0.0002079438
-2.246006	&& v	0.001756818
-2.643946	&& x
-2.467855	&& y	0.0008123816
-2.599337	&= z
-2.205204	' '	-8.173869e-06
-2.603144	' )
-2.427053	' </s>
-2.603144	' ||
-2.601517	',' )
-2.203577	',' ,	-0.001631613
-2.599883	'128' height
-2.599883	'128' style
-2.599337	'2d' )
-2.599337	'=' )
-2.423792	'\n' )
-2.071882	'_' )	0.01468356
-1.485616	'_' ,	-0.00825272
-2.599337	'a' ,
-2.599337	'b5sc!e" </s>
-2.599337	'c' width
-2.599337	'd' :
-2.599337	'width:256px;height:256px' </s>
-2.599337	'ws' +
-2.599337	'|' :
-2.114532	( !	0.005575103
-2.86786	( "
-3.043952	( ""
-2.742921	( "#"	0
-3.043952	( "%."
-3.043952	( "%c"
-3.043952	( "%d,%dd%d\n"
-3.043952	( "%d\n"
-3.043952	( "%da%d,%d\n"
-3.043952	( "%da%d\n"
-3.043952	( "%dd%d\n"
-3.043952	( "%s"
-3.043952	( "(O**"
-3.043952	( ");"
-3.043952	( "*"
-3.043952	( "-"
-3.043952	( "/*;;
-2.86786	( ";"
-3.043952	( ";Heca"
-3.043952	( ";Time:Q"
-3.043952	( "<
-3.043952	( "<"
-3.043952	( ">
-3.043952	( "@"
-3.043952	( "@+-"
-3.043952	( "HTTP/1.1
-2.86786	( "Q"	0.001089823
-3.043952	( "\n"
-3.043952	( "hello
-3.043952	( "laugh"
-3.043952	( "o("
-3.043952	( "r"
-3.043952	( "throw
-2.742921	( %
-2.344981	( &	-0.0002364181
-3.043952	( '
-3.043952	( ','
-3.043952	( '2d'
-2.441891	( '_'	0.01007394
-3.043952	( 'ws'
-1.532068	( (	0.02251341
-1.17472	( )	0.2028757
-1.742921	( *	0.02207582
-2.646011	( ++
-2.390739	( -
-3.043952	( .05
-2.86786	( .5
-1.983254	( 0	0.04940486
-3.043952	( 075
-1.913618	( 1	0.03464226
-3.043952	( 10
-2.86786	( 12
-3.043952	( 13
-2.86786	( 16	0.0005021436
-3.043952	( 1912
-3.043952	( 1LL
-2.066228	( 2	0.02631096
-3.043952	( 22
-3.043952	( 24
-3.043952	( 255
-3.043952	( 256L
-2.198853	( 3	0.01028027
-3.043952	( 30
-2.86786	( 32
-3.043952	( 34
-3.043952	( 38
-2.303589	( 4	0.01039587
-3.043952	( 40
-2.86786	( 41	0
-2.86786	( 42	0.001086397
-3.043952	( 45
-2.56683	( 5	0.004637274
-3.043952	( 59
-3.043952	( 6
-2.86786	( 60
-2.86786	( 64	0.001605174
-3.043952	( 67
-3.043952	( 7
-3.043952	( 70
-2.742921	( 8	0.0004253421
-2.56683	( 9
-3.043952	( 97
-3.043952	( 99999
-2.114532	( ;	0.002481697
-1.897823	( </s>
-2.86786	( =	-0.0005715044
-2.441891	( A	0.005439579
-2.499883	( B	0.005966182
-2.089709	( C	0.0007595303
-2.441891	( D	0.002968611
-2.86786	( E	0.004098629
-2.344981	( F	0.0008982886
-2.86786	( FILE	0.001633711
-3.043952	( F_
-2.2658	( H	0.001924143
-2.56683	( I	0.0003008682
-3.043952	( J
-2.344981	( K	0.0121836
-2.198853	( L	0.001963026
-3.043952	( LINES
-2.646011	( M
-2.646011	( N	0.009988273
-2.043952	( O	0.01166469
-3.043952	( O0
-2.646011	( O2	-6.137881e-06
-3.043952	( O3
-3.043952	( O4
-2.86786	( O5
-3.043952	( O6
-2.86786	( OO
-2.742921	( O_o	-2.74484e-06
-2.231038	( P	0.0002919026
-2.2658	( Q	0.008679347
-2.742921	( Q0	0.0005228549
-2.86786	( Q1
-3.043952	( Q2
-3.043952	( Q5
-3.043952	( Q6
-2.742921	( QO	0.0005173923
-3.043952	( QQ
-2.646011	( R	0.002490583
-3.043952	( RAFT
-2.114532	( T	0.01108876
-2.646011	( U	0.001935973
-2.56683	( V
-2.56683	( W	0.01815894
-1.983254	( X	0.006614986
-3.043952	( XCheckWindowEvent
-3.043952	( XMapWindow
-2.646011	( Y	0.0009416606
-2.499883	( Z
-1.410483	( _	0.1527418
-2.56683	( _O	-1.017842e-05
-2.86786	( _Q
-2.56683	( __
-3.043952	( __LINE__
-3.043952	( __STDC_VERSION__
-1.897823	( a	0.02087611
-2.86786	( ala	-1.025549e-05
-1.983254	( and	-0.0001825178
-3.043952	( ar
-2.742921	( argh	-2.056127e-06
-2.646011	( asn	0.003776703
-2.86786	( asp	-2.061483e-06
-3.043952	( asx
-2.198853	( b	0.001053122
-3.043952	( be
-2.86786	( bk	-4.11761e-06
-3.043952	( br
-2.86786	( bu
-2.86786	( buf
-3.043952	( by
-2.2658	( c	0.01516266
-3.043952	( calloc
-3.043952	( cb
-2.390739	( char	0.008903962
-2.742921	( const	-3.820541e-05
-3.043952	( cos
-3.043952	( curs_set
-2.646011	( cys	-8.224044e-06
-2.16889	( d	0.01745211
-3.043952	( dup2
-2.2658	( e	0.00867057
-3.043952	( elta_u
-3.043952	( elta_v
-1.947041	( f	0.01888636
-3.043952	( float_
-3.043952	( flu
-2.114532	( g	0.01459423
-3.043952	( gln
-3.043952	( glu
-2.2658	( h	0.001136035
-1.732198	( i	0.03350146
-2.742921	( ile
-2.16889	( int	0.000721657
-3.043952	( int_
-1.96477	( j	0.01108912
-2.066228	( k	0.01451441
-2.16889	( l	0.01501697
-2.86786	( lys
-2.198853	( m	0.007838285
-3.043952	( memcpy
-3.043952	( memset
-2.56683	( met	-1.911935e-05
-1.882583	( n	0.01800965
-2.022762	( not	0.01723749
-2.140862	( o	0.008471242
-3.043952	( open
-2.198853	( p	0.01446924
-3.043952	( pread
-3.043952	( prin
-3.043952	( printf
-3.043952	( pro
-2.86786	( puts	0.001089823
-2.56683	( q	0.0004124379
-2.56683	( r
-2.303589	( s	0.001108727
-2.86786	( sec	0.001072774
-2.390739	( ser	-1.836801e-05
-3.043952	( short
-2.86786	( sizeof	0.005404352
-3.043952	( stdout
-2.231038	( t	0.01372636
-3.043952	( tch
-3.043952	( tla
-3.043952	( to
-2.441891	( u	0.007154391
-3.043952	( ub
-3.043952	( usl
-2.089709	( v	0.007941994
-3.043952	( va_arg
-3.043952	( val
-2.86786	( void
-2.066228	( w	0.002861662
-2.16889	( x	0.01356373
-2.390739	( xor	0.0003536963
-2.140862	( y	0.005366718
-2.499883	( z	0.01512692
-2.86786	( ze	0
-3.043952	( {
-3.043952	( }
-3.043952	( ~
-2.585649	) !=	-3.213168e-05
-3.06277	) "\xe2%c%c\r\n"
-2.133351	) %	0.007992633
-2.46071	) &
-2.041581	) &&	0.01112731
-1.720347	) (	0.06712416
-1.148956	) )	0.234251
-1.419317	) *	0.02745081
-2.518702	) *=	0.0008614631
-1.784016	) +	0.01362902
-2.409557	) +=	0.002114864
-1.3552	) ,	0.1083886
-1.96586	) -	0.005237444
-3.06277	) --
-2.585649	) -=
-2.886679	) .	0.002662467
-2.15968	) /	0.007105615
-3.06277	) 0
-3.06277	) 0u
-2.886679	) 16u	0
-2.886679	) 1u
-3.06277	) 64u
-3.06277	) 8u
-1.85865	) :	0.01677205
-0.793257	) ;	0.1388885
-2.409557	) <	-0.0002258839
-1.524951	) </s>
-2.3638	) <<	0.00134936
-2.585649	) =	0.0113636
-2.66483	) ==
-2.46071	) >	0.00185641
-2.76174	) >=
-2.585649	) >>	0.003511007
-2.15968	) ?	0.001472741
-2.585649	) B	0.002879444
-2.409557	) G	0.005814922
-2.886679	) J	0.002115624
-2.886679	) L
-3.06277	) O5
-2.66483	) O_	0.002171478
-3.06277	) P
-2.886679	) Q
-3.06277	) Q_
-3.06277	) R
-3.06277	) S
-3.06277	) W
-3.06277	) Y
-2.518702	) [	0.002729156
-1.673604	) ]	0.0343645
-2.886679	) ^
-2.284619	) _	0.04250156
-2.886679	) __	0.02685715
-3.06277	) ___
-2.085046	) ____	0.001068374
-3.06277	) _d
-3.06277	) _f
-2.886679	) a
-2.886679	) asx
-2.886679	) b
-2.886679	) bd	-2.061483e-06
-2.76174	) break	0.007026698
-3.06277	) bt
-3.06277	) by
-3.06277	) c
-3.06277	) continue
-3.06277	) d
-2.886679	) e	0.00698877
-3.06277	) err
-2.76174	) exit	0.001088458
-2.322407	) for	0.02907256
-3.06277	) g
-3.06277	) glx
-2.886679	) h
-2.66483	) i
-2.66483	) if	0.03291396
-2.886679	) int
-3.06277	) j
-3.06277	) k
-2.76174	) l	0.0008061636
-3.06277	) lys
-3.06277	) m
-3.06277	) n
-2.886679	) not
-3.06277	) o
-3.06277	) printf
-3.06277	) putchar
-2.886679	) q
-2.66483	) r	0.003994534
-2.886679	) return
-2.585649	) s	0.008947631
-3.06277	) scanf
-3.06277	) sec
-2.76174	) tyr
-2.76174	) u	0.01311771
-2.886679	) v
-2.76174	) w	0.007833639
-3.06277	) x
-2.76174	) z
-1.015495	) {	0.01710793
-2.518702	) |	0.003540984
-2.66483	) ||	0.001540918
-3.06277	) ~
-2.353147	* !	0.007321132
-1.441102	* (	0.04871555
-2.089905	* )	0.006724892
-1.98517	* *	0.0003127152
-2.353147	* ++	0.0005697466
-2.830268	* -
-2.529238	* --
-2.830268	* .1
-2.830268	* .5
-2.654176	* 0
-2.830268	* 1
-2.830268	* 1.6937441874215991e190
-2.432328	* 10	-2.028258e-05
-2.830268	* 11
-2.830268	* 1103515245
-2.830268	* 12
-2.432328	* 16	0.0005062612
-2.830268	* 17
-2.830268	* 193
-2.131298	* 2	0.01864462
-2.353147	* 3	0.001375268
-2.830268	* 32
-2.830268	* 39
-1.955207	* 4	0.01347309
-2.830268	* 4.522871578970112e217
-2.830268	* 4.6727004911171048e-153
-2.654176	* 42
-2.830268	* 51
-2.830268	* 512L
-2.830268	* 5298487
-2.830268	* 6
-2.654176	* 7
-2.830268	* 7.90055321525613e115
-2.654176	* 768	-4.11761e-06
-2.529238	* 8
-2.089905	* 80	0.0005174931
-2.830268	* 81
-2.830268	* 85
-2.830268	* 881
-2.654176	* 9
-2.830268	* 92
-1.733358	* </s>
-2.432328	* A	0.001938699
-2.654176	* B
-2.432328	* C	0.001383814
-2.830268	* D
-2.228208	* E	0.001491068
-2.654176	* H
-2.353147	* I	0.006470223
-2.228208	* K	0.001881713
-2.432328	* L	0.002803402
-2.830268	* L_tmpnam
-2.353147	* N	0.00251358
-2.529238	* O	0.004366348
-2.353147	* O0	-2.71108e-05
-2.654176	* O3
-2.830268	* O4
-2.654176	* O6
-2.089905	* Q	0.01592755
-2.830268	* Q0
-2.830268	* Q1
-2.830268	* Q2
-2.432328	* Q3	-4.096539e-06
-2.830268	* Q5
-2.830268	* Q7
-2.830268	* Q9
-2.830268	* QO
-2.654176	* QQ	0.0005288863
-2.654176	* R
-2.654176	* S
-1.699934	* T	0.007444626
-2.830268	* U
-2.830268	* V
-2.654176	* W
-2.177055	* X	0.004439489
-2.353147	* Y	-8.909393e-05
-1.852544	* _	0.02864671
-2.432328	* _0
-2.830268	* _O
-2.654176	* __	0.02685715
-2.830268	* ___
-2.017354	* a	0.008755344
-2.089905	* b	0.005624996
-2.830268	* bD
-2.830268	* ba
-2.529238	* bb	-6.152666e-06
-2.830268	* be
-2.830268	* br
-2.830268	* bx
-2.529238	* c
-2.353147	* const	-6.845174e-05
-1.98517	* d	0.01661497
-2.052117	* e	0.01838466
-2.089905	* f	0.01334377
-2.131298	* g	0.007311196
-2.432328	* i
-2.529238	* j
-2.432328	* k	0.00631493
-2.432328	* l
-2.654176	* m
-2.2862	* n	0.01255544
-2.353147	* not	0.01819562
-1.626148	* o	0.02352823
-1.699934	* p	0.0206104
-2.830268	* printf
-1.98517	* q	0.005938759
-2.353147	* s	-0.0002058928
-2.830268	* sin
-2.432328	* sizeof	0.00540847
-2.529238	* t
-2.654176	* tyr
-1.955207	* u	0.007958604
-2.654176	* x
-2.353147	* y	0.004225263
-2.654176	* z
-2.623249	*= !
-2.447158	*= (
-2.447158	*= -	0.01572614
-2.623249	*= 0
-2.623249	*= 0.7
-2.623249	*= 02
-2.322219	*= 1	0.006331112
-2.623249	*= 256
-2.623249	*= C
-2.623249	*= I
-2.079181	*= Q	0.007765074
-2.447158	*= Y	0.00249137
-2.623249	*= _
-1.970037	*= g	0.006758432
-1.882887	*= o	0.005012523
-2.447158	*= s	0.003618565
-2.623249	*= t
-2.623249	*= u
-2.623249	*= z
-2.599337	*m,!*m?H:" upgrade
-2.547364	+ !
-2.723456	+ "fl!"
-1.456284	+ (	0.01790033
-2.547364	+ )	0.04242957
-2.422426	+ *
-2.547364	+ 0
-2.723456	+ 0.5
-1.547364	+ 1	0.05155513
-2.723456	+ 1.5
-2.723456	+ 11
-2.723456	+ 12
-2.723456	+ 128L
-2.723456	+ 138
-2.547364	+ 16
-2.723456	+ 18
-2.723456	+ 19205553
-1.983093	+ 2	0.02810214
-2.723456	+ 20
-2.723456	+ 287
-2.723456	+ 2L
-2.179388	+ 3	0.006403262
-2.723456	+ 32
-2.547364	+ 4	0.01056592
-2.723456	+ 4.5
-2.723456	+ 42
-2.723456	+ 44
-2.723456	+ 4L
-2.422426	+ 5	0.0009831573
-2.547364	+ 512
-2.723456	+ 58
-2.723456	+ 6
-2.547364	+ 7
-2.723456	+ 74
-2.723456	+ 79
-2.547364	+ 8
-2.723456	+ 84
-2.723456	+ 86400
-1.983093	+ </s>
-2.723456	+ A
-2.547364	+ B	0.002966704
-2.723456	+ C
-2.723456	+ E
-2.723456	+ EOF
-2.422426	+ F
-2.422426	+ H
-2.723456	+ J
-2.422426	+ N	0.007859861
-2.723456	+ O4
-2.723456	+ P
-2.723456	+ Q0
-2.723456	+ Q5
-2.723456	+ R
-2.723456	+ T
-2.723456	+ TMP_MAX
-2.723456	+ V
-2.723456	+ X
-2.723456	+ Y
-2.179388	+ _	0.01229592
-2.723456	+ _Q
-2.422426	+ __	0.0263119
-2.547364	+ __STDC__
-2.121396	+ a	0.009509538
-2.723456	+ abs
-2.723456	+ asn
-2.723456	+ b
-2.325516	+ c
-2.723456	+ cos
-2.723456	+ d
-2.422426	+ e
-2.547364	+ f
-2.325516	+ g	0.0002858976
-1.878358	+ i	0.005090272
-2.547364	+ j	0.0007346171
-2.422426	+ k	0.006312874
-2.422426	+ l
-2.723456	+ location
-2.422426	+ m
-2.246334	+ n	0.001211023
-2.121396	+ o
-2.547364	+ p
-2.179388	+ s	-0.0004091382
-2.422426	+ t	-0.0001564265
-2.325516	+ u	0.01488026
-2.723456	+ unk
-2.723456	+ v
-2.325516	+ x	0.0112552
-2.723456	+ y
-2.422426	+ z	0.000827326
-2.422426	+ ~
-2.259116	++ %	0.001250114
-2.657056	++ &
-2.657056	++ &&
-1.635867	++ )	0.1864759
-2.480965	++ *
-2.657056	++ +=
-2.179935	++ ,
-2.480965	++ -
-2.480965	++ :	0.004898009
-1.878905	++ ;	0.1018547
-2.112988	++ <
-2.259116	++ </s>
-2.657056	++ <=
-2.003843	++ =	0.001842813
-2.657056	++ ==
-2.657056	++ ?
-2.480965	++ N
-2.259116	++ T	0.0007553536
-2.003843	++ ]	0.04410317
-2.480965	++ c
-2.657056	++ f
-2.657056	++ g
-2.356026	++ i	0.005648046
-2.657056	++ ile
-2.259116	++ j
-2.657056	++ l
-2.657056	++ leu
-2.657056	++ n
-2.356026	++ not	0.01928408
-2.657056	++ p
-2.657056	++ q
-2.480965	++ tla	-4.11761e-06
-2.657056	++ u
-2.657056	++ v
-2.112988	++ xor	0.0003441367
-2.599337	+99*! *m,!*m?H:"
-2.257198	+= !	0.0003383068
-2.655138	+= 'a'
-1.842225	+= (	0.009285227
-2.655138	+= .05
-2.655138	+= .1
-2.655138	+= 0.5
-2.354108	+= 1	0.01217877
-2.655138	+= 1.5
-2.655138	+= 16
-2.655138	+= 194
-2.257198	+= 2	0.0167346
-2.655138	+= 4
-2.655138	+= 4u
-2.655138	+= 5
-2.655138	+= 7
-2.655138	+= A
-2.479047	+= E	0.002526046
-2.479047	+= F	0.0004430708
-2.257198	+= H	0.003932172
-2.655138	+= K
-2.655138	+= M
-2.257198	+= O1
-2.655138	+= O8
-2.655138	+= Q
-2.479047	+= U
-2.655138	+= UV_DROP
-2.479047	+= V	0.003511953
-2.354108	+= Y	0.0004228946
-2.655138	+= _
-2.354108	+= a	0.004283436
-2.479047	+= be	0.001621421
-2.479047	+= bf	0.001062646
-2.655138	+= bt
-2.655138	+= c
-2.354108	+= d	0.008039171
-2.479047	+= e	0.007473204
-2.257198	+= g	0.01002385
-2.655138	+= h
-2.178017	+= i	0.01040863
-2.178017	+= l	0.005193948
-1.956168	+= o	0.001660418
-2.479047	+= p
-2.655138	+= printf
-2.655138	+= r
-2.479047	+= s	0.001220466
-2.479047	+= u
-2.655138	+= v
-2.354108	+= w	0.002294734
-2.995635	, !
-2.995635	, "
-2.995635	, ""
-2.694605	, "$"	0
-2.694605	, "%s"	0.0005411431
-2.995635	, "('A)"
-2.995635	, "('A`)"
-2.995635	, "(A`)"
-2.995635	, "=:$"
-2.819544	, ">	0.0005452534
-2.995635	, "d"
-2.694605	, "r"	-2.74484e-06
-2.995635	, "usage:
-2.150537	, &	-0.000169031
-2.597695	, ','	0.000543888
-1.881692	, '_'	0.003696145
-2.066216	, (	0.002301002
-2.296665	, )	0.00605012
-1.683881	, *	0.02830241
-2.694605	, ++	0.000760279
-2.597695	, -	0.01518363
-2.995635	, --
-2.694605	, ...	0
-1.511335	, 0	0.02679241
-2.995635	, 0x98BADCFE
-2.995635	, 0xEFCDAB89
-1.898725	, 1	0.02216024
-2.995635	, 1.3
-2.995635	, 128
-2.694605	, 16	0.001570371
-2.255272	, 2	0.02351178
-2.995635	, 24
-2.995635	, 256
-2.518514	, 3	0.001375268
-2.995635	, 3.9999e5
-2.995635	, 30
-2.995635	, 308438
-2.694605	, 32	0.001021678
-2.995635	, 3285377520
-2.995635	, 4
-2.995635	, 5
-2.819544	, 6	0.003662927
-2.995635	, 60
-2.995635	, 65544
-2.819544	, 8
-2.995635	, 85
-2.995635	, 9
-1.597695	, </s>
-2.819544	, =	-0.0008388447
-2.518514	, A	0.007539278
-2.518514	, B	0.003396153
-2.255272	, C	0.004484706
-2.694605	, D
-2.995635	, DefaultGC
-2.995635	, DefaultVisual
-2.694605	, E	0.001482874
-2.995635	, EOF
-2.451567	, F	0.0004053256
-2.995635	, F_
-2.819544	, G	0.002612732
-2.597695	, H	0.005973883
-2.518514	, I	0.003419502
-2.694605	, J
-2.150537	, K	0.003734197
-2.694605	, L	0.0008227803
-2.694605	, M
-2.819544	, N
-2.120574	, O	0.007195272
-2.451567	, O0	0.001050408
-2.995635	, O1
-2.819544	, O2
-2.995635	, O3
-2.995635	, O4
-2.819544	, O5
-2.995635	, O6
-2.995635	, O7
-2.995635	, O8
-2.995635	, O9
-2.819544	, OO
-2.819544	, P
-2.182722	, Q	0.007826783
-2.597695	, Q0	0.0005105534
-2.819544	, Q1
-2.694605	, Q2	-8.194009e-06
-2.995635	, Q3
-2.694605	, Q4
-2.995635	, Q5
-2.819544	, Q6
-2.995635	, Q7
-2.995635	, Q8
-2.995635	, Q9
-2.694605	, QO	-1.832203e-05
-2.995635	, QQ
-2.995635	, RootWindow
-2.451567	, S
-2.819544	, SEEK_SET	0
-2.451567	, T	-0.0002761232
-2.995635	, TIOCGWINSZ
-2.597695	, U	0.001460606
-2.995635	, V
-2.393575	, W	0.002556774
-2.995635	, X
-2.819544	, Y
-0.8969915	, _	0.02970397
-2.995635	, _0
-2.694605	, _O	-1.428556e-05
-2.694605	, _Q	-1.428556e-05
-2.182722	, __	0.02411215
-2.995635	, __VA_ARGS__
-2.995635	, _f
-2.995635	, _i
-2.120574	, a	0.0100253
-2.995635	, a_
-2.995635	, ar
-2.995635	, arg
-2.819544	, au	0
-2.182722	, b	0.01325387
-2.819544	, bA
-2.819544	, bB
-2.819544	, bC
-2.819544	, bD
-2.995635	, bb
-2.995635	, be
-2.819544	, bf	0.001062646
-2.995635	, bg
-2.995635	, bi
-2.995635	, bo
-2.995635	, bq
-2.995635	, bt
-2.995635	, bu
-2.995635	, bv
-2.819544	, bz
-2.182722	, c	0.009120495
-2.995635	, ch
-2.255272	, char	0.008369597
-2.597695	, const	0.0031564
-1.954242	, d	0.03211861
-2.995635	, do
-2.819544	, dstr	0
-2.995635	, dup
-2.120574	, e	0.01431098
-2.995635	, eep
-2.296665	, f	0.01087288
-2.995635	, fopen
-2.995635	, fw
-2.451567	, g	0.01374362
-2.819544	, gln	0.001589091
-2.694605	, glu	0.001615339
-2.995635	, go
-2.393575	, h	-0.0002318856
-2.995635	, ho
-1.765186	, i	0.01888905
-2.393575	, int	0.000864894
-2.995635	, intw
-2.995635	, ioctl
-2.041393	, j	0.01921716
-2.255272	, k	0.004152965
-2.217484	, l	0.01389931
-2.995635	, le
-2.995635	, lea
-2.995635	, longjmp
-2.819544	, lu
-2.819544	, lv
-2.995635	, lys
-2.217484	, m	0.007869448
-1.995635	, n	0.03127812
-2.995635	, np
-2.066216	, o	0.01888192
-2.995635	, oec
-2.819544	, of	0
-2.995635	, op
-2.066216	, p	0.01984749
-2.995635	, pow
-2.995635	, pu
-2.694605	, q
-2.255272	, r	0.006396916
-2.995635	, rand
-2.296665	, s	0.00428977
-2.995635	, shi
-2.819544	, si	0
-2.597695	, sizeof	0.004314529
-2.995635	, sprintf
-2.995635	, stdin
-2.995635	, strlen
-2.017912	, t	0.007356973
-1.974446	, u	0.02364218
-2.995635	, unk
-2.995635	, usleep
-2.518514	, v	0.004239827
-2.995635	, vad
-2.995635	, val
-2.995635	, vpr
-2.255272	, w	0.01080601
-2.995635	, write
-2.092545	, x	0.01193675
-2.296665	, y	0.002553117
-2.597695	, z
-2.995635	, ~
-2.599337	,101 +99*!
-2.563085	- &
-1.926263	- (	0.01037369
-2.438147	- *
-2.739177	- .05
-2.739177	- 0.5
-1.406738	- 1	0.0474536
-2.739177	- 1.3
-2.739177	- 12
-2.739177	- 128
-2.739177	- 14202379
-2.739177	- 158
-2.739177	- 19
-2.739177	- 1933008
-2.195109	- 2	0.01416274
-2.739177	- 205
-2.739177	- 22
-2.739177	- 24
-2.739177	- 257
-2.085964	- 3	0.01508921
-2.739177	- 30
-2.739177	- 304
-2.438147	- 32	0.002077915
-2.563085	- 33	0
-2.739177	- 35
-2.739177	- 37
-2.739177	- 4
-2.739177	- 488848
-2.739177	- 4u
-2.739177	- 5
-2.739177	- 508
-2.739177	- 59
-2.262055	- 6	0.0004796473
-2.739177	- 60
-2.739177	- 64
-2.563085	- 7
-2.739177	- 7.5
-2.563085	- 8
-2.438147	- 9	0.00266749
-2.563085	- 90
-2.040207	- </s>
-2.563085	- A
-2.739177	- Acce
-2.563085	- B
-2.438147	- D
-2.563085	- E
-2.438147	- EOF
-2.739177	- F
-2.341237	- H
-2.438147	- I	0.005024056
-2.739177	- K
-2.739177	- L
-2.739177	- M
-2.739177	- O1
-2.739177	- O7
-2.563085	- OO	-2.038351e-05
-2.739177	- P
-2.563085	- Q
-2.739177	- Q0
-2.739177	- QO
-2.739177	- R
-2.563085	- V
-2.438147	- W	0.0003118798
-2.739177	- WebSocket
-2.739177	- X
-2.739177	- Y
-2.438147	- _	0.01338027
-2.739177	- _O
-2.739177	- _Q
-1.998814	- __	0.02412367
-2.195109	- a	0.003110611
-2.563085	- asn	0.004866526
-2.195109	- b	0.0002066203
-2.137117	- c	0.001720321
-2.262055	- d	0.008191569
-2.739177	- dup2
-2.438147	- e
-2.085964	- f	0.009571639
-2.438147	- g	0.01002179
-2.438147	- h
-1.998814	- i	0.01216745
-2.195109	- j	0.00485734
-2.195109	- k	0.0003424033
-2.739177	- key
-2.739177	- l
-2.438147	- m
-2.195109	- n	0.006350142
-2.438147	- o	0.003825077
-2.262055	- p	0.0002710917
-2.739177	- q
-2.739177	- r
-2.563085	- s
-2.341237	- u	0.00823739
-2.262055	- unk	0.002146315
-2.195109	- v	0.003149994
-2.563085	- x	0.004262288
-1.894079	- ~	0.001512794
-2.624798	-- &&
-1.925828	-- )	0.04089141
-2.448706	-- ,	0.05723031
-2.624798	-- 1954
-1.884435	-- ;	0.006570946
-2.448706	-- </s>
-2.448706	-- =
-2.624798	-- >
-2.624798	-- E
-2.624798	-- H
-2.448706	-- O
-2.624798	-- R
-2.080729	-- T	0.0001598187
-2.448706	-- [
-2.624798	-- g
-2.448706	-- j
-2.624798	-- q
-2.624798	-- s
-2.624798	-- v
-2.624798	-- val
-2.624798	-- xor
-2.319627	-= (
-2.620656	-= 061
-2.620656	-= 2
-2.620656	-= 4
-2.620656	-= 80
-2.620656	-= </s>
-2.620656	-= D
-2.620656	-= F
-2.319627	-= H	0.004476741
-2.620656	-= V
-2.620656	-= W
-2.444565	-= be	0.001621421
-2.444565	-= bf	0.001062646
-2.444565	-= d	0.008037109
-2.620656	-= e
-2.444565	-= f	0.008399294
-2.222717	-= g	0.003122774
-2.620656	-= h
-2.620656	-= i
-2.222717	-= l	0.004643895
-2.620656	-= r
-2.620656	-= t
-2.319627	-= u	0.001650528
-2.444565	-= w	0.002839988
-2.24005	-> a	0.007969878
-1.825076	-> b	0.008012731
-2.63799	-> c
-1.762928	-> j	0.01571144
-2.03593	-> n	0.02034158
-2.24005	-> not
-2.24005	-> op	-1.02038e-05
-2.63799	-> pixels
-2.33696	-> val
-1.859838	-> x	0.02069259
-1.859838	-> y	0.01000339
-2.33696	-> z
-2.659441	. </s>
-2.006228	. _	-0.0002151919
-2.659441	. binary
-1.881289	. c	0.01352484
-2.659441	. crea
-2.659441	. dat
-2.659441	. data
-2.261501	. e	0.007477322
-2.659441	. getC
-2.659441	. href
-2.659441	. key
-2.659441	. keysym
-1.392269	. not	0.002246838
-2.659441	. offsetLeft
-2.659441	. offsetTop
-2.659441	. onmousemove
-2.18232	. p	-0.0002058928
-2.659441	. pageY
-2.659441	. putImageData
-2.261501	. q	0.006528526
-2.659441	. send
-2.659441	. set
-2.659441	. slice
-2.659441	. st_mtime
-2.659441	. st_size
-2.659441	. subs
-2.659441	. sym
-2.48335	. t
-2.659441	. type
-1.730022	. val	0.002038381
-2.659441	. xkey
-1.919078	. y	0.008101494
-2.424337	... )	0.04242957
-2.600428	... </s>
-2.600428	.05 )
-2.600428	.05 ;
-2.600428	.05 </s>
-2.424337	.1 )
-2.600428	.1 :
-2.599337	.27 s
-2.600428	.5 *
-2.600428	.5 -
-2.600428	.5 </s>
-2.038421	/ (
-2.640481	/ +
-2.640481	/ -
-2.640481	/ 1024.
-2.640481	/ 12
-1.711063	/ 2	0.02905315
-2.46439	/ 2.	0
-2.640481	/ 20
-2.640481	/ 24
-2.640481	/ 26
-2.46439	/ 3
-2.640481	/ 32768
-1.987269	/ 4	0.002761623
-2.242541	/ 5	0.006275103
-2.640481	/ 504
-2.640481	/ 60
-2.640481	/ 60.
-2.640481	/ 768
-2.242541	/ 8	0.004036732
-2.640481	/ 85
-2.640481	/ 88
-2.640481	/ </s>
-2.46439	/ I
-2.640481	/ O3
-2.339452	/ Q	0.002857506
-2.640481	/ QQ
-2.46439	/ _	0.01392552
-2.242541	/ f	0.002161372
-2.640481	/ fabs
-2.640481	/ g
-2.640481	/ j
-2.640481	/ k
-2.640481	/ n
-2.46439	/ p
-2.640481	/ scr
-2.640481	/ w
-2.602602	/= ++
-2.426511	/= 2
-2.602602	/= H
-2.602602	/= c
-2.602602	/= l
-2.602602	/= z
-2.420781	0 &&
-1.183992	0 )	0.1523115
-2.721811	0 +
-1.2235	0 ,	0.01983532
-1.700621	0 :	0.0144381
-1.183992	0 ;	0.1609851
-2.068598	0 <	0.001106234
-2.545719	0 </s>
-2.721811	0 ==
-2.545719	0 >
-1.981448	0 ?	0.003080832
-1.981448	0 ]	0.0423544
-2.721811	0 m
-2.545719	0 ||
-2.545719	0 }
-2.600428	0.5 *
-2.424337	0.5 ;
-2.599337	0.7 ;
-2.599337	01 ]
-2.599337	02 </s>
-2.599337	024 )
-2.599337	03 ;
-2.599337	040 )
-2.599337	061 *
-2.599337	075 )
-2.599883	0u ,
-2.599883	0u ;
-2.599337	0x1 !=
-2.599337	0x3f0 )
-2.599337	0x67452301 ,
-2.599337	0x820008202625a0 ;
-2.599337	0x98BADCFE </s>
-2.599337	0xEFCDAB89 ,
-2.599337	0xf |
-2.599337	0xfc0 ||
-2.599337	0xfe0 ^
-2.599337	0xff00ff00ff ;
-2.599337	0xffff )
-2.393575	1 &	0.001263937
-2.393575	1 &&
-1.323537	1 )	0.2359466
-2.694605	1 *
-2.296665	1 +
-1.504274	1 ,	0.02006696
-1.740363	1 -	7.149298e-05
-2.217484	1 :	0.008210407
-1.504274	1 ;	0.09604476
-2.694605	1 </s>
-1.995635	1 <<	-9.545358e-05
-2.518514	1 ==	0.0004111008
-2.393575	1 ?
-2.694605	1 A
-2.393575	1 [
-1.477121	1 ]	0.07414245
-2.694605	1 ^
-2.518514	1 |
-2.393575	1 }	0.001630641
-2.599337	1.159922023e9 ,
-2.599883	1.3 ,
-2.599883	1.3 </s>
-2.423792	1.5 ;
-2.599337	1.6937441874215991e190 ;
-2.305351	10 )
-2.606381	10 *
-2.43029	10 +	0.001243072
-2.43029	10 ,
-2.606381	10 /
-2.606381	10 :
-2.606381	10 ;
-2.606381	10 R
-2.606381	10 ||
-2.606381	10 }
-2.599337	1008 )
-2.599337	101 ==
-2.600428	1023 )
-2.424337	1023 |	0.0009498381
-2.599337	1024 /
-2.599337	1024. ;
-2.424337	11 )
-2.600428	11 ;
-2.599337	1103515245 &
-2.599337	112 ,
-2.603686	12 &
-2.427594	12 )
-2.603686	12 +
-2.427594	12 -
-2.427594	12 </s>
-2.603686	12 >
-2.599337	123 :
-2.599337	12359778 ;
-2.599337	12365733 -
-2.599337	124 -
-2.599337	127 ;
-2.600973	128 &&
-2.424882	128 )	0.07458226
-2.600973	128 ,
-2.599337	128L +
-2.599883	13 ,
-2.599883	13 ?
-2.599337	13000 ;
-2.599337	138 )
-2.20412	14 &
-2.60206	14 ]
-2.60206	14 ^
-2.599337	14202379 *
-2.423792	14695981039346656037ULL ;	0.1029207
-2.426511	15 )	5.47464e-05
-2.301573	15 ,
-2.602602	15 ;
-2.602602	15 |
-2.599337	1500 ?
-2.599337	158 )
-2.609061	16 &&
-2.064992	16 )	0.07404522
-2.308031	16 *
-2.609061	16 +
-2.308031	16 ,
-2.609061	16 /
-2.308031	16 ;	0.1029228
-2.609061	16 >
-2.599337	1600 &&
-2.424337	16711935 ;	0.002653722
-2.600428	16711935 |
-2.599337	16774143 ;
-2.423792	16u )
-2.423792	17 +
-2.599337	176 /
-2.601517	18 )
-2.601517	18 ,
-2.601517	18 </s>
-2.601517	18 ?
-2.601517	18 ]
-2.599337	19 )
-2.599337	1912 --
-2.599337	19205553 ;
-2.599337	193 +
-2.599337	1933008 </s>
-2.599337	194 ,
-2.599337	1954 )
-2.599337	196 -
-2.599337	197 )
-2.599337	198 ;
-2.599883	1LL +
-2.599883	1LL <<
-2.599883	1u )
-2.599883	1u ,
-2.660391	2 %
-2.359361	2 &
-1.370356	2 )	0.2425603
-1.757301	2 *	0.01956872
-2.18327	2 +	0.01085884
-1.660391	2 ,	0.01797943
-2.4843	2 -
-1.78533	2 ;	0.1382246
-2.660391	2 </s>
-2.116323	2 ?
-1.815293	2 ]	0.03996743
-2.359361	2 ||
-2.660391	2 }
-2.423792	2. )	0.001377376
-2.599337	2.271681097355226e15 ,
-2.603144	20 %
-2.427053	20 )
-2.603144	20 *
-2.427053	20 </s>
-2.427053	20 ?
-2.599337	204 ]
-2.599337	205 )
-2.599883	22 )
-2.599883	22 *
-2.599337	23 ;
-2.599337	234 ;
-2.426511	24 )
-2.602602	24 ,
-2.602602	24 ;
-2.426511	24 </s>
-2.602602	24 ]
-2.599337	25 ;
-2.599337	250 ,
-2.602602	255 )
-2.602602	255 ,
-2.602602	255 -
-2.602602	255 :
-2.426511	255 ;
-2.602602	255 ?
-2.424882	256 ,
-2.600973	256 -
-2.600973	256 ;
-2.599337	256L +
-2.599337	257 ,
-2.599337	258063 &
-2.599883	26 ,
-2.599883	26 ]
-2.599337	27 )
-2.599337	275 )
-2.599337	276 )
-2.599337	28 &
-2.599337	287 )
-2.599337	2L )
-2.461899	3 &
-1.63799	3 )	0.1333035
-1.984777	3 *
-2.160869	3 +	0.004596527
-2.03593	3 ,	0.05724057
-2.24005	3 -	0.002741039
-2.461899	3 :
-1.984777	3 ;
-2.63799	3 </s>
-2.63799	3 ?
-2.63799	3 A
-2.63799	3 B
-1.708571	3 ]	0.06091996
-2.599337	3.135045272e9 ,
-2.599337	3.9999e5 )
-2.602602	30 &&
-2.602602	30 *
-2.602602	30 +
-2.426511	30 ;
-2.602602	30 ?
-2.602602	30 ]
-2.599337	304 -
-2.599337	308438 *
-2.600973	31 )
-2.299943	31 ;
-2.010194	32 )	0.07459251
-2.311224	32 +	0.01382211
-2.214314	32 ,
-2.612254	32 -
-2.612254	32 :
-2.214314	32 ;	0.1029248
-2.436163	32 <<	0.002452443
-2.436163	32 ]	0.01198302
-2.612254	32 |
-2.599883	32768 )
-2.599883	32768 ,
-2.599337	3285377520 }
-2.423792	33 )
-2.599883	333 *
-2.599883	333 ;
-2.599337	3352537 *
-2.599337	34 m
-2.601517	35 )
-2.601517	35 -
-2.601517	35 :
-2.601517	35 ?
-2.601517	35 R
-2.423792	36 :
-2.599883	37 +
-2.599883	37 ;
-2.599883	38 )
-2.599883	38 *
-2.599337	384 )
-2.599337	39 ;
-2.599337	3920 )
-2.636488	4 &
-1.557307	4 )	0.07909255
-2.034428	4 *	0.008765353
-2.238548	4 +	0.01031017
-1.983275	4 ,
-2.09242	4 -
-2.636488	4 :
-2.159367	4 ;
-2.636488	4 <
-2.636488	4 </s>
-1.823575	4 ]	0.01463011
-2.335458	4 |
-2.599337	4.023233417e9 ,
-2.599337	4.294967296e9 ,
-2.599337	4.5 )
-2.599337	4.503599627370496e15 ,
-2.599337	4.522871578970112e217 ;
-2.599337	4.6727004911171048e-153 ;
-2.126023	40 )	0.07458843
-2.603144	40 :
-2.603144	40 ;
-2.603144	40 ?
-2.599337	4092 ^
-2.423792	41 )	0.07458226
-2.599337	41088 ,
-2.423792	4190208 |
-2.599337	4194304 </s>
-2.203577	42 )	0.07458638
-2.601517	42 ;
-2.599337	44 +
-2.423792	45 )
-2.599337	48 ;
-2.599337	480 ,
-2.599337	488848 *
-2.599337	4L +
-2.599883	4u )
-2.599883	4u ;
-2.618571	5 %
-2.44248	5 &&
-1.74351	5 )	0.03940034
-2.44248	5 *
-2.220631	5 ,
-2.618571	5 -
-2.618571	5 ;
-2.618571	5 </s>
-2.317541	5 ?
-1.965358	5 ]	0.02858929
-2.599337	50 ;
-2.599337	504 *
-2.599337	508 ]
-2.599337	51 )
-2.600973	512 *
-2.600973	512 +
-2.600973	512 ;
-2.600973	512 </s>
-2.599337	512L )
-2.599337	516 ]
-2.599883	5200 ;
-2.599883	5200 ]
-2.599337	5298487 :
-2.600428	56 )
-2.424337	56 ;	0.02751538
-2.599337	57 ;
-2.599883	58 :
-2.599883	58 >
-2.599883	59 ;
-2.599883	59 ==
-2.599337	5toG57j/3" </s>
-2.438806	6 &
-2.614897	6 &&
-1.915927	6 )	0.09204511
-2.313867	6 *	0.0006149177
-2.313867	6 ,	0.05668506
-2.313867	6 ;
-2.438806	6 </s>
-2.614897	6 >
-2.438806	6 ?
-2.216957	6 ]	0.01198714
-2.126023	60 )	0.07404248
-2.427053	60 *	0.01438033
-2.603144	60 /
-2.599337	60. /
-2.424337	61 :
-2.600428	61 ;
-2.599883	62 ;
-2.599883	62 ?
-2.424882	63 )	0.00308384
-2.600973	63 ,
-2.600973	63 <<
-2.599337	63504 ;
-2.605305	64 &
-2.429214	64 )
-2.605305	64 *
-2.128184	64 ,
-2.605305	64 :
-2.605305	64 ;
-2.605305	64 </s>
-2.599337	64u )
-2.599337	65280 )
-2.599337	65307 ;
-2.599883	65536 ;
-2.599883	65536 ]
-2.599337	65544 >
-2.599337	67 *
-2.599337	6990400 ;
-2.611192	7 &
-2.611192	7 &&
-2.134071	7 )	0.00157282
-2.435101	7 *
-2.213252	7 ,
-2.611192	7 -
-2.435101	7 ;
-2.611192	7 <
-2.611192	7 </s>
-2.611192	7 ?
-2.213252	7 ]	0.01198714
-2.599337	7.5 )
-2.599337	7.90055321525613e115 ;
-2.599337	70 )
-2.599883	74 )
-2.599883	74 </s>
-2.599337	75 ?
-2.599337	76 )
-2.600973	768 ;
-2.600973	768 </s>
-2.424882	768 ]
-2.599337	77 ;
-2.600428	79 )
-2.600428	79 ;
-2.600428	79 ]
-2.324282	8 &
-2.625313	8 &&
-1.847161	8 )	0.1161273
-2.324282	8 +
-1.780214	8 ,	0.01148224
-2.449221	8 :
-2.081244	8 ;	0.1031977
-2.625313	8 <
-2.449221	8 >>	0.0004208331
-2.449221	8 ?
-2.227372	8 ]
-2.449221	8 |	-8.7903e-05
-2.599337	8.44396048e8 ,
-2.606381	80 )
-1.866019	80 +	-0.0003295098
-2.606381	80 ,
-2.606381	80 ;
-2.606381	80 ]
-2.599337	8000 </s>
-2.600428	81 )
-2.600428	81 -
-2.600428	81 /
-2.599337	82 ;
-2.599337	84 )
-2.600428	85 *
-2.600428	85 +
-2.600428	85 <<
-2.599883	86400 )
-2.599883	86400 -
-2.599337	88 )
-2.599337	881 ,
-2.599337	8u +
-2.607991	9 %
-2.005931	9 )	0.05895794
-2.607991	9 *
-2.607991	9 +
-2.4319	9 ,
-2.4319	9 -
-2.607991	9 ;
-2.607991	9 <<
-2.607991	9 ?
-2.599883	90 )
-2.599883	90 ;
-2.599337	91 )
-2.600428	92 )
-2.600428	92 +
-2.600428	92 ;
-2.599337	96 ^
-2.600428	97 +
-2.424337	97 ]
-2.599337	9858122 :
-2.599337	99 ]
-2.599337	9999 ]
-2.599337	99999 )
-2.36968	: !
-2.67071	: ""
-2.67071	: ")$"
-2.67071	: "Q(j"
-2.67071	: "Q(jam"
-2.67071	: %
-2.67071	: &
-2.67071	: '='
-1.610012	: (	0.01052766
-2.193588	: *	0.006574622
-2.494618	: -
-1.64952	: 0	0.09026936
-2.36968	: 1
-2.67071	: 12365733
-2.67071	: 2
-2.67071	: 24
-2.67071	: 3352537
-2.67071	: 5
-2.67071	: 65536
-2.67071	: :
-1.825612	: </s>
-2.67071	: >
-2.67071	: B
-2.67071	: C
-2.67071	: EOF
-2.67071	: G
-2.494618	: I	0.005021994
-2.67071	: N
-2.67071	: O
-2.67071	: P
-2.67071	: R
-2.67071	: S
-2.494618	: T
-2.67071	: V
-2.36968	: _	0.01799277
-2.67071	: _c
-2.67071	: a
-2.67071	: break
-2.36968	: c
-2.67071	: case
-2.67071	: d
-2.494618	: e
-2.67071	: f
-2.67071	: fopen
-2.67071	: g
-2.36968	: gln	0.00266737
-2.67071	: goto
-2.494618	: h
-2.494618	: i
-2.67071	: j
-2.67071	: l
-2.494618	: m
-2.67071	: main
-2.67071	: n
-2.67071	: p
-2.67071	: putchar
-2.494618	: r	0.0003990646
-2.67071	: switch
-2.36968	: u	0.007346274
-2.36968	: v	0.00378785
-2.67071	: w
-2.67071	: webso
-2.67071	: x
-2.494618	: ~
-2.529986	; !	0.000238202
-2.529986	; (	0.006287975
-1.728354	; )	0.1167438
-2.052865	; *	0.01592059
-2.266745	; ++	-0.0006894562
-3.007107	; --
-3.007107	; 0
-2.353895	; ;	0.1112055
-0.6696481	; </s>
-2.529986	; A	0.008035249
-2.463039	; B	0.004377947
-2.266745	; D	0.0009163462
-2.463039	; E	0.002469025
-2.831016	; F	0.002011868
-2.463039	; G	0.01015785
-2.706077	; H	0.00293029
-2.609167	; I	0.00396339
-2.609167	; J	0.002119742
-2.353895	; K	0.002368995
-2.463039	; L	0.0006741928
-3.007107	; M
-3.007107	; N
-2.529986	; O
-2.353895	; P	0.001925198
-2.831016	; Q
-3.007107	; Q_
-2.405047	; R	-0.0001159234
-3.007107	; SDL_BlitSurface
-3.007107	; SDL_Delay
-3.007107	; SDL_Event
-3.007107	; SDL_FillRect
-3.007107	; SDL_Flip
-3.007107	; SDL_Init
-3.007107	; SDL_LoadWAV
-3.007107	; SDL_MixAudio
-3.007107	; SDL_OpenAudio
-3.007107	; SDL_PauseAudio
-2.609167	; T	0.005250138
-2.029384	; U	0.003443451
-2.162009	; V	0.0003330188
-2.052865	; W	0.00917734
-3.007107	; Window
-2.831016	; X	0.002902463
-3.007107	; XEvent
-3.007107	; XImage
-3.007107	; XSelectInput
-2.831016	; Y	0.000937543
-2.104017	; _	0.04417462
-3.007107	; __
-3.007107	; ___
-2.052865	; a	0.0135525
-1.789623	; b	0.01057919
-3.007107	; bA
-3.007107	; ba
-3.007107	; bc
-2.831016	; bh	0.0005452534
-3.007107	; bj
-2.609167	; break	0.006482128
-3.007107	; bz
-2.353895	; c	0.008933933
-2.529986	; case
-2.405047	; char	0.01108569
-2.104017	; d	0.01720519
-2.831016	; default	0.0005452534
-2.529986	; e	0.006994939
-2.706077	; else
-3.007107	; extern
-2.308137	; f	0.003344603
-3.007107	; fgets
-2.609167	; float
-1.845739	; for	0.02164192
-3.007107	; fread
-3.007107	; free
-2.529986	; g	0.0002237561
-2.831016	; goto
-3.007107	; h
-2.052865	; i	0.01428074
-2.162009	; if	0.02859063
-2.162009	; int	0.006724675
-2.228956	; j	0.01152582
-2.132046	; k	0.005403962
-2.529986	; l	0.005193948
-2.609167	; long	0.002637772
-2.405047	; m	0.002911279
-2.831016	; main	0.008630163
-3.007107	; memcpy
-3.007107	; mvaddstr
-3.007107	; mvinsch
-2.266745	; n	0.006056929
-2.194194	; o	0.0210319
-2.162009	; p	0.01089357
-3.007107	; putchar
-2.463039	; q	0.001410194
-2.353895	; r	0.003917285
-3.007107	; refresh
-2.194194	; return	0.0009259279
-2.194194	; s	0.01341741
-2.706077	; struct
-3.007107	; switch
-2.463039	; t	0.005236942
-3.007107	; typedef
-2.104017	; u	0.01676169
-3.007107	; union
-2.529986	; v	0.004785766
-3.007107	; va_end
-3.007107	; va_start
-2.609167	; void	0.001007059
-2.104017	; w	0.005051524
-2.609167	; while	0.009687269
-2.463039	; x	0.00516466
-2.463039	; xor	-0.0001781639
-2.463039	; y	0.01005499
-2.007107	; z	0.01181626
-2.831016	; {
-1.187563	; }	0.0353769
-2.36689	< %
-2.66792	< (
-2.66792	< /
-1.738501	< 0	0.05643219
-2.66792	< 11
-2.66792	< 127
-2.66792	< 13
-2.491828	< 14	0.001082979
-2.66792	< 16
-2.491828	< 18
-2.26998	< 2	0.01912361
-2.491828	< 20	-1.229148e-05
-2.491828	< 3
-2.66792	< 30
-2.66792	< 32
-2.491828	< 5
-2.66792	< 5200
-2.66792	< 57
-2.36689	< 6
-2.491828	< 60	0.001621421
-2.66792	< 61
-2.491828	< 62
-2.66792	< 7
-2.66792	< 74
-2.66792	< 75
-2.66792	< 77
-2.491828	< 79
-2.66792	< 80
-2.66792	< 82
-2.66792	< 91
-2.66792	< :
-2.26998	< </s>
-2.491828	< A	0.002961281
-2.491828	< B
-2.26998	< D	0.001989854
-2.491828	< E
-2.66792	< M
-2.66792	< O
-2.66792	< Q
-2.66792	< SPEED
-2.66792	< U
-2.66792	< W
-2.491828	< _	0.01392552
-2.26998	< a	0.00154257
-2.66792	< abs
-2.66792	< asn
-2.36689	< c
-2.491828	< d
-2.491828	< f	0.002157255
-2.66792	< h
-2.123852	< i	0.004886133
-2.66792	< j
-2.66792	< l
-2.491828	< m
-2.123852	< n	0.005515414
-2.123852	< not	0.0171051
-2.66792	< p
-2.190799	< s	0.001571341
-2.66792	< script
-2.491828	< t	0.0008319215
-2.491828	< u
-2.36689	< v
-2.491828	< x
-2.66792	< y
-2.66792	< ~
-2.152798	<< (
-2.328889	<< 1	0.01948568
-2.629919	<< 14
-2.629919	<< 15
-2.453828	<< 18
-2.629919	<< 23
-2.629919	<< 24
-2.629919	<< 30
-2.328889	<< 32	0.001021678
-2.328889	<< 4	0.01056798
-2.629919	<< 40
-2.629919	<< 5
-2.453828	<< 56	-2.061483e-06
-2.453828	<< 6	0.0004734787
-2.629919	<< 60
-2.629919	<< 7
-2.027859	<< 8	0.005024924
-2.453828	<< </s>
-2.629919	<< Q_
-2.453828	<< a
-2.629919	<< b
-2.453828	<< f	0.0055072
-2.629919	<< i
-2.328889	<< l	0.001296615
-2.629919	<< n
-2.453828	<< s
-2.231979	<< t
-2.453828	<< u	0.00353876
-2.629919	<< unk
-2.629919	<< z
-2.599337	<<= b
-2.603686	<= 24
-2.603686	<= D
-2.603686	<= L
-2.603686	<= Q
-2.603686	<= f
-2.603686	<= k
-2.603686	<= m
-2.603686	<= optind
-2.603686	<= q
-2.599337	<P~6" </s>
-2.793558	<s> !
-2.969649	<s> !=
-2.793558	<s> "
-2.969649	<s> "!:E%;!ea!!!WqE0z!f/y}!%!!Qi6!uzt!n}?]!bl!ak!SetR<"
-2.969649	<s> "!pv!;!Hm%Ro4"
-2.969649	<s> "%d
-2.969649	<s> "%f,%f,"
-2.969649	<s> "*_[512],**p=_,**d,b,q;for(b=0;b"
-2.969649	<s> "*p=#b,P[9999],*d=P,*e[]="
-2.969649	<s> "/"
-2.969649	<s> "258EAFA5-"
-2.969649	<s> "::::::::::::?_::::\"::.::::@:::'::-::::::::;!:):::::,:::::"
-2.969649	<s> ";;"
-2.969649	<s> ";Gam"
-2.969649	<s> ";GlockQ18"
-2.969649	<s> ";^Q<d|8=o;]Q<dj8<Pk8<c]'?;QQdi8?P'Q)d8<9`8?c;Qdh8=P']Q<`c8>PQ9_8"
-2.969649	<s> "<o_Q<o_QBdo`QQ';`Q=9`]8=bobQ_o_Q<o]8=';bQC(88cQ`bcgQ>oP']8<;cQ>98)^Q?''oc`Q>"
-2.969649	<s> "=(p-_+1)*9%512]=(O*)p;"
-2.969649	<s> ">b;og8=''`Q<`b8?'QQ9_8?c;dPe8dQa8<P]Q<``8=;'f8>QQ`]8?ocQQ_8=''_Q`8aQ"
-2.969649	<s> "?guhljL!^P%
-2.969649	<s> "CYOUQWIN!]Q=;of8BQQ)88bc]QA98P'Qo]8>oQQ_8CP;QQ98b`_8@P8(Q`]'^Q=`']QB)88"
-2.969649	<s> "M@K~|JOEF\\^~_NHI]"
-2.969649	<s> "Zj$x!~V!n&g8!cK!
-2.969649	<s> "bQQ]`8J;QQ`88bc99bd(`8iQ@''QQo^8E'`8c;QQ'Q``8?QQ`'kQ<o]8B9PQQ`';_Q<`_8<cbQ"
-2.969649	<s> "e.6!r!%l6G!n~^<i=%pEwL%P!'<!FQt%u
-2.969649	<s> "e:|
-2.969649	<s> "etu"
-2.969649	<s> "med);"
-2.969649	<s> "oc']Q]8<;cQ>`8bbQA``QQ''`Q?88P;dQ=`)nQ?*/;;"
-2.969649	<s> "oid
-2.668619	<s> %
-2.793558	<s> &
-2.668619	<s> &&	0.01391916
-2.969649	<s> 'c'
-1.714376	<s> (	0.06469905
-1.752165	<s> )	0.2029286
-2.492527	<s> *
-2.793558	<s> +
-2.156735	<s> ++	0.0003558635
-2.793558	<s> +=
-1.855705	<s> ,	0.06651863
-2.156735	<s> -	0.002734312
-2.571709	<s> --
-2.969649	<s> -=
-2.969649	<s> .
-2.668619	<s> /
-2.492527	<s> 0	0.02722473
-2.969649	<s> 0xffff
-2.668619	<s> 1
-2.969649	<s> 10
-2.969649	<s> 128
-2.969649	<s> 15
-2.969649	<s> 16
-2.969649	<s> 16711935
-2.571709	<s> 2	0.01728123
-2.969649	<s> 25
-2.969649	<s> 333
-2.793558	<s> 4
-2.969649	<s> 45
-2.969649	<s> 5
-2.969649	<s> 6
-2.969649	<s> 63504
-2.969649	<s> 64
-2.969649	<s> 65307
-2.969649	<s> 7
-2.668619	<s> 8
-2.969649	<s> 81
-2.969649	<s> 96
-2.793558	<s> :
-2.015406	<s> ;	0.03469956
-2.793558	<s> <
-2.571709	<s> <<
-2.094588	<s> =	0.006474347
-2.969649	<s> >
-2.492527	<s> >>
-2.571709	<s> ?
-2.492527	<s> A	0.002967449
-2.969649	<s> Alan
-2.668619	<s> B
-2.793558	<s> C
-2.969649	<s> COLS
-2.793558	<s> D	-8.974981e-05
-2.270679	<s> E	0.001936032
-2.668619	<s> F	0.002013929
-2.668619	<s> FILE	0.001088458
-2.793558	<s> G
-2.425581	<s> H	0.0003049765
-2.191498	<s> I	-0.0001557127
-2.793558	<s> J
-2.367589	<s> K	0.002941229
-2.425581	<s> L
-2.425581	<s> M	0.0004760793
-2.668619	<s> N	0.008407176
-2.793558	<s> O
-2.969649	<s> O1
-2.969649	<s> O2
-2.969649	<s> O7
-2.969649	<s> O8
-2.969649	<s> O_
-2.492527	<s> P	0.004099414
-2.668619	<s> Q	0.001854517
-2.969649	<s> Q1
-2.969649	<s> Q2
-2.969649	<s> Q3
-2.969649	<s> QO
-2.668619	<s> R
-2.969649	<s> S
-2.969649	<s> SDL_PollEvent
-2.969649	<s> SDL_Surface
-2.316436	<s> T
-2.571709	<s> U	0.00148493
-2.969649	<s> Upgrade
-2.425581	<s> V	0.0009366113
-2.270679	<s> W	0.01402927
-2.668619	<s> X
-2.969649	<s> XPutImage
-2.124551	<s> Y	0.001272211
-2.367589	<s> Z	-0.0001106912
-2.571709	<s> [
-2.492527	<s> ]	0.04287853
-2.270679	<s> _	0.06313405
-2.969649	<s> _0
-2.793558	<s> __	0.02685715
-2.793558	<s> ____	0.00916402
-2.969649	<s> _f
-2.066559	<s> a	0.01293835
-2.969649	<s> ageX
-2.793558	<s> ala
-2.571709	<s> and	-5.937449e-05
-2.668619	<s> asn	0.004321272
-2.229286	<s> b	0.005004274
-2.969649	<s> bB
-2.969649	<s> bC
-2.969649	<s> be
-2.969649	<s> bl
-2.969649	<s> bn
-2.367589	<s> break	0.004852504
-2.969649	<s> bt
-2.793558	<s> bu
-2.969649	<s> by
-2.571709	<s> c	0.003093478
-2.969649	<s> case
-2.793558	<s> char
-2.270679	<s> const	0.0009992342
-2.04023	<s> d	0.01316463
-2.969649	<s> default
-2.571709	<s> do	-3.426801e-06
-2.969649	<s> double
-1.928256	<s> e	0.008672445
-2.793558	<s> else	0.00103271
-2.969649	<s> er
-2.571709	<s> err	0.000543888
-2.969649	<s> errx
-2.793558	<s> exit	0.001633711
-2.492527	<s> f	0.008405463
-1.928256	<s> for	0.023171
-2.969649	<s> fputc
-2.492527	<s> free	0.0005432079
-2.793558	<s> fseek	0
-2.969649	<s> fw
-1.823521	<s> g	0.00394542
-2.969649	<s> getchar
-2.571709	<s> gly	0.001087096
-2.270679	<s> h	0.003375686
-1.855705	<s> i	0.01367494
-1.64743	<s> if	0.01323038
-1.908951	<s> int	0.007074867
-2.492527	<s> j	0.0005318604
-2.492527	<s> k
-2.156735	<s> l	0.005527399
-2.668619	<s> long
-2.668619	<s> lys
-2.668619	<s> m
-2.571709	<s> main	0.00754034
-2.668619	<s> met	-1.225993e-05
-2.969649	<s> mva
-2.492527	<s> n
-2.793558	<s> ndif	0
-2.969649	<s> new
-2.270679	<s> not	0.01903352
-1.928256	<s> o	0.005732424
-2.969649	<s> ocket
-2.969649	<s> on
-2.793558	<s> op	0.0005288863
-2.969649	<s> open
-2.969649	<s> optind
-2.492527	<s> p	0.008888841
-2.793558	<s> phe	0.001089823
-2.425581	<s> printf	0.003245056
-2.969649	<s> pt
-2.793558	<s> putchar	0.003261301
-2.793558	<s> puts	0.001089823
-2.571709	<s> q
-2.571709	<s> r
-2.969649	<s> rea
-2.191498	<s> return	0.0004703286
-2.793558	<s> rewind	0
-2.969649	<s> rror
-2.094588	<s> s	0.00827114
-2.571709	<s> sec	0.0005275207
-2.969649	<s> signal
-2.969649	<s> sin
-2.492527	<s> static	0.0005432081
-2.969649	<s> stdin
-2.969649	<s> strchr
-2.793558	<s> switch	0.001089823
-2.316436	<s> t	0.01373228
-2.969649	<s> tf
-2.492527	<s> thr	-6.122864e-06
-2.969649	<s> tr
-2.969649	<s> type
-2.191498	<s> typedef	0.0005297428
-2.793558	<s> tyr	0.00106939
-2.270679	<s> u	0.02963185
-2.367589	<s> unsigned	0.0005370907
-2.492527	<s> v
-2.793558	<s> val
-2.492527	<s> void	0.001009797
-2.969649	<s> volatile
-2.229286	<s> w	0.002645815
-2.156735	<s> while	0.005355118
-2.668619	<s> x
-2.156735	<s> y	0.006477248
-2.367589	<s> z	0.003172797
-2.04023	<s> {	0.02752884
-1.3464	<s> }	0.02258284
-2.793558	<s> ~
-2.433503	= !
-2.910625	= "
-2.910625	= "<;iQ=/*do<;dQ=ook8?boc;aQ=odr8>oc;_Q<ox8>oc"
-2.910625	= "NBLF\1Nblfgjmf\1"
-2.910625	= "\n\n\n"
-2.910625	= "syntax_error!"
-2.512684	= &	0.0005956236
-2.734533	= '128'
-2.910625	= 'width:256px;height:256px'
-1.530413	= (	0.01660584
-2.734533	= )	-0.001075739
-1.981205	= *	0.01145608
-2.609594	= ,	-0.0009792976
-1.831443	= -	0.01404122
-2.910625	= --
-2.910625	= .1
-1.257412	= 0	0.05438367
-2.910625	= 040
-2.910625	= 0u
-2.910625	= 0x1
-2.910625	= 0x820008202625a0
-1.831443	= 1	0.02789581
-2.910625	= 1.159922023e9
-2.512684	= 10
-2.910625	= 1024
-2.910625	= 112
-2.910625	= 12
-2.910625	= 12359778
-2.910625	= 13000
-2.734533	= 14695981039346656037ULL	0
-2.910625	= 16
-2.910625	= 17
-2.910625	= 196
-2.910625	= 1LL
-2.609594	= 2	0.005540766
-2.910625	= 2.271681097355226e15
-2.910625	= 234
-2.910625	= 250
-2.609594	= 255
-2.910625	= 256
-2.910625	= 26
-2.366556	= 3	0.004763383
-2.910625	= 3.135045272e9
-2.910625	= 30
-2.609594	= 32
-2.910625	= 32768
-2.910625	= 333
-2.910625	= 37
-2.433503	= 4	0.003766734
-2.910625	= 4.023233417e9
-2.910625	= 4.294967296e9
-2.910625	= 4.503599627370496e15
-2.910625	= 40
-2.910625	= 41088
-2.910625	= 48
-2.910625	= 480
-2.734533	= 5	0.0009810958
-2.910625	= 50
-2.910625	= 512
-2.609594	= 6	0.0004755402
-2.910625	= 64
-2.910625	= 6990400
-2.366556	= 7	0.001034361
-2.609594	= 8	0.005626535
-2.910625	= 8.44396048e8
-2.910625	= 80
-2.910625	= 9
-1.981205	= </s>
-1.869232	= A	0.005813494
-2.097711	= B	0.004311167
-2.257412	= C	0.003488182
-2.910625	= COLS
-2.366556	= D	0.002964513
-2.433503	= E	0.000444257
-2.366556	= F	0.003556206
-2.433503	= H
-2.433503	= I	-0.0001407058
-2.910625	= J
-2.308564	= K	0.008044833
-2.512684	= L	0.001812992
-2.910625	= LINES
-2.512684	= M	0.0025926
-2.097711	= N	0.005675123
-2.170262	= O	0.001661186
-2.910625	= O0
-2.910625	= O5
-2.609594	= OO	-1.832203e-05
-2.734533	= O_	0.003261301
-2.910625	= O_o
-2.609594	= P
-2.211654	= Q	0.01027394
-2.910625	= Q7
-2.910625	= Q8
-2.609594	= Q_	0.001631666
-2.609594	= R	0.002488527
-2.512684	= S
-2.910625	= SDL_CreateRGBSurface
-2.910625	= SDL_SetVideoMode
-2.211654	= T	0.00661353
-2.910625	= TIMESTEP
-2.910625	= U
-2.609594	= W
-2.910625	= X
-2.910625	= XCreateImage
-2.910625	= XCreateSimpleWindow
-2.910625	= XLookupKeysym
-2.910625	= XOpenDisplay
-2.910625	= Y
-2.734533	= Z	0.001514815
-2.211654	= _	0.02681444
-2.910625	= _0
-2.734533	= _Q
-2.609594	= __	-0.0001307219
-2.910625	= __TIME__
-2.910625	= _b
-2.065526	= a	0.009776288
-2.097711	= b	0.007286907
-2.734533	= bA
-2.910625	= bB
-2.910625	= bC
-2.734533	= bE	0.0005397705
-2.910625	= ba
-2.910625	= bb
-2.910625	= bf
-2.910625	= bm
-2.308564	= bp	0.0005418533
-2.910625	= bs
-2.910625	= buf
-2.910625	= bx
-2.910625	= by
-2.734533	= bz
-2.007535	= c	0.01405349
-2.609594	= calloc	0.0005445699
-2.910625	= cos
-1.956382	= d	0.02044347
-1.981205	= e	0.01368954
-2.734533	= exp	0.0005452534
-1.910624	= f	0.009109423
-2.910625	= fgetc
-2.910625	= fopen
-2.734533	= fread	0.0005452534
-2.910625	= function
-2.512684	= g	0.003122774
-2.910625	= getch
-2.609594	= getchar	-2.74484e-06
-2.910625	= getopt
-2.512684	= gln	0.0021228
-2.211654	= h	0.004237332
-2.734533	= his
-2.170262	= i	0.006678225
-2.132473	= j	0.01339437
-2.433503	= k
-2.512684	= l
-2.910625	= lv
-2.308564	= m	0.000905668
-2.910625	= main
-2.734533	= malloc	0
-2.308564	= n	0.004972886
-2.910625	= new
-2.609594	= not	0.01873676
-1.981205	= o	0.02715445
-2.910625	= op
-2.257412	= p	0.004830947
-2.734533	= pow	0.0005452534
-2.910625	= pyl
-2.609594	= q	-0.0001389841
-2.512684	= r	0.001426255
-2.910625	= rand
-2.910625	= read
-2.512684	= realloc	0
-2.910625	= round
-2.257412	= s	0.003150177
-2.609594	= sizeof	0.004859099
-2.910625	= sqrt
-2.910625	= strrchr
-2.910625	= system
-2.366556	= t	0.002234895
-2.910625	= tmpfile
-2.257412	= trp	-1.08853e-05
-2.097711	= u	0.01219006
-2.734533	= unk	-2.038351e-05
-2.097711	= v	0.01091617
-2.910625	= w
-2.910625	= window
-2.132473	= x	0.004546048
-2.910625	= xle
-2.170262	= y	0.01108916
-2.366556	= z	0.001257077
-2.257412	= {
-2.451787	== '\n'	0
-2.627878	== (
-2.451787	== *
-2.451787	== -
-2.627878	== 0
-2.451787	== 1
-2.451787	== 10
-2.627878	== 2
-2.627878	== 27
-2.627878	== 275
-2.627878	== 276
-2.451787	== 3
-2.627878	== 32
-2.451787	== 35
-2.627878	== 4
-2.451787	== 5	0.006270985
-2.627878	== 6
-2.627878	== 8
-2.627878	== 81
-2.627878	== 92
-2.627878	== </s>
-2.627878	== B
-2.451787	== D
-2.451787	== NULL	0.0005452534
-2.451787	== T	0.006238694
-2.229938	== a	0.001087096
-2.627878	== arg
-2.326848	== b	0.001584306
-2.451787	== c
-2.627878	== cys
-2.627878	== gln
-2.627878	== h
-2.627878	== n
-2.627878	== not
-2.627878	== r
-2.451787	== u
-2.627878	== ~
-2.238548	> (
-2.034428	> 0	0.002959676
-2.636488	> 12
-2.636488	> 1600
-2.636488	> 197
-2.159367	> 2	0.02364905
-2.636488	> 20
-2.636488	> 255
-2.636488	> 3
-2.636488	> 30
-2.636488	> 31
-2.636488	> 4
-2.238548	> 5	0.0004597512
-2.335458	> 6
-2.636488	> 64
-2.460397	> 7
-2.636488	> 76
-2.460397	> 9
-2.636488	> 92
-2.636488	> ;
-2.636488	> <
-2.460397	> </s>
-2.636488	> B
-2.636488	> BUFSIZ
-2.636488	> F
-2.636488	> H
-2.636488	> I
-2.636488	> Q0
-2.460397	> QQ	0.0005288863
-2.238548	> _	0.01392964
-2.636488	> a
-2.636488	> bs
-2.636488	> c
-2.636488	> char
-2.636488	> e
-2.636488	> glu
-2.636488	> h
-2.460397	> i
-2.636488	> l
-2.636488	> lrand48
-2.636488	> p
-2.636488	> q
-2.636488	> s
-2.636488	> v
-2.636488	> w
-2.636488	> x
-2.60206	>= (
-2.425969	>= 0
-2.60206	>= LINES
-2.60206	>= Q
-2.60206	>= d
-2.324797	>> (
-2.625827	>> ++
-2.625827	>> 12
-2.449735	>> 14	0.001082979
-2.324797	>> 2	0.01727917
-2.625827	>> 20
-2.625827	>> 28
-2.625827	>> 3
-2.449735	>> 31	0.0005425086
-2.449735	>> 32	-4.613737e-05
-2.625827	>> 38
-2.449735	>> 4
-2.324797	>> 40	0.001076167
-2.625827	>> 5
-2.625827	>> 56
-2.449735	>> 6
-1.885464	>> 8	0.007075681
-2.324797	>> </s>
-2.449735	>> a	0.002907748
-2.625827	>> f
-2.625827	>> lys
-2.449735	>> s
-2.625827	>> u
-2.449735	>> unk	0.002148381
-2.449735	>> z	0.01675652
-2.600428	>>= 4
-2.600428	>>= 7
-2.600428	>>= e
-2.660866	? !
-2.484774	? ""	-1.025549e-05
-2.660866	? ";"
-2.660866	? "{;}"
-2.660866	? "}$"
-2.484774	? &
-2.660866	? '
-2.660866	? '|'
-2.116797	? (
-2.262925	? *
-2.359835	? ++
-2.660866	? -
-2.359835	? --	0.001983479
-1.920503	? 0	0.002757426
-2.359835	? 1	0.0004549623
-2.660866	? 124
-2.660866	? 255
-2.660866	? 256
-2.484774	? 3
-2.660866	? 32
-2.484774	? 8	-9.342912e-05
-2.660866	? 9858122
-2.484774	? </s>
-2.484774	? D
-2.484774	? E	0.004098629
-2.660866	? F
-2.660866	? FILENAME_MAX
-2.484774	? G	0.008528908
-2.660866	? H
-2.484774	? I	-0.0001115697
-2.484774	? L	0.002799284
-2.484774	? O
-2.660866	? RGB
-2.660866	? S
-2.183744	? T	0.009602671
-2.660866	? U
-2.660866	? _k
-2.484774	? a
-2.359835	? d
-2.660866	? e
-2.484774	? g
-2.359835	? glu	-1.907116e-05
-2.660866	? h
-2.359835	? i	-0.0003420609
-2.359835	? k
-2.183744	? n
-2.359835	? o	0.01113642
-2.484774	? p	0.009428611
-2.660866	? putchar
-2.660866	? q
-2.660866	? r
-2.359835	? s	0.008943524
-2.660866	? strlen
-2.484774	? u
-2.116797	? v	0.004597146
-2.660866	? w
-2.484774	? x
-2.660866	? ~
-2.599337	?" "8!@dP,!!o+fb"
-2.153307	A )	0.07458843
-2.630428	A +
-2.630428	A +=
-2.08636	A ,	0.007455716
-2.630428	A -
-1.977215	A ->	0.008774593
-1.701009	A ;	0.1068739
-2.630428	A </s>
-1.977215	A =	0.01362862
-1.78533	A [	-0.000695454
-2.599337	Acce </s>
-2.599337	Alan Turing
-1.889556	B &	0.001763739
-2.453828	B &&
-1.851768	B (	0.001642107
-2.027859	B )	0.09533146
-2.152798	B +	0.001680392
-2.231979	B ,
-1.976707	B ->	0.008774593
-2.629919	B :
-2.152798	B ;	0.1029269
-2.629919	B </s>
-2.231979	B =
-2.629919	B ==
-2.599337	BUFSIZ )
-2.448706	C &
-1.811884	C (	0.009539953
-2.226858	C )	0.07403975
-2.323768	C *	-2.991408e-05
-2.448706	C +
-2.624798	C +=
-2.226858	C ,
-2.448706	C -
-2.448706	C /	0.002855445
-2.624798	C :
-2.323768	C ;
-2.624798	C <
-2.448706	C =
-2.448706	C ==
-2.226858	C >
-2.624798	C [
-2.624798	C ^
-2.624798	C a
-2.624798	C p
-2.599883	COLS -
-2.599883	COLS /
-2.624282	D %
-2.226342	D &&	0.01392122
-2.448191	D (
-2.448191	D )
-2.323252	D +
-2.624282	D ,
-2.624282	D -=
-2.624282	D ;
-2.448191	D </s>
-2.080214	D =	0.001850208
-2.624282	D ?
-2.226342	D [	0.0007374369
-2.624282	D ]
-2.080214	D c	0.004911374
-2.080214	D d	0.005476541
-2.147161	D e	-0.0004163815
-2.448191	D f
-2.599337	DefaultGC (
-2.599337	DefaultVisual (
-2.599337	Display *
-2.321184	E (	-0.0006554737
-2.321184	E )
-1.881851	E *	0.01249716
-2.622214	E *=
-2.622214	E +
-2.446123	E ++
-2.622214	E +=
-2.145093	E ,	-9.560655e-05
-2.020154	E ;	0.1376441
-2.622214	E </s>
-1.881851	E =	0.0005098209
-2.127645	EOF )	0.04243574
-2.604766	EOF +
-2.428675	EOF ;
-2.303736	EOF ]	0.01266056
-2.599337	ETIANMSURWDKGOHVF:L:PJBXCYZQ::54:3:::2&:+::::16=/:::(:7:::8:90" </s>
-2.445085	F %
-2.445085	F &
-1.843025	F (	0.03453229
-2.621176	F )
-2.320146	F *	0.01438239
-2.621176	F +
-2.144055	F ,	0.005888642
-2.144055	F -	0.01657175
-2.621176	F /
-2.621176	F :
-2.621176	F ;
-2.445085	F <
-2.077108	F =
-2.621176	F >>
-2.124396	FILE *	0.001365631
-2.599337	FILENAME_MAX :
-2.599883	F_ )
-2.599883	F_ ,
-1.63559	G (	0.03169041
-2.613313	G )
-2.613313	G ,
-2.011253	G [
-2.454337	H %
-2.454337	H &
-2.454337	H )
-2.08636	H *	0.006468056
-2.630428	H +
-2.630428	H ++
-2.028368	H ,	0.01141602
-2.454337	H -
-2.630428	H --
-2.329398	H /
-1.817515	H ;	0.1054526
-2.630428	H <
-2.630428	H </s>
-2.630428	H <<
-1.931458	H =
-2.630428	H >>
-2.454337	H ?
-2.630428	H C
-2.454337	H ]	0.028577
-2.630428	H char
-2.630428	H long
-2.630428	H short
-2.630428	I &
-1.817515	I (	0.0004488307
-2.329398	I )	0.04243163
-2.630428	I *
-2.329398	I +
-2.630428	I ++
-2.454337	I ,
-2.454337	I -	-0.0004505744
-2.454337	I :
-2.08636	I ;	0.1029289
-2.630428	I <
-1.852277	I =
-2.232488	I ==
-2.630428	I ?
-2.232488	I H
-2.630428	I [
-2.630428	I char
-2.630428	I int
-2.630428	I jmp_buf
-2.630428	I long
-2.630428	I void
-2.064992	J (
-2.609061	J ,
-2.609061	J ;
-2.609061	J </s>
-2.432969	J =
-2.131939	J [
-2.609061	J l
-2.432969	J }
-2.454337	K !=	-3.830029e-05
-2.630428	K %
-1.931458	K (	0.004027091
-1.977215	K )	0.1416572
-2.630428	K *
-2.454337	K ++
-2.630428	K +=
-2.329398	K ,
-2.630428	K -
-1.676185	K ->	0.00709397
-2.232488	K ;	0.1029248
-2.630428	K <
-2.630428	K </s>
-2.028368	K =	0.0005097614
-2.454337	K ?
-2.599337	KrgR'8@c]!%-q9V.3fa[E8X%dY'w!#H <P~6"
-2.645913	L %=
-2.469822	L (
-2.101845	L )	0.07459047
-1.833	L *	0.01214378
-2.469822	L +
-2.645913	L ++
-2.247973	L ,
-1.992701	L -	0.01519454
-2.645913	L ;
-2.645913	L <
-2.645913	L </s>
-2.247973	L =
-2.469822	L ==
-2.645913	L >
-2.469822	L >>
-2.645913	L >>=
-2.645913	L ?
-2.645913	L T
-2.101845	L ]	0.03138456
-2.645913	L a
-1.867762	L d	0.02251115
-2.043853	L e	0.02045779
-2.247973	L f
-2.645913	L m
-2.645913	L n
-1.946943	L t	0.0003030351
-2.600428	LINES -
-2.600428	LINES ;
-2.600428	LINES ||
-2.599337	L_tmpnam )
-2.613313	M &&
-1.914343	M (	4.352932e-05
-2.312283	M )
-2.613313	M *=
-2.613313	M +=
-2.437222	M ,
-2.613313	M -=
-2.613313	M .
-2.437222	M ;
-2.215373	M =
-2.613313	M ==
-2.613313	M >
-1.640847	N (	0.001826686
-2.14145	N )	0.04243574
-2.618571	N +
-2.44248	N ,	0.007447502
-2.317541	N ;
-2.618571	N <
-2.618571	N </s>
-2.220631	N =
-2.44248	N [
-2.299398	NULL )	0.04188432
-2.640481	O &
-2.640481	O &&
-1.86233	O (	0.008064324
-1.86233	O )	0.05432607
-2.640481	O *
-2.242541	O +
-2.339452	O ++
-2.242541	O ,
-2.339452	O --	0.004066429
-2.46439	O ->
-2.339452	O :
-2.16336	O ;	0.02752155
-2.640481	O <
-2.46439	O </s>
-1.543571	O =	0.02401253
-2.46439	O ?
-2.640481	O G
-2.640481	O S
-2.128722	O0 +=	0.0002290886
-2.605844	O0 ,
-2.207904	O0 -	-0.0004464568
-2.304814	O0 =
-2.602602	O1 )
-2.602602	O1 *
-2.426511	O1 ,
-2.602602	O1 =
-2.602602	O1 >
-2.602602	O1 ]
-2.602602	O2 *
-2.602602	O2 ,
-2.602602	O2 -
-2.602602	O2 /
-2.426511	O2 =
-2.602602	O2 >
-2.425969	O3 )
-2.60206	O3 -
-2.60206	O3 /
-2.60206	O3 </s>
-2.60206	O3 =
-2.425426	O4 *
-2.601517	O4 +
-2.601517	O4 =
-2.601517	O4 |
-2.425969	O5 )
-2.60206	O5 +
-2.425969	O5 ,
-2.60206	O5 [
-2.600973	O6 +
-2.424882	O6 ,
-2.600973	O6 =
-2.600428	O7 )
-2.600428	O7 ,
-2.600428	O7 =
-2.600428	O8 *
-2.600428	O8 +
-2.600428	O8 =
-2.424337	O9 --
-2.600428	O9 =
-2.429214	OO )
-2.605305	OO +=
-2.429214	OO ,
-2.429214	OO -
-2.605305	OO <
-2.429214	OO =
-2.605305	OO ==
-2.605305	OO >
-1.949932	O_ (	-0.0002603501
-2.299943	O_o )
-2.600973	O_o ,
-1.843025	P (	0.00507249
-1.808263	P )	0.03919273
-2.621176	P +=
-2.320146	P ,
-2.445085	P 1	0.01948362
-2.320146	P ;	0.1029228
-2.445085	P =
-2.621176	P >=
-2.621176	P M
-2.621176	P U
-2.621176	P [
-2.621176	P _d
-2.621176	P _i
-2.621176	P i
-2.621176	P q
-2.640481	Q &
-2.640481	Q &&
-1.579784	Q (	0.01032237
-1.76542	Q )	0.1253226
-2.339452	Q *	0.001907463
-2.46439	Q ,
-2.640481	Q -
-2.242541	Q ;	0.1023782
-2.640481	Q </s>
-2.640481	Q <=
-2.096413	Q =
-2.640481	Q ?
-2.640481	Q O
-2.640481	Q OO
-2.640481	Q Q4
-2.096413	Q [	0.0007936168
-1.987269	Q ]	0.0298059
-2.640481	Q __
-2.640481	Q _k
-2.640481	Q main
-2.46439	Q write	0.0005452534
-2.640481	Q x
-2.605305	Q0 &&
-2.429214	Q0 )
-2.304275	Q0 +
-2.429214	Q0 +=
-2.605305	Q0 ,
-2.304275	Q0 =	0.02306025
-2.60206	Q1 )
-2.425969	Q1 ,
-2.30103	Q1 =
-2.602602	Q2 &&
-2.602602	Q2 *
-2.426511	Q2 +	0.01085267
-2.602602	Q2 ,
-2.426511	Q2 =
-2.60206	Q3 %
-2.425969	Q3 ,	-0.00076163
-2.425969	Q3 =
-2.60206	Q3 >>
-2.600973	Q4 &&
-2.600973	Q4 ,
-2.600973	Q4 --
-2.600973	Q4 =
-2.600973	Q5 +
-2.424882	Q5 ,
-2.600973	Q5 =
-2.600973	Q6 +=
-2.600973	Q6 ,
-2.600973	Q6 </s>
-2.600973	Q6 =
-2.600428	Q7 )
-2.600428	Q7 ;
-2.600428	Q7 =
-2.600428	Q8 ,
-2.600428	Q8 ;
-2.600428	Q8 =
-2.599883	Q9 ,
-2.599883	Q9 =
-2.429214	QO &&
-2.304275	QO *
-2.605305	QO +
-2.429214	QO ,
-2.207365	QO =
-2.302655	QQ )
-2.603686	QQ *
-2.302655	QQ +	0.01382211
-2.603686	QQ ,
-2.603686	QQ =
-2.057992	Q_ (	-0.0008459678
-2.2284	R !
-2.02428	R %	0.005862704
-2.2284	R (
-2.62634	R )
-2.32531	R *
-2.62634	R +
-2.62634	R ++
-2.62634	R +=
-2.32531	R --	0.001436164
-2.62634	R ;
-2.450249	R </s>
-2.62634	R =
-2.62634	R A
-2.450249	R D
-2.2284	R K	0.00238572
-2.450249	R a
-2.62634	R c
-2.450249	R g
-2.62634	R i
-2.32531	R j	0.00312423
-2.62634	R k
-2.62634	R l
-2.62634	R n
-2.62634	R o
-2.62634	R s
-2.450249	R v
-2.599337	RAFT )
-2.599337	RGB )
-2.599337	RootWindow (
-2.223236	S )
-2.445085	S +
-2.144055	S ,
-2.621176	S :
-1.843025	S ;	0.03118078
-2.320146	S =
-2.445085	S ?	0.001214201
-2.621176	S [
-1.922206	S ]	0.02646933
-2.621176	S d
-2.621176	S j
-2.621176	S s
-2.621176	S u
-2.599337	SDL_AudioSpec bu
-2.599337	SDL_BlitSurface (
-2.599337	SDL_CreateRGBSurface (
-2.599337	SDL_Delay (
-2.599337	SDL_Event bE
-2.599337	SDL_FillRect (
-2.599337	SDL_Flip (
-2.599337	SDL_Init (
-2.599337	SDL_LoadWAV (
-2.599337	SDL_MixAudio (
-2.599337	SDL_OpenAudio (
-2.599337	SDL_PauseAudio (
-2.599337	SDL_PollEvent (
-2.599337	SDL_Rect </s>
-2.599337	SDL_SetVideoMode (
-2.599337	SDL_Surface *
-2.423792	SEEK_SET )	0.07458226
-2.599337	SPEED *
-2.599337	Sec -
-2.599337	So long
-2.472269	T (
-2.25042	T )
-2.64836	T *
-1.74527	T ++	0.01203062
-2.64836	T +=
-2.104292	T ,	0.001670969
-2.472269	T -
-2.34733	T --	-8.953037e-05
-2.171239	T :	0.0006102598
-2.171239	T ;	0.00166773
-2.472269	T <
-2.104292	T </s>
-1.803262	T =	0.0002277121
-2.171239	T ==	0.0009315315
-2.64836	T I
-2.64836	T Q
-1.870209	T [	0.007799546
-2.64836	T ]
-2.64836	T _
-2.25042	T d	0.006947285
-2.64836	T f
-2.25042	T l	0.003653484
-2.64836	T {
-2.64836	T |
-2.599337	TIMESTEP ,
-2.599337	TIOCGWINSZ ,
-2.599337	TMP_MAX )
-2.599337	Turing (
-2.599337	Type =
-2.622214	U (
-2.446123	U )
-2.622214	U *=
-2.622214	U +
-2.622214	U +=
-2.078146	U ,
-1.64449	U ;	0.009237149
-2.622214	U </s>
-2.145093	U =
-2.622214	U i
-2.321184	U int	0.002862683
-2.446123	U j	0.009877997
-2.622214	U l
-2.622214	U u
-2.599337	UV_DROP :
-2.599337	Uint8Array (
-2.599337	Upgrade :
-2.150245	V !
-1.928396	V *	0.01476588
-2.326336	V ,
-2.627366	V ->
-2.451275	V ;
-2.627366	V </s>
-2.229426	V =
-2.229426	V F	0.003549361
-2.627366	V _b
-2.627366	V _c
-2.627366	V _f
-2.229426	V a
-2.627366	V b
-2.627366	V c
-2.451275	V d
-2.451275	V e
-2.627366	V f
-2.627366	V i
-2.627366	V j
-2.627366	V n
-2.451275	V o
-2.627366	V p
-2.627366	V r
-2.627366	V w
-2.627366	V y
-2.451275	V z	0.01675652
-1.38265	W (	0.004601193
-1.950851	W )	0.1254802
-2.348791	W *	0.007116454
-2.47373	W +
-2.649822	W +=
-2.105753	W ,	0.001022032
-2.348791	W -	0.0157282
-2.251881	W --	0.003521859
-2.348791	W /
-1.804723	W ;	0.003323835
-2.649822	W </s>
-2.348791	W =
-2.649822	W ==
-2.047761	W R	0.001898697
-2.649822	W S
-2.1727	W [	0.0001935489
-2.649822	W ]
-2.599883	WebSocket (
-2.599883	WebSocket -
-2.599337	Window u
-2.635986	X !=
-2.635986	X &
-2.459895	X (
-1.857835	X )	0.07242915
-2.459895	X *
-2.334956	X +
-1.706567	X ,	0.01144024
-2.635986	X -
-2.635986	X --
-2.635986	X /
-2.635986	X :
-2.238046	X ;	0.1029248
-2.635986	X <
-2.158865	X </s>
-1.982774	X =	0.003200936
-2.459895	X S	0.004639185
-1.982774	X [	-0.0004426097
-2.635986	X ]
-2.635986	X h
-2.635986	X v
-2.599337	XCheckWindowEvent (
-2.599337	XCreateImage (
-2.599337	XCreateSimpleWindow </s>
-2.599337	XEvent M
-2.599337	XImage *
-2.599337	XLookupKeysym (
-2.599337	XMapWindow (
-2.599337	XOpenDisplay (
-2.599337	XPutImage (
-2.599337	XSelectInput (
-2.227887	Y (	0.02733166
-2.324797	Y )	0.074037
-2.324797	Y *
-2.625827	Y *=
-2.449735	Y +	0.01382005
-2.625827	Y +=
-2.227887	Y ,
-2.625827	Y -
-2.449735	Y ->
-2.023767	Y ;	0.1002013
-1.847675	Y =	0.003471778
-2.449735	Y S	0.0009653732
-1.926857	Y [	0.003613207
-2.625827	Y a
-2.316494	Z (	0.00289948
-2.441433	Z )	0.07458226
-2.441433	Z *=
-2.617525	Z +
-2.441433	Z +=
-2.140403	Z ,	0.002775408
-2.617525	Z -
-2.617525	Z -=
-2.140403	Z ;	0.1051086
-2.073457	Z =	0.004277194
-2.617525	Z ?
-2.617525	Z W
-2.617525	Z e
-2.617525	Z g
-2.617525	Z h
-2.617525	Z k
-2.617525	Z n
-2.263636	[ (
-2.196689	[ *	0.006031414
-2.740757	[ +
-1.837667	[ -	0.01793767
-2.000395	[ 0	-0.001426559
-2.740757	[ 01
-1.719568	[ 1	0.007933998
-2.087545	[ 2	0.001795122
-2.740757	[ 204
-2.000395	[ 3	0.003144635
-2.564666	[ 32	-4.613737e-05
-1.962606	[ 4	4.616752e-05
-2.263636	[ 5	0.001455615
-2.740757	[ 516
-2.740757	[ 5200
-2.439727	[ 6	0.0004581772
-2.740757	[ 65536
-2.564666	[ 7	0.001026147
-2.439727	[ 8	0.0003953525
-2.740757	[ 80
-2.740757	[ 9
-2.564666	[ 97	-2.061483e-06
-2.740757	[ 99
-2.740757	[ 9999
-2.138697	[ </s>
-2.564666	[ EOF	0.0005234837
-2.564666	[ H	-0.0001115697
-2.087545	[ L	0.0001874536
-2.564666	[ O	0.0008517768
-2.740757	[ Q6
-2.564666	[ W	0.0003098183
-2.564666	[ X
-2.000395	[ ]	0.04192755
-1.719568	[ _	0.03913132
-2.740757	[ _Q
-1.626814	[ __	0.01448632
-2.740757	[ a
-2.740757	[ b
-2.740757	[ bi
-2.564666	[ c
-2.263636	[ d	0.0001049121
-2.740757	[ e
-2.740757	[ f
-2.263636	[ g	0.004464599
-2.342817	[ h	-0.0001624105
-1.927844	[ i	0.003644837
-2.196689	[ j	0.002384105
-2.196689	[ k	-0.0002028504
-2.564666	[ l
-2.564666	[ leu	-4.11761e-06
-2.564666	[ m	-0.0001204812
-2.342817	[ n	-0.0002157252
-2.564666	[ not
-2.740757	[ o
-2.342817	[ optind	-8.224044e-06
-2.342817	[ p	0.0002690407
-2.263636	[ r	-0.000105401
-2.740757	[ s
-2.564666	[ t
-2.564666	[ u	0.0007063946
-2.087545	[ v	0.00496843
-2.740757	[ val
-2.564666	[ x
-1.680059	[ xor	-0.0003606258
-2.564666	[ y
-2.564666	[ ~
-2.599337	[-d] file1
-2.599337	\"" "%s"
-2.599337	\n\t" ,
-2.263636	] !=	-3.213168e-05
-2.564666	] %
-2.439727	] &	-0.000189364
-2.740757	] &&
-1.429003	] )	0.1883971
-1.895659	] *	0.01758143
-2.564666	] *=	-8.605234e-05
-1.962606	] +	0.0007195882
-2.196689	] ++	0.00798531
-2.196689	] +=	0.004975326
-1.510308	] ,	0.02074359
-2.138697	] -	-0.0005877287
-2.740757	] --
-2.564666	] -=
-1.927844	] .	0.001947365
-2.439727	] /	-0.0001445414
-2.342817	] :	0.009157633
-1.473586	] ;	0.1006983
-2.439727	] <	-0.0002361139
-2.196689	] </s>
-2.740757	] <<
-1.172556	] =	0.05651617
-2.342817	] ==	-9.843556e-05
-2.138697	] >	0.002286391
-2.740757	] >=
-2.564666	] >>
-2.564666	] ?
-2.439727	] ^
-1.895659	] _	0.0108791
-2.439727	] |
-2.740757	] |=
-2.740757	] ||
-2.613313	^ (
-2.613313	^ *
-2.613313	^ --
-2.613313	^ 024
-2.613313	^ 0xfc0
-2.613313	^ 1
-2.613313	^ 10
-2.437222	^ 2
-2.613313	^ 20
-2.613313	^ 255
-2.613313	^ 35
-2.613313	^ 3920
-2.613313	^ 4
-2.613313	^ 40
-2.613313	^ 61
-2.613313	^ 9
-2.613313	^ I
-2.613313	^ f
-2.613313	^ k
-2.437222	^ l
-2.312283	^ p	0.004518553
-2.613313	^ t
-2.613313	^ ~
-2.601517	^= *
-2.601517	^= 20
-2.601517	^= _
-2.601517	^= k
-2.601517	^= y
-2.824451	_ %
-1.152353	_ (	0.0223187
-1.354629	_ )	0.185384
-2.64836	_ *
-2.824451	_ ++
-0.7752333	_ ,	-0.04501858
-2.824451	_ -
-2.824451	_ /
-2.64836	_ :
-2.523421	_ ;
-2.523421	_ <	0.0002321281
-2.084089	_ </s>
-2.34733	_ =	0.001579332
-2.824451	_ >>
-2.64836	_ ?
-2.824451	_ C
-2.824451	_ E
-2.824451	_ N
-2.824451	_ O
-1.453383	_ [	-0.005512077
-2.824451	_ ^=
-1.393088	_ _	0.04413122
-2.64836	_ __	0.02685715
-2.64836	_ a
-2.426511	_ b	0.004832574
-2.824451	_ c
-2.824451	_ d
-2.523421	_ f	-0.0002177813
-2.64836	_ n	0.00743312
-2.824451	_ o
-2.64836	_ p
-2.64836	_ r
-2.171239	_ s	0.01343688
-2.824451	_ v
-2.64836	_ w
-2.599337	_){putchar(_);}O" "\40main(){O"
-2.603686	_0 &&
-2.603686	_0 )
-2.427594	_0 *
-2.603686	_0 +=
-2.603686	_0 ,
-2.603686	_0 /
-2.427594	_0 =	0.02305819
-2.428135	_O %
-2.604226	_O %=
-2.428135	_O )	0.005560629
-2.604226	_O +
-2.604226	_O +=
-2.428135	_O =
-2.604226	_O >
-2.303196	_Q %	-0.0001496576
-2.604226	_Q )
-2.428135	_Q +=
-2.604226	_Q /
-2.604226	_Q </s>
-2.428135	_Q =
-2.460397	__ &	0.001261876
-2.636488	__ &&
-1.197155	__ (	0.02062411
-2.460397	__ )
-2.636488	__ *
-2.636488	__ +
-2.460397	__ +=	0.004650846
-2.636488	__ ,
-2.636488	__ ;
-2.460397	__ </s>
-2.636488	__ <<
-2.460397	__ =
-2.636488	__ >>
-2.636488	__ >>=
-2.599337	__LINE__ *
-2.599883	__STDC_VERSION__ &&
-2.599883	__STDC_VERSION__ >
-2.599883	__STDC__ )
-2.599883	__STDC__ </s>
-2.599337	__TIME__ ;
-2.599337	__VA_ARGS__ }
-2.424337	___ (
-2.600428	___ )
-1.609594	____ (	0.006396563
-2.609594	____ </s>
-2.423792	_b (
-2.423792	_c (
-2.423792	_d (
-2.600973	_f (
-2.600973	_f :
-2.600973	_f ;
-2.600973	_f </s>
-2.423792	_i (
-2.599883	_k (
-2.599883	_k :
-2.681241	a %=
-2.283301	a &
-2.681241	a &&
-2.681241	a &=
-1.940879	a (	0.002371236
-1.703518	a )	0.1965503
-1.982271	a *	0.003531831
-2.50515	a *=
-2.283301	a +
-2.50515	a ++	0.008522349
-2.681241	a +=
-1.703518	a ,	0.01005644
-2.20412	a -	0.002343372
-2.50515	a --
-2.137173	a ->	0.007798263
-2.681241	a .
-2.380211	a /	0.0008538383
-2.681241	a /=
-1.868328	a ;	0.1023999
-2.380211	a <	0.0002321281
-1.982271	a </s>
-2.681241	a <<
-1.660052	a =	0.02940273
-2.283301	a >>
-2.681241	a ?
-2.283301	a L	0.003746639
-2.50515	a S
-2.50515	a W
-2.681241	a X
-2.50515	a Z
-1.982271	a [	0.0005583423
-2.283301	a ]	0.02858112
-2.380211	a |
-2.423792	a_ (
-2.423792	abs (	0.01130726
-2.599337	ageX -
-2.426511	ala *	0.0002903207
-2.602602	ala ;
-2.602602	ala asn
-2.301573	ala not	0.002761375
-1.556303	and )	0.0008658795
-2.440909	and *
-2.617	and ;
-2.617	and asp
-2.617	and gln
-2.440909	and his	0.0005343143
-2.617	and pyl
-2.617	and sec
-2.617	and tla
-2.617	and tyr
-2.617	and xle
-2.599883	ar )
-2.599883	ar ,
-2.203577	arg )
-2.601517	arg =
-2.600973	argh )
-2.424882	argh ,
-2.600973	argh ;
-2.605844	asn ,
-1.827692	asn .	0.01940692
-2.605844	asn ;
-2.424337	asp -	-0.0004505744
-2.600428	asp =
-2.600973	asx )
-2.600973	asx +
-2.600973	asx =
-2.600973	asx >
-2.423792	au )	-0.0003224091
-2.07326	b !	0.001686712
-2.67532	b &
-2.499229	b &&
-2.499229	b (
-1.830222	b )	0.1658552
-2.67532	b *
-2.499229	b *=
-2.67532	b +
-2.67532	b ++
-1.934957	b ,	0.002464691
-2.131252	b ->	0.003276527
-2.67532	b .
-1.721077	b ;	0.09945095
-2.67532	b <
-2.198199	b </s>
-2.37429	b <<	-0.0001077135
-1.697596	b =	0.004602559
-2.67532	b >
-2.499229	b >>
-2.37429	b ?
-2.131252	b B	0.001820141
-2.67532	b D
-2.131252	b I	-0.0001726786
-2.67532	b O
-2.67532	b P
-2.198199	b W	0.002274477
-2.07326	b X	0.002912719
-2.67532	b Z
-1.934957	b [	0.00410803
-2.37429	b ]
-2.499229	b ^
-2.27738	b bf	0.001599011
-2.67532	b bg
-2.67532	b bt
-2.67532	b j
-2.67532	b n
-2.67532	b o
-2.499229	b q
-2.67532	b u
-2.67532	b ||
-2.601517	bA ,
-2.601517	bA ;
-2.601517	bA <<
-2.425426	bA =	-0.0008388447
-2.600973	bB )
-2.600973	bB ;
-2.424882	bB =
-2.600973	bC *
-2.600973	bC ,
-2.600973	bC /
-2.600973	bC =
-2.600428	bD *
-2.600428	bD ,
-2.600428	bD =
-2.601517	bE )
-2.300487	bE .
-2.601517	bE ;
-2.599337	b\nq(%s)\n" </s>
-2.299398	ba (
-2.60206	bb )
-2.60206	bb +
-2.60206	bb +=
-2.60206	bb ;
-2.425969	bb =
-2.124396	bc (
-2.424337	bd (
-2.600428	bd </s>
-2.603144	be )
-2.427053	be ,	-0.000981359
-2.126023	be ;	0.002532858
-2.304275	bf &&	0.0002866681
-2.207365	bf )	0.04243369
-2.207365	bf ;	0.005471622
-2.605305	bf =
-2.600973	bg &&
-2.600973	bg )
-2.600973	bg ;
-2.600973	bg =
-2.299398	bh (	0.001118365
-2.599883	bi )
-2.599883	bi ]
-2.599337	binary "
-2.299398	bj (	0.002352165
-2.600973	bk &&
-2.424882	bk ,
-2.600973	bk ;
-2.423792	bl (	0.02842148
-2.599883	bm =
-2.599883	bm ==
-2.599883	bn ,
-2.599883	bn =
-2.599883	bo )
-2.599883	bo =
-1.949932	bp (
-2.599883	bq (
-2.599883	bq }
-2.423792	br ,
-1.678036	break ;	0.134918
-2.424337	bs )
-2.600428	bs ;
-2.60206	bt ,
-2.425969	bt ;
-2.425969	bt =
-2.60206	bt >
-2.60206	bu *
-2.425969	bu ,
-2.425969	bu =
-2.60206	bu >
-2.600973	buf )
-2.600973	buf ,
-2.600973	buf ;
-2.600973	buf [
-2.599883	bv ,
-2.599883	bv ;
-2.599337	bw ,
-2.599883	bx )
-2.599883	bx ;
-2.60206	by ,
-2.60206	by =
-2.30103	by ?	0.003609076
-2.60206	by ||
-2.601517	bz </s>
-2.601517	bz <<
-2.425426	bz =
-2.601517	bz >>
-2.658488	c "
-2.658488	c %
-2.482397	c &&
-1.729069	c )	0.1750901
-2.11442	c *
-2.181367	c +	0.0004235847
-2.658488	c ++
-1.845575	c ,	0.003233006
-2.11442	c -	0.003946505
-2.658488	c --
-2.482397	c .
-2.658488	c /
-2.357458	c :
-1.918126	c ;	0.000303337
-2.357458	c <
-2.357458	c </s>
-1.597791	c =	0.02852787
-2.260548	c ==
-2.482397	c >
-2.482397	c ?
-2.658488	c L
-2.658488	c R
-2.357458	c W
-2.482397	c Y
-2.658488	c Z
-2.482397	c ]
-2.482397	c ^
-2.658488	c |
-2.658488	c ||
-2.203033	calloc (
-2.604226	case 'd'
-2.604226	case 0
-2.604226	case 10
-2.604226	case 123
-2.604226	case 35
-2.428135	case 36	0
-2.604226	case 40
-2.604226	case 58
-2.604226	case 61
-2.599337	cb ,
-2.599337	ch )
-1.504628	char *	0.01043824
-2.618571	char J
-2.618571	char L
-2.618571	char N
-2.618571	char O
-2.618571	char X
-2.618571	char buf
-2.44248	char c
-2.618571	char o
-2.618571	char p
-2.618571	char pro
-2.618571	char ser
-2.599337	close (
-2.434569	const ala	0.0005343143
-2.0086	const and	-5.323661e-05
-2.61066	const char
-2.61066	const gln
-2.434569	const his	0.0005343143
-2.434569	const not	0.001777857
-2.30963	const pro	-5.482929e-06
-2.434569	const ser
-2.434569	const thr
-2.599337	continue ;
-2.299398	cos (
-2.599337	crea "
-2.599337	curs_set (
-2.60206	cys )
-2.425969	cys -
-2.60206	cys =
-2.425969	cys >>	0.0004208331
-1.832965	d )	0.07080692
-2.280123	d *
-2.280123	d *=
-2.076003	d +	0.004155544
-2.678063	d ++
-1.899912	d +=	0.001581812
-1.656874	d ,	-0.001056357
-2.377033	d -
-2.133995	d -=	0.00196304
-2.678063	d ->
-2.678063	d .
-2.377033	d /=
-2.678063	d :
-1.656874	d ;	0.1382825
-2.678063	d <
-2.501972	d </s>
-2.678063	d <<
-2.678063	d <=
-1.581153	d =	0.009409014
-2.678063	d ==
-2.501972	d >>
-2.501972	d ?
-2.678063	d R
-1.865149	d W	0.008369804
-2.377033	d X
-2.200942	d Y	0.002443956
-2.678063	d [
-2.280123	d ]	0.003522662
-2.678063	d ^
-2.678063	d |
-2.501972	d ||
-2.599337	dA )
-2.599337	dB )
-2.599337	dC </s>
-2.599337	dat </s>
-2.599337	data )
-2.299398	default :
-2.599337	defined __STDC_VERSION__
-2.601517	do ,
-2.203577	do {	0.03237109
-2.599337	double </s>
-2.423792	dstr )	0.006708545
-2.599337	dup (
-2.423792	dup2 (
-2.262451	e (	0.003894211
-1.920028	e )	0.1238471
-2.359361	e *
-2.660391	e *=
-2.4843	e +
-2.058331	e +=
-1.757301	e ,	0.007100018
-2.660391	e -
-2.4843	e -=
-1.847478	e ->	0.01390441
-2.359361	e .
-2.4843	e /
-2.660391	e :
-1.682667	e ;	0.1343466
-2.4843	e <
-2.4843	e </s>
-2.660391	e <<=
-1.706149	e =	0.008718805
-2.660391	e >
-2.660391	e >>
-2.4843	e W
-2.4843	e Y	0.003530353
-1.920028	e [	0.00674003
-2.660391	e ]
-2.660391	e {
-2.599337	eep ,
-2.212188	else </s>
-2.610128	else V
-2.610128	else goto
-2.610128	else z
-1.735066	else {	0.03600028
-2.599337	elta_u )
-2.599337	elta_v )
-2.599337	er </s>
-2.124396	err (	0.0004711985
-2.599337	errx (
-2.124396	exit (	0.001859039
-2.299398	exp (	-0.00041531
-2.299398	extern void
-2.662286	f &
-2.361255	f &&	0.01391916
-1.817187	f (	0.0041083
-1.641096	f )	0.2216983
-2.486194	f *
-2.662286	f +
-1.662286	f ,	0.01813163
-2.361255	f -	0.001540929
-2.662286	f .
-1.787224	f ;	0.1029451
-2.486194	f <
-2.662286	f </s>
-2.662286	f <<
-1.787224	f =	0.006474345
-2.662286	f ==
-2.662286	f >
-2.060225	f ?	0.001701966
-2.662286	f EOF
-1.963315	f L	0.0004364219
-2.662286	f R
-2.486194	f X
-2.662286	f Z
-2.486194	f ]
-2.662286	f defined
-2.486194	f |	0.0004306576
-2.486194	f }
-2.599337	fabs (
-2.599337	fclose (
-2.599337	fgetc (
-2.599337	fgets (
-2.599337	file1 file2"
-2.599337	file2" ,
-2.599337	flash (
-2.602602	float </s>
-2.602602	float C
-2.602602	float I
-2.602602	float K
-2.602602	float N
-2.602602	float V
-2.602602	float a
-2.599337	float_ )
-2.599337	flu ,
-2.299398	fopen (
-1.110439	for (	0.01221531
-2.237544	for </s>
-2.599337	fputc (
-2.299398	fread (
-2.057992	free (	0.001963945
-2.599337	fscanf (
-2.423792	fseek (
-2.599337	function (
-2.203033	fw )	0.07458638
-2.480007	g %
-2.656098	g &
-2.656098	g &&
-2.258158	g (	0.003894211
-2.11203	g )	0.04189254
-1.915735	g *	0.001684194
-2.258158	g *=
-2.258158	g +
-2.355068	g ++	0.002141024
-2.480007	g +=
-2.002886	g ,	0.005894765
-2.656098	g --
-2.258158	g -=
-2.656098	g /
-2.656098	g :
-1.576917	g ;	0.09379687
-2.258158	g <	-0.0002340578
-2.656098	g <<
-1.50997	g =	0.03920238
-2.656098	g ==
-2.656098	g >>
-2.656098	g ]
-2.656098	g ^
-2.656098	g ||
-2.599337	getC "
-2.599337	getch (
-2.299943	getchar (	0.02787622
-2.600973	getchar ;
-2.599337	getopt (
-2.130334	gln )	0.1254611
-1.954242	gln ;	0.09965943
-2.431364	gln =
-2.607455	gln ==
-2.127105	glu )	0.1254611
-2.303196	glu :	-0.0003271868
-2.604226	glu <<
-2.604226	glu =
-2.599883	glx %
-2.599883	glx =
-2.057992	gly (	-0.001806073
-2.599337	go )
-2.599337	goofy !
-2.299943	goto O	0.0008065745
-2.600973	goto o
-2.333447	h %
-2.634477	h &&
-2.090409	h (	0.00470488
-2.458386	h )
-2.333447	h *	0.001360148
-2.634477	h *=
-2.458386	h +	0.01085267
-2.634477	h ++
-2.634477	h +=
-2.157356	h ,	0.0005652526
-2.157356	h -	0.00274309
-2.333447	h .	0.003626421
-2.634477	h /
-2.032417	h ;	0.1012952
-2.634477	h </s>
-2.032417	h <<	0.002462699
-1.856326	h =	0.004013968
-2.634477	h >
-2.634477	h >>
-2.634477	h ?
-2.634477	h ^
-2.634477	h ^=
-2.634477	h b
-2.458386	h |
-2.599337	height =
-2.301573	his )	0.07458432
-2.602602	his ;
-2.301573	his [	0.002723003
-2.599337	ho )
-2.599337	href .
