
\data\
ngram 1=144
ngram 2=579
ngram 3=275

\1-grams:
-2.237818	!	-0.001756467
-2.434113	!=	-0.01507011
-2.802089	"	0.01727782
-2.97818	"%d,%dd%d\n"	0.005260945
-2.97818	"%d\n"	0.005260945
-2.97818	"%da%d,%d\n"	0.005260945
-2.97818	"%da%d\n"	0.005260945
-2.97818	"%dd%d\n"	0.005260945
-2.67715	"%s"	-0.0007294193
-2.97818	"-"	0.005260945
-2.97818	"<	-0.0053886
-2.97818	">	-0.0053886
-2.97818	"d"	0.02028333
-2.97818	"r"	0.02028333
-2.97818	"usage:	-0.005617236
-2.97818	%s	-0.005617236
-2.376121	&&	-0.003992356
-2.802089	'\n'	0.01727782
-2.97818	'd'	-0.005159844
-1.229993	(	-0.1459845
-1.229993	)	-0.1014522
-1.67715	*	-0.0148074
-1.898999	+	-0.04330588
-2.324968	++	0.03642249
-2.97818	+=	0.02028333
-1.589014	,	-0.1212086
-2.324968	-	-0.02015096
-2.802089	--	0.01727782
-1.453136	->	-0.1453723
-2.000457	.	-0.04012461
-2.133082	0	0.02162792
-1.898999	1	0.003534369
-2.802089	14695981039346656037ULL	0.02734104
-2.376121	2	-0.006059438
-2.802089	3	0.0366127
-2.97818	4	0.02028333
-2.97818	40	0.02028333
-2.97818	5	0.02028333
-2.802089	65536	0.02951788
-2.97818	7	0.02028333
-2.97818	8	0.02028333
-2.67715	:	0.04370714
-1.094519	;	-0.2228421
-2.165267	<	0.005365409
-0.9026335	</s>
-2.376121	<<	-0.03153705
-2.67715	<=	-0.01015863
-99	<s>	-0.4819286
-1.39272	=	-0.2106303
-2.501059	==	-0.01115486
-2.97818	>	-0.003095594
-2.97818	?	-0.003555164
-2.165267	A	0.03988402
-2.165267	B	0.02953181
-2.802089	D	0.01727782
-2.279211	E	0.01384397
-2.802089	EOF	0.01727782
-2.67715	F	0.01429297
-2.501059	FILE	-0.008742535
-2.376121	H	0.0195963
-2.58024	I	0.06489661
-1.747732	K	0.03243167
-2.376121	L	0.02898645
-2.67715	N	0.01429297
-2.237818	O	0.04127356
-2.58024	P	0.06489661
-1.936788	Q	0.03105949
-2.802089	R	0.01727782
-2.802089	SEEK_SET	0.01727782
-2.802089	T	0.01727782
-2.67715	W	0.01429297
-2.58024	X	0.02830807
-2.501059	Y	0.04960179
-1.956991	[	-0.04592948
-2.97818	[-d]	-0.005617236
-1.956991	]	0.01441476
-2.97818	^	-0.004930967
-2.97818	^=	0.003156688
-2.023938	a	0.02609573
-1.67715	b	0.001487568
-2.67715	break	0.02435619
-2.58024	buf	0.05983897
-2.802089	c	0.04382535
-2.97818	calloc	0.02028333
-2.97818	case	-0.005617236
-2.67715	char	-0.004735133
-2.324968	d	0.02979412
-2.97818	default	-0.005159844
-2.67715	do	-0.003066855
-1.917483	e	0.04799771
-2.58024	else	0.05025892
-2.501059	err	0.00838411
-2.97818	errx	0.02028333
-2.501059	f	0.03392351
-2.97818	fgetc	0.02028333
-2.97818	file1	-0.005617236
-2.97818	file2"	0.005260945
-2.97818	fopen	0.02028333
-2.434113	for	0.00545956
-2.97818	fputc	0.02028333
-2.97818	fread	0.02028333
-2.97818	free	0.02028333
-2.802089	fseek	0.01727782
-2.501059	g	0.07269913
-2.97818	getchar	0.02028333
-2.97818	getopt	0.02028333
-2.000457	h	0.001532212
-2.133082	i	0.04842849
-1.936788	if	-0.03619803
-2.075091	int	0.02619576
-2.075091	j	0.03310675
-1.978181	k	0.03760412
-2.165267	long	-0.02051956
-2.97818	main	0.02028333
-2.97818	malloc	0.02028333
-2.200029	n	0.04241597
-2.501059	o	0.04406007
-2.279211	op	0.04691431
-2.434113	optind	0.026843
-2.237818	p	0.02963035
-2.376121	printf	0.002554569
-2.97818	putchar	0.02028333
-2.237818	q	0.05398553
-2.97818	realloc	0.02028333
-2.434113	return	-0.002026949
-2.802089	rewind	0.01727782
-2.501059	sizeof	0.00838411
-2.97818	strcmp	0.02028333
-2.501059	struct	-0.00664991
-2.97818	switch	0.02028333
-2.802089	t	0.04382535
-2.97818	tmpfile	0.02028333
-2.58024	typedef	-0.01365681
-2.58024	u	0.02031352
-2.434113	unsigned	-0.020068
-2.58024	v	0.004394548
-2.501059	void	0.07552505
-2.237818	while	-0.006045604
-1.864237	x	0.02264354
-1.546817	y	-0.02696007
-2.324968	z	0.03059763
-1.688146	{	-0.04733303
-2.97818	||	-0.002865625
-1.688146	}	-0.05067469

\2-grams:
-1.40654	! (
-1.883661	! O
-1.883661	! P
-1.883661	! Q
-1.883661	! b
-1.883661	! strcmp
-1.872156	!= -
-1.872156	!= B
-1.696065	!= EOF	0
-1.696065	!= b	0.02310503
-1.684247	" )	0.05929432
-1.857332	"%d,%dd%d\n" ,
-1.857332	"%d\n" ,
-1.857332	"%da%d,%d\n" ,
-1.857332	"%da%d\n" ,
-1.857332	"%dd%d\n" ,
-1.562293	"%s" ,	0.002503606
-1.857332	"-" ,
-1.857332	"< "
-1.857332	"> "
-1.857332	"d" )
-1.857332	"r" )
-1.857332	"usage: %s
-1.857332	%s [-d]
-1.69897	&& !
-1.875061	&& A
-1.69897	&& a	0.0103489
-1.875061	&& b
-1.875061	&& y
-1.684247	'\n' )
-1.857332	'd' :
-1.450591	( !	-0.000234846
-2.103804	( "%d,%dd%d\n"
-2.103804	( "%d\n"
-2.103804	( "%da%d,%d\n"
-2.103804	( "%da%d\n"
-2.103804	( "%dd%d\n"
-2.103804	( "-"
-2.103804	( "<
-2.103804	( ">
-1.705864	( (	0.001917313
-1.802774	( )	0.02846098
-1.705864	( *
-1.705864	( 0	0.00505204
-1.559736	( 2	-0.0001426972
-1.927712	( ;	-0.0001554843
-1.802774	( A	0.01696202
-2.103804	( B
-1.927712	( E	0.0174279
-1.927712	( FILE	0.008893713
-2.103804	( H
-2.103804	( I
-1.559736	( K	0.03992331
-1.927712	( O
-2.103804	( P
-1.501744	( Q	0.02954458
-2.103804	( Y
-1.927712	( b	-0.001861301
-1.927712	( buf
-2.103804	( char
-1.802774	( f	-0.000123105
-1.802774	( g	-0.000123105
-1.559736	( h	-0.001592766
-1.501744	( i	0.005052041
-1.927712	( int
-1.626683	( k	0.0009516943
-2.103804	( n
-1.927712	( q
-2.103804	( sizeof
-2.103804	( u
-2.103804	( v
-2.103804	( void
-1.802774	( x
-1.705864	( y	0.002267862
-1.802774	) !=	-0.0001834063
-2.103804	) &&
-1.082614	) )	0.07469349
-1.559736	) +	-0.001862127
-2.103804	) ,
-0.836632	) ;	0.1709079
-1.043106	) </s>
-2.103804	) err
-2.103804	) printf
-1.082614	) {	0.04549097
-1.959041	* *
-1.561101	* </s>
-1.959041	* A
-1.959041	* B
-1.78295	* K	0.003436901
-1.78295	* O	0.002425504
-1.48192	* Q	0.0154239
-1.959041	* Y
-1.78295	* a	0.001915728
-1.48192	* b	0.017259
-1.658011	* e
-1.959041	* f
-1.959041	* g
-1.959041	* n
-1.78295	* p	0.008294439
-1.959041	* q
-1.959041	* sizeof
-1.959041	* t
-1.959041	* u
-1.658011	* y	0.01606752
-1.441957	+ (	-0.005836607
-1.178715	+ 1	0.02326777
-1.919078	+ 2
-1.742987	+ 3
-1.919078	+ A
-1.742987	+ B	0.01689918
-1.919078	+ p
-1.919078	+ z
-1.701856	++ )
-1.480007	++ ;	0.2533959
-1.877947	++ ==
-1.877947	++ ]
-1.857332	+= (
-1.678973	, "%s"	0
-1.980003	, "d"
-1.980003	, "r"
-1.980003	, "usage:
-1.377943	, *	0.002820316
-1.803912	, 0	0.002201354
-1.980003	, 1
-1.239641	, K	0.01445249
-1.803912	, Q	0.01824347
-1.803912	, SEEK_SET	0
-1.803912	, a	0.0103489
-1.980003	, char
-1.980003	, d
-1.980003	, i
-1.980003	, n
-1.980003	, o
-1.980003	, op
-1.980003	, p
-1.678973	, sizeof	0.005908858
-1.803912	, u	0.002901641
-1.582063	, y	0.002316242
-1.400826	- 1	0.01508427
-1.877947	- A
-1.877947	- k
-1.877947	- p
-1.684247	-- )	0.02839814
-1.621176	-> a	0.007644417
-1.206203	-> b	0.01325833
-1.144055	-> j	-0.000290256
-1.417056	-> n	0.008338379
-1.621176	-> op	-0.0002975231
-1.240965	-> x	0.01109996
-1.240965	-> y	0.02005979
-1.718086	-> z
-1.507856	. e	0.004409119
-1.507856	. q	0.008230712
-1.165433	. y	0.01423892
-1.591065	0 )	0.05630947
-1.414973	0 ;	0.2534992
-1.414973	0 <
-1.618048	1 )	0.02846098
-1.919078	1 ,
-1.919078	1 :
-1.220108	1 ;	0.2388696
-1.742987	1 ==	-0.0001859451
-1.317018	1 ]	0.03300527
-1.684247	14695981039346656037ULL ;	0.2593452
-1.875061	2 *
-1.330993	2 ,	-0.004682381
-1.860338	3 ,
-1.860338	3 ;
-1.857332	4 )
-1.857332	40 )
-1.857332	5 )
-1.860338	65536 ;
-1.860338	65536 ]
-1.857332	7 )
-1.857332	8 )
-1.863323	: 65536
-1.687232	: </s>
-2.168792	; )
-0.3362831	; </s>
-1.691671	; K	0.002230018
-2.168792	; d
-1.992701	; int
-1.691671	; k	-0.001582952
-1.992701	; long
-2.168792	; struct
-1.889302	< (
-1.71321	< A	0.01689918
-1.889302	< B
-1.71321	< a	0.0103489
-1.889302	< d
-1.889302	< h
-1.889302	< i
-1.889302	< n
-1.889302	< x
-1.889302	< y
-1.69897	<< 1
-1.875061	<< 4
-1.875061	<< 40
-1.875061	<< 5
-1.875061	<< 7
-1.875061	<< 8
-1.863323	<= L
-1.863323	<= k
-1.863323	<= optind
-2.278754	<s> A
-2.278754	<s> B
-2.102662	<s> D	0
-1.734686	<s> E	0.005609632
-2.278754	<s> F
-1.977724	<s> FILE	0.005908858
-1.801632	<s> H	0.002781853
-2.278754	<s> I
-1.801632	<s> K	-0.001915
-2.278754	<s> L
-2.278754	<s> N
-2.278754	<s> O
-2.278754	<s> P
-1.977724	<s> Q	0.009927377
-2.278754	<s> R
-2.278754	<s> T
-1.977724	<s> W	0
-1.977724	<s> X
-2.102662	<s> Y	-0.0001859451
-1.977724	<s> a	0.004534747
-1.734686	<s> b	0.00112736
-1.977724	<s> break	0
-2.278754	<s> case
-2.278754	<s> d
-2.278754	<s> default
-1.977724	<s> do	0
-1.538391	<s> e	0.003237274
-2.102662	<s> else	-0.000124814
-1.880814	<s> err	0.00294438
-2.278754	<s> errx
-2.278754	<s> f
-1.734686	<s> for	0
-2.278754	<s> fputc
-2.278754	<s> free
-2.102662	<s> fseek	0
-2.278754	<s> g
-1.801632	<s> h	0.002032511
-2.278754	<s> i
-1.237361	<s> if	0
-1.500602	<s> int	-0.0005232431
-1.977724	<s> long
-2.278754	<s> main
-2.102662	<s> o
-2.102662	<s> op	0.002502216
-2.278754	<s> optind
-1.880814	<s> p	-0.0004761368
-1.734686	<s> printf	0.002904991
-2.278754	<s> putchar
-2.278754	<s> q
-1.734686	<s> return
-2.102662	<s> rewind	0
-2.278754	<s> switch
-1.880814	<s> typedef	0
-1.734686	<s> unsigned	0
-1.880814	<s> void	-8.207653e-05
-1.676694	<s> while	0.008600174
-2.102662	<s> x
-1.579784	<s> y	0.00742832
-2.278754	<s> z
-1.579784	<s> {	0.07583498
-0.988719	<s> }	0
-1.738384	= -	0.008592125
-1.562293	= 0	-0.0009400323
-1.641474	= 1	0.0119545
-1.863323	= 14695981039346656037ULL	0
-1.863323	= A
-1.738384	= B	0.01696202
-1.863323	= F	0.002984855
-1.562293	= K	0.03694935
-2.039414	= L
-1.863323	= N	0.002984855
-1.738384	= O	0.002488344
-1.863323	= Q	0.009864537
-2.039414	= R
-2.039414	= T
-2.039414	= a
-1.562293	= b	0.02951377
-2.039414	= buf
-2.039414	= c
-2.039414	= calloc
-2.039414	= d
-1.738384	= e	0.02662354
-2.039414	= fgetc
-2.039414	= fopen
-2.039414	= fread
-2.039414	= getchar
-2.039414	= getopt
-1.738384	= h	0.001909406
-2.039414	= malloc
-1.863323	= o	-0.0001859451
-2.039414	= op
-2.039414	= p
-2.039414	= q
-2.039414	= realloc
-2.039414	= t
-2.039414	= tmpfile
-1.863323	= v	0.002901641
-1.738384	= x	0.001057164
-1.641474	= y	0.01076183
-2.039414	= z
-1.693141	== '\n'	0
-1.869232	== B
-1.693141	== b	0.007953681
-1.857332	> B
-1.857332	? O
-1.889302	A ,
-1.236089	A ->	0.03270987
-1.889302	A ;
-1.71321	A =
-1.236089	B ->	0.03270987
-1.71321	B ;	0.2593452
-1.71321	B =
-1.684247	D (
-1.227601	E *	-0.002145667
-1.880814	E ;
-1.684247	EOF )
-1.562293	F (
-1.39211	FILE *	0.002659499
-1.330993	H *	0.003264709
-1.875061	H ;
-1.866287	I )
-1.690196	I ;	0.2593452
-1.866287	I =
-1.768391	K !=	-0.0002462463
-1.643453	K (	0.001365217
-1.546543	K )	0.0322669
-0.9902402	K ->	0.02338908
-1.643453	K ;	0.2594081
-1.546543	K =	0.003109669
-1.875061	L )
-1.875061	L ++
-1.875061	L ,
-1.875061	L -
-1.875061	L =
-1.69897	L ]	0.02701668
-1.562293	N (
-1.582631	O (	-0.0003824476
-1.582631	O )	0.03220493
-1.883661	O ,
-1.70757	O ->
-1.883661	O ?
-1.690196	P )
-1.866287	P ;
-1.866287	P =
-1.214844	Q )	0.1341631
-1.913814	Q ,
-1.737723	Q ;	0.2593452
-1.612784	Q =
-1.369746	Q [	0.0006997269
-1.684247	R (
-1.684247	SEEK_SET )	0.05929432
-1.684247	T (
-1.562293	W (
-1.866287	X *
-1.866287	X ;
-1.866287	X h
-1.866287	X v
-1.693141	Y ->
-1.693141	Y ;	0.2593452
-1.869232	Y =
-1.911158	[ 1
-1.911158	[ 65536
-1.610128	[ L	-0.0002428927
-1.735066	[ d	-0.0003644247
-1.434036	[ k	-0.001041294
-1.513218	[ optind	-0.0002479944
-1.735066	[ x
-1.735066	[ y
-1.857332	[-d] file1
-1.513218	] )	0.05334499
-1.911158	] ,
-1.098244	] .	0.01649418
-1.610128	] ;	0.2563604
-1.857332	^ I
-1.857332	^= *
-1.60206	a ,	0.00956546
-1.359022	a ->	0.02900741
-1.60206	a ;	0.2594081
-1.425969	a =	0.0031708
-1.78295	b &&
-1.959041	b )
-1.959041	b ++
-1.959041	b ,
-1.414973	b ->	0.01003999
-1.146128	b ;	0.2470872
-1.305829	b =	0.006864825
-1.305829	b [	-0.002261659
-1.562293	break ;	0.2563604
-1.866287	buf )
-1.866287	buf ,
-1.866287	buf ;
-1.866287	buf [
-1.860338	c ;
-1.860338	c =
-1.857332	calloc (
-1.857332	case 'd'
-1.687232	char *
-1.863323	char buf
-1.701856	d +
-1.701856	d ;
-1.877947	d <=
-1.877947	d =
-1.701856	d ]	0.02701668
-1.857332	default :
-1.562293	do {	0.0933257
-1.740363	e )
-1.916454	e *
-1.103541	e ->	0.05631724
-1.518514	e ;	0.2533959
-1.740363	e =
-1.916454	e {
-1.690196	else </s>
-1.690196	else {	0.09631056
-1.39211	err (	-0.005836607
-1.857332	errx (
-1.693141	f )
-1.693141	f ,
-1.869232	f =
-1.857332	fgetc (
-1.857332	file1 file2"
-1.857332	file2" ,
-1.857332	fopen (
-1.328088	for (	-0.005230295
-1.857332	fputc (
-1.857332	fread (
-1.857332	free (
-1.684247	fseek (
-1.693141	g )
-1.869232	g ,
-1.869232	g ;
-1.869232	g =
-1.857332	getchar (
-1.857332	getopt (
-1.905796	h +=
-1.604766	h .	0.0217178
-1.604766	h ;	0.2563604
-1.361728	h <<
-1.604766	h =	-0.003026454
-1.905796	h ^=
-1.905796	h b
-1.591065	i )	0.05935716
-1.892095	i ,
-1.494155	i ;	0.2533959
-1.494155	i =
-1.892095	i ==
-0.8724211	if (	-0.00761014
-1.721536	int </s>
-1.897627	int I
-1.897627	int P
-1.596597	int i	0.002083139
-1.721536	int k
-1.897627	int op
-1.596597	int x	0.01489534
-1.721536	int y	0.01366347
-1.721536	j &&
-1.721536	j )
-1.420506	j +	-0.001985263
-1.897627	j -
-1.721536	j ;	0.2593452
-1.721536	j =
-1.897627	j >
-1.607455	k )	0.05935716
-1.908485	k +
-1.732394	k ++	-0.0003644247
-1.908485	k ,
-1.908485	k -
-1.908485	k --
-1.732394	k ;
-1.732394	k <
-1.607455	k =
-1.607455	k ]	0.02403183
-1.889302	long L
-1.889302	long a
-1.889302	long b
-1.889302	long c
-1.889302	long h
-1.889302	long j
-1.71321	long long
-1.889302	long q
-1.889302	long y
-1.71321	long z	0.002579955
-1.857332	main (
-1.857332	malloc (
-1.7104	n )	0.02839814
-1.886491	n --
-1.409369	n ;	0.2504515
-1.585461	n =
-1.869232	o ++
-1.869232	o ,
-1.693141	o ;	0.2593452
-1.869232	o =
-1.704722	op &&	-0.0003057327
-1.880814	op )
-1.704722	op ;
-1.579784	op =
-1.880814	op ^
-1.872156	optind )
-1.696065	optind +	0.02069674
-1.872156	optind =
-1.696065	optind ]	0.004450861
-1.883661	p ++
-1.883661	p ,
-1.40654	p ;	0.2565256
-1.582631	p =
-1.273001	printf (
-1.857332	putchar (
-1.883661	q )
-1.883661	q +
-1.485721	q ;	0.2533959
-1.582631	q =	-0.003026454
-1.883661	q [
-1.857332	realloc (
-1.872156	return 0
-1.872156	return Q
-1.872156	return Y
-1.872156	return b
-1.872156	return d
-1.872156	return y
-1.684247	rewind (	0.004818954
-1.39211	sizeof (	-0.003264852
-1.857332	strcmp (
-1.693141	struct e
-1.568202	struct {	0.0933257
-1.857332	switch (
-1.860338	t ;
-1.860338	t =
-1.857332	tmpfile (
-1.468347	typedef struct	-8.207653e-05
-1.565257	u )
-1.866287	u ,
-1.872156	unsigned char
-1.395035	unsigned long	-0.0008279402
-1.565257	v .	0.0217178
-1.866287	v =
-1.869232	void )
-1.869232	void *
-1.568202	void </s>
-1.143299	while (	-0.006538717
-1.623249	x )
-1.748188	x +	0.02069674
-1.924279	x ++
-1.271067	x ,	0.01435441
-1.526339	x ;	0.2564436
-1.748188	x <
-1.924279	x <=
-1.623249	x =	0.001013524
-1.924279	x ]
-1.991226	y !=
-1.250863	y )	0.08462889
-1.593286	y +	0.0147474
-1.991226	y ++
-1.690196	y ,
-1.991226	y -
-1.514105	y ->	0.01599099
-1.292256	y ;	0.2419173
-1.690196	y <
-1.292256	y =	-0.002033783
-1.991226	y ==
-1.593286	y [	-0.001498472
-1.991226	y ]
-1.991226	y ||
-1.877947	z *
-1.576917	z ;	0.2563604
-1.877947	z <<
-1.877947	z <=
-1.701856	z =
-0.666614	{ </s>
-1.857332	|| 0
-0.7805573	} </s>
-1.956649	} E
-1.956649	} H
-1.956649	} X
-1.780557	} else	-0.000124814
-1.956649	} h
-1.655619	} while	0.02033857

\3-grams:
-1.400826	( ! (
-1.687232	) != EOF
-1.684247	K != b
-1.562293	, "%s" ,
-1.684247	op && a
-1.684247	== '\n' )
-1.565257	( ( i
-1.39211	+ ( h
-1.687232	K ( k
-1.687232	O ( y
-1.39211	err ( 2
-1.696065	for ( ;
-1.571126	for ( k
-1.260601	if ( !
-1.612784	if ( K
-1.684247	rewind ( Q
-1.568202	sizeof ( *
-1.582631	while ( (
-1.70757	while ( 0
-1.70757	while ( b
-1.684247	" ) ;
-1.687232	( ) )
-1.610128	) ) !=
-1.257945	) ) )
-1.513218	) ) </s>
-1.610128	) ) {
-1.684247	-- ) {
-1.562293	0 ) ;
-1.687232	1 ) {
-1.690196	K ) </s>
-1.687232	O ) </s>
-1.579784	Q ) )
-1.579784	Q ) ;
-1.704722	Q ) </s>
-1.684247	SEEK_SET ) ;
-1.468347	] ) ;
-1.687232	i ) ;
-1.687232	k ) ;
-1.684247	n ) {
-1.281601	y ) ;
-1.70757	y ) </s>
-1.574031	, * b
-1.701856	E * K
-1.701856	E * a
-1.701856	E * e
-1.568202	FILE * Q
-1.696065	H * </s>
-1.395035	) + (
-1.693141	j + 3
-1.693141	j + B
-1.684247	optind + 1
-1.684247	x + 1
-1.468347	y + 1
-1.684247	k ++ )
-1.687232	"%s" , y
-1.571126	2 , "%s"
-1.696065	2 , 0
-1.687232	a , *
-1.480007	x , K
-1.701856	x , y
-1.687232	= - 1
-1.701856	A -> b
-1.333879	A -> j
-1.701856	B -> b
-1.333879	B -> j
-1.50515	K -> n
-1.425969	K -> x
-1.425969	K -> y
-1.571126	a -> x
-1.571126	a -> y
-1.696065	b -> n
-1.696065	b -> op
-1.588272	e -> a
-1.588272	e -> b
-1.71321	e -> x
-1.71321	e -> y
-1.568202	y -> b
-1.71321	] . e
-1.491362	] . q
-1.345234	] . y
-1.687232	h . y
-1.687232	v . y
-1.565257	( 0 <
-1.684247	, 0 )
-1.39211	= 0 ;
-1.70757	+ 1 ;
-1.70757	+ 1 ==
-1.40654	+ 1 ]
-1.568202	- 1 ;
-1.468347	= 1 ;
-1.684247	= 14695981039346656037ULL ;
-1.328088	( 2 ,
-1.684247	( ; K
-0.6965505	) ; </s>
-1.468347	++ ; </s>
-1.471292	0 ; </s>
-1.181844	1 ; </s>
-1.684247	14695981039346656037ULL ; </s>
-1.684247	B ; </s>
-1.684247	I ; </s>
-1.687232	K ; </s>
-1.684247	Q ; </s>
-1.684247	Y ; </s>
-1.562293	] ; </s>
-1.687232	a ; </s>
-1.190332	b ; </s>
-1.71321	b ; K
-1.562293	break ; </s>
-1.468347	e ; </s>
-1.562293	h ; </s>
-1.468347	i ; </s>
-1.684247	j ; </s>
-1.39211	n ; </s>
-1.684247	o ; </s>
-1.568202	p ; </s>
-1.468347	q ; </s>
-1.565257	x ; </s>
-1.227601	y ; </s>
-1.562293	z ; </s>
-1.690196	K = K
-1.693141	a = b
-1.701856	b = K
-1.701856	b = b
-1.687232	h = 14695981039346656037ULL
-1.687232	q = o
-1.687232	x = y
-1.704722	y = N
-1.704722	y = h
-1.704722	y = y
-1.684247	1 == b
-1.687232	( A ->
-1.684247	< A ->
-1.684247	+ B ->
-1.687232	= B ->
-1.684247	<s> D (
-1.684247	( E *
-1.328088	<s> E *
-1.684247	!= EOF )
-1.684247	= F (
-1.684247	( FILE *
-1.562293	<s> FILE *
-1.39211	<s> H *
-1.696065	( K )
-1.571126	( K ->
-1.684247	* K )
-1.143299	, K ->
-1.693141	; K !=
-1.693141	; K =
-1.568202	<s> K (
-1.568202	= K ->
-1.693141	= K ;
-1.687232	[ L ]
-1.684247	= N (
-1.684247	* O )
-1.687232	= O (
-1.574031	( Q )
-1.69897	( Q =
-1.69897	( Q [
-1.568202	* Q )
-1.684247	, Q )
-1.687232	<s> Q [
-1.684247	= Q [
-1.684247	, SEEK_SET )
-1.562293	<s> W (
-1.684247	<s> Y ->
-1.696065	Q [ d
-1.474216	Q [ k
-1.576917	b [ L
-1.701856	b [ x
-1.701856	b [ y
-1.468347	y [ optind
-1.69897	1 ] )
-1.69897	1 ] .
-1.574031	1 ] ;
-1.684247	L ] .
-1.684247	d ] .
-1.562293	k ] .
-1.684247	optind ] )
-1.684247	&& a ->
-1.684247	* a ,
-1.684247	, a ->
-1.690196	-> a =
-1.684247	< a ->
-1.562293	<s> a =
-1.684247	!= b ;
-1.684247	( b &&
-1.471292	* b ;
-1.71321	-> b =
-1.287242	-> b [
-1.328088	<s> b =
-1.693141	= b ->
-1.568202	= b ;
-1.684247	== b ->
-1.562293	<s> break ;
-1.684247	[ d ]
-1.562293	<s> do {
-1.690196	. e ;
-1.143299	<s> e ->
-1.687232	= e ->
-1.684247	<s> else </s>
-1.684247	} else {
-1.468347	<s> err (
-1.687232	( f )
-1.328088	<s> for (
-1.684247	<s> fseek (
-1.687232	( g )
-1.328088	( h <<
-1.693141	<s> h =
-1.687232	= h .
-1.69897	( i )
-1.574031	( i =
-1.562293	int i ;
-0.8724211	<s> if (
-1.7104	<s> int </s>
-1.585461	<s> int i
-1.718778	-> j &&
-1.718778	-> j )
-1.417748	-> j +
-1.718778	-> j =
-1.693141	( k )
-1.568202	( k =
-1.693141	; k ++
-1.693141	; k <
-1.568202	[ k ]
-1.693141	unsigned long long
-1.693141	unsigned long z
-1.69897	-> n )
-1.574031	-> n ;
-1.69897	-> n =
-1.684247	= o ;
-1.690196	-> op &&
-1.684247	<s> op =
-1.690196	[ optind +
-1.690196	[ optind ]
-1.684247	* p ;
-1.565257	<s> p =
-1.328088	<s> printf (
-1.690196	. q ;
-1.690196	. q =
-1.684247	<s> rewind (
-1.562293	, sizeof (
-1.565257	typedef struct {
-1.468347	<s> typedef struct
-1.684247	, u )
-1.395035	<s> unsigned long
-1.684247	= v .
-1.565257	<s> void </s>
-1.273001	<s> while (
-1.562293	} while (
-1.7104	-> x )
-1.409369	-> x ,
-1.7104	-> x =
-1.562293	= x ;
-1.687232	int x ,
-1.690196	( y [
-1.687232	* y )
-1.690196	, y ,
-1.690196	, y [
-1.342423	-> y )
-1.7104	-> y =
-1.70757	. y +
-1.582631	. y =
-1.482874	<s> y ->
-1.482874	<s> y =
-1.565257	= y ;
-1.684247	int y ;
-1.684247	long z ;
-0.8899683	) { </s>
-1.181844	<s> { </s>
-1.562293	do { </s>
-1.684247	else { </s>
-1.562293	struct { </s>
-0.7805573	<s> } </s>
-1.780557	<s> } else
-1.655619	<s> } while

\end\
