
\data\
ngram 1=66
ngram 2=199
ngram 3=67

\1-grams:
-0.8805414	(	-0.1204685
-0.860338	)	0.06153488
-2.503791	*	0.05109402
-0.8703222	,	-0.1116333
-2.503791	->	0.01258224
-2.327699	;	0.0006595999
-2.503791	<	0.0235591
-1.236619	</s>
-99	<s>	-0.1353665
-2.503791	>	-0.0120004
-2.105851	A	0.1168242
-1.901731	B	0.02638932
-2.202761	C	0.08255837
-2.327699	D	0.07738271
-2.202761	E	0.1849199
-2.503791	E0	0.04794695
-2.327699	E3	0.04141609
-2.503791	EX	0.04794695
-2.202761	F	0.1014065
-2.327699	F0	0.04141609
-2.327699	F1	0.04141609
-2.503791	F2	0.04794695
-2.503791	FV	0.04794695
-1.850578	G	0.004168022
-2.202761	H	0.1529801
-2.503791	HP	0.04794695
-2.503791	HY	0.04794695
-2.503791	I	0.04794695
-1.804821	J	0.02143897
-2.105851	K	0.123886
-1.088817	L	-0.1318876
-2.503791	LP	0.04794695
-2.105851	M	0.09506629
-1.658693	N	0.1253342
-2.327699	O	0.04141609
-2.327699	P	0.1097005
-2.327699	Q	0.1078406
-2.503791	QH	0.04794695
-2.503791	QL	0.04794695
-2.327699	QR	0.04141609
-2.327699	QS	0.04141609
-1.033969	R	-0.04443213
-2.503791	RP	0.04794695
-2.503791	S	0.04794695
-2.327699	T	0.08348122
-2.327699	U	0.07738271
-2.503791	V	0.05109402
-2.02667	W	0.09067728
-1.850578	X	0.1034616
-2.327699	Y	0.1097005
-2.327699	Z	0.04141609
-2.503791	[	-0.007883832
-2.503791	]	-0.0120004
-1.959723	_	0.0193796
-2.503791	break	-0.01063254
-2.503791	char	-0.0120004
-1.327699	efine	-0.3004246
-2.503791	halting	0.05109402
-2.327699	int	-0.02331728
-2.503791	main	0.04794695
-2.327699	puts	0.06459588
-2.02667	sym_	0.08881734
-2.503791	tape	0.05109402
-2.503791	{	-0.01131701
-2.503791	}	0.01258224
-2.503791	~	0.01258224

\2-grams:
-1.869232	( )
-1.693141	( ,	-0.0111209
-1.693141	( A
-1.869232	( B
-1.869232	( C
-1.869232	( E
-1.869232	( F
-1.471292	( G	0.02447378
-1.869232	( J
-1.693141	( K
-0.5470124	( L	0.01955658
-1.693141	( M	-0.0005896706
-1.568202	( N	0.003267327
-1.869232	( Q
-1.39211	( R	-0.006737564
-1.568202	( W	-0.0007748324
-1.325164	( X	0.005433932
-1.869232	( Y
-1.869232	( char
-1.471292	( sym_	-0.000484433
-1.0679	) (	0.1098458
-1.0679	) )	0.09037205
-1.227601	) ,	0.1237122
-1.704722	) ;
-0.7839036	) </s>
-1.880814	) B
-1.704722	) E3	0
-1.704722	) F	-0.0002992712
-1.880814	) F0
-1.880814	) F1
-1.482874	) G	0.02447378
-1.403692	) J	0.02413368
-1.880814	) K
-1.704722	) L	0.2120543
-1.880814	) O
-1.704722	) QR	0
-1.880814	) QS
-1.880814	) R
-1.880814	) U
-1.880814	) W
-1.880814	) X
-1.880814	) {
-1.880814	) ~
-1.518514	* )
-1.574031	, (	-0.01070184
-1.69897	, )	0.01893397
-1.875061	, </s>
-1.875061	, A
-1.477121	, B	0.00511945
-1.875061	, C
-1.875061	, D
-1.875061	, E
-1.875061	, H
-1.574031	, L	-0.00435559
-1.875061	, M
-1.176091	, N	0.003267325
-1.875061	, P
-1.875061	, QS
-0.5426228	, R	-0.003460959
-1.875061	, T
-1.875061	, V
-1.875061	, X
-1.875061	, Y
-1.330993	, _	0
-1.875061	, halting
-1.875061	, sym_
-1.875061	, tape
-1.518514	-> </s>
-1.525045	; </s>
-1.525045	; }
-1.518514	< L
-1.5272	<s> (
-1.703291	<s> A
-1.703291	<s> C
-1.703291	<s> Z
-0.5272001	<s> efine
-1.5272	<s> int
-1.518514	> ->
-1.537819	A ,
-1.537819	A J
-1.537819	A L
-1.537819	A R
-1.556303	B J
-1.556303	B L
-1.079181	B R	0.1712297
-1.531479	C )
-1.531479	C J
-1.531479	C R
-1.525045	D (
-1.525045	D L
-1.531479	E (
-1.531479	E )
-1.531479	E ,
-1.518514	E0 (
-1.348954	E3 (	0.001147775
-1.518514	EX (
-1.355388	F (	0.125061
-1.531479	F ,
-1.348954	F0 (	0.125061
-1.348954	F1 (	0.125061
-1.518514	F2 (
-1.518514	FV (
-0.9090803	G (	0.101958
-1.531479	H (
-1.531479	H ,
-1.531479	H R
-1.518514	HP (
-1.518514	HY (
-1.518514	I (
-0.9149892	J (	-0.01588827
-1.568202	J </s>
-1.361728	K (	0.125061
-1.537819	K ,
-1.537819	K </s>
-1.462398	L )	-0.0050693
-0.3832167	L ,	0.005288154
-1.763428	L [
-1.518514	LP (
-1.361728	M (	0.125061
-1.361728	M ,
-1.290035	N (	0.1186269
-1.591065	N )
-0.8920946	N ,	0.08365573
-1.348954	O (	-0.007995604
-1.525045	P (
-1.525045	P )
-1.525045	Q (
-1.525045	Q ,
-1.518514	QH (
-1.518514	QL (
-1.348954	QR (	0.125061
-1.348954	QS (	0.125061
-1.612784	R (
-0.4271473	R )	0.0892984
-1.244807	R ,	-0.005268537
-1.788875	R <
-1.487845	R </s>
-1.788875	R ]
-1.518514	RP (
-1.518514	S (
-1.525045	T (
-1.525045	T R
-1.525045	U (
-1.525045	U L
-1.518514	V )
-1.367977	W (
-1.243038	W )	0.05844431
-1.018225	X )	0.05007691
-1.562293	X ,
-1.562293	X </s>
-1.525045	Y (
-1.525045	Y )
-1.348954	Z (
-1.518514	[ B
-1.518514	] >
-1.00616	_ )	0.05804377
-1.518514	break H
-1.518514	char *
-1.672098	efine D
-1.672098	efine E
-1.672098	efine E0
-1.672098	efine EX
-1.672098	efine F0
-1.672098	efine F1
-1.672098	efine F2
-1.672098	efine FV
-1.672098	efine H
-1.672098	efine HP
-1.672098	efine HY
-1.672098	efine I
-1.672098	efine K
-1.672098	efine LP
-1.672098	efine M
-1.672098	efine N
-1.672098	efine O
-1.672098	efine P
-1.672098	efine Q
-1.672098	efine QH
-1.672098	efine QL
-1.672098	efine R
-1.672098	efine RP
-1.672098	efine S
-1.672098	efine T
-1.672098	efine U
-1.672098	efine W
-1.672098	efine Z
-1.672098	efine break
-1.518514	halting )
-1.525045	int main
-1.525045	int puts
-1.518514	main (
-1.525045	puts (
-1.525045	puts </s>
-1.544068	sym_ (
-1.146128	sym_ ,	0.1140384
-1.518514	tape )
-1.518514	{ puts
-1.518514	} </s>
-1.518514	~ </s>

\3-grams:
-1.041393	) ( L
-1.409369	) ( R
-1.355388	, ( ,
-1.348954	E3 ( X
-1.348954	F ( L
-1.348954	F0 ( L
-1.348954	F1 ( L
-1.164353	G ( L
-1.164353	G ( sym_
-1.164353	J ( G
-1.348954	K ( L
-1.348954	M ( L
-1.230449	N ( L
-1.348954	O ( W
-1.348954	QR ( L
-1.348954	QS ( L
-1.409369	) ) (
-1.284431	) ) )
-1.041393	) ) </s>
-1.348954	, ) )
-1.355388	L ) G
-1.196295	R ) (
-1.263241	R ) )
-1.439333	R ) ,
-1	R ) </s>
-1.564271	R ) F
-1.564271	R ) G
-1.263241	R ) J
-1.564271	R ) L
-1.564271	R ) QR
-1.355388	W ) </s>
-1.374137	X ) </s>
-1.374137	X ) E3
-1.152288	_ ) ,
-1.374137	_ ) </s>
-1.348954	( , )
-1.261263	) , B
-1.386202	) , R
-1.447158	L , (
-1.049218	L , N
-0.60206	L , R
-1.350248	L , _
-0.8692317	N , R
-1.374137	R , L
-1.374137	R , _
-1.139879	sym_ , R
-1.139879	, B R
-1.348954	) E3 (
-1.348954	) F (
-1.139879	( G (
-1.139879	) G (
-1.146128	) J (
-0.412522	( L ,
-1.348954	) L ,
-1.355388	, L )
-1.348954	( M ,
-1.355388	( N (
-0.9149892	, N ,
-1.348954	) QR (
-1.146128	( R ,
-0.4165999	, R )
-1.552263	, R </s>
-1.146128	B R )
-1.230449	( W )
-1.073107	( X )
-1.00616	, _ )
-1.139879	( sym_ ,

\end\
