
\data\
ngram 1=796
ngram 2=4940

\1-grams:
-2.34573	!	-99
-2.967993	!=	-99
-2.813092	"	-99
-4.290213	"!:E%;!ea!!!WqE0z!f/y}!%!!Qi6!uzt!n}?]!bl!ak!SetR<"	-99
-4.290213	"!pv!;!Hm%Ro4"	-99
-3.445115	""	-99
-3.813092	"#"	-99
-3.813092	"$"	-99
-4.290213	"%."	-99
-4.290213	"%c"	-99
-3.989183	"%d	-99
-4.290213	"%d,%dd%d\n"	-99
-4.290213	"%d\n"	-99
-4.290213	"%da%d,%d\n"	-99
-4.290213	"%da%d\n"	-99
-4.290213	"%dd%d\n"	-99
-4.290213	"%f,%f,"	-99
-3.591243	"%s"	-99
-4.290213	"('A)"	-99
-3.989183	"('A`)"	-99
-4.290213	"(A`)"	-99
-4.290213	"(O**"	-99
-4.290213	")"	-99
-4.290213	")$"	-99
-4.290213	");"	-99
-4.290213	"*"	-99
-4.290213	"*_[512],**p=_,**d,b,q;for(b=0;b"	-99
-4.290213	"*p=#b,P[9999],*d=P,*e[]="	-99
-4.290213	"++<512;p=_+q)_[q"	-99
-4.290213	"-"	-99
-4.290213	"/"	-99
-4.290213	"/*;;	-99
-4.290213	"11\x80"	-99
-4.290213	"258EAFA5-"	-99
-4.290213	"8!@dP,!!o+fb"	-99
-4.290213	"::::::::::::?_::::\"::.::::@:::'::-::::::::;!:):::::,:::::"	-99
-3.813092	";"	-99
-4.290213	";;"	-99
-4.290213	";Gam"	-99
-4.290213	";GlockQ18"	-99
-4.290213	";Heca"	-99
-4.290213	";Time:Q"	-99
-4.290213	";^Q<d|8=o;]Q<dj8<Pk8<c]'?;QQdi8?P'Q)d8<9`8?c;Qdh8=P']Q<`c8>PQ9_8"	-99
-4.290213	"<	-99
-4.290213	"<"	-99
-4.290213	"<;iQ=/*do<;dQ=ook8?boc;aQ=odr8>oc;_Q<ox8>oc"	-99
-4.290213	"<o_Q<o_QBdo`QQ';`Q=9`]8=bobQ_o_Q<o]8=';bQC(88cQ`bcgQ>oP']8<;cQ>98)^Q?''oc`Q>"	-99
-4.290213	"=(p-_+1)*9%512]=(O*)p;"	-99
-4.290213	"=:$"	-99
-3.813092	">	-99
-4.290213	">b;og8=''`Q<`b8?'QQ9_8?c;dPe8dQa8<P]Q<``8=;'f8>QQ`]8?ocQQ_8=''_Q`8aQ"	-99
-4.290213	"?guhljL!^P%	-99
-4.290213	"@"	-99
-4.290213	"@+-"	-99
-4.290213	"@CADBEHI"	-99
-4.290213	"C:"	-99
-4.290213	"CYOUQWIN!]Q=;of8BQQ)88bc]QA98P'Qo]8>oQQ_8CP;QQ98b`_8@P8(Q`]'^Q=`']QB)88"	-99
-4.290213	"E914-47DA-95CA-C5AB0DC85B"	-99
-4.290213	"HTTP/1.1	-99
-4.290213	"M@K~|JOEF\\^~_NHI]"	-99
-4.290213	"NBLF\1Nblfgjmf\1"	-99
-3.688153	"Q"	-99
-4.290213	"Q(j"	-99
-4.290213	"Q(jam"	-99
-4.290213	"Zj$x!~V!n&g8!cK!	-99
-4.290213	"\",\"%s\",\"%s\"},	-99
-4.290213	"\40main(){O"	-99
-4.290213	"\n"	-99
-4.290213	"\n\n\n"	-99
-4.290213	"\xe2%c%c\r\n"	-99
-4.290213	"a"	-99
-4.290213	"bQQ]`8J;QQ`88bc99bd(`8iQ@''QQo^8E'`8c;QQ'Q``8?QQ`'kQ<o]8B9PQQ`';_Q<`_8<cbQ"	-99
-3.989183	"d"	-99
-4.290213	"e.6!r!%l6G!n~^<i=%pEwL%P!'<!FQt%u	-99
-4.290213	"e:|	-99
-4.290213	"eQII:"	-99
-4.290213	"eQover."	-99
-4.290213	"etu"	-99
-4.290213	"f\n"	-99
-4.290213	"fl!"	-99
-4.290213	"hello	-99
-4.290213	"laugh"	-99
-4.290213	"m"	-99
-4.290213	"me"	-99
-4.290213	"med);"	-99
-4.290213	"n:}nkD!Q!kN"	-99
-4.290213	"o("	-99
-4.290213	"oc']Q]8<;cQ>`8bbQA``QQ''`Q?88P;dQ=`)nQ?*/;;"	-99
-4.290213	"oid	-99
-3.688153	"r"	-99
-4.290213	"rn+0;}\n"	-99
-4.290213	"syntax_error!"	-99
-4.290213	"t"	-99
-4.290213	"throw	-99
-4.290213	"usage:	-99
-4.290213	"{;}"	-99
-4.290213	"{\"%s\",	-99
-4.290213	"|~0y'vWtA@:LcO9d}y.!uL!Gd+ml(<+Ds!J"	-99
-4.290213	"}$"	-99
-2.371135	%	-99
-3.688153	%=	-99
-4.290213	%d\n"	-99
-4.290213	%s	-99
-4.290213	%u/%u	-99
-2.260829	&	-99
-2.350693	&&	-99
-4.290213	&=	-99
-3.387123	'	-99
-3.591243	','	-99
-3.989183	'128'	-99
-4.290213	'2d'	-99
-4.290213	'='	-99
-3.989183	'\n'	-99
-2.785063	'_'	-99
-4.290213	'a'	-99
-4.290213	'b5sc!e"	-99
-4.290213	'c'	-99
-4.290213	'd'	-99
-4.290213	'width:256px;height:256px'	-99
-4.290213	'ws'	-99
-4.290213	'|'	-99
-1.13823	(	-99
-1.109227	)	-99
-1.542801	*	-99
-2.627455	*=	-99
-4.290213	*m,!*m?H:"	-99
-1.868609	+	-99
-2.233308	++	-99
-4.290213	+99*!	-99
-2.24882	+=	-99
-1.216128	,	-99
-4.290213	,101	-99
-1.80877	-	-99
-2.600017	--	-99
-2.677429	-=	-99
-2.415152	->	-99
-2.214666	.	-99
-3.813092	...	-99
-3.813092	.05	-99
-3.813092	.1	-99
-4.290213	.27	-99
-3.813092	.5	-99
-2.387123	/	-99
-3.445115	/=	-99
-1.875239	0	-99
-3.813092	0.5	-99
-4.290213	0.7	-99
-4.290213	01	-99
-4.290213	02	-99
-4.290213	024	-99
-4.290213	03	-99
-4.290213	040	-99
-4.290213	061	-99
-4.290213	075	-99
-3.989183	0u	-99
-4.290213	0x1	-99
-4.290213	0x3f0	-99
-4.290213	0x67452301	-99
-4.290213	0x820008202625a0	-99
-4.290213	0x98BADCFE	-99
-4.290213	0xEFCDAB89	-99
-4.290213	0xf	-99
-4.290213	0xfc0	-99
-4.290213	0xfe0	-99
-4.290213	0xff00ff00ff	-99
-4.290213	0xffff	-99
-1.997957	1	-99
-4.290213	1.159922023e9	-99
-3.989183	1.3	-99
-3.989183	1.5	-99
-4.290213	1.6937441874215991e190	-99
-3.144085	10	-99
-4.290213	1008	-99
-4.290213	101	-99
-3.813092	1023	-99
-4.290213	1024	-99
-4.290213	1024.	-99
-3.813092	11	-99
-4.290213	1103515245	-99
-4.290213	112	-99
-3.33597	12	-99
-4.290213	123	-99
-4.290213	12359778	-99
-4.290213	12365733	-99
-4.290213	124	-99
-4.290213	127	-99
-3.688153	128	-99
-4.290213	128L	-99
-3.989183	13	-99
-4.290213	13000	-99
-4.290213	138	-99
-3.512062	14	-99
-4.290213	14202379	-99
-3.989183	14695981039346656037ULL	-99
-3.445115	15	-99
-4.290213	1500	-99
-4.290213	158	-99
-3.011459	16	-99
-4.290213	1600	-99
-3.813092	16711935	-99
-4.290213	16774143	-99
-3.989183	16u	-99
-3.989183	17	-99
-4.290213	176	-99
-3.591243	18	-99
-4.290213	19	-99
-4.290213	1912	-99
-4.290213	19205553	-99
-4.290213	193	-99
-4.290213	1933008	-99
-4.290213	194	-99
-4.290213	1954	-99
-4.290213	196	-99
-4.290213	197	-99
-4.290213	198	-99
-3.989183	1LL	-99
-3.989183	1u	-99
-2.207427	2	-99
-3.989183	2.	-99
-4.290213	2.271681097355226e15	-99
-3.387123	20	-99
-4.290213	204	-99
-4.290213	205	-99
-3.989183	22	-99
-4.290213	23	-99
-4.290213	234	-99
-3.445115	24	-99
-4.290213	25	-99
-4.290213	250	-99
-3.445115	255	-99
-3.688153	256	-99
-4.290213	256L	-99
-4.290213	257	-99
-4.290213	258063	-99
-3.989183	26	-99
-4.290213	27	-99
-4.290213	275	-99
-4.290213	276	-99
-4.290213	28	-99
-4.290213	287	-99
-4.290213	2L	-99
-2.415152	3	-99
-4.290213	3.135045272e9	-99
-4.290213	3.9999e5	-99
-3.445115	30	-99
-4.290213	304	-99
-4.290213	308438	-99
-3.688153	31	-99
-2.892273	32	-99
-3.989183	32768	-99
-4.290213	3285377520	-99
-3.989183	33	-99
-3.989183	333	-99
-4.290213	3352537	-99
-4.290213	34	-99
-3.591243	35	-99
-3.989183	36	-99
-3.989183	37	-99
-3.989183	38	-99
-4.290213	384	-99
-4.290213	39	-99
-4.290213	3920	-99
-2.43288	4	-99
-4.290213	4.023233417e9	-99
-4.290213	4.294967296e9	-99
-4.290213	4.5	-99
-4.290213	4.503599627370496e15	-99
-4.290213	4.522871578970112e217	-99
-4.290213	4.6727004911171048e-153	-99
-3.387123	40	-99
-4.290213	4092	-99
-3.989183	41	-99
-4.290213	41088	-99
-3.989183	4190208	-99
-4.290213	4194304	-99
-3.591243	42	-99
-4.290213	44	-99
-3.989183	45	-99
-4.290213	48	-99
-4.290213	480	-99
-4.290213	488848	-99
-4.290213	4L	-99
-3.989183	4u	-99
-2.722011	5	-99
-4.290213	50	-99
-4.290213	504	-99
-4.290213	508	-99
-4.290213	51	-99
-3.688153	512	-99
-4.290213	512L	-99
-4.290213	516	-99
-3.989183	5200	-99
-4.290213	5298487	-99
-3.813092	56	-99
-4.290213	57	-99
-3.989183	58	-99
-3.989183	59	-99
-4.290213	5toG57j/3"	-99
-2.813092	6	-99
-3.387123	60	-99
-4.290213	60.	-99
-3.813092	61	-99
-3.989183	62	-99
-3.688153	63	-99
-4.290213	63504	-99
-3.211031	64	-99
-4.290213	64u	-99
-4.290213	65280	-99
-4.290213	65307	-99
-3.989183	65536	-99
-4.290213	65544	-99
-4.290213	67	-99
-4.290213	6990400	-99
-2.928485	7	-99
-4.290213	7.5	-99
-4.290213	7.90055321525613e115	-99
-4.290213	70	-99
-3.989183	74	-99
-4.290213	75	-99
-4.290213	76	-99
-3.688153	768	-99
-4.290213	77	-99
-3.813092	79	-99
-2.591243	8	-99
-4.290213	8.44396048e8	-99
-3.144085	80	-99
-4.290213	8000	-99
-3.813092	81	-99
-4.290213	82	-99
-4.290213	84	-99
-3.813092	85	-99
-3.989183	86400	-99
-4.290213	88	-99
-4.290213	881	-99
-4.290213	8u	-99
-3.059764	9	-99
-3.989183	90	-99
-4.290213	91	-99
-3.813092	92	-99
-4.290213	96	-99
-3.813092	97	-99
-4.290213	9858122	-99
-4.290213	99	-99
-4.290213	9999	-99
-4.290213	99999	-99
-2.134877	:	-99
-1.197141	;	-99
-2.153492	<	-99
-1.260423	</s>
-2.519361	<<	-99
-4.290213	<<=	-99
-3.33597	<=	-99
-4.290213	<P~6"	-99
-99	<s>	-99
-99	<unk>
-1.369047	=	-99
-2.54985	==	-99
-2.43288	>	-99
-3.512062	>=	-99
-2.582643	>>	-99
-3.813092	>>=	-99
-2.203853	?	-99
-4.290213	?"	-99
-2.512062	A	-99
-4.290213	Acce	-99
-4.290213	Alan	-99
-2.519361	B	-99
-4.290213	BUFSIZ	-99
-2.600017	C	-99
-3.989183	COLS	-99
-2.608972	D	-99
-4.290213	DefaultGC	-99
-4.290213	DefaultVisual	-99
-4.290213	Display	-99
-2.64676	E	-99
-3.24882	EOF	-99
-4.290213	ETIANMSURWDKGOHVF:L:PJBXCYZQ::54:3:::2&:+::::16=/:::(:7:::8:90"	-99
-2.666963	F	-99
-3.591243	FILE	-99
-4.290213	FILENAME_MAX	-99
-3.989183	F_	-99
-2.858849	G	-99
-2.512062	H	-99
-2.512062	I	-99
-3.011459	J	-99
-2.512062	K	-99
-4.290213	KrgR'8@c]!%-q9V.3fa[E8X%dY'w!#H	-99
-2.331171	L	-99
-3.813092	LINES	-99
-4.290213	L_tmpnam	-99
-2.858849	M	-99
-2.722011	N	-99
-3.813092	NULL	-99
-2.387123	O	-99
-3.176269	O0	-99
-3.445115	O1	-99
-3.445115	O2	-99
-3.512062	O3	-99
-3.591243	O4	-99
-3.512062	O5	-99
-3.688153	O6	-99
-3.813092	O7	-99
-3.813092	O8	-99
-3.813092	O9	-99
-3.211031	OO	-99
-3.387123	O_	-99
-3.688153	O_o	-99
-2.666963	P	-99
-2.387123	Q	-99
-3.211031	Q0	-99
-3.512062	Q1	-99
-3.445115	Q2	-99
-3.512062	Q3	-99
-3.688153	Q4	-99
-3.688153	Q5	-99
-3.688153	Q6	-99
-3.813092	Q7	-99
-3.813092	Q8	-99
-3.989183	Q9	-99
-3.211031	QO	-99
-3.33597	QQ	-99
-3.512062	Q_	-99
-2.574209	R	-99
-4.290213	RAFT	-99
-4.290213	RGB	-99
-4.290213	RootWindow	-99
-2.666963	S	-99
-4.290213	SDL_AudioSpec	-99
-4.290213	SDL_BlitSurface	-99
-4.290213	SDL_CreateRGBSurface	-99
-4.290213	SDL_Delay	-99
-4.290213	SDL_Event	-99
-4.290213	SDL_FillRect	-99
-4.290213	SDL_Flip	-99
-4.290213	SDL_Init	-99
-4.290213	SDL_LoadWAV	-99
-4.290213	SDL_MixAudio	-99
-4.290213	SDL_OpenAudio	-99
-4.290213	SDL_PauseAudio	-99
-4.290213	SDL_PollEvent	-99
-4.290213	SDL_Rect	-99
-4.290213	SDL_SetVideoMode	-99
-4.290213	SDL_Surface	-99
-3.989183	SEEK_SET	-99
-4.290213	SPEED	-99
-4.290213	Sec	-99
-4.290213	So	-99
-2.307941	T	-99
-4.290213	TIMESTEP	-99
-4.290213	TIOCGWINSZ	-99
-4.290213	TMP_MAX	-99
-4.290213	Turing	-99
-4.290213	Type	-99
-2.64676	U	-99
-4.290213	UV_DROP	-99
-4.290213	Uint8Array	-99
-4.290213	Upgrade	-99
-2.557819	V	-99
-2.294578	W	-99
-3.989183	WebSocket	-99
-4.290213	Window	-99
-2.438954	X	-99
-4.290213	XCheckWindowEvent	-99
-4.290213	XCreateImage	-99
-4.290213	XCreateSimpleWindow	-99
-4.290213	XEvent	-99
-4.290213	XImage	-99
-4.290213	XLookupKeysym	-99
-4.290213	XMapWindow	-99
-4.290213	XOpenDisplay	-99
-4.290213	XPutImage	-99
-4.290213	XSelectInput	-99
-2.582643	Y	-99
-2.746145	Z	-99
-1.803074	[	-99
-4.290213	[-d]	-99
-4.290213	\""	-99
-4.290213	\n\t"	-99
-1.803074	]	-99
-2.858849	^	-99
-3.591243	^=	-99
-1.557016	_	-99
-4.290213	_){putchar(_);}O"	-99
-3.33597	_0	-99
-3.290213	_O	-99
-3.290213	_Q	-99
-2.43288	__	-99
-4.290213	__LINE__	-99
-3.989183	__STDC_VERSION__	-99
-3.989183	__STDC__	-99
-4.290213	__TIME__	-99
-4.290213	__VA_ARGS__	-99
-3.813092	___	-99
-2.989183	____	-99
-3.989183	_b	-99
-3.989183	_c	-99
-3.989183	_d	-99
-3.688153	_f	-99
-3.989183	_i	-99
-3.989183	_k	-99
-2.070105	a	-99
-3.989183	a_	-99
-3.989183	abs	-99
-4.290213	ageX	-99
-3.445115	ala	-99
-2.758734	and	-99
-3.989183	ar	-99
-3.591243	arg	-99
-3.688153	argh	-99
-3.176269	asn	-99
-3.813092	asp	-99
-3.688153	asx	-99
-3.989183	au	-99
-2.105521	b	-99
-3.591243	bA	-99
-3.688153	bB	-99
-3.688153	bC	-99
-3.813092	bD	-99
-3.591243	bE	-99
-4.290213	b\nq(%s)\n"	-99
-3.813092	ba	-99
-3.512062	bb	-99
-3.591243	bc	-99
-3.813092	bd	-99
-3.387123	be	-99
-3.211031	bf	-99
-3.688153	bg	-99
-3.813092	bh	-99
-3.989183	bi	-99
-4.290213	binary	-99
-3.813092	bj	-99
-3.688153	bk	-99
-3.989183	bl	-99
-3.989183	bm	-99
-3.989183	bn	-99
-3.989183	bo	-99
-3.387123	bp	-99
-3.989183	bq	-99
-3.989183	br	-99
-3.086093	break	-99
-3.813092	bs	-99
-3.512062	bt	-99
-3.512062	bu	-99
-3.688153	buf	-99
-3.989183	bv	-99
-4.290213	bw	-99
-3.989183	bx	-99
-3.512062	by	-99
-3.591243	bz	-99
-2.222027	c	-99
-3.688153	calloc	-99
-3.290213	case	-99
-4.290213	cb	-99
-4.290213	ch	-99
-2.722011	char	-99
-4.290213	close	-99
-2.94779	const	-99
-4.290213	continue	-99
-3.813092	cos	-99
-4.290213	crea	-99
-4.290213	curs_set	-99
-3.512062	cys	-99
-2.088816	d	-99
-4.290213	dA	-99
-4.290213	dB	-99
-4.290213	dC	-99
-4.290213	dat	-99
-4.290213	data	-99
-3.813092	default	-99
-4.290213	defined	-99
-3.591243	do	-99
-4.290213	double	-99
-3.989183	dstr	-99
-4.290213	dup	-99
-3.989183	dup2	-99
-2.207427	e	-99
-4.290213	eep	-99
-2.967993	else	-99
-4.290213	elta_u	-99
-4.290213	elta_v	-99
-4.290213	er	-99
-3.591243	err	-99
-4.290213	errx	-99
-3.591243	exit	-99
-3.813092	exp	-99
-3.813092	extern	-99
-2.193303	f	-99
-4.290213	fabs	-99
-4.290213	fclose	-99
-4.290213	fgetc	-99
-4.290213	fgets	-99
-4.290213	file1	-99
-4.290213	file2"	-99
-4.290213	flash	-99
-3.445115	float	-99
-4.290213	float_	-99
-4.290213	flu	-99
-3.813092	fopen	-99
-2.445115	for	-99
-4.290213	fputc	-99
-3.813092	fread	-99
-3.512062	free	-99
-4.290213	fscanf	-99
-3.989183	fseek	-99
-4.290213	function	-99
-3.688153	fw	-99
-2.240995	g	-99
-4.290213	getC	-99
-4.290213	getch	-99
-3.688153	getchar	-99
-4.290213	getopt	-99
-3.086093	gln	-99
-3.290213	glu	-99
-3.989183	glx	-99
-3.512062	gly	-99
-4.290213	go	-99
-4.290213	goofy	-99
-3.688153	goto	-99
-2.457704	h	-99
-4.290213	height	-99
-3.445115	his	-99
-4.290213	ho	-99
-4.290213	href	-99
-1.961833	i	-99
-2.451364	if	-99
-3.591243	ile	-99
-4.290213	initscr	-99
-2.392586	int	-99
-4.290213	int_	-99
-4.290213	intw	-99
-4.290213	ioctl	-99
-4.290213	ipt	-99
-2.200308	j	-99
-4.290213	jmp_buf	-99
-2.34573	k	-99
-4.290213	ket	-99
-3.989183	key	-99
-4.290213	keysym	-99
-2.303441	l	-99
-4.290213	le	-99
-4.290213	lea	-99
-3.688153	leu	-99
-4.290213	location	-99
-2.928485	long	-99
-4.290213	longjmp	-99
-4.290213	lrand48	-99
-3.989183	lu	-99
-3.813092	lv	-99
-3.33597	lys	-99
-2.477299	m	-99
-4.290213	mageData	-99
-3.011459	main	-99
-3.989183	malloc	-99
-4.290213	memcmp	-99
-3.989183	memcpy	-99
-4.290213	memset	-99
-3.33597	met	-99
-4.290213	mva	-99
-4.290213	mvaddstr	-99
-3.989183	mvinch	-99
-4.290213	mvinsch	-99
-2.193303	n	-99
-3.989183	ndif	-99
-3.989183	new	-99
-2.294578	not	-99
-4.290213	np	-99
-2.070105	o	-99
-4.290213	o(O	-99
-4.290213	ocket	-99
-4.290213	oec	-99
-3.989183	of	-99
-4.290213	offsetLeft	-99
-4.290213	offsetTop	-99
-4.290213	on	-99
-4.290213	onmousemove	-99
-4.290213	ontext	-99
-3.33597	op	-99
-3.989183	open	-99
-3.512062	optind	-99
-2.211031	p	-99
-4.290213	pageY	-99
-3.688153	phe	-99
-4.290213	pixels	-99
-3.813092	pow	-99
-4.290213	pread	-99
-4.290213	prin	-99
-3.211031	printf	-99
-3.591243	pro	-99
-4.290213	pt	-99
-4.290213	pu	-99
-4.290213	putImageData	-99
-3.387123	putchar	-99
-3.688153	puts	-99
-3.989183	pyl	-99
-2.534338	q	-99
-2.512062	r	-99
-3.989183	rand	-99
-4.290213	rea	-99
-3.989183	read	-99
-3.688153	realloc	-99
-4.290213	refresh	-99
-2.771699	return	-99
-3.989183	rewind	-99
-4.290213	round	-99
-4.290213	rror	-99
-2.211031	s	-99
-4.290213	scanf	-99
-4.290213	scr	-99
-4.290213	script	-99
-3.33597	sec	-99
-4.290213	send	-99
-3.24882	ser	-99
-4.290213	set	-99
-4.290213	setjmp	-99
-4.290213	shi	-99
-3.989183	short	-99
-3.989183	si	-99
-4.290213	signal	-99
-3.989183	sin	-99
-4.290213	size_t	-99
-3.144085	sizeof	-99
-4.290213	slice	-99
-4.290213	sprintf	-99
-4.290213	sqrt	-99
-4.290213	st_mtime	-99
-4.290213	st_size	-99
-3.813092	stat	-99
-3.512062	static	-99
-3.989183	stdin	-99
-4.290213	stdout	-99
-3.813092	strchr	-99
-4.290213	strcmp	-99
-3.813092	strlen	-99
-4.290213	strrchr	-99
-4.290213	strtol	-99
-3.33597	struct	-99
-4.290213	style	-99
-4.290213	subs	-99
-3.688153	switch	-99
-4.290213	sym	-99
-4.290213	system	-99
-2.350693	t	-99
-4.290213	tch	-99
-4.290213	teI	-99
-4.290213	tf	-99
-3.387123	thr	-99
-4.290213	timeout	-99
-3.688153	tla	-99
-4.290213	tmpfile	-99
-4.290213	to	-99
-4.290213	tr	-99
-3.290213	trp	-99
-4.290213	typ	-99
-3.989183	type	-99
-3.144085	typedef	-99
-3.290213	tyr	-99
-2.163108	u	-99
-4.290213	ub	-99
-3.989183	union	-99
-3.211031	unk	-99
-3.33597	unsigned	-99
-4.290213	up"	-99
-4.290213	upgrade	-99
-4.290213	usl	-99
-4.290213	usleep	-99
-2.326425	v	-99
-4.290213	va_arg	-99
-4.290213	va_end	-99
-4.290213	va_list	-99
-4.290213	va_start	-99
-4.290213	vad	-99
-2.843055	val	-99
-2.875239	void	-99
-4.290213	voidw	-99
-4.290213	volatile	-99
-4.290213	vpr	-99
-2.371135	w	-99
-4.290213	webso	-99
-2.94779	while	-99
-4.290213	width	-99
-4.290213	window	-99
-4.290213	world!"	-99
-3.813092	write	-99
-2.312489	x	-99
-4.290213	xkey	-99
-3.989183	xle	-99
-2.637	xor	-99
-2.317085	y	-99
-2.420981	z	-99
-3.989183	ze	-99
-1.85088	{	-99
-2.618115	|	-99
-3.813092	|=	-99
-2.875239	||	-99
-1.85405	}	-99
-2.798851	~	-99

\2-grams:
-0.9444827	! !
-0.7140337	! (
-1.944483	! )
-1.643453	! *
-1.944483	! --
-1.467361	! </s>
-1.944483	! D
-1.944483	! H
-1.944483	! K
-1.166331	! O
-1.643453	! O9
-1.944483	! P
-1.944483	! Q
-1.944483	! Q0
-1.944483	! Q2
-1.467361	! QO
-1.944483	! _0
-1.467361	! b
-1.944483	! c
-1.643453	! g
-1.643453	! i
-1.643453	! j
-1.944483	! k
-1.643453	! l
-1.944483	! memcmp
-1.944483	! n
-1.944483	! o
-1.944483	! printf
-1.643453	! s
-1.944483	! setjmp
-1.944483	! stat
-1.944483	! strcmp
-1.643453	! t
-1.245513	! u
-1.467361	! v
-1.643453	! x
-1.944483	! z
-1.322219	!= '
-1.322219	!= -
-1.322219	!= 0
-1.322219	!= B
-1.021189	!= EOF
-1.322219	!= NULL
-1.322219	!= __
-1.021189	!= b
-1.322219	!= bk
-1.322219	!= f
-1.021189	!= gln
-1.021189	!= h
-1.322219	!= mvinch
-1.322219	!= sizeof
-1.322219	!= trp
-1.322219	!= u
-1.322219	!= v
-0.5740313	" "
-1.477121	" "%d
-1.477121	" %d\n"
-1.477121	" %u/%u
-0.8750613	" )
-0.8750613	" ,
-1.477121	" ,101
-1.477121	" </s>
-1.477121	" ETIANMSURWDKGOHVF:L:PJBXCYZQ::54:3:::2&:+::::16=/:::(:7:::8:90"
-1.477121	" Type
-1.477121	" \n\t"
-1.477121	" c
-1.477121	" ipt
-1.477121	" ket
-1.477121	" mageData
-1.477121	" ontext
-1.477121	" teI
0	"!:E%;!ea!!!WqE0z!f/y}!%!!Qi6!uzt!n}?]!bl!ak!SetR<" </s>
0	"!pv!;!Hm%Ro4" "n:}nkD!Q!kN"
-0.845098	"" "@CADBEHI"
-0.845098	"" ,
-0.544068	"" :
-0.3679768	"" </s>
0	"#" )
0	"$" ,
0	"%." "f\n"
0	"%c" ,
0	"%d "
0	"%d,%dd%d\n" ,
0	"%d\n" ,
0	"%da%d,%d\n" ,
0	"%da%d\n" ,
0	"%dd%d\n" ,
0	"%f,%f," ,
-0.69897	"%s" "\",\"%s\",\"%s\"},
-0.09691001	"%s" ,
0	"('A)" ,
-0.30103	"('A`)" </s>
-0.30103	"('A`)" }
0	"(A`)" ,
0	"(O**" </s>
0	")" )
0	")$" ;
0	");" )
0	"*" ""
0	"*_[512],**p=_,**d,b,q;for(b=0;b" "++<512;p=_+q)_[q"
0	"*p=#b,P[9999],*d=P,*e[]=" "{\"%s\",
0	"++<512;p=_+q)_[q" </s>
0	"-" ,
0	"/" )
0	"/*;; "
0	"11\x80" [
0	"258EAFA5-" "E914-47DA-95CA-C5AB0DC85B"
0	"8!@dP,!!o+fb" </s>
0	"::::::::::::?_::::\"::.::::@:::'::-::::::::;!:):::::,:::::" ;
-0.4771213	";" )
-0.4771213	";" :
-0.4771213	";" </s>
0	";;" )
0	";Gam" "eQover."
0	";GlockQ18" "C:"
0	";Heca" "t"
0	";Time:Q" )
0	";^Q<d|8=o;]Q<dj8<Pk8<c]'?;QQdi8?P'Q)d8<9`8?c;Qdh8=P']Q<`c8>PQ9_8" </s>
0	"< "
0	"<" ,
0	"<;iQ=/*do<;dQ=ook8?boc;aQ=odr8>oc;_Q<ox8>oc" </s>
0	"<o_Q<o_QBdo`QQ';`Q=9`]8=bobQ_o_Q<o]8=';bQC(88cQ`bcgQ>oP']8<;cQ>98)^Q?''oc`Q>" </s>
0	"=(p-_+1)*9%512]=(O*)p;" )
0	"=:$" ,
0	"> "
0	">b;og8=''`Q<`b8?'QQ9_8?c;dPe8dQa8<P]Q<``8=;'f8>QQ`]8?ocQQ_8=''_Q`8aQ" </s>
0	"?guhljL!^P% ?"
0	"@" ,
0	"@+-" ,
0	"@CADBEHI" )
0	"C:" "Q"
0	"CYOUQWIN!]Q=;of8BQQ)88bc]QA98P'Qo]8>oQQ_8CP;QQ98b`_8@P8(Q`]'^Q=`']QB)88" </s>
0	"E914-47DA-95CA-C5AB0DC85B" "11\x80"
0	"HTTP/1.1 "
0	"M@K~|JOEF\\^~_NHI]" ;
0	"NBLF\1Nblfgjmf\1" ,
0	"Q" )
0	"Q(j" "a"
0	"Q(jam" </s>
0	"Zj$x!~V!n&g8!cK! KrgR'8@c]!%-q9V.3fa[E8X%dY'w!#H
0	"\",\"%s\",\"%s\"}, b\nq(%s)\n"
0	"\40main(){O" ""
0	"\n" )
0	"\n\n\n" </s>
0	"\xe2%c%c\r\n" O_
0	"a" "m"
0	"bQQ]`8J;QQ`88bc99bd(`8iQ@''QQo^8E'`8c;QQ'Q``8?QQ`'kQ<o]8B9PQQ`';_Q<`_8<cbQ" </s>
-0.30103	"d" ")"
-0.30103	"d" )
0	"e.6!r!%l6G!n~^<i=%pEwL%P!'<!FQt%u 5toG57j/3"
0	"e:| 'b5sc!e"
0	"eQII:" "Q"
0	"eQover." </s>
0	"etu" "rn+0;}\n"
0	"f\n" ,
0	"fl!" [
0	"hello world!"
0	"laugh" )
0	"m" "me"
0	"me" "d"
0	"med);" )
0	"n:}nkD!Q!kN" </s>
0	"o(" )
0	"oc']Q]8<;cQ>`8bbQA``QQ''`Q?88P;dQ=`)nQ?*/;;" ;
0	"oid o(O
-0.1249387	"r" )
-0.60206	"r" </s>
0	"rn+0;}\n" )
0	"syntax_error!" </s>
0	"t" "eQII:"
0	"throw up"
0	"usage: %s
0	"{;}" :
0	"{\"%s\", \""
0	"|~0y'vWtA@:LcO9d}y.!uL!Gd+ml(<+Ds!J" </s>
0	"}$" :
-1.441957	% (
-1.919078	% .27
-1.919078	% 03
-1.919078	% 1500
-1.618048	% 16
-1.919078	% 176
-1.919078	% 198
-0.7729501	% 2
-1.140927	% 3
-1.919078	% 32
-1.919078	% 384
-1.140927	% 4
-1.441957	% 5
-1.919078	% 512
-1.919078	% 6
-1.317018	% 64
-1.919078	% 768
-1.441957	% 8
-1.919078	% 86400
-1.220108	% </s>
-1.618048	% >
-1.919078	% I
-1.919078	% O3
-1.919078	% O4
-1.07398	% Q
-1.618048	% QQ
-1.919078	% _
-1.618048	% __
-1.919078	% c
-1.919078	% dA
-1.919078	% dB
-1.919078	% dC
-1.618048	% g
-1.919078	% s
-1.919078	% strlen
-1.919078	% w
-0.60206	%= 1
-0.60206	%= 64
-0.60206	%= 8
-0.60206	%= z
0	%d\n" ,
0	%s [-d]
0	%u/%u "
-2.029384	& !
-1.728354	& (
-1.427324	& *
-2.029384	& --
-2.029384	& 0
-2.029384	& 0x3f0
-2.029384	& 0xf
-2.029384	& 0xfe0
-2.029384	& 0xff00ff00ff
-1.251233	& 1
-2.029384	& 1008
-1.552263	& 1023
-2.029384	& 128
-2.029384	& 14
-1.330414	& 15
-1.728354	& 16
-1.728354	& 16711935
-2.029384	& 16774143
-1.251233	& 3
-2.029384	& 31
-2.029384	& 32
-2.029384	& 4
-2.029384	& 4092
-1.728354	& 4190208
-2.029384	& 6
-1.427324	& 63
-2.029384	& 64
-2.029384	& 65280
-2.029384	& 7
-2.029384	& 8
-2.029384	& 9
-1.552263	& </s>
-2.029384	& B
-2.029384	& C
-2.029384	& L
-1.728354	& M
-2.029384	& N
-1.728354	& OO
-2.029384	& Q
-2.029384	& S
-1.427324	& _
-2.029384	& a
-1.728354	& arg
-2.029384	& asn
-2.029384	& bE
-2.029384	& bn
-2.029384	& bo
-2.029384	& bv
-2.029384	& e
-1.728354	& glu
-2.029384	& h
-2.029384	& i
-2.029384	& k
-1.552263	& not
-1.728354	& o
-2.029384	& p
-2.029384	& r
-1.728354	& tyr
-2.029384	& u
-2.029384	& v
-2.029384	& w
-1.728354	& x
-2.029384	& y
-1.728354	& z
-1.728354	& ~
-0.9852768	&& !
-0.462398	&& (
-1.638489	&& *
-1.939519	&& ++
-1.939519	&& 0
-1.939519	&& 101
-1.939519	&& 258063
-1.638489	&& </s>
-1.462398	&& A
-1.939519	&& B
-1.939519	&& F
-1.939519	&& G
-1.939519	&& R
-1.939519	&& T
-1.939519	&& Z
-1.939519	&& _
-1.939519	&& _0
-1.462398	&& a
-1.939519	&& b
-1.939519	&& bf
-1.939519	&& bg
-1.939519	&& fscanf
-1.939519	&& g
-1.939519	&& h
-1.939519	&& j
-1.638489	&& n
-1.638489	&& o
-1.939519	&& putchar
-1.939519	&& q
-1.939519	&& r
-1.939519	&& read
-1.337459	&& s
-1.337459	&& v
-1.939519	&& x
-1.638489	&& y
0	&= z
-0.30103	' '
-0.90309	' )
-0.60206	' </s>
-0.90309	' ||
-0.69897	',' )
-0.09691001	',' ,
-0.30103	'128' height
-0.30103	'128' style
0	'2d' )
0	'=' )
0	'\n' )
-0.7269987	'_' )
-0.09017663	'_' ,
0	'a' ,
0	'b5sc!e" </s>
0	'c' width
0	'd' :
0	'width:256px;height:256px' </s>
0	'ws' +
0	'|' :
-1.947862	( !
-2.850952	( "
-3.151982	( ""
-2.674861	( "#"
-3.151982	( "%."
-3.151982	( "%c"
-3.151982	( "%d,%dd%d\n"
-3.151982	( "%d\n"
-3.151982	( "%da%d,%d\n"
-3.151982	( "%da%d\n"
-3.151982	( "%dd%d\n"
-3.151982	( "%s"
-3.151982	( "(O**"
-3.151982	( ");"
-3.151982	( "*"
-3.151982	( "-"
-3.151982	( "/*;;
-2.850952	( ";"
-3.151982	( ";Heca"
-3.151982	( ";Time:Q"
-3.151982	( "<
-3.151982	( "<"
-3.151982	( ">
-3.151982	( "@"
-3.151982	( "@+-"
-3.151982	( "HTTP/1.1
-2.850952	( "Q"
-3.151982	( "\n"
-3.151982	( "hello
-3.151982	( "laugh"
-3.151982	( "o("
-3.151982	( "r"
-3.151982	( "throw
-2.674861	( %
-2.19774	( &
-3.151982	( '
-3.151982	( ','
-3.151982	( '2d'
-2.306884	( '_'
-3.151982	( 'ws'
-1.345802	( (
-0.984665	( )
-1.560918	( *
-2.549922	( ++
-2.248892	( -
-3.151982	( .05
-2.850952	( .5
-1.80956	( 0
-3.151982	( 075
-1.737009	( 1
-3.151982	( 10
-2.850952	( 12
-3.151982	( 13
-2.850952	( 16
-3.151982	( 1912
-3.151982	( 1LL
-1.89671	( 2
-3.151982	( 22
-3.151982	( 24
-3.151982	( 255
-3.151982	( 256L
-2.038039	( 3
-3.151982	( 30
-2.850952	( 32
-3.151982	( 34
-3.151982	( 38
-2.151982	( 4
-3.151982	( 40
-2.850952	( 41
-2.850952	( 42
-3.151982	( 45
-2.453012	( 5
-3.151982	( 59
-3.151982	( 6
-2.850952	( 60
-2.850952	( 64
-3.151982	( 67
-3.151982	( 7
-3.151982	( 70
-2.674861	( 8
-2.453012	( 9
-3.151982	( 97
-3.151982	( 99999
-1.947862	( ;
-1.720619	( </s>
-2.850952	( =
-2.306884	( A
-2.373831	( B
-1.921533	( C
-2.306884	( D
-2.850952	( E
-2.19774	( F
-2.850952	( FILE
-3.151982	( F_
-2.11059	( H
-2.453012	( I
-3.151982	( J
-2.19774	( K
-2.038039	( L
-3.151982	( LINES
-2.549922	( M
-2.549922	( N
-1.873229	( O
-3.151982	( O0
-2.549922	( O2
-3.151982	( O3
-3.151982	( O4
-2.850952	( O5
-3.151982	( O6
-2.850952	( OO
-2.674861	( O_o
-2.072801	( P
-2.11059	( Q
-2.674861	( Q0
-2.850952	( Q1
-3.151982	( Q2
-3.151982	( Q5
-3.151982	( Q6
-2.674861	( QO
-3.151982	( QQ
-2.549922	( R
-3.151982	( RAFT
-1.947862	( T
-2.549922	( U
-2.453012	( V
-2.453012	( W
-1.80956	( X
-3.151982	( XCheckWindowEvent
-3.151982	( XMapWindow
-2.549922	( Y
-2.373831	( Z
-1.222564	( _
-2.453012	( _O
-2.850952	( _Q
-2.453012	( __
-3.151982	( __LINE__
-3.151982	( __STDC_VERSION__
-1.720619	( a
-2.850952	( ala
-1.80956	( and
-3.151982	( ar
-2.674861	( argh
-2.549922	( asn
-2.850952	( asp
-3.151982	( asx
-2.038039	( b
-3.151982	( be
-2.850952	( bk
-3.151982	( br
-2.850952	( bu
-2.850952	( buf
-3.151982	( by
-2.11059	( c
-3.151982	( calloc
-3.151982	( cb
-2.248892	( char
-2.674861	( const
-3.151982	( cos
-3.151982	( curs_set
-2.549922	( cys
-2.005854	( d
-3.151982	( dup2
-2.11059	( e
-3.151982	( elta_u
-3.151982	( elta_v
-1.771771	( f
-3.151982	( float_
-3.151982	( flu
-1.947862	( g
-3.151982	( gln
-3.151982	( glu
-2.11059	( h
-1.549922	( i
-2.674861	( ile
-2.005854	( int
-3.151982	( int_
-1.790255	( j
-1.89671	( k
-2.005854	( l
-2.850952	( lys
-2.038039	( m
-3.151982	( memcpy
-3.151982	( memset
-2.453012	( met
-1.704824	( n
-1.850952	( not
-1.975891	( o
-3.151982	( open
-2.038039	( p
-3.151982	( pread
-3.151982	( prin
-3.151982	( printf
-3.151982	( pro
-2.850952	( puts
-2.453012	( q
-2.453012	( r
-2.151982	( s
-2.850952	( sec
-2.248892	( ser
-3.151982	( short
-2.850952	( sizeof
-3.151982	( stdout
-2.072801	( t
-3.151982	( tch
-3.151982	( tla
-3.151982	( to
-2.306884	( u
-3.151982	( ub
-3.151982	( usl
-1.921533	( v
-3.151982	( va_arg
-3.151982	( val
-2.850952	( void
-1.89671	( w
-2.005854	( x
-2.248892	( xor
-1.975891	( y
-2.373831	( z
-2.850952	( ze
-3.151982	( {
-3.151982	( }
-3.151982	( ~
-2.482016	) !=
-3.180986	) "\xe2%c%c\r\n"
-1.976866	) %
-2.335887	) &
-1.879956	) &&
-1.547517	) (
-0.968798	) )
-1.241466	) *
-2.402834	) *=
-1.612784	) +
-2.277896	) +=
-1.176664	) ,
-1.800774	) -
-3.180986	) --
-2.482016	) -=
-2.879956	) .
-2.004894	) /
-3.180986	) 0
-3.180986	) 0u
-2.879956	) 16u
-2.879956	) 1u
-3.180986	) 64u
-3.180986	) 8u
-1.689624	) :
-0.6116117	) ;
-2.277896	) <
-1.348477	) </s>
-2.226743	) <<
-2.482016	) =
-2.578926	) ==
-2.335887	) >
-2.703864	) >=
-2.482016	) >>
-2.004894	) ?
-2.482016	) B
-2.277896	) G
-2.879956	) J
-2.879956	) L
-3.180986	) O5
-2.578926	) O_
-3.180986	) P
-2.879956	) Q
-3.180986	) Q_
-3.180986	) R
-3.180986	) S
-3.180986	) W
-3.180986	) Y
-2.402834	) [
-1.499744	) ]
-2.879956	) ^
-2.139593	) _
-2.879956	) __
-3.180986	) ___
-1.925713	) ____
-3.180986	) _d
-3.180986	) _f
-2.879956	) a
-2.879956	) asx
-2.879956	) b
-2.879956	) bd
-2.703864	) break
-3.180986	) bt
-3.180986	) by
-3.180986	) c
-3.180986	) continue
-3.180986	) d
-2.879956	) e
-3.180986	) err
-2.703864	) exit
-2.180986	) for
-3.180986	) g
-3.180986	) glx
-2.879956	) h
-2.578926	) i
-2.578926	) if
-2.879956	) int
-3.180986	) j
-3.180986	) k
-2.703864	) l
-3.180986	) lys
-3.180986	) m
-3.180986	) n
-2.879956	) not
-3.180986	) o
-3.180986	) printf
-3.180986	) putchar
-2.879956	) q
-2.578926	) r
-2.879956	) return
-2.482016	) s
-3.180986	) scanf
-3.180986	) sec
-2.703864	) tyr
-2.703864	) u
-2.879956	) v
-2.703864	) w
-3.180986	) x
-2.703864	) z
-0.8346326	) {
-2.402834	) |
-2.578926	) ||
-3.180986	) ~
-2.048442	* !
-1.066171	* (
-1.747412	* )
-1.633469	* *
-2.048442	* ++
-2.747412	* -
-2.270291	* --
-2.747412	* .1
-2.747412	* .5
-2.446382	* 0
-2.747412	* 1
-2.747412	* 1.6937441874215991e190
-2.145352	* 10
-2.747412	* 11
-2.747412	* 1103515245
-2.747412	* 12
-2.145352	* 16
-2.747412	* 17
-2.747412	* 193
-1.793169	* 2
-2.048442	* 3
-2.747412	* 32
-2.747412	* 39
-1.601284	* 4
-2.747412	* 4.522871578970112e217
-2.747412	* 4.6727004911171048e-153
-2.446382	* 42
-2.747412	* 51
-2.747412	* 512L
-2.747412	* 5298487
-2.747412	* 6
-2.446382	* 7
-2.747412	* 7.90055321525613e115
-2.446382	* 768
-2.270291	* 8
-1.747412	* 80
-2.747412	* 81
-2.747412	* 85
-2.747412	* 881
-2.446382	* 9
-2.747412	* 92
-1.367201	* </s>
-2.145352	* A
-2.446382	* B
-2.145352	* C
-2.747412	* D
-1.902314	* E
-2.446382	* H
-2.048442	* I
-1.902314	* K
-2.145352	* L
-2.747412	* L_tmpnam
-2.048442	* N
-2.270291	* O
-2.048442	* O0
-2.446382	* O3
-2.747412	* O4
-2.446382	* O6
-1.747412	* Q
-2.747412	* Q0
-2.747412	* Q1
-2.747412	* Q2
-2.145352	* Q3
-2.747412	* Q5
-2.747412	* Q7
-2.747412	* Q9
-2.747412	* QO
-2.446382	* QQ
-2.446382	* R
-2.446382	* S
-1.332438	* T
-2.747412	* U
-2.747412	* V
-2.446382	* W
-1.844322	* X
-2.048442	* Y
-1.492139	* _
-2.145352	* _0
-2.747412	* _O
-2.446382	* __
-2.747412	* ___
-1.668231	* a
-1.747412	* b
-2.747412	* bD
-2.747412	* ba
-2.270291	* bb
-2.747412	* be
-2.747412	* br
-2.747412	* bx
-2.270291	* c
-2.048442	* const
-1.633469	* d
-1.706019	* e
-1.747412	* f
-1.793169	* g
-2.145352	* i
-2.270291	* j
-2.145352	* k
-2.145352	* l
-2.446382	* m
-1.969261	* n
-2.048442	* not
-1.25605	* o
-1.332438	* p
-2.747412	* printf
-1.633469	* q
-2.048442	* s
-2.747412	* sin
-2.145352	* sizeof
-2.270291	* t
-2.446382	* tyr
-1.601284	* u
-2.446382	* x
-2.048442	* y
-2.446382	* z
-1.662758	*= !
-1.361728	*= (
-1.361728	*= -
-1.662758	*= 0
-1.662758	*= 0.7
-1.662758	*= 02
-1.185637	*= 1
-1.662758	*= 256
-1.662758	*= C
-1.662758	*= I
-0.8846066	*= Q
-1.361728	*= Y
-1.662758	*= _
-0.7596679	*= g
-0.6627578	*= o
-1.361728	*= s
-1.662758	*= t
-1.662758	*= u
-1.662758	*= z
0	*m,!*m?H:" upgrade
-2.120574	+ !
-2.421604	+ "fl!"
-0.8653014	+ (
-2.120574	+ )
-1.944483	+ *
-2.120574	+ 0
-2.421604	+ 0.5
-0.9592059	+ 1
-2.421604	+ 1.5
-2.421604	+ 11
-2.421604	+ 12
-2.421604	+ 128L
-2.421604	+ 138
-2.120574	+ 16
-2.421604	+ 18
-2.421604	+ 19205553
-1.421604	+ 2
-2.421604	+ 20
-2.421604	+ 287
-2.421604	+ 2L
-1.643453	+ 3
-2.421604	+ 32
-2.120574	+ 4
-2.421604	+ 4.5
-2.421604	+ 42
-2.421604	+ 44
-2.421604	+ 4L
-1.944483	+ 5
-2.120574	+ 512
-2.421604	+ 58
-2.421604	+ 6
-2.120574	+ 7
-2.421604	+ 74
-2.421604	+ 79
-2.120574	+ 8
-2.421604	+ 84
-2.421604	+ 86400
-1.421604	+ </s>
-2.421604	+ A
-2.120574	+ B
-2.421604	+ C
-2.421604	+ E
-2.421604	+ EOF
-1.944483	+ F
-1.944483	+ H
-2.421604	+ J
-1.944483	+ N
-2.421604	+ O4
-2.421604	+ P
-2.421604	+ Q0
-2.421604	+ Q5
-2.421604	+ R
-2.421604	+ T
-2.421604	+ TMP_MAX
-2.421604	+ V
-2.421604	+ X
-2.421604	+ Y
-1.643453	+ _
-2.421604	+ _Q
-1.944483	+ __
-2.120574	+ __STDC__
-1.576506	+ a
-2.421604	+ abs
-2.421604	+ asn
-2.421604	+ b
-1.819544	+ c
-2.421604	+ cos
-2.421604	+ d
-1.944483	+ e
-2.120574	+ f
-1.819544	+ g
-1.307661	+ i
-2.120574	+ j
-1.944483	+ k
-1.944483	+ l
-2.421604	+ location
-1.944483	+ m
-1.722634	+ n
-1.576506	+ o
-2.120574	+ p
-1.643453	+ s
-1.944483	+ t
-1.819544	+ u
-2.421604	+ unk
-2.421604	+ v
-1.819544	+ x
-2.421604	+ y
-1.944483	+ z
-1.944483	+ ~
-1.454845	++ %
-2.056905	++ &
-2.056905	++ &&
-0.7558749	++ )
-1.755875	++ *
-2.056905	++ +=
-1.357935	++ ,
-1.755875	++ -
-1.755875	++ :
-1.015512	++ ;
-1.278754	++ <
-1.454845	++ </s>
-2.056905	++ <=
-1.153815	++ =
-2.056905	++ ==
-2.056905	++ ?
-1.755875	++ N
-1.454845	++ T
-1.153815	++ ]
-1.755875	++ c
-2.056905	++ f
-2.056905	++ g
-1.579784	++ i
-2.056905	++ ile
-1.454845	++ j
-2.056905	++ l
-2.056905	++ leu
-2.056905	++ n
-1.579784	++ not
-2.056905	++ p
-2.056905	++ q
-1.755875	++ tla
-2.056905	++ u
-2.056905	++ v
-1.278754	++ xor
0	+99*! *m,!*m?H:"
-1.439333	+= !
-2.041393	+= 'a'
-0.9622114	+= (
-2.041393	+= .05
-2.041393	+= .1
-2.041393	+= 0.5
-1.564271	+= 1
-2.041393	+= 1.5
-2.041393	+= 16
-2.041393	+= 194
-1.439333	+= 2
-2.041393	+= 4
-2.041393	+= 4u
-2.041393	+= 5
-2.041393	+= 7
-2.041393	+= A
-1.740363	+= E
-1.740363	+= F
-1.439333	+= H
-2.041393	+= K
-2.041393	+= M
-1.439333	+= O1
-2.041393	+= O8
-2.041393	+= Q
-1.740363	+= U
-2.041393	+= UV_DROP
-1.740363	+= V
-1.564271	+= Y
-2.041393	+= _
-1.564271	+= a
-1.740363	+= be
-1.740363	+= bf
-2.041393	+= bt
-2.041393	+= c
-1.564271	+= d
-1.740363	+= e
-1.439333	+= g
-2.041393	+= h
-1.342423	+= i
-1.342423	+= l
-1.08715	+= o
-1.740363	+= p
-2.041393	+= printf
-2.041393	+= r
-1.740363	+= s
-1.740363	+= u
-2.041393	+= v
-1.564271	+= w
-3.074085	, !
-3.074085	, "
-3.074085	, ""
-2.596963	, "$"
-2.596963	, "%s"
-3.074085	, "('A)"
-3.074085	, "('A`)"
-3.074085	, "(A`)"
-3.074085	, "=:$"
-2.773055	, ">
-3.074085	, "d"
-2.596963	, "r"
-3.074085	, "usage:
-1.960141	, &
-2.472025	, ','
-1.676145	, '_'
-1.869965	, (
-2.119842	, )
-1.472025	, *
-2.596963	, ++
-2.472025	, -
-3.074085	, --
-2.596963	, ...
-1.295933	, 0
-3.074085	, 0x98BADCFE
-3.074085	, 0xEFCDAB89
-1.693873	, 1
-3.074085	, 1.3
-3.074085	, 128
-2.596963	, 16
-2.074085	, 2
-3.074085	, 24
-3.074085	, 256
-2.375115	, 3
-3.074085	, 3.9999e5
-3.074085	, 30
-3.074085	, 308438
-2.596963	, 32
-3.074085	, 3285377520
-3.074085	, 4
-3.074085	, 5
-2.773055	, 6
-3.074085	, 60
-3.074085	, 65544
-2.773055	, 8
-3.074085	, 85
-3.074085	, 9
-1.383889	, </s>
-2.773055	, =
-2.375115	, A
-2.375115	, B
-2.074085	, C
-2.596963	, D
-3.074085	, DefaultGC
-3.074085	, DefaultVisual
-2.596963	, E
-3.074085	, EOF
-2.295933	, F
-3.074085	, F_
-2.773055	, G
-2.472025	, H
-2.375115	, I
-2.596963	, J
-1.960141	, K
-2.596963	, L
-2.596963	, M
-2.773055	, N
-1.927957	, O
-2.295933	, O0
-3.074085	, O1
-2.773055	, O2
-3.074085	, O3
-3.074085	, O4
-2.773055	, O5
-3.074085	, O6
-3.074085	, O7
-3.074085	, O8
-3.074085	, O9
-2.773055	, OO
-2.773055	, P
-1.994903	, Q
-2.472025	, Q0
-2.773055	, Q1
-2.596963	, Q2
-3.074085	, Q3
-2.596963	, Q4
-3.074085	, Q5
-2.773055	, Q6
-3.074085	, Q7
-3.074085	, Q8
-3.074085	, Q9
-2.596963	, QO
-3.074085	, QQ
-3.074085	, RootWindow
-2.295933	, S
-2.773055	, SEEK_SET
-2.295933	, T
-3.074085	, TIOCGWINSZ
-2.472025	, U
-3.074085	, V
-2.228987	, W
-3.074085	, X
-2.773055	, Y
-0.6761447	, _
-3.074085	, _0
-2.596963	, _O
-2.596963	, _Q
-1.994903	, __
-3.074085	, __VA_ARGS__
-3.074085	, _f
-3.074085	, _i
-1.927957	, a
-3.074085	, a_
-3.074085	, ar
-3.074085	, arg
-2.773055	, au
-1.994903	, b
-2.773055	, bA
-2.773055	, bB
-2.773055	, bC
-2.773055	, bD
-3.074085	, bb
-3.074085	, be
-2.773055	, bf
-3.074085	, bg
-3.074085	, bi
-3.074085	, bo
-3.074085	, bq
-3.074085	, bt
-3.074085	, bu
-3.074085	, bv
-2.773055	, bz
-1.994903	, c
-3.074085	, ch
-2.074085	, char
-2.472025	, const
-1.751865	, d
-3.074085	, do
-2.773055	, dstr
-3.074085	, dup
-1.927957	, e
-3.074085	, eep
-2.119842	, f
-3.074085	, fopen
-3.074085	, fw
-2.295933	, g
-2.773055	, gln
-2.596963	, glu
-3.074085	, go
-2.228987	, h
-3.074085	, ho
-1.555571	, i
-2.228987	, int
-3.074085	, intw
-3.074085	, ioctl
-1.843636	, j
-2.074085	, k
-2.032692	, l
-3.074085	, le
-3.074085	, lea
-3.074085	, longjmp
-2.773055	, lu
-2.773055	, lv
-3.074085	, lys
-2.032692	, m
-1.795331	, n
-3.074085	, np
-1.869965	, o
-3.074085	, oec
-2.773055	, of
-3.074085	, op
-1.869965	, p
-3.074085	, pow
-3.074085	, pu
-2.596963	, q
-2.074085	, r
-3.074085	, rand
-2.119842	, s
-3.074085	, shi
-2.773055	, si
-2.472025	, sizeof
-3.074085	, sprintf
-3.074085	, stdin
-3.074085	, strlen
-1.818812	, t
-1.773055	, u
-3.074085	, unk
-3.074085	, usleep
-2.375115	, v
-3.074085	, vad
-3.074085	, val
-3.074085	, vpr
-2.074085	, w
-3.074085	, write
-1.897993	, x
-2.119842	, y
-2.472025	, z
-3.074085	, ~
0	,101 +99*!
-2.180413	- &
-1.402261	- (
-2.004321	- *
-2.481443	- .05
-2.481443	- 0.5
-0.8581933	- 1
-2.481443	- 1.3
-2.481443	- 12
-2.481443	- 128
-2.481443	- 14202379
-2.481443	- 158
-2.481443	- 19
-2.481443	- 1933008
-1.703291	- 2
-2.481443	- 205
-2.481443	- 22
-2.481443	- 24
-2.481443	- 257
-1.578353	- 3
-2.481443	- 30
-2.481443	- 304
-2.004321	- 32
-2.180413	- 33
-2.481443	- 35
-2.481443	- 37
-2.481443	- 4
-2.481443	- 488848
-2.481443	- 4u
-2.481443	- 5
-2.481443	- 508
-2.481443	- 59
-1.782473	- 6
-2.481443	- 60
-2.481443	- 64
-2.180413	- 7
-2.481443	- 7.5
-2.180413	- 8
-2.004321	- 9
-2.180413	- 90
-1.5272	- </s>
-2.180413	- A
-2.481443	- Acce
-2.180413	- B
-2.004321	- D
-2.180413	- E
-2.004321	- EOF
-2.481443	- F
-1.879383	- H
-2.004321	- I
-2.481443	- K
-2.481443	- L
-2.481443	- M
-2.481443	- O1
-2.481443	- O7
-2.180413	- OO
-2.481443	- P
-2.180413	- Q
-2.481443	- Q0
-2.481443	- QO
-2.481443	- R
-2.180413	- V
-2.004321	- W
-2.481443	- WebSocket
-2.481443	- X
-2.481443	- Y
-2.004321	- _
-2.481443	- _O
-2.481443	- _Q
-1.481443	- __
-1.703291	- a
-2.180413	- asn
-1.703291	- b
-1.636345	- c
-1.782473	- d
-2.481443	- dup2
-2.004321	- e
-1.578353	- f
-2.004321	- g
-2.004321	- h
-1.481443	- i
-1.703291	- j
-1.703291	- k
-2.481443	- key
-2.481443	- l
-2.004321	- m
-1.703291	- n
-2.004321	- o
-1.782473	- p
-2.481443	- q
-2.481443	- r
-2.180413	- s
-1.879383	- u
-1.782473	- unk
-1.703291	- v
-2.180413	- x
-1.367499	- ~
-1.690196	-- &&
-0.7359536	-- )
-1.389166	-- ,
-1.690196	-- 1954
-0.6901961	-- ;
-1.389166	-- </s>
-1.389166	-- =
-1.690196	-- >
-1.690196	-- E
-1.690196	-- H
-1.389166	-- O
-1.690196	-- R
-0.9120448	-- T
-1.389166	-- [
-1.690196	-- g
-1.389166	-- j
-1.690196	-- q
-1.690196	-- s
-1.690196	-- v
-1.690196	-- val
-1.690196	-- xor
-1.135663	-= (
-1.612784	-= 061
-1.612784	-= 2
-1.612784	-= 4
-1.612784	-= 80
-1.612784	-= </s>
-1.612784	-= D
-1.612784	-= F
-1.135663	-= H
-1.612784	-= V
-1.612784	-= W
-1.311754	-= be
-1.311754	-= bf
-1.311754	-= d
-1.612784	-= e
-1.311754	-= f
-1.010724	-= g
-1.612784	-= h
-1.612784	-= i
-1.010724	-= l
-1.612784	-= r
-1.612784	-= t
-1.135663	-= u
-1.311754	-= w
-1.273001	-> a
-0.79588	-> b
-1.875061	-> c
-0.7289332	-> j
-1.029963	-> n
-1.273001	-> not
-1.273001	-> op
-1.875061	-> pixels
-1.39794	-> val
-0.8336686	-> x
-0.8336686	-> y
-1.39794	-> z
-2.075547	. </s>
-1.172457	. _
-2.075547	. binary
-1.034154	. c
-2.075547	. crea
-2.075547	. dat
-2.075547	. data
-1.473487	. e
-2.075547	. getC
-2.075547	. href
-2.075547	. key
-2.075547	. keysym
-0.5192444	. not
-2.075547	. offsetLeft
-2.075547	. offsetTop
-2.075547	. onmousemove
-1.376577	. p
-2.075547	. pageY
-2.075547	. putImageData
-1.473487	. q
-2.075547	. send
-2.075547	. set
-2.075547	. slice
-2.075547	. st_mtime
-2.075547	. st_size
-2.075547	. subs
-2.075547	. sym
-1.774517	. t
-2.075547	. type
-0.871427	. val
-2.075547	. xkey
-1.075547	. y
-0.1760913	... )
-0.4771213	... </s>
-0.4771213	.05 )
-0.4771213	.05 ;
-0.4771213	.05 </s>
-0.1760913	.1 )
-0.4771213	.1 :
0	.27 s
-0.4771213	.5 *
-0.4771213	.5 -
-0.4771213	.5 </s>
-1.057992	/ (
-1.90309	/ +
-1.90309	/ -
-1.90309	/ 1024.
-1.90309	/ 12
-0.69897	/ 2
-1.60206	/ 2.
-1.90309	/ 20
-1.90309	/ 24
-1.90309	/ 26
-1.60206	/ 3
-1.90309	/ 32768
-1	/ 4
-1.30103	/ 5
-1.90309	/ 504
-1.90309	/ 60
-1.90309	/ 60.
-1.90309	/ 768
-1.30103	/ 8
-1.90309	/ 85
-1.90309	/ 88
-1.90309	/ </s>
-1.60206	/ I
-1.90309	/ O3
-1.425969	/ Q
-1.90309	/ QQ
-1.60206	/ _
-1.30103	/ f
-1.90309	/ fabs
-1.90309	/ g
-1.90309	/ j
-1.90309	/ k
-1.90309	/ n
-1.60206	/ p
-1.90309	/ scr
-1.90309	/ w
-0.845098	/= ++
-0.544068	/= 2
-0.845098	/= H
-0.845098	/= c
-0.845098	/= l
-0.845098	/= z
-1.937852	0 &&
-0.5824645	0 )
-2.414973	0 +
-0.6225817	0 ,
-1.113943	0 :
-0.5824645	0 ;
-1.511883	0 <
-2.113943	0 </s>
-2.414973	0 ==
-2.113943	0 >
-1.414973	0 ?
-1.414973	0 ]
-2.414973	0 m
-2.113943	0 ||
-2.113943	0 }
-0.4771213	0.5 *
-0.1760913	0.5 ;
0	0.7 ;
0	01 ]
0	02 </s>
0	024 )
0	03 ;
0	040 )
0	061 *
0	075 )
-0.30103	0u ,
-0.30103	0u ;
0	0x1 !=
0	0x3f0 )
0	0x67452301 ,
0	0x820008202625a0 ;
0	0x98BADCFE </s>
0	0xEFCDAB89 ,
0	0xf |
0	0xfc0 ||
0	0xfe0 ^
0	0xff00ff00ff ;
0	0xffff )
-1.815135	1 &
-1.815135	1 &&
-0.6294982	1 )
-2.292256	1 *
-1.690196	1 +
-0.8151348	1 ,
-1.061807	1 -
-1.593286	1 :
-0.8151348	1 ;
-2.292256	1 </s>
-1.338014	1 <<
-1.991226	1 ==
-1.815135	1 ?
-2.292256	1 A
-1.815135	1 [
-0.7871061	1 ]
-2.292256	1 ^
-1.991226	1 |
-1.815135	1 }
0	1.159922023e9 ,
-0.30103	1.3 ,
-0.30103	1.3 </s>
0	1.5 ;
0	1.6937441874215991e190 ;
-0.6690068	10 )
-1.146128	10 *
-0.845098	10 +
-0.845098	10 ,
-1.146128	10 /
-1.146128	10 :
-1.146128	10 ;
-1.146128	10 R
-1.146128	10 ||
-1.146128	10 }
0	1008 )
0	101 ==
-0.4771213	1023 )
-0.1760913	1023 |
0	1024 /
0	1024. ;
-0.1760913	11 )
-0.4771213	11 ;
0	1103515245 &
0	112 ,
-0.9542425	12 &
-0.6532125	12 )
-0.9542425	12 +
-0.6532125	12 -
-0.6532125	12 </s>
-0.9542425	12 >
0	123 :
0	12359778 ;
0	12365733 -
0	124 -
0	127 ;
-0.60206	128 &&
-0.30103	128 )
-0.60206	128 ,
0	128L +
-0.30103	13 ,
-0.30103	13 ?
0	13000 ;
0	138 )
-0.1760913	14 &
-0.7781513	14 ]
-0.7781513	14 ^
0	14202379 *
0	14695981039346656037ULL ;
-0.544068	15 )
-0.3679768	15 ,
-0.845098	15 ;
-0.845098	15 |
0	1500 ?
0	158 )
-1.278754	16 &&
-0.5006024	16 )
-0.8016323	16 *
-1.278754	16 +
-0.8016323	16 ,
-1.278754	16 /
-0.8016323	16 ;
-1.278754	16 >
0	1600 &&
-0.1760913	16711935 ;
-0.4771213	16711935 |
0	16774143 ;
0	16u )
0	17 +
0	176 /
-0.69897	18 )
-0.69897	18 ,
-0.69897	18 </s>
-0.69897	18 ?
-0.69897	18 ]
0	19 )
0	1912 --
0	19205553 ;
0	193 +
0	1933008 </s>
0	194 ,
0	1954 )
0	196 -
0	197 )
0	198 ;
-0.30103	1LL +
-0.30103	1LL <<
-0.30103	1u )
-0.30103	1u ,
-2.082785	2 %
-1.605664	2 &
-0.5030017	2 )
-0.9066941	2 *
-1.383815	2 +
-0.8040318	2 ,
-1.781755	2 -
-0.9366573	2 ;
-2.082785	2 </s>
-1.304634	2 ?
-0.968842	2 ]
-1.605664	2 ||
-2.082785	2 }
0	2. )
0	2.271681097355226e15 ,
-0.90309	20 %
-0.60206	20 )
-0.90309	20 *
-0.60206	20 </s>
-0.60206	20 ?
0	204 ]
0	205 )
-0.30103	22 )
-0.30103	22 *
0	23 ;
0	234 ;
-0.544068	24 )
-0.845098	24 ,
-0.845098	24 ;
-0.544068	24 </s>
-0.845098	24 ]
0	25 ;
0	250 ,
-0.845098	255 )
-0.845098	255 ,
-0.845098	255 -
-0.845098	255 :
-0.544068	255 ;
-0.845098	255 ?
-0.30103	256 ,
-0.60206	256 -
-0.60206	256 ;
0	256L +
0	257 ,
0	258063 &
-0.30103	26 ,
-0.30103	26 ]
0	27 )
0	275 )
0	276 )
0	28 &
0	287 )
0	2L )
-1.574031	3 &
-0.5963076	3 )
-0.9719713	3 *
-1.176091	3 +
-1.029963	3 ,
-1.273001	3 -
-1.574031	3 :
-0.9719713	3 ;
-1.875061	3 </s>
-1.875061	3 ?
-1.875061	3 A
-1.875061	3 B
-0.6709413	3 ]
0	3.135045272e9 ,
0	3.9999e5 )
-0.845098	30 &&
-0.845098	30 *
-0.845098	30 +
-0.544068	30 ;
-0.845098	30 ?
-0.845098	30 ]
0	304 -
0	308438 *
-0.60206	31 )
-0.1249387	31 ;
-0.552842	32 )
-0.9208187	32 +
-0.79588	32 ,
-1.39794	32 -
-1.39794	32 :
-0.79588	32 ;
-1.09691	32 <<
-1.09691	32 ]
-1.39794	32 |
-0.30103	32768 )
-0.30103	32768 ,
0	3285377520 }
0	33 )
-0.30103	333 *
-0.30103	333 ;
0	3352537 *
0	34 m
-0.69897	35 )
-0.69897	35 -
-0.69897	35 :
-0.69897	35 ?
-0.69897	35 R
0	36 :
-0.30103	37 +
-0.30103	37 ;
-0.30103	38 )
-0.30103	38 *
0	384 )
0	39 ;
0	3920 )
-1.857332	4 &
-0.4956047	4 )
-1.012234	4 *
-1.255273	4 +
-0.9542425	4 ,
-1.079181	4 -
-1.857332	4 :
-1.158363	4 ;
-1.857332	4 <
-1.857332	4 </s>
-0.7781513	4 ]
-1.380211	4 |
0	4.023233417e9 ,
0	4.294967296e9 ,
0	4.5 )
0	4.503599627370496e15 ,
0	4.522871578970112e217 ;
0	4.6727004911171048e-153 ;
-0.20412	40 )
-0.90309	40 :
-0.90309	40 ;
-0.90309	40 ?
0	4092 ^
0	41 )
0	41088 ,
0	4190208 |
0	4194304 </s>
-0.09691001	42 )
-0.69897	42 ;
0	44 +
0	45 )
0	48 ;
0	480 ,
0	488848 *
0	4L +
-0.30103	4u )
-0.30103	4u ;
-1.568202	5 %
-1.267172	5 &&
-0.4220737	5 )
-1.267172	5 *
-0.9661418	5 ,
-1.568202	5 -
-1.568202	5 ;
-1.568202	5 </s>
-1.09108	5 ?
-0.6651117	5 ]
0	50 ;
0	504 *
0	508 ]
0	51 )
-0.60206	512 *
-0.60206	512 +
-0.60206	512 ;
-0.60206	512 </s>
0	512L )
0	516 ]
-0.30103	5200 ;
-0.30103	5200 ]
0	5298487 :
-0.4771213	56 )
-0.1760913	56 ;
0	57 ;
-0.30103	58 :
-0.30103	58 >
-0.30103	59 ;
-0.30103	59 ==
0	5toG57j/3" </s>
-1.176091	6 &
-1.477121	6 &&
-0.5228788	6 )
-1	6 *
-1	6 ,
-1	6 ;
-1.176091	6 </s>
-1.477121	6 >
-1.176091	6 ?
-0.8750613	6 ]
-0.20412	60 )
-0.60206	60 *
-0.90309	60 /
0	60. /
-0.1760913	61 :
-0.4771213	61 ;
-0.30103	62 ;
-0.30103	62 ?
-0.30103	63 )
-0.60206	63 ,
-0.60206	63 <<
0	63504 ;
-1.079181	64 &
-0.7781513	64 )
-1.079181	64 *
-0.3802112	64 ,
-1.079181	64 :
-1.079181	64 ;
-1.079181	64 </s>
0	64u )
0	65280 )
0	65307 ;
-0.30103	65536 ;
-0.30103	65536 ]
0	65544 >
0	67 *
0	6990400 ;
-1.361728	7 &
-1.361728	7 &&
-0.6627578	7 )
-1.060698	7 *
-0.7596679	7 ,
-1.361728	7 -
-1.060698	7 ;
-1.361728	7 <
-1.361728	7 </s>
-1.361728	7 ?
-0.7596679	7 ]
0	7.5 )
0	7.90055321525613e115 ;
0	70 )
-0.30103	74 )
-0.30103	74 </s>
0	75 ?
0	76 )
-0.60206	768 ;
-0.60206	768 </s>
-0.30103	768 ]
0	77 ;
-0.4771213	79 )
-0.4771213	79 ;
-0.4771213	79 ]
-1.221849	8 &
-1.69897	8 &&
-0.6575773	8 )
-1.221849	8 +
-0.5850267	8 ,
-1.39794	8 :
-0.9208187	8 ;
-1.69897	8 <
-1.39794	8 >>
-1.39794	8 ?
-1.09691	8 ]
-1.39794	8 |
0	8.44396048e8 ,
-1.146128	80 )
-0.146128	80 +
-1.146128	80 ,
-1.146128	80 ;
-1.146128	80 ]
0	8000 </s>
-0.4771213	81 )
-0.4771213	81 -
-0.4771213	81 /
0	82 ;
0	84 )
-0.4771213	85 *
-0.4771213	85 +
-0.4771213	85 <<
-0.30103	86400 )
-0.30103	86400 -
0	88 )
0	881 ,
0	8u +
-1.230449	9 %
-0.3853509	9 )
-1.230449	9 *
-1.230449	9 +
-0.9294189	9 ,
-0.9294189	9 -
-1.230449	9 ;
-1.230449	9 <<
-1.230449	9 ?
-0.30103	90 )
-0.30103	90 ;
0	91 )
-0.4771213	92 )
-0.4771213	92 +
-0.4771213	92 ;
0	96 ^
-0.4771213	97 +
-0.1760913	97 ]
0	9858122 :
0	99 ]
0	9999 ]
0	99999 )
-1.678215	: !
-2.155336	: ""
-2.155336	: ")$"
-2.155336	: "Q(j"
-2.155336	: "Q(jam"
-2.155336	: %
-2.155336	: &
-2.155336	: '='
-0.8129134	: (
-1.456366	: *
-1.854306	: -
-0.854306	: 0
-1.678215	: 1
-2.155336	: 12365733
-2.155336	: 2
-2.155336	: 24
-2.155336	: 3352537
-2.155336	: 5
-2.155336	: 65536
-2.155336	: :
-1.041393	: </s>
-2.155336	: >
-2.155336	: B
-2.155336	: C
-2.155336	: EOF
-2.155336	: G
-1.854306	: I
-2.155336	: N
-2.155336	: O
-2.155336	: P
-2.155336	: R
-2.155336	: S
-1.854306	: T
-2.155336	: V
-1.678215	: _
-2.155336	: _c
-2.155336	: a
-2.155336	: break
-1.678215	: c
-2.155336	: case
-2.155336	: d
-1.854306	: e
-2.155336	: f
-2.155336	: fopen
-2.155336	: g
-1.678215	: gln
-2.155336	: goto
-1.854306	: h
-1.854306	: i
-2.155336	: j
-2.155336	: l
-1.854306	: m
-2.155336	: main
-2.155336	: n
-2.155336	: p
-2.155336	: putchar
-1.854306	: r
-2.155336	: switch
-1.678215	: u
-1.678215	: v
-2.155336	: w
-2.155336	: webso
-2.155336	: x
-1.854306	: ~
-2.394101	; !
-2.394101	; (
-1.52487	; )
-1.862622	; *
-2.093071	; ++
-3.093071	; --
-3.093071	; 0
-2.189981	; ;
-0.4555816	; </s>
-2.394101	; A
-2.31492	; B
-2.093071	; D
-2.31492	; E
-2.792041	; F
-2.31492	; G
-2.61595	; H
-2.491011	; I
-2.491011	; J
-2.189981	; K
-2.31492	; L
-3.093071	; M
-3.093071	; N
-2.394101	; O
-2.189981	; P
-2.792041	; Q
-3.093071	; Q_
-2.247973	; R
-3.093071	; SDL_BlitSurface
-3.093071	; SDL_Delay
-3.093071	; SDL_Event
-3.093071	; SDL_FillRect
-3.093071	; SDL_Flip
-3.093071	; SDL_Init
-3.093071	; SDL_LoadWAV
-3.093071	; SDL_MixAudio
-3.093071	; SDL_OpenAudio
-3.093071	; SDL_PauseAudio
-2.491011	; T
-1.837799	; U
-1.979128	; V
-1.862622	; W
-3.093071	; Window
-2.792041	; X
-3.093071	; XEvent
-3.093071	; XImage
-3.093071	; XSelectInput
-2.792041	; Y
-1.91698	; _
-3.093071	; __
-3.093071	; ___
-1.862622	; a
-1.587921	; b
-3.093071	; bA
-3.093071	; ba
-3.093071	; bc
-2.792041	; bh
-3.093071	; bj
-2.491011	; break
-3.093071	; bz
-2.189981	; c
-2.394101	; case
-2.247973	; char
-1.91698	; d
-2.792041	; default
-2.394101	; e
-2.61595	; else
-3.093071	; extern
-2.138829	; f
-3.093071	; fgets
-2.491011	; float
-1.645913	; for
-3.093071	; fread
-3.093071	; free
-2.394101	; g
-2.792041	; goto
-3.093071	; h
-1.862622	; i
-1.979128	; if
-1.979128	; int
-2.051679	; j
-1.946943	; k
-2.394101	; l
-2.491011	; long
-2.247973	; m
-2.792041	; main
-3.093071	; memcpy
-3.093071	; mvaddstr
-3.093071	; mvinsch
-2.093071	; n
-2.01389	; o
-1.979128	; p
-3.093071	; putchar
-2.31492	; q
-2.189981	; r
-3.093071	; refresh
-2.01389	; return
-2.01389	; s
-2.61595	; struct
-3.093071	; switch
-2.31492	; t
-3.093071	; typedef
-1.91698	; u
-3.093071	; union
-2.394101	; v
-3.093071	; va_end
-3.093071	; va_start
-2.491011	; void
-1.91698	; w
-2.491011	; while
-2.31492	; x
-2.31492	; xor
-2.31492	; y
-1.814318	; z
-2.792041	; {
-0.9758	; }
-1.659599	< %
-2.136721	< (
-2.136721	< /
-0.9326006	< 0
-2.136721	< 11
-2.136721	< 127
-2.136721	< 13
-1.835691	< 14
-2.136721	< 16
-1.835691	< 18
-1.534661	< 2
-1.835691	< 20
-1.835691	< 3
-2.136721	< 30
-2.136721	< 32
-1.835691	< 5
-2.136721	< 5200
-2.136721	< 57
-1.659599	< 6
-1.835691	< 60
-2.136721	< 61
-1.835691	< 62
-2.136721	< 7
-2.136721	< 74
-2.136721	< 75
-2.136721	< 77
-1.835691	< 79
-2.136721	< 80
-2.136721	< 82
-2.136721	< 91
-2.136721	< :
-1.534661	< </s>
-1.835691	< A
-1.835691	< B
-1.534661	< D
-1.835691	< E
-2.136721	< M
-2.136721	< O
-2.136721	< Q
-2.136721	< SPEED
-2.136721	< U
-2.136721	< W
-1.835691	< _
-1.534661	< a
-2.136721	< abs
-2.136721	< asn
-1.659599	< c
-1.835691	< d
-1.835691	< f
-2.136721	< h
-1.358569	< i
-2.136721	< j
-2.136721	< l
-1.835691	< m
-1.358569	< n
-1.358569	< not
-2.136721	< p
-1.437751	< s
-2.136721	< script
-1.835691	< t
-1.835691	< u
-1.659599	< v
-1.835691	< x
-2.136721	< y
-2.136721	< ~
-1.071882	<< (
-1.293731	<< 1
-1.770852	<< 14
-1.770852	<< 15
-1.469822	<< 18
-1.770852	<< 23
-1.770852	<< 24
-1.770852	<< 30
-1.293731	<< 32
-1.293731	<< 4
-1.770852	<< 40
-1.770852	<< 5
-1.469822	<< 56
-1.469822	<< 6
-1.770852	<< 60
-1.770852	<< 7
-0.925754	<< 8
-1.469822	<< </s>
-1.770852	<< Q_
-1.469822	<< a
-1.770852	<< b
-1.469822	<< f
-1.770852	<< i
-1.293731	<< l
-1.770852	<< n
-1.469822	<< s
-1.168792	<< t
-1.469822	<< u
-1.770852	<< unk
-1.770852	<< z
0	<<= b
-0.9542425	<= 24
-0.9542425	<= D
-0.9542425	<= L
-0.9542425	<= Q
-0.9542425	<= f
-0.9542425	<= k
-0.9542425	<= m
-0.9542425	<= optind
-0.9542425	<= q
0	<P~6" </s>
-2.72876	<s> !
-3.029789	<s> !=
-2.72876	<s> "
-3.029789	<s> "!:E%;!ea!!!WqE0z!f/y}!%!!Qi6!uzt!n}?]!bl!ak!SetR<"
-3.029789	<s> "!pv!;!Hm%Ro4"
-3.029789	<s> "%d
-3.029789	<s> "%f,%f,"
-3.029789	<s> "*_[512],**p=_,**d,b,q;for(b=0;b"
-3.029789	<s> "*p=#b,P[9999],*d=P,*e[]="
-3.029789	<s> "/"
-3.029789	<s> "258EAFA5-"
-3.029789	<s> "::::::::::::?_::::\"::.::::@:::'::-::::::::;!:):::::,:::::"
-3.029789	<s> ";;"
-3.029789	<s> ";Gam"
-3.029789	<s> ";GlockQ18"
-3.029789	<s> ";^Q<d|8=o;]Q<dj8<Pk8<c]'?;QQdi8?P'Q)d8<9`8?c;Qdh8=P']Q<`c8>PQ9_8"
-3.029789	<s> "<o_Q<o_QBdo`QQ';`Q=9`]8=bobQ_o_Q<o]8=';bQC(88cQ`bcgQ>oP']8<;cQ>98)^Q?''oc`Q>"
-3.029789	<s> "=(p-_+1)*9%512]=(O*)p;"
-3.029789	<s> ">b;og8=''`Q<`b8?'QQ9_8?c;dPe8dQa8<P]Q<``8=;'f8>QQ`]8?ocQQ_8=''_Q`8aQ"
-3.029789	<s> "?guhljL!^P%
-3.029789	<s> "CYOUQWIN!]Q=;of8BQQ)88bc]QA98P'Qo]8>oQQ_8CP;QQ98b`_8@P8(Q`]'^Q=`']QB)88"
-3.029789	<s> "M@K~|JOEF\\^~_NHI]"
-3.029789	<s> "Zj$x!~V!n&g8!cK!
-3.029789	<s> "bQQ]`8J;QQ`88bc99bd(`8iQ@''QQo^8E'`8c;QQ'Q``8?QQ`'kQ<o]8B9PQQ`';_Q<`_8<cbQ"
-3.029789	<s> "e.6!r!%l6G!n~^<i=%pEwL%P!'<!FQt%u
-3.029789	<s> "e:|
-3.029789	<s> "etu"
-3.029789	<s> "med);"
-3.029789	<s> "oc']Q]8<;cQ>`8bbQA``QQ''`Q?88P;dQ=`)nQ?*/;;"
-3.029789	<s> "oid
-2.552668	<s> %
-2.72876	<s> &
-2.552668	<s> &&
-3.029789	<s> 'c'
-1.485721	<s> (
-1.524639	<s> )
-2.330819	<s> *
-2.72876	<s> +
-1.950608	<s> ++
-2.72876	<s> +=
-1.631849	<s> ,
-1.950608	<s> -
-2.427729	<s> --
-3.029789	<s> -=
-3.029789	<s> .
-2.552668	<s> /
-2.330819	<s> 0
-3.029789	<s> 0xffff
-2.552668	<s> 1
-3.029789	<s> 10
-3.029789	<s> 128
-3.029789	<s> 15
-3.029789	<s> 16
-3.029789	<s> 16711935
-2.427729	<s> 2
-3.029789	<s> 25
-3.029789	<s> 333
-2.72876	<s> 4
-3.029789	<s> 45
-3.029789	<s> 5
-3.029789	<s> 6
-3.029789	<s> 63504
-3.029789	<s> 64
-3.029789	<s> 65307
-3.029789	<s> 7
-2.552668	<s> 8
-3.029789	<s> 81
-3.029789	<s> 96
-2.72876	<s> :
-1.799341	<s> ;
-2.72876	<s> <
-2.427729	<s> <<
-1.883661	<s> =
-3.029789	<s> >
-2.330819	<s> >>
-2.427729	<s> ?
-2.330819	<s> A
-3.029789	<s> Alan
-2.552668	<s> B
-2.72876	<s> C
-3.029789	<s> COLS
-2.72876	<s> D
-2.075547	<s> E
-2.552668	<s> F
-2.552668	<s> FILE
-2.72876	<s> G
-2.251638	<s> H
-1.988397	<s> I
-2.72876	<s> J
-2.184691	<s> K
-2.251638	<s> L
-2.251638	<s> M
-2.552668	<s> N
-2.72876	<s> O
-3.029789	<s> O1
-3.029789	<s> O2
-3.029789	<s> O7
-3.029789	<s> O8
-3.029789	<s> O_
-2.330819	<s> P
-2.552668	<s> Q
-3.029789	<s> Q1
-3.029789	<s> Q2
-3.029789	<s> Q3
-3.029789	<s> QO
-2.552668	<s> R
-3.029789	<s> S
-3.029789	<s> SDL_PollEvent
-3.029789	<s> SDL_Surface
-2.126699	<s> T
-2.427729	<s> U
-3.029789	<s> Upgrade
-2.251638	<s> V
-2.075547	<s> W
-2.552668	<s> X
-3.029789	<s> XPutImage
-1.915846	<s> Y
-2.184691	<s> Z
-2.427729	<s> [
-2.330819	<s> ]
-2.075547	<s> _
-3.029789	<s> _0
-2.72876	<s> __
-2.72876	<s> ____
-3.029789	<s> _f
-1.853698	<s> a
-3.029789	<s> ageX
-2.72876	<s> ala
-2.427729	<s> and
-2.552668	<s> asn
-2.029789	<s> b
-3.029789	<s> bB
-3.029789	<s> bC
-3.029789	<s> be
-3.029789	<s> bl
-3.029789	<s> bn
-2.184691	<s> break
-3.029789	<s> bt
-2.72876	<s> bu
-3.029789	<s> by
-2.427729	<s> c
-3.029789	<s> case
-2.72876	<s> char
-2.075547	<s> const
-1.82567	<s> d
-3.029789	<s> default
-2.427729	<s> do
-3.029789	<s> double
-1.70757	<s> e
-2.72876	<s> else
-3.029789	<s> er
-2.427729	<s> err
-3.029789	<s> errx
-2.72876	<s> exit
-2.330819	<s> f
-1.70757	<s> for
-3.029789	<s> fputc
-2.330819	<s> free
-2.72876	<s> fseek
-3.029789	<s> fw
-1.598426	<s> g
-3.029789	<s> getchar
-2.427729	<s> gly
-2.075547	<s> h
-1.631849	<s> i
-1.417006	<s> if
-1.687367	<s> int
-2.330819	<s> j
-2.330819	<s> k
-1.950608	<s> l
-2.552668	<s> long
-2.552668	<s> lys
-2.552668	<s> m
-2.427729	<s> main
-2.552668	<s> met
-3.029789	<s> mva
-2.330819	<s> n
-2.72876	<s> ndif
-3.029789	<s> new
-2.075547	<s> not
-1.70757	<s> o
-3.029789	<s> ocket
-3.029789	<s> on
-2.72876	<s> op
-3.029789	<s> open
-3.029789	<s> optind
-2.330819	<s> p
-2.72876	<s> phe
-2.251638	<s> printf
-3.029789	<s> pt
-2.72876	<s> putchar
-2.72876	<s> puts
-2.427729	<s> q
-2.427729	<s> r
-3.029789	<s> rea
-1.988397	<s> return
-2.72876	<s> rewind
-3.029789	<s> rror
-1.883661	<s> s
-2.427729	<s> sec
-3.029789	<s> signal
-3.029789	<s> sin
-2.330819	<s> static
-3.029789	<s> stdin
-3.029789	<s> strchr
-2.72876	<s> switch
-2.126699	<s> t
-3.029789	<s> tf
-2.330819	<s> thr
-3.029789	<s> tr
-3.029789	<s> type
-1.988397	<s> typedef
-2.72876	<s> tyr
-2.075547	<s> u
-2.184691	<s> unsigned
-2.330819	<s> v
-2.72876	<s> val
-2.330819	<s> void
-3.029789	<s> volatile
-2.029789	<s> w
-1.950608	<s> while
-2.552668	<s> x
-1.950608	<s> y
-2.184691	<s> z
-1.82567	<s> {
-1.110711	<s> }
-2.72876	<s> ~
-2.222196	= !
-2.921166	= "
-2.921166	= "<;iQ=/*do<;dQ=ook8?boc;aQ=odr8>oc;_Q<ox8>oc"
-2.921166	= "NBLF\1Nblfgjmf\1"
-2.921166	= "\n\n\n"
-2.921166	= "syntax_error!"
-2.319106	= &
-2.620136	= '128'
-2.921166	= 'width:256px;height:256px'
-1.249068	= (
-2.620136	= )
-1.717046	= *
-2.444045	= ,
-1.559438	= -
-2.921166	= --
-2.921166	= .1
-0.9717761	= 0
-2.921166	= 040
-2.921166	= 0u
-2.921166	= 0x1
-2.921166	= 0x820008202625a0
-1.559438	= 1
-2.921166	= 1.159922023e9
-2.319106	= 10
-2.921166	= 1024
-2.921166	= 112
-2.921166	= 12
-2.921166	= 12359778
-2.921166	= 13000
-2.620136	= 14695981039346656037ULL
-2.921166	= 16
-2.921166	= 17
-2.921166	= 196
-2.921166	= 1LL
-2.444045	= 2
-2.921166	= 2.271681097355226e15
-2.921166	= 234
-2.921166	= 250
-2.444045	= 255
-2.921166	= 256
-2.921166	= 26
-2.143015	= 3
-2.921166	= 3.135045272e9
-2.921166	= 30
-2.444045	= 32
-2.921166	= 32768
-2.921166	= 333
-2.921166	= 37
-2.222196	= 4
-2.921166	= 4.023233417e9
-2.921166	= 4.294967296e9
-2.921166	= 4.503599627370496e15
-2.921166	= 40
-2.921166	= 41088
-2.921166	= 48
-2.921166	= 480
-2.620136	= 5
-2.921166	= 50
-2.921166	= 512
-2.444045	= 6
-2.921166	= 64
-2.921166	= 6990400
-2.143015	= 7
-2.444045	= 8
-2.921166	= 8.44396048e8
-2.921166	= 80
-2.921166	= 9
-1.717046	= </s>
-1.598947	= A
-1.841985	= B
-2.018076	= C
-2.921166	= COLS
-2.143015	= D
-2.222196	= E
-2.143015	= F
-2.222196	= H
-2.222196	= I
-2.921166	= J
-2.076068	= K
-2.319106	= L
-2.921166	= LINES
-2.319106	= M
-1.841985	= N
-1.921166	= O
-2.921166	= O0
-2.921166	= O5
-2.444045	= OO
-2.620136	= O_
-2.921166	= O_o
-2.444045	= P
-1.966924	= Q
-2.921166	= Q7
-2.921166	= Q8
-2.444045	= Q_
-2.444045	= R
-2.319106	= S
-2.921166	= SDL_CreateRGBSurface
-2.921166	= SDL_SetVideoMode
-1.966924	= T
-2.921166	= TIMESTEP
-2.921166	= U
-2.444045	= W
-2.921166	= X
-2.921166	= XCreateImage
-2.921166	= XCreateSimpleWindow
-2.921166	= XLookupKeysym
-2.921166	= XOpenDisplay
-2.921166	= Y
-2.620136	= Z
-1.966924	= _
-2.921166	= _0
-2.620136	= _Q
-2.444045	= __
-2.921166	= __TIME__
-2.921166	= _b
-1.807223	= a
-1.841985	= b
-2.620136	= bA
-2.921166	= bB
-2.921166	= bC
-2.620136	= bE
-2.921166	= ba
-2.921166	= bb
-2.921166	= bf
-2.921166	= bm
-2.076068	= bp
-2.921166	= bs
-2.921166	= buf
-2.921166	= bx
-2.921166	= by
-2.620136	= bz
-1.745075	= c
-2.444045	= calloc
-2.921166	= cos
-1.690717	= d
-1.717046	= e
-2.620136	= exp
-1.642412	= f
-2.921166	= fgetc
-2.921166	= fopen
-2.620136	= fread
-2.921166	= function
-2.319106	= g
-2.921166	= getch
-2.444045	= getchar
-2.921166	= getopt
-2.319106	= gln
-1.966924	= h
-2.620136	= his
-1.921166	= i
-1.879773	= j
-2.222196	= k
-2.319106	= l
-2.921166	= lv
-2.076068	= m
-2.921166	= main
-2.620136	= malloc
-2.076068	= n
-2.921166	= new
-2.444045	= not
-1.717046	= o
-2.921166	= op
-2.018076	= p
-2.620136	= pow
-2.921166	= pyl
-2.444045	= q
-2.319106	= r
-2.921166	= rand
-2.921166	= read
-2.319106	= realloc
-2.921166	= round
-2.018076	= s
-2.444045	= sizeof
-2.921166	= sqrt
-2.921166	= strrchr
-2.921166	= system
-2.143015	= t
-2.921166	= tmpfile
-2.018076	= trp
-1.841985	= u
-2.620136	= unk
-1.841985	= v
-2.921166	= w
-2.921166	= window
-1.879773	= x
-2.921166	= xle
-1.921166	= y
-2.143015	= z
-2.018076	= {
-1.439333	== '\n'
-1.740363	== (
-1.439333	== *
-1.439333	== -
-1.740363	== 0
-1.439333	== 1
-1.439333	== 10
-1.740363	== 2
-1.740363	== 27
-1.740363	== 275
-1.740363	== 276
-1.439333	== 3
-1.740363	== 32
-1.439333	== 35
-1.740363	== 4
-1.439333	== 5
-1.740363	== 6
-1.740363	== 8
-1.740363	== 81
-1.740363	== 92
-1.740363	== </s>
-1.740363	== B
-1.439333	== D
-1.439333	== NULL
-1.439333	== T
-1.138303	== a
-1.740363	== arg
-1.263241	== b
-1.439333	== c
-1.740363	== cys
-1.740363	== gln
-1.740363	== h
-1.740363	== n
-1.740363	== not
-1.740363	== r
-1.439333	== u
-1.740363	== ~
-1.255273	> (
-1.012234	> 0
-1.857332	> 12
-1.857332	> 1600
-1.857332	> 197
-1.158363	> 2
-1.857332	> 20
-1.857332	> 255
-1.857332	> 3
-1.857332	> 30
-1.857332	> 31
-1.857332	> 4
-1.255273	> 5
-1.380211	> 6
-1.857332	> 64
-1.556303	> 7
-1.857332	> 76
-1.556303	> 9
-1.857332	> 92
-1.857332	> ;
-1.857332	> <
-1.556303	> </s>
-1.857332	> B
-1.857332	> BUFSIZ
-1.857332	> F
-1.857332	> H
-1.857332	> I
-1.857332	> Q0
-1.556303	> QQ
-1.255273	> _
-1.857332	> a
-1.857332	> bs
-1.857332	> c
-1.857332	> char
-1.857332	> e
-1.857332	> glu
-1.857332	> h
-1.556303	> i
-1.857332	> l
-1.857332	> lrand48
-1.857332	> p
-1.857332	> q
-1.857332	> s
-1.857332	> v
-1.857332	> w
-1.857332	> x
-0.7781513	>= (
-0.4771213	>= 0
-0.7781513	>= LINES
-0.7781513	>= Q
-0.7781513	>= d
-1.230449	>> (
-1.70757	>> ++
-1.70757	>> 12
-1.40654	>> 14
-1.230449	>> 2
-1.70757	>> 20
-1.70757	>> 28
-1.70757	>> 3
-1.40654	>> 31
-1.40654	>> 32
-1.70757	>> 38
-1.40654	>> 4
-1.230449	>> 40
-1.70757	>> 5
-1.70757	>> 56
-1.40654	>> 6
-0.7075702	>> 8
-1.230449	>> </s>
-1.40654	>> a
-1.70757	>> f
-1.70757	>> lys
-1.40654	>> s
-1.70757	>> u
-1.40654	>> unk
-1.40654	>> z
-0.4771213	>>= 4
-0.4771213	>>= 7
-0.4771213	>>= e
-2.08636	? !
-1.78533	? ""
-2.08636	? ";"
-2.08636	? "{;}"
-2.08636	? "}$"
-1.78533	? &
-2.08636	? '
-2.08636	? '|'
-1.308209	? (
-1.4843	? *
-1.609239	? ++
-2.08636	? -
-1.609239	? --
-1.08636	? 0
-1.609239	? 1
-2.08636	? 124
-2.08636	? 255
-2.08636	? 256
-1.78533	? 3
-2.08636	? 32
-1.78533	? 8
-2.08636	? 9858122
-1.78533	? </s>
-1.78533	? D
-1.78533	? E
-2.08636	? F
-2.08636	? FILENAME_MAX
-1.78533	? G
-2.08636	? H
-1.78533	? I
-1.78533	? L
-1.78533	? O
-2.08636	? RGB
-2.08636	? S
-1.38739	? T
-2.08636	? U
-2.08636	? _k
-1.78533	? a
-1.609239	? d
-2.08636	? e
-1.78533	? g
-1.609239	? glu
-2.08636	? h
-1.609239	? i
-1.609239	? k
-1.38739	? n
-1.609239	? o
-1.78533	? p
-2.08636	? putchar
-2.08636	? q
-2.08636	? r
-1.609239	? s
-2.08636	? strlen
-1.78533	? u
-1.308209	? v
-2.08636	? w
-1.78533	? x
-2.08636	? ~
0	?" "8!@dP,!!o+fb"
-1.079181	A )
-1.778151	A +
-1.778151	A +=
-1	A ,
-1.778151	A -
-0.8750613	A ->
-0.5740313	A ;
-1.778151	A </s>
-0.8750613	A =
-0.6642079	A [
0	Acce </s>
0	Alan Turing
-0.770852	B &
-1.469822	B &&
-0.7294593	B (
-0.925754	B )
-1.071882	B +
-1.168792	B ,
-0.867762	B ->
-1.770852	B :
-1.071882	B ;
-1.770852	B </s>
-1.168792	B =
-1.770852	B ==
0	BUFSIZ )
-1.389166	C &
-0.6110148	C (
-1.088136	C )
-1.213075	C *
-1.389166	C +
-1.690196	C +=
-1.088136	C ,
-1.389166	C -
-1.389166	C /
-1.690196	C :
-1.213075	C ;
-1.690196	C <
-1.389166	C =
-1.389166	C ==
-1.088136	C >
-1.690196	C [
-1.690196	C ^
-1.690196	C a
-1.690196	C p
-0.30103	COLS -
-0.30103	COLS /
-1.681241	D %
-1.079181	D &&
-1.380211	D (
-1.380211	D )
-1.20412	D +
-1.681241	D ,
-1.681241	D -=
-1.681241	D ;
-1.380211	D </s>
-0.90309	D =
-1.681241	D ?
-1.079181	D [
-1.681241	D ]
-0.90309	D c
-0.90309	D d
-0.9822713	D e
-1.380211	D f
0	DefaultGC (
0	DefaultVisual (
0	Display *
-1.166331	E (
-1.166331	E )
-0.6434527	E *
-1.643453	E *=
-1.643453	E +
-1.342423	E ++
-1.643453	E +=
-0.9444827	E ,
-0.7983546	E ;
-1.643453	E </s>
-0.6434527	E =
-0.3424227	EOF )
-1.041393	EOF +
-0.7403627	EOF ;
-0.5642715	EOF ]
0	ETIANMSURWDKGOHVF:L:PJBXCYZQ::54:3:::2&:+::::16=/:::(:7:::8:90" </s>
-1.322219	F %
-1.322219	F &
-0.5818566	F (
-1.623249	F )
-1.146128	F *
-1.623249	F +
-0.9242793	F ,
-0.9242793	F -
-1.623249	F /
-1.623249	F :
-1.623249	F ;
-1.322219	F <
-0.845098	F =
-1.623249	F >>
0	FILE *
0	FILENAME_MAX :
-0.30103	F_ )
-0.30103	F_ ,
-0.1760913	G (
-1.431364	G )
-1.431364	G ,
-0.5862657	G [
-1.477121	H %
-1.477121	H &
-1.477121	H )
-1	H *
-1.778151	H +
-1.778151	H ++
-0.9330532	H ,
-1.477121	H -
-1.778151	H --
-1.30103	H /
-0.69897	H ;
-1.778151	H <
-1.778151	H </s>
-1.778151	H <<
-0.8239087	H =
-1.778151	H >>
-1.477121	H ?
-1.778151	H C
-1.477121	H ]
-1.778151	H char
-1.778151	H long
-1.778151	H short
-1.778151	I &
-0.69897	I (
-1.30103	I )
-1.778151	I *
-1.30103	I +
-1.778151	I ++
-1.477121	I ,
-1.477121	I -
-1.477121	I :
-1	I ;
-1.778151	I <
-0.7367586	I =
-1.176091	I ==
-1.778151	I ?
-1.176091	I H
-1.778151	I [
-1.778151	I char
-1.778151	I int
-1.778151	I jmp_buf
-1.778151	I long
-1.778151	I void
-0.5006024	J (
-1.278754	J ,
-1.278754	J ;
-1.278754	J </s>
-0.9777236	J =
-0.5797836	J [
-1.278754	J l
-0.9777236	J }
-1.477121	K !=
-1.778151	K %
-0.8239087	K (
-0.8750613	K )
-1.778151	K *
-1.477121	K ++
-1.778151	K +=
-1.30103	K ,
-1.778151	K -
-0.5477023	K ->
-1.176091	K ;
-1.778151	K <
-1.778151	K </s>
-0.9330532	K =
-1.477121	K ?
0	KrgR'8@c]!%-q9V.3fa[E8X%dY'w!#H <P~6"
-1.959041	L %=
-1.658011	L (
-1.18089	L )
-0.8798602	L *
-1.658011	L +
-1.959041	L ++
-1.356981	L ,
-1.055951	L -
-1.959041	L ;
-1.959041	L <
-1.959041	L </s>
-1.356981	L =
-1.658011	L ==
-1.959041	L >
-1.658011	L >>
-1.959041	L >>=
-1.959041	L ?
-1.959041	L T
-1.18089	L ]
-1.959041	L a
-0.9176487	L d
-1.113943	L e
-1.356981	L f
-1.959041	L m
-1.959041	L n
-1.004799	L t
-0.4771213	LINES -
-0.4771213	LINES ;
-0.4771213	LINES ||
0	L_tmpnam )
-1.431364	M &&
-0.4771213	M (
-0.9542425	M )
-1.431364	M *=
-1.431364	M +=
-1.130334	M ,
-1.431364	M -=
-1.431364	M .
-1.130334	M ;
-0.8293038	M =
-1.431364	M ==
-1.431364	M >
-0.3129292	N (
-0.8692317	N )
-1.568202	N +
-1.267172	N ,
-1.09108	N ;
-1.568202	N <
-1.568202	N </s>
-0.9661418	N =
-1.267172	N [
0	NULL )
-1.90309	O &
-1.90309	O &&
-0.8616973	O (
-0.8616973	O )
-1.90309	O *
-1.30103	O +
-1.425969	O ++
-1.30103	O ,
-1.425969	O --
-1.60206	O ->
-1.425969	O :
-1.20412	O ;
-1.90309	O <
-1.60206	O </s>
-0.5228788	O =
-1.60206	O ?
-1.90309	O G
-1.90309	O S
-0.4149733	O0 +=
-1.113943	O0 ,
-0.5118834	O0 -
-0.6368221	O0 =
-0.845098	O1 )
-0.845098	O1 *
-0.544068	O1 ,
-0.845098	O1 =
-0.845098	O1 >
-0.845098	O1 ]
-0.845098	O2 *
-0.845098	O2 ,
-0.845098	O2 -
-0.845098	O2 /
-0.544068	O2 =
-0.845098	O2 >
-0.4771213	O3 )
-0.7781513	O3 -
-0.7781513	O3 /
-0.7781513	O3 </s>
-0.7781513	O3 =
-0.39794	O4 *
-0.69897	O4 +
-0.69897	O4 =
-0.69897	O4 |
-0.4771213	O5 )
-0.7781513	O5 +
-0.4771213	O5 ,
-0.7781513	O5 [
-0.60206	O6 +
-0.30103	O6 ,
-0.60206	O6 =
-0.4771213	O7 )
-0.4771213	O7 ,
-0.4771213	O7 =
-0.4771213	O8 *
-0.4771213	O8 +
-0.4771213	O8 =
-0.1760913	O9 --
-0.4771213	O9 =
-0.7781513	OO )
-1.079181	OO +=
-0.7781513	OO ,
-0.7781513	OO -
-1.079181	OO <
-0.7781513	OO =
-1.079181	OO ==
-1.079181	OO >
0	O_ (
-0.1249387	O_o )
-0.60206	O_o ,
-0.5818566	P (
-0.544068	P )
-1.623249	P +=
-1.146128	P ,
-1.322219	P 1
-1.146128	P ;
-1.322219	P =
-1.623249	P >=
-1.623249	P M
-1.623249	P U
-1.623249	P [
-1.623249	P _d
-1.623249	P _i
-1.623249	P i
-1.623249	P q
-1.90309	Q &
-1.90309	Q &&
-0.5606673	Q (
-0.7569619	Q )
-1.425969	Q *
-1.60206	Q ,
-1.90309	Q -
-1.30103	Q ;
-1.90309	Q </s>
-1.90309	Q <=
-1.124939	Q =
-1.90309	Q ?
-1.90309	Q O
-1.90309	Q OO
-1.90309	Q Q4
-1.124939	Q [
-1	Q ]
-1.90309	Q __
-1.90309	Q _k
-1.90309	Q main
-1.60206	Q write
-1.90309	Q x
-1.079181	Q0 &&
-0.7781513	Q0 )
-0.60206	Q0 +
-0.7781513	Q0 +=
-1.079181	Q0 ,
-0.60206	Q0 =
-0.7781513	Q1 )
-0.4771213	Q1 ,
-0.30103	Q1 =
-0.845098	Q2 &&
-0.845098	Q2 *
-0.544068	Q2 +
-0.845098	Q2 ,
-0.544068	Q2 =
-0.7781513	Q3 %
-0.4771213	Q3 ,
-0.4771213	Q3 =
-0.7781513	Q3 >>
-0.60206	Q4 &&
-0.60206	Q4 ,
-0.60206	Q4 --
-0.60206	Q4 =
-0.60206	Q5 +
-0.30103	Q5 ,
-0.60206	Q5 =
-0.60206	Q6 +=
-0.60206	Q6 ,
-0.60206	Q6 </s>
-0.60206	Q6 =
-0.4771213	Q7 )
-0.4771213	Q7 ;
-0.4771213	Q7 =
-0.4771213	Q8 ,
-0.4771213	Q8 ;
-0.4771213	Q8 =
-0.30103	Q9 ,
-0.30103	Q9 =
-0.7781513	QO &&
-0.60206	QO *
-1.079181	QO +
-0.7781513	QO ,
-0.4771213	QO =
-0.4771213	QQ )
-0.9542425	QQ *
-0.4771213	QQ +
-0.9542425	QQ ,
-0.9542425	QQ =
0	Q_ (
-1.113943	R !
-0.8709053	R %
-1.113943	R (
-1.716003	R )
-1.238882	R *
-1.716003	R +
-1.716003	R ++
-1.716003	R +=
-1.238882	R --
-1.716003	R ;
-1.414973	R </s>
-1.716003	R =
-1.716003	R A
-1.414973	R D
-1.113943	R K
-1.414973	R a
-1.716003	R c
-1.414973	R g
-1.716003	R i
-1.238882	R j
-1.716003	R k
-1.716003	R l
-1.716003	R n
-1.716003	R o
-1.716003	R s
-1.414973	R v
0	RAFT )
0	RGB )
0	RootWindow (
-1.021189	S )
-1.322219	S +
-0.9242793	S ,
-1.623249	S :
-0.5818566	S ;
-1.146128	S =
-1.322219	S ?
-1.623249	S [
-0.6690068	S ]
-1.623249	S d
-1.623249	S j
-1.623249	S s
-1.623249	S u
0	SDL_AudioSpec bu
0	SDL_BlitSurface (
0	SDL_CreateRGBSurface (
0	SDL_Delay (
0	SDL_Event bE
0	SDL_FillRect (
0	SDL_Flip (
0	SDL_Init (
0	SDL_LoadWAV (
0	SDL_MixAudio (
0	SDL_OpenAudio (
0	SDL_PauseAudio (
0	SDL_PollEvent (
0	SDL_Rect </s>
0	SDL_SetVideoMode (
0	SDL_Surface *
0	SEEK_SET )
0	SPEED *
0	Sec -
0	So long
-1.681241	T (
-1.380211	T )
-1.982271	T *
-0.80618	T ++
-1.982271	T +=
-1.20412	T ,
-1.681241	T -
-1.50515	T --
-1.283301	T :
-1.283301	T ;
-1.681241	T <
-1.20412	T </s>
-0.8683279	T =
-1.283301	T ==
-1.982271	T I
-1.982271	T Q
-0.9408786	T [
-1.982271	T ]
-1.982271	T _
-1.380211	T d
-1.982271	T f
-1.380211	T l
-1.982271	T {
-1.982271	T |
0	TIMESTEP ,
0	TIOCGWINSZ ,
0	TMP_MAX )
0	Turing (
0	Type =
-1.643453	U (
-1.342423	U )
-1.643453	U *=
-1.643453	U +
-1.643453	U +=
-0.8653014	U ,
-0.3881802	U ;
-1.643453	U </s>
-0.9444827	U =
-1.643453	U i
-1.166331	U int
-1.342423	U j
-1.643453	U l
-1.643453	U u
0	UV_DROP :
0	Uint8Array (
0	Upgrade :
-1.033424	V !
-0.7781513	V *
-1.255273	V ,
-1.732394	V ->
-1.431364	V ;
-1.732394	V </s>
-1.130334	V =
-1.130334	V F
-1.732394	V _b
-1.732394	V _c
-1.732394	V _f
-1.130334	V a
-1.732394	V b
-1.732394	V c
-1.431364	V d
-1.431364	V e
-1.732394	V f
-1.732394	V i
-1.732394	V j
-1.732394	V n
-1.431364	V o
-1.732394	V p
-1.732394	V r
-1.732394	V w
-1.732394	V y
-1.431364	V z
-0.4393327	W (
-1.041393	W )
-1.518514	W *
-1.694605	W +
-1.995635	W +=
-1.217484	W ,
-1.518514	W -
-1.393575	W --
-1.518514	W /
-0.8816918	W ;
-1.995635	W </s>
-1.518514	W =
-1.995635	W ==
-1.150537	W R
-1.995635	W S
-1.296665	W [
-1.995635	W ]
-0.30103	WebSocket (
-0.30103	WebSocket -
0	Window u
-1.851258	X !=
-1.851258	X &
-1.550228	X (
-0.8098657	X )
-1.550228	X *
-1.374137	X +
-0.6471384	X ,
-1.851258	X -
-1.851258	X --
-1.851258	X /
-1.851258	X :
-1.249198	X ;
-1.851258	X <
-1.152288	X </s>
-0.9481683	X =
-1.550228	X S
-0.9481683	X [
-1.851258	X ]
-1.851258	X h
-1.851258	X v
0	XCheckWindowEvent (
0	XCreateImage (
0	XCreateSimpleWindow </s>
0	XEvent M
0	XImage *
0	XLookupKeysym (
0	XMapWindow (
0	XOpenDisplay (
0	XPutImage (
0	XSelectInput (
-1.10551	Y (
-1.230449	Y )
-1.230449	Y *
-1.70757	Y *=
-1.40654	Y +
-1.70757	Y +=
-1.10551	Y ,
-1.70757	Y -
-1.40654	Y ->
-0.8624721	Y ;
-0.6661775	Y =
-1.40654	Y S
-0.7533277	Y [
-1.70757	Y a
-1.066947	Z (
-1.243038	Z )
-1.243038	Z *=
-1.544068	Z +
-1.243038	Z +=
-0.845098	Z ,
-1.544068	Z -
-1.544068	Z -=
-0.845098	Z ;
-0.7659168	Z =
-1.544068	Z ?
-1.544068	Z W
-1.544068	Z e
-1.544068	Z g
-1.544068	Z h
-1.544068	Z k
-1.544068	Z n
-1.788168	[ (
-1.708987	[ *
-2.487138	[ +
-1.311047	[ -
-1.487138	[ 0
-2.487138	[ 01
-1.186108	[ 1
-1.584048	[ 2
-2.487138	[ 204
-1.487138	[ 3
-2.186108	[ 32
-1.445746	[ 4
-1.788168	[ 5
-2.487138	[ 516
-2.487138	[ 5200
-2.010017	[ 6
-2.487138	[ 65536
-2.186108	[ 7
-2.010017	[ 8
-2.487138	[ 80
-2.487138	[ 9
-2.186108	[ 97
-2.487138	[ 99
-2.487138	[ 9999
-1.64204	[ </s>
-2.186108	[ EOF
-2.186108	[ H
-1.584048	[ L
-2.186108	[ O
-2.487138	[ Q6
-2.186108	[ W
-2.186108	[ X
-1.487138	[ ]
-1.186108	[ _
-2.487138	[ _Q
-1.089198	[ __
-2.487138	[ a
-2.487138	[ b
-2.487138	[ bi
-2.186108	[ c
-1.788168	[ d
-2.487138	[ e
-2.487138	[ f
-1.788168	[ g
-1.885078	[ h
-1.407957	[ i
-1.708987	[ j
-1.708987	[ k
-2.186108	[ l
-2.186108	[ leu
-2.186108	[ m
-1.885078	[ n
-2.186108	[ not
-2.487138	[ o
-1.885078	[ optind
-1.885078	[ p
-1.788168	[ r
-2.487138	[ s
-2.186108	[ t
-2.186108	[ u
-1.584048	[ v
-2.487138	[ val
-2.186108	[ x
-1.144716	[ xor
-2.186108	[ y
-2.186108	[ ~
0	[-d] file1
0	\"" "%s"
0	\n\t" ,
-1.788168	] !=
-2.186108	] %
-2.010017	] &
-2.487138	] &&
-0.8850784	] )
-1.373195	] *
-2.186108	] *=
-1.445746	] +
-1.708987	] ++
-1.708987	] +=
-0.9686244	] ,
-1.64204	] -
-2.487138	] --
-2.186108	] -=
-1.407957	] .
-2.010017	] /
-1.885078	] :
-0.9308359	] ;
-2.010017	] <
-1.708987	] </s>
-2.487138	] <<
-0.6238155	] =
-1.885078	] ==
-1.64204	] >
-2.487138	] >=
-2.186108	] >>
-2.186108	] ?
-2.010017	] ^
-1.373195	] _
-2.010017	] |
-2.487138	] |=
-2.487138	] ||
-1.431364	^ (
-1.431364	^ *
-1.431364	^ --
-1.431364	^ 024
-1.431364	^ 0xfc0
-1.431364	^ 1
-1.431364	^ 10
-1.130334	^ 2
-1.431364	^ 20
-1.431364	^ 255
-1.431364	^ 35
-1.431364	^ 3920
-1.431364	^ 4
-1.431364	^ 40
-1.431364	^ 61
-1.431364	^ 9
-1.431364	^ I
-1.431364	^ f
-1.431364	^ k
-1.130334	^ l
-0.9542425	^ p
-1.431364	^ t
-1.431364	^ ~
-0.69897	^= *
-0.69897	^= 20
-0.69897	^= _
-0.69897	^= k
-0.69897	^= y
-2.733197	_ %
-0.7647143	_ (
-0.9697693	_ )
-2.432167	_ *
-2.733197	_ ++
-0.3848924	_ ,
-2.733197	_ -
-2.733197	_ /
-2.432167	_ :
-2.256076	_ ;
-2.256076	_ <
-1.733197	_ </s>
-2.034227	_ =
-2.733197	_ >>
-2.432167	_ ?
-2.733197	_ C
-2.733197	_ E
-2.733197	_ N
-2.733197	_ O
-1.070439	_ [
-2.733197	_ ^=
-1.008921	_ _
-2.432167	_ __
-2.432167	_ a
-2.131137	_ b
-2.733197	_ c
-2.733197	_ d
-2.256076	_ f
-2.432167	_ n
-2.733197	_ o
-2.432167	_ p
-2.432167	_ r
-1.830107	_ s
-2.733197	_ v
-2.432167	_ w
0	_){putchar(_);}O" "\40main(){O"
-0.9542425	_0 &&
-0.9542425	_0 )
-0.6532125	_0 *
-0.9542425	_0 +=
-0.9542425	_0 ,
-0.9542425	_0 /
-0.6532125	_0 =
-0.69897	_O %
-1	_O %=
-0.69897	_O )
-1	_O +
-1	_O +=
-0.69897	_O =
-1	_O >
-0.5228788	_Q %
-1	_Q )
-0.69897	_Q +=
-1	_Q /
-1	_Q </s>
-0.69897	_Q =
-1.556303	__ &
-1.857332	__ &&
-0.1249387	__ (
-1.556303	__ )
-1.857332	__ *
-1.857332	__ +
-1.556303	__ +=
-1.857332	__ ,
-1.857332	__ ;
-1.556303	__ </s>
-1.857332	__ <<
-1.556303	__ =
-1.857332	__ >>
-1.857332	__ >>=
0	__LINE__ *
-0.30103	__STDC_VERSION__ &&
-0.30103	__STDC_VERSION__ >
-0.30103	__STDC__ )
-0.30103	__STDC__ </s>
0	__TIME__ ;
0	__VA_ARGS__ }
-0.1760913	___ (
-0.4771213	___ )
-0.02227639	____ (
-1.30103	____ </s>
0	_b (
0	_c (
0	_d (
-0.60206	_f (
-0.60206	_f :
-0.60206	_f ;
-0.60206	_f </s>
0	_i (
-0.30103	_k (
-0.30103	_k :
-2.220108	a %=
-1.618048	a &
-2.220108	a &&
-2.220108	a &=
-1.220108	a (
-0.9648356	a )
-1.265866	a *
-1.919078	a *=
-1.618048	a +
-1.919078	a ++
-2.220108	a +=
-0.9648356	a ,
-1.521138	a -
-1.919078	a --
-1.441957	a ->
-2.220108	a .
-1.742987	a /
-2.220108	a /=
-1.140927	a ;
-1.742987	a <
-1.265866	a </s>
-2.220108	a <<
-0.9190781	a =
-1.618048	a >>
-2.220108	a ?
-1.618048	a L
-1.919078	a S
-1.919078	a W
-2.220108	a X
-1.919078	a Z
-1.265866	a [
-1.618048	a ]
-1.742987	a |
0	a_ (
0	abs (
0	ageX -
-0.544068	ala *
-0.845098	ala ;
-0.845098	ala asn
-0.3679768	ala not
-0.1890562	and )
-1.230449	and *
-1.531479	and ;
-1.531479	and asp
-1.531479	and gln
-1.230449	and his
-1.531479	and pyl
-1.531479	and sec
-1.531479	and tla
-1.531479	and tyr
-1.531479	and xle
-0.30103	ar )
-0.30103	ar ,
-0.09691001	arg )
-0.69897	arg =
-0.60206	argh )
-0.30103	argh ,
-0.60206	argh ;
-1.113943	asn ,
-0.07255067	asn .
-1.113943	asn ;
-0.1760913	asp -
-0.4771213	asp =
-0.60206	asx )
-0.60206	asx +
-0.60206	asx =
-0.60206	asx >
0	au )
-1.339593	b !
-2.184691	b &
-1.883661	b &&
-1.883661	b (
-1.070748	b )
-2.184691	b *
-1.883661	b *=
-2.184691	b +
-2.184691	b ++
-1.184691	b ,
-1.40654	b ->
-2.184691	b .
-0.9542425	b ;
-2.184691	b <
-1.485721	b </s>
-1.70757	b <<
-0.9294189	b =
-2.184691	b >
-1.883661	b >>
-1.70757	b ?
-1.40654	b B
-2.184691	b D
-1.40654	b I
-2.184691	b O
-2.184691	b P
-1.485721	b W
-1.339593	b X
-2.184691	b Z
-1.184691	b [
-1.70757	b ]
-1.883661	b ^
-1.582631	b bf
-2.184691	b bg
-2.184691	b bt
-2.184691	b j
-2.184691	b n
-2.184691	b o
-1.883661	b q
-2.184691	b u
-2.184691	b ||
-0.69897	bA ,
-0.69897	bA ;
-0.69897	bA <<
-0.39794	bA =
-0.60206	bB )
-0.60206	bB ;
-0.30103	bB =
-0.60206	bC *
-0.60206	bC ,
-0.60206	bC /
-0.60206	bC =
-0.4771213	bD *
-0.4771213	bD ,
-0.4771213	bD =
-0.69897	bE )
-0.2218488	bE .
-0.69897	bE ;
0	b\nq(%s)\n" </s>
0	ba (
-0.7781513	bb )
-0.7781513	bb +
-0.7781513	bb +=
-0.7781513	bb ;
-0.4771213	bb =
0	bc (
-0.1760913	bd (
-0.4771213	bd </s>
-0.90309	be )
-0.60206	be ,
-0.20412	be ;
-0.60206	bf &&
-0.4771213	bf )
-0.4771213	bf ;
-1.079181	bf =
-0.60206	bg &&
-0.60206	bg )
-0.60206	bg ;
-0.60206	bg =
0	bh (
-0.30103	bi )
-0.30103	bi ]
0	binary "
0	bj (
-0.60206	bk &&
-0.30103	bk ,
-0.60206	bk ;
0	bl (
-0.30103	bm =
-0.30103	bm ==
-0.30103	bn ,
-0.30103	bn =
-0.30103	bo )
-0.30103	bo =
0	bp (
-0.30103	bq (
-0.30103	bq }
0	br ,
0	break ;
-0.1760913	bs )
-0.4771213	bs ;
-0.7781513	bt ,
-0.4771213	bt ;
-0.4771213	bt =
-0.7781513	bt >
-0.7781513	bu *
-0.4771213	bu ,
-0.4771213	bu =
-0.7781513	bu >
-0.60206	buf )
-0.60206	buf ,
-0.60206	buf ;
-0.60206	buf [
-0.30103	bv ,
-0.30103	bv ;
0	bw ,
-0.30103	bx )
-0.30103	bx ;
-0.7781513	by ,
-0.7781513	by =
-0.30103	by ?
-0.7781513	by ||
-0.69897	bz </s>
-0.69897	bz <<
-0.39794	bz =
-0.69897	bz >>
-2.068186	c "
-2.068186	c %
-1.767156	c &&
-0.8640659	c )
-1.290035	c *
-1.369216	c +
-2.068186	c ++
-0.9890046	c ,
-1.290035	c -
-2.068186	c --
-1.767156	c .
-2.068186	c /
-1.591065	c :
-1.068186	c ;
-1.591065	c <
-1.591065	c </s>
-0.7257632	c =
-1.466126	c ==
-1.767156	c >
-1.767156	c ?
-2.068186	c L
-2.068186	c R
-1.591065	c W
-1.767156	c Y
-2.068186	c Z
-1.767156	c ]
-1.767156	c ^
-2.068186	c |
-2.068186	c ||
0	calloc (
-1	case 'd'
-1	case 0
-1	case 10
-1	case 123
-1	case 35
-0.69897	case 36
-1	case 40
-1	case 58
-1	case 61
0	cb ,
0	ch )
-0.1702617	char *
-1.568202	char J
-1.568202	char L
-1.568202	char N
-1.568202	char O
-1.568202	char X
-1.568202	char buf
-1.267172	char c
-1.568202	char o
-1.568202	char p
-1.568202	char pro
-1.568202	char ser
0	close (
-1.041393	const ala
-0.4973246	const and
-1.342423	const char
-1.342423	const gln
-1.041393	const his
-1.041393	const not
-0.8653014	const pro
-1.041393	const ser
-1.041393	const thr
0	continue ;
0	cos (
0	crea "
0	curs_set (
-0.7781513	cys )
-0.4771213	cys -
-0.7781513	cys =
-0.4771213	cys >>
-1.087454	d )
-1.599337	d *
-1.599337	d *=
-1.356299	d +
-2.201397	d ++
-1.160004	d +=
-0.9003671	d ,
-1.724276	d -
-1.423246	d -=
-2.201397	d ->
-2.201397	d .
-1.724276	d /=
-2.201397	d :
-0.9003671	d ;
-2.201397	d <
-1.900367	d </s>
-2.201397	d <<
-2.201397	d <=
-0.8211859	d =
-2.201397	d ==
-1.900367	d >>
-1.900367	d ?
-2.201397	d R
-1.122216	d W
-1.724276	d X
-1.502427	d Y
-2.201397	d [
-1.599337	d ]
-2.201397	d ^
-2.201397	d |
-1.900367	d ||
0	dA )
0	dB )
0	dC </s>
0	dat </s>
0	data )
0	default :
0	defined __STDC_VERSION__
-0.69897	do ,
-0.09691001	do {
0	double </s>
0	dstr )
0	dup (
0	dup2 (
-1.480725	e (
-1.082785	e )
-1.605664	e *
-2.082785	e *=
-1.781755	e +
-1.237687	e +=
-0.9066941	e ,
-2.082785	e -
-1.781755	e -=
-1.003604	e ->
-1.605664	e .
-1.781755	e /
-2.082785	e :
-0.8275129	e ;
-1.781755	e <
-1.781755	e </s>
-2.082785	e <<=
-0.8523365	e =
-2.082785	e >
-2.082785	e >>
-1.781755	e W
-1.781755	e Y
-1.082785	e [
-2.082785	e ]
-2.082785	e {
0	eep ,
-0.7201593	else </s>
-1.322219	else V
-1.322219	else goto
-1.322219	else z
-0.1760913	else {
0	elta_u )
0	elta_v )
0	er </s>
0	err (
0	errx (
0	exit (
0	exp (
0	extern void
-2.09691	f &
-1.619789	f &&
-0.9829667	f (
-0.79588	f )
-1.79588	f *
-2.09691	f +
-0.8181564	f ,
-1.619789	f -
-2.09691	f .
-0.950782	f ;
-1.79588	f <
-2.09691	f </s>
-2.09691	f <<
-0.950782	f =
-2.09691	f ==
-2.09691	f >
-1.251812	f ?
-2.09691	f EOF
-1.142668	f L
-2.09691	f R
-1.79588	f X
-2.09691	f Z
-1.79588	f ]
-2.09691	f defined
-1.79588	f |
-1.79588	f }
0	fabs (
0	fclose (
0	fgetc (
0	fgets (
0	file1 file2"
0	file2" ,
0	flash (
-0.845098	float </s>
-0.845098	float C
-0.845098	float I
-0.845098	float K
-0.845098	float N
-0.845098	float V
-0.845098	float a
0	float_ )
0	flu ,
0	fopen (
-0.0255541	for (
-1.243038	for </s>
0	fputc (
0	fread (
0	free (
0	fscanf (
0	fseek (
0	function (
0	fw )
-1.748188	g %
-2.049218	g &
-2.049218	g &&
-1.447158	g (
-1.271067	g )
-1.049218	g *
-1.447158	g *=
-1.447158	g +
-1.572097	g ++
-1.748188	g +=
-1.146128	g ,
-2.049218	g --
-1.447158	g -=
-2.049218	g /
-2.049218	g :
-0.6874902	g ;
-1.447158	g <
-2.049218	g <<
-0.6178542	g =
-2.049218	g ==
-2.049218	g >>
-2.049218	g ]
-2.049218	g ^
-2.049218	g ||
0	getC "
0	getch (
-0.1249387	getchar (
-0.60206	getchar ;
0	getopt (
-0.50515	gln )
-0.30103	gln ;
-0.90309	gln =
-1.20412	gln ==
-0.30103	glu )
-0.5228788	glu :
-1	glu <<
-1	glu =
-0.30103	glx %
-0.30103	glx =
0	gly (
0	go )
0	goofy !
-0.1249387	goto O
-0.60206	goto o
-1.355388	h %
-1.832509	h &&
-1.054358	h (
-1.531479	h )
-1.355388	h *
-1.832509	h *=
-1.531479	h +
-1.832509	h ++
-1.832509	h +=
-1.133539	h ,
-1.133539	h -
-1.355388	h .
-1.832509	h /
-0.9874108	h ;
-1.832509	h </s>
-0.9874108	h <<
-0.7911162	h =
-1.832509	h >
-1.832509	h >>
-1.832509	h ?
-1.832509	h ^
-1.832509	h ^=
-1.832509	h b
-1.531479	h |
0	height =
-0.3679768	his )
-0.845098	his ;
-0.3679768	his [
0	ho )
0	href .
-1.550228	i %
-1.851258	i &
-1.851258	i &&
-0.8659816	i (
-1.073107	i )
-1.42529	i *
-2.32838	i *=
-1.550228	i +
-1.62941	i ++
-1.851258	i +=
-0.8812216	i ,
-1.42529	i -
-2.32838	i --
-1.42529	i /
-2.02735	i :
-1.182252	i ;
-1.097931	i <
-2.32838	i </s>
-2.32838	i <=
-0.8512583	i =
-2.32838	i ==
-2.02735	i >
-1.851258	i >>
-1.851258	i ?
-2.02735	i R
-1.72632	i S
-1.62941	i ]
-2.32838	i |
-0.01277429	if (
-1.537819	if </s>
-0.69897	ile !=
-0.69897	ile +
-0.69897	ile --
-0.69897	ile ;
-0.69897	ile =
0	initscr (
-1.295567	int )
-1.119476	int *
-1.119476	int </s>
-1.897627	int F
-1.897627	int G
-1.897627	int H
-1.420506	int I
-1.897627	int K
-1.897627	int L
-1.897627	int M
-1.897627	int P
-1.897627	int Q
-1.596597	int X
-1.897627	int _
-1.897627	int a
-1.897627	int bk
-1.897627	int bm
-1.897627	int bs
-1.897627	int bt
-1.897627	int bw
-1.897627	int by
-1.420506	int c
-1.897627	int h
-0.9945371	int i
-1.420506	int j
-1.420506	int k
-1.295567	int l
-1.052529	int main
-1.897627	int met
-1.897627	int o
-1.897627	int op
-1.897627	int p
-1.897627	int t
-1.596597	int u
-1.897627	int v
-1.420506	int x
-1.596597	int y
0	int_ )
0	intw )
0	ioctl (
0	ipt >
-1.487845	j %
-1.487845	j &&
-1.048512	j )
-1.788875	j *
-1.612784	j *=
-1.244807	j +
-2.089905	j ++
-1.612784	j +=
-0.7888751	j ,
-1.311754	j -
-2.089905	j /
-1.788875	j /=
-1.788875	j :
-1.135663	j ;
-1.135663	j <
-2.089905	j </s>
-0.7281772	j =
-2.089905	j ==
-1.788875	j >
-1.390935	j ?
-1.390935	j S
-2.089905	j ]
-2.089905	j ||
0	jmp_buf J
-1.944483	k %
-1.944483	k &
-1.643453	k (
-0.8305393	k )
-1.944483	k *=
-1.245513	k +
-1.467361	k ++
-1.944483	k +=
-0.7683914	k ,
-1.342423	k -
-1.944483	k --
-1.944483	k -=
-1.467361	k /
-1.944483	k :
-1.467361	k ;
-1.643453	k <
-1.467361	k </s>
-0.7983546	k =
-1.944483	k >
-1.944483	k >>
-1.944483	k >>=
-1.944483	k R
-1.467361	k [
-1.467361	k ]
-1.944483	k ^
-1.944483	k ^=
-1.944483	k |=
-1.944483	k }
0	ket Sec
-0.30103	key .
-0.30103	key :
0	keysym .
-1.685742	l %
-1.986772	l &&
-1.384712	l (
-0.9075905	l )
-1.20862	l *
-1.986772	l *=
-1.685742	l +
-1.986772	l ++
-1.384712	l +=
-0.8728284	l ,
-1.287802	l -
-1.986772	l -=
-1.986772	l /
-0.8406437	l ;
-1.685742	l <
-1.685742	l </s>
-1.986772	l <<
-0.8406437	l =
-1.986772	l ==
-1.986772	l >
-1.986772	l >>
-1.685742	l S
-1.685742	l ]
-1.685742	l ^
-1.986772	l v
-1.986772	l |
0	le )
0	lea ,
-0.60206	leu ;
-0.60206	leu =
-0.30103	leu ]
0	location .
-1.361728	long </s>
-1.361728	long A
-1.361728	long L
-1.361728	long Q8
-1.361728	long V
-1.361728	long Z
-1.361728	long __
-1.361728	long a
-1.361728	long b
-1.361728	long c
-1.361728	long h
-1.361728	long j
-0.5166298	long long
-1.361728	long q
-1.361728	long y
-1.060698	long z
0	longjmp (
0	lrand48 (
-0.30103	lu ,
-0.30103	lu =
-0.1760913	lv ,
-0.4771213	lv =
-0.6532125	lys )
-0.9542425	lys +=
-0.9542425	lys -=
-0.4771213	lys =
-0.9542425	lys ==
-0.9542425	lys >=
-1.812913	m %
-1.812913	m &&
-0.8129134	m (
-1.034762	m )
-1.511883	m *
-1.511883	m +
-1.812913	m ++
-1.812913	m +=
-0.6667853	m ,
-1.812913	m -
-1.812913	m -=
-1.812913	m /
-1.812913	m :
-1.210853	m ;
-1.335792	m <
-1.511883	m </s>
-0.8586708	m =
-1.335792	m >
-1.511883	m [
0	mageData (
-0.0234811	main (
-1.278754	main </s>
0	malloc (
0	memcmp (
0	memcpy (
0	memset (
-0.4771213	met )
-0.9542425	met ;
-0.9542425	met lys
-0.6532125	met main
-0.6532125	met val
0	mva ,
0	mvaddstr (
0	mvinch (
0	mvinsch (
-2.09691	n %
-1.79588	n (
-0.8416375	n )
-1.49485	n *
-1.39794	n +
-1.49485	n +=
-0.7351822	n ,
-1.142668	n -
-2.09691	n --
-1.79588	n -=
-1.79588	n /
-0.950782	n ;
-1.49485	n <
-1.79588	n </s>
-0.8416375	n =
-1.318759	n >
-1.619789	n >>
-2.09691	n ?
-2.09691	n R
-1.79588	n ]
-2.09691	n ^=
-2.09691	n |
-2.09691	n |=
0	ndif </s>
-0.30103	new Uint8Array
-0.30103	new WebSocket
-1.995635	not !=
-1.995635	not &
-1.092545	not )
-1.217484	not ,
-1.150537	not ->
-0.3828513	not .
-1.694605	not ;
-1.393575	not =
-1.995635	not ==
-1.995635	not >
-1.995635	not >>
-0.5806618	not [
0	np )
-1.919078	o &
-1.265866	o )
-1.178715	o *
-2.220108	o *=
-1.178715	o +
-1.919078	o ++
-1.742987	o +=
-0.9413545	o ,
-1.220108	o -
-1.919078	o -=
-2.220108	o /
-2.220108	o :
-0.8583803	o ;
-2.220108	o </s>
-0.7577101	o =
-1.742987	o >
-1.919078	o >>
-1.919078	o W
-1.742987	o X
-0.7729501	o [
-1.919078	o ]
-2.220108	o ||
0	o(O _){putchar(_);}O"
0	ocket -
0	oec ,
0	of )
0	offsetLeft ;
0	offsetTop }
0	on :
0	onmousemove =
0	ontext (
-0.6532125	op &&
-0.9542425	op )
-0.6532125	op ;
-0.4771213	op =
-0.9542425	op ^
0	open (
-0.7781513	optind )
-0.4771213	optind +
-0.7781513	optind =
-0.4771213	optind ]
-1.778151	p &
-1.477121	p (
-1.30103	p )
-1.477121	p +
-1.176091	p ++
-1	p ,
-1.477121	p -
-1.60206	p /
-2.079181	p :
-0.8487324	p ;
-1.477121	p <
-1.778151	p </s>
-2.079181	p <=
-0.7367586	p =
-1.778151	p >
-2.079181	p L
-1.60206	p S
-1.60206	p W
-2.079181	p X
-2.079181	p Z
-0.9652379	p [
-1.60206	p ]
-1.778151	p ^
-2.079181	p |
0	pageY -
0	phe (
0	pixels ,
0	pow (
0	pread (
0	prin </s>
0	printf (
-0.69897	pro )
-0.2218488	pro *
-0.69897	pro ;
0	pt :
0	pu ,
0	putImageData (
0	putchar (
0	puts (
-0.30103	pyl ;
-0.30103	pyl =
-1.755875	q !=
-1.278754	q (
-0.9777236	q )
-1.755875	q *
-1.278754	q +
-1.278754	q ++
-1.755875	q +=
-1.755875	q ,
-1.153815	q -
-1.454845	q --
-1.056905	q ;
-1.278754	q </s>
-0.6766936	q =
-1.755875	q ==
-1.755875	q >>
-1.755875	q R
-1.755875	q S
-0.9777236	q [
-1.755875	q ]
-1.755875	q ^
-1.477121	r %
-0.7781513	r (
-1	r )
-1.477121	r +
-1.477121	r ++
-1.477121	r +=
-1.079181	r ,
-1.778151	r :
-1.079181	r ;
-1.477121	r </s>
-0.7781513	r =
-1.778151	r ==
-1.778151	r >>
-1.778151	r ?
-1.30103	r L
-1.778151	r W
-1.477121	r X
-1.477121	r Z
-1.778151	r ]
-1.778151	r |
0	rand (
0	rea ,
-0.30103	read (
-0.30103	read </s>
0	realloc (
0	refresh (
-1.518514	return (
-1.518514	return +
-0.916454	return 0
-1.518514	return ;
-1.217484	return </s>
-1.518514	return Q
-1.518514	return W
-1.518514	return Y
-1.518514	return a
-1.518514	return b
-1.518514	return bb
-0.916454	return d
-1.518514	return exp
-1.518514	return fclose
-1.518514	return l
-1.518514	return o
-1.518514	return p
-1.518514	return r
-1.041393	return s
-1.518514	return strchr
-1.518514	return strtol
-1.217484	return u
-1.518514	return y
0	rewind (
0	round (
0	rror goofy
-2.079181	s %
-2.079181	s &&
-1.778151	s (
-1.176091	s )
-1.380211	s *
-1.477121	s *=
-1.778151	s +
-2.079181	s ++
-1.60206	s +=
-1.176091	s ,
-1.778151	s -
-1.60206	s -=
-2.079181	s /=
-2.079181	s :
-1.079181	s ;
-1.778151	s <
-1.778151	s </s>
-2.079181	s <<
-0.7569619	s =
-2.079181	s >
-2.079181	s ?
-1.124939	s L
-1.176091	s W
-1.234083	s X
-1.477121	s Y
-1.60206	s Z
-1.380211	s [
-1.778151	s ]
-1.778151	s |
0	scanf (
0	scr "
0	script >
-0.3521825	sec )
-0.2552725	sec =
0	send (
-0.1383027	ser )
-1.041393	ser ;
-1.041393	ser asx
-1.041393	ser glx
0	set (
0	setjmp (
0	shi ,
-0.30103	short *
-0.30103	short Y
0	si ,
0	signal (
0	sin (
0	size_t thr
-0.06694679	sizeof (
-1.146128	sizeof his
-1.146128	sizeof sec
0	slice (
0	sprintf (
0	sqrt (
0	st_mtime ;
0	st_size ;
-0.1760913	stat (
-0.4771213	stat z
-0.7781513	static const
-0.07918125	static void
0	stdin )
0	stdout )
0	strchr (
0	strcmp (
0	strlen (
0	strrchr (
0	strtol </s>
-0.6532125	struct T
-0.6532125	struct e
-0.9542425	struct stat
-0.3521825	struct {
0	style =
0	subs </s>
0	switch (
0	sym ;
0	system (
-1.638489	t !=
-1.939519	t %=
-1.939519	t &&
-0.7090703	t )
-1.638489	t *
-1.939519	t *=
-1.462398	t +
-1.638489	t +=
-0.9852768	t ,
-1.638489	t -
-1.939519	t --
-1.939519	t :
-0.9852768	t ;
-1.337459	t <
-1.939519	t </s>
-0.763428	t =
-1.939519	t ==
-1.939519	t >
-1.337459	t ?
-1.638489	t L
-1.939519	t S
-1.240549	t [
-1.939519	t |
-1.939519	t ||
0	tch ,
0	teI "
0	tf (
-0.90309	thr ;
-0.90309	thr cys
-0.90309	thr ile
-0.90309	thr leu
-0.90309	thr trp
-0.90309	thr val
-0.60206	thr xor
0	timeout (
-0.30103	tla ;
-0.60206	tla =
-0.60206	tla ==
0	tmpfile (
0	to ,
0	tr (
-1	trp )
-1	trp ,
-0.154902	trp ;
-1	trp =
0	typ and
0	type ==
-1.146128	typedef </s>
-1.146128	typedef char
-1.146128	typedef int
-1.146128	typedef size_t
-0.3679768	typedef struct
-1.146128	typedef typ
-1.146128	typedef union
-0.845098	typedef unsigned
-1	tyr )
-1	tyr +
-1	tyr /
-0.39794	tyr =
-0.5228788	tyr [
-0.8048855	u )
-2.127105	u *
-2.127105	u *=
-1.525045	u +
-1.826075	u ++
-1.649984	u +=
-0.9510136	u ,
-2.127105	u -
-1.826075	u /
-2.127105	u :
-1.127105	u ;
-1.525045	u <
-1.826075	u </s>
-1.348954	u <<
-0.8718323	u =
-1.826075	u ?
-1.525045	u R
-2.127105	u S
-0.6499835	u [
-1.525045	u ]
-1.826075	u ||
0	ub ,
0	union w
-0.30103	unk )
-0.7781513	unk ;
-1.079181	unk =
-0.60206	unk ]
-0.9542425	unsigned So
-0.6532125	unsigned char
-0.1760913	unsigned long
0	up" )
0	upgrade </s>
0	usl ,
0	usleep (
-1.662758	v %
-1.963788	v &
-1.361728	v )
-1.963788	v *
-1.963788	v *=
-1.361728	v +
-1.963788	v ++
-1.264818	v ,
-0.9637879	v -
-1.963788	v --
-1.264818	v -=
-1.11869	v .
-1.963788	v /
-1.963788	v :
-0.9637879	v ;
-1.11869	v <
-1.963788	v </s>
-1.963788	v <<
-1.662758	v <=
-0.8846066	v =
-1.963788	v ==
-1.963788	v >
-1.264818	v ?
-1.361728	v ]
-1.361728	v |
0	va_arg (
0	va_end </s>
0	va_list argh
0	va_start (
0	vad ,
-0.9700368	val )
-1.447158	val *
-1.447158	val +
-1.447158	val +=
-0.9700368	val ,
-1.447158	val -
-1.447158	val -=
-0.4057654	val ;
-1.447158	val <
-1.146128	val =
-1.447158	val ==
-1.146128	val ]
-1.414973	void )
-0.7160034	void *
-0.7160034	void </s>
-1.414973	void B
-1.414973	void G
-1.414973	void P
-1.414973	void Q
-1.414973	void W
-1.414973	void e
-1.113943	void gly
-1.113943	void phe
-1.414973	void s
-1.414973	void w
-1.414973	void x
-1.414973	void y
-1.414973	void z
0	voidw (
0	volatile </s>
0	vpr ,
-0.6403245	w (
-1.015988	w )
-1.317018	w *
-1.919078	w *=
-1.317018	w +=
-1.317018	w ,
-1.919078	w -=
-1.618048	w .
-1.015988	w ;
-1.919078	w </s>
-1.015988	w =
-1.618048	w L
-1.618048	w W
-1.441957	w Z
-1.919078	w [
-1.919078	w _
-1.919078	w a
-1.919078	w a_
-1.220108	w f
-1.618048	w fw
-1.919078	w w
-1.441957	w x
-1.919078	w {
0	webso "
0	while (
0	width =
0	window .
0	world!" )
0	write (
-1.977724	x &&
-1.977724	x (
-0.9363309	x )
-1.977724	x *=
-1.375664	x +
-1.977724	x ++
-0.5797836	x ,
-1.977724	x -
-0.9363309	x .
-1.977724	x /
-1.278754	x ;
-1.375664	x <
-1.676694	x </s>
-1.977724	x <<
-1.977724	x <=
-0.8016323	x =
-1.676694	x >>
-1.375664	x ?
-1.500602	x [
-1.977724	x ]
0	xkey ,
-0.30103	xle ;
-0.30103	xle =
-0.8081145	xor )
-1.352183	xor -
-1.352183	xor ;
-0.8750613	xor <
-0.8081145	xor =
-1.653213	xor ==
-0.3521825	xor ]
-1.973128	y !=
-0.9731278	y (
-0.8939466	y )
-1.274158	y +
-1.973128	y ++
-1.973128	y +=
-1.12803	y ,
-1.496007	y -
-1.274158	y ->
-1.672098	y .
-1.973128	y /
-0.8939466	y ;
-1.371068	y <
-1.973128	y </s>
-0.7426789	y =
-1.973128	y ==
-1.973128	y >>
-1.274158	y [
-1.973128	y ]
-1.672098	y ^
-1.973128	y ^=
-1.973128	y ||
-0.3251637	z (
-1.568202	z )
-1.170262	z *
-1.568202	z *=
-1.170262	z +=
-1.568202	z ,
-1.568202	z .
-1.09108	z ;
-1.568202	z </s>
-1.869232	z <<
-1.869232	z <=
-1.09108	z =
-1.170262	z [
0	ze ,
-2.439333	{ "('A`)"
-2.439333	{ )
-1.661181	{ *
-1.594235	{ .
-2.439333	{ 0
-2.439333	{ 0x67452301
-2.439333	{ 8000
-1.962211	{ ;
-0.5255188	{ </s>
-2.439333	{ D
-2.439333	{ Display
-2.439333	{ F
-2.138303	{ G
-2.138303	{ H
-2.439333	{ I
-2.138303	{ J
-1.837273	{ L
-2.439333	{ M
-1.962211	{ O
-2.439333	{ Q
-1.661181	{ R
-2.439333	{ SDL_Rect
-2.138303	{ T
-1.740363	{ U
-1.594235	{ V
-2.138303	{ W
-2.439333	{ Z
-1.360151	{ _
-2.138303	{ a
-1.360151	{ b
-1.962211	{ bc
-2.439333	{ bg
-2.439333	{ bj
-2.439333	{ by
-1.962211	{ c
-1.962211	{ case
-2.138303	{ char
-1.661181	{ d
-2.138303	{ float
-1.536243	{ for
-2.439333	{ g
-2.439333	{ i
-1.661181	{ if
-2.439333	{ initscr
-1.48509	{ int
-1.962211	{ l
-1.962211	{ m
-2.439333	{ n
-1.962211	{ o
-2.439333	{ printf
-1.837273	{ q
-1.661181	{ r
-1.837273	{ return
-2.138303	{ s
-2.439333	{ t
-2.439333	{ timeout
-1.594235	{ u
-2.439333	{ va_list
-1.837273	{ w
-2.138303	{ while
-1.962211	{ x
-2.439333	{ y
-2.138303	{ z
-2.439333	{ {
-1.740363	{ }
-1.194977	| !
-0.6720979	| (
-1.672098	| 1
-1.672098	| 4194304
-1.672098	| O
-1.672098	| T
-1.672098	| _
-0.8939466	| a
-1.672098	| arg
-1.194977	| b
-1.371068	| d
-1.194977	| f
-1.371068	| h
-1.070038	| i
-1.371068	| k
-1.672098	| l
-1.371068	| o
-1.672098	| u
-1.371068	| x
-0.1760913	|= t
-0.4771213	|= y
-0.9378521	|| !
-1.414973	|| '
-0.6368221	|| (
-1.414973	|| *
-1.414973	|| 0
-1.113943	|| </s>
-1.414973	|| Q
-1.414973	|| bE
-1.414973	|| c
-1.414973	|| close
-1.414973	|| i
-1.414973	|| main
-1.414973	|| mvinch
-1.113943	|| p
-1.414973	|| r
-1.414973	|| strchr
-1.414973	|| t
-2.436163	} "|~0y'vWtA@:LcO9d}y.!uL!Gd+ml(<+Ds!J"
-2.436163	} (
-1.591065	} )
-1.658011	} ,
-2.436163	} 0
-1.658011	} ;
-2.436163	} <
-0.5330727	} </s>
-2.436163	} C
-2.436163	} D
-2.436163	} E
-2.436163	} H
-2.436163	} J
-2.135133	} L
-2.135133	} O
-1.834103	} P
-2.436163	} Q
-2.436163	} SDL_AudioSpec
-2.135133	} U
-1.39477	} V
-1.959041	} W
-2.436163	} X
-2.436163	} Y
-1.959041	} Z
-1.737193	} _
-2.436163	} a
-2.436163	} ala
-1.591065	} b
-2.436163	} bc
-2.436163	} bd
-2.436163	} bh
-2.436163	} bj
-2.436163	} bl
-2.436163	} bp
-2.436163	} bq
-2.436163	} break
-2.135133	} c
-2.436163	} char
-2.135133	} e
-1.232043	} else
-2.135133	} extern
-2.135133	} f
-2.436163	} flash
-2.436163	} float
-1.959041	} for
-1.959041	} h
-2.436163	} i
-1.737193	} if
-1.591065	} int
-2.436163	} l
-2.436163	} m
-2.135133	} o
-2.436163	} putchar
-2.436163	} q
-1.834103	} return
-2.436163	} stat
-2.436163	} static
-2.135133	} typedef
-1.658011	} void
-2.436163	} voidw
-1.834103	} w
-1.834103	} while
-2.436163	} z
-0.8798602	} }
-1.491362	~ (
-1.491362	~ *
-0.7132105	~ -
-1.491362	~ </s>
-1.491362	~ b
-1.491362	~ c
-1.190332	~ d
-1.491362	~ e
-1.491362	~ f
-1.491362	~ g
-1.491362	~ gln
-1.491362	~ h
-1.491362	~ m
-1.491362	~ q
-0.7132105	~ s
-1.190332	~ t
-1.190332	~ u
-1.491362	~ z

\end\
