
\data\
ngram 1=955
ngram 2=5215
ngram 3=2396
ngram 4=1527
ngram 5=962

\1-grams:
-2.37182	!	-99
-2.979275	!=	-99
-2.803184	"	-99
-4.280305	"!:E%;!ea!!!WqE0z!f/y}!%!!Qi6!uzt!n}?]!bl!ak!SetR<"	-99
-4.280305	"!pv!;!Hm%Ro4"	-99
-3.435207	""	-99
-3.803184	"#"	-99
-3.803184	"$"	-99
-4.280305	"%."	-99
-4.280305	"%c"	-99
-3.979275	"%d	-99
-4.280305	"%d,%dd%d\n"	-99
-4.280305	"%d\n"	-99
-4.280305	"%da%d,%d\n"	-99
-4.280305	"%da%d\n"	-99
-4.280305	"%dd%d\n"	-99
-4.280305	"%f,%f,"	-99
-3.581335	"%s"	-99
-4.280305	"('A)"	-99
-3.979275	"('A`)"	-99
-4.280305	"(A`)"	-99
-4.280305	"(O**"	-99
-4.280305	")"	-99
-4.280305	")$"	-99
-4.280305	");"	-99
-4.280305	"*"	-99
-4.280305	"*_[512],**p=_,**d,b,q;for(b=0;b"	-99
-4.280305	"*p=#b,P[9999],*d=P,*e[]="	-99
-4.280305	"++<512;p=_+q)_[q"	-99
-4.280305	"-"	-99
-4.280305	"/"	-99
-4.280305	"/*;;	-99
-4.280305	"11\x80"	-99
-4.280305	"258EAFA5-"	-99
-4.280305	"8!@dP,!!o+fb"	-99
-4.280305	"::::::::::::?_::::\"::.::::@:::'::-::::::::;!:):::::,:::::"	-99
-3.803184	";"	-99
-4.280305	";;"	-99
-4.280305	";Gam"	-99
-4.280305	";GlockQ18"	-99
-4.280305	";Heca"	-99
-4.280305	";Time:Q"	-99
-4.280305	";^Q<d|8=o;]Q<dj8<Pk8<c]'?;QQdi8?P'Q)d8<9`8?c;Qdh8=P']Q<`c8>PQ9_8"	-99
-4.280305	"<	-99
-4.280305	"<"	-99
-4.280305	"<;iQ=/*do<;dQ=ook8?boc;aQ=odr8>oc;_Q<ox8>oc"	-99
-4.280305	"<o_Q<o_QBdo`QQ';`Q=9`]8=bobQ_o_Q<o]8=';bQC(88cQ`bcgQ>oP']8<;cQ>98)^Q?''oc`Q>"	-99
-4.280305	"=(p-_+1)*9%512]=(O*)p;"	-99
-4.280305	"=:$"	-99
-3.803184	">	-99
-4.280305	">b;og8=''`Q<`b8?'QQ9_8?c;dPe8dQa8<P]Q<``8=;'f8>QQ`]8?ocQQ_8=''_Q`8aQ"	-99
-4.280305	"?guhljL!^P%	-99
-4.280305	"@"	-99
-4.280305	"@+-"	-99
-4.280305	"@CADBEHI"	-99
-4.280305	"C:"	-99
-4.280305	"CYOUQWIN!]Q=;of8BQQ)88bc]QA98P'Qo]8>oQQ_8CP;QQ98b`_8@P8(Q`]'^Q=`']QB)88"	-99
-4.280305	"E914-47DA-95CA-C5AB0DC85B"	-99
-4.280305	"HTTP/1.1	-99
-4.280305	"NBLF\1Nblfgjmf\1"	-99
-3.678245	"Q"	-99
-4.280305	"Q(j"	-99
-4.280305	"Q(jam"	-99
-4.280305	"Zj$x!~V!n&g8!cK!	-99
-4.280305	"\",\"%s\",\"%s\"},	-99
-4.280305	"\40main(){O"	-99
-4.280305	"\n"	-99
-4.280305	"\n\n\n"	-99
-4.280305	"\xe2%c%c\r\n"	-99
-4.280305	"a"	-99
-4.280305	"bQQ]`8J;QQ`88bc99bd(`8iQ@''QQo^8E'`8c;QQ'Q``8?QQ`'kQ<o]8B9PQQ`';_Q<`_8<cbQ"	-99
-3.979275	"d"	-99
-4.280305	"e.6!r!%l6G!n~^<i=%pEwL%P!'<!FQt%u	-99
-4.280305	"e:|	-99
-4.280305	"eQII:"	-99
-4.280305	"eQover."	-99
-4.280305	"etu"	-99
-4.280305	"f\n"	-99
-4.280305	"fl!"	-99
-4.280305	"hello	-99
-4.280305	"laugh"	-99
-4.280305	"m"	-99
-4.280305	"me"	-99
-4.280305	"med);"	-99
-4.280305	"n:}nkD!Q!kN"	-99
-4.280305	"o("	-99
-4.280305	"oc']Q]8<;cQ>`8bbQA``QQ''`Q?88P;dQ=`)nQ?*/;;"	-99
-4.280305	"oid	-99
-3.678245	"r"	-99
-4.280305	"rn+0;}\n"	-99
-4.280305	"t"	-99
-4.280305	"throw	-99
-4.280305	"usage:	-99
-4.280305	"{;}"	-99
-4.280305	"{\"%s\",	-99
-4.280305	"|~0y'vWtA@:LcO9d}y.!uL!Gd+ml(<+Ds!J"	-99
-4.280305	"}$"	-99
-2.201124	%	-99
-3.803184	%=	-99
-4.280305	%d\n"	-99
-4.280305	%s	-99
-4.280305	%u/%u	-99
-2.204758	&	-99
-2.45423	&&	-99
-3.238912	'	-99
-4.280305	'(	-99
-3.581335	','	-99
-3.979275	'128'	-99
-4.280305	'2O	-99
-4.280305	'2d'	-99
-4.280305	'7M{N^kh	-99
-4.280305	'='	-99
-4.280305	'Q]	-99
-3.979275	'\n'	-99
-2.775155	'_'	-99
-4.280305	'_3a	-99
-4.280305	'a'	-99
-4.280305	'b5sc!e"	-99
-4.280305	'c'	-99
-4.280305	'd'	-99
-4.280305	'h(Q]0h#	-99
-4.280305	'lQ	-99
-4.280305	'nSM8	-99
-4.280305	'width:256px;height:256px'	-99
-4.280305	'ws'	-99
-4.280305	'|'	-99
-1.133557	(	-99
-1.10741	)	-99
-1.583076	*	-99
-2.627093	*=	-99
-4.280305	*m,!*m?H:"	-99
-1.873765	+	-99
-2.307177	++	-99
-4.280305	+99*!	-99
-2.254999	+=	-99
-1.184787	,	-99
-4.280305	,101	-99
-1.855423	-	-99
-2.724003	--	-99
-2.712103	-=	-99
-2.399492	->	-99
-2.1904	.	-99
-3.803184	...	-99
-4.280305	.0	-99
-3.803184	.05	-99
-3.803184	.1	-99
-4.280305	.27	-99
-3.803184	.5	-99
-2.326063	/	-99
-3.581335	/=	-99
-1.85217	0	-99
-3.803184	0.5	-99
-4.280305	0.7	-99
-4.280305	01	-99
-4.280305	02	-99
-4.280305	024	-99
-4.280305	03	-99
-4.280305	040	-99
-4.280305	061	-99
-4.280305	075	-99
-4.280305	0d:`184>b)^15)OM	-99
-3.979275	0u	-99
-4.280305	0x1	-99
-4.280305	0x3f0	-99
-4.280305	0x67452301	-99
-4.280305	0x820008202625a0	-99
-4.280305	0x98BADCFE	-99
-4.280305	0xEFCDAB89	-99
-4.280305	0xf	-99
-4.280305	0xfc0	-99
-4.280305	0xfe0	-99
-4.280305	0xff00ff00ff	-99
-4.280305	0xffff	-99
-1.979275	1	-99
-4.280305	1.159922023e9	-99
-3.979275	1.3	-99
-3.979275	1.5	-99
-4.280305	1.6937441874215991e190	-99
-3.104214	10	-99
-4.280305	1008	-99
-4.280305	101	-99
-3.803184	1023	-99
-4.280305	1024	-99
-4.280305	1024.	-99
-4.280305	105	-99
-3.803184	11	-99
-4.280305	1103515245	-99
-4.280305	112	-99
-4.280305	1152	-99
-3.280305	12	-99
-4.280305	123	-99
-4.280305	12359778	-99
-4.280305	12365733	-99
-4.280305	124	-99
-4.280305	127	-99
-3.678245	128	-99
-4.280305	128L	-99
-3.979275	13	-99
-4.280305	13000	-99
-4.280305	138	-99
-3.502154	14	-99
-4.280305	14202379	-99
-3.979275	14695981039346656037ULL	-99
-3.435207	15	-99
-4.280305	1500	-99
-4.280305	158	-99
-2.979275	16	-99
-4.280305	1600	-99
-3.803184	16711935	-99
-4.280305	16774143	-99
-3.979275	16u	-99
-3.803184	17	-99
-4.280305	176	-99
-3.581335	18	-99
-4.280305	19	-99
-4.280305	1912	-99
-4.280305	19205553	-99
-4.280305	193	-99
-4.280305	1933008	-99
-4.280305	194	-99
-4.280305	1954	-99
-4.280305	196	-99
-4.280305	197	-99
-4.280305	198	-99
-3.979275	1LL	-99
-4.280305	1l	-99
-3.979275	1u	-99
-2.173095	2	-99
-3.979275	2.	-99
-4.280305	2.271681097355226e15	-99
-3.377215	20	-99
-4.280305	204	-99
-4.280305	205	-99
-3.979275	21	-99
-3.979275	22	-99
-3.979275	23	-99
-4.280305	234	-99
-3.377215	24	-99
-4.280305	25	-99
-4.280305	250	-99
-3.435207	255	-99
-3.678245	256	-99
-4.280305	256L	-99
-4.280305	257	-99
-4.280305	258063	-99
-3.979275	26	-99
-4.280305	27	-99
-4.280305	275	-99
-4.280305	276	-99
-4.280305	28	-99
-4.280305	287	-99
-4.280305	2L	-99
-4.280305	2l	-99
-2.377215	3	-99
-4.280305	3'	-99
-4.280305	3.135045272e9	-99
-4.280305	3.9999e5	-99
-3.435207	30	-99
-4.280305	304	-99
-4.280305	308438	-99
-3.678245	31	-99
-2.848941	32	-99
-3.979275	32768	-99
-4.280305	3285377520	-99
-3.979275	33	-99
-3.979275	333	-99
-4.280305	3352537	-99
-3.803184	34	-99
-3.581335	35	-99
-3.803184	36	-99
-3.979275	37	-99
-3.979275	38	-99
-4.280305	384	-99
-4.280305	39	-99
-4.280305	3920	-99
-2.393814	4	-99
-4.280305	4.023233417e9	-99
-4.280305	4.294967296e9	-99
-4.280305	4.5	-99
-4.280305	4.503599627370496e15	-99
-4.280305	4.522871578970112e217	-99
-4.280305	4.6727004911171048e-153	-99
-3.377215	40	-99
-4.280305	4092	-99
-3.979275	41	-99
-4.280305	41088	-99
-3.979275	4190208	-99
-4.280305	4194304	-99
-3.581335	42	-99
-4.280305	44	-99
-3.979275	45	-99
-4.280305	48	-99
-4.280305	480	-99
-4.280305	488848	-99
-4.280305	4L	-99
-3.979275	4u	-99
-2.700521	5	-99
-4.280305	50	-99
-4.280305	5000	-99
-4.280305	504	-99
-4.280305	508	-99
-4.280305	51	-99
-3.678245	512	-99
-4.280305	512L	-99
-4.280305	516	-99
-3.979275	5200	-99
-4.280305	5298487	-99
-4.280305	55	-99
-3.803184	56	-99
-4.280305	57	-99
-3.979275	58	-99
-3.979275	59	-99
-4.280305	5toG57j/3"	-99
-2.678245	6	-99
-3.377215	60	-99
-4.280305	60.	-99
-3.803184	61	-99
-3.979275	62	-99
-3.678245	63	-99
-4.280305	63504	-99
-3.201124	64	-99
-4.280305	64u	-99
-4.280305	65280	-99
-4.280305	65307	-99
-3.979275	65536	-99
-4.280305	65544	-99
-4.280305	667	-99
-4.280305	67	-99
-4.280305	69	-99
-4.280305	6990400	-99
-2.761791	7	-99
-4.280305	7.5	-99
-4.280305	7.90055321525613e115	-99
-4.280305	70	-99
-3.979275	74	-99
-4.280305	75	-99
-4.280305	76	-99
-3.678245	768	-99
-3.979275	77	-99
-3.678245	79	-99
-2.547911	8	-99
-4.280305	8.44396048e8	-99
-3.134177	80	-99
-4.280305	8000	-99
-3.803184	81	-99
-4.280305	82	-99
-4.280305	84	-99
-3.803184	85	-99
-3.979275	86400	-99
-4.280305	88	-99
-4.280305	881	-99
-4.280305	89	-99
-4.280305	8u	-99
-2.865332	9	-99
-3.979275	90	-99
-4.280305	91	-99
-3.581335	92	-99
-4.280305	93	-99
-4.280305	96	-99
-3.803184	97	-99
-4.280305	98	-99
-4.280305	9858122	-99
-3.979275	99	-99
-4.280305	9999	-99
-4.280305	99999	-99
-2.179935	:	-99
-4.280305	:23h)QN<'	-99
-1.215847	;	-99
-4.280305	;b'	-99
-2.13729	<	-99
-1.260773	</s>
-2.627093	<<	-99
-3.435207	<=	-99
-4.280305	<P~6"	-99
-99	<s>	-99
-99	<unk>
-1.398921	=	-99
-2.636853	==	-99
-2.388211	>	-99
-3.502154	>=	-99
-2.657056	>>	-99
-3.979275	>>=	-99
-2.307177	?	-99
-4.280305	?"	-99
-2.636853	A	-99
-4.280305	Acce	-99
-4.280305	Alan	-99
-2.590109	B	-99
-4.280305	BUFSIZ	-99
-2.590109	C	-99
-3.979275	COLS	-99
-2.724003	D	-99
-4.280305	DefaultGC	-99
-4.280305	DefaultVisual	-99
-4.280305	Display	-99
-2.803184	E	-99
-4.280305	E0	-99
-3.979275	E3	-99
-3.238912	EOF	-99
-4.280305	ETIANMSURWDKGOHVF:L:PJBXCYZQ::54:3:::2&:+::::16=/:::(:7:::8:90"	-99
-4.280305	EX	-99
-2.657056	F	-99
-3.979275	F0	-99
-3.979275	F1	-99
-4.280305	F2	-99
-3.581335	FILE	-99
-4.280305	FILENAME_MAX	-99
-4.280305	FV	-99
-3.979275	F_	-99
-2.817907	G	-99
-2.502154	H	-99
-4.280305	HP	-99
-4.280305	HY	-99
-4.280305	H_1	-99
-2.564302	I	-99
-2.865332	J	-99
-2.532117	K	-99
-4.280305	KrgR'8@c]!%-q9V.3fa[E8X%dY'w!#H	-99
-2.176502	L	-99
-3.803184	LINES	-99
-4.280305	LP	-99
-4.280305	L_tmpnam	-99
-2.761791	M	-99
-4.280305	M8q;k'	-99
-4.280305	MJ	-99
-4.280305	MK6lM	-99
-4.280305	McPc	-99
-4.280305	MkQN	-99
-2.581335	N	-99
-4.280305	N4	-99
-4.280305	N8b	-99
-4.280305	N9	-99
-4.280305	N9b	-99
-3.803184	NULL	-99
-4.280305	NUO	-99
-4.280305	N_1'	-99
-4.280305	N_7vN	-99
-2.316517	O	-99
-3.166362	O0	-99
-3.435207	O1	-99
-3.435207	O2	-99
-3.502154	O3	-99
-4.280305	O3NF	-99
-3.581335	O4	-99
-3.502154	O5	-99
-3.678245	O6	-99
-3.678245	O7	-99
-3.803184	O8	-99
-3.803184	O9	-99
-4.280305	OMQ	-99
-4.280305	OMaMch	-99
-4.280305	OMp	-99
-4.280305	ON8r	-99
-3.201124	OO	-99
-4.280305	O^ln	-99
-3.326063	O_	-99
-3.678245	O_o	-99
-4.280305	OaaD	-99
-4.280305	Ok	-99
-4.280305	On	-99
-4.280305	OsR	-99
-2.817907	P	-99
-2.307177	Q	-99
-3.201124	Q0	-99
-3.502154	Q1	-99
-3.435207	Q2	-99
-3.502154	Q3	-99
-3.678245	Q4	-99
-3.678245	Q5	-99
-3.678245	Q6	-99
-3.678245	Q7	-99
-3.803184	Q8	-99
-3.979275	Q9	-99
-4.280305	QH	-99
-4.280305	QL	-99
-3.201124	QO	-99
-3.326063	QQ	-99
-3.979275	QR	-99
-3.979275	QS	-99
-3.502154	Q_	-99
-4.280305	Qr	-99
-2.28467	R	-99
-4.280305	R8	-99
-4.280305	RAFT	-99
-4.280305	RGB	-99
-4.280305	RI4	-99
-4.280305	RM	-99
-4.280305	RMPmSk	-99
-4.280305	RP	-99
-4.280305	RlMG	-99
-4.280305	RmM	-99
-4.280305	RmPQ	-99
-4.280305	RootWindow	-99
-2.724003	S	-99
-4.280305	SDL_AudioSpec	-99
-4.280305	SDL_BlitSurface	-99
-4.280305	SDL_CreateRGBSurface	-99
-4.280305	SDL_Delay	-99
-4.280305	SDL_Event	-99
-4.280305	SDL_FillRect	-99
-4.280305	SDL_Flip	-99
-4.280305	SDL_Init	-99
-4.280305	SDL_LoadWAV	-99
-4.280305	SDL_MixAudio	-99
-4.280305	SDL_OpenAudio	-99
-4.280305	SDL_PauseAudio	-99
-4.280305	SDL_PollEvent	-99
-4.280305	SDL_Rect	-99
-4.280305	SDL_SetVideoMode	-99
-4.280305	SDL_Surface	-99
-3.979275	SEEK_SET	-99
-4.280305	SNH	-99
-4.280305	SOPm	-99
-4.280305	SPEED	-99
-4.280305	Sec	-99
-4.280305	SlM90	-99
-4.280305	So	-99
-2.788944	T	-99
-4.280305	TIMESTEP	-99
-4.280305	TIOCGWINSZ	-99
-4.280305	TMP_MAX	-99
-4.280305	TmS	-99
-4.280305	TmSt	-99
-4.280305	Turing	-99
-4.280305	Type	-99
-2.627093	U	-99
-4.280305	UV_DROP	-99
-4.280305	Uint8Array	-99
-4.280305	Upgrade	-99
-2.748826	V	-99
-2.350886	W	-99
-3.979275	WebSocket	-99
-4.280305	Window	-99
-2.382678	X	-99
-4.280305	XCheckWindowEvent	-99
-4.280305	XCreateImage	-99
-4.280305	XCreateSimpleWindow	-99
-4.280305	XEvent	-99
-4.280305	XImage	-99
-4.280305	XLookupKeysym	-99
-4.280305	XMapWindow	-99
-4.280305	XOpenDisplay	-99
-4.280305	XPutImage	-99
-4.280305	XSelectInput	-99
-2.572735	Y	-99
-2.788944	Z	-99
-1.819407	[	-99
-4.280305	[-d]	-99
-4.280305	\""	-99
-4.280305	\n\t"	-99
-1.786151	]	-99
-2.667521	^	-99
-3.678245	^=	-99
-1.53758	_	-99
-4.280305	_){putchar(_);}O"	-99
-3.326063	_0	-99
-4.280305	_8	-99
-4.280305	_KK3	-99
-3.280305	_O	-99
-3.280305	_Q	-99
-4.280305	_Zadat57	-99
-2.422973	__	-99
-4.280305	__LINE__	-99
-3.979275	__STDC_VERSION__	-99
-3.979275	__STDC__	-99
-4.280305	__TIME__	-99
-4.280305	__VA_ARGS__	-99
-3.803184	___	-99
-2.979275	____	-99
-3.979275	_a	-99
-3.979275	_f	-99
-4.280305	_h	-99
-4.280305	_o	-99
-4.280305	_t	-99
-4.280305	_z	-99
-2.250921	a	-99
-3.979275	a_	-99
-3.979275	abs	-99
-4.280305	ageX	-99
-3.435207	ala	-99
-2.748826	and	-99
-3.979275	ar	-99
-3.581335	arg	-99
-3.678245	argh	-99
-3.166362	asn	-99
-3.803184	asp	-99
-3.678245	asx	-99
-3.979275	au	-99
-4.280305	ay	-99
-2.110044	b	-99
-4.280305	b1g	-99
-4.280305	b4	-99
-4.280305	b5g	-99
-3.581335	bA	-99
-3.678245	bB	-99
-3.678245	bC	-99
-3.803184	bD	-99
-3.581335	bE	-99
-4.280305	b\nq(%s)\n"	-99
-3.803184	ba	-99
-3.502154	bb	-99
-3.581335	bc	-99
-3.803184	bd	-99
-3.377215	be	-99
-3.201124	bf	-99
-3.678245	bg	-99
-3.678245	bh	-99
-4.280305	bh'	-99
-3.979275	bi	-99
-4.280305	binary	-99
-3.803184	bj	-99
-3.678245	bk	-99
-3.803184	bl	-99
-3.979275	bm	-99
-3.979275	bn	-99
-3.979275	bo	-99
-3.377215	bp	-99
-3.979275	bq	-99
-3.979275	br	-99
-3.049856	break	-99
-3.803184	bs	-99
-3.502154	bt	-99
-3.502154	bu	-99
-3.678245	buf	-99
-3.979275	bv	-99
-4.280305	bw	-99
-3.979275	bx	-99
-3.502154	by	-99
-3.581335	bz	-99
-2.298034	c	-99
-3.979275	c8	-99
-4.280305	c9	-99
-4.280305	cN	-99
-4.280305	c_X	-99
-4.280305	c_kah%0d9`b'	-99
-3.678245	calloc	-99
-3.280305	case	-99
-4.280305	cb	-99
-4.280305	ch	-99
-2.712103	char	-99
-4.280305	ckQaOrON	-99
-4.280305	close	-99
-2.937882	const	-99
-4.280305	continue	-99
-3.803184	cos	-99
-4.280305	cq	-99
-4.280305	crea	-99
-4.280305	curs_set	-99
-3.502154	cys	-99
-2.057589	d	-99
-4.280305	d2	-99
-4.280305	d77sNOsd	-99
-3.678245	d8	-99
-4.280305	d8ak	-99
-4.280305	dA	-99
-4.280305	dB	-99
-4.280305	dC	-99
-4.280305	d_C	-99
-4.280305	dat	-99
-4.280305	data	-99
-3.803184	default	-99
-4.280305	defined	-99
-3.581335	do	-99
-4.280305	double	-99
-3.979275	dstr	-99
-4.280305	dup	-99
-3.979275	dup2	-99
-2.271705	e	-99
-4.280305	eep	-99
-2.817907	efine	-99
-2.958086	else	-99
-4.280305	elta_u	-99
-4.280305	elta_v	-99
-4.280305	epne	-99
-4.280305	er	-99
-3.581335	err	-99
-4.280305	errx	-99
-3.581335	exit	-99
-3.803184	exp	-99
-3.803184	extern	-99
-2.361227	f	-99
-4.280305	f3	-99
-4.280305	fabs	-99
-4.280305	fclose	-99
-4.280305	fgetc	-99
-4.280305	fgets	-99
-4.280305	file1	-99
-4.280305	file2"	-99
-4.280305	flash	-99
-3.435207	float	-99
-4.280305	float_	-99
-4.280305	flu	-99
-3.803184	fopen	-99
-2.411073	for	-99
-4.280305	fputc	-99
-3.803184	fread	-99
-3.502154	free	-99
-4.280305	fscanf	-99
-3.979275	fseek	-99
-4.280305	function	-99
-3.678245	fw	-99
-2.201124	g	-99
-4.280305	getC	-99
-4.280305	getch	-99
-3.803184	getchar	-99
-4.280305	getopt	-99
-3.076185	gln	-99
-3.280305	glu	-99
-3.979275	glx	-99
-3.502154	gly	-99
-4.280305	go	-99
-4.280305	goofy	-99
-3.678245	goto	-99
-2.435207	h	-99
-4.280305	halting	-99
-4.280305	height	-99
-3.435207	his	-99
-4.280305	ho	-99
-4.280305	href	-99
-1.956023	i	-99
-2.429047	if	-99
-3.581335	ile	-99
-4.280305	in	-99
-4.280305	initscr	-99
-2.377215	int	-99
-4.280305	int_	-99
-4.280305	intw	-99
-4.280305	ioctl	-99
-4.280305	ipt	-99
-2.28467	j	-99
-4.280305	jQ	-99
-4.280305	j_la	-99
-4.280305	j_laaaN	-99
-2.366491	k	-99
-4.280305	k8b	-99
-4.280305	k9	-99
-4.280305	kP8	-99
-4.280305	k_	-99
-4.280305	kccMcOP	-99
-4.280305	kckQ	-99
-4.280305	kd	-99
-4.280305	ket	-99
-3.979275	key	-99
-4.280305	keysym	-99
-4.280305	kf	-99
-4.280305	kg	-99
-2.302582	l	-99
-3.979275	lM	-99
-4.280305	lNRmO_loa8	-99
-4.280305	lQ	-99
-4.280305	lQoOa	-99
-4.280305	l_	-99
-4.280305	le	-99
-4.280305	lea	-99
-3.678245	leu	-99
-4.280305	lf	-99
-4.280305	location	-99
-3.001552	long	-99
-4.280305	lpeoqempepneu	-99
-4.280305	lrand48	-99
-3.979275	lu	-99
-4.280305	luN	-99
-4.280305	luelue	-99
-3.803184	lv	-99
-4.280305	lwg	-99
-3.326063	lys	-99
-2.516877	m	-99
-3.979275	mR	-99
-4.280305	mR8	-99
-4.280305	mRMmO	-99
-4.280305	mRh	-99
-3.979275	mS	-99
-4.280305	mageData	-99
-3.001552	main	-99
-3.979275	malloc	-99
-4.280305	memcmp	-99
-3.979275	memcpy	-99
-4.280305	memset	-99
-3.326063	met	-99
-4.280305	mkM	-99
-4.280305	mq9l8b	-99
-4.280305	mva	-99
-4.280305	mvaddstr	-99
-3.979275	mvinch	-99
-4.280305	mvinsch	-99
-2.186883	n	-99
-4.280305	nR	-99
-4.280305	nRmUd	-99
-3.979275	ndif	-99
-3.979275	new	-99
-4.280305	nk	-99
-2.28467	not	-99
-4.280305	np	-99
-2.087181	o	-99
-4.280305	o(O	-99
-4.280305	oM	-99
-4.280305	oNS	-99
-4.280305	ocket	-99
-4.280305	oec	-99
-3.979275	of	-99
-4.280305	offsetLeft	-99
-4.280305	offsetTop	-99
-4.280305	og	-99
-4.280305	on	-99
-4.280305	onmousemove	-99
-4.280305	ontext	-99
-3.326063	op	-99
-3.979275	open	-99
-3.502154	optind	-99
-2.219607	p	-99
-4.280305	pOpM866OsRlm	-99
-4.280305	pQaM8m	-99
-4.280305	pRM7O	-99
-4.280305	pageY	-99
-4.280305	peoqemtemw	-99
-3.678245	phe	-99
-4.280305	pixels	-99
-3.803184	pow	-99
-4.280305	pread	-99
-4.280305	prin	-99
-3.201124	printf	-99
-3.581335	pro	-99
-4.280305	pt	-99
-4.280305	ptj9	-99
-4.280305	pu	-99
-4.280305	putImageData	-99
-3.435207	putchar	-99
-3.435207	puts	-99
-4.280305	px	-99
-3.979275	pyl	-99
-2.556029	q	-99
-4.280305	qN	-99
-4.280305	qQ	-99
-2.487913	r	-99
-3.803184	rQ	-99
-4.280305	rR	-99
-3.979275	rand	-99
-4.280305	re	-99
-4.280305	rea	-99
-3.979275	read	-99
-3.678245	realloc	-99
-4.280305	refresh	-99
-2.748826	return	-99
-3.979275	rewind	-99
-4.280305	round	-99
-4.280305	rror	-99
-2.238912	s	-99
-4.280305	sM	-99
-3.979275	sN	-99
-4.280305	sTaa	-99
-4.280305	s_4	-99
-4.280305	scanf	-99
-4.280305	scr	-99
-4.280305	script	-99
-3.326063	sec	-99
-4.280305	send	-99
-3.238912	ser	-99
-4.280305	set	-99
-4.280305	shi	-99
-4.280305	short	-99
-3.979275	si	-99
-4.280305	signal	-99
-3.979275	sin	-99
-4.280305	size_t	-99
-3.134177	sizeof	-99
-4.280305	slice	-99
-4.280305	slltwzh	-99
-4.280305	sprintf	-99
-4.280305	sqrt	-99
-4.280305	st_mtime	-99
-4.280305	st_size	-99
-3.803184	stat	-99
-3.502154	static	-99
-3.979275	stdin	-99
-4.280305	stdout	-99
-3.803184	strchr	-99
-4.280305	strcmp	-99
-3.803184	strlen	-99
-4.280305	strrchr	-99
-4.280305	strtol	-99
-3.326063	struct	-99
-4.280305	style	-99
-4.280305	subs	-99
-3.678245	switch	-99
-4.280305	sym	-99
-3.581335	sym_	-99
-4.280305	system	-99
-2.388211	t	-99
-4.280305	tQ	-99
-4.280305	tYv	-99
-4.280305	tape	-99
-4.280305	tch	-99
-4.280305	teI	-99
-4.280305	tf	-99
-4.280305	tgANs	-99
-3.377215	thr	-99
-4.280305	timeout	-99
-3.678245	tla	-99
-4.280305	tmpfile	-99
-4.280305	to	-99
-4.280305	tr	-99
-3.280305	trp	-99
-4.280305	turnY_	-99
-4.280305	typ	-99
-3.979275	type	-99
-3.134177	typedef	-99
-3.280305	tyr	-99
-2.242879	u	-99
-4.280305	uU	-99
-4.280305	ub	-99
-3.979275	union	-99
-3.201124	unk	-99
-3.326063	unsigned	-99
-4.280305	up"	-99
-4.280305	upgrade	-99
-4.280305	usl	-99
-4.280305	usleep	-99
-4.280305	utchar	-99
-2.564302	v	-99
-4.280305	vOwwRor	-99
-4.280305	vQ	-99
-4.280305	va_arg	-99
-4.280305	va_end	-99
-4.280305	va_list	-99
-4.280305	va_start	-99
-4.280305	vad	-99
-2.833147	val	-99
-2.882365	void	-99
-4.280305	voidw	-99
-4.280305	volatile	-99
-4.280305	vpr	-99
-2.377215	w	-99
-4.280305	webso	-99
-2.937882	while	-99
-4.280305	width	-99
-4.280305	window	-99
-4.280305	wnS	-99
-4.280305	world!"	-99
-3.803184	write	-99
-2.330915	x	-99
-4.280305	xa6	-99
-4.280305	xkey	-99
-3.979275	xle	-99
-2.627093	xor	-99
-4.280305	xv	-99
-2.330915	y	-99
-4.280305	yN	-99
-2.502154	z	-99
-3.979275	ze	-99
-1.858701	{	-99
-2.700521	|	-99
-3.979275	|=	-99
-2.882365	||	-99
-1.865332	}	-99
-3.166362	~	-99

\2-grams:
-0.8670923	! !	-0.5008845
-0.7323937	! (	-0.05684967
-1.908485	! )
-1.607455	! *
-1.908485	! --
-1.431364	! </s>
-1.908485	! D
-1.908485	! H
-1.908485	! K
-1.130334	! O	-0.7228485
-1.607455	! O9	0
-1.908485	! P
-1.908485	! Q
-1.908485	! Q0
-1.908485	! Q2
-1.431364	! QO	-0.3521825
-1.908485	! _0
-1.607455	! b
-1.607455	! g
-1.607455	! i
-1.908485	! j
-1.908485	! k
-1.607455	! l
-1.908485	! memcmp
-1.607455	! n
-1.908485	! o
-1.908485	! printf
-1.607455	! s
-1.908485	! stat
-1.908485	! strcmp
-1.607455	! t
-1.209515	! u	-0.6827328
-1.431364	! v	-0.5581545
-1.30103	!= '
-1.30103	!= -
-1.30103	!= 0
-1.30103	!= 98
-1.30103	!= B
-1	!= EOF	-0.2138799
-1.30103	!= NULL
-1.30103	!= __
-1	!= b	-0.4371933
-1.30103	!= bk
-1	!= gln	-0.3143939
-1	!= h	-0.4645321
-1.30103	!= mvinch
-1.30103	!= sizeof
-1.30103	!= trp
-1.30103	!= u
-0.5740313	" "
-1.477121	" "%d
-1.477121	" %d\n"
-1.477121	" %u/%u
-0.8750613	" )	-0.5814537
-0.8750613	" ,	-0.2975304
-1.477121	" ,101
-1.477121	" </s>
-1.477121	" ETIANMSURWDKGOHVF:L:PJBXCYZQ::54:3:::2&:+::::16=/:::(:7:::8:90"
-1.477121	" Type
-1.477121	" \n\t"
-1.477121	" c
-1.477121	" ipt
-1.477121	" ket
-1.477121	" mageData
-1.477121	" ontext
-1.477121	" teI
0	"!:E%;!ea!!!WqE0z!f/y}!%!!Qi6!uzt!n}?]!bl!ak!SetR<" </s>
0	"!pv!;!Hm%Ro4" "n:}nkD!Q!kN"
-0.845098	"" "@CADBEHI"
-0.845098	"" ,
-0.544068	"" :
-0.3679768	"" </s>
0	"#" )	-0.5520362
0	"$" ,
0	"%." "f\n"
0	"%c" ,
0	"%d "
0	"%d,%dd%d\n" ,
0	"%d\n" ,
0	"%da%d,%d\n" ,
0	"%da%d\n" ,
0	"%dd%d\n" ,
0	"%f,%f," ,
-0.69897	"%s" "\",\"%s\",\"%s\"},
-0.09691001	"%s" ,	-0.2978816
0	"('A)" ,
-0.30103	"('A`)" </s>
-0.30103	"('A`)" }
0	"(A`)" ,
0	"(O**" </s>
0	")" )
0	")$" ;
0	");" )
0	"*" ""
0	"*_[512],**p=_,**d,b,q;for(b=0;b" "++<512;p=_+q)_[q"
0	"*p=#b,P[9999],*d=P,*e[]=" "{\"%s\",
0	"++<512;p=_+q)_[q" </s>
0	"-" ,
0	"/" )
0	"/*;; "
0	"11\x80" [
0	"258EAFA5-" "E914-47DA-95CA-C5AB0DC85B"
0	"8!@dP,!!o+fb" </s>
0	"::::::::::::?_::::\"::.::::@:::'::-::::::::;!:):::::,:::::" ;
-0.4771213	";" )
-0.4771213	";" :
-0.4771213	";" </s>
0	";;" )
0	";Gam" "eQover."
0	";GlockQ18" "C:"
0	";Heca" "t"
0	";Time:Q" )
0	";^Q<d|8=o;]Q<dj8<Pk8<c]'?;QQdi8?P'Q)d8<9`8?c;Qdh8=P']Q<`c8>PQ9_8" </s>
0	"< "
0	"<" ,
0	"<;iQ=/*do<;dQ=ook8?boc;aQ=odr8>oc;_Q<ox8>oc" </s>
0	"<o_Q<o_QBdo`QQ';`Q=9`]8=bobQ_o_Q<o]8=';bQC(88cQ`bcgQ>oP']8<;cQ>98)^Q?''oc`Q>" </s>
0	"=(p-_+1)*9%512]=(O*)p;" )
0	"=:$" ,
0	"> "	-0.4149733
0	">b;og8=''`Q<`b8?'QQ9_8?c;dPe8dQa8<P]Q<``8=;'f8>QQ`]8?ocQQ_8=''_Q`8aQ" </s>
0	"?guhljL!^P% ?"
0	"@" ,
0	"@+-" ,
0	"@CADBEHI" )
0	"C:" "Q"
0	"CYOUQWIN!]Q=;of8BQQ)88bc]QA98P'Qo]8>oQQ_8CP;QQ98b`_8@P8(Q`]'^Q=`']QB)88" </s>
0	"E914-47DA-95CA-C5AB0DC85B" "11\x80"
0	"HTTP/1.1 "
0	"NBLF\1Nblfgjmf\1" ,
0	"Q" )	-0.4845437
0	"Q(j" "a"
0	"Q(jam" </s>
0	"Zj$x!~V!n&g8!cK! KrgR'8@c]!%-q9V.3fa[E8X%dY'w!#H
0	"\",\"%s\",\"%s\"}, b\nq(%s)\n"
0	"\40main(){O" ""
0	"\n" )
0	"\n\n\n" </s>
0	"\xe2%c%c\r\n" O_
0	"a" "m"
0	"bQQ]`8J;QQ`88bc99bd(`8iQ@''QQo^8E'`8c;QQ'Q``8?QQ`'kQ<o]8B9PQQ`';_Q<`_8<cbQ" </s>
-0.30103	"d" ")"
-0.30103	"d" )
0	"e.6!r!%l6G!n~^<i=%pEwL%P!'<!FQt%u 5toG57j/3"
0	"e:| 'b5sc!e"
0	"eQII:" "Q"
0	"eQover." </s>
0	"etu" "rn+0;}\n"
0	"f\n" ,
0	"fl!" [
0	"hello world!"
0	"laugh" )
0	"m" "me"
0	"me" "d"
0	"med);" )
0	"n:}nkD!Q!kN" </s>
0	"o(" )
0	"oc']Q]8<;cQ>`8bbQA``QQ''`Q?88P;dQ=`)nQ?*/;;" ;
0	"oid o(O
-0.1249387	"r" )	-0.4270975
-0.60206	"r" </s>
0	"rn+0;}\n" )
0	"t" "eQII:"
0	"throw up"
0	"usage: %s
0	"{;}" :
0	"{\"%s\", \""
0	"|~0y'vWtA@:LcO9d}y.!uL!Gd+ml(<+Ds!J" </s>
0	"}$" :
-1.778151	% %
-2.079181	% &
-1.60206	% (	-0.4702523
-2.079181	% -
-2.079181	% .27
-2.079181	% /
-2.079181	% 03
-2.079181	% 1500
-1.778151	% 16
-2.079181	% 176
-2.079181	% 198
-0.9330532	% 2	-0.570397
-1.234083	% 3	-0.6580114
-2.079181	% 32
-2.079181	% 384
-1.30103	% 4	-0.02199428
-1.60206	% 5
-2.079181	% 512
-2.079181	% 6
-1.477121	% 64
-2.079181	% 7
-2.079181	% 768
-1.60206	% 8
-2.079181	% 86400
-2.079181	% 93
-2.079181	% :
-1.380211	% </s>
-1.778151	% >
-2.079181	% I
-1.778151	% M
-2.079181	% N
-2.079181	% N4
-2.079181	% N8b
-2.079181	% N9b
-1.778151	% O
-2.079181	% O3
-2.079181	% O4
-1.234083	% Q	-0.7640648
-1.778151	% QQ
-2.079181	% Qr
-2.079181	% R
-2.079181	% ]
-2.079181	% ^
-1.778151	% _	-0.3952616
-1.778151	% __	0.1249388
-2.079181	% _h
-2.079181	% c9
-2.079181	% d8
-2.079181	% dA
-2.079181	% dB
-2.079181	% dC
-1.380211	% g
-2.079181	% lNRmO_loa8
-2.079181	% mR
-2.079181	% mRMmO
-2.079181	% mRh
-2.079181	% mS
-2.079181	% n
-2.079181	% q
-2.079181	% rQ
-2.079181	% s
-2.079181	% strlen
-2.079181	% w
-1.778151	% {
-0.4771213	%= 1
-0.4771213	%= 64
-0.4771213	%= 8
0	%d\n" ,
0	%s [-d]
0	%u/%u "
-2.075547	& !
-2.075547	& %
-1.774517	& (
-1.473487	& *	-0.5950267
-2.075547	& --
-2.075547	& 0
-2.075547	& 0x3f0
-2.075547	& 0xf
-2.075547	& 0xfe0
-2.075547	& 0xff00ff00ff
-1.297396	& 1	-0.1875207
-2.075547	& 1008
-1.598426	& 1023	0
-2.075547	& 12
-2.075547	& 128
-2.075547	& 14
-1.376577	& 15	-0.154902
-1.774517	& 16
-1.774517	& 16711935
-2.075547	& 16774143
-1.297396	& 3	-0.5993371
-2.075547	& 31
-2.075547	& 32
-2.075547	& 4
-2.075547	& 4092
-1.774517	& 4190208	0
-2.075547	& 6
-1.473487	& 63	0
-2.075547	& 64
-2.075547	& 65280
-2.075547	& 7
-2.075547	& 8
-2.075547	& 9
-2.075547	& ;
-2.075547	& <
-1.473487	& </s>
-2.075547	& B
-2.075547	& C
-2.075547	& L
-1.774517	& M
-1.774517	& N
-2.075547	& O
-1.774517	& OO
-1.774517	& Q
-2.075547	& S
-2.075547	& T
-2.075547	& TmS
-2.075547	& ^
-1.598426	& _	-0.4747588
-1.774517	& arg	0.2218488
-2.075547	& asn
-2.075547	& bE
-2.075547	& bn
-2.075547	& bo
-2.075547	& bv
-1.774517	& c
-2.075547	& d
-2.075547	& e
-1.774517	& glu	-0.1760913
-2.075547	& h
-2.075547	& i
-2.075547	& k
-2.075547	& kccMcOP
-2.075547	& kckQ
-1.598426	& not	-0.5749078
-2.075547	& o
-2.075547	& p
-2.075547	& pRM7O
-2.075547	& r
-1.774517	& tyr	-0.3222193
-2.075547	& u
-2.075547	& v
-2.075547	& w
-1.774517	& x
-2.075547	& y
-1.774517	& z	-0.462398
-0.9229848	&& !	-0.3748162
-0.4836521	&& (	-0.2078627
-1.826075	&& *
-1.826075	&& 0
-1.826075	&& 101
-1.826075	&& 258063
-1.826075	&& 34
-1.826075	&& </s>
-1.826075	&& A
-1.826075	&& B
-1.826075	&& F
-1.826075	&& R
-1.826075	&& Z
-1.826075	&& _
-1.826075	&& _0
-1.348954	&& a	-0.4520589
-1.826075	&& b
-1.826075	&& bf
-1.826075	&& bg
-1.826075	&& d
-1.826075	&& fscanf
-1.826075	&& g
-1.826075	&& h
-1.826075	&& j
-1.826075	&& n
-1.525045	&& o	-0.39794
-1.826075	&& q
-1.826075	&& read
-1.224015	&& s	-0.293061
-1.826075	&& v
-1.826075	&& x
-1.525045	&& y	-0.4571502
-0.4393327	' '	-0.2138798
-1.041393	' )
-0.7403627	' </s>
-1.041393	' M8q;k'
-1.041393	' Q
-1.041393	' nR
-1.041393	' ||
0	'( 0d:`184>b)^15)OM
-0.69897	',' )
-0.09691001	',' ,	-0.6975736
-0.30103	'128' height
-0.30103	'128' style
0	'2O 3'
0	'2d' )
0	'7M{N^kh '
0	'=' )
0	'Q] bh'
0	'\n' )
-0.7269987	'_' )	-0.2767379
-0.09017663	'_' ,	-1.406171
0	'_3a N_1'
0	'a' ,
0	'b5sc!e" </s>
0	'c' width
0	'd' :
0	'h(Q]0h# c_kah%0d9`b'
0	'lQ O^ln
0	'nSM8 '
0	'width:256px;height:256px' </s>
0	'ws' +
0	'|' :
-2.00062	( !	-0.1918855
-2.845718	( "
-3.146748	( ""
-2.669627	( "#"	0
-3.146748	( "%."
-3.146748	( "%c"
-3.146748	( "%d,%dd%d\n"
-3.146748	( "%d\n"
-3.146748	( "%da%d,%d\n"
-3.146748	( "%da%d\n"
-3.146748	( "%dd%d\n"
-3.146748	( "%s"
-3.146748	( "(O**"
-3.146748	( ");"
-3.146748	( "*"
-3.146748	( "-"
-3.146748	( "/*;;
-2.845718	( ";"
-3.146748	( ";Heca"
-3.146748	( ";Time:Q"
-3.146748	( "<
-3.146748	( "<"
-3.146748	( ">
-3.146748	( "@"
-3.146748	( "@+-"
-3.146748	( "HTTP/1.1
-2.845718	( "Q"	0
-3.146748	( "\n"
-3.146748	( "hello
-3.146748	( "laugh"
-3.146748	( "o("
-3.146748	( "r"
-3.146748	( "throw
-2.544688	( %
-2.146748	( &	-0.2747011
-3.146748	( '
-3.146748	( ','
-3.146748	( '2d'
-2.30165	( '_'	-0.1760913
-3.146748	( 'ws'
-1.368597	( (	-0.280666
-1.089843	( )	-0.7880042
-1.615269	( *	-0.3981619
-3.146748	( ++
-2.845718	( ,	-0.4732702
-2.30165	( -
-3.146748	( .05
-2.845718	( .5
-2.845718	( /
-1.78502	( 0	-1.037397
-3.146748	( 075
-1.731775	( 1	-0.6280482
-3.146748	( 10
-3.146748	( 105
-2.845718	( 12
-3.146748	( 13
-2.845718	( 16	-0.4065402
-3.146748	( 1912
-3.146748	( 1LL
-1.867994	( 2	-0.6108763
-3.146748	( 22
-3.146748	( 24
-3.146748	( 255
-3.146748	( 256L
-3.146748	( 2l
-2.032805	( 3	-0.40583
-3.146748	( 30
-2.845718	( 32
-3.146748	( 34
-3.146748	( 38
-2.146748	( 4	-0.4937205
-3.146748	( 40
-2.845718	( 41	0
-2.845718	( 42	0.2218488
-3.146748	( 45
-2.447778	( 5	-0.5785789
-3.146748	( 59
-2.845718	( 6
-2.845718	( 60
-2.845718	( 64	-0.2430381
-3.146748	( 67
-3.146748	( 7
-3.146748	( 70
-2.669627	( 8	-0.4522977
-2.368597	( 9
-3.146748	( 97
-3.146748	( 99999
-1.916299	( ;	-0.9102839
-1.766537	( </s>
-2.669627	( =	-0.4754058
-2.30165	( A	-0.2158858
-2.447778	( B	-0.2988085
-1.916299	( C	-0.2633565
-2.368597	( D	-0.09691001
-2.669627	( E	-0.30103
-2.146748	( F	-0.3620274
-2.845718	( FILE	0
-3.146748	( F_
-2.544688	( G	-0.1908145
-2.105355	( H	-0.07615478
-2.447778	( I	-0.6550645
-2.845718	( J
-2.146748	( K	-0.2060544
-1.48399	( L	-1.070837
-3.146748	( LINES
-2.447778	( M	-0.3418241
-2.30165	( N	-0.5263393
-1.845718	( O	-0.3372422
-3.146748	( O0
-2.544688	( O2	-0.1549019
-3.146748	( O3
-3.146748	( O4
-2.845718	( O5
-3.146748	( O6
-2.845718	( OO
-2.669627	( O_o	0
-2.669627	( P	-0.4126633
-1.916299	( Q	-0.4334123
-2.669627	( Q0	-0.3521825
-2.845718	( Q1
-3.146748	( Q2
-3.146748	( Q5
-3.146748	( Q6
-2.669627	( QO	-0.4259688
-3.146748	( QQ
-2.192506	( R	-0.4159845
-3.146748	( RAFT
-2.30165	( T	-0.6904818
-2.544688	( U	-0.6139593
-2.845718	( V
-2.243658	( W	-0.6549122
-1.69959	( X	-0.5385355
-3.146748	( XCheckWindowEvent
-3.146748	( XMapWindow
-2.544688	( Y	-0.2655577
-2.544688	( Z
-3.146748	( ^
-1.217329	( _	-0.6709936
-2.447778	( _O	-0.1249387
-2.845718	( _Q
-2.447778	( __
-3.146748	( __LINE__
-3.146748	( __STDC_VERSION__
-1.916299	( a	-0.09808098
-2.845718	( ala	-0.3309932
-1.804325	( and	-0.9094301
-3.146748	( ar
-2.669627	( argh	-0.1760913
-2.544688	( asn	0.1139433
-2.845718	( asp	0
-3.146748	( asx
-2.00062	( b	-0.4493533
-3.146748	( be
-2.845718	( bk	-0.1760913
-3.146748	( br
-2.845718	( bu
-2.845718	( buf
-3.146748	( by
-2.105355	( c	-0.08908468
-3.146748	( cN
-3.146748	( calloc
-3.146748	( cb
-2.192506	( char	-0.4317983
-2.669627	( const	-0.4357286
-3.146748	( cos
-3.146748	( curs_set
-2.544688	( cys	-0.2218488
-1.942628	( d	-0.2244415
-3.146748	( dup2
-2.243658	( e	-0.3258536
-3.146748	( elta_u
-3.146748	( elta_v
-1.78502	( f	-0.6601337
-3.146748	( float_
-3.146748	( flu
-1.942628	( g	-0.3802112
-3.146748	( gln
-3.146748	( glu
-2.105355	( h	-0.6586926
-1.544688	( i	-0.2863777
-2.669627	( ile
-2.00062	( int	-0.1521184
-3.146748	( int_
-1.845718	( j	-0.5026753
-1.916299	( k	-0.6176649
-2.067567	( l	-0.09520867
-3.146748	( lQ
-3.146748	( lQoOa
-3.146748	( luN
-2.845718	( lys
-2.146748	( m	-0.5483258
-3.146748	( memcpy
-3.146748	( memset
-2.447778	( met	-0.4259687
-1.766537	( n	-0.3501765
-1.845718	( not	-0.9600525
-1.970657	( o	-0.6027554
-3.146748	( open
-2.00062	( p	-0.2729509
-3.146748	( pread
-3.146748	( prin
-3.146748	( printf
-3.146748	( pro
-2.845718	( puts	0.3679768
-2.368597	( q	-0.2669502
-3.146748	( qQ
-2.447778	( r
-3.146748	( rR
-2.146748	( s	-0.1932933
-2.845718	( sec	-0.2218488
-2.243658	( ser	-0.3899711
-3.146748	( short
-2.845718	( sizeof	0.3679768
-3.146748	( stdout
-2.544688	( sym_	0
-2.067567	( t	-0.1413291
-3.146748	( tQ
-3.146748	( tch
-3.146748	( tla
-3.146748	( to
-2.30165	( u	-0.2847928
-3.146748	( uU
-3.146748	( ub
-3.146748	( usl
-2.368597	( v
-3.146748	( va_arg
-3.146748	( val
-2.845718	( void
-1.916299	( w	-0.5034502
-2.00062	( x	-0.1509805
-2.243658	( xor	-0.5286311
-1.970657	( y	-0.2810589
-2.447778	( z	-0.5118834
-2.845718	( ze	0
-3.146748	( {
-3.146748	( }
-3.146748	( ~
-2.473925	) !=	-0.1760913
-3.172895	) "\xe2%c%c\r\n"
-1.968775	) %	-0.3850101
-2.327797	) &
-2.058951	) &&	-0.1629298
-1.448619	) (	-0.3514003
-0.9633797	) )	-0.5057725
-1.26441	) *	-0.4318618
-2.394743	) *=	-0.7600873
-1.628827	) +	-0.3180508
-2.269805	) +=	-0.2624958
-1.172895	) ,	-0.279492
-1.830472	) -	-0.3818069
-3.172895	) --
-2.473925	) -=
-2.871865	) .	-0.447914
-3.172895	) .0
-1.968775	) /	-0.2641179
-3.172895	) 0
-3.172895	) 0u
-2.871865	) 16u	0
-2.871865	) 1u
-3.172895	) 21
-3.172895	) 64u
-3.172895	) 8u
-2.058951	) :	-0.4906941
-0.62512	) ;	-0.3380022
-2.394743	) <	-0.169797
-1.243476	) </s>
-2.394743	) <<	-0.1249387
-2.570835	) =	-0.2751645
-3.172895	) ==
-2.327797	) >	-0.1960415
-2.871865	) >=
-2.570835	) >>	-0.4839607
-2.131502	) ?	-0.224612
-2.394743	) B	-0.6677388
-2.871865	) E3	0
-2.871865	) F	-0.359022
-3.172895	) F0
-3.172895	) F1
-2.093714	) G	-0.5710257
-2.327797	) J	-0.509306
-3.172895	) K
-2.570835	) L	-0.07803985
-3.172895	) O
-3.172895	) O5
-2.570835	) O_	0.2552725
-3.172895	) P
-2.871865	) Q
-2.871865	) QR	0
-3.172895	) QS
-3.172895	) Q_
-3.172895	) R
-3.172895	) U
-3.172895	) W
-3.172895	) X
-3.172895	) Y
-2.394743	) [	-0.1607976
-1.491653	) ]	-0.8205548
-2.871865	) ^
-2.131502	) _	-0.6125348
-2.871865	) __	0.1249388
-3.172895	) ___
-1.917622	) ____	0.04575753
-3.172895	) _f
-2.871865	) a
-2.871865	) asx
-2.871865	) b
-2.871865	) bd	0
-2.695773	) break	0.6283889
-3.172895	) bt
-3.172895	) by
-2.871865	) c
-3.172895	) continue
-2.871865	) d
-2.871865	) d8
-2.871865	) e	-0.4130037
-3.172895	) err
-2.695773	) exit	0
-2.131502	) for	0.1879905
-3.172895	) g
-3.172895	) glx
-2.871865	) h
-2.570835	) i
-2.394743	) if	0.7051303
-2.871865	) int
-3.172895	) j
-3.172895	) k
-2.695773	) l	-0.4584391
-3.172895	) lys
-3.172895	) m
-3.172895	) n
-2.871865	) not
-3.172895	) o
-3.172895	) printf
-3.172895	) putchar
-2.871865	) q
-2.570835	) r	-0.2162085
-2.871865	) return
-2.473925	) s	-0.1249387
-3.172895	) scanf
-3.172895	) sec
-3.172895	) t
-2.695773	) tyr
-2.695773	) u	-0.3373218
-2.695773	) w	-0.50515
-2.695773	) z
-0.8632645	) {	-0.1235548
-2.327797	) |	-0.1256524
-2.570835	) ||	-0.4828736
-2.871865	) ~
-1.919078	* !	-0.08715016
-1.025131	* (	-0.1908527
-1.742987	* )
-1.655837	* *	-0.08364778
-2.697229	* +
-2.220108	* ++	-0.4677812
-2.697229	* ,
-2.697229	* .1
-2.697229	* .5
-2.396199	* 0
-2.697229	* 1
-2.697229	* 1.6937441874215991e190
-2.095169	* 10	-0.2388821
-2.697229	* 11
-2.697229	* 1103515245
-2.697229	* 12
-2.095169	* 16	-0.2304489
-2.697229	* 17
-2.697229	* 193
-1.655837	* 2	-0.01336396
-2.697229	* 23
-1.998259	* 3	-0.19382
-2.697229	* 32
-2.697229	* 39
-1.551101	* 4	-0.248642
-2.697229	* 4.522871578970112e217
-2.697229	* 4.6727004911171048e-153
-2.396199	* 42
-2.697229	* 51
-2.697229	* 512L
-2.697229	* 5298487
-2.697229	* 6
-2.396199	* 7
-2.697229	* 7.90055321525613e115
-2.396199	* 768	-0.1760913
-2.220108	* 8
-1.697229	* 80	-0.455932
-2.697229	* 81
-2.697229	* 85
-2.697229	* 881
-2.220108	* 9
-2.697229	* 92
-1.521138	* </s>
-2.697229	* A
-2.697229	* B
-2.095169	* C	-0.6215578
-2.697229	* D
-2.220108	* E
-2.396199	* H
-1.998259	* I	-0.5806618
-2.220108	* K	-0.552842
-2.095169	* L	-0.2727732
-2.697229	* L_tmpnam
-2.396199	* N
-2.220108	* O	-0.4218185
-1.998259	* O0	-0.5392692
-2.396199	* O3
-2.697229	* O4
-2.396199	* O6
-1.655837	* Q	-0.3315063
-2.697229	* Q0
-2.697229	* Q1
-2.697229	* Q2
-2.095169	* Q3	-0.1249387
-2.697229	* Q5
-2.697229	* Q7
-2.697229	* Q9
-2.697229	* QO
-2.396199	* QQ	-0.30103
-2.396199	* R
-2.697229	* S
-2.697229	* T
-2.697229	* U
-2.697229	* V
-2.396199	* W
-1.794139	* X	-0.01970332
-1.998259	* Y	-0.2044747
-2.697229	* ]
-1.396199	* _	-0.7246363
-2.095169	* _0
-2.697229	* _O
-2.396199	* __	0.1249388
-2.697229	* ___
-1.618048	* a	-0.5020951
-1.697229	* b	-0.1819208
-2.697229	* bD
-2.697229	* ba
-2.220108	* bb	-0.30103
-2.697229	* be
-2.697229	* br
-2.697229	* bx
-2.095169	* c	-0.2872417
-2.697229	* c_X
-1.998259	* const	-0.6118199
-1.551101	* d	-0.1610989
-1.742987	* e	-0.1551574
-2.396199	* f
-1.742987	* g	-0.560803
-2.095169	* i
-2.220108	* j
-2.220108	* k	-0.3893822
-2.220108	* l
-2.396199	* m
-1.919078	* n	-0.6670008
-1.998259	* not	-0.4667628
-1.250071	* o	-0.8506305
-1.282256	* p	-0.2921276
-2.697229	* printf
-1.618048	* q	-0.2579954
-2.220108	* r	-0.4406044
-1.618048	* s	-0.146128
-2.697229	* sin
-2.095169	* sizeof	0.544068
-2.396199	* t
-2.396199	* tyr
-1.742987	* u	-0.1816338
-2.095169	* y	-0.5391607
-2.396199	* z
-1.653213	*= !
-1.352183	*= (
-1.352183	*= -	-0.3985926
-1.653213	*= 0
-1.653213	*= 0.7
-1.653213	*= 02
-1.176091	*= 1	-0.4385424
-1.653213	*= 256
-1.653213	*= C
-1.653213	*= I
-0.8750613	*= Q	-0.7293026
-1.352183	*= Y	-0.4227636
-1.653213	*= _
-0.7501225	*= g	-0.861833
-0.6532125	*= o	-0.9721197
-1.352183	*= s	-0.4485658
-1.653213	*= t
-1.653213	*= u
0	*m,!*m?H:" upgrade
-2.10551	+ !
-2.40654	+ "fl!"
-0.8750613	+ (	-0.3687386
-1.70757	+ )	-0.634302
-1.80448	+ *
-2.40654	+ ,
-1.929419	+ 0
-2.40654	+ 0.5
-0.9441422	+ 1	-0.6311903
-2.40654	+ 1.5
-2.40654	+ 11
-2.40654	+ 12
-2.40654	+ 128L
-2.40654	+ 138
-2.10551	+ 16
-2.40654	+ 18
-2.40654	+ 19205553
-1.40654	+ 2	-0.2150093
-2.40654	+ 20
-2.40654	+ 287
-2.40654	+ 2L
-1.628389	+ 3	-0.20412
-2.40654	+ 32
-2.10551	+ 4	-0.3230243
-2.40654	+ 4.5
-2.40654	+ 42
-2.40654	+ 44
-2.40654	+ 4L
-1.929419	+ 5	-0.4288166
-2.10551	+ 512
-2.40654	+ 58
-2.40654	+ 6
-2.40654	+ 667
-2.10551	+ 7
-2.40654	+ 74
-2.40654	+ 79
-2.10551	+ 8
-2.40654	+ 84
-2.40654	+ 86400
-2.40654	+ 99
-1.452298	+ </s>
-2.40654	+ A
-2.10551	+ B	-0.399709
-2.40654	+ C
-2.40654	+ E
-2.40654	+ EOF
-1.929419	+ F
-1.929419	+ H
-2.40654	+ J
-1.929419	+ N	-0.350248
-2.40654	+ O4
-2.40654	+ P
-2.40654	+ Q
-2.40654	+ Q0
-2.40654	+ Q5
-2.40654	+ R
-2.40654	+ T
-2.40654	+ TMP_MAX
-2.40654	+ V
-2.40654	+ X
-2.40654	+ Y
-1.628389	+ _	-0.7404341
-2.40654	+ _Q
-1.929419	+ __	0
-2.10551	+ __STDC__
-2.10551	+ a
-2.40654	+ abs
-2.40654	+ asn
-2.40654	+ cos
-1.929419	+ d	-0.4419255
-2.40654	+ e
-1.929419	+ g	-0.4661259
-1.292597	+ i	-0.5820526
-2.40654	+ j
-1.929419	+ k	-0.3893822
-1.929419	+ l
-2.40654	+ location
-1.929419	+ m
-1.70757	+ n	-0.2003091
-1.561442	+ o
-2.10551	+ p
-2.40654	+ q
-1.628389	+ s	-0.7579479
-2.40654	+ sTaa
-1.929419	+ t	-0.4658403
-1.929419	+ u	-0.4034826
-2.40654	+ unk
-2.40654	+ v
-2.40654	+ wnS
-1.80448	+ x	-0.1645533
-2.40654	+ y
-1.929419	+ z	-0.5642715
-1.371068	++ %	-0.6728672
-1.973128	++ &
-0.6720979	++ )	-0.1029922
-1.973128	++ *
-1.12803	++ ,	-0.3573923
-1.672098	++ -
-1.973128	++ /
-0.9317352	++ ;	-0.1298343
-1.194977	++ <
-1.496007	++ </s>
-1.973128	++ <=
-1.371068	++ =	-0.5922483
-1.973128	++ ==
-1.194977	++ ]	-0.60206
-1.672098	++ c
-1.973128	++ g
-1.496007	++ i	-0.5655793
-1.973128	++ ile
-1.973128	++ j
-1.973128	++ l
-1.973128	++ leu
-1.973128	++ n
-1.496007	++ not	-0.2449141
-1.672098	++ s	-0.3802113
-1.973128	++ s_4
-1.672098	++ tla	-0.1760913
-1.973128	++ u
-1.194977	++ xor	-0.7716691
0	+99*! *m,!*m?H:"
-1.423246	+= !	-0.2846396
-2.025306	+= 'a'
-0.9839132	+= (	-0.3208305
-2.025306	+= .05
-2.025306	+= .1
-2.025306	+= 0.5
-1.548185	+= 1	-0.4065402
-2.025306	+= 1.5
-2.025306	+= 16
-2.025306	+= 194
-1.423246	+= 2	-0.4490926
-2.025306	+= 21
-2.025306	+= 4
-2.025306	+= 4u
-2.025306	+= 5
-2.025306	+= 7
-2.025306	+= A
-1.724276	+= E	-0.39794
-1.724276	+= F	-0.4449366
-1.423246	+= H	-0.5929166
-2.025306	+= K
-2.025306	+= M
-1.423246	+= O1
-2.025306	+= O8
-2.025306	+= Q
-1.724276	+= U
-2.025306	+= UV_DROP
-1.724276	+= V	-0.3928004
-1.548185	+= Y	-0.4507923
-2.025306	+= _
-1.724276	+= be	-0.05115253
-1.724276	+= bf	-0.30103
-2.025306	+= bt
-1.548185	+= d	-0.4419255
-1.724276	+= e	-0.4080403
-1.423246	+= g	-0.2086205
-2.025306	+= h
-1.326336	+= i	-0.6395054
-1.326336	+= l	-0.3340303
-1.071063	+= o	-0.4453647
-1.724276	+= p
-2.025306	+= printf
-2.025306	+= r
-2.025306	+= s
-1.724276	+= u
-1.724276	+= v
-1.548185	+= w	-0.5563025
-3.095518	, !
-3.095518	, "
-3.095518	, ""
-2.618397	, "$"	0
-2.618397	, "%s"	0.09691
-3.095518	, "('A)"
-3.095518	, "('A`)"
-3.095518	, "(A`)"
-3.095518	, "=:$"
-2.794488	, ">	0
-3.095518	, "d"
-2.618397	, "r"	0
-3.095518	, "usage:
-2.016337	, &	-0.07182014
-2.493458	, ','	0.09691
-1.697578	, '_'	0
-1.794488	, (	-0.2099151
-2.054125	, )	-0.3733085
-1.564039	, *	-0.2730555
-3.095518	, ++
-2.618397	, ,
-2.396548	, -	-0.3194113
-2.618397	, ...	0
-1.310188	, 0	-1.481047
-3.095518	, 0x98BADCFE
-3.095518	, 0xEFCDAB89
-1.715307	, 1	-1.172603
-3.095518	, 1.3
-3.095518	, 128
-2.618397	, 16	-0.4471581
-2.095518	, 2	-0.4430183
-3.095518	, 24
-3.095518	, 256
-2.396548	, 3	-0.19382
-3.095518	, 3.9999e5
-3.095518	, 30
-3.095518	, 308438
-2.618397	, 32	-0.4074853
-3.095518	, 3285377520
-3.095518	, 4
-3.095518	, 5
-2.794488	, 6	-0.366423
-3.095518	, 60
-3.095518	, 65544
-2.794488	, 8
-3.095518	, 85
-3.095518	, 9
-3.095518	, <
-1.396548	, </s>
-2.794488	, =	-0.4759784
-2.493458	, A	-0.2373609
-2.192428	, B	-0.8322483
-2.054125	, C	-0.2542866
-2.618397	, D
-3.095518	, DefaultGC
-3.095518	, DefaultVisual
-2.493458	, E	-0.2218487
-3.095518	, EOF
-2.317367	, F	-0.4101745
-3.095518	, F_
-2.794488	, G	-0.357146
-2.396548	, H	-0.5542872
-2.396548	, I	-0.5957506
-2.618397	, J
-1.981575	, K	-0.9220578
-2.396548	, L	-0.5004223
-2.618397	, M
-2.054125	, N	-0.4780853
-1.94939	, O	-0.3158791
-2.317367	, O0	-0.4301247
-3.095518	, O1
-2.794488	, O2
-3.095518	, O3
-3.095518	, O4
-2.794488	, O5
-3.095518	, O6
-3.095518	, O7
-3.095518	, O8
-3.095518	, O9
-2.794488	, OO
-2.618397	, P
-2.016337	, Q	-0.07219512
-2.493458	, Q0	-0.4648868
-2.794488	, Q1
-2.618397	, Q2	-0.3309932
-3.095518	, Q3
-2.618397	, Q4
-3.095518	, Q5
-2.794488	, Q6
-3.095518	, Q7
-3.095518	, Q8
-3.095518	, Q9
-2.618397	, QO	-0.39794
-3.095518	, QQ
-3.095518	, QS
-1.472269	, R	-1.309931
-3.095518	, RootWindow
-2.317367	, S
-2.794488	, SEEK_SET	0
-2.317367	, T	-0.4171233
-3.095518	, TIOCGWINSZ
-2.493458	, U	-0.5399121
-2.794488	, V
-2.25042	, W	-0.4838808
-2.794488	, X
-2.618397	, Y	-0.441649
-0.6872781	, _	-1.39522
-3.095518	, _0
-2.618397	, _O	-0.3802113
-2.618397	, _Q	-0.3802113
-2.016337	, __	-0.3679767
-3.095518	, __VA_ARGS__
-2.095518	, a	-0.8456774
-3.095518	, a_
-3.095518	, ar
-3.095518	, arg
-2.794488	, au	0
-2.054125	, b	-0.3221494
-2.794488	, bA
-2.794488	, bB
-2.794488	, bC
-2.794488	, bD
-3.095518	, bb
-3.095518	, be
-2.794488	, bf	-0.30103
-3.095518	, bg
-3.095518	, bi
-3.095518	, bo
-3.095518	, bq
-3.095518	, bt
-3.095518	, bu
-3.095518	, bv
-2.794488	, bz
-2.054125	, c	-0.3083198
-3.095518	, c8
-3.095518	, ch
-2.095518	, char	-0.4317983
-2.493458	, const	-0.4357286
-1.73379	, d	-0.4560296
-3.095518	, do
-2.794488	, dstr	0
-3.095518	, dup
-2.016337	, e	-0.575731
-3.095518	, eep
-2.25042	, f	-0.7389333
-3.095518	, fopen
-3.095518	, fw
-2.25042	, g	-0.6953357
-2.794488	, gln	-0.3143939
-2.618397	, glu	-0.1760913
-3.095518	, go
-2.25042	, h	-0.5118834
-3.095518	, halting
-3.095518	, ho
-1.577004	, i	-0.6255952
-2.25042	, int	-0.1238516
-3.095518	, intw
-3.095518	, ioctl
-1.981575	, j	-0.5496719
-2.141276	, k	-0.3893822
-2.054125	, l	-0.8345209
-3.095518	, le
-3.095518	, lea
-2.794488	, lu
-2.794488	, lv
-3.095518	, lys
-2.095518	, m	-0.7550858
-1.773299	, n	-0.2065212
-3.095518	, np
-1.891398	, o	-0.5509075
-3.095518	, oec
-2.794488	, of	0
-3.095518	, op
-1.919427	, p	-0.3394082
-3.095518	, pow
-3.095518	, pu
-2.618397	, q
-2.192428	, r	-0.3411472
-3.095518	, rand
-2.192428	, s	-0.3622996
-3.095518	, shi
-2.794488	, si	0
-2.493458	, sizeof	0.146128
-3.095518	, sprintf
-3.095518	, stdin
-3.095518	, strlen
-3.095518	, sym_
-1.816764	, t	-0.5627503
-3.095518	, tape
-1.816764	, u	-0.9040848
-3.095518	, unk
-3.095518	, usleep
-2.25042	, v	-0.08333721
-3.095518	, vad
-3.095518	, val
-3.095518	, vpr
-2.095518	, w	-0.146128
-3.095518	, write
-1.919427	, x	-0.3489171
-2.141276	, y	-0.414222
-2.493458	, z
-3.095518	, ~
0	,101 +99*!
-2.123852	- &
-1.3457	- (	-0.2134666
-2.424882	- )
-1.94776	- *
-2.424882	- .05
-2.424882	- 0.5
-0.7814289	- 1	-0.2027606
-2.424882	- 1.3
-2.424882	- 12
-2.424882	- 128
-2.424882	- 14202379
-2.424882	- 158
-2.424882	- 16
-2.424882	- 19
-2.424882	- 1933008
-1.64673	- 2	-0.3383942
-2.424882	- 205
-2.424882	- 22
-2.424882	- 24
-2.424882	- 257
-1.521792	- 3	-0.1760912
-2.424882	- 30
-2.424882	- 304
-1.94776	- 32	-0.4494498
-2.123852	- 33	0
-2.424882	- 35
-2.424882	- 37
-2.424882	- 4
-2.424882	- 488848
-2.424882	- 4u
-2.424882	- 5
-2.424882	- 508
-2.424882	- 59
-1.725912	- 6	-0.1879905
-2.424882	- 60
-2.424882	- 64
-1.94776	- 7
-2.424882	- 7.5
-2.123852	- 8
-2.424882	- 89
-1.822822	- 9	-0.1413291
-2.123852	- 90
-1.579784	- </s>
-2.424882	- A
-2.424882	- Acce
-2.123852	- E
-1.94776	- EOF
-2.424882	- F
-1.822822	- H
-1.94776	- I	-0.3521825
-2.424882	- L
-2.424882	- M
-2.424882	- O1
-2.424882	- O7
-2.123852	- OO	-0.39794
-2.424882	- P
-2.123852	- Q
-2.424882	- Q0
-2.424882	- QO
-2.424882	- R
-2.123852	- V
-1.94776	- W	-0.4615162
-2.424882	- WebSocket
-2.424882	- X
-2.424882	- Y
-1.94776	- _	-0.5643429
-2.424882	- _O
-2.424882	- _Q
-1.424882	- __	-0.3467875
-2.123852	- a
-2.123852	- asn	0.3357921
-2.424882	- b
-1.94776	- c
-1.725912	- d	-0.728621
-2.424882	- d8
-2.424882	- dup2
-2.424882	- e
-2.424882	- f
-1.94776	- g	-0.3847117
-1.94776	- h
-1.424882	- i	-0.4391455
-1.822822	- j	-0.287666
-1.64673	- k	-0.1599045
-2.424882	- key
-2.424882	- l
-2.123852	- m
-1.579784	- n	-0.3119816
-1.94776	- o	-0.4453647
-1.725912	- p	-0.2103689
-2.424882	- q
-2.424882	- r
-2.123852	- u	-0.4034826
-1.725912	- unk	-0.1760913
-1.725912	- v	-0.5957505
-1.94776	- x	-0.414222
-1.725912	- ~
-1.556303	-- &&
-0.60206	-- )	-0.2875145
-1.255273	-- ,	-0.3772384
-1.556303	-- 1954
-0.5149098	-- ;	-0.07152227
-1.556303	-- </s>
-1.255273	-- >
-1.556303	-- H
-1.255273	-- O
-1.556303	-- R
-1.556303	-- g
-1.556303	-- j
-1.556303	-- s
-1.556303	-- val
-1.556303	-- xor
-1.09108	-= (
-1.568202	-= 061
-1.568202	-= 2
-1.568202	-= 4
-1.568202	-= 80
-1.568202	-= D
-1.568202	-= F
-1.09108	-= H	-0.4960066
-1.568202	-= V
-1.568202	-= W
-1.568202	-= b
-1.267172	-= be	-0.05115253
-1.267172	-= bf	-0.30103
-1.09108	-= d	-0.4419255
-1.568202	-= e
-0.9661418	-= g	-0.5642715
-1.568202	-= h
-1.568202	-= i
-0.9661418	-= l	-0.6350603
-1.568202	-= r
-1.568202	-= u
-1.267172	-= w	-0.4313638
-1.880814	-> </s>
-1.278754	-> a	-0.2258887
-0.8016323	-> b	-0.5109795
-1.880814	-> c
-0.7346855	-> j	-0.4727122
-1.035716	-> n	-0.7072953
-1.278754	-> not
-1.278754	-> op	-0.1918855
-1.880814	-> pixels
-1.403692	-> val
-0.8394209	-> x	-0.3820373
-0.8394209	-> y	-0.3930326
-1.403692	-> z
-2.089905	. &
-2.089905	. /
-1.788875	. </s>
-2.089905	. ]
-1.186815	. _	-0.2009672
-2.089905	. binary
-1.048512	. c	-0.5434213
-2.089905	. crea
-2.089905	. dat
-2.089905	. data
-1.487845	. e	-0.2319491
-2.089905	. getC
-2.089905	. href
-2.089905	. key
-2.089905	. keysym
-0.5336026	. not	-0.6470271
-2.089905	. offsetLeft
-2.089905	. offsetTop
-2.089905	. onmousemove
-1.390935	. p	-0.2142294
-2.089905	. pageY
-2.089905	. putImageData
-1.487845	. q	-0.5309967
-2.089905	. send
-2.089905	. set
-2.089905	. slice
-2.089905	. st_mtime
-2.089905	. st_size
-2.089905	. subs
-2.089905	. sym
-1.788875	. t
-2.089905	. type
-0.8857851	. val	-0.2340832
-2.089905	. xkey
-1.089905	. y	-0.1777148
-0.1760913	... )	-0.4131297
-0.4771213	... </s>
0	.0 (
-0.4771213	.05 )
-0.4771213	.05 ;
-0.4771213	.05 </s>
-0.1760913	.1 )
-0.4771213	.1 :
0	.27 s
-0.4771213	.5 *
-0.4771213	.5 -
-0.4771213	.5 </s>
-1.954242	/ &
-1.109144	/ (
-1.954242	/ )
-1.954242	/ +
-1.954242	/ -
-1.954242	/ 1024.
-1.954242	/ 12
-0.6754889	/ 2	-0.2596797
-1.653213	/ 2.	0
-1.954242	/ 20
-1.954242	/ 24
-1.954242	/ 26
-1.477121	/ 3
-1.954242	/ 32768
-1.051152	/ 4	-0.3523913
-1.352183	/ 5	-0.1014576
-1.954242	/ 504
-1.954242	/ 6
-1.954242	/ 60
-1.954242	/ 60.
-1.954242	/ 768
-1.352183	/ 8	-0.5031347
-1.954242	/ 85
-1.954242	/ 88
-1.653213	/ I
-1.954242	/ M
-1.954242	/ O
-1.954242	/ O3
-1.477121	/ Q	-0.396088
-1.954242	/ QQ
-1.954242	/ RI4
-1.954242	/ RM
-1.954242	/ SlM90
-1.653213	/ _	-0.4394041
-1.954242	/ fabs
-1.954242	/ g
-1.954242	/ j
-1.954242	/ k
-1.653213	/ lM
-1.653213	/ n
-1.653213	/ p
-1.954242	/ scr
-1.954242	/ w
-0.69897	/= ++
-0.39794	/= 2
-0.69897	/= H
-0.69897	/= l
-1.951014	0 &&
-2.428135	0 (
-0.5830368	0 )	-0.6252377
-2.127105	0 +
-0.6287943	0 ,	-0.286454
-1.105916	0 :	-0.1346986
-0.5892857	0 ;	-0.1828195
-1.525045	0 <	-0.1849568
-2.127105	0 </s>
-2.428135	0 ==
-2.127105	0 >
-1.428135	0 ?	-0.1008522
-1.428135	0 ]	-0.1290947
-2.428135	0 _t
-2.428135	0 m
-2.127105	0 ||
-2.127105	0 }
-0.4771213	0.5 *
-0.1760913	0.5 ;
0	0.7 ;
0	01 ]
0	02 </s>
0	024 )
0	03 ;
0	040 )
0	061 *
0	075 )
0	0d:`184>b)^15)OM :23h)QN<'
-0.30103	0u ,
-0.30103	0u ;
0	0x1 !=
0	0x3f0 )
0	0x67452301 ,
0	0x820008202625a0 ;
0	0x98BADCFE </s>
0	0xEFCDAB89 ,
0	0xf |
0	0xfc0 ||
0	0xfe0 ^
0	0xff00ff00ff ;
0	0xffff )
-1.823909	1 &	-0.4584792
-1.69897	1 &&	-0.1281677
-0.6382722	1 )	-0.2267021
-2.30103	1 *
-1.69897	1 +
-0.8239087	1 ,	-0.2251474
-1.070581	1 -	-0.1724146
-2.30103	1 4
-1.60206	1 :	-0.1426675
-0.8239087	1 ;	-0.1069759
-2.30103	1 </s>
-1.346787	1 <<	-0.08940042
-2	1 ==	-0.4464524
-1.823909	1 ?
-2.30103	1 A
-1.823909	1 [
-0.7825161	1 ]	-0.3860871
-2.30103	1 ^
-2.30103	1 cq
-2	1 |
-1.823909	1 }	-0.4652684
0	1.159922023e9 ,
-0.30103	1.3 ,
-0.30103	1.3 </s>
0	1.5 ;
0	1.6937441874215991e190 ;
-0.69897	10 )
-1.176091	10 *
-0.8750613	10 +	-0.4667804
-0.8750613	10 ,
-1.176091	10 /
-1.176091	10 :
-0.8750613	10 ;
-1.176091	10 R
-1.176091	10 ||
-1.176091	10 }
0	1008 )
0	101 ==
-0.4771213	1023 )
-0.1760913	1023 |	-0.4288166
0	1024 /
0	1024. ;
0	105 <
-0.1760913	11 )
-0.4771213	11 ;
0	1103515245 &
0	112 ,
0	1152 +
-1	12 &
-0.69897	12 )
-1	12 +
-0.69897	12 -
-0.69897	12 </s>
-0.69897	12 >
0	123 :
0	12359778 ;
0	12365733 -
0	124 -
0	127 ;
-0.60206	128 &&
-0.30103	128 )	-0.3596049
-0.60206	128 ,
0	128L +
-0.30103	13 ,
-0.30103	13 ?
0	13000 ;
0	138 )
-0.1760913	14 &
-0.7781513	14 ]
-0.7781513	14 ^
0	14202379 *
0	14695981039346656037ULL ;	-0.2830672
-0.544068	15 )	-0.4753677
-0.3679768	15 ,
-0.845098	15 ;
-0.845098	15 |
0	1500 ?
0	158 )
-1.30103	16 &&
-0.5228788	16 )	-0.1835136
-0.8239087	16 *
-1.30103	16 +
-0.8239087	16 ,
-1.30103	16 /
-0.8239087	16 ;	-0.2830672
-1.30103	16 </s>
-1.30103	16 >
0	1600 &&
-0.1760913	16711935 ;	-0.4699489
-0.4771213	16711935 |
0	16774143 ;
0	16u )
-0.1760913	17 +
-0.4771213	17 ]
0	176 /
-0.69897	18 )
-0.69897	18 ,
-0.69897	18 </s>
-0.69897	18 ?
-0.69897	18 ]
0	19 )
0	1912 --
0	19205553 ;
0	193 +
0	1933008 </s>
0	194 ,
0	1954 )
0	196 -
0	197 )
0	198 ;
-0.30103	1LL +
-0.30103	1LL <<
0	1l N
-0.30103	1u )
-0.30103	1u ,
-1.80618	2 %
-1.630089	2 &
-2.10721	2 (
-0.5274264	2 )	-0.04854321
-0.90309	2 *	-0.1453799
-1.329059	2 +	-0.1236595
-0.8284563	2 ,	-0.2017848
-1.80618	2 -
-0.9610819	2 ;	0.0739218
-1.80618	2 </s>
-1.329059	2 ?
-2.10721	2 MJ
-0.9932666	2 ]	-0.1720513
-2.10721	2 _KK3
-1.630089	2 ||
-2.10721	2 }
0	2. )	-0.4724293
0	2.271681097355226e15 ,
-0.90309	20 %
-0.60206	20 )
-0.90309	20 *
-0.60206	20 </s>
-0.60206	20 ?
0	204 ]
0	205 )
-0.30103	21 -
-0.30103	21 ]
-0.30103	22 )
-0.30103	22 *
0	23 ;
0	234 ;
-0.60206	24 )
-0.90309	24 ,
-0.90309	24 ;
-0.60206	24 </s>
-0.90309	24 O3NF
-0.90309	24 ]
0	25 ;
0	250 ,
-0.845098	255 )
-0.845098	255 ,
-0.845098	255 -
-0.845098	255 :
-0.544068	255 ;
-0.845098	255 ?
-0.30103	256 ,
-0.60206	256 -
-0.60206	256 ;
0	256L +
0	257 ,
0	258063 &
-0.30103	26 ,
-0.30103	26 ]
0	27 )
0	275 )
0	276 )
0	28 &
0	287 )
0	2L )
0	2l NUO
-1.60206	3 &
-1.90309	3 (
-0.6243364	3 )	-0.09312782
-0.9488475	3 *	-0.0994441
-1.20412	3 +	-0.6690068
-1.057992	3 ,	-0.0462452
-1.20412	3 -	-0.2052071
-1.90309	3 4
-1.60206	3 :
-1	3 ;
-1.90309	3 </s>
-1.90309	3 ?
-1.90309	3 A
-1.90309	3 B
-0.69897	3 ]	-0.3174204
-1.90309	3 _z
0	3' Q
0	3.135045272e9 ,
0	3.9999e5 )
-0.845098	30 &&
-0.845098	30 *
-0.845098	30 +
-0.544068	30 ;
-0.845098	30 ?
-0.845098	30 ]
0	304 -
0	308438 *
-0.60206	31 )
-0.1249387	31 ;
-0.5282738	32 )	-0.1513877
-0.9542425	32 +	-0.4149733
-0.8293038	32 ,
-1.431364	32 -
-1.431364	32 :
-0.7323937	32 ;	-0.02779467
-1.130334	32 <<	-0.4036923
-1.130334	32 ]	-0.4285709
-1.431364	32 |
-0.30103	32768 )
-0.30103	32768 ,
0	3285377520 }
0	33 )
-0.30103	333 *
-0.30103	333 ;
0	3352537 *
-0.4771213	34 <
-0.4771213	34 </s>
-0.4771213	34 m
-0.69897	35 )
-0.69897	35 -
-0.69897	35 :
-0.69897	35 ?
-0.69897	35 R
-0.4771213	36 -
-0.1760913	36 :
-0.30103	37 +
-0.30103	37 ;
-0.30103	38 )
-0.30103	38 *
0	384 )
0	39 ;
0	3920 )
-1.886491	4 &
-1.886491	4 &&
-0.5247629	4 )	-0.379565
-0.9834008	4 *	-0.09980724
-1.284431	4 +	-0.5496283
-0.9834008	4 ,
-1.108339	4 -
-1.886491	4 :
-1.108339	4 ;
-1.886491	4 <
-1.886491	4 </s>
-1.886491	4 ?
-1.886491	4 SNH
-0.8073095	4 ]	-0.4045706
-1.409369	4 |
0	4.023233417e9 ,
0	4.294967296e9 ,
0	4.5 )
0	4.503599627370496e15 ,
0	4.522871578970112e217 ;
0	4.6727004911171048e-153 ;
-0.20412	40 )	-0.1043324
-0.90309	40 :
-0.90309	40 ;
-0.90309	40 ?
0	4092 ^
0	41 )	-0.3596049
0	41088 ,
0	4190208 |
0	4194304 </s>
-0.09691001	42 )	-0.1835136
-0.69897	42 ;
0	44 +
0	45 )
0	48 ;
0	480 ,
0	488848 *
0	4L +
-0.30103	4u )
-0.30103	4u ;
-1.579784	5 %
-1.278754	5 &&
-0.4336556	5 )	-0.4732639
-1.278754	5 *
-0.9777236	5 ,
-1.579784	5 -
-1.579784	5 ;
-1.579784	5 </s>
-1.102662	5 ?
-1.579784	5 OMaMch
-0.6766936	5 ]	-0.02348108
0	50 ;
0	5000 +
0	504 *
0	508 ]
0	51 )
-0.60206	512 *
-0.60206	512 +
-0.60206	512 ;
-0.60206	512 </s>
0	512L )
0	516 ]
-0.30103	5200 ;
-0.30103	5200 ]
0	5298487 :
0	55 ?
-0.4771213	56 )
-0.1760913	56 ;	-0.43261
0	57 ;
-0.30103	58 :
-0.30103	58 >
-0.30103	59 ;
-0.30103	59 ==
0	5toG57j/3" </s>
-1.30103	6 %
-1.30103	6 &
-1.60206	6 &&
-0.6478175	6 )	-0.327479
-1.124939	6 *	-0.471857
-1.124939	6 ,	-0.5021772
-1.60206	6 -
-1.60206	6 /
-1.60206	6 :
-1.124939	6 ;
-1.60206	6 <
-1.30103	6 </s>
-1.60206	6 >
-1.30103	6 ?
-1.60206	6 N
-1.60206	6 O
-1	6 ]	-0.2524796
-1.60206	6 sN
-1.60206	6 yN
-0.20412	60 )	-0.2804236
-0.60206	60 *	-0.4340685
-0.90309	60 /
0	60. /
-0.1760913	61 :
-0.4771213	61 ;
-0.30103	62 ;
-0.30103	62 ?
-0.30103	63 )	-0.4706567
-0.60206	63 ,
-0.60206	63 <<
0	63504 ;
-1.079181	64 &
-0.7781513	64 )
-1.079181	64 *
-0.3802112	64 ,
-1.079181	64 :
-1.079181	64 ;
-1.079181	64 </s>
0	64u )
0	65280 )
0	65307 ;
-0.30103	65536 ;
-0.30103	65536 ]
0	65544 >
0	667 ,
0	67 *
0	69 j
0	6990400 ;
-1.518514	7 &
-1.518514	7 &&
-0.819544	7 )	-0.2171568
-1.217484	7 *
-0.916454	7 ,
-1.518514	7 -
-1.518514	7 7
-1.518514	7 :
-1.217484	7 ;
-1.518514	7 <
-1.217484	7 </s>
-1.518514	7 ?
-1.041393	7 O
-1.518514	7 OMQ
-1.518514	7 ON8r
-0.819544	7 ]	-0.1732984
-1.518514	7 sN
0	7.5 )
0	7.90055321525613e115 ;
0	70 )
-0.30103	74 )
-0.30103	74 </s>
0	75 ?
0	76 )
-0.60206	768 ;
-0.60206	768 </s>
-0.30103	768 ]
-0.30103	77 ;
-0.30103	77 O
-0.60206	79 )
-0.60206	79 ;
-0.60206	79 ]
-0.60206	79 b
-1.255273	8 &
-1.732394	8 &&
-0.6910011	8 )	-0.1495313
-1.255273	8 +
-0.6184504	8 ,	-0.1364327
-1.431364	8 :
-0.9542425	8 ;	-0.2795411
-1.732394	8 <
-1.431364	8 >>	-0.4449366
-1.431364	8 ?
-1.130334	8 ]
-1.732394	8 _a
-1.732394	8 b
-1.732394	8 j
-1.732394	8 k9
-1.431364	8 |	-0.4536402
0	8.44396048e8 ,
-1.146128	80 )
-0.146128	80 +	-0.9808494
-1.146128	80 ,
-1.146128	80 ;
-1.146128	80 ]
0	8000 </s>
-0.4771213	81 )
-0.4771213	81 -
-0.4771213	81 /
0	82 ;
0	84 )
-0.4771213	85 *
-0.4771213	85 +
-0.4771213	85 <<
-0.30103	86400 )
-0.30103	86400 -
0	88 )
0	881 ,
0	89 ?
0	8u +
-1.113943	9 %
-0.5118834	9 )	-0.3337005
-1.113943	9 *
-1.414973	9 +
-1.113943	9 ,
-1.113943	9 -
-1.113943	9 ;	-0.4614934
-1.414973	9 <<
-1.113943	9 ?
-1.414973	9 g
-1.414973	9 j_la
-1.414973	9 j_laaaN
-1.414973	9 slltwzh
-0.30103	90 )
-0.30103	90 ;
0	91 )
-0.69897	92 &&
-0.69897	92 )
-0.69897	92 +
-0.39794	92 ;
0	93 ,
0	96 ^
-0.4771213	97 +
-0.1760913	97 ]
0	98 +
0	9858122 :
0	99 ]	-0.3756636
0	9999 ]
0	99999 )
-2.100371	: ""
-2.100371	: ")$"
-2.100371	: "Q(j"
-2.100371	: "Q(jam"
-1.623249	: %
-1.799341	: &
-2.100371	: '='
-0.9242793	: (	-0.2105514
-1.799341	: *
-2.100371	: -
-0.7781513	: 0	-0.5472971
-1.623249	: 1
-2.100371	: 12365733
-2.100371	: 2
-2.100371	: 24
-2.100371	: 32
-2.100371	: 3352537
-2.100371	: 5
-1.799341	: 6
-2.100371	: 65536
-2.100371	: 69
-2.100371	: 79
-2.100371	: :
-1.197281	: </s>
-2.100371	: >
-2.100371	: B
-2.100371	: C
-2.100371	: EOF
-1.799341	: I	-0.3521825
-2.100371	: N
-2.100371	: O
-2.100371	: P
-2.100371	: R
-2.100371	: V
-1.623249	: _	-0.4245922
-2.100371	: _Zadat57
-2.100371	: a
-1.799341	: b
-2.100371	: break
-1.799341	: c
-2.100371	: case
-1.799341	: d
-2.100371	: f
-2.100371	: fopen
-2.100371	: g
-1.623249	: gln	-0.30103
-2.100371	: goto
-2.100371	: h
-2.100371	: i
-2.100371	: j
-2.100371	: k8b
-2.100371	: l
-1.799341	: m
-2.100371	: main
-2.100371	: n
-2.100371	: p
-2.100371	: putchar
-2.100371	: q
-1.799341	: r	-0.4555816
-2.100371	: switch
-1.623249	: u	-0.4034826
-1.799341	: v
-2.100371	: w
-2.100371	: webso
-2.100371	: x
0	:23h)QN<' /
-2.462398	; !	-0.6712986
-3.064458	; %
-3.064458	; &
-3.064458	; '(
-2.286307	; (	-0.1654293
-1.451674	; )	-0.4456415
-2.023065	; *	-0.1748436
-2.110215	; ++	-0.956291
-3.064458	; --
-3.064458	; 0
-2.110215	; ;	-0.2583812
-0.4432817	; </s>
-3.064458	; A
-2.365488	; B	-0.5885575
-2.286307	; D
-3.064458	; E
-2.763428	; F	-0.4101745
-2.286307	; G	0.31627
-2.587337	; H	-0.5314789
-2.462398	; I	-0.4988405
-2.587337	; J	-0.1413292
-2.161368	; K	-0.2340832
-2.365488	; L	-0.6779517
-3.064458	; M
-3.064458	; N
-2.365488	; O
-2.161368	; P	-0.6711409
-3.064458	; Q_
-3.064458	; R
-3.064458	; SDL_BlitSurface
-3.064458	; SDL_Delay
-3.064458	; SDL_Event
-3.064458	; SDL_FillRect
-3.064458	; SDL_Flip
-3.064458	; SDL_Init
-3.064458	; SDL_LoadWAV
-3.064458	; SDL_MixAudio
-3.064458	; SDL_OpenAudio
-3.064458	; SDL_PauseAudio
-3.064458	; T
-1.809186	; U	-0.3802113
-2.023065	; V	-0.1941605
-2.365488	; W	-0.6616457
-3.064458	; Window
-2.763428	; X	-0.4307525
-3.064458	; XEvent
-3.064458	; XImage
-3.064458	; XSelectInput
-2.763428	; Y	-0.4323089
-1.91833	; _	-0.1732021
-3.064458	; __
-3.064458	; ___
-1.860338	; a	-0.315663
-1.545944	; b	-0.229944
-3.064458	; bA
-3.064458	; ba
-3.064458	; bc
-2.587337	; bh	0.1249388
-3.064458	; bj
-2.462398	; break	0.5314789
-3.064458	; bz
-2.21936	; c	-0.03891808
-2.365488	; case
-2.21936	; char	0.2002249
-1.834009	; d	-0.3732204
-2.763428	; default	0
-2.462398	; e
-2.587337	; else
-3.064458	; extern
-2.161368	; f	-0.358149
-3.064458	; fgets
-2.462398	; float
-1.573096	; for	0
-3.064458	; fread
-3.064458	; free
-2.365488	; g	-0.3832167
-2.763428	; goto
-3.064458	; h
-1.834009	; i	-0.6358711
-1.950515	; if	0.436285
-1.950515	; int	-0.1439066
-2.110215	; j	-0.2198702
-1.950515	; k	-0.3833994
-2.365488	; l	-0.3287014
-2.462398	; long	-0.1684044
-2.286307	; m	-0.2277981
-2.763428	; main	0.8016324
-3.064458	; memcpy
-3.064458	; mvaddstr
-3.064458	; mvinsch
-2.023065	; n	-0.487883
-1.985277	; o	-0.606216
-2.023065	; p	-0.4066635
-3.064458	; putchar
-2.763428	; q	-0.4340866
-2.110215	; r	-0.1530769
-3.064458	; refresh
-1.985277	; return	-0.2466723
-1.985277	; s	-0.2869869
-2.587337	; struct
-3.064458	; switch
-2.286307	; t	-0.2082759
-3.064458	; typedef
-1.888367	; u	-0.9301212
-3.064458	; union
-2.462398	; v
-3.064458	; va_end
-3.064458	; va_start
-2.462398	; void	-0.50515
-1.888367	; w	-0.366423
-2.462398	; while	0
-2.21936	; x	-0.4697393
-2.286307	; xor	-0.7829501
-2.286307	; y	-0.7217829
-1.785704	; z	-0.55496
-2.763428	; {
-3.064458	; |
-1.01138	; }	-0.1051261
0	;b' %
-1.540955	< %
-2.143015	< (
-2.143015	< *
-2.143015	< /
-0.9388948	< 0	-0.8515319
-2.143015	< 11
-2.143015	< 127
-2.143015	< 13
-1.841985	< 14	0
-2.143015	< 16
-1.841985	< 18
-1.540955	< 2	-0.5160394
-1.841985	< 20	-0.3521825
-1.540955	< 3
-2.143015	< 30
-2.143015	< 32
-2.143015	< 4
-1.841985	< 5
-2.143015	< 5200
-2.143015	< 57
-1.665894	< 6
-1.841985	< 60	-0.05115253
-2.143015	< 61
-1.841985	< 62
-2.143015	< 7
-2.143015	< 74
-2.143015	< 75
-2.143015	< 77
-1.841985	< 79
-2.143015	< 80
-2.143015	< 82
-2.143015	< 91
-2.143015	< 92
-2.143015	< :
-1.444045	< </s>
-1.841985	< A	-0.3899711
-2.143015	< B
-1.665894	< D	-0.39794
-2.143015	< L
-2.143015	< M
-2.143015	< O
-2.143015	< Q
-2.143015	< SPEED
-2.143015	< U
-2.143015	< W
-1.841985	< _	-0.4394041
-1.540955	< a	-0.2759676
-2.143015	< abs
-2.143015	< asn
-1.665894	< b
-2.143015	< b4
-2.143015	< c
-1.841985	< d
-2.143015	< f
-2.143015	< h
-1.364864	< i	-0.146275
-2.143015	< j
-2.143015	< kP8
-2.143015	< l
-1.841985	< m
-1.364864	< n	-0.1279926
-1.364864	< not	-0.6128908
-2.143015	< p
-1.444045	< s	-0.6661775
-2.143015	< script
-1.540955	< v
-1.841985	< x
-2.143015	< y
-0.9542425	<< (
-1.176091	<< 1	-0.363612
-1.653213	<< 14
-1.653213	<< 15
-1.352183	<< 18
-1.653213	<< 23
-1.653213	<< 24
-1.653213	<< 30
-1.176091	<< 32	-0.3881802
-1.176091	<< 4	-0.3230243
-1.653213	<< 40
-1.653213	<< 5
-1.352183	<< 56	0
-1.352183	<< 6	-0.443263
-1.653213	<< 60
-1.653213	<< 7
-0.8081145	<< 8	-0.4027389
-1.653213	<< </s>
-1.653213	<< Q_
-1.653213	<< a
-1.653213	<< i
-1.176091	<< l	-0.4584391
-1.653213	<< n
-1.653213	<< unk
-0.845098	<= 24
-0.845098	<= L
-0.845098	<= Q
-0.845098	<= k
-0.845098	<= m
-0.845098	<= optind
-0.845098	<= q
0	<P~6" </s>
-2.718502	<s> !
-3.019532	<s> !=
-2.718502	<s> "
-3.019532	<s> "!:E%;!ea!!!WqE0z!f/y}!%!!Qi6!uzt!n}?]!bl!ak!SetR<"
-3.019532	<s> "!pv!;!Hm%Ro4"
-3.019532	<s> "%d
-3.019532	<s> "%f,%f,"
-3.019532	<s> "*_[512],**p=_,**d,b,q;for(b=0;b"
-3.019532	<s> "*p=#b,P[9999],*d=P,*e[]="
-3.019532	<s> "/"
-3.019532	<s> "258EAFA5-"
-3.019532	<s> "::::::::::::?_::::\"::.::::@:::'::-::::::::;!:):::::,:::::"
-3.019532	<s> ";;"
-3.019532	<s> ";Gam"
-3.019532	<s> ";GlockQ18"
-3.019532	<s> ";^Q<d|8=o;]Q<dj8<Pk8<c]'?;QQdi8?P'Q)d8<9`8?c;Qdh8=P']Q<`c8>PQ9_8"
-3.019532	<s> "<o_Q<o_QBdo`QQ';`Q=9`]8=bobQ_o_Q<o]8=';bQC(88cQ`bcgQ>oP']8<;cQ>98)^Q?''oc`Q>"
-3.019532	<s> "=(p-_+1)*9%512]=(O*)p;"
-3.019532	<s> ">b;og8=''`Q<`b8?'QQ9_8?c;dPe8dQa8<P]Q<``8=;'f8>QQ`]8?ocQQ_8=''_Q`8aQ"
-3.019532	<s> "?guhljL!^P%
-3.019532	<s> "CYOUQWIN!]Q=;of8BQQ)88bc]QA98P'Qo]8>oQQ_8CP;QQ98b`_8@P8(Q`]'^Q=`']QB)88"
-3.019532	<s> "Zj$x!~V!n&g8!cK!
-3.019532	<s> "bQQ]`8J;QQ`88bc99bd(`8iQ@''QQo^8E'`8c;QQ'Q``8?QQ`'kQ<o]8B9PQQ`';_Q<`_8<cbQ"
-3.019532	<s> "e.6!r!%l6G!n~^<i=%pEwL%P!'<!FQt%u
-3.019532	<s> "e:|
-3.019532	<s> "etu"
-3.019532	<s> "med);"
-3.019532	<s> "oc']Q]8<;cQ>`8bbQA``QQ''`Q?88P;dQ=`)nQ?*/;;"
-3.019532	<s> "oid
-2.24138	<s> %
-2.718502	<s> &
-3.019532	<s> '7M{N^kh
-3.019532	<s> 'c'
-1.514382	<s> (	-0.02857047
-1.588168	<s> )	-0.1622371
-2.320562	<s> *
-2.54241	<s> +
-2.019532	<s> ++	-0.2772921
-2.718502	<s> +=
-1.677109	<s> ,	-0.05127127
-2.065289	<s> -	-0.0925028
-2.417472	<s> --
-3.019532	<s> -=
-2.54241	<s> .
-2.54241	<s> /
-2.320562	<s> 0	-0.2686583
-3.019532	<s> 0xffff
-2.54241	<s> 1
-3.019532	<s> 10
-3.019532	<s> 1152
-3.019532	<s> 128
-3.019532	<s> 15
-3.019532	<s> 16
-3.019532	<s> 16711935
-2.417472	<s> 2	-0.1480625
-3.019532	<s> 25
-3.019532	<s> 333
-2.718502	<s> 4
-3.019532	<s> 45
-3.019532	<s> 5
-3.019532	<s> 6
-3.019532	<s> 63504
-3.019532	<s> 64
-3.019532	<s> 65307
-2.417472	<s> 7
-2.54241	<s> 8
-3.019532	<s> 81
-3.019532	<s> 92
-3.019532	<s> 96
-2.417472	<s> :	-0.2459824
-1.873404	<s> ;	-0.08426804
-3.019532	<s> <
-2.718502	<s> <<
-1.94035	<s> =	-0.06936952
-2.718502	<s> >
-2.417472	<s> >>
-3.019532	<s> ?
-2.320562	<s> A	-0.1694607
-3.019532	<s> Alan
-2.718502	<s> B
-2.54241	<s> C
-3.019532	<s> COLS
-2.718502	<s> D	-0.4393327
-2.116442	<s> E	-0.4259688
-2.54241	<s> F	-0.4101745
-2.54241	<s> FILE	0
-3.019532	<s> G
-2.24138	<s> H	-0.7323938
-2.718502	<s> I
-2.718502	<s> J
-2.24138	<s> K	-0.2060545
-2.24138	<s> L
-2.174434	<s> M	-0.1869221
-3.019532	<s> MkQN
-2.54241	<s> N	-0.2253093
-2.718502	<s> O
-3.019532	<s> O1
-3.019532	<s> O2
-3.019532	<s> O7
-3.019532	<s> O8
-3.019532	<s> O_
-3.019532	<s> On
-2.417472	<s> P	-0.3701109
-2.417472	<s> Q	-0.2674214
-3.019532	<s> Q1
-3.019532	<s> Q2
-3.019532	<s> Q3
-3.019532	<s> QO
-2.54241	<s> R
-3.019532	<s> S
-3.019532	<s> SDL_PollEvent
-3.019532	<s> SDL_Surface
-2.24138	<s> T
-2.417472	<s> U	-0.2498775
-3.019532	<s> Upgrade
-2.417472	<s> V	-0.2466723
-2.320562	<s> W	-0.2814344
-2.54241	<s> X
-3.019532	<s> XPutImage
-1.905588	<s> Y	-0.5090355
-2.116442	<s> Z	-0.241032
-2.417472	<s> [
-2.54241	<s> ]	-0.4222994
-2.116442	<s> _	-0.7154592
-3.019532	<s> _0
-2.718502	<s> __	0.1249388
-2.718502	<s> ____	0.8239088
-3.019532	<s> _f
-1.978139	<s> a	-0.3130389
-3.019532	<s> ageX
-2.718502	<s> ala
-2.417472	<s> and	-0.2747011
-2.54241	<s> asn	0.2108533
-2.065289	<s> b	-0.4208029
-3.019532	<s> bB
-3.019532	<s> bC
-3.019532	<s> be
-3.019532	<s> bl
-3.019532	<s> bn
-2.174434	<s> break	0.327359
-3.019532	<s> bt
-2.718502	<s> bu
-3.019532	<s> by
-2.54241	<s> c	-0.4490925
-3.019532	<s> c8
-3.019532	<s> case
-2.54241	<s> char	0.09108046
-2.065289	<s> const	-0.4247332
-1.815412	<s> d	-0.763159
-3.019532	<s> default
-2.417472	<s> do	0
-3.019532	<s> double
-1.697312	<s> e	-0.4534982
-1.557134	<s> efine
-2.718502	<s> else	-0.3853509
-3.019532	<s> er
-2.417472	<s> err	0
-3.019532	<s> errx
-2.718502	<s> exit	0
-2.54241	<s> f
-1.718502	<s> for	-0.05504751
-3.019532	<s> fputc
-2.320562	<s> free	0
-2.718502	<s> fseek	0
-3.019532	<s> fw
-1.572374	<s> g	-0.9860248
-2.417472	<s> gly	0
-2.019532	<s> h	-0.1476027
-1.621592	<s> i	-0.9601483
-1.406748	<s> if	-0.07302094
-1.63932	<s> int	-0.1517319
-2.320562	<s> j	-0.6718178
-2.417472	<s> k
-1.978139	<s> l	-0.2511898
-3.019532	<s> lf
-2.54241	<s> long
-2.54241	<s> lys
-2.54241	<s> m
-3.019532	<s> mR8
-2.417472	<s> main	0.5797836
-2.54241	<s> met	-0.3679768
-3.019532	<s> mva
-2.417472	<s> n
-2.718502	<s> ndif	0
-3.019532	<s> new
-2.065289	<s> not	-0.7119349
-1.740778	<s> o	-0.8849695
-3.019532	<s> oM
-3.019532	<s> ocket
-3.019532	<s> on
-2.718502	<s> op	-0.30103
-3.019532	<s> open
-3.019532	<s> optind
-2.24138	<s> p	-0.3895513
-2.718502	<s> phe	0
-2.24138	<s> printf	0
-3.019532	<s> pt
-2.718502	<s> putchar	0
-2.718502	<s> puts	0.3679768
-2.54241	<s> q
-2.320562	<s> r
-3.019532	<s> rQ
-3.019532	<s> rea
-1.94035	<s> return	-0.07058106
-2.718502	<s> rewind	0
-3.019532	<s> rror
-1.94035	<s> s	-0.9646451
-2.417472	<s> sec	-0.3467875
-3.019532	<s> signal
-3.019532	<s> sin
-2.320562	<s> static	0.07918125
-3.019532	<s> stdin
-3.019532	<s> strchr
-2.718502	<s> switch	0
-2.24138	<s> t	-0.3631779
-3.019532	<s> tf
-2.320562	<s> thr	-0.09691003
-3.019532	<s> tr
-3.019532	<s> type
-1.978139	<s> typedef	-0.02020337
-2.718502	<s> tyr	-0.2552725
-2.174434	<s> u	-0.1032386
-2.174434	<s> unsigned	-0.06694677
-3.019532	<s> v
-2.718502	<s> val
-2.320562	<s> void	-0.30103
-3.019532	<s> volatile
-2.019532	<s> w	-0.3273589
-1.94035	<s> while	0
-2.718502	<s> x
-1.94035	<s> y	-0.353806
-2.24138	<s> z	-0.7390447
-1.84344	<s> {	-0.7159084
-1.100454	<s> }	-0.5490719
-2.404263	= !
-2.881385	= "
-2.881385	= "<;iQ=/*do<;dQ=ook8?boc;aQ=odr8>oc;_Q<ox8>oc"
-2.881385	= "NBLF\1Nblfgjmf\1"
-2.881385	= "\n\n\n"
-2.279325	= &	-0.6803279
-2.580355	= '128'
-2.881385	= 'width:256px;height:256px'
-1.237932	= (	-0.2950099
-2.580355	= )	-0.4765375
-1.650936	= *	-0.6925862
-2.404263	= ,	-0.4764236
-1.580355	= -	-0.3095181
-2.881385	= --
-2.881385	= .1
-0.9271421	= 0	-1.184119
-2.881385	= 040
-2.881385	= 0u
-2.881385	= 0x1
-2.881385	= 0x820008202625a0
-1.519657	= 1	-0.8165728
-2.881385	= 1.159922023e9
-2.182415	= 10	-0.1597009
-2.881385	= 1024
-2.881385	= 112
-2.881385	= 12
-2.881385	= 12359778
-2.881385	= 13000
-2.580355	= 14695981039346656037ULL	0
-2.881385	= 16
-2.881385	= 17
-2.881385	= 196
-2.881385	= 1LL
-2.404263	= 2	-0.4268161
-2.881385	= 2.271681097355226e15
-2.881385	= 234
-2.881385	= 250
-2.404263	= 255
-2.881385	= 256
-2.881385	= 26
-2.103233	= 3	-0.6879746
-2.881385	= 3.135045272e9
-2.881385	= 30
-2.404263	= 32
-2.881385	= 32768
-2.881385	= 333
-2.881385	= 34
-2.881385	= 37
-2.182415	= 4	-0.6910011
-2.881385	= 4.023233417e9
-2.881385	= 4.294967296e9
-2.881385	= 4.503599627370496e15
-2.881385	= 40
-2.881385	= 41088
-2.881385	= 48
-2.881385	= 480
-2.580355	= 5	-0.4288166
-2.881385	= 50
-2.881385	= 5000
-2.881385	= 512
-2.279325	= 6	-0.2671717
-2.881385	= 64
-2.881385	= 6990400
-2.103233	= 7	-0.1199753
-2.404263	= 8	-0.3575113
-2.881385	= 8.44396048e8
-2.881385	= 80
-2.881385	= 9
-1.735257	= </s>
-1.650936	= A	-0.572273
-2.279325	= B	-0.2236178
-1.978295	= C	-0.3039744
-2.881385	= COLS
-2.182415	= D	-0.5576409
-2.404263	= E	-0.4149733
-2.279325	= F	-0.1829307
-2.103233	= H	-0.07003786
-2.182415	= I	-0.3721327
-2.881385	= J
-2.103233	= K	-0.5740312
-2.279325	= L	-0.2691083
-2.881385	= LINES
-2.279325	= M	-0.5606673
-1.881385	= N	-0.447158
-1.881385	= O	-0.4511855
-2.881385	= O0
-2.881385	= O5
-2.404263	= OO	-0.39794
-2.580355	= O_	0.4771213
-2.881385	= O_o
-2.404263	= P
-1.881385	= Q	-0.5387555
-2.881385	= Q7
-2.881385	= Q8
-2.404263	= Q_	0
-2.404263	= R	-0.4452739
-2.881385	= S
-2.881385	= SDL_CreateRGBSurface
-2.881385	= SDL_SetVideoMode
-2.580355	= T
-2.881385	= TIMESTEP
-2.881385	= U
-2.404263	= W
-2.881385	= X
-2.881385	= XCreateImage
-2.881385	= XCreateSimpleWindow
-2.881385	= XLookupKeysym
-2.881385	= XOpenDisplay
-2.881385	= Y
-2.580355	= Z	-0.4171233
-1.927142	= _	-0.8723829
-2.881385	= _0
-2.580355	= _Q
-2.404263	= __	-0.4648868
-2.881385	= __TIME__
-2.103233	= a	-0.1379336
-1.881385	= b	-0.241358
-2.881385	= b5g
-2.580355	= bA
-2.881385	= bB
-2.881385	= bC
-2.580355	= bE	-0.07918125
-2.881385	= ba
-2.881385	= bb
-2.881385	= bf
-2.881385	= bl
-2.881385	= bm
-2.036287	= bp	0
-2.881385	= bs
-2.881385	= buf
-2.881385	= bx
-2.881385	= by
-2.580355	= bz
-1.802203	= c	-0.09066105
-2.404263	= calloc	0
-2.881385	= cos
-1.881385	= d	-0.2456308
-1.705293	= e	-0.6588527
-2.580355	= exp	0
-1.677265	= f	-0.5932504
-2.881385	= fgetc
-2.881385	= fopen
-2.580355	= fread	0
-2.881385	= function
-2.279325	= g	-0.5642715
-2.881385	= getch
-2.404263	= getchar	0
-2.881385	= getopt
-2.279325	= gln	-0.39794
-1.927142	= h	-0.5639893
-2.580355	= his
-1.881385	= i	-0.2532093
-2.404263	= j	-0.4637573
-2.279325	= k
-2.279325	= l
-2.881385	= lv
-2.103233	= m	-0.145057
-2.881385	= main
-2.580355	= malloc	0
-1.978295	= n	-0.2619659
-2.881385	= new
-2.881385	= nk
-2.404263	= not	-0.3698528
-1.735257	= o	-0.3721327
-2.881385	= op
-1.978295	= p	-0.5325882
-2.580355	= pow	0
-2.881385	= pyl
-2.279325	= q	-0.5767542
-2.182415	= r	-0.1853319
-2.881385	= rand
-2.881385	= read
-2.279325	= realloc	0
-2.881385	= round
-2.103233	= s	-0.13902
-2.404263	= sizeof	0.243038
-2.881385	= sqrt
-2.881385	= strrchr
-2.881385	= system
-2.103233	= t	-0.436285
-2.881385	= tmpfile
-1.978295	= trp	-0.3802113
-1.927142	= u	-0.3373218
-2.580355	= unk	-0.39794
-1.978295	= v	-0.1413291
-2.881385	= w
-2.881385	= window
-1.839992	= x	-0.2563555
-2.881385	= xle
-1.927142	= y	-0.3058825
-2.182415	= z	-0.6450946
-1.927142	= {
-1.342423	== '\n'	0
-1.342423	== *
-1.643453	== -
-1.643453	== 0
-1.342423	== 1
-1.342423	== 10
-1.643453	== 2
-1.643453	== 27
-1.643453	== 275
-1.643453	== 276
-1.342423	== 3
-1.643453	== 32
-1.342423	== 35
-1.643453	== 4
-1.342423	== 5	-0.2775489
-1.643453	== 6
-1.643453	== 8
-1.643453	== 81
-1.643453	== 9
-1.643453	== 92
-1.643453	== B
-1.342423	== D
-1.342423	== NULL	0
-1.643453	== arg
-1.166331	== b	-0.4591479
-1.643453	== cys
-1.643453	== gln
-1.643453	== h
-1.342423	== n
-1.643453	== not
-1.643453	== r
-1.643453	== u
-1.290035	> (
-1.892095	> ->
-0.9890046	> 0	-0.2794354
-1.892095	> 1
-1.892095	> 12
-1.892095	> 1600
-1.892095	> 197
-1.193125	> 2	-0.4609918
-1.892095	> 20
-1.892095	> 255
-1.892095	> 3
-1.892095	> 30
-1.892095	> 31
-1.892095	> 32
-1.591065	> 4
-1.290035	> 5	-0.2653144
-1.892095	> 55
-1.414973	> 6
-1.892095	> 64
-1.591065	> 7
-1.892095	> 76
-1.591065	> 9
-1.892095	> 92
-1.892095	> ;
-1.892095	> <
-1.591065	> </s>
-1.892095	> B
-1.892095	> BUFSIZ
-1.892095	> F
-1.892095	> H
-1.892095	> I
-1.892095	> Q0
-1.591065	> QQ	-0.30103
-1.290035	> _	-0.2633128
-1.892095	> a
-1.892095	> bs
-1.892095	> char
-1.892095	> d_C
-1.892095	> e
-1.892095	> glu
-1.892095	> h
-1.591065	> i
-1.892095	> l
-1.892095	> lrand48
-1.892095	> q
-1.892095	> s
-1.892095	> t
-1.892095	> v
-1.892095	> w
-1.892095	> x
-0.7781513	>= (
-0.4771213	>= 0
-0.7781513	>= 2
-0.7781513	>= LINES
-0.7781513	>= Q
-1.146128	>> (
-1.623249	>> ++
-1.623249	>> 12
-1.322219	>> 14	0
-1.146128	>> 2	-0.3241538
-1.623249	>> 20
-1.623249	>> 28
-1.623249	>> 3
-1.322219	>> 31	0.1249388
-1.322219	>> 32	-0.4436975
-1.623249	>> 38
-1.322219	>> 4
-1.146128	>> 40	-0.1760913
-1.623249	>> 5
-1.623249	>> 56
-1.322219	>> 6
-0.6232493	>> 8	-0.4717261
-1.623249	>> </s>
-1.623249	>> lys
-1.623249	>> n
-1.322219	>> unk	-0.1760913
-0.30103	>>= 4
-0.30103	>>= 7
-1.973128	? !
-1.672098	? ""	-0.3309932
-1.973128	? ";"
-1.973128	? "{;}"
-1.973128	? "}$"
-1.973128	? &
-1.973128	? '
-1.973128	? '|'
-1.274158	? (
-1.371068	? *
-1.672098	? ++
-1.973128	? -
-0.9317352	? 0	-1.043743
-1.496007	? 1	-0.5910646
-1.973128	? 124
-1.973128	? 1l
-1.973128	? 255
-1.973128	? 256
-1.672098	? 3
-1.973128	? 32
-1.672098	? 8	-0.4607309
-1.973128	? 9858122
-1.973128	? </s>
-1.973128	? F
-1.973128	? FILENAME_MAX
-1.973128	? H
-1.973128	? H_1
-1.672098	? I	-0.4600879
-1.672098	? L	-0.4488645
-1.672098	? O
-1.973128	? RGB
-1.672098	? T	-0.3474874
-1.973128	? a
-1.496007	? d
-1.973128	? e
-1.672098	? g
-1.496007	? glu	-0.4471581
-1.496007	? i	-0.4729851
-1.496007	? k
-1.496007	? n
-1.672098	? o	-0.39794
-1.496007	? p	-0.3895513
-1.973128	? putchar
-1.973128	? q
-1.973128	? r
-1.973128	? s
-1.973128	? strlen
-1.973128	? t
-1.672098	? u
-1.973128	? v
-1.973128	? x
-1.973128	? ~
0	?" "8!@dP,!!o+fb"
-0.9444827	A )	-0.1043324
-1.643453	A +
-1.643453	A +=
-0.8653014	A ,
-0.7403627	A ->	-0.772399
-0.4673614	A ;	-0.188395
-0.9444827	A =
-1.643453	A J
-1.643453	A L
-1.643453	A R
0	Acce </s>
0	Alan Turing
-0.6901961	B &	-0.07444149
-1.690196	B &&
-0.6488034	B (	-0.4302552
-0.9912261	B )	-0.5414351
-1.389166	B ,
-0.7871061	B ->	-0.772399
-1.389166	B ;	-0.2830672
-1.213075	B =
-1.690196	B J
-1.690196	B L
-0.9912261	B R	-0.4276107
0	BUFSIZ )
-1.389166	C &
-0.6110148	C (	-0.5778554
-0.9912261	C )	-0.2804236
-1.213075	C *	-0.4736189
-1.389166	C +
-1.690196	C +=
-1.088136	C ,
-1.389166	C -
-1.389166	C /	-0.4366926
-1.690196	C :
-1.389166	C ;
-1.690196	C <
-1.389166	C =
-1.389166	C ==
-1.088136	C >
-1.690196	C J
-1.690196	C R
-1.690196	C [
-1.690196	C ^
-0.30103	COLS -
-0.30103	COLS /
-1.556303	D %
-1.255273	D &&
-1.079181	D (
-1.556303	D )
-1.556303	D ,
-1.556303	D -=
-1.556303	D </s>
-1.556303	D =
-1.556303	D ?
-1.556303	D L
-0.9542425	D [	-0.2934505
-0.7781513	D c	-0.4086639
-0.7781513	D d	-0.430496
-0.8573325	D e	-0.6815959
-1.255273	D f
0	DefaultGC (
0	DefaultVisual (
0	Display *
-0.8750613	E (	-0.2988562
-1.477121	E )
-0.4771213	E *	-0.6635533
-1.477121	E *=
-1.477121	E +
-0.7781513	E ,	-0.2197524
-0.7781513	E ;	-0.2038859
-1	E =
0	E0 (
0	E3 (	-0.46836
-0.3424227	EOF )	-0.1578572
-1.041393	EOF +
-0.7403627	EOF ;
-0.5642715	EOF ]	-0.5472381
0	ETIANMSURWDKGOHVF:L:PJBXCYZQ::54:3:::2&:+::::16=/:::(:7:::8:90" </s>
0	EX (
-1.322219	F %
-1.322219	F &
-0.6232493	F (	-0.3704478
-1.623249	F )
-1.146128	F *	-0.4340685
-1.623249	F +
-0.845098	F ,	-0.164434
-0.9242793	F -	-0.6105481
-1.623249	F /
-1.623249	F :
-1.623249	F ;
-1.322219	F <
-0.845098	F =
-1.623249	F >>
0	F0 (	-0.462633
0	F1 (	-0.462633
0	F2 (
0	FILE *	-0.3882396
0	FILENAME_MAX :
0	FV (
-0.30103	F_ )
-0.30103	F_ ,
-0.161368	G (	-0.2060774
-1.462398	G )
-1.462398	G ,
-0.6173	G [
-1.477121	H %
-1.477121	H &
-1.778151	H (
-1.477121	H )
-1	H *	-0.162809
-1.778151	H +
-1.778151	H ++
-0.8750613	H ,	-0.1823203
-1.477121	H -
-1.778151	H --
-1.30103	H /
-0.6642079	H ;	-0.6015449
-1.778151	H <
-1.778151	H </s>
-1.778151	H <<
-0.8239087	H =
-1.778151	H >>
-1.477121	H ?
-1.778151	H R
-1.477121	H ]	-0.3756636
0	HP (
0	HY (
0	H_1 )
-1.716003	I &
-0.60206	I (	-0.1550293
-1.238882	I )	-0.4131297
-1.716003	I *
-1.238882	I +
-1.716003	I ++
-1.414973	I ,
-1.414973	I -	-0.4721954
-1.414973	I :
-0.9378521	I ;	0.01796283
-1.716003	I <
-0.6746107	I =
-1.113943	I ==
-1.716003	I ?
-1.716003	I [
-0.2688453	J (	-0.1448872
-1.414973	J ,
-1.113943	J </s>
-1.113943	J =
-0.7160034	J [
-1.113943	J }
-1.447158	K !=	-0.4313638
-1.748188	K %
-0.7067953	K (	-0.5364491
-0.9700368	K )	-0.3258293
-1.748188	K *
-1.748188	K ++
-1.748188	K +=
-1.271067	K ,
-0.5177391	K ->	-0.5446118
-1.146128	K ;	-0.1069759
-1.748188	K <
-1.447158	K </s>
-0.9700368	K =	-0.1726535
0	KrgR'8@c]!%-q9V.3fa[E8X%dY'w!#H <P~6"
-2.103804	L %=
-1.626683	L (
-1.149561	L )	-0.1331441
-2.103804	L *
-1.802774	L +
-2.103804	L ++
-0.3962336	L ,	-0.6713315
-1.200714	L -	-0.1255913
-2.103804	L <
-2.103804	L </s>
-1.501744	L =
-1.802774	L ==
-2.103804	L >
-1.802774	L >>
-2.103804	L >>=
-2.103804	L ?
-2.103804	L [
-1.325652	L ]	-0.7220113
-1.062411	L d	-0.8734978
-1.258706	L e	-0.6653417
-1.501744	L f
-1.149561	L t	-0.1532284
-0.4771213	LINES -
-0.4771213	LINES ;
-0.4771213	LINES ||
0	LP (
0	L_tmpnam )
-1.518514	M &&
-0.5642715	M (	-0.4581258
-1.041393	M )
-1.518514	M *=
-1.518514	M +=
-0.916454	M ,
-1.518514	M -=
-1.518514	M .
-1.217484	M ;
-1.518514	M <
-1.217484	M </s>
-0.916454	M =
-1.518514	M ==
-1.518514	M >
-1.518514	M qN
0	M8q;k' N_7vN
0	MJ 24
0	MK6lM L
0	McPc %
0	MkQN 77
-1.69897	N %
-1.69897	N &
-0.3565473	N (	-0.2046022
-1.09691	N )
-1.69897	N *
-0.7447275	N ,	-0.9851084
-1.69897	N ;
-1.69897	N <
-1.69897	N </s>
-1.221849	N =
-1.69897	N McPc
-1.39794	N [
-1.39794	N ]
-1.69897	N oNS
0	N4 RlMG
0	N8b %
0	N9 m
0	N9b %
0	NULL )	-0.5380684
0	NUO <
0	N_1' 5
0	N_7vN 'nSM8
-1.662758	O %
-1.963788	O &
-1.963788	O &&
-0.8176598	O (	-0.3476849
-0.9223952	O )	-0.2487092
-1.361728	O +
-1.486667	O ++
-1.361728	O ,
-1.486667	O --	-0.3187588
-1.662758	O ->
-1.963788	O 8
-1.486667	O :
-1.361728	O ;	-0.2565187
-1.486667	O <	-0.4676454
-1.662758	O </s>
-0.5835766	O =	-0.3985104
-1.662758	O ?
-1.963788	O Q
-1.963788	O ^
-1.963788	O ckQaOrON
-1.963788	O j
-1.963788	O jQ
-1.963788	O sM
-1.963788	O {
-1.963788	O ~
-0.4149733	O0 +=	-0.3812343
-1.113943	O0 ,
-0.5118834	O0 -	-0.2977523
-0.6368221	O0 =
-0.845098	O1 )
-0.845098	O1 *
-0.544068	O1 ,
-0.845098	O1 =
-0.845098	O1 >
-0.845098	O1 ]
-0.845098	O2 *
-0.845098	O2 ,
-0.845098	O2 -
-0.845098	O2 /
-0.544068	O2 =
-0.845098	O2 >
-0.4771213	O3 )
-0.7781513	O3 -
-0.7781513	O3 /
-0.7781513	O3 </s>
-0.7781513	O3 =
0	O3NF (
-0.39794	O4 *
-0.69897	O4 +
-0.69897	O4 =
-0.69897	O4 |
-0.4771213	O5 )
-0.7781513	O5 +
-0.4771213	O5 ,
-0.7781513	O5 [
-0.60206	O6 +
-0.30103	O6 ,
-0.60206	O6 =
-0.60206	O7 )
-0.60206	O7 ,
-0.60206	O7 =
-0.60206	O7 Q
-0.4771213	O8 *
-0.4771213	O8 +
-0.4771213	O8 =
-0.1760913	O9 --
-0.4771213	O9 =
0	OMQ ]
0	OMaMch &
0	OMp RmPQ
0	ON8r %
-0.7781513	OO )
-1.079181	OO +=
-0.7781513	OO ,
-0.7781513	OO -
-1.079181	OO <
-0.7781513	OO =
-1.079181	OO ==
-1.079181	OO >
0	O^ln ;b'
-0.9542425	O_ &
-0.05115252	O_ (	-0.4206705
-0.1249387	O_o )
-0.60206	O_o ,
0	OaaD %
0	Ok </s>
0	On %
0	OsR _
-0.3832167	P (	-0.1676459
-0.860338	P )
-1.462398	P +=
-0.9852768	P ,
-1.161368	P 1	-0.363612
-1.161368	P ;
-1.161368	P =
-1.462398	P >=
-1.462398	P [
-1.462398	P i
-1.973128	Q &
-1.973128	Q &&
-0.6307052	Q (	-0.3139394
-0.8269998	Q )	-0.2231651
-1.496007	Q *	-0.4674209
-1.496007	Q ,
-1.973128	Q -
-1.496007	Q ;	-0.2830672
-1.672098	Q </s>
-1.973128	Q <=
-1.194977	Q =
-1.973128	Q ?
-1.973128	Q O
-1.973128	Q OO
-1.973128	Q Ok
-1.973128	Q Q4
-1.12803	Q [	-0.8846719
-0.7690079	Q ]	-0.0469706
-1.194977	Q ^
-1.973128	Q __
-1.672098	Q write	0
-1.079181	Q0 &&
-0.7781513	Q0 )
-0.60206	Q0 +
-0.7781513	Q0 +=
-1.079181	Q0 ,
-0.60206	Q0 =	-0.4224591
-0.7781513	Q1 )
-0.4771213	Q1 ,
-0.30103	Q1 =
-0.845098	Q2 &&
-0.845098	Q2 *
-0.544068	Q2 +	-0.4246895
-0.845098	Q2 ,
-0.544068	Q2 =
-0.7781513	Q3 %
-0.4771213	Q3 ,	-0.4760743
-0.4771213	Q3 =
-0.7781513	Q3 >>
-0.60206	Q4 &&
-0.60206	Q4 ,
-0.60206	Q4 --
-0.60206	Q4 =
-0.60206	Q5 +
-0.30103	Q5 ,
-0.60206	Q5 =
-0.60206	Q6 +=
-0.60206	Q6 ,
-0.60206	Q6 </s>
-0.60206	Q6 =
-0.60206	Q7 )
-0.60206	Q7 ;
-0.60206	Q7 =
-0.60206	Q7 O
-0.4771213	Q8 ,
-0.4771213	Q8 ;
-0.4771213	Q8 =
-0.30103	Q9 ,
-0.30103	Q9 =
0	QH (
0	QL (
-0.7781513	QO &&
-0.60206	QO *
-1.079181	QO +
-0.7781513	QO ,
-0.4771213	QO =
-0.4771213	QQ )
-0.9542425	QQ *
-0.4771213	QQ +	-0.4149733
-0.9542425	QQ ,
-0.9542425	QQ =
0	QR (	-0.462633
0	QS (	-0.462633
0	Q_ (	-0.175161
0	Qr h
-1.393575	R !
-1.150537	R %	-0.09225266
-1.296665	R (
-0.3328774	R )	-0.6128977
-1.995635	R *
-1.995635	R +
-1.995635	R ++
-1.995635	R +=
-1.217484	R ,	-0.3750394
-1.995635	R ;
-1.995635	R <
-1.217484	R </s>
-1.995635	R =
-1.694605	R D
-1.393575	R K	-0.6039945
-1.995635	R N
-1.995635	R ]
-1.995635	R c
-1.694605	R g
-1.995635	R i
-1.694605	R j	-0.4405275
-1.995635	R k
-1.995635	R l
-1.995635	R o
-1.995635	R s
0	R8 /
0	RAFT )
0	RGB )
0	RI4 4
0	RM ;
0	RMPmSk U
0	RP (
0	RlMG /
0	RmM </s>
0	RmPQ O
0	RootWindow (
-1.556303	S (
-1.079181	S )
-1.556303	S +
-0.8573325	S ,
-0.5149098	S ;	-0.2869904
-1.556303	S =
-0.60206	S ]	-0.8329999
-1.556303	S d
-1.556303	S j
-1.556303	S s
-1.556303	S u
-1.556303	S {
0	SDL_AudioSpec bu
0	SDL_BlitSurface (
0	SDL_CreateRGBSurface (
0	SDL_Delay (
0	SDL_Event bE
0	SDL_FillRect (
0	SDL_Flip (
0	SDL_Init (
0	SDL_LoadWAV (
0	SDL_MixAudio (
0	SDL_OpenAudio (
0	SDL_PauseAudio (
0	SDL_PollEvent (
0	SDL_Rect </s>
0	SDL_SetVideoMode (
0	SDL_Surface *
0	SEEK_SET )	-0.3596049
0	SNH %
0	SOPm R8
0	SPEED *
0	Sec -
0	SlM90 %
0	So long
-1.01424	T (
-1.491362	T *
-1.190332	T ;
-1.190332	T </s>
-1.491362	T I
-1.491362	T Q
-1.491362	T R
-0.5882717	T [	-0.1857019
-1.491362	T _
-0.8893017	T d	-0.6406064
-1.491362	T f
-0.8893017	T l	-0.6506653
-1.491362	T mR
-1.491362	T {
0	TIMESTEP ,
0	TIOCGWINSZ ,
0	TMP_MAX )
0	TmS </s>
0	TmSt 6
0	Turing (
0	Type =
-1.653213	U (
-1.352183	U )
-1.653213	U *=
-1.653213	U +
-1.653213	U +=
-0.8750613	U ,
-1.653213	U 7
-0.39794	U ;	-0.3827443
-0.9542425	U =
-1.653213	U L
-1.653213	U i
-1.176091	U int	-0.4313638
-1.352183	U j	-0.3899711
-1.653213	U l
-1.653213	U u
0	UV_DROP :
0	Uint8Array (
0	Upgrade :
-0.8325089	V !
-1.531479	V )
-0.7533277	V *	-0.4292268
-1.054358	V ,
-1.531479	V ->
-1.531479	V ;
-0.9294189	V =
-1.054358	V F	-0.4839607
-1.230449	V a
-1.531479	V b
-1.531479	V c
-1.230449	V d
-1.531479	V f
-1.531479	V j
-1.531479	V o
-1.531479	V p
-0.6283889	W (	-0.2435446
-0.8502377	W )	-0.1351999
-1.452298	W *	-0.4538339
-1.628389	W +
-1.929419	W +=
-1.151268	W ,	-0.4718613
-1.452298	W -	-0.3985926
-1.327359	W --	-0.4436975
-1.452298	W /
-0.8154756	W ;	-0.3993455
-1.452298	W =
-1.929419	W ==
-1.084321	W R	-0.331383
-1.929419	W S
-1.230449	W [	-0.3903605
-1.929419	W ]
-0.30103	WebSocket (
-0.30103	WebSocket -
0	Window u
-1.897627	X !=
-1.897627	X &
-1.596597	X (
-0.6671782	X )	-0.2332317
-1.596597	X *
-1.420506	X +
-0.6671782	X ,	-0.0625212
-1.897627	X -
-1.897627	X --
-1.897627	X /
-1.897627	X :
-1.295567	X ;	-0.1069759
-1.897627	X <
-1.119476	X </s>
-0.9945371	X =	-0.119194
-1.596597	X S	-0.3187588
-0.9945371	X [	-0.1219228
-1.897627	X ]
-1.897627	X h
-1.897627	X v
0	XCheckWindowEvent (
0	XCreateImage (
0	XCreateSimpleWindow </s>
0	XEvent M
0	XImage *
0	XLookupKeysym (
0	XMapWindow (
0	XOpenDisplay (
0	XPutImage (
0	XSelectInput (
-1.0086	Y (	-0.6621379
-1.10551	Y )	-0.4845437
-1.230449	Y *
-1.70757	Y *=
-1.40654	Y +	-0.4149733
-1.70757	Y +=
-1.10551	Y ,
-1.70757	Y -
-1.40654	Y ->
-0.9294189	Y ;	-0.651044
-0.6661775	Y =	-0.1847282
-1.40654	Y S	-0.4393327
-0.7533277	Y [	-0.4507923
-0.7923917	Z (	-0.2130875
-1.190332	Z )	-0.3596049
-1.190332	Z *=
-1.491362	Z +
-1.190332	Z +=
-0.7923917	Z ,	-0.2144668
-1.491362	Z -
-1.491362	Z -=
-0.8893017	Z ;	-0.296892
-0.7132105	Z =	-0.1662795
-1.491362	Z ?
-1.491362	Z W
-1.761928	[ (
-2.460898	[ +
-1.381717	[ -	-0.1555545
-1.460898	[ 0	-1.024878
-2.460898	[ 01
-1.138679	[ 1	-1.219846
-2.460898	[ 17
-1.557808	[ 2	-0.9077304
-2.460898	[ 204
-1.460898	[ 3	-0.90309
-2.159868	[ 32	-0.4436975
-2.460898	[ 36
-1.419505	[ 4	-1.005604
-1.761928	[ 5	-0.6754889
-2.460898	[ 516
-2.460898	[ 5200
-1.983777	[ 6	-0.5563025
-2.460898	[ 65536
-2.159868	[ 7	-0.4057654
-1.983777	[ 8	-0.5686362
-2.460898	[ 80
-2.460898	[ 9
-2.159868	[ 97	0
-2.460898	[ 99
-2.460898	[ 9999
-1.761928	[ </s>
-2.460898	[ B
-2.159868	[ EOF	-0.3388186
-2.159868	[ H	-0.462398
-1.557808	[ L	-0.4049504
-2.159868	[ O	-0.4578161
-2.460898	[ Q6
-2.159868	[ W	-0.4615162
-2.159868	[ X
-1.460898	[ ]	-0.8239086
-1.159868	[ _	-1.186949
-2.460898	[ _Q
-1.062958	[ __	-0.8129134
-2.460898	[ a
-2.460898	[ b
-2.460898	[ bi
-2.460898	[ c
-1.6158	[ d	-0.2351654
-2.460898	[ e
-1.761928	[ g	-0.632626
-1.858838	[ h	-0.5830368
-1.381717	[ i	-1.029056
-1.761928	[ j	-0.3754327
-1.761928	[ k	-0.3817532
-2.159868	[ l
-2.159868	[ leu	-0.1760913
-2.159868	[ m	-0.4618813
-1.858838	[ n	-0.2939681
-2.159868	[ not
-2.460898	[ o
-1.858838	[ optind	-0.2218488
-1.858838	[ p	-0.2895502
-1.761928	[ r	-0.1853319
-2.460898	[ s
-2.159868	[ t
-2.460898	[ tgANs
-2.159868	[ u	-0.4690785
-2.460898	[ val
-2.159868	[ x
-1.118475	[ xor	-1.070243
-2.159868	[ y
0	[-d] file1
0	\"" "%s"
0	\n\t" ,
-2.017033	] !=	-0.4313638
-2.017033	] %
-2.017033	] &	-0.4697601
-2.494155	] &&
-2.494155	] '2O
-2.494155	] '_3a
-2.193125	] (
-0.90309	] )	-0.5321132
-1.380211	] *	-0.4450818
-2.193125	] *=	-0.4573772
-1.452762	] +	-0.1279618
-1.716003	] ++	-0.1971338
-1.795185	] +=	-0.1742665
-0.9756407	] ,	-0.241765
-1.649057	] -	-0.2381122
-2.494155	] --
-2.193125	] -=
-1.414973	] .	-1.045228
-2.017033	] /	-0.4673614
-2.494155	] 0
-2.494155	] 6
-2.017033	] :
-0.9259529	] ;	-0.3099237
-2.017033	] <	-0.470827
-1.716003	] </s>
-2.494155	] <<
-0.6812412	] =	-0.4459104
-2.193125	] ==
-1.591065	] >	-0.2477845
-2.494155	] >=
-2.193125	] >>
-2.193125	] ?
-2.494155	] OsR
-2.494155	] [
-2.494155	] ]
-2.017033	] ^
-1.380211	] _	-1.070188
-2.494155	] _o
-2.193125	] g	-0.469822
-2.494155	] h
-2.494155	] k
-2.494155	] k_
-2.494155	] l
-2.494155	] l_
-2.193125	] |
-2.494155	] |=
-2.494155	] ||
-2.494155	] }
-1.612784	^ %
-1.612784	^ 'h(Q]0h#
-1.311754	^ (
-1.612784	^ )
-1.612784	^ *
-1.612784	^ -
-1.612784	^ --
-1.612784	^ /
-1.612784	^ 024
-1.612784	^ 0xfc0
-1.612784	^ 1
-1.612784	^ 10
-1.311754	^ 2
-1.612784	^ 20
-1.612784	^ 255
-1.612784	^ 3
-1.612784	^ 35
-1.612784	^ 3920
-1.612784	^ 4
-1.612784	^ 40
-1.311754	^ 6
-1.612784	^ 61
-1.612784	^ 9
-1.612784	^ I
-1.612784	^ OaaD
-1.612784	^ d
-1.612784	^ f
-1.612784	^ h
-1.311754	^ k
-1.135663	^ l
-1.612784	^ og
-1.135663	^ p	-0.5499623
-1.612784	^ ~
-0.60206	^= *
-0.60206	^= 20
-0.60206	^= _
-0.60206	^= k
-2.742725	_ %
-0.7650015	_ (	-0.9743809
-0.9433846	_ )	-1.097004
-2.441695	_ *
-2.742725	_ +
-2.742725	_ ++
-0.3944203	_ ,	-1.641509
-2.742725	_ -
-2.742725	_ /
-2.742725	_ 6
-2.742725	_ :
-2.265604	_ ;
-2.265604	_ <	-0.4644402
-1.701332	_ </s>
-2.140665	_ =	-0.2947066
-2.742725	_ >>
-2.441695	_ ?
-2.742725	_ C
-2.742725	_ E
-2.742725	_ N
-2.742725	_ O
-1.079967	_ [	-1.28822
-2.742725	_ ^=
-1.018449	_ _	-1.524962
-2.742725	_ _8
-2.441695	_ __	0.1249388
-2.441695	_ a
-2.140665	_ b	-0.2706473
-2.742725	_ c
-2.742725	_ d
-2.265604	_ f	-0.4665282
-2.742725	_ g
-2.441695	_ n	-0.4130833
-2.742725	_ o
-2.441695	_ p
-2.742725	_ pQaM8m
-2.441695	_ r
-1.839635	_ s	-0.7761727
-2.742725	_ v
-2.441695	_ w
-2.742725	_ {
0	_){putchar(_);}O" "\40main(){O"
-0.9542425	_0 &&
-0.9542425	_0 )
-0.6532125	_0 *
-0.9542425	_0 +=
-0.9542425	_0 ,
-0.9542425	_0 /
-0.6532125	_0 =	-0.4224591
0	_8 (
0	_KK3 +
-0.69897	_O %
-1	_O %=
-0.69897	_O )	-0.466791
-1	_O +
-1	_O +=
-0.69897	_O =
-1	_O >
-0.5228788	_Q %	-0.469822
-1	_Q )
-0.69897	_Q +=
-1	_Q /
-1	_Q </s>
-0.69897	_Q =
0	_Zadat57 <
-1.556303	__ &	-0.4584792
-1.857332	__ &&
-0.1249387	__ (	-1.663377
-1.556303	__ )
-1.857332	__ *
-1.857332	__ +
-1.556303	__ +=	-0.429539
-1.857332	__ ,
-1.857332	__ ;
-1.556303	__ </s>
-1.857332	__ <<
-1.556303	__ =
-1.857332	__ >>
-1.857332	__ >>=
0	__LINE__ *
-0.30103	__STDC_VERSION__ &&
-0.30103	__STDC_VERSION__ >
-0.30103	__STDC__ )
-0.30103	__STDC__ </s>
0	__TIME__ ;
0	__VA_ARGS__ }
-0.1760913	___ (
-0.4771213	___ )
-0.02227639	____ (	-1.273868
-1.30103	____ </s>
-0.30103	_a %
-0.30103	_a </s>
-0.30103	_f :
-0.30103	_f ;
0	_h *
0	_o ptj9
0	_t <
0	_z (
-2.029384	a %
-1.552263	a &
-1.029384	a (	-0.1461407
-1.427324	a )	-0.2510062
-2.029384	a *=
-1.552263	a +
-1.728354	a ++	-0.3732251
-2.029384	a +=
-0.8252638	a ,	-0.1438497
-1.552263	a -	-0.4655394
-1.728354	a --
-1.251233	a ->	-0.6966782
-2.029384	a .
-2.029384	a /
-1.251233	a ;	0.01796283
-1.552263	a <	-0.4676454
-1.728354	a </s>
-0.7989349	a =	-0.1179041
-2.029384	a ?
-1.427324	a L	-0.5627143
-1.728354	a S
-1.728354	a W
-2.029384	a X
-1.728354	a Z
-1.075141	a [	-0.3353295
-1.552263	a ]
-2.029384	a {
0	a_ (
0	abs (	-0.4581258
0	ageX -
-0.544068	ala *	-0.4727388
-0.845098	ala ;
-0.845098	ala asn
-0.3679768	ala not	-0.4405275
-0.1890562	and )	-0.3718346
-1.230449	and *
-1.531479	and ;
-1.531479	and asp
-1.531479	and gln
-1.230449	and his	-0.2340832
-1.531479	and pyl
-1.531479	and sec
-1.531479	and tla
-1.531479	and tyr
-1.531479	and xle
-0.30103	ar )
-0.30103	ar ,
-0.09691001	arg )
-0.69897	arg =
-0.60206	argh )
-0.30103	argh ,
-0.60206	argh ;
-1.113943	asn ,
-0.07255067	asn .	-0.8405344
-1.113943	asn ;
-0.1760913	asp -	-0.4738435
-0.4771213	asp =
-0.60206	asx )
-0.60206	asx +
-0.60206	asx =
-0.60206	asx >
0	au )	-0.4753677
0	ay </s>
-1.325164	b !	-0.3228146
-2.170262	b %
-2.170262	b &
-1.869232	b &&
-1.568202	b (
-1.170262	b )	-0.7135959
-2.170262	b *
-1.869232	b *=
-2.170262	b ++
-1.216019	b ,	-0.1694178
-1.869232	b --
-1.39211	b ->	-0.409221
-2.170262	b .
-1.056318	b ;	-0.6141514
-1.693141	b <
-1.325164	b </s>
-1.869232	b <<	-0.4573772
-0.9149892	b =	-0.1975991
-2.170262	b >
-1.869232	b >>
-1.39211	b B	-0.7459666
-2.170262	b D
-1.39211	b I	-0.4423591
-2.170262	b O
-2.170262	b P
-1.471292	b W	-0.1845244
-1.325164	b X	-0.0997593
-2.170262	b Z
-1.170262	b [	-0.9623479
-2.170262	b ]
-1.869232	b ^
-1.568202	b bf	-0.3187588
-2.170262	b bg
-2.170262	b bt
-2.170262	b h
-2.170262	b j
-2.170262	b kg
-2.170262	b n
-2.170262	b o
-1.869232	b q
-2.170262	b u
0	b1g (
0	b4 </s>
0	b5g (
-0.69897	bA ,
-0.69897	bA ;
-0.69897	bA <<
-0.39794	bA =	-0.4759784
-0.60206	bB )
-0.60206	bB ;
-0.30103	bB =
-0.60206	bC *
-0.60206	bC ,
-0.60206	bC /
-0.60206	bC =
-0.4771213	bD *
-0.4771213	bD ,
-0.4771213	bD =
-0.69897	bE )
-0.2218488	bE .
-0.69897	bE ;
0	b\nq(%s)\n" </s>
0	ba (
-0.7781513	bb )
-0.7781513	bb +
-0.7781513	bb +=
-0.7781513	bb ;
-0.4771213	bb =
0	bc (
-0.1760913	bd (
-0.4771213	bd </s>
-0.90309	be )
-0.60206	be ,	-0.4764236
-0.20412	be ;	-0.6891251
-0.60206	bf &&	-0.5753258
-0.4771213	bf )	-0.2370384
-0.4771213	bf ;	-0.2884959
-1.079181	bf =
-0.60206	bg &&
-0.60206	bg )
-0.60206	bg ;
-0.60206	bg =
-0.1249387	bh (	-0.4740125
-0.60206	bh </s>
0	bh' l
-0.30103	bi )
-0.30103	bi ]
0	binary "
0	bj (	-0.5932987
-0.60206	bk &&
-0.30103	bk ,
-0.60206	bk ;
-0.1760913	bl (	-0.4402891
-0.4771213	bl }
-0.30103	bm =
-0.30103	bm ==
-0.30103	bn ,
-0.30103	bn =
-0.30103	bo )
-0.30103	bo =
0	bp (
-0.30103	bq (
-0.30103	bq }
0	br ,
-0.02632894	break ;	-0.6324223
-1.230449	break H
-0.1760913	bs )
-0.4771213	bs ;
-0.7781513	bt ,
-0.4771213	bt ;
-0.4771213	bt =
-0.7781513	bt >
-0.7781513	bu *
-0.4771213	bu ,
-0.4771213	bu =
-0.7781513	bu >
-0.60206	buf )
-0.60206	buf ,
-0.60206	buf ;
-0.60206	buf [
-0.30103	bv ,
-0.30103	bv ;
0	bw ,
-0.30103	bx )
-0.30103	bx ;
-0.7781513	by ,
-0.7781513	by =
-0.30103	by ?	-0.4230715
-0.7781513	by ||
-0.69897	bz </s>
-0.69897	bz <<
-0.39794	bz =
-0.69897	bz >>
-1.982271	c "
-1.982271	c %
-1.982271	c &
-0.8361432	c )	-0.8587155
-1.50515	c *
-1.982271	c +
-1.50515	c ++
-0.9408786	c ,	-0.1302111
-1.681241	c -
-1.982271	c --
-1.982271	c -=
-1.681241	c .
-1.380211	c :	-0.2905645
-1.20412	c ;	-0.1734626
-1.50515	c <
-1.50515	c </s>
-0.6600519	c =	-0.2941271
-1.380211	c ==
-1.681241	c >
-1.982271	c L
-1.982271	c R
-1.50515	c W
-1.681241	c Y
-1.982271	c Z
-1.681241	c ^
-1.982271	c |
-1.982271	c ||
-0.30103	c8 +
-0.30103	c8 7
0	c9 .
0	cN mkM
0	c_X </s>
0	c_kah%0d9`b' /
0	calloc (
-1	case 'd'
-1	case 0
-1	case 10
-1	case 123
-1	case 35
-0.69897	case 36	0
-1	case 40
-1	case 58
-1	case 61
0	cb ,
0	ch )
-0.136838	char *	-0.421366
-1.568202	char J
-1.568202	char N
-1.568202	char X
-1.568202	char buf
-1.267172	char c
-1.568202	char o
-1.568202	char p
-1.568202	char pro
-1.568202	char ser
0	ckQaOrON epne
0	close (
-1.041393	const ala	-0.2340832
-0.4973246	const and	-0.1197991
-1.342423	const char
-1.342423	const gln
-1.041393	const his	-0.2340832
-1.041393	const not	-0.449969
-0.8653014	const pro	-0.20412
-1.041393	const ser
-1.041393	const thr
0	continue ;
0	cos (
0	cq *
0	crea "
0	curs_set (
-0.7781513	cys )
-0.4771213	cys -
-0.7781513	cys =
-0.4771213	cys >>	-0.4449366
-1.108773	d )	-0.695397
-1.523746	d *
-1.620656	d *=
-1.377618	d +	-0.1234032
-1.921687	d ++
-1.181324	d +=	-0.1622148
-0.9004972	d ,	-0.3458104
-1.444565	d -
-1.444565	d -=	-0.3713175
-2.222717	d ->
-2.222717	d .
-2.222717	d /
-1.745595	d /=
-2.222717	d 9
-1.921687	d :
-1.108773	d ;	-0.1352515
-1.745595	d <
-2.222717	d </s>
-2.222717	d <<
-2.222717	d <=
-0.8247765	d =	-0.3158959
-2.222717	d ==
-2.222717	d >
-2.222717	d >=
-1.921687	d >>
-1.745595	d ?
-2.222717	d R
-1.143535	d W	-0.2958903
-1.745595	d X
-1.523746	d Y	-0.6146491
-1.921687	d [
-1.745595	d ]	-0.4600879
-2.222717	d ^
-2.222717	d xv
-2.222717	d |
-1.921687	d ||
0	d2 xa6
0	d77sNOsd 8
-0.60206	d8 (
-0.60206	d8 ,
-0.60206	d8 _
-0.60206	d8 a
0	d8ak =
0	dA )
0	dB )
0	dC </s>
0	d_C f3
0	dat </s>
0	data )
0	default :
0	defined __STDC_VERSION__
-0.69897	do ,
-0.09691001	do {	-0.5398172
0	double </s>
0	dstr )	-0.461381
0	dup (
0	dup2 (
-1.40654	e (	-0.2935312
-1.163502	e )	-0.6416193
-2.0086	e *
-2.0086	e *=
-2.0086	e +
-1.163502	e +=
-0.8624721	e ,	-0.3476406
-2.0086	e -
-2.0086	e -=
-0.9294189	e ->	-0.4771211
-1.531479	e .
-2.0086	e :
-0.8325089	e ;	-0.6092538
-1.70757	e <
-2.0086	e </s>
-0.8624721	e =	-0.2273495
-1.70757	e W
-1.70757	e Y	-0.3928004
-1.0086	e [	-0.06414696
-2.0086	e ]
-2.0086	e kf
-2.0086	e {
0	eep ,
-1.462398	efine D
-1.462398	efine E
-1.462398	efine E0
-1.462398	efine EX
-1.462398	efine F0
-1.462398	efine F1
-1.462398	efine F2
-1.462398	efine FV
-1.462398	efine H
-1.462398	efine HP
-1.462398	efine HY
-1.462398	efine I
-1.462398	efine K
-1.462398	efine LP
-1.462398	efine M
-1.462398	efine N
-1.462398	efine O
-1.462398	efine P
-1.462398	efine Q
-1.462398	efine QH
-1.462398	efine QL
-1.462398	efine R
-1.462398	efine RP
-1.462398	efine S
-1.462398	efine T
-1.462398	efine U
-1.462398	efine W
-1.462398	efine Z
-1.462398	efine break
-0.7201593	else </s>
-1.322219	else V
-1.322219	else goto
-1.322219	else z
-0.1760913	else {	-0.1124222
0	elta_u )
0	elta_v )
0	epne luelue
0	er </s>
0	err (	-0.7722254
0	errx (
0	exit (	-0.691156
0	exp (	-0.5998862
0	extern void
-1.919078	f &
-1.919078	f &&
-0.8051347	f (	-0.4020835
-0.8776854	f )	-0.2763136
-0.6638056	f ,	-0.2673413
-1.919078	f .
-1.220108	f ;
-1.919078	f </s>
-1.919078	f <<
-0.8398969	f =	-0.1598106
-1.919078	f ?
-1.919078	f EOF
-0.9648356	f L	-0.9606541
-1.919078	f R
-1.618048	f X
-1.919078	f Z
-1.919078	f defined
-1.919078	f |
-1.618048	f }
0	f3 ]
0	fabs (
0	fclose (
0	fgetc (
0	fgets (
0	file1 file2"
0	file2" ,
0	flash (
-0.845098	float </s>
-0.845098	float C
-0.845098	float I
-0.845098	float K
-0.845098	float N
-0.845098	float V
-0.845098	float a
0	float_ )
0	flu ,
0	fopen (
-0.02413368	for (	-0.6357246
-1.267172	for </s>
0	fputc (
0	fread (
0	free (	-0.29479
0	fscanf (
0	fseek (
0	function (
0	fw )	-0.1835136
-1.778151	g %
-1.60206	g &
-2.079181	g &&
-2.079181	g (
-1.30103	g )	-0.2370384
-1.079181	g *	-0.5059849
-1.477121	g *=
-1.234083	g +	-0.1409884
-1.60206	g ++	-0.5734149
-1.778151	g +=
-1.176091	g ,	-0.1132815
-2.079181	g --
-1.477121	g -=
-2.079181	g /
-1.778151	g 9
-2.079181	g :
-0.7174534	g ;	-0.5656138
-1.477121	g <	-0.2947358
-2.079181	g </s>
-2.079181	g <<
-0.6478175	g =	-0.3178767
-2.079181	g ==
-2.079181	g >>
-2.079181	g Q
-2.079181	g [
-2.079181	g ]
-1.778151	g ^
-2.079181	g ||
0	getC "
0	getch (
0	getchar (	-0.5652279
0	getopt (
-0.50515	gln )	-0.5746724
-0.30103	gln ;	-0.7601885
-0.90309	gln =
-1.20412	gln ==
-0.30103	glu )	-0.5746724
-0.5228788	glu :	-0.5915946
-1	glu <<
-1	glu =
-0.30103	glx %
-0.30103	glx =
0	gly (	-0.8413649
0	go )
0	goofy !
-0.1249387	goto O	-0.5827549
-0.60206	goto o
-1.146128	h %
-1.845098	h &
-1.845098	h &&
-1.845098	h 'lQ
-1.367977	h (	-0.4727627
-1.544068	h )
-1.367977	h *	-0.5932505
-1.845098	h *=
-1.544068	h +	-0.4246895
-1.845098	h ++
-1.845098	h +=
-1.146128	h ,	-0.219402
-1.146128	h -	-0.2052071
-1.367977	h .	-0.4402946
-1.845098	h /
-1.845098	h 9
-1	h ;	-0.350014
-1	h <<	-0.07269912
-0.8037053	h =	-0.1835544
-1.845098	h >
-1.845098	h >>
-1.845098	h ?
-1.845098	h Q
-1.845098	h ^
-1.845098	h ^=
-1.845098	h b
-1.544068	h |
0	halting )
0	height =
-0.3679768	his )	-0.3596049
-0.845098	his ;
-0.3679768	his [	-0.4618276
0	ho )
0	href .
-1.546131	i %	-0.2900346
-1.847161	i &
-1.847161	i &&
-0.8929187	i (	-0.9204342
-1.06901	i )	-0.2694955
-1.421193	i *	-0.1125547
-2.324282	i *=
-1.546131	i +	-0.1709516
-1.625312	i ++	-0.1179526
-1.847161	i +=
-0.8771244	i ,	-0.4047184
-1.421193	i -	-0.2911217
-2.324282	i --
-1.421193	i /	-0.2658656
-2.023252	i :
-1.178154	i ;	0.002168566
-1.093834	i <	-0.1005956
-2.324282	i </s>
-2.324282	i <=
-0.8471612	i =	-0.1437055
-2.324282	i ==
-2.023252	i >
-1.847161	i >>
-1.847161	i ?
-2.023252	i R
-1.722222	i S	-0.4771213
-1.625312	i ]	-0.1638568
-2.324282	i |
-0.01240926	if (	-0.3722098
-1.550228	if </s>
-0.69897	ile !=
-0.69897	ile +
-0.69897	ile --
-0.69897	ile ;
-0.69897	ile =
0	in tYv
0	initscr (
-1.30103	int )	-0.3004462
-1.124939	int *
-1.124939	int </s>
-1.90309	int F
-1.90309	int G
-1.90309	int H
-1.425969	int I
-1.90309	int K
-1.90309	int L
-1.90309	int M
-1.90309	int P
-1.60206	int X
-1.90309	int _
-1.90309	int a
-1.90309	int bk
-1.90309	int bm
-1.90309	int bs
-1.90309	int bt
-1.90309	int bw
-1.90309	int by
-1.425969	int c	-0.424269
-1.90309	int h
-1	int i	-0.8015239
-1.425969	int j	-0.3899711
-1.425969	int k
-1.30103	int l	-0.2423845
-1	int main	0.3756636
-1.90309	int met
-1.90309	int o
-1.90309	int op
-1.90309	int p
-1.90309	int puts
-1.90309	int t
-1.60206	int u
-1.90309	int v
-1.425969	int x	-0.3406446
-1.60206	int y	-0.414222
0	int_ )
0	intw )
0	ioctl (
0	ipt >
-1.518514	j %	-0.5797836
-1.694605	j &&
-1.041393	j )	-0.4497337
-1.995635	j *
-1.518514	j *=
-1.150537	j +	-0.3541335
-1.995635	j ++
-1.518514	j +=
-0.7403627	j ,	-0.3772384
-1.296665	j -	-0.2052071
-1.995635	j /
-1.995635	j /=
-1.995635	j :
-1.393575	j ;	-0.1069759
-1.092545	j <
-1.995635	j </s>
-0.7403627	j =	-0.2463678
-1.694605	j >
-1.518514	j ?
-1.296665	j S	-0.4259687
-1.995635	j ]
-1.995635	j kd
-1.995635	j ||
0	jQ O7
0	j_la _
0	j_laaaN :
-1.913814	k %
-1.913814	k (
-0.9138138	k )	-0.03738558
-1.913814	k *
-1.913814	k *=
-1.214844	k +
-1.436693	k ++	-0.3732251
-1.913814	k +=
-0.7377226	k ,	-0.3585642
-1.311754	k -	-0.2927889
-1.913814	k --
-1.913814	k -=
-1.436693	k /	-0.3741371
-1.913814	k :
-1.436693	k ;
-1.612784	k <
-1.612784	k </s>
-0.7998705	k =	-0.05928122
-1.913814	k >
-1.913814	k >>
-1.913814	k R
-1.436693	k [	-0.4443582
-1.436693	k ]	-0.5850267
-1.913814	k ^
-1.913814	k ^=
-1.913814	k g
-1.913814	k |=
-1.913814	k }
0	k8b %
0	k9 b1g
0	kP8 ;
0	k_ 7
0	kccMcOP &
0	kckQ ,
0	kd 7
0	ket Sec
-0.30103	key .
-0.30103	key :
0	keysym .
0	kf _a
0	kg </s>
-1.676694	l %	-0.4232459
-1.977724	l &&
-1.375664	l (
-0.9777236	l )	-0.7570347
-1.199572	l *
-1.977724	l *=
-1.676694	l +
-1.977724	l ++
-1.375664	l +=
-0.8985423	l ,
-1.375664	l -	-0.2225013
-1.977724	l -=
-1.977724	l /
-0.8637803	l ;	-0.4296966
-1.676694	l <
-1.676694	l </s>
-1.977724	l <<
-0.8315955	l =	-0.1307023
-1.977724	l ==
-1.977724	l >
-1.977724	l >>
-1.676694	l S
-1.676694	l ]
-1.676694	l ^
-1.977724	l mq9l8b
-1.977724	l peoqemtemw
-1.977724	l v
-1.977724	l vQ
-1.977724	l |
-0.30103	lM :
-0.30103	lM ;
0	lNRmO_loa8 %
0	lQ h
0	lQoOa N9
0	l_ %
0	le )
0	lea ,
-0.60206	leu ;
-0.60206	leu =
-0.30103	leu ]
0	lf )
0	location .
-1.278754	long </s>
-1.278754	long A
-1.278754	long L
-1.278754	long Q8
-1.278754	long __
-1.278754	long a
-1.278754	long b
-1.278754	long c
-1.278754	long h
-1.278754	long j
-0.5797836	long long
-1.278754	long q
-1.278754	long y
-0.9777236	long z	-0.4313638
0	lpeoqempepneu e
0	lrand48 (
-0.30103	lu ,
-0.30103	lu =
0	luN ]
0	luelue lpeoqempepneu
-0.1760913	lv ,
-0.4771213	lv =
0	lwg +
-0.6532125	lys )	-0.4270975
-0.9542425	lys +=
-0.9542425	lys -=
-0.4771213	lys =	-0.4725316
-0.9542425	lys ==
-0.9542425	lys >=
-1.763428	m %
-1.763428	m &&
-1.286307	m (	-0.5894891
-0.9852768	m )
-1.462398	m *	-0.4683118
-1.462398	m +
-1.763428	m ++
-1.763428	m +=
-0.6173	m ,	-0.417593
-1.763428	m -
-1.763428	m -=
-1.763428	m /
-1.763428	m :
-1.161368	m ;
-1.286307	m <
-1.763428	m </s>
-0.8091855	m =	-0.2171207
-1.286307	m >
-1.462398	m [
-1.763428	m vOwwRor
-0.30103	mR RMPmSk
-0.30103	mR mS
0	mR8 }
0	mRMmO %
0	mRh ^
0	mS ]
0	mageData (
-0.0234811	main (	-0.7348648
-1.278754	main </s>
0	malloc (
0	memcmp (
0	memcpy (
0	memset (
-0.4771213	met )	-0.4762454
-0.9542425	met ;
-0.9542425	met lys
-0.6532125	met main	0.8016324
-0.6532125	met val	-0.4279032
0	mkM :
0	mq9l8b ^
0	mva ,
0	mvaddstr (
0	mvinch (	-0.4645503
0	mvinsch (
-2.093422	n %
-2.093422	n &&
-0.9173304	n )	-0.2876272
-1.394452	n *
-1.31527	n +
-1.6163	n +=
-0.6784483	n ,	-0.3854083
-1.139179	n -	-0.370303
-2.093422	n --
-1.792392	n -=
-1.792392	n /
-2.093422	n :
-0.9794784	n ;	-0.1962334
-1.491362	n <
-1.6163	n </s>
-0.8629727	n =	-0.1193024
-1.248324	n >
-1.792392	n ?
-2.093422	n R
-1.792392	n ]
-1.792392	n |
-2.093422	n }
0	nR ;
0	nRmUd s
0	ndif </s>
-0.30103	new Uint8Array
-0.30103	new WebSocket
0	nk ;
