
\data\
ngram 1=919
ngram 2=5324
ngram 3=2591
ngram 4=1574
ngram 5=934
ngram 6=614
ngram 7=443
ngram 8=338
ngram 9=270

\1-grams:
-2.3485	!	-99
-3.001712	!=	-99
-2.887769	"	-99
-4.302742	"!:E%;!ea!!!WqE0z!f/y}!%!!Qi6!uzt!n}?]!bl!ak!SetR<"	-99
-4.302742	"!pv!;!Hm%Ro4"	-99
-3.457644	""	-99
-3.825621	"#"	-99
-3.825621	"$"	-99
-4.302742	"%."	-99
-4.302742	"%c"	-99
-4.001712	"%d	-99
-4.302742	"%d,%dd%d\n"	-99
-4.302742	"%d\n"	-99
-4.302742	"%da%d,%d\n"	-99
-4.302742	"%da%d\n"	-99
-4.302742	"%dd%d\n"	-99
-4.302742	"%f,%f,"	-99
-3.603772	"%s"	-99
-4.302742	"('A)"	-99
-4.001712	"('A`)"	-99
-4.302742	"(A`)"	-99
-4.302742	"(O**"	-99
-4.302742	")"	-99
-4.302742	")$"	-99
-4.302742	");"	-99
-4.302742	"*"	-99
-4.302742	"*_[512],**p=_,**d,b,q;for(b=0;b"	-99
-4.302742	"*p=#b,P[9999],*d=P,*e[]="	-99
-4.302742	"++<512;p=_+q)_[q"	-99
-4.302742	"-"	-99
-4.302742	"/"	-99
-4.302742	"/*;;	-99
-4.302742	"11\x80"	-99
-4.302742	"258EAFA5-"	-99
-4.302742	"8!@dP,!!o+fb"	-99
-4.302742	"::::::::::::?_::::\"::.::::@:::'::-::::::::;!:):::::,:::::"	-99
-3.825621	";"	-99
-4.302742	";;"	-99
-4.302742	";Gam"	-99
-4.302742	";GlockQ18"	-99
-4.302742	";Heca"	-99
-4.302742	";Time:Q"	-99
-4.302742	";^Q<d|8=o;]Q<dj8<Pk8<c]'?;QQdi8?P'Q)d8<9`8?c;Qdh8=P']Q<`c8>PQ9_8"	-99
-4.302742	"<	-99
-4.302742	"<"	-99
-4.302742	"<;iQ=/*do<;dQ=ook8?boc;aQ=odr8>oc;_Q<ox8>oc"	-99
-4.302742	"<o_Q<o_QBdo`QQ';`Q=9`]8=bobQ_o_Q<o]8=';bQC(88cQ`bcgQ>oP']8<;cQ>98)^Q?''oc`Q>"	-99
-4.302742	"=(p-_+1)*9%512]=(O*)p;"	-99
-4.302742	"=:$"	-99
-3.825621	">	-99
-4.302742	">b;og8=''`Q<`b8?'QQ9_8?c;dPe8dQa8<P]Q<``8=;'f8>QQ`]8?ocQQ_8=''_Q`8aQ"	-99
-4.302742	"?guhljL!^P%	-99
-4.302742	"@"	-99
-4.302742	"@+-"	-99
-4.302742	"@CADBEHI"	-99
-4.302742	"C:"	-99
-4.302742	"CYOUQWIN!]Q=;of8BQQ)88bc]QA98P'Qo]8>oQQ_8CP;QQ98b`_8@P8(Q`]'^Q=`']QB)88"	-99
-4.302742	"E914-47DA-95CA-C5AB0DC85B"	-99
-4.302742	"HTTP/1.1	-99
-4.302742	"M@K~|JOEF\\^~_NHI]"	-99
-4.302742	"NBLF\1Nblfgjmf\1"	-99
-3.700682	"Q"	-99
-4.302742	"Q(j"	-99
-4.302742	"Q(jam"	-99
-4.302742	"Zj$x!~V!n&g8!cK!	-99
-4.302742	"\",\"%s\",\"%s\"},	-99
-4.302742	"\40main(){O"	-99
-4.302742	"\n"	-99
-4.302742	"\n\n\n"	-99
-4.302742	"\xe2%c%c\r\n"	-99
-4.302742	"a"	-99
-4.302742	"bQQ]`8J;QQ`88bc99bd(`8iQ@''QQo^8E'`8c;QQ'Q``8?QQ`'kQ<o]8B9PQQ`';_Q<`_8<cbQ"	-99
-4.001712	"d"	-99
-4.302742	"e.6!r!%l6G!n~^<i=%pEwL%P!'<!FQt%u	-99
-4.302742	"e:|	-99
-4.302742	"eQII:"	-99
-4.302742	"eQover."	-99
-4.302742	"etu"	-99
-4.302742	"f\n"	-99
-4.302742	"fl!"	-99
-4.302742	"hello	-99
-4.302742	"laugh"	-99
-4.302742	"m"	-99
-4.302742	"me"	-99
-4.302742	"med);"	-99
-4.302742	"n:}nkD!Q!kN"	-99
-4.302742	"o("	-99
-4.302742	"oc']Q]8<;cQ>`8bbQA``QQ''`Q?88P;dQ=`)nQ?*/;;"	-99
-4.302742	"oid	-99
-3.700682	"r"	-99
-4.302742	"rn+0;}\n"	-99
-4.302742	"syntax_error!"	-99
-4.302742	"t"	-99
-4.302742	"throw	-99
-4.302742	"usage:	-99
-4.302742	"{;}"	-99
-4.302742	"{\"%s\",	-99
-4.302742	"|~0y'vWtA@:LcO9d}y.!uL!Gd+ml(<+Ds!J"	-99
-4.302742	"}$"	-99
-2.223561	%	-99
-3.700682	%=	-99
-4.302742	%d\n"	-99
-4.302742	%s	-99
-2.212837	&	-99
-2.343701	&&	-99
-4.302742	&=	-99
-3.603772	'	-99
-4.302742	'(	-99
-3.603772	','	-99
-4.001712	'128'	-99
-4.302742	'2O	-99
-4.302742	'2d'	-99
-4.302742	'7M{N^kh	-99
-4.302742	'Q]	-99
-4.001712	'\n'	-99
-2.797592	'_'	-99
-4.302742	'_3a	-99
-4.302742	'a'	-99
-4.302742	'b5sc!e"	-99
-4.302742	'c'	-99
-4.302742	'd'	-99
-4.302742	'h(Q]0h#	-99
-4.302742	'lQ	-99
-4.302742	'nSM8	-99
-4.302742	'width:256px;height:256px'	-99
-4.302742	'ws'	-99
-1.149537	(	-99
-1.124917	)	-99
-1.528225	*	-99
-2.649529	*=	-99
-4.302742	*m,!*m?H:"	-99
-1.863409	+	-99
-2.195532	++	-99
-4.302742	+99*!	-99
-2.257419	+=	-99
-1.231966	,	-99
-4.302742	,101	-99
-1.815604	-	-99
-2.612546	--	-99
-2.679493	-=	-99
-2.427681	->	-99
-2.212837	.	-99
-3.825621	...	-99
-4.302742	.0	-99
-3.825621	.05	-99
-3.825621	.1	-99
-4.302742	.27	-99
-3.825621	.5	-99
-2.334259	/	-99
-3.457644	/=	-99
-1.892809	0	-99
-3.825621	0.5	-99
-4.302742	0.7	-99
-4.302742	01	-99
-4.302742	02	-99
-4.302742	024	-99
-4.302742	03	-99
-4.302742	040	-99
-4.302742	061	-99
-4.302742	075	-99
-4.302742	0d:`184>b)^15)OM	-99
-4.001712	0u	-99
-4.302742	0x1	-99
-4.302742	0x3f0	-99
-4.302742	0x67452301	-99
-4.302742	0x820008202625a0	-99
-4.302742	0x98BADCFE	-99
-4.302742	0xEFCDAB89	-99
-4.302742	0xf	-99
-4.302742	0xfc0	-99
-4.302742	0xfe0	-99
-4.302742	0xff00ff00ff	-99
-4.302742	0xffff	-99
-2.001712	1	-99
-4.302742	1.159922023e9	-99
-4.001712	1.3	-99
-4.001712	1.5	-99
-4.302742	1.6937441874215991e190	-99
-3.126651	10	-99
-4.302742	1008	-99
-4.302742	101	-99
-3.825621	1023	-99
-4.302742	1024	-99
-4.302742	1024.	-99
-4.302742	105	-99
-3.825621	11	-99
-4.302742	1103515245	-99
-4.302742	112	-99
-4.302742	1152	-99
-3.302742	12	-99
-4.302742	123	-99
-4.302742	12359778	-99
-4.302742	12365733	-99
-4.302742	124	-99
-4.302742	127	-99
-3.700682	128	-99
-4.302742	128L	-99
-4.001712	13	-99
-4.302742	13000	-99
-4.302742	138	-99
-3.524591	14	-99
-4.302742	14202379	-99
-4.001712	14695981039346656037ULL	-99
-3.457644	15	-99
-4.302742	1500	-99
-4.302742	158	-99
-3.001712	16	-99
-4.302742	1600	-99
-3.825621	16711935	-99
-4.302742	16774143	-99
-4.001712	16u	-99
-3.825621	17	-99
-4.302742	176	-99
-3.603772	18	-99
-4.302742	19	-99
-4.302742	1912	-99
-4.302742	19205553	-99
-4.302742	193	-99
-4.302742	1933008	-99
-4.302742	194	-99
-4.302742	1954	-99
-4.302742	196	-99
-4.302742	197	-99
-4.302742	198	-99
-4.001712	1LL	-99
-4.302742	1l	-99
-4.001712	1u	-99
-2.205832	2	-99
-4.001712	2.	-99
-4.302742	2.271681097355226e15	-99
-3.399652	20	-99
-4.302742	204	-99
-4.302742	205	-99
-4.001712	21	-99
-4.001712	22	-99
-4.001712	23	-99
-4.302742	234	-99
-3.399652	24	-99
-4.302742	25	-99
-4.302742	250	-99
-3.457644	255	-99
-3.700682	256	-99
-4.302742	256L	-99
-4.302742	257	-99
-4.302742	258063	-99
-4.001712	26	-99
-4.302742	27	-99
-4.302742	275	-99
-4.302742	276	-99
-4.302742	28	-99
-4.302742	287	-99
-4.302742	2L	-99
-4.302742	2l	-99
-2.410647	3	-99
-4.302742	3'	-99
-4.302742	3.135045272e9	-99
-4.302742	3.9999e5	-99
-3.457644	30	-99
-4.302742	304	-99
-4.302742	308438	-99
-3.700682	31	-99
-2.871378	32	-99
-4.001712	32768	-99
-4.302742	3285377520	-99
-4.001712	33	-99
-4.001712	333	-99
-4.302742	3352537	-99
-3.825621	34	-99
-3.603772	35	-99
-3.825621	36	-99
-4.001712	37	-99
-4.001712	38	-99
-4.302742	384	-99
-4.302742	39	-99
-4.302742	3920	-99
-2.416251	4	-99
-4.302742	4.023233417e9	-99
-4.302742	4.294967296e9	-99
-4.302742	4.5	-99
-4.302742	4.503599627370496e15	-99
-4.302742	4.522871578970112e217	-99
-4.302742	4.6727004911171048e-153	-99
-3.399652	40	-99
-4.302742	4092	-99
-4.001712	41	-99
-4.302742	41088	-99
-4.001712	4190208	-99
-4.302742	4194304	-99
-3.603772	42	-99
-4.302742	44	-99
-4.001712	45	-99
-4.302742	48	-99
-4.302742	480	-99
-4.302742	488848	-99
-4.302742	4L	-99
-4.001712	4u	-99
-2.722959	5	-99
-4.302742	50	-99
-4.302742	5000	-99
-4.302742	504	-99
-4.302742	508	-99
-4.302742	51	-99
-3.700682	512	-99
-4.302742	512L	-99
-4.302742	516	-99
-4.001712	5200	-99
-4.302742	5298487	-99
-4.302742	55	-99
-3.825621	56	-99
-4.302742	57	-99
-4.001712	58	-99
-4.001712	59	-99
-4.302742	5toG57j/3"	-99
-2.711678	6	-99
-3.399652	60	-99
-4.302742	60.	-99
-3.825621	61	-99
-4.001712	62	-99
-3.700682	63	-99
-4.302742	63504	-99
-3.223561	64	-99
-4.302742	64u	-99
-4.302742	65280	-99
-4.302742	65307	-99
-4.001712	65536	-99
-4.302742	65544	-99
-4.302742	667	-99
-4.302742	67	-99
-4.302742	69	-99
-4.302742	6990400	-99
-2.784228	7	-99
-4.302742	7.5	-99
-4.302742	7.90055321525613e115	-99
-4.302742	70	-99
-4.001712	74	-99
-4.302742	75	-99
-4.302742	76	-99
-3.700682	768	-99
-4.001712	77	-99
-3.700682	79	-99
-2.595172	8	-99
-4.302742	8.44396048e8	-99
-3.156614	80	-99
-4.302742	8000	-99
-3.825621	81	-99
-4.302742	82	-99
-4.302742	84	-99
-3.825621	85	-99
-4.001712	86400	-99
-4.302742	88	-99
-4.302742	881	-99
-4.302742	89	-99
-4.302742	8u	-99
-2.904802	9	-99
-4.001712	90	-99
-4.302742	91	-99
-3.603772	92	-99
-4.302742	93	-99
-4.302742	96	-99
-3.825621	97	-99
-4.302742	98	-99
-4.302742	9858122	-99
-4.001712	99	-99
-4.302742	9999	-99
-4.302742	99999	-99
-2.106843	:	-99
-4.302742	:23h)QN<'	-99
-1.20618	;	-99
-4.302742	;b'	-99
-2.13248	<	-99
-1.265714	</s>
-2.53189	<<	-99
-4.302742	<<=	-99
-3.3485	<=	-99
-4.302742	<P~6"	-99
-99	<s>	-99
-99	<unk>
-1.373834	=	-99
-2.554554	==	-99
-2.427681	>	-99
-3.524591	>=	-99
-2.612546	>>	-99
-3.825621	>>=	-99
-2.205832	?	-99
-4.302742	?"	-99
-2.53189	A	-99
-4.302742	Acce	-99
-4.302742	Alan	-99
-2.539314	B	-99
-4.302742	BUFSIZ	-99
-2.612546	C	-99
-2.630644	D	-99
-4.302742	DefaultGC	-99
-4.302742	DefaultVisual	-99
-4.302742	Display	-99
-2.659289	E	-99
-3.261349	EOF	-99
-4.302742	ETIANMSURWDKGOHVF:L:PJBXCYZQ::54:3:::2&:+::::16=/:::(:7:::8:90"	-99
-2.689958	F	-99
-3.603772	FILE	-99
-4.302742	FILENAME_MAX	-99
-4.001712	F_	-99
-2.887769	G	-99
-2.539314	H	-99
-4.302742	H_1	-99
-2.53189	I	-99
-3.023988	J	-99
-2.524591	K	-99
-4.302742	KrgR'8@c]!%-q9V.3fa[E8X%dY'w!#H	-99
-2.338954	L	-99
-4.302742	L_tmpnam	-99
-2.797592	M	-99
-4.302742	M8q;k'	-99
-4.302742	MJ	-99
-4.302742	MK6lM	-99
-4.302742	McPc	-99
-4.302742	MkQN	-99
-2.639984	N	-99
-4.302742	N4	-99
-4.302742	N8b	-99
-4.302742	N9	-99
-4.302742	N9b	-99
-3.825621	NULL	-99
-4.302742	NUO	-99
-4.302742	N_1'	-99
-4.302742	N_7vN	-99
-2.329614	O	-99
-3.188799	O0	-99
-3.457644	O1	-99
-3.457644	O2	-99
-3.524591	O3	-99
-4.302742	O3NF	-99
-3.603772	O4	-99
-3.524591	O5	-99
-3.700682	O6	-99
-3.700682	O7	-99
-3.825621	O8	-99
-3.825621	O9	-99
-4.302742	OMQ	-99
-4.302742	OMaMch	-99
-4.302742	OMp	-99
-4.302742	ON8r	-99
-3.223561	OO	-99
-4.302742	O^ln	-99
-3.3485	O_	-99
-3.700682	O_o	-99
-4.302742	OaaD	-99
-4.302742	Ok	-99
-4.302742	On	-99
-4.302742	OsR	-99
-2.771263	P	-99
-2.31597	Q	-99
-3.223561	Q0	-99
-3.524591	Q1	-99
-3.457644	Q2	-99
-3.524591	Q3	-99
-3.700682	Q4	-99
-3.700682	Q5	-99
-3.700682	Q6	-99
-3.700682	Q7	-99
-3.825621	Q8	-99
-4.001712	Q9	-99
-3.223561	QO	-99
-3.3485	QQ	-99
-3.524591	Q_	-99
-4.302742	Qr	-99
-2.570348	R	-99
-4.302742	R8	-99
-4.302742	RAFT	-99
-4.302742	RGB	-99
-4.302742	RI4	-99
-4.302742	RM	-99
-4.302742	RMPmSk	-99
-4.302742	RlMG	-99
-4.302742	RmM	-99
-4.302742	RmPQ	-99
-4.302742	RootWindow	-99
-2.669274	S	-99
-4.302742	SDL_AudioSpec	-99
-4.302742	SDL_BlitSurface	-99
-4.302742	SDL_CreateRGBSurface	-99
-4.302742	SDL_Delay	-99
-4.302742	SDL_Event	-99
-4.302742	SDL_FillRect	-99
-4.302742	SDL_Flip	-99
-4.302742	SDL_Init	-99
-4.302742	SDL_LoadWAV	-99
-4.302742	SDL_MixAudio	-99
-4.302742	SDL_OpenAudio	-99
-4.302742	SDL_PauseAudio	-99
-4.302742	SDL_PollEvent	-99
-4.302742	SDL_Rect	-99
-4.302742	SDL_SetVideoMode	-99
-4.302742	SDL_Surface	-99
-4.001712	SEEK_SET	-99
-4.302742	SNH	-99
-4.302742	SOPm	-99
-4.302742	SPEED	-99
-4.302742	Sec	-99
-4.302742	SlM90	-99
-4.302742	So	-99
-2.31597	T	-99
-4.302742	TIMESTEP	-99
-4.302742	TIOCGWINSZ	-99
-4.302742	TMP_MAX	-99
-4.302742	TmS	-99
-4.302742	TmSt	-99
-4.302742	Turing	-99
-4.302742	Type	-99
-2.659289	U	-99
-4.302742	UV_DROP	-99
-4.302742	Uint8Array	-99
-4.302742	Upgrade	-99
-2.570348	V	-99
-2.31597	W	-99
-4.001712	WebSocket	-99
-4.302742	Window	-99
-2.451484	X	-99
-4.302742	XCheckWindowEvent	-99
-4.302742	XCreateImage	-99
-4.302742	XCreateSimpleWindow	-99
-4.302742	XEvent	-99
-4.302742	XImage	-99
-4.302742	XLookupKeysym	-99
-4.302742	XMapWindow	-99
-4.302742	XOpenDisplay	-99
-4.302742	XPutImage	-99
-4.302742	XSelectInput	-99
-2.595172	Y	-99
-2.758674	Z	-99
-1.805812	[	-99
-4.302742	[-d]	-99
-4.302742	\""	-99
-4.302742	\n\t"	-99
-1.775112	]	-99
-2.679493	^	-99
-3.603772	^=	-99
-1.56159	_	-99
-4.302742	_){putchar(_);}O"	-99
-3.3485	_0	-99
-4.302742	_8	-99
-4.302742	_KK3	-99
-3.302742	_O	-99
-3.302742	_Q	-99
-4.302742	_Zadat57	-99
-2.44541	__	-99
-4.302742	__LINE__	-99
-4.001712	__STDC_VERSION__	-99
-4.001712	__STDC__	-99
-4.302742	__TIME__	-99
-4.302742	__VA_ARGS__	-99
-3.825621	___	-99
-3.001712	____	-99
-4.001712	_a	-99
-4.001712	_b	-99
-4.001712	_c	-99
-4.001712	_d	-99
-3.700682	_f	-99
-4.302742	_h	-99
-4.001712	_i	-99
-4.001712	_k	-99
-4.302742	_o	-99
-4.302742	_t	-99
-4.302742	_z	-99
-2.074855	a	-99
-4.001712	a_	-99
-4.001712	abs	-99
-4.302742	ageX	-99
-3.457644	ala	-99
-2.771263	and	-99
-4.001712	ar	-99
-3.603772	arg	-99
-3.700682	argh	-99
-3.188799	asn	-99
-3.825621	asp	-99
-3.700682	asx	-99
-4.001712	au	-99
-4.302742	ay	-99
-2.093227	b	-99
-4.302742	b1g	-99
-4.302742	b4	-99
-4.302742	b5g	-99
-3.603772	bA	-99
-3.700682	bB	-99
-3.700682	bC	-99
-3.825621	bD	-99
-3.603772	bE	-99
-4.302742	b\nq(%s)\n"	-99
-3.825621	ba	-99
-3.524591	bb	-99
-3.603772	bc	-99
-3.825621	bd	-99
-3.399652	be	-99
-3.223561	bf	-99
-3.700682	bg	-99
-3.700682	bh	-99
-4.302742	bh'	-99
-4.001712	bi	-99
-4.302742	binary	-99
-3.825621	bj	-99
-3.700682	bk	-99
-3.825621	bl	-99
-4.001712	bm	-99
-4.001712	bn	-99
-4.001712	bo	-99
-3.399652	bp	-99
-4.001712	bq	-99
-4.001712	br	-99
-3.126651	break	-99
-3.825621	bs	-99
-3.524591	bt	-99
-3.524591	bu	-99
-3.700682	buf	-99
-4.001712	bv	-99
-4.302742	bw	-99
-4.001712	bx	-99
-3.524591	by	-99
-3.603772	bz	-99
-2.227195	c	-99
-4.001712	c8	-99
-4.302742	c9	-99
-4.302742	cN	-99
-4.302742	c_X	-99
-4.302742	c_kah%0d9`b'	-99
-3.700682	calloc	-99
-3.302742	case	-99
-4.302742	ch	-99
-2.722959	char	-99
-4.302742	ckQaOrON	-99
-4.302742	close	-99
-2.960319	const	-99
-4.302742	continue	-99
-3.825621	cos	-99
-4.302742	cq	-99
-4.302742	crea	-99
-3.524591	cys	-99
-2.049889	d	-99
-4.302742	d2	-99
-4.302742	d77sNOsd	-99
-3.700682	d8	-99
-4.302742	d8ak	-99
-4.302742	dA	-99
-4.302742	dB	-99
-4.302742	dC	-99
-4.302742	d_C	-99
-4.302742	dat	-99
-4.302742	data	-99
-3.825621	default	-99
-4.302742	defined	-99
-3.603772	do	-99
-4.302742	double	-99
-4.302742	dup	-99
-4.001712	dup2	-99
-2.216382	e	-99
-2.980523	else	-99
-4.302742	elta_u	-99
-4.302742	elta_v	-99
-4.302742	epne	-99
-4.302742	er	-99
-3.603772	err	-99
-4.302742	errx	-99
-3.603772	exit	-99
-3.825621	exp	-99
-3.825621	extern	-99
-2.205832	f	-99
-4.302742	f3	-99
-4.302742	fabs	-99
-4.302742	fclose	-99
-4.302742	fgetc	-99
-4.302742	fgets	-99
-4.302742	file1	-99
-4.302742	file2"	-99
-3.457644	float	-99
-4.302742	float_	-99
-3.825621	fopen	-99
-2.44541	for	-99
-4.302742	fputc	-99
-3.825621	fread	-99
-3.524591	free	-99
-4.302742	fscanf	-99
-4.001712	fseek	-99
-4.302742	function	-99
-3.700682	fw	-99
-2.20932	g	-99
-4.302742	getC	-99
-3.700682	getchar	-99
-4.302742	getopt	-99
-3.098622	gln	-99
-3.302742	glu	-99
-4.001712	glx	-99
-3.524591	gly	-99
-4.302742	go	-99
-4.302742	goofy	-99
-3.700682	goto	-99
-2.470233	h	-99
-4.302742	height	-99
-3.457644	his	-99
-4.302742	href	-99
-2.010486	i	-99
-2.463893	if	-99
-3.603772	ile	-99
-4.302742	in	-99
-2.416251	int	-99
-4.302742	int_	-99
-4.302742	ioctl	-99
-4.302742	ipt	-99
-2.202372	j	-99
-4.302742	jQ	-99
-4.302742	j_la	-99
-4.302742	j_laaaN	-99
-4.302742	jmp_buf	-99
-2.353352	k	-99
-4.302742	k8b	-99
-4.302742	k9	-99
-4.302742	kP8	-99
-4.302742	k_	-99
-4.302742	kccMcOP	-99
-4.302742	kckQ	-99
-4.302742	kd	-99
-4.302742	ket	-99
-4.001712	key	-99
-4.302742	keysym	-99
-4.302742	kf	-99
-4.302742	kg	-99
-2.302742	l	-99
-4.001712	lM	-99
-4.302742	lNRmO_loa8	-99
-4.302742	lQ	-99
-4.302742	lQoOa	-99
-4.302742	l_	-99
-4.302742	le	-99
-3.700682	leu	-99
-4.302742	lf	-99
-4.302742	location	-99
-2.941014	long	-99
-4.302742	longjmp	-99
-4.302742	lpeoqempepneu	-99
-4.302742	lrand48	-99
-4.001712	lu	-99
-4.302742	luN	-99
-4.302742	luelue	-99
-3.825621	lv	-99
-4.302742	lwg	-99
-3.3485	lys	-99
-2.496562	m	-99
-4.001712	mR	-99
-4.302742	mR8	-99
-4.302742	mRMmO	-99
-4.302742	mRh	-99
-4.001712	mS	-99
-4.302742	mageData	-99
-3.04747	main	-99
-4.001712	malloc	-99
-4.302742	memcmp	-99
-4.001712	memcpy	-99
-4.302742	memset	-99
-3.3485	met	-99
-4.302742	mkM	-99
-4.302742	mq9l8b	-99
-2.166022	n	-99
-4.302742	nR	-99
-4.302742	nRmUd	-99
-4.001712	ndif	-99
-4.001712	new	-99
-4.302742	nk	-99
-2.307107	not	-99
-2.082634	o	-99
-4.302742	o(O	-99
-4.302742	oM	-99
-4.302742	oNS	-99
-4.302742	ocket	-99
-4.001712	of	-99
-4.302742	offsetLeft	-99
-4.302742	offsetTop	-99
-4.302742	og	-99
-4.302742	on	-99
-4.302742	onmousemove	-99
-4.302742	ontext	-99
-3.3485	op	-99
-4.001712	open	-99
-3.524591	optind	-99
-2.198938	p	-99
-4.302742	pOpM866OsRlm	-99
-4.302742	pQaM8m	-99
-4.302742	pRM7O	-99
-4.302742	pageY	-99
-4.302742	peoqemtemw	-99
-3.700682	phe	-99
-4.302742	pixels	-99
-3.825621	pow	-99
-4.302742	pread	-99
-4.302742	prin	-99
-3.223561	printf	-99
-3.603772	pro	-99
-4.302742	pt	-99
-4.302742	ptj9	-99
-4.302742	pu	-99
-4.302742	putImageData	-99
-3.399652	putchar	-99
-3.603772	puts	-99
-4.302742	px	-99
-4.001712	pyl	-99
-2.496562	q	-99
-4.302742	qN	-99
-4.302742	qQ	-99
-2.483198	r	-99
-3.825621	rQ	-99
-4.302742	rR	-99
-4.302742	rand	-99
-4.302742	re	-99
-4.001712	read	-99
-3.700682	realloc	-99
-2.771263	return	-99
-4.001712	rewind	-99
-4.302742	round	-99
-4.302742	rror	-99
-2.195532	s	-99
-4.302742	sM	-99
-4.001712	sN	-99
-4.302742	sTaa	-99
-4.302742	s_4	-99
-4.302742	scanf	-99
-4.302742	scr	-99
-4.302742	script	-99
-3.3485	sec	-99
-4.302742	send	-99
-3.261349	ser	-99
-4.302742	set	-99
-4.302742	setjmp	-99
-4.001712	short	-99
-4.001712	si	-99
-4.302742	signal	-99
-4.001712	sin	-99
-4.302742	size_t	-99
-3.156614	sizeof	-99
-4.302742	slice	-99
-4.302742	slltwzh	-99
-4.302742	sprintf	-99
-4.302742	sqrt	-99
-4.302742	st_mtime	-99
-4.302742	st_size	-99
-3.825621	stat	-99
-3.524591	static	-99
-4.001712	stdin	-99
-4.302742	stdout	-99
-3.825621	strchr	-99
-4.302742	strcmp	-99
-3.825621	strlen	-99
-4.302742	strrchr	-99
-4.302742	strtol	-99
-3.3485	struct	-99
-4.302742	style	-99
-4.302742	subs	-99
-3.700682	switch	-99
-4.302742	sym	-99
-4.302742	system	-99
-2.334259	t	-99
-4.302742	tQ	-99
-4.302742	tYv	-99
-4.302742	tch	-99
-4.302742	teI	-99
-4.302742	tf	-99
-4.302742	tgANs	-99
-3.399652	thr	-99
-3.700682	tla	-99
-4.302742	tmpfile	-99
-4.302742	to	-99
-4.302742	tr	-99
-3.302742	trp	-99
-4.302742	turnY_	-99
-4.302742	typ	-99
-4.001712	type	-99
-3.156614	typedef	-99
-3.302742	tyr	-99
-2.172408	u	-99
-4.302742	uU	-99
-4.302742	ub	-99
-4.001712	union	-99
-3.223561	unk	-99
-3.3485	unsigned	-99
-4.302742	up"	-99
-4.302742	upgrade	-99
-4.302742	usleep	-99
-4.302742	utchar	-99
-2.311516	v	-99
-4.302742	vOwwRor	-99
-4.302742	vQ	-99
-4.302742	va_arg	-99
-4.302742	va_end	-99
-4.302742	va_list	-99
-4.302742	va_start	-99
-2.855584	val	-99
-2.887769	void	-99
-4.302742	voidw	-99
-4.302742	volatile	-99
-2.383664	w	-99
-4.302742	webso	-99
-2.960319	while	-99
-4.302742	width	-99
-4.302742	window	-99
-4.302742	wnS	-99
-4.302742	world!"	-99
-3.825621	write	-99
-2.334259	x	-99
-4.302742	xa6	-99
-4.302742	xkey	-99
-4.001712	xle	-99
-2.649529	xor	-99
-4.302742	xv	-99
-2.353352	y	-99
-4.302742	yN	-99
-2.43351	z	-99
-4.001712	ze	-99
-1.854036	{	-99
-2.621501	|	-99
-3.825621	|=	-99
-2.904802	||	-99
-1.860262	}	-99
-2.797592	~	-99

\2-grams:
-0.9128498	! !	-0.507656
-0.7237936	! (	-0.04913808
-1.954242	! )
-1.653213	! *
-1.954242	! --
-1.477121	! </s>
-1.954242	! D
-1.954242	! H
-1.954242	! K
-1.176091	! O	-0.7241015
-1.653213	! O9	0
-1.954242	! P
-1.954242	! Q
-1.954242	! Q0
-1.954242	! Q2
-1.477121	! QO	-0.3521825
-1.954242	! _0
-1.477121	! b
-1.954242	! c
-1.653213	! g
-1.653213	! i
-1.653213	! j
-1.954242	! k
-1.653213	! l
-1.954242	! memcmp
-1.653213	! n
-1.954242	! o
-1.954242	! printf
-1.653213	! s
-1.954242	! setjmp
-1.954242	! stat
-1.954242	! strcmp
-1.653213	! t
-1.255273	! u	-0.6859075
-1.477121	! v	-0.5553166
-1.653213	! x
-1.954242	! z
-1.30103	!= -
-1.30103	!= 0
-1.30103	!= 98
-1.30103	!= B
-1	!= EOF	-0.2138799
-1.30103	!= NULL
-1.30103	!= __
-1	!= b	-0.4319591
-1.30103	!= bk
-1.30103	!= f
-1	!= gln	-0.3143939
-1	!= h	-0.4641563
-1.30103	!= sizeof
-1.30103	!= trp
-1.30103	!= u
-1.30103	!= v
-0.5698753	" "
-1.414973	" "%d
-1.414973	" %d\n"
-0.9378521	" )	-0.4819012
-0.9378521	" ,	-0.4734156
-1.414973	" ,101
-1.414973	" </s>
-1.414973	" ETIANMSURWDKGOHVF:L:PJBXCYZQ::54:3:::2&:+::::16=/:::(:7:::8:90"
-1.414973	" Type
-1.414973	" \n\t"
-1.414973	" c
-1.414973	" ipt
-1.414973	" ket
-1.414973	" mageData
-1.414973	" ontext
-1.414973	" teI
0	"!:E%;!ea!!!WqE0z!f/y}!%!!Qi6!uzt!n}?]!bl!ak!SetR<" </s>
0	"!pv!;!Hm%Ro4" "n:}nkD!Q!kN"
-0.845098	"" "@CADBEHI"
-0.845098	"" ,
-0.544068	"" :
-0.3679768	"" </s>
0	"#" )	-0.5532801
0	"$" ,
0	"%." "f\n"
0	"%c" ,
0	"%d "
0	"%d,%dd%d\n" ,
0	"%d\n" ,
0	"%da%d,%d\n" ,
0	"%da%d\n" ,
0	"%dd%d\n" ,
0	"%f,%f," ,
-0.69897	"%s" "\",\"%s\",\"%s\"},
-0.09691001	"%s" ,	-0.298068
0	"('A)" ,
-0.30103	"('A`)" </s>
-0.30103	"('A`)" }
0	"(A`)" ,
0	"(O**" </s>
0	")" )
0	")$" ;
0	");" )
0	"*" ""
0	"*_[512],**p=_,**d,b,q;for(b=0;b" "++<512;p=_+q)_[q"
0	"*p=#b,P[9999],*d=P,*e[]=" "{\"%s\",
0	"++<512;p=_+q)_[q" </s>
0	"-" ,
0	"/" )
0	"/*;; "
0	"11\x80" [
0	"258EAFA5-" "E914-47DA-95CA-C5AB0DC85B"
0	"8!@dP,!!o+fb" </s>
0	"::::::::::::?_::::\"::.::::@:::'::-::::::::;!:):::::,:::::" ;
-0.4771213	";" )
-0.4771213	";" :
-0.4771213	";" </s>
0	";;" )
0	";Gam" "eQover."
0	";GlockQ18" "C:"
0	";Heca" "t"
0	";Time:Q" )
0	";^Q<d|8=o;]Q<dj8<Pk8<c]'?;QQdi8?P'Q)d8<9`8?c;Qdh8=P']Q<`c8>PQ9_8" </s>
0	"< "
0	"<" ,
0	"<;iQ=/*do<;dQ=ook8?boc;aQ=odr8>oc;_Q<ox8>oc" </s>
0	"<o_Q<o_QBdo`QQ';`Q=9`]8=bobQ_o_Q<o]8=';bQC(88cQ`bcgQ>oP']8<;cQ>98)^Q?''oc`Q>" </s>
0	"=(p-_+1)*9%512]=(O*)p;" )
0	"=:$" ,
0	"> "	-0.4238757
0	">b;og8=''`Q<`b8?'QQ9_8?c;dPe8dQa8<P]Q<``8=;'f8>QQ`]8?ocQQ_8=''_Q`8aQ" </s>
0	"?guhljL!^P% ?"
0	"@" ,
0	"@+-" ,
0	"@CADBEHI" )
0	"C:" "Q"
0	"CYOUQWIN!]Q=;of8BQQ)88bc]QA98P'Qo]8>oQQ_8CP;QQ98b`_8@P8(Q`]'^Q=`']QB)88" </s>
0	"E914-47DA-95CA-C5AB0DC85B" "11\x80"
0	"HTTP/1.1 "
0	"M@K~|JOEF\\^~_NHI]" ;
0	"NBLF\1Nblfgjmf\1" ,
0	"Q" )	-0.4819012
0	"Q(j" "a"
0	"Q(jam" </s>
0	"Zj$x!~V!n&g8!cK! KrgR'8@c]!%-q9V.3fa[E8X%dY'w!#H
0	"\",\"%s\",\"%s\"}, b\nq(%s)\n"
0	"\40main(){O" ""
0	"\n" )
0	"\n\n\n" </s>
0	"\xe2%c%c\r\n" O_
0	"a" "m"
0	"bQQ]`8J;QQ`88bc99bd(`8iQ@''QQo^8E'`8c;QQ'Q``8?QQ`'kQ<o]8B9PQQ`';_Q<`_8<cbQ" </s>
-0.30103	"d" ")"
-0.30103	"d" )
0	"e.6!r!%l6G!n~^<i=%pEwL%P!'<!FQt%u 5toG57j/3"
0	"e:| 'b5sc!e"
0	"eQII:" "Q"
0	"eQover." </s>
0	"etu" "rn+0;}\n"
0	"f\n" ,
0	"fl!" [
0	"hello world!"
0	"laugh" )
0	"m" "me"
0	"me" "d"
0	"med);" )
0	"n:}nkD!Q!kN" </s>
0	"o(" )
0	"oc']Q]8<;cQ>`8bbQA``QQ''`Q?88P;dQ=`)nQ?*/;;" ;
0	"oid o(O
-0.1249387	"r" )	-0.4283414
-0.60206	"r" </s>
0	"rn+0;}\n" )
0	"syntax_error!" </s>
0	"t" "eQII:"
0	"throw up"
0	"usage: %s
0	"{;}" :
0	"{\"%s\", \""
0	"|~0y'vWtA@:LcO9d}y.!uL!Gd+ml(<+Ds!J" </s>
0	"}$" :
-1.778151	% %
-2.079181	% &
-1.778151	% (	-0.4703545
-2.079181	% -
-2.079181	% .27
-2.079181	% /
-2.079181	% 03
-2.079181	% 1500
-1.778151	% 16
-2.079181	% 176
-2.079181	% 198
-0.9330532	% 2	-0.5611014
-1.234083	% 3	-0.6519734
-2.079181	% 32
-2.079181	% 384
-1.30103	% 4	-0.02199428
-1.60206	% 5
-2.079181	% 512
-2.079181	% 6
-1.477121	% 64
-2.079181	% 7
-2.079181	% 768
-1.60206	% 8
-2.079181	% 86400
-2.079181	% 93
-2.079181	% :
-1.380211	% </s>
-1.778151	% >
-2.079181	% I
-1.778151	% M
-2.079181	% N
-2.079181	% N4
-2.079181	% N8b
-2.079181	% N9b
-1.778151	% O
-2.079181	% O3
-2.079181	% O4
-1.234083	% Q	-0.7668113
-1.778151	% QQ
-2.079181	% Qr
-2.079181	% R
-2.079181	% ]
-2.079181	% ^
-1.778151	% _	-0.3949345
-1.778151	% __	0.1249388
-2.079181	% _h
-2.079181	% c
-2.079181	% c9
-2.079181	% d8
-2.079181	% dA
-2.079181	% dB
-2.079181	% dC
-1.380211	% g
-2.079181	% lNRmO_loa8
-2.079181	% mR
-2.079181	% mRMmO
-2.079181	% mRh
-2.079181	% mS
-2.079181	% n
-2.079181	% q
-2.079181	% rQ
-2.079181	% s
-2.079181	% strlen
-2.079181	% w
-1.778151	% {
-0.60206	%= 1
-0.60206	%= 64
-0.60206	%= 8
-0.60206	%= z
0	%d\n" ,
0	%s [-d]
-2.089905	& !
-2.089905	& %
-1.788875	& (
-1.487845	& *	-0.5961812
-2.089905	& --
-2.089905	& 0
-2.089905	& 0x3f0
-2.089905	& 0xf
-2.089905	& 0xfe0
-2.089905	& 0xff00ff00ff
-1.311754	& 1	-0.1875207
-2.089905	& 1008
-1.612784	& 1023	0
-2.089905	& 12
-2.089905	& 128
-2.089905	& 14
-1.390935	& 15	-0.154902
-1.788875	& 16
-1.788875	& 16711935
-2.089905	& 16774143
-1.311754	& 3	-0.5936268
-2.089905	& 31
-2.089905	& 32
-2.089905	& 4
-2.089905	& 4092
-1.788875	& 4190208	0
-2.089905	& 6
-1.487845	& 63	0
-2.089905	& 64
-2.089905	& 65280
-2.089905	& 7
-2.089905	& 8
-2.089905	& 9
-2.089905	& ;
-2.089905	& <
-1.487845	& </s>
-2.089905	& B
-2.089905	& C
-2.089905	& L
-1.788875	& M
-1.788875	& N
-2.089905	& O
-1.788875	& OO
-1.788875	& Q
-2.089905	& S
-2.089905	& T
-2.089905	& TmS
-2.089905	& ^
-1.487845	& _	-0.2986589
-2.089905	& a
-1.788875	& arg	0.2218488
-2.089905	& asn
-2.089905	& bE
-2.089905	& bn
-2.089905	& bo
-2.089905	& bv
-1.788875	& c
-2.089905	& d
-2.089905	& e
-1.788875	& glu	-0.1760913
-2.089905	& i
-2.089905	& k
-2.089905	& kccMcOP
-2.089905	& kckQ
-1.612784	& not	-0.5749078
-1.788875	& o
-2.089905	& p
-2.089905	& pRM7O
-2.089905	& r
-1.788875	& tyr	-0.3222193
-2.089905	& u
-2.089905	& v
-2.089905	& w
-1.788875	& x
-2.089905	& y
-1.788875	& z	-0.465222
-1.788875	& ~	-0.3869447
-1.004799	&& !	-0.306425
-0.4538914	&& (	-0.3516108
-1.658011	&& *
-1.959041	&& ++
-1.959041	&& 0
-1.959041	&& 101
-1.959041	&& 258063
-1.959041	&& 34
-1.658011	&& </s>
-1.48192	&& A	-0.3690271
-1.959041	&& B
-1.959041	&& F
-1.959041	&& G
-1.959041	&& R
-1.959041	&& T
-1.959041	&& Z
-1.959041	&& _
-1.959041	&& _0
-1.48192	&& a	-0.4614222
-1.959041	&& b
-1.959041	&& bf
-1.959041	&& bg
-1.959041	&& d
-1.959041	&& fscanf
-1.959041	&& g
-1.959041	&& h
-1.959041	&& j
-1.658011	&& n
-1.658011	&& o	-0.3968922
-1.959041	&& putchar
-1.959041	&& q
-1.959041	&& r
-1.959041	&& read
-1.356981	&& s	-0.2941906
-1.356981	&& v	-0.5698754
-1.959041	&& x
-1.658011	&& y	-0.4571502
0	&= z
-0.69897	' '
-0.69897	' )
-0.69897	' M8q;k'
-0.69897	' Q
-0.69897	' nR
0	'( 0d:`184>b)^15)OM
-0.69897	',' )
-0.09691001	',' ,	-0.6974916
-0.30103	'128' height
-0.30103	'128' style
0	'2O 3'
0	'2d' )
0	'7M{N^kh '
0	'Q] bh'
0	'\n' )
-0.7269987	'_' )	-0.2742683
-0.09017663	'_' ,	-1.405649
0	'_3a N_1'
0	'a' ,
0	'b5sc!e" </s>
0	'c' width
0	'd' :
0	'h(Q]0h# c_kah%0d9`b'
0	'lQ O^ln
0	'nSM8 '
0	'width:256px;height:256px' </s>
0	'ws' +
-1.949085	( !	-0.1918855
-2.852175	( "
-3.153205	( ""
-2.676084	( "#"	0
-3.153205	( "%."
-3.153205	( "%c"
-3.153205	( "%d,%dd%d\n"
-3.153205	( "%d\n"
-3.153205	( "%da%d,%d\n"
-3.153205	( "%da%d\n"
-3.153205	( "%dd%d\n"
-3.153205	( "%s"
-3.153205	( "(O**"
-3.153205	( ");"
-3.153205	( "*"
-3.153205	( "-"
-3.153205	( "/*;;
-2.852175	( ";"
-3.153205	( ";Heca"
-3.153205	( ";Time:Q"
-3.153205	( "<
-3.153205	( "<"
-3.153205	( ">
-3.153205	( "@"
-3.153205	( "@+-"
-3.153205	( "HTTP/1.1
-2.852175	( "Q"	0
-3.153205	( "\n"
-3.153205	( "hello
-3.153205	( "laugh"
-3.153205	( "o("
-3.153205	( "r"
-3.153205	( "throw
-2.551145	( %
-2.153205	( &	-0.2755828
-3.153205	( '
-3.153205	( ','
-3.153205	( '2d'
-2.308107	( '_'	-0.1760913
-3.153205	( 'ws'
-1.353864	( (	-0.2842682
-1.013326	( )	-0.8322625
-1.529956	( *	-0.3672463
-2.676084	( ++
-2.250115	( -
-3.153205	( .05
-2.852175	( .5
-2.852175	( /
-1.852175	( 0	-0.9774565
-3.153205	( 075
-1.738232	( 1	-0.6280482
-3.153205	( 10
-3.153205	( 105
-2.852175	( 12
-3.153205	( 13
-2.852175	( 16	-0.4065402
-3.153205	( 1912
-3.153205	( 1LL
-1.897932	( 2	-0.5816084
-3.153205	( 22
-3.153205	( 24
-3.153205	( 255
-3.153205	( 256L
-3.153205	( 2l
-2.039262	( 3	-0.39794
-3.153205	( 30
-2.852175	( 32
-3.153205	( 34
-3.153205	( 38
-2.153205	( 4	-0.4937205
-3.153205	( 40
-2.852175	( 41	0
-2.852175	( 42	0.2218488
-3.153205	( 45
-2.454235	( 5	-0.5785789
-3.153205	( 59
-2.852175	( 6
-2.852175	( 60
-2.852175	( 64	-0.2430381
-3.153205	( 67
-3.153205	( 7
-3.153205	( 70
-2.676084	( 8	-0.4507923
-2.375054	( 9
-3.153205	( 97
-3.153205	( 99999
-1.897932	( ;	-0.7575005
-1.755265	( </s>
-2.676084	( =	-0.4755839
-2.308107	( A	-0.4066845
-2.375054	( B	-0.6379725
-1.922756	( C	-0.2633565
-2.308107	( D	-0.2640806
-2.852175	( E	-0.3651475
-2.198962	( F	-0.2708776
-2.852175	( FILE	0
-3.153205	( F_
-2.111812	( H	-0.08244486
-2.454235	( I	-0.6605118
-3.153205	( J
-2.198962	( K	-0.6232493
-2.039262	( L	-0.4401901
-2.551145	( M
-2.551145	( N	-0.3786349
-1.852175	( O	-0.3613259
-3.153205	( O0
-2.551145	( O2	-0.1549019
-3.153205	( O3
-3.153205	( O4
-2.852175	( O5
-3.153205	( O6
-2.852175	( OO
-2.676084	( O_o	0
-2.111812	( P	-0.8901249
-1.922756	( Q	-0.4477971
-2.676084	( Q0	-0.3521825
-2.852175	( Q1
-3.153205	( Q2
-3.153205	( Q5
-3.153205	( Q6
-2.676084	( QO	-0.4259688
-3.153205	( QQ
-2.551145	( R	-0.2407341
-3.153205	( RAFT
-1.949085	( T	-0.999552
-2.676084	( U	-0.4134522
-2.454235	( V
-2.454235	( W	-0.4603863
-1.810782	( X	-0.4801689
-3.153205	( XCheckWindowEvent
-3.153205	( XMapWindow
-2.551145	( Y	-0.2655577
-2.375054	( Z
-3.153205	( ^
-1.223786	( _	-0.6865779
-2.454235	( _O	-0.1249387
-2.852175	( _Q
-2.454235	( __
-3.153205	( __LINE__
-3.153205	( __STDC_VERSION__
-1.721841	( a	-0.0947755
-2.852175	( ala	-0.3309932
-1.810782	( and	-0.9094301
-3.153205	( ar
-2.676084	( argh	-0.1760913
-2.551145	( asn	0.1139433
-2.852175	( asp	0
-3.153205	( asx
-2.007077	( b	-0.4551269
-3.153205	( be
-2.852175	( bk	-0.1760913
-3.153205	( br
-2.852175	( bu
-2.852175	( buf
-3.153205	( by
-2.111812	( c	-0.1806896
-3.153205	( cN
-3.153205	( calloc
-2.250115	( char	-0.4536402
-2.676084	( const	-0.4357286
-3.153205	( cos
-2.551145	( cys	-0.2218488
-1.949085	( d	-0.2338135
-3.153205	( dup2
-2.111812	( e	-0.2428346
-3.153205	( elta_u
-3.153205	( elta_v
-1.772994	( f	-0.6055205
-3.153205	( float_
-1.922756	( g	-0.3188708
-3.153205	( gln
-3.153205	( glu
-2.111812	( h	-0.6787058
-1.621726	( i	-0.2806155
-2.676084	( ile
-2.007077	( int	-0.1566532
-3.153205	( int_
-1.791477	( j	-0.4762011
-1.897932	( k	-0.6483053
-2.007077	( l	-0.1533066
-3.153205	( lQ
-3.153205	( lQoOa
-3.153205	( luN
-2.852175	( lys
-2.111812	( m	-0.5252473
-3.153205	( memcpy
-3.153205	( memset
-2.454235	( met	-0.4259687
-1.706047	( n	-0.2824087
-1.852175	( not	-0.9600525
-1.977114	( o	-0.6027135
-3.153205	( open
-1.977114	( p	-0.2286347
-3.153205	( pread
-3.153205	( prin
-3.153205	( printf
-3.153205	( pro
-2.852175	( puts	0
-2.375054	( q	-0.2730013
-3.153205	( qQ
-2.375054	( r
-3.153205	( rR
-2.153205	( s	-0.1974242
-2.852175	( sec	-0.2218488
-2.250115	( ser	-0.3899711
-3.153205	( short
-2.852175	( sizeof	0.3679768
-3.153205	( stdout
-2.074024	( t	-0.1676031
-3.153205	( tQ
-3.153205	( tch
-3.153205	( tla
-3.153205	( to
-2.308107	( u	-0.2983409
-3.153205	( uU
-3.153205	( ub
-1.922756	( v	-0.2514573
-3.153205	( va_arg
-3.153205	( val
-2.852175	( void
-1.897932	( w	-0.436565
-1.977114	( x	-0.1478401
-2.250115	( xor	-0.5286311
-2.111812	( y	-0.6234815
-2.375054	( z	-0.4999841
-2.852175	( ze	0
-3.153205	( {
-3.153205	( }
-2.575765	) !=	-0.2552725
-3.177825	) "\xe2%c%c\r\n"
-2.001734	) %	-0.2918866
-2.332727	) &
-1.876795	) &&	-0.1281088
-1.633757	) (	-0.4693199
-0.973705	) )	-0.4708604
-1.223583	) *	-0.396637
-2.399674	) *=	-0.7600873
-1.621522	) +	-0.3032803
-2.274735	) +=	-0.2643072
-1.164988	) ,	-0.256364
-1.779885	) -	-0.3071595
-3.177825	) --
-2.478855	) -=
-2.876795	) .	-0.447914
-3.177825	) .0
-1.973705	) /	-0.2770298
-3.177825	) 0
-3.177825	) 0u
-2.876795	) 16u	0
-2.876795	) 1u
-3.177825	) 21
-3.177825	) 64u
-3.177825	) 8u
-1.686463	) :	-0.3279912
-0.6167236	) ;	-0.3555885
-2.332727	) <	-0.1402192
-1.345316	) </s>
-2.223583	) <<	-0.2004239
-2.478855	) =	-0.1976566
-2.575765	) ==
-2.399674	) >	-0.1398791
-2.876795	) >=
-2.575765	) >>	-0.2340832
-2.031697	) ?	-0.1594335
-2.478855	) B	-0.6868211
-2.274735	) G	-0.3912066
-2.876795	) J	-0.312311
-2.876795	) L
-3.177825	) O5
-2.575765	) O_	0.2552725
-3.177825	) P
-2.876795	) Q
-3.177825	) Q_
-3.177825	) R
-3.177825	) S
-3.177825	) W
-3.177825	) Y
-2.399674	) [	-0.1606042
-1.496584	) ]	-0.8415856
-2.876795	) ^
-2.136432	) _	-0.6119949
-2.876795	) __	0.1249388
-3.177825	) ___
-1.922552	) ____	0.04575753
-3.177825	) _d
-3.177825	) _f
-2.876795	) a
-2.876795	) asx
-2.876795	) b
-2.876795	) bd	0
-2.876795	) break	0
-3.177825	) bt
-3.177825	) by
-2.876795	) c
-3.177825	) continue
-2.876795	) d
-2.876795	) d8
-2.876795	) e	-0.4119507
-3.177825	) err
-2.700704	) exit	0
-2.136432	) for	0.1760913
-3.177825	) g
-3.177825	) glx
-2.876795	) h
-2.575765	) i
-2.399674	) if	0.6927211
-2.876795	) int
-3.177825	) j
-3.177825	) k
-2.700704	) l	-0.4593925
-3.177825	) lys
-3.177825	) m
-3.177825	) n
-2.876795	) not
-3.177825	) o
-3.177825	) printf
-3.177825	) putchar
-2.876795	) q
-2.575765	) r	-0.2218487
-2.876795	) return
-2.478855	) s	-0.1358281
-3.177825	) scanf
-3.177825	) sec
-3.177825	) t
-2.700704	) tyr
-2.700704	) u	-0.3679768
-2.876795	) v
-2.700704	) w	-0.4891619
-3.177825	) x
-2.700704	) z
-0.8354023	) {	-0.1310771
-2.332727	) |	-0.1415804
-2.575765	) ||	-0.4828736
-3.177825	) ~
-1.996366	* !	-0.0851716
-1.093276	* (	-0.1816347
-1.733124	* )	-0.07693787
-1.628389	* *	-0.06328183
-2.774517	* +
-1.871427	* ++	-0.5740312
-2.774517	* ,
-2.774517	* -
-2.297396	* --
-2.774517	* .1
-2.774517	* .5
-2.473487	* 0
-2.774517	* 1
-2.774517	* 1.6937441874215991e190
-2.172457	* 10	-0.2388821
-2.774517	* 11
-2.774517	* 1103515245
-2.774517	* 12
-2.172457	* 16	-0.2304489
-2.774517	* 17
-2.774517	* 193
-1.733124	* 2	-0.007869646
-2.774517	* 23
-2.075547	* 3	-0.2048154
-2.774517	* 32
-2.774517	* 39
-1.628389	* 4	-0.248642
-2.774517	* 4.522871578970112e217
-2.774517	* 4.6727004911171048e-153
-2.473487	* 42
-2.774517	* 51
-2.774517	* 512L
-2.774517	* 5298487
-2.774517	* 6
-2.473487	* 7
-2.774517	* 7.90055321525613e115
-2.473487	* 768	-0.1760913
-2.297396	* 8
-1.774517	* 80	-0.455932
-2.774517	* 81
-2.774517	* 85
-2.774517	* 881
-2.297396	* 9
-2.774517	* 92
-1.394306	* </s>
-2.172457	* A	-0.2544538
-2.473487	* B
-2.172457	* C	-0.6320232
-2.774517	* D
-1.929419	* E	-0.09373997
-2.473487	* H
-2.075547	* I	-0.6200831
-1.929419	* K	-0.3058289
-2.172457	* L	-0.2615214
-2.774517	* L_tmpnam
-1.996366	* N	-0.3825651
-2.297396	* O	-0.4230715
-2.075547	* O0	-0.5392692
-2.473487	* O3
-2.774517	* O4
-2.473487	* O6
-1.733124	* Q	-0.3333745
-2.774517	* Q0
-2.774517	* Q1
-2.774517	* Q2
-2.172457	* Q3	-0.1249387
-2.774517	* Q5
-2.774517	* Q7
-2.774517	* Q9
-2.774517	* QO
-2.473487	* QQ	-0.30103
-2.473487	* R
-2.473487	* S
-1.359544	* T	-0.7069552
-2.774517	* U
-2.774517	* V
-2.473487	* W
-1.871427	* X	-0.05183163
-2.075547	* Y	-0.2044747
-2.774517	* ]
-1.473487	* _	-0.7242312
-2.172457	* _0
-2.774517	* _O
-2.473487	* __	0.1249388
-2.774517	* ___
-1.695336	* a	-0.5171881
-1.774517	* b	-0.1766866
-2.774517	* bD
-2.774517	* ba
-2.297396	* bb	-0.30103
-2.774517	* be
-2.774517	* br
-2.774517	* bx
-1.996366	* c	-0.1650023
-2.774517	* c_X
-2.075547	* const	-0.6118199
-1.628389	* d	-0.1720286
-1.733124	* e	-0.3529728
-1.774517	* f	-0.5465426
-1.820274	* g	-0.5641122
-2.297396	* i
-2.297396	* j
-2.172457	* k	-0.2208717
-2.172457	* l
-2.473487	* m
-1.996366	* n	-0.658464
-2.075547	* not	-0.4667628
-1.283155	* o	-0.7184116
-1.312119	* p	-0.3438711
-2.774517	* printf
-1.598426	* q	-0.2730012
-2.297396	* r	-0.4429072
-1.695336	* s	-0.1669479
-2.774517	* sin
-2.172457	* sizeof	0.544068
-2.297396	* t
-2.473487	* tyr
-1.628389	* u	-0.2081227
-2.473487	* x
-2.075547	* y	-0.3350407
-2.473487	* z
-1.653213	*= !
-1.352183	*= (
-1.352183	*= -	-0.4099386
-1.653213	*= 0.7
-1.653213	*= 02
-1.176091	*= 1	-0.4385424
-1.653213	*= 256
-1.653213	*= C
-1.653213	*= I
-0.8750613	*= Q	-0.7333875
-1.352183	*= Y	-0.4130037
-1.653213	*= _
-0.7501225	*= g	-0.8651422
-0.6532125	*= o	-0.9766206
-1.352183	*= s	-0.4380971
-1.653213	*= t
-1.653213	*= u
-1.653213	*= z
0	*m,!*m?H:" upgrade
-2.138303	+ !
-2.439333	+ "fl!"
-0.8830302	+ (	-0.3308101
-1.740363	+ )	-0.6297101
-1.837273	+ *
-2.439333	+ ,
-1.962211	+ 0
-2.439333	+ 0.5
-0.9769347	+ 1	-0.6311903
-2.439333	+ 1.5
-2.439333	+ 11
-2.439333	+ 12
-2.439333	+ 128L
-2.439333	+ 138
-2.138303	+ 16
-2.439333	+ 18
-2.439333	+ 19205553
-1.48509	+ 2	-0.1245043
-2.439333	+ 20
-2.439333	+ 287
-2.439333	+ 2L
-1.661181	+ 3	-0.2013271
-2.439333	+ 32
-2.138303	+ 4	-0.3230243
-2.439333	+ 4.5
-2.439333	+ 42
-2.439333	+ 44
-2.439333	+ 4L
-1.962211	+ 5	-0.4288166
-2.138303	+ 512
-2.439333	+ 58
-2.439333	+ 6
-2.439333	+ 667
-2.138303	+ 7
-2.439333	+ 74
-2.439333	+ 79
-2.138303	+ 8
-2.439333	+ 84
-2.439333	+ 86400
-2.439333	+ 99
-1.48509	+ </s>
-2.439333	+ A
-2.138303	+ B	-0.4126633
-2.439333	+ C
-2.439333	+ E
-2.439333	+ EOF
-1.962211	+ F
-2.138303	+ H
-2.439333	+ J
-1.962211	+ N	-0.370666
-2.439333	+ O4
-2.439333	+ P
-2.439333	+ Q
-2.439333	+ Q0
-2.439333	+ Q5
-2.439333	+ R
-2.439333	+ T
-2.439333	+ TMP_MAX
-2.439333	+ V
-2.439333	+ X
-2.439333	+ Y
-1.661181	+ _	-0.7402911
-2.439333	+ _Q
-1.962211	+ __	0
-2.138303	+ __STDC__
-1.594235	+ a	-0.4684697
-2.439333	+ abs
-2.439333	+ asn
-2.439333	+ b
-1.837273	+ c
-2.439333	+ cos
-1.962211	+ d	-0.4229253
-1.962211	+ e
-2.138303	+ f
-1.837273	+ g	-0.2903937
-1.325389	+ i	-0.5800945
-2.138303	+ j	-0.4631105
-1.962211	+ k	-0.396963
-1.962211	+ l
-2.439333	+ location
-1.962211	+ m
-1.740363	+ n	-0.2023995
-1.594235	+ o
-2.138303	+ p
-2.439333	+ q
-1.661181	+ s	-0.7608464
-2.439333	+ sTaa
-1.962211	+ t	-0.4676797
-1.740363	+ u	-0.6390435
-2.439333	+ unk
-2.138303	+ v
-2.439333	+ wnS
-2.138303	+ x
-2.439333	+ y
-1.962211	+ z	-0.5716774
-1.962211	+ ~
-1.50515	++ %	-0.6728672
-2.10721	++ &
-2.10721	++ &&
-0.7454821	++ )	-0.1118596
-1.80618	++ *
-2.10721	++ +=
-1.262112	++ ,	-0.3563849
-1.80618	++ -
-2.10721	++ /
-1.80618	++ :	-0.4425896
-1.028029	++ ;	-0.1009938
-1.329059	++ <
-1.40824	++ </s>
-2.10721	++ <=
-1.065817	++ =	-0.3310205
-2.10721	++ ==
-2.10721	++ ?
-1.80618	++ N
-1.50515	++ T	-0.5790761
-1.152967	++ ]	-0.2899354
-2.10721	++ c
-2.10721	++ f
-2.10721	++ g
-1.630089	++ i	-0.562657
-2.10721	++ ile
-1.50515	++ j
-2.10721	++ l
-2.10721	++ leu
-2.10721	++ n
-1.630089	++ not	-0.2449141
-2.10721	++ p
-2.10721	++ q
-1.80618	++ s	-0.3911006
-2.10721	++ s_4
-1.80618	++ tla	-0.1760913
-2.10721	++ u
-2.10721	++ v
-1.329059	++ xor	-0.7716691
0	+99*! *m,!*m?H:"
-1.443263	+= !	-0.2863067
-2.045323	+= 'a'
-0.9661418	+= (	-0.2816832
-2.045323	+= .05
-2.045323	+= .1
-2.045323	+= 0.5
-1.568202	+= 1	-0.4065402
-2.045323	+= 1.5
-2.045323	+= 16
-2.045323	+= 194
-1.443263	+= 2	-0.4446693
-2.045323	+= 21
-2.045323	+= 4
-2.045323	+= 4u
-2.045323	+= 5
-2.045323	+= 7
-2.045323	+= A
-1.744293	+= E	-0.4018703
-1.744293	+= F	-0.444121
-1.443263	+= H	-0.5887545
-2.045323	+= K
-2.045323	+= M
-1.443263	+= O1
-2.045323	+= O8
-2.045323	+= Q
-1.744293	+= U
-2.045323	+= UV_DROP
-1.744293	+= V	-0.39794
-1.568202	+= Y	-0.4507923
-2.045323	+= _
-1.568202	+= a	-0.4451342
-1.744293	+= be	-0.05115253
-1.744293	+= bf	-0.30103
-2.045323	+= bt
-2.045323	+= c
-1.568202	+= d	-0.4229253
-1.744293	+= e	-0.4077948
-1.443263	+= g	-0.2119297
-2.045323	+= h
-1.346353	+= i	-0.6294304
-1.346353	+= l	-0.3324385
-1.09108	+= o	-0.4473449
-1.744293	+= p
-2.045323	+= printf
-2.045323	+= r
-1.744293	+= s	-0.4598164
-1.744293	+= u
-2.045323	+= v
-1.568202	+= w	-0.5580432
-3.070776	, !
-3.070776	, ""
-2.593655	, "$"	0
-2.593655	, "%s"	0.09691
-3.070776	, "('A)"
-3.070776	, "('A`)"
-3.070776	, "(A`)"
-3.070776	, "=:$"
-2.769747	, ">	0
-3.070776	, "d"
-2.593655	, "r"	0
-3.070776	, "usage:
-1.956833	, &	-0.06543092
-2.468716	, ','	0.09691
-1.672836	, '_'	0
-1.866656	, (	-0.1929915
-2.167686	, )	-0.4119013
-1.417564	, *	-0.2688453
-2.593655	, ++	-0.463333
-2.593655	, ,
-2.371806	, -	-0.3307574
-3.070776	, --
-2.593655	, ...	0
-1.307348	, 0	-1.460705
-3.070776	, 0x98BADCFE
-3.070776	, 0xEFCDAB89
-1.690565	, 1	-1.172603
-3.070776	, 1.3
-3.070776	, 128
-2.593655	, 16	-0.4471581
-2.070776	, 2	-0.4409091
-3.070776	, 24
-3.070776	, 256
-2.593655	, 3
-3.070776	, 3.9999e5
-3.070776	, 30
-3.070776	, 308438
-2.593655	, 32	-0.4074853
-3.070776	, 3285377520
-3.070776	, 4
-3.070776	, 5
-2.769747	, 6	-0.3631779
-3.070776	, 60
-3.070776	, 65544
-2.769747	, 8
-3.070776	, 85
-3.070776	, 9
-3.070776	, <
-1.417564	, </s>
-2.769747	, =	-0.476097
-2.371806	, A	-0.530178
-2.371806	, B	-0.6167833
-2.070776	, C	-0.3511966
-2.593655	, D
-3.070776	, DefaultGC
-3.070776	, DefaultVisual
-2.593655	, E	-0.4247332
-3.070776	, EOF
-2.292625	, F	-0.4206399
-3.070776	, F_
-2.769747	, G	-0.3409015
-2.468716	, H	-0.5587913
-2.371806	, I	-0.6093593
-2.593655	, J
-1.956833	, K	-0.9378521
-2.593655	, L	-0.4578161
-2.593655	, M
-2.769747	, N
-1.924648	, O	-0.3191282
-2.292625	, O0	-0.4301247
-3.070776	, O1
-2.769747	, O2
-3.070776	, O3
-3.070776	, O4
-2.769747	, O5
-3.070776	, O6
-3.070776	, O7
-3.070776	, O8
-3.070776	, O9
-2.769747	, OO
-2.769747	, P
-1.991595	, Q	-0.07581024
-2.468716	, Q0	-0.4648868
-2.769747	, Q1
-2.593655	, Q2	-0.3309932
-3.070776	, Q3
-2.593655	, Q4
-3.070776	, Q5
-2.769747	, Q6
-3.070776	, Q7
-3.070776	, Q8
-3.070776	, Q9
-2.593655	, QO	-0.39794
-3.070776	, QQ
-3.070776	, RootWindow
-2.292625	, S
-2.769747	, SEEK_SET	0
-2.292625	, T	-0.4588325
-3.070776	, TIOCGWINSZ
-2.468716	, U	-0.5383909
-3.070776	, V
-2.225678	, W	-0.4917948
-3.070776	, X
-2.769747	, Y
-0.6711028	, _	-1.393589
-3.070776	, _0
-2.593655	, _O	-0.3802113
-2.593655	, _Q	-0.3802113
-1.991595	, __	-0.3679767
-3.070776	, __VA_ARGS__
-3.070776	, _f
-3.070776	, _i
-1.924648	, a	-0.4465151
-3.070776	, a_
-3.070776	, ar
-3.070776	, arg
-2.769747	, au	0
-2.029384	, b	-0.2882437
-2.769747	, bA
-2.769747	, bB
-2.769747	, bC
-2.769747	, bD
-3.070776	, bb
-3.070776	, be
-2.769747	, bf	-0.30103
-3.070776	, bg
-3.070776	, bi
-3.070776	, bo
-3.070776	, bq
-3.070776	, bt
-3.070776	, bu
-3.070776	, bv
-2.769747	, bz
-1.991595	, c	-0.3653621
-3.070776	, c8
-3.070776	, ch
-2.070776	, char	-0.4993976
-2.468716	, const	-0.4357286
-1.709049	, d	-0.4362338
-3.070776	, do
-3.070776	, dup
-1.924648	, e	-0.4857369
-2.116534	, f	-0.8668778
-3.070776	, fopen
-3.070776	, fw
-2.225678	, g	-0.7010664
-2.769747	, gln	-0.3143939
-2.593655	, glu	-0.1760913
-3.070776	, go
-2.292625	, h	-0.4507923
-1.565627	, i	-0.6278672
-2.225678	, int	-0.1229602
-3.070776	, ioctl
-1.840328	, j	-0.3792767
-2.116534	, k	-0.396963
-2.029384	, l	-0.8267224
-3.070776	, le
-3.070776	, longjmp
-2.769747	, lu
-2.769747	, lv
-3.070776	, lys
-2.029384	, m	-0.5469666
-1.728354	, n	-0.2227354
-1.866656	, o	-0.5482833
-2.769747	, of	0
-3.070776	, op
-1.866656	, p	-0.2586787
-3.070776	, pow
-3.070776	, pu
-2.593655	, q
-2.116534	, r	-0.3651475
-3.070776	, rand
-2.167686	, s	-0.3640817
-2.769747	, si	0
-2.468716	, sizeof	0.146128
-3.070776	, sprintf
-3.070776	, stdin
-3.070776	, strlen
-1.769746	, t	-0.5714291
-1.769746	, u	-0.976876
-3.070776	, unk
-3.070776	, usleep
-2.167686	, v	-0.1573766
-3.070776	, val
-2.070776	, w	-0.1301399
-3.070776	, write
-2.029384	, x	-0.2632414
-2.167686	, y	-0.3686733
-2.468716	, z
-3.070776	, ~
0	,101 +99*!
-2.186108	- &
-1.407957	- (	-0.2128176
-2.487138	- )
-2.010017	- *
-2.487138	- .05
-2.487138	- 0.5
-0.8436857	- 1	-0.2027606
-2.487138	- 1.3
-2.487138	- 12
-2.487138	- 128
-2.487138	- 14202379
-2.487138	- 158
-2.487138	- 16
-2.487138	- 19
-2.487138	- 1933008
-1.708987	- 2	-0.3392526
-2.487138	- 205
-2.487138	- 22
-2.487138	- 24
-2.487138	- 257
-1.584048	- 3	-0.1673425
-2.487138	- 30
-2.487138	- 304
-2.010017	- 32	-0.4494498
-2.186108	- 33	0
-2.487138	- 35
-2.487138	- 37
-2.487138	- 4
-2.487138	- 488848
-2.487138	- 4u
-2.487138	- 5
-2.487138	- 508
-2.487138	- 59
-1.885078	- 6	-0.2662679
-2.487138	- 60
-2.487138	- 64
-2.010017	- 7
-2.487138	- 7.5
-2.186108	- 8
-2.487138	- 89
-2.010017	- 9	-0.3096302
-2.186108	- 90
-1.487138	- </s>
-2.186108	- A
-2.487138	- Acce
-2.186108	- B
-2.010017	- D
-2.186108	- E
-2.010017	- EOF
-2.487138	- F
-2.186108	- H
-2.010017	- I	-0.3783671
-2.487138	- K
-2.487138	- L
-2.487138	- M
-2.487138	- O1
-2.487138	- O7
-2.186108	- OO	-0.39794
-2.487138	- P
-2.186108	- Q
-2.487138	- Q0
-2.487138	- QO
-2.487138	- R
-2.186108	- V
-2.186108	- W	-0.4634774
-2.487138	- WebSocket
-2.487138	- X
-2.487138	- Y
-2.010017	- _	-0.5641998
-2.487138	- _O
-2.487138	- _Q
-1.487138	- __	-0.3467875
-1.708987	- a	-0.4451342
-2.186108	- asn	0.3357921
-1.708987	- b	-0.1679734
-1.584048	- c	-0.1024702
-1.708987	- d	-0.7769364
-2.487138	- d8
-2.487138	- dup2
-2.010017	- e
-1.584048	- f	-0.496376
-2.010017	- g	-0.388021
-2.487138	- h
-1.584048	- i	-0.5166297
-1.708987	- j	-0.4220737
-1.708987	- k	-0.1611997
-2.487138	- key
-2.487138	- l
-2.010017	- m
-1.64204	- n	-0.3031382
-2.010017	- o	-0.4473449
-1.788168	- p	-0.2114667
-2.487138	- q
-2.487138	- r
-2.186108	- s
-1.885078	- u	-0.5248047
-1.788168	- unk	-0.1760913
-1.708987	- v	-0.4254144
-2.010017	- x	-0.4277164
-1.373195	- ~	-0.08591464
-1.690196	-- &&
-0.7359536	-- )	-0.2829226
-1.389166	-- ,	-0.3729558
-1.690196	-- 1954
-0.6488034	-- ;	-0.07265466
-1.389166	-- </s>
-1.389166	-- =
-1.690196	-- >
-1.690196	-- E
-1.690196	-- H
-1.389166	-- O
-1.690196	-- R
-0.9120448	-- T	-0.7504209
-1.389166	-- [
-1.690196	-- g
-1.389166	-- j
-1.690196	-- q
-1.690196	-- v
-1.690196	-- val
-1.690196	-- xor
-1.146128	-= (
-1.623249	-= 061
-1.623249	-= 2
-1.623249	-= 4
-1.623249	-= 80
-1.623249	-= </s>
-1.623249	-= D
-1.623249	-= F
-1.146128	-= H	-0.4918445
-1.623249	-= V
-1.623249	-= b
-1.322219	-= be	-0.05115253
-1.322219	-= bf	-0.30103
-1.146128	-= d	-0.4229253
-1.623249	-= e
-1.322219	-= f	-0.4014006
-1.021189	-= g	-0.5655432
-1.623249	-= h
-1.623249	-= i
-1.021189	-= l	-0.6334684
-1.623249	-= r
-1.623249	-= t
-1.146128	-= u	-0.4573772
-1.322219	-= w	-0.4331044
-1.273001	-> a	-0.2463295
-0.79588	-> b	-0.5196497
-1.875061	-> c
-0.7289332	-> j	-0.4717263
-1.029963	-> n	-0.7008678
-1.273001	-> not
-1.273001	-> op	-0.1918855
-1.875061	-> pixels
-1.39794	-> val
-0.8336686	-> x	-0.4346375
-0.8336686	-> y	-0.4002112
-1.39794	-> z
-2.089905	. &
-2.089905	. /
-1.788875	. </s>
-2.089905	. ]
-1.186815	. _	-0.200161
-2.089905	. binary
-1.048512	. c	-0.5786296
-2.089905	. crea
-2.089905	. dat
-2.089905	. data
-1.487845	. e	-0.2317035
-2.089905	. getC
-2.089905	. href
-2.089905	. key
-2.089905	. keysym
-0.5336026	. not	-0.6470271
-2.089905	. offsetLeft
-2.089905	. offsetTop
-2.089905	. onmousemove
-1.390935	. p	-0.214955
-2.089905	. pageY
-2.089905	. putImageData
-1.487845	. q	-0.5362427
-2.089905	. send
-2.089905	. set
-2.089905	. slice
-2.089905	. st_mtime
-2.089905	. st_size
-2.089905	. subs
-2.089905	. sym
-1.788875	. t
-2.089905	. type
-0.8857851	. val	-0.2340832
-2.089905	. xkey
-1.089905	. y	-0.1841489
-0.1760913	... )	-0.4085373
-0.4771213	... </s>
0	.0 (
-0.4771213	.05 )
-0.4771213	.05 ;
-0.4771213	.05 </s>
-0.1760913	.1 )
-0.4771213	.1 :
0	.27 s
-0.4771213	.5 *
-0.4771213	.5 -
-0.4771213	.5 </s>
-1.968483	/ &
-1.123385	/ (
-1.968483	/ )
-1.968483	/ +
-1.968483	/ 1024.
-1.968483	/ 12
-0.7132105	/ 2	-0.3624825
-1.667453	/ 2.	0
-1.968483	/ 20
-1.968483	/ 24
-1.968483	/ 26
-1.491362	/ 3
-1.968483	/ 32768
-1.065393	/ 4	-0.3523913
-1.366423	/ 5	-0.1014576
-1.968483	/ 504
-1.968483	/ 6
-1.968483	/ 60
-1.968483	/ 60.
-1.968483	/ 768
-1.366423	/ 8	-0.5072737
-1.968483	/ 85
-1.968483	/ 88
-1.968483	/ </s>
-1.667453	/ I
-1.968483	/ M
-1.968483	/ O
-1.968483	/ O3
-1.491362	/ Q	-0.3988345
-1.968483	/ QQ
-1.968483	/ RI4
-1.968483	/ RM
-1.968483	/ SlM90
-1.667453	/ _	-0.439261
-1.366423	/ f	-0.276002
-1.968483	/ fabs
-1.968483	/ g
-1.968483	/ j
-1.968483	/ k
-1.667453	/ lM
-1.667453	/ n
-1.667453	/ p
-1.968483	/ scr
-1.968483	/ w
-0.845098	/= ++
-0.544068	/= 2
-0.845098	/= H
-0.845098	/= c
-0.845098	/= l
-0.845098	/= z
-1.932812	0 &&
-2.409933	0 (
-0.5774242	0 )	-0.6016272
-2.108903	0 +
-0.6246033	0 ,	-0.2695614
-1.087714	0 :	-0.1418318
-0.571084	0 ;	-0.1988214
-1.631782	0 <
-2.409933	0 </s>
-2.409933	0 ==
-1.506843	0 ?	-0.1641148
-1.409933	0 ]	-0.1217049
-2.409933	0 _t
-2.409933	0 m
-2.108903	0 ||
-2.108903	0 }
-0.4771213	0.5 *
-0.1760913	0.5 ;
0	0.7 ;
0	01 ]
0	02 </s>
0	024 )
0	03 ;
0	040 )
0	061 *
0	075 )
0	0d:`184>b)^15)OM :23h)QN<'
-0.30103	0u ,
-0.30103	0u ;
0	0x1 !=
0	0x3f0 )
0	0x67452301 ,
0	0x820008202625a0 ;
0	0x98BADCFE </s>
0	0xEFCDAB89 ,
0	0xf |
0	0xfc0 ||
0	0xfe0 ^
0	0xff00ff00ff ;
0	0xffff )
-1.823909	1 &	-0.4590982
-1.69897	1 &&	-0.1128406
-0.6382722	1 )	-0.2128355
-2.30103	1 *
-1.69897	1 +
-0.8239087	1 ,	-0.2250654
-1.070581	1 -	-0.1746743
-2.30103	1 4
-1.60206	1 :	-0.159488
-0.8239087	1 ;	-0.1161577
-2.30103	1 </s>
-1.346787	1 <<	-0.09416732
-2	1 ==	-0.4532091
-1.823909	1 ?
-2.30103	1 A
-1.823909	1 [
-0.7825161	1 ]	-0.3853356
-2.30103	1 ^
-2.30103	1 cq
-2	1 |
-1.823909	1 }	-0.4660053
0	1.159922023e9 ,
-0.30103	1.3 ,
-0.30103	1.3 </s>
0	1.5 ;
0	1.6937441874215991e190 ;
-0.69897	10 )
-1.176091	10 *
-0.8750613	10 +	-0.4675409
-0.8750613	10 ,
-1.176091	10 /
-1.176091	10 :
-0.8750613	10 ;
-1.176091	10 R
-1.176091	10 ||
-1.176091	10 }
0	1008 )
0	101 ==
-0.4771213	1023 )
-0.1760913	1023 |	-0.4490925
0	1024 /
0	1024. ;
0	105 <
-0.1760913	11 )
-0.4771213	11 ;
0	1103515245 &
0	112 ,
0	1152 +
-1	12 &
-0.69897	12 )
-1	12 +
-0.69897	12 -
-0.69897	12 </s>
-0.69897	12 >
0	123 :
0	12359778 ;
0	12365733 -
0	124 -
0	127 ;
-0.60206	128 &&
-0.30103	128 )	-0.3569624
-0.60206	128 ,
0	128L +
-0.30103	13 ,
-0.30103	13 ?
0	13000 ;
0	138 )
-0.1760913	14 &
-0.7781513	14 ]
-0.7781513	14 ^
0	14202379 *
0	14695981039346656037ULL ;	-0.292249
-0.544068	15 )	-0.4750979
-0.3679768	15 ,
-0.845098	15 ;
-0.845098	15 |
0	1500 ?
0	158 )
-1.30103	16 &&
-0.5228788	16 )	-0.1808711
-0.8239087	16 *
-1.30103	16 +
-0.8239087	16 ,
-1.30103	16 /
-0.8239087	16 ;	-0.292249
-1.30103	16 </s>
-1.30103	16 >
0	1600 &&
-0.1760913	16711935 ;	-0.4704639
-0.4771213	16711935 |
0	16774143 ;
0	16u )
-0.1760913	17 +
-0.4771213	17 ]
0	176 /
-0.69897	18 )
-0.69897	18 ,
-0.69897	18 </s>
-0.69897	18 ?
-0.69897	18 ]
0	19 )
0	1912 --
0	19205553 ;
0	193 +
0	1933008 </s>
0	194 ,
0	1954 )
0	196 -
0	197 )
0	198 ;
-0.30103	1LL +
-0.30103	1LL <<
0	1l N
-0.30103	1u )
-0.30103	1u ,
-1.79588	2 %
-1.619789	2 &
-2.09691	2 (
-0.5171264	2 )	-0.0381729
-0.89279	2 *	-0.1464407
-1.318759	2 +	-0.1276937
-0.8416375	2 ,	-0.2142855
-1.79588	2 -
-0.9829667	2 ;	0.1018055
-2.09691	2 </s>
-1.318759	2 ?
-2.09691	2 MJ
-0.9829667	2 ]	-0.1622706
-2.09691	2 _KK3
-1.619789	2 ||
-2.09691	2 }
0	2. )	-0.4724826
0	2.271681097355226e15 ,
-0.90309	20 %
-0.60206	20 )
-0.90309	20 *
-0.60206	20 </s>
-0.60206	20 ?
0	204 ]
0	205 )
-0.30103	21 -
-0.30103	21 ]
-0.30103	22 )
-0.30103	22 *
0	23 ;
0	234 ;
-0.60206	24 )
-0.90309	24 ,
-0.90309	24 ;
-0.60206	24 </s>
-0.90309	24 O3NF
-0.90309	24 ]
0	25 ;
0	250 ,
-0.845098	255 )
-0.845098	255 ,
-0.845098	255 -
-0.845098	255 :
-0.544068	255 ;
-0.845098	255 ?
-0.30103	256 ,
-0.60206	256 -
-0.60206	256 ;
0	256L +
0	257 ,
0	258063 &
-0.30103	26 ,
-0.30103	26 ]
0	27 )
0	275 )
0	276 )
0	28 &
0	287 )
0	2L )
0	2l NUO
-1.591065	3 &
-1.892095	3 (
-0.613341	3 )	-0.090675
-0.9378521	3 *	-0.1010404
-1.414973	3 +	-0.4560899
-1.046997	3 ,	-0.04196257
-1.193125	3 -	-0.2074668
-1.892095	3 4
-1.591065	3 :
-0.9890046	3 ;
-1.892095	3 </s>
-1.892095	3 ?
-1.892095	3 A
-1.892095	3 B
-0.6879746	3 ]	-0.3099585
-1.892095	3 _z
0	3' Q
0	3.135045272e9 ,
0	3.9999e5 )
-0.845098	30 &&
-0.845098	30 *
-0.845098	30 +
-0.544068	30 ;
-0.845098	30 ?
-0.845098	30 ]
0	304 -
0	308438 *
-0.60206	31 )
-0.1249387	31 ;
-0.5282738	32 )	-0.1452208
-0.9542425	32 +	-0.4161865
-0.8293038	32 ,
-1.431364	32 -
-1.431364	32 :
-0.7323937	32 ;	-0.03697647
-1.130334	32 <<	-0.4222726
-1.130334	32 ]	-0.430934
-1.431364	32 |
-0.30103	32768 )
-0.30103	32768 ,
0	3285377520 }
0	33 )
-0.30103	333 *
-0.30103	333 ;
0	3352537 *
-0.4771213	34 <
-0.4771213	34 </s>
-0.4771213	34 m
-0.69897	35 )
-0.69897	35 -
-0.69897	35 :
-0.69897	35 ?
-0.69897	35 R
-0.4771213	36 -
-0.1760913	36 :
-0.30103	37 +
-0.30103	37 ;
-0.30103	38 )
-0.30103	38 *
0	384 )
0	39 ;
0	3920 )
-1.886491	4 &
-1.886491	4 &&
-0.5247629	4 )	-0.3694046
-0.9834008	4 *	-0.1017009
-1.284431	4 +	-0.5536624
-0.9834008	4 ,
-1.108339	4 -
-1.886491	4 :
-1.108339	4 ;
-1.886491	4 <
-1.886491	4 </s>
-1.886491	4 ?
-1.886491	4 SNH
-0.8073095	4 ]	-0.4088838
-1.409369	4 |
0	4.023233417e9 ,
0	4.294967296e9 ,
0	4.5 )
0	4.503599627370496e15 ,
0	4.522871578970112e217 ;
0	4.6727004911171048e-153 ;
-0.20412	40 )	-0.1016899
-0.90309	40 :
-0.90309	40 ;
-0.90309	40 ?
0	4092 ^
0	41 )	-0.3569624
0	41088 ,
0	4190208 |
0	4194304 </s>
-0.09691001	42 )	-0.1808711
-0.69897	42 ;
0	44 +
0	45 )
0	48 ;
0	480 ,
0	488848 *
0	4L +
-0.30103	4u )
-0.30103	4u ;
-1.579784	5 %
-1.278754	5 &&
-0.4336556	5 )	-0.4697047
-1.278754	5 *
-0.9777236	5 ,
-1.579784	5 -
-1.579784	5 ;
-1.579784	5 </s>
-1.102662	5 ?
-1.579784	5 OMaMch
-0.6766936	5 ]	-0.01228216
0	50 ;
0	5000 +
0	504 *
0	508 ]
0	51 )
-0.60206	512 *
-0.60206	512 +
-0.60206	512 ;
-0.60206	512 </s>
0	512L )
0	516 ]
-0.30103	5200 ;
-0.30103	5200 ]
0	5298487 :
0	55 ?
-0.4771213	56 )
-0.1760913	56 ;	-0.428612
0	57 ;
-0.30103	58 :
-0.30103	58 >
-0.30103	59 ;
-0.30103	59 ==
0	5toG57j/3" </s>
-1.290035	6 %
-1.290035	6 &
-1.591065	6 &&
-0.6368221	6 )	-0.321312
-1.113943	6 *	-0.4727196
-1.113943	6 ,	-0.4978946
-1.591065	6 -
-1.591065	6 /
-1.591065	6 :
-1.113943	6 ;
-1.591065	6 <
-1.591065	6 </s>
-1.591065	6 >
-1.290035	6 ?
-1.591065	6 N
-1.591065	6 O
-0.9890046	6 ]	-0.2548427
-1.591065	6 sN
-1.591065	6 yN
-0.20412	60 )	-0.2777811
-0.60206	60 *	-0.4405916
-0.90309	60 /
0	60. /
-0.1760913	61 :
-0.4771213	61 ;
-0.30103	62 ;
-0.30103	62 ?
-0.30103	63 )	-0.4698513
-0.60206	63 ,
-0.60206	63 <<
0	63504 ;
-1.079181	64 &
-0.7781513	64 )
-1.079181	64 *
-0.3802112	64 ,
-1.079181	64 :
-1.079181	64 ;
-1.079181	64 </s>
0	64u )
0	65280 )
0	65307 ;
-0.30103	65536 ;
-0.30103	65536 ]
0	65544 >
0	667 ,
0	67 *
0	69 j
0	6990400 ;
-1.518514	7 &
-1.518514	7 &&
-0.819544	7 )	-0.2175014
-1.217484	7 *
-0.916454	7 ,
-1.518514	7 -
-1.518514	7 7
-1.518514	7 :
-1.217484	7 ;
-1.518514	7 <
-1.217484	7 </s>
-1.518514	7 ?
-1.041393	7 O
-1.518514	7 OMQ
-1.518514	7 ON8r
-0.819544	7 ]	-0.1756615
-1.518514	7 sN
0	7.5 )
0	7.90055321525613e115 ;
0	70 )
-0.30103	74 )
-0.30103	74 </s>
0	75 ?
0	76 )
-0.60206	768 ;
-0.60206	768 </s>
-0.30103	768 ]
-0.30103	77 ;
-0.30103	77 O
-0.60206	79 )
-0.60206	79 ;
-0.60206	79 ]
-0.60206	79 b
-1.230449	8 &
-1.70757	8 &&
-0.7075702	8 )	-0.1973812
-1.230449	8 +
-0.6661775	8 ,	-0.07022014
-1.40654	8 :
-0.9294189	8 ;	-0.2890438
-1.70757	8 <
-1.40654	8 >>	-0.449683
-1.40654	8 ?
-1.10551	8 ]
-1.70757	8 _a
-1.70757	8 b
-1.70757	8 j
-1.70757	8 k9
-1.40654	8 |	-0.4586379
0	8.44396048e8 ,
-1.146128	80 )
-0.146128	80 +	-0.9806229
-1.146128	80 ,
-1.146128	80 ;
-1.146128	80 ]
0	8000 </s>
-0.4771213	81 )
-0.4771213	81 -
-0.4771213	81 /
0	82 ;
0	84 )
-0.4771213	85 *
-0.4771213	85 +
-0.4771213	85 <<
-0.30103	86400 )
-0.30103	86400 -
0	88 )
0	881 ,
0	89 ?
0	8u +
-1.09691	9 %
-0.49485	9 )	-0.3258749
-1.09691	9 *
-1.39794	9 +
-1.39794	9 ,
-1.09691	9 -
-1.09691	9 ;	-0.4626258
-1.39794	9 <<
-1.09691	9 ?
-1.39794	9 g
-1.39794	9 j_la
-1.39794	9 j_laaaN
-1.39794	9 slltwzh
-0.30103	90 )
-0.30103	90 ;
0	91 )
-0.69897	92 &&
-0.69897	92 )
-0.69897	92 +
-0.39794	92 ;
0	93 ,
0	96 ^
-0.4771213	97 +
-0.1760913	97 ]
0	98 +
0	9858122 :
0	99 ]	-0.3644647
0	9999 ]
0	99999 )
-1.718778	: !
-2.1959	: ""
-2.1959	: ")$"
-2.1959	: "Q(j"
-2.1959	: "Q(jam"
-1.718778	: %
-1.89487	: &
-0.853477	: (	-0.3130694
-1.49693	: *	-0.3785353
-1.89487	: -
-0.8736804	: 0	-0.4920697
-1.718778	: 1
-2.1959	: 12365733
-2.1959	: 2
-2.1959	: 24
-2.1959	: 32
-2.1959	: 3352537
-2.1959	: 5
-1.89487	: 6
-2.1959	: 65536
-2.1959	: 69
-2.1959	: 79
-2.1959	: :
-1.116718	: </s>
-2.1959	: >
-2.1959	: C
-2.1959	: EOF
-2.1959	: G
-1.89487	: I	-0.3783671
-2.1959	: N
-2.1959	: O
-2.1959	: P
-2.1959	: R
-2.1959	: S
-1.89487	: T
-2.1959	: V
-1.718778	: _	-0.4288166
-2.1959	: _Zadat57
-2.1959	: _c
-2.1959	: a
-1.89487	: b
-2.1959	: break
-1.718778	: c
-2.1959	: case
-1.718778	: d
-1.89487	: e
-2.1959	: f
-2.1959	: fopen
-1.89487	: g
-1.718778	: gln	-0.30103
-2.1959	: goto
-1.89487	: h
-1.89487	: i
-2.1959	: j
-2.1959	: k8b
-2.1959	: l
-1.89487	: m
-2.1959	: main
-2.1959	: n
-2.1959	: p
-2.1959	: putchar
-2.1959	: q
-1.89487	: r	-0.4569179
-2.1959	: switch
-1.718778	: u	-0.4149733
-1.718778	: v	-0.4254144
-2.1959	: w
-2.1959	: webso
-2.1959	: x
-1.89487	: ~
0	:23h)QN<' /
-2.397593	; !	-0.6741464
-3.096562	; %
-3.096562	; &
-3.096562	; '(
-2.318411	; (	-0.16308
-1.483779	; )	-0.435923
-1.795532	; *	-0.3335404
-2.096562	; ++	-0.9683369
-3.096562	; --
-3.096562	; 0
-2.193472	; ;	-0.3947992
-0.4600745	; </s>
-2.397593	; A	-0.5870828
-2.318411	; B	-0.7151386
-2.096562	; D	-0.1625347
-2.318411	; E	-0.6661775
-2.795532	; F	-0.4084055
-2.318411	; G	0.5698755
-2.619441	; H	-0.5288281
-2.494503	; I	-0.5124493
-2.494503	; J	-0.1362197
-2.193472	; K	-0.2304489
-2.318411	; L	-0.4478319
-3.096562	; M
-3.096562	; N
-2.397593	; O
-2.494503	; P	-0.5619428
-2.795532	; Q
-3.096562	; Q_
-2.251464	; R	-0.2182145
-3.096562	; SDL_BlitSurface
-3.096562	; SDL_Delay
-3.096562	; SDL_Event
-3.096562	; SDL_FillRect
-3.096562	; SDL_Flip
-3.096562	; SDL_Init
-3.096562	; SDL_LoadWAV
-3.096562	; SDL_MixAudio
-3.096562	; SDL_OpenAudio
-3.096562	; SDL_PauseAudio
-2.494503	; T	-0.2385375
-1.84129	; U	-0.3714877
-1.982619	; V	-0.1597008
-1.866114	; W	-1.029007
-3.096562	; Window
-2.795532	; X	-0.4252035
-3.096562	; XEvent
-3.096562	; XImage
-3.096562	; XSelectInput
-2.795532	; Y	-0.441649
-1.920471	; _	-0.2642434
-3.096562	; __
-3.096562	; ___
-1.866114	; a	-0.4005023
-1.565084	; b	-0.261099
-3.096562	; bA
-3.096562	; ba
-3.096562	; bc
-2.619441	; bh	0.1249388
-3.096562	; bj
-2.494503	; break	0
-3.096562	; bz
-2.193472	; c	-0.1197991
-2.397593	; case
-2.251464	; char	0.1326256
-1.866114	; d	-0.3858358
-2.795532	; default	0
-2.397593	; e	-0.1566782
-2.619441	; else
-3.096562	; extern
-2.14232	; f	-0.4255342
-3.096562	; fgets
-2.494503	; float
-1.649404	; for	0
-3.096562	; fread
-3.096562	; free
-2.397593	; g	-0.3836996
-2.795532	; goto
-1.920471	; i	-0.7559914
-2.017381	; if	0.458638
-2.017381	; int	-0.08894107
-2.05517	; j	-0.3074451
-1.950434	; k	-0.4207529
-2.397593	; l	-0.3324385
-2.494503	; long	-0.1434221
-2.251464	; m	-0.1772208
-2.795532	; main	0.7781513
-3.096562	; memcpy
-2.05517	; n	-0.4882487
-2.017381	; o	-0.5954696
-1.982619	; p	-0.477501
-3.096562	; putchar
-2.318411	; q	-0.258278
-2.14232	; r	-0.1600045
-2.017381	; return	-0.2466723
-2.017381	; s	-0.3143939
-2.619441	; struct
-3.096562	; switch
-2.251464	; t	-0.2859846
-3.096562	; typedef
-1.920471	; u	-0.992864
-3.096562	; union
-2.397593	; v	-0.1751053
-3.096562	; va_end
-3.096562	; va_start
-2.494503	; void	-0.509306
-1.920471	; w	-0.3504348
-2.494503	; while	0
-2.193472	; x	-0.5200678
-2.318411	; xor	-0.7829501
-2.318411	; y	-0.6950486
-1.817809	; z	-0.4638795
-2.795532	; {
-3.096562	; |
-0.9759885	; }	-0.1161514
0	;b' %
-1.568202	< %
-2.170262	< (
-2.170262	< *
-2.170262	< /
-0.9941704	< 0	-0.8153761
-2.170262	< 11
-2.170262	< 127
-2.170262	< 13
-1.869232	< 14	0
-2.170262	< 16
-1.869232	< 18
-1.568202	< 2	-0.510545
-1.869232	< 20	-0.3521825
-1.568202	< 3
-2.170262	< 30
-2.170262	< 32
-2.170262	< 4
-1.869232	< 5
-2.170262	< 5200
-2.170262	< 57
-1.693141	< 6
-1.869232	< 60	-0.05115253
-2.170262	< 61
-1.869232	< 62
-2.170262	< 7
-2.170262	< 74
-2.170262	< 75
-2.170262	< 77
-1.869232	< 79
-2.170262	< 80
-2.170262	< 82
-2.170262	< 91
-2.170262	< 92
-2.170262	< :
-1.471292	< </s>
-1.869232	< A	-0.4138394
-1.869232	< B
-1.568202	< D	-0.241716
-1.869232	< E
-2.170262	< M
-2.170262	< O
-2.170262	< Q
-2.170262	< SPEED
-2.170262	< U
-2.170262	< W
-1.869232	< _	-0.439261
-1.471292	< a	-0.2061497
-2.170262	< abs
-2.170262	< asn
-1.693141	< b
-2.170262	< b4
-1.693141	< c
-1.693141	< d
-1.869232	< f	-0.4520932
-2.170262	< h
-1.693141	< i	-0.4449366
-2.170262	< j
-2.170262	< kP8
-2.170262	< l
-1.869232	< m
-1.39211	< n	-0.1292758
-1.39211	< not	-0.6128908
-2.170262	< p
-1.471292	< s	-0.6709413
-2.170262	< script
-1.869232	< t	-0.4580283
-1.869232	< u
-1.568202	< v
-1.869232	< x
-2.170262	< y
-2.170262	< ~
-1.071882	<< (
-1.293731	<< 1	-0.363612
-1.770852	<< 14
-1.770852	<< 15
-1.469822	<< 18
-1.770852	<< 23
-1.770852	<< 24
-1.770852	<< 30
-1.293731	<< 32	-0.3881802
-1.293731	<< 4	-0.3230243
-1.770852	<< 40
-1.770852	<< 5
-1.469822	<< 56	0
-1.469822	<< 6	-0.4423591
-1.770852	<< 60
-1.770852	<< 7
-0.925754	<< 8	-0.4162815
-1.469822	<< </s>
-1.770852	<< Q_
-1.469822	<< a
-1.770852	<< b
-1.469822	<< f	-0.4255342
-1.770852	<< i
-1.293731	<< l	-0.4548449
-1.770852	<< n
-1.469822	<< s
-1.168792	<< t
-1.469822	<< u	-0.4436975
-1.770852	<< unk
-1.770852	<< z
0	<<= b
-0.9542425	<= 24
-0.9542425	<= D
-0.9542425	<= L
-0.9542425	<= Q
-0.9542425	<= f
-0.9542425	<= k
-0.9542425	<= m
-0.9542425	<= optind
-0.9542425	<= q
0	<P~6" </s>
-2.735998	<s> !
-3.037028	<s> "
-3.037028	<s> "!:E%;!ea!!!WqE0z!f/y}!%!!Qi6!uzt!n}?]!bl!ak!SetR<"
-3.037028	<s> "!pv!;!Hm%Ro4"
-3.037028	<s> "%d
-3.037028	<s> "%f,%f,"
-3.037028	<s> "*_[512],**p=_,**d,b,q;for(b=0;b"
-3.037028	<s> "*p=#b,P[9999],*d=P,*e[]="
-3.037028	<s> "/"
-3.037028	<s> "258EAFA5-"
-3.037028	<s> "::::::::::::?_::::\"::.::::@:::'::-::::::::;!:):::::,:::::"
-3.037028	<s> ";;"
-3.037028	<s> ";Gam"
-3.037028	<s> ";GlockQ18"
-3.037028	<s> ";^Q<d|8=o;]Q<dj8<Pk8<c]'?;QQdi8?P'Q)d8<9`8?c;Qdh8=P']Q<`c8>PQ9_8"
-3.037028	<s> "<o_Q<o_QBdo`QQ';`Q=9`]8=bobQ_o_Q<o]8=';bQC(88cQ`bcgQ>oP']8<;cQ>98)^Q?''oc`Q>"
-3.037028	<s> "=(p-_+1)*9%512]=(O*)p;"
-3.037028	<s> ">b;og8=''`Q<`b8?'QQ9_8?c;dPe8dQa8<P]Q<``8=;'f8>QQ`]8?ocQQ_8=''_Q`8aQ"
-3.037028	<s> "?guhljL!^P%
-3.037028	<s> "CYOUQWIN!]Q=;of8BQQ)88bc]QA98P'Qo]8>oQQ_8CP;QQ98b`_8@P8(Q`]'^Q=`']QB)88"
-3.037028	<s> "M@K~|JOEF\\^~_NHI]"
-3.037028	<s> "Zj$x!~V!n&g8!cK!
-3.037028	<s> "bQQ]`8J;QQ`88bc99bd(`8iQ@''QQo^8E'`8c;QQ'Q``8?QQ`'kQ<o]8B9PQQ`';_Q<`_8<cbQ"
-3.037028	<s> "e.6!r!%l6G!n~^<i=%pEwL%P!'<!FQt%u
-3.037028	<s> "e:|
-3.037028	<s> "etu"
-3.037028	<s> "med);"
-3.037028	<s> "oc']Q]8<;cQ>`8bbQA``QQ''`Q?88P;dQ=`)nQ?*/;;"
-3.037028	<s> "oid
-2.258877	<s> %
-2.735998	<s> &
-2.559907	<s> &&	-0.2889319
-3.037028	<s> '7M{N^kh
-3.037028	<s> 'c'
-1.480725	<s> (	-0.07799866
-1.545666	<s> )	-0.1272845
-2.338058	<s> *
-2.559907	<s> +
-1.957847	<s> ++	-0.3485482
-2.735998	<s> +=
-1.622055	<s> ,	-0.05326723
-1.957847	<s> -	-0.1602446
-2.434968	<s> --
-2.559907	<s> .
-2.735998	<s> /
-2.338058	<s> 0	-0.2621647
-3.037028	<s> 0xffff
-2.559907	<s> 1
-3.037028	<s> 10
-3.037028	<s> 1152
-3.037028	<s> 128
-3.037028	<s> 15
-3.037028	<s> 16
-3.037028	<s> 16711935
-2.434968	<s> 2	-0.1436392
-3.037028	<s> 25
-3.037028	<s> 333
-2.735998	<s> 4
-3.037028	<s> 45
-3.037028	<s> 5
-3.037028	<s> 6
-3.037028	<s> 63504
-3.037028	<s> 64
-3.037028	<s> 65307
-2.434968	<s> 7
-2.559907	<s> 8
-3.037028	<s> 81
-3.037028	<s> 92
-3.037028	<s> 96
-2.559907	<s> :
-1.832908	<s> ;	-0.09797713
-2.735998	<s> <
-2.434968	<s> <<
-1.832908	<s> =	-0.1066554
-2.735998	<s> >
-2.434968	<s> >>
-2.338058	<s> ?
-2.434968	<s> A	-0.2377481
-3.037028	<s> Alan
-2.559907	<s> B
-2.735998	<s> C
-2.735998	<s> D	-0.4582359
-2.082785	<s> E	-0.3651475
-2.559907	<s> F	-0.4084055
-2.559907	<s> FILE	0
-3.037028	<s> G
-2.258877	<s> H	-0.7307266
-1.995635	<s> I	-0.1658053
-2.735998	<s> J
-2.19193	<s> K	-0.172457
-2.258877	<s> L
-2.19193	<s> M	-0.1850461
-3.037028	<s> MkQN
-2.434968	<s> N	-0.06963591
-2.559907	<s> O
-3.037028	<s> O1
-3.037028	<s> O2
-3.037028	<s> O7
-3.037028	<s> O8
-3.037028	<s> O_
-3.037028	<s> On
-2.735998	<s> P
-2.434968	<s> Q	-0.2685007
-3.037028	<s> Q1
-3.037028	<s> Q2
-3.037028	<s> Q3
-3.037028	<s> QO
-2.559907	<s> R
-3.037028	<s> S
-3.037028	<s> SDL_PollEvent
-3.037028	<s> SDL_Surface
-2.133938	<s> T
-2.434968	<s> U	-0.2486419
-3.037028	<s> Upgrade
-2.258877	<s> V	-0.1426675
-2.082785	<s> W	-0.4517706
-2.559907	<s> X
-3.037028	<s> XPutImage
-1.923084	<s> Y	-0.5090355
-2.19193	<s> Z	-0.3152704
-2.338058	<s> [
-2.338058	<s> ]	-0.519645
-2.082785	<s> _	-0.4647292
-3.037028	<s> _0
-2.735998	<s> __	0.1249388
-2.735998	<s> ____	0.8239088
-3.037028	<s> _f
-1.860937	<s> a	-0.2839966
-3.037028	<s> ageX
-2.735998	<s> ala
-2.434968	<s> and	-0.2747011
-2.559907	<s> asn	0.2108533
-2.082785	<s> b	-0.4259687
-3.037028	<s> bB
-3.037028	<s> bC
-3.037028	<s> be
-3.037028	<s> bl
-3.037028	<s> bn
-2.19193	<s> break	0
-3.037028	<s> bt
-2.735998	<s> bu
-3.037028	<s> by
-2.434968	<s> c	-0.5639396
-3.037028	<s> c8
-3.037028	<s> case
-2.559907	<s> char	0.0234811
-2.082785	<s> const	-0.4247332
-1.832908	<s> d	-0.7740887
-3.037028	<s> default
-2.434968	<s> do	0
-3.037028	<s> double
-1.714809	<s> e	-0.4713879
-2.735998	<s> else	-0.3853509
-3.037028	<s> er
-2.434968	<s> err	0
-3.037028	<s> errx
-2.735998	<s> exit	0
-2.338058	<s> f	-0.146128
-1.714809	<s> for	-0.08715022
-3.037028	<s> fputc
-2.338058	<s> free	0
-2.735998	<s> fseek	0
-3.037028	<s> fw
-1.58987	<s> g	-0.9922255
-3.037028	<s> getchar
-2.434968	<s> gly	0
-2.037028	<s> h	-0.1527678
-1.639088	<s> i	-0.9507819
-1.434968	<s> if	-0.07496464
-1.714809	<s> int	-0.1890562
-2.338058	<s> j	-0.6777807
-2.338058	<s> k
-1.957847	<s> l	-0.2148438
-3.037028	<s> lf
-2.559907	<s> long
-2.559907	<s> lys
-2.559907	<s> m
-3.037028	<s> mR8
-2.559907	<s> main	0.6532125
-2.559907	<s> met	-0.3679768
-2.338058	<s> n
-2.735998	<s> ndif	0
-3.037028	<s> new
-2.082785	<s> not	-0.7119349
-1.714809	<s> o	-0.7455639
-3.037028	<s> oM
-3.037028	<s> ocket
-3.037028	<s> on
-2.735998	<s> op	-0.30103
-3.037028	<s> open
-3.037028	<s> optind
-2.258877	<s> p	-0.3861548
-2.735998	<s> phe	0
-2.258877	<s> printf	0
-3.037028	<s> pt
-2.735998	<s> putchar	0
-2.735998	<s> puts	0
-2.434968	<s> q
-2.338058	<s> r
-3.037028	<s> rQ
-1.957847	<s> return	-0.07058106
-2.735998	<s> rewind	0
-3.037028	<s> rror
-1.8909	<s> s	-0.7156118
-2.434968	<s> sec	-0.3467875
-3.037028	<s> signal
-3.037028	<s> sin
-2.338058	<s> static	0.07918125
-3.037028	<s> stdin
-3.037028	<s> strchr
-2.735998	<s> switch	0
-2.133938	<s> t	-0.3894518
-3.037028	<s> tf
-2.338058	<s> thr	-0.09691003
-3.037028	<s> tr
-3.037028	<s> type
-1.995635	<s> typedef	-0.02020337
-2.735998	<s> tyr	-0.2552725
-2.082785	<s> u	-0.3357921
-2.19193	<s> unsigned	-0.06694677
-2.338058	<s> v
-2.735998	<s> val
-2.338058	<s> void	-0.305186
-3.037028	<s> volatile
-2.037028	<s> w	-0.3301203
-1.957847	<s> while	0
-2.559907	<s> x
-1.957847	<s> y	-0.3602401
-2.19193	<s> z	-0.7611962
-1.832908	<s> {	-0.5793224
-1.11795	<s> }	-0.5844247
-2.735998	<s> ~
-2.229938	= !
-2.928908	= "
-2.928908	= "<;iQ=/*do<;dQ=ook8?boc;aQ=odr8>oc;_Q<ox8>oc"
-2.928908	= "NBLF\1Nblfgjmf\1"
-2.928908	= "\n\n\n"
-2.928908	= "syntax_error!"
-2.326848	= &	-0.6772507
-2.627878	= '128'
-2.928908	= 'width:256px;height:256px'
-1.26615	= (	-0.2712758
-2.627878	= )	-0.4765441
-1.586485	= *	-0.5739436
-2.451787	= ,	-0.4763827
-1.56718	= -	-0.3694394
-2.928908	= .1
-0.9795177	= 0	-1.124093
-2.928908	= 040
-2.928908	= 0u
-2.928908	= 0x1
-2.928908	= 0x820008202625a0
-1.56718	= 1	-0.8165728
-2.928908	= 1.159922023e9
-2.229938	= 10	-0.1597009
-2.928908	= 1024
-2.928908	= 112
-2.928908	= 12
-2.928908	= 12359778
-2.928908	= 13000
-2.627878	= 14695981039346656037ULL	0
-2.928908	= 16
-2.928908	= 17
-2.928908	= 196
-2.928908	= 1LL
-2.451787	= 2	-0.4294293
-2.928908	= 2.271681097355226e15
-2.928908	= 234
-2.928908	= 250
-2.451787	= 255
-2.928908	= 256
-2.928908	= 26
-2.150756	= 3	-0.6853971
-2.928908	= 3.135045272e9
-2.928908	= 30
-2.451787	= 32
-2.928908	= 32768
-2.928908	= 333
-2.928908	= 34
-2.928908	= 37
-2.229938	= 4	-0.6910011
-2.928908	= 4.023233417e9
-2.928908	= 4.294967296e9
-2.928908	= 4.503599627370496e15
-2.928908	= 40
-2.928908	= 41088
-2.928908	= 48
-2.928908	= 480
-2.627878	= 5	-0.4288166
-2.928908	= 50
-2.928908	= 5000
-2.928908	= 512
-2.326848	= 6	-0.2662679
-2.928908	= 64
-2.928908	= 6990400
-2.150756	= 7	-0.1199753
-2.451787	= 8	-0.3716111
-2.928908	= 8.44396048e8
-2.928908	= 80
-2.928908	= 9
-1.673635	= </s>
-1.606688	= A	-0.4264286
-1.849726	= B	-0.4406919
-2.025818	= C	-0.3039744
-2.150756	= D	-0.3732251
-2.229938	= E	-0.1911799
-2.150756	= F	-0.3414587
-2.150756	= H	-0.06587577
-2.229938	= I	-0.375276
-2.928908	= J
-2.08381	= K	-0.3569814
-2.326848	= L	-0.2717406
-2.326848	= M	-0.5362427
-1.849726	= N	-0.4956047
-1.928908	= O	-0.4635647
-2.928908	= O0
-2.928908	= O5
-2.451787	= OO	-0.39794
-2.627878	= O_	0.4771213
-2.928908	= O_o
-2.451787	= P
-1.928908	= Q	-0.5447071
-2.928908	= Q7
-2.928908	= Q8
-2.451787	= Q_	0
-2.451787	= R	-0.4168254
-2.326848	= S
-2.928908	= SDL_CreateRGBSurface
-2.928908	= SDL_SetVideoMode
-1.974665	= T	-0.1661279
-2.928908	= TIMESTEP
-2.928908	= U
-2.451787	= W
-2.928908	= X
-2.928908	= XCreateImage
-2.928908	= XCreateSimpleWindow
-2.928908	= XLookupKeysym
-2.928908	= XOpenDisplay
-2.928908	= Y
-2.627878	= Z	-0.4101745
-1.974665	= _	-0.8720558
-2.928908	= _0
-2.627878	= _Q
-2.451787	= __	-0.4648868
-2.928908	= __TIME__
-2.928908	= _b
-1.78278	= a	-0.2161581
-1.849726	= b	-0.237643
-2.928908	= b5g
-2.627878	= bA
-2.928908	= bB
-2.928908	= bC
-2.627878	= bE	-0.07918125
-2.928908	= ba
-2.928908	= bb
-2.928908	= bf
-2.928908	= bl
-2.928908	= bm
-2.08381	= bp	0
-2.928908	= bs
-2.928908	= buf
-2.928908	= bx
-2.928908	= by
-2.627878	= bz
-1.78278	= c	-0.1803283
-2.451787	= calloc	0
-2.928908	= cos
-1.698459	= d	-0.5611725
-1.724788	= e	-0.5382659
-2.627878	= exp	0
-1.650154	= f	-0.5291736
-2.928908	= fgetc
-2.928908	= fopen
-2.627878	= fread	0
-2.928908	= function
-2.326848	= g	-0.5655432
-2.451787	= getchar	0
-2.928908	= getopt
-2.326848	= gln	-0.39794
-1.974665	= h	-0.536707
-2.627878	= his
-1.928908	= i	-0.2493232
-1.887515	= j	-0.4083835
-2.229938	= k
-2.326848	= l
-2.928908	= lv
-2.08381	= m	-0.1180993
-2.928908	= main
-2.627878	= malloc	0
-2.025818	= n	-0.2804742
-2.928908	= new
-2.928908	= nk
-2.451787	= not	-0.3698528
-1.724788	= o	-0.3550797
-2.928908	= op
-2.025818	= p	-0.539649
-2.627878	= pow	0
-2.928908	= pyl
-2.326848	= q	-0.5812099
-2.229938	= r	-0.1876346
-2.928908	= read
-2.326848	= realloc	0
-2.928908	= round
-2.025818	= s	-0.09327572
-2.451787	= sizeof	0.243038
-2.928908	= sqrt
-2.928908	= strrchr
-2.928908	= system
-2.150756	= t	-0.4277164
-2.928908	= tmpfile
-2.025818	= trp	-0.3802113
-1.849726	= u	-0.4673614
-2.627878	= unk	-0.39794
-1.849726	= v	-0.3779897
-2.928908	= w
-2.928908	= window
-1.887515	= x	-0.2604305
-2.928908	= xle
-1.928908	= y	-0.2338798
-2.150756	= z	-0.4339643
-1.974665	= {
-1.447158	== '\n'	0
-1.748188	== (
-1.447158	== *
-1.447158	== -
-1.748188	== 0
-1.447158	== 1
-1.447158	== 10
-1.748188	== 2
-1.748188	== 27
-1.748188	== 275
-1.748188	== 276
-1.447158	== 3
-1.748188	== 32
-1.447158	== 35
-1.748188	== 4
-1.447158	== 5	-0.2775489
-1.748188	== 6
-1.748188	== 8
-1.748188	== 81
-1.748188	== 9
-1.748188	== 92
-1.748188	== </s>
-1.748188	== B
-1.748188	== D
-1.447158	== NULL	0
-1.447158	== T	-0.4041634
-1.146128	== a	-0.2879871
-1.748188	== arg
-1.271067	== b	-0.4607309
-1.447158	== c
-1.748188	== cys
-1.748188	== gln
-1.748188	== h
-1.447158	== n
-1.748188	== not
-1.748188	== r
-1.447158	== u
-1.748188	== ~
-1.39794	> (
-1.09691	> 0	-0.1709919
-1.875061	> 1
-1.875061	> 12
-1.875061	> 1600
-1.875061	> 197
-1.176091	> 2	-0.4533184
-1.875061	> 20
-1.875061	> 255
-1.875061	> 3
-1.875061	> 30
-1.875061	> 31
-1.875061	> 32
-1.574031	> 4
-1.273001	> 5	-0.2653144
-1.875061	> 55
-1.39794	> 6
-1.875061	> 64
-1.574031	> 7
-1.875061	> 76
-1.574031	> 9
-1.875061	> 92
-1.875061	> ;
-1.875061	> <
-1.574031	> </s>
-1.875061	> B
-1.875061	> BUFSIZ
-1.875061	> F
-1.875061	> H
-1.875061	> I
-1.875061	> Q0
-1.574031	> QQ	-0.30103
-1.273001	> _	-0.2631698
-1.875061	> a
-1.875061	> bs
-1.875061	> c
-1.875061	> char
-1.875061	> d_C
-1.875061	> e
-1.875061	> glu
-1.875061	> h
-1.574031	> i
-1.875061	> l
-1.875061	> lrand48
-1.875061	> p
-1.875061	> q
-1.875061	> s
-1.875061	> t
-1.875061	> w
-1.875061	> x
-0.7781513	>= (
-0.4771213	>= 0
-0.7781513	>= 2
-0.7781513	>= Q
-0.7781513	>= d
-1.213075	>> (
-1.690196	>> ++
-1.690196	>> 12
-1.389166	>> 14	0
-1.213075	>> 2	-0.3197305
-1.690196	>> 20
-1.690196	>> 28
-1.690196	>> 3
-1.389166	>> 31	0.1249388
-1.389166	>> 32	-0.4436975
-1.690196	>> 38
-1.389166	>> 4
-1.213075	>> 40	-0.1760913
-1.690196	>> 5
-1.690196	>> 56
-1.389166	>> 6
-0.845098	>> 8	-0.4597472
-1.213075	>> </s>
-1.389166	>> a	-0.4533545
-1.690196	>> f
-1.690196	>> lys
-1.690196	>> n
-1.389166	>> s
-1.690196	>> u
-1.389166	>> unk	-0.1760913
-1.389166	>> z	-0.1989541
-0.4771213	>>= 4
-0.4771213	>>= 7
-0.4771213	>>= e
-2.09691	? !
-1.79588	? ""	-0.3309932
-2.09691	? ";"
-2.09691	? "{;}"
-2.09691	? "}$"
-1.79588	? &
-1.318759	? (
-1.318759	? *
-1.619789	? ++
-2.09691	? -
-1.619789	? --	-0.4203936
-1.055517	? 0	-1.04216
-1.619789	? 1	-0.5910646
-2.09691	? 124
-2.09691	? 1l
-2.09691	? 255
-2.09691	? 256
-1.79588	? 3
-2.09691	? 32
-1.79588	? 8	-0.4597472
-2.09691	? 9858122
-1.79588	? </s>
-1.79588	? D
-1.79588	? E	-0.3651475
-2.09691	? FILENAME_MAX
-1.79588	? G	0.03476211
-2.09691	? H
-2.09691	? H_1
-2.09691	? I
-1.79588	? L	-0.4376127
-1.79588	? O
-2.09691	? RGB
-2.09691	? S
-1.39794	? T	-0.5755212
-2.09691	? U
-2.09691	? _k
-1.79588	? a
-1.619789	? d
-2.09691	? e
-1.79588	? g
-1.619789	? glu	-0.4471581
-2.09691	? h
-1.79588	? i
-1.619789	? k
-1.39794	? n
-1.619789	? o	-0.521831
-1.619789	? p	-0.3861548
-2.09691	? putchar
-2.09691	? q
-2.09691	? r
-1.619789	? s	-0.3911006
-2.09691	? strlen
-2.09691	? t
-1.79588	? u
-1.251812	? v	-0.4719201
-2.09691	? w
-1.79588	? x
-2.09691	? ~
0	?" "8!@dP,!!o+fb"
-1.168792	A )	-0.1808711
-1.770852	A +
-1.770852	A +=
-0.9927008	A ,	-0.1591612
-1.770852	A -
-0.867762	A ->	-0.7693774
-0.566732	A ;	-0.1573292
-1.770852	A </s>
-0.867762	A =	-0.5680219
-0.6569086	A [	-0.7931049
0	Acce </s>
0	Alan Turing
-0.763428	B &	-0.07519076
-1.462398	B &&
-0.7220353	B (	-0.429767
-0.9852768	B )	-0.446354
-1.064458	B +	-0.6828832
-1.161368	B ,
-0.860338	B ->	-0.7693774
-1.763428	B :
-1.064458	B ;	-0.03697647
-1.763428	B </s>
-1.161368	B =
-1.763428	B ==
0	BUFSIZ )
-1.389166	C &
-0.6110148	C (	-0.5756356
-1.088136	C )	-0.4819012
-1.213075	C *	-0.4741918
-1.389166	C +
-1.690196	C +=
-1.088136	C ,
-1.389166	C -
-1.389166	C /	-0.4380572
-1.690196	C :
-1.213075	C ;
-1.690196	C <
-1.389166	C =
-1.389166	C ==
-1.088136	C >
-1.690196	C [
-1.690196	C ^
-1.690196	C a
-1.690196	C p
-1.672098	D %
-1.070038	D &&	-0.1128406
-1.371068	D (
-1.672098	D )
-1.194977	D +
-1.672098	D ,
-1.672098	D -=
-1.672098	D ;
-1.371068	D </s>
-0.8939466	D =	-0.169909
-1.672098	D ?
-1.070038	D [	-0.2940588
-1.672098	D ]
-0.8939466	D c	-0.4227636
-0.8939466	D d	-0.4337832
-0.9731278	D e	-0.6844922
-1.371068	D f
0	DefaultGC (
0	DefaultVisual (
0	Display *
-1.166331	E (	-0.4758988
-1.166331	E )
-0.6434527	E *	-0.6576502
-1.643453	E *=
-1.643453	E +
-1.342423	E ++
-1.643453	E +=
-0.9444827	E ,	-0.2196292
-0.7983546	E ;	-0.5835917
-1.643453	E </s>
-0.6434527	E =	-0.1502735
-0.3424227	EOF )	-0.1532648
-1.041393	EOF +
-0.7403627	EOF ;
-0.5642715	EOF ]	-0.5515514
0	ETIANMSURWDKGOHVF:L:PJBXCYZQ::54:3:::2&:+::::16=/:::(:7:::8:90" </s>
-1.311754	F %
-1.311754	F &
-0.5713912	F (	-0.2836889
-1.612784	F )
-1.135663	F *	-0.4405916
-1.612784	F +
-0.9138138	F ,	-0.2098778
-0.9138138	F -	-0.6234514
-1.612784	F /
-1.612784	F ;
-1.311754	F <
-0.8346326	F =
-1.612784	F >>
0	FILE *	-0.3898359
0	FILENAME_MAX :
-0.30103	F_ )
-0.30103	F_ ,
-0.1597008	G (	-0.1232569
-1.414973	G ,
-0.5698753	G [
-1.462398	H %
-1.763428	H &
-1.763428	H )
-0.9852768	H *	-0.1582104
-1.763428	H +
-1.763428	H ++
-0.91833	H ,	-0.2210917
-1.763428	H -
-1.763428	H --
-1.286307	H /
-0.6494846	H ;	-0.6123257
-1.763428	H <
-1.763428	H </s>
-1.763428	H <<
-0.8091855	H =
-1.763428	H >>
-1.462398	H ?
-1.763428	H C
-1.462398	H ]	-0.3644647
-1.763428	H char
-1.763428	H long
-1.763428	H short
0	H_1 )
-1.770852	I &
-0.6916708	I (	-0.171489
-1.293731	I )	-0.4085373
-1.770852	I *
-1.293731	I +
-1.770852	I ++
-1.469822	I ,
-1.469822	I -	-0.4728565
-1.770852	I :
-0.9927008	I ;	0.008781031
-1.770852	I <
-0.7294593	I =
-1.168792	I ==
-1.770852	I ?
-1.168792	I H
-1.770852	I [
-1.770852	I char
-1.770852	I int
-1.770852	I jmp_buf
-1.770852	I long
-1.770852	I void
-0.5006024	J (
-1.278754	J ,
-1.278754	J ;
-1.278754	J </s>
-0.9777236	J =
-0.5797836	J [
-1.278754	J l
-0.9777236	J }
-1.477121	K !=	-0.4313638
-1.778151	K %
-0.8239087	K (	-0.4641101
-0.8750613	K )	-0.6567228
-1.778151	K *
-1.477121	K ++
-1.778151	K +=
-1.30103	K ,
-1.778151	K -
-0.5477023	K ->	-0.5410241
-1.176091	K ;	-0.1161577
-1.778151	K <
-1.778151	K </s>
-0.9330532	K =	-0.1425324
-1.477121	K ?
0	KrgR'8@c]!%-q9V.3fa[E8X%dY'w!#H <P~6"
-1.963788	L %=
-1.486667	L (
-1.185637	L )	-0.05593239
-0.8846066	L *	-0.2621119
-1.662758	L +
-1.963788	L ++
-1.361728	L ,
-1.060698	L -	-0.1369374
-1.963788	L ;
-1.963788	L <
-1.963788	L </s>
-1.361728	L =
-1.662758	L ==
-1.963788	L >
-1.662758	L >>
-1.963788	L >>=
-1.963788	L ?
-1.963788	L T
-1.185637	L ]	-0.7119198
-1.963788	L a
-0.9223952	L d	-0.8907859
-1.11869	L e	-0.6740626
-1.361728	L f
-1.963788	L m
-1.963788	L n
-1.009545	L t	-0.1569983
0	L_tmpnam )
-1.50515	M &&
-0.50515	M (	-0.2175549
-1.028029	M )
-1.50515	M *=
-1.50515	M +=
-1.20412	M ,
-1.50515	M -=
-1.50515	M .
-1.20412	M ;
-1.50515	M <
-1.20412	M </s>
-0.90309	M =
-1.50515	M ==
-1.50515	M >
-1.50515	M qN
0	M8q;k' N_7vN
0	MJ 24
0	MK6lM L
0	McPc %
0	MkQN 77
-1.662758	N %
-1.662758	N &
-0.3840042	N (	-0.1568018
-0.9637879	N )	-0.1532648
-1.662758	N *
-1.662758	N +
-1.361728	N ,	-0.4601912
-1.185637	N ;
-1.662758	N <
-1.361728	N </s>
-1.060698	N =
-1.662758	N McPc
-1.361728	N [
-1.361728	N ]
-1.662758	N oNS
0	N4 RlMG
0	N8b %
0	N9 m
0	N9b %
0	NULL )	-0.533476
0	NUO <
0	N_1' 5
0	N_7vN 'nSM8
-1.672098	O %
-1.973128	O &
-1.973128	O &&
-0.8939466	O (	-0.2820022
-0.9317352	O )	-0.250245
-1.973128	O *
-1.371068	O +
-1.496007	O ++
-1.371068	O ,
-1.496007	O --	-0.3667088
-1.672098	O ->
-1.973128	O 8
-1.496007	O :
-1.274158	O ;	-0.1733395
-1.496007	O <	-0.4682276
-1.672098	O </s>
-0.5929166	O =	-0.4049425
-1.672098	O ?
-1.973128	O G
-1.973128	O Q
-1.973128	O S
-1.973128	O ^
-1.973128	O ckQaOrON
-1.973128	O j
-1.973128	O jQ
-1.973128	O sM
-1.973128	O {
-1.973128	O ~
-0.4149733	O0 +=	-0.3820008
-1.113943	O0 ,
-0.5118834	O0 -	-0.2981915
-0.6368221	O0 =
-0.845098	O1 )
-0.845098	O1 *
-0.544068	O1 ,
-0.845098	O1 =
-0.845098	O1 >
-0.845098	O1 ]
-0.845098	O2 *
-0.845098	O2 ,
-0.845098	O2 -
-0.845098	O2 /
-0.544068	O2 =
-0.845098	O2 >
-0.4771213	O3 )
-0.7781513	O3 -
-0.7781513	O3 /
-0.7781513	O3 </s>
-0.7781513	O3 =
0	O3NF (
-0.39794	O4 *
-0.69897	O4 +
-0.69897	O4 =
-0.69897	O4 |
-0.4771213	O5 )
-0.7781513	O5 +
-0.4771213	O5 ,
-0.7781513	O5 [
-0.60206	O6 +
-0.30103	O6 ,
-0.60206	O6 =
-0.60206	O7 )
-0.60206	O7 ,
-0.60206	O7 =
-0.60206	O7 Q
-0.4771213	O8 *
-0.4771213	O8 +
-0.4771213	O8 =
-0.1760913	O9 --
-0.4771213	O9 =
0	OMQ ]
0	OMaMch &
0	OMp RmPQ
0	ON8r %
-0.7781513	OO )
-1.079181	OO +=
-0.7781513	OO ,
-0.7781513	OO -
-1.079181	OO <
-0.7781513	OO =
-1.079181	OO ==
-1.079181	OO >
0	O^ln ;b'
-0.9542425	O_ &
-0.05115252	O_ (	-0.4207491
-0.1249387	O_o )
-0.60206	O_o ,
0	OaaD %
0	Ok </s>
0	On %
0	OsR _
-1.054358	P (	-0.4688018
-0.4522977	P )	-0.4085373
-1.531479	P +=
-1.054358	P ,
-1.230449	P 1	-0.363612
-1.054358	P ;	-0.292249
-1.230449	P =
-1.531479	P >=
-1.531479	P M
-1.531479	P U
-1.531479	P [
-1.531479	P _d
-1.531479	P _i
-1.531479	P i
-1.531479	P q
-1.986772	Q &
-1.986772	Q &&
-0.644349	Q (	-0.3130694
-0.8406437	Q )	-0.2302793
-1.50965	Q *	-0.4690171
-1.685742	Q ,
-1.986772	Q -
-1.384712	Q ;	-0.4171878
-1.685742	Q </s>
-1.986772	Q <=
-1.20862	Q =
-1.986772	Q ?
-1.986772	Q O
-1.986772	Q OO
-1.986772	Q Ok
-1.986772	Q Q4
-1.141674	Q [	-0.8847268
-0.7826517	Q ]	-0.03821791
-1.20862	Q ^
-1.986772	Q __
-1.986772	Q _k
-1.986772	Q main
-1.685742	Q write	0
-1.986772	Q x
-1.079181	Q0 &&
-0.7781513	Q0 )
-0.60206	Q0 +
-0.7781513	Q0 +=
-1.079181	Q0 ,
-0.60206	Q0 =	-0.4290272
-0.7781513	Q1 )
-0.4771213	Q1 ,
-0.30103	Q1 =
-0.845098	Q2 &&
-0.845098	Q2 *
-0.544068	Q2 +	-0.4287237
-0.845098	Q2 ,
-0.544068	Q2 =
-0.7781513	Q3 %
-0.4771213	Q3 ,	-0.4760129
-0.4771213	Q3 =
-0.7781513	Q3 >>
-0.60206	Q4 &&
-0.60206	Q4 ,
-0.60206	Q4 --
-0.60206	Q4 =
-0.60206	Q5 +
-0.30103	Q5 ,
-0.60206	Q5 =
-0.60206	Q6 +=
-0.60206	Q6 ,
-0.60206	Q6 </s>
-0.60206	Q6 =
-0.60206	Q7 )
-0.60206	Q7 ;
-0.60206	Q7 =
-0.60206	Q7 O
-0.4771213	Q8 ,
-0.4771213	Q8 ;
-0.4771213	Q8 =
-0.30103	Q9 ,
-0.30103	Q9 =
-0.7781513	QO &&
-0.60206	QO *
-1.079181	QO +
-0.7781513	QO ,
-0.4771213	QO =
-0.4771213	QQ )
-0.9542425	QQ *
-0.4771213	QQ +	-0.4161865
-0.9542425	QQ ,
-0.9542425	QQ =
0	Q_ (	-0.1751747
0	Qr h
-1.130334	R !
-0.8872957	R %	-0.09225266
-1.130334	R (
-1.732394	R )
-1.255273	R *
-1.732394	R +
-1.732394	R ++
-1.732394	R +=
-1.255273	R --	-0.5453324
-1.732394	R ;
-1.255273	R </s>
-1.732394	R =
-1.732394	R A
-1.431364	R D
-1.130334	R K	-0.6283889
-1.732394	R N
-1.431364	R a
-1.732394	R c
-1.431364	R g
-1.732394	R i
-1.255273	R j	-0.4449366
-1.732394	R k
-1.732394	R l
-1.732394	R n
-1.732394	R o
-1.732394	R s
-1.431364	R v
0	R8 /
0	RAFT )
0	RGB )
0	RI4 4
0	RM ;
0	RMPmSk U
0	RlMG /
0	RmM </s>
0	RmPQ O
0	RootWindow (
-1.031408	S )
-1.332438	S +
-0.9344984	S ,
-1.633469	S :
-0.5920758	S ;	-0.2828881
-1.156347	S =
-1.332438	S ?	-0.4593925
-1.633469	S [
-0.6792259	S ]	-0.8399124
-1.633469	S d
-1.633469	S j
-1.633469	S s
-1.633469	S u
-1.633469	S {
0	SDL_AudioSpec bu
0	SDL_BlitSurface (
0	SDL_CreateRGBSurface (
0	SDL_Delay (
0	SDL_Event bE
0	SDL_FillRect (
0	SDL_Flip (
0	SDL_Init (
0	SDL_LoadWAV (
0	SDL_MixAudio (
0	SDL_OpenAudio (
0	SDL_PauseAudio (
0	SDL_PollEvent (
0	SDL_Rect </s>
0	SDL_SetVideoMode (
0	SDL_Surface *
0	SEEK_SET )	-0.3569624
0	SNH %
0	SOPm R8
0	SPEED *
0	Sec -
0	SlM90 %
0	So long
-1.685742	T (
-1.384712	T )
-1.986772	T *
-0.8106804	T ++	-0.2993302
-1.986772	T +=
-1.20862	T ,	-0.1708945
-1.685742	T -
-1.50965	T --	-0.4590231
-1.287802	T :	-0.383884
-1.287802	T ;	-0.6905437
-1.685742	T <
-1.20862	T </s>
-0.8728284	T =	-0.3270077
-1.287802	T ==	-0.1896641
-1.986772	T I
-1.986772	T Q
-0.9453791	T [	-0.2241937
-1.986772	T ]
-1.986772	T _
-1.384712	T d	-0.6447741
-1.986772	T f
-1.384712	T l	-0.6434527
-1.986772	T mR
-1.986772	T {
-1.986772	T |
0	TIMESTEP ,
0	TIOCGWINSZ ,
0	TMP_MAX )
0	TmS </s>
0	TmSt 6
0	Turing (
0	Type =
-1.643453	U (
-1.643453	U )
-1.643453	U *=
-1.643453	U +
-1.643453	U +=
-0.8653014	U ,
-1.643453	U 7
-0.3881802	U ;	-0.3814265
-1.643453	U </s>
-0.9444827	U =
-1.643453	U i
-1.166331	U int	-0.4294796
-1.342423	U j	-0.3853509
-1.643453	U l
-1.643453	U u
0	UV_DROP :
0	Uint8Array (
0	Upgrade :
-1.033424	V !
-0.7781513	V *	-0.2147549
-1.255273	V ,
-1.732394	V ->
-1.431364	V ;
-1.732394	V </s>
-1.130334	V =
-1.130334	V F	-0.5633074
-1.732394	V _b
-1.732394	V _c
-1.732394	V _f
-1.130334	V a
-1.732394	V b
-1.732394	V c
-1.431364	V d
-1.431364	V e
-1.732394	V f
-1.732394	V i
-1.732394	V j
-1.732394	V n
-1.431364	V o
-1.732394	V p
-1.732394	V r
-1.732394	V w
-1.732394	V y
-1.431364	V z	-0.1989541
-0.4304692	W (	-0.2771927
-1.032529	W )	-0.1390885
-1.50965	W *	-0.4554207
-1.685742	W +
-1.986772	W +=
-1.20862	W ,	-0.471177
-1.50965	W -	-0.4099386
-1.384712	W --	-0.4916475
-1.50965	W /
-0.9453791	W ;	-0.549776
-1.986772	W </s>
-1.50965	W =
-1.986772	W ==
-1.141674	W R	-0.2983409
-1.986772	W S
-1.287802	W [	-0.3909688
-1.986772	W ]
-0.30103	WebSocket (
-0.30103	WebSocket -
0	Window u
-1.851258	X !=
-1.851258	X &
-1.550228	X (
-0.8098657	X )	-0.2222638
-1.550228	X *
-1.374137	X +
-0.6471384	X ,	-0.06823026
-1.851258	X -
-1.851258	X --
-1.851258	X /
-1.851258	X :
-1.249198	X ;	-0.1161577
-1.851258	X <
-1.152288	X </s>
-0.9481683	X =	-0.1161544
-1.550228	X S	-0.3488028
-0.9481683	X [	-0.1221637
-1.851258	X ]
-1.851258	X h
-1.851258	X v
0	XCheckWindowEvent (
0	XCreateImage (
0	XCreateSimpleWindow </s>
0	XEvent M
0	XImage *
0	XLookupKeysym (
0	XMapWindow (
0	XOpenDisplay (
0	XPutImage (
0	XSelectInput (
-1.10551	Y (	-0.6546683
-1.230449	Y )	-0.4819012
-1.230449	Y *
-1.70757	Y *=
-1.40654	Y +	-0.4161865
-1.70757	Y +=
-1.10551	Y ,
-1.70757	Y -
-1.40654	Y ->
-0.8624721	Y ;	-0.7182177
-0.6661775	Y =	-0.184367
-1.40654	Y S	-0.4347174
-0.7533277	Y [	-0.4514833
-1.70757	Y a
-1.066947	Z (	-0.4703545
-1.243038	Z )	-0.3569624
-1.243038	Z *=
-1.544068	Z +
-1.243038	Z +=
-0.845098	Z ,	-0.2136543
-1.544068	Z -
-1.544068	Z -=
-0.845098	Z ;	-0.5071231
-0.7659168	Z =	-0.1652139
-1.544068	Z ?
-1.544068	Z W
-1.544068	Z e
-1.544068	Z g
-1.544068	Z h
-1.544068	Z k
-1.544068	Z n
-1.79796	[ (
-1.718778	[ *	-0.4577166
-2.49693	[ +
-1.320838	[ -	-0.3034986
-1.49693	[ 0	-1.024157
-2.49693	[ 01
-1.17471	[ 1	-1.219846
-2.49693	[ 17
-1.59384	[ 2	-0.9065505
-2.49693	[ 204
-1.49693	[ 3	-0.9002971
-2.1959	[ 32	-0.4436975
-2.49693	[ 36
-1.455537	[ 4	-1.005604
-1.79796	[ 5	-0.6754889
-2.49693	[ 516
-2.49693	[ 5200
-2.019808	[ 6	-0.5550635
-2.49693	[ 65536
-2.1959	[ 7	-0.4057654
-2.019808	[ 8	-0.5665877
-2.49693	[ 80
-2.49693	[ 9
-2.1959	[ 97	0
-2.49693	[ 99
-2.49693	[ 9999
-1.651832	[ </s>
-2.1959	[ EOF	-0.3388186
-2.1959	[ H	-0.4618813
-1.59384	[ L	-0.3966793
-2.1959	[ O	-0.4582359
-2.49693	[ Q6
-2.1959	[ W	-0.4634774
-2.1959	[ X
-1.455537	[ ]	-0.8542068
-1.1959	[ _	-1.186373
-2.49693	[ _Q
-1.09899	[ __	-0.8129134
-2.49693	[ a
-2.49693	[ b
-2.49693	[ bi
-2.1959	[ c
-1.651832	[ d	-0.2332231
-2.49693	[ e
-2.49693	[ f
-1.79796	[ g	-0.6349321
-1.89487	[ h	-0.5824645
-1.417748	[ i	-1.024971
-1.718778	[ j	-0.7384785
-1.718778	[ k	-0.2861384
-2.1959	[ l
-2.1959	[ leu	-0.1760913
-2.1959	[ m	-0.463333
-1.89487	[ n	-0.2946432
-2.1959	[ not
-2.49693	[ o
-1.89487	[ optind	-0.2218488
-1.89487	[ p	-0.290648
-1.79796	[ r	-0.1876346
-2.49693	[ s
-2.1959	[ t
-2.49693	[ tgANs
-2.1959	[ u	-0.4640588
-1.59384	[ v	-0.8094909
-2.49693	[ val
-2.1959	[ x
-1.154507	[ xor	-1.070243
-2.1959	[ y
-2.1959	[ ~
0	[-d] file1
0	\"" "%s"
0	\n\t" ,
-1.82866	] !=	-0.1760913
-2.050509	] %
-2.050509	] &	-0.4700015
-2.52763	] &&
-2.52763	] '2O
-2.52763	] '_3a
-2.2266	] (
-0.9148461	] )	-0.5408095
-1.413687	] *	-0.4558681
-2.2266	] *=	-0.4573772
-1.448449	] +	-0.1153583
-1.749479	] ++	-0.2150093
-1.682532	] +=	-0.3049251
-0.996151	] ,	-0.2228807
-1.682532	] -	-0.2387733
-2.52763	] --
-2.2266	] -=
-1.448449	] .	-1.045228
-2.050509	] /	-0.4676797
-2.52763	] 0
-2.52763	] 6
-1.82866	] :	-0.1562829
-0.9594282	] ;	-0.3201083
-2.050509	] <	-0.4712124
-1.682532	] </s>
-2.52763	] <<
-0.6411391	] =	-0.4826277
-1.92557	] ==	-0.2852357
-1.682532	] >	-0.3124595
-2.52763	] >=
-2.2266	] >>
-2.2266	] ?
-2.52763	] OsR
-2.52763	] [
-2.52763	] ]
-2.050509	] ^
-1.413687	] _	-1.070021
-2.52763	] _o
-2.2266	] g	-0.4700594
-2.52763	] h
-2.52763	] k
-2.52763	] k_
-2.52763	] l
-2.52763	] l_
-2.050509	] |
-2.52763	] |=
-2.52763	] ||
-2.52763	] }
-1.623249	^ %
-1.623249	^ 'h(Q]0h#
-1.322219	^ (
-1.623249	^ )
-1.623249	^ *
-1.623249	^ -
-1.623249	^ --
-1.623249	^ /
-1.623249	^ 024
-1.623249	^ 0xfc0
-1.623249	^ 1
-1.623249	^ 10
-1.322219	^ 2
-1.623249	^ 20
-1.623249	^ 255
-1.623249	^ 3
-1.623249	^ 35
-1.623249	^ 3920
-1.623249	^ 4
-1.623249	^ 40
-1.322219	^ 6
-1.623249	^ 61
-1.623249	^ 9
-1.623249	^ I
-1.623249	^ OaaD
-1.623249	^ d
-1.623249	^ f
-1.623249	^ h
-1.322219	^ k
-1.146128	^ l
-1.623249	^ og
-1.146128	^ p	-0.5551611
-1.623249	^ t
-1.623249	^ ~
-0.69897	^= *
-0.69897	^= 20
-0.69897	^= _
-0.69897	^= k
-0.69897	^= y
-2.741152	_ %
-0.763428	_ (	-0.9640043
-0.9777236	_ )	-1.06561
-2.440122	_ *
-2.741152	_ +
-2.741152	_ ++
-0.3909036	_ ,	-1.543344
-2.741152	_ -
-2.741152	_ /
-2.741152	_ 6
-2.440122	_ :
-2.26403	_ ;
-2.26403	_ <	-0.465222
-1.699759	_ </s>
-2.042181	_ =	-0.2161851
-2.741152	_ >>
-2.440122	_ ?
-2.741152	_ C
-2.741152	_ E
-2.741152	_ N
-2.741152	_ O
-1.078394	_ [	-1.294551
-2.741152	_ ^=
-1.016876	_ _	-1.523996
-2.741152	_ _8
-2.440122	_ __	0.1249388
-2.440122	_ a
-2.139091	_ b	-0.2676062
-2.741152	_ c
-2.741152	_ d
-2.26403	_ f	-0.4701163
-2.741152	_ g
-2.440122	_ n	-0.4159477
-2.741152	_ o
-2.440122	_ p
-2.741152	_ pQaM8m
-2.440122	_ r
-1.838062	_ s	-0.7915152
-2.741152	_ v
-2.440122	_ w
-2.741152	_ {
0	_){putchar(_);}O" "\40main(){O"
-0.9542425	_0 &&
-0.9542425	_0 )
-0.6532125	_0 *
-0.9542425	_0 +=
-0.9542425	_0 ,
-0.9542425	_0 /
-0.6532125	_0 =	-0.4290272
0	_8 (
0	_KK3 +
-0.69897	_O %
-1	_O %=
-0.69897	_O )	-0.4666136
-1	_O +
-1	_O +=
-0.69897	_O =
-1	_O >
-0.5228788	_Q %	-0.469822
-1	_Q )
-0.69897	_Q +=
-1	_Q /
-1	_Q </s>
-0.69897	_Q =
0	_Zadat57 <
-1.556303	__ &	-0.4590982
-1.857332	__ &&
-0.1249387	__ (	-1.65583
-1.556303	__ )
-1.857332	__ *
-1.857332	__ +
-1.556303	__ +=	-0.4274335
-1.857332	__ ,
-1.857332	__ ;
-1.556303	__ </s>
-1.857332	__ <<
-1.556303	__ =
-1.857332	__ >>
-1.857332	__ >>=
0	__LINE__ *
-0.30103	__STDC_VERSION__ &&
-0.30103	__STDC_VERSION__ >
-0.30103	__STDC__ )
-0.30103	__STDC__ </s>
0	__TIME__ ;
0	__VA_ARGS__ }
-0.1760913	___ (
-0.4771213	___ )
-0.02227639	____ (	-1.274281
-1.30103	____ </s>
-0.30103	_a %
-0.30103	_a </s>
0	_b (
0	_c (
0	_d (
-0.60206	_f (
-0.60206	_f :
-0.60206	_f ;
-0.60206	_f </s>
0	_h *
0	_i (
-0.30103	_k (
-0.30103	_k :
0	_o ptj9
0	_t <
0	_z (
-2.227887	a %
-2.227887	a %=
-1.625827	a &
-2.227887	a &&
-2.227887	a &=
-1.227887	a (	-0.1481352
-0.9726142	a )	-0.1102006
-1.273644	a *	-0.6353317
-1.926857	a *=
-1.625827	a +
-1.926857	a ++	-0.3911006
-2.227887	a +=
-0.9726142	a ,	-0.1166575
-1.528917	a -	-0.2074668
-1.926857	a --
-1.449735	a ->	-0.6943126
-2.227887	a .
-1.750765	a /	-0.4580283
-2.227887	a /=
-1.148705	a ;	0.05993356
-1.750765	a <	-0.4682276
-1.273644	a </s>
-2.227887	a <<
-0.9268567	a =	-0.1526796
-1.625827	a >>
-2.227887	a ?
-1.625827	a L	-0.5467572
-1.926857	a S
-1.926857	a W
-2.227887	a X
-1.926857	a Z
-1.273644	a [	-0.3366955
-1.528917	a ]	-0.1091922
-2.227887	a {
-1.750765	a |
0	a_ (
0	abs (	-0.4574553
0	ageX -
-0.544068	ala *	-0.4734563
-0.845098	ala ;
-0.845098	ala asn
-0.3679768	ala not	-0.4405275
-0.1890562	and )	-0.377377
-1.230449	and *
-1.531479	and ;
-1.531479	and asp
-1.531479	and gln
-1.230449	and his	-0.2340832
-1.531479	and pyl
-1.531479	and sec
-1.531479	and tla
-1.531479	and tyr
-1.531479	and xle
-0.30103	ar )
-0.30103	ar ,
-0.09691001	arg )
-0.69897	arg =
-0.60206	argh )
-0.30103	argh ,
-0.60206	argh ;
-1.113943	asn ,
-0.07255067	asn .	-0.8405344
-1.113943	asn ;
-0.1760913	asp -	-0.4742827
-0.4771213	asp =
-0.60206	asx )
-0.60206	asx +
-0.60206	asx =
-0.60206	asx >
0	au )	-0.4753875
0	ay </s>
-1.364417	b !	-0.3275481
-2.209515	b %
-2.209515	b &
-1.908485	b &&
-1.607455	b (
-1.130334	b )	-0.30619
-2.209515	b *
-1.908485	b *=
-2.209515	b +
-2.209515	b ++
-1.209515	b ,	-0.1474589
-1.908485	b --
-1.431364	b ->	-0.40824
-2.209515	b .
-1.005395	b ;	-0.4129089
-1.908485	b <
-1.364417	b </s>
-1.732394	b <<	-0.4621441
-0.9542425	b =	-0.1588737
-2.209515	b >
-1.908485	b >>
-1.732394	b ?
-1.431364	b B	-0.7629113
-2.209515	b D
-1.431364	b I	-0.4466319
-2.209515	b O
-2.209515	b P
-1.510545	b W	-0.1893195
-1.364417	b X	-0.09421024
-2.209515	b Z
-1.209515	b [	-0.9654682
-1.732394	b ]
-1.732394	b ^
-1.607455	b bf	-0.3187588
-2.209515	b bg
-2.209515	b bt
-2.209515	b h
-2.209515	b j
-2.209515	b kg
-2.209515	b n
-2.209515	b o
-1.908485	b q
-2.209515	b u
-2.209515	b ||
0	b1g (
0	b4 </s>
0	b5g (
-0.69897	bA ,
-0.69897	bA ;
-0.69897	bA <<
-0.39794	bA =	-0.476097
-0.60206	bB )
-0.60206	bB ;
-0.30103	bB =
-0.60206	bC *
-0.60206	bC ,
-0.60206	bC /
-0.60206	bC =
-0.4771213	bD *
-0.4771213	bD ,
-0.4771213	bD =
-0.69897	bE )
-0.2218488	bE .
-0.69897	bE ;
0	b\nq(%s)\n" </s>
0	ba (
-0.7781513	bb )
-0.7781513	bb +
-0.7781513	bb +=
-0.7781513	bb ;
-0.4771213	bb =
0	bc (
-0.1760913	bd (
-0.4771213	bd </s>
-0.90309	be )
-0.60206	be ,	-0.4763827
-0.20412	be ;	-0.6898341
-0.60206	bf &&	-0.5825379
-0.4771213	bf )	-0.232446
-0.4771213	bf ;	-0.2890438
-1.079181	bf =
-0.60206	bg &&
-0.60206	bg )
-0.60206	bg ;
-0.60206	bg =
-0.1249387	bh (	-0.4737511
-0.60206	bh </s>
0	bh' l
-0.30103	bi )
-0.30103	bi ]
0	binary "
0	bj (	-0.5952933
-0.60206	bk &&
-0.30103	bk ,
-0.60206	bk ;
-0.1760913	bl (	-0.4328195
-0.4771213	bl }
-0.30103	bm =
-0.30103	bm ==
-0.30103	bn ,
-0.30103	bn =
-0.30103	bo )
-0.30103	bo =
0	bp (
-0.30103	bq (
-0.30103	bq }
0	br ,
0	break ;	-0.9101173
-0.1760913	bs )
-0.4771213	bs ;
-0.7781513	bt ,
-0.4771213	bt ;
-0.4771213	bt =
-0.7781513	bt >
-0.7781513	bu *
-0.4771213	bu ,
-0.4771213	bu =
-0.7781513	bu >
-0.60206	buf )
-0.60206	buf ,
-0.60206	buf ;
-0.60206	buf [
-0.30103	bv ,
-0.30103	bv ;
0	bw ,
-0.30103	bx )
-0.30103	bx ;
-0.7781513	by ,
-0.7781513	by =
-0.30103	by ?	-0.4371161
-0.7781513	by ||
-0.69897	bz </s>
-0.69897	bz <<
-0.39794	bz =
-0.69897	bz >>
-2.075547	c "
-2.075547	c %
-2.075547	c &
-1.774517	c &&
-0.871427	c )	-0.8878292
-1.297396	c *
-1.376577	c +	-0.2138798
-1.598426	c ++
-1.034154	c ,	-0.129732
-1.297396	c -	-0.1573002
-2.075547	c --
-2.075547	c -=
-1.774517	c .
-2.075547	c /
-1.376577	c :	-0.2134698
-1.075547	c ;	-0.09411935
-1.598426	c <
-1.598426	c </s>
-0.7533277	c =	-0.3006035
-1.598426	c ==
-1.774517	c >
-1.774517	c ?
-2.075547	c L
-2.075547	c R
-1.598426	c W
-1.774517	c Y
-2.075547	c Z
-1.774517	c ]
-1.774517	c ^
-2.075547	c ||
-0.30103	c8 +
-0.30103	c8 7
0	c9 .
0	cN mkM
0	c_X </s>
0	c_kah%0d9`b' /
0	calloc (
-1	case 'd'
-1	case 0
-1	case 10
-1	case 123
-1	case 35
-0.69897	case 36	0
-1	case 40
-1	case 58
-1	case 61
0	ch )
-0.1648103	char *	-0.4080245
-1.579784	char J
-1.579784	char L
-1.579784	char N
-1.579784	char O
-1.579784	char X
-1.579784	char buf
-1.278754	char c
-1.579784	char o
-1.579784	char p
-1.579784	char pro
-1.579784	char ser
0	ckQaOrON epne
0	close (
-1.041393	const ala	-0.2340832
-0.4973246	const and	-0.1197991
-1.342423	const char
-1.342423	const gln
-1.041393	const his	-0.2340832
-1.041393	const not	-0.449969
-0.8653014	const pro	-0.20412
-1.041393	const ser
-1.041393	const thr
0	continue ;
0	cos (
0	cq *
0	crea "
-0.7781513	cys )
-0.4771213	cys -
-0.7781513	cys =
-0.4771213	cys >>	-0.449683
-1.076762	d )	-0.4538724
-1.553883	d *
-1.650793	d *=
-1.407755	d +	-0.1250966
-1.951823	d ++
-1.21146	d +=	-0.1638089
-0.9306337	d ,	-0.3440855
-1.474702	d -
-1.474702	d -=	-0.3853509
-2.252853	d ->
-2.252853	d .
-2.252853	d /
-1.775732	d /=
-2.252853	d 9
-1.951823	d :
-0.9306337	d ;	-0.08699208
-1.775732	d <
-1.951823	d </s>
-2.252853	d <<
-2.252853	d <=
-0.854913	d =	-0.3113011
-2.252853	d ==
-2.252853	d >
-2.252853	d >=
-1.951823	d >>
-1.775732	d ?
-2.252853	d R
-1.173672	d W	-0.3536724
-1.775732	d X
-1.553883	d Y	-0.6146491
-1.951823	d [
-1.650793	d ]	-0.2852834
-2.252853	d ^
-2.252853	d xv
-2.252853	d |
-1.951823	d ||
0	d2 xa6
0	d77sNOsd 8
-0.60206	d8 (
-0.60206	d8 ,
-0.60206	d8 _
-0.60206	d8 a
0	d8ak =
0	dA )
0	dB )
0	dC </s>
0	d_C f3
0	dat </s>
0	data )
0	default :
0	defined __STDC_VERSION__
-0.69897	do ,
-0.09691001	do {	-0.5512937
0	double </s>
0	dup (
0	dup2 (
-1.4843	e (	-0.2933322
-1.08636	e )	-0.4858759
-1.609239	e *
-2.08636	e *=
-1.78533	e +
-1.241262	e +=
-0.9102685	e ,	-0.3082699
-2.08636	e -
-1.78533	e -=
-1.007179	e ->	-0.4712916
-1.609239	e .
-1.78533	e /
-2.08636	e :
-0.8310874	e ;	-0.5115355
-1.78533	e <
-1.78533	e </s>
-2.08636	e <<=
-0.8559109	e =	-0.248757
-2.08636	e >
-2.08636	e >>
-1.78533	e W
-1.78533	e Y	-0.3928004
-1.08636	e [	-0.06684798
-2.08636	e ]
-2.08636	e kf
-2.08636	e {
-0.7201593	else </s>
-1.322219	else V
-1.322219	else goto
-1.322219	else z
-0.1760913	else {	-0.1264815
0	elta_u )
0	elta_v )
0	epne luelue
0	er </s>
0	err (	-0.7726227
0	errx (
0	exit (	-0.6922033
0	exp (	-0.5996116
0	extern void
-2.09691	f &
-1.619789	f &&	-0.2889319
-0.9829667	f (	-0.4007024
-0.79588	f )	-0.09479013
-1.79588	f *
-2.09691	f +
-0.8181564	f ,	-0.3342709
-1.619789	f -	-0.4656541
-2.09691	f .
-0.950782	f ;	0.1179255
-1.79588	f <
-2.09691	f </s>
-2.09691	f <<
-0.950782	f =	-0.1289105
-2.09691	f ==
-2.09691	f >
-1.251812	f ?	-0.1211
-2.09691	f EOF
-1.142668	f L	-0.9446971
-2.09691	f R
-1.79588	f X
-2.09691	f Z
-1.79588	f ]
-2.09691	f defined
-1.79588	f |	-0.4490925
-1.79588	f }
0	f3 ]
0	fabs (
0	fclose (
0	fgetc (
0	fgets (
0	file1 file2"
0	file2" ,
-0.845098	float </s>
-0.845098	float C
-0.845098	float I
-0.845098	float K
-0.845098	float N
-0.845098	float V
-0.845098	float a
0	float_ )
0	fopen (
-0.02482358	for (	-0.6832669
-1.255273	for </s>
0	fputc (
0	fread (
0	free (	-0.2948827
0	fscanf (
0	fseek (
0	function (
0	fw )	-0.1808711
-1.792392	g %
-1.6163	g &
-2.093422	g &&
-1.394452	g (	-0.2135293
-1.31527	g )	-0.232446
-1.093422	g *	-0.5087842
-1.491362	g *=
-1.248324	g +	-0.1381591
-1.6163	g ++	-0.570397
-1.792392	g +=
-1.190332	g ,	-0.1129678
-2.093422	g --
-1.491362	g -=
-2.093422	g /
-1.792392	g 9
-2.093422	g :
-0.7316939	g ;	-0.5747956
-1.491362	g <	-0.2951211
-2.093422	g </s>
-2.093422	g <<
-0.6620579	g =	-0.3304711
-2.093422	g ==
-2.093422	g >>
-2.093422	g Q
-2.093422	g [
-2.093422	g ]
-1.792392	g ^
-2.093422	g ||
0	getC "
-0.1249387	getchar (	-0.5577583
-0.60206	getchar ;
0	getopt (
-0.50515	gln )	-0.5650572
-0.30103	gln ;	-0.7693703
-0.90309	gln =
-1.20412	gln ==
-0.30103	glu )	-0.5650572
-0.5228788	glu :	-0.5936811
-1	glu <<
-1	glu =
-0.30103	glx %
-0.30103	glx =
0	gly (	-0.8414202
0	go )
0	goofy !
-0.1249387	goto O	-0.5783222
-0.60206	goto o
-1.133539	h %
-1.832509	h &
-1.832509	h &&
-1.832509	h 'lQ
-1.054358	h (	-0.7648254
-1.531479	h )
-1.355388	h *	-0.5946989
-1.832509	h *=
-1.531479	h +	-0.4287237
-1.832509	h ++
-1.832509	h +=
-1.230449	h ,	-0.2976964
-1.531479	h -
-1.355388	h .	-0.4402946
-1.832509	h /
-1.832509	h 9
-0.9874108	h ;	-0.3591958
-1.832509	h </s>
-0.9874108	h <<	-0.09127937
-0.8325089	h =	-0.2088683
-1.832509	h >
-1.832509	h >>
-1.832509	h ?
-1.832509	h Q
-1.832509	h ^
-1.832509	h ^=
-1.832509	h b
-1.832509	h |
0	height =
-0.3679768	his )	-0.3569624
-0.845098	his ;
-0.3679768	his [	-0.4616342
0	href .
-1.514105	i %	-0.2900346
-1.815135	i &
-1.815135	i &&
-0.8298581	i (	-0.7330939
-1.088136	i )	-0.3695066
-1.389166	i *	-0.1145979
-1.593286	i +	-0.217085
-1.593286	i ++	-0.1358281
-1.815135	i +=
-0.9305282	i ,	-0.3874752
-1.514105	i -	-0.1732527
-1.389166	i /	-0.2670455
-2.292256	i :
-1.146128	i ;	-0.007013232
-1.061807	i <	-0.1015799
-2.292256	i </s>
-2.292256	i <=
-0.8608923	i =	-0.1791497
-2.292256	i ==
-1.991226	i >
-1.815135	i >>
-1.991226	i ?
-1.991226	i R
-1.690196	i S	-0.5000705
-1.593286	i ]	-0.1655106
-2.292256	i |
-0.01277429	if (	-0.3863239
-1.537819	if </s>
-0.69897	ile !=
-0.69897	ile +
-0.69897	ile --
-0.69897	ile ;
-0.69897	ile =
0	in tYv
-1.284431	int )	-0.3004529
-1.108339	int *
-1.187521	int </s>
-1.886491	int F
-1.886491	int G
-1.886491	int H
-1.409369	int I
-1.886491	int K
-1.886491	int L
-1.886491	int M
-1.886491	int P
-1.886491	int Q
-1.585461	int X
-1.886491	int _
-1.886491	int a
-1.886491	int bk
-1.886491	int bm
-1.886491	int bs
-1.886491	int bt
-1.886491	int bw
-1.886491	int by
-1.585461	int c
-1.886491	int h
-0.9834008	int i	-0.8011656
-1.409369	int j	-0.3853509
-1.409369	int k
-1.284431	int l	-0.2405492
-1.041393	int main	0.4101745
-1.886491	int met
-1.886491	int o
-1.886491	int op
-1.886491	int p
-1.886491	int t
-1.585461	int u
-1.886491	int v
-1.409369	int x	-0.3659708
-1.585461	int y	-0.414222
0	int_ )
0	ioctl (
0	ipt >
-1.498311	j %	-0.5797836
-1.498311	j &&
-1.058978	j )	-0.3511773
-1.799341	j *
-1.623249	j *=
-1.255273	j +	-0.3551553
-2.100371	j ++
-1.623249	j +=
-0.7993405	j ,	-0.3126399
-1.322219	j -	-0.1646241
-2.100371	j /
-1.799341	j /=
-1.799341	j :
-1.146128	j ;	-0.3917062
-1.146128	j <
-1.799341	j </s>
-0.7201593	j =	-0.211842
-2.100371	j ==
-1.799341	j >
-1.401401	j ?
-1.401401	j S	-0.5064106
-2.100371	j ]
-2.100371	j kd
-2.100371	j ||
0	jQ O7
0	j_la _
0	j_laaaN :
0	jmp_buf J
-1.94939	k %
-1.94939	k &
-1.64836	k (
-0.8702087	k )	-0.00477986
-1.94939	k *
-1.94939	k *=
-1.25042	k +
-1.472269	k ++	-0.3911006
-1.94939	k +=
-0.7732987	k ,	-0.3565473
-1.34733	k -	-0.2924581
-1.94939	k --
-1.94939	k -=
-1.472269	k /	-0.3836996
-1.94939	k :
-1.472269	k ;
-1.64836	k <
-1.472269	k </s>
-0.803262	k =	-0.05664125
-1.94939	k >
-1.94939	k >>
-1.94939	k >>=
-1.94939	k R
-1.472269	k [	-0.4470592
-1.472269	k ]	-0.5863135
-1.94939	k ^
-1.94939	k ^=
-1.94939	k g
-1.94939	k |=
-1.94939	k }
0	k8b %
0	k9 b1g
0	kP8 ;
0	k_ 7
0	kccMcOP &
0	kckQ ,
0	kd 7
0	ket Sec
-0.30103	key .
-0.30103	key :
0	keysym .
0	kf _a
0	kg </s>
-1.69897	l %	-0.4232459
-2	l &&
-1.39794	l (
-0.9208187	l )	-0.5204495
-1.221849	l *
-2	l *=
-1.69897	l +
-2	l ++
-1.39794	l +=
-0.8860567	l ,
-1.30103	l -	-0.1546661
-2	l -=
-2	l /
-0.8538719	l ;	-0.3473261
-1.69897	l <
-1.69897	l </s>
-2	l <<
-0.8538719	l =	-0.1380391
-2	l ==
-2	l >
-2	l >>
-1.69897	l S
-1.69897	l ]
-1.69897	l ^
-2	l mq9l8b
-2	l peoqemtemw
-2	l v
-2	l vQ
-2	l |
-0.30103	lM :
-0.30103	lM ;
0	lNRmO_loa8 %
0	lQ h
0	lQoOa N9
0	l_ %
0	le )
-0.60206	leu ;
-0.60206	leu =
-0.30103	leu ]
0	lf )
0	location .
-1.361728	long </s>
-1.361728	long A
-1.361728	long L
-1.361728	long Q8
-1.361728	long V
-1.361728	long Z
-1.361728	long __
-1.361728	long a
-1.361728	long b
-1.361728	long c
-1.361728	long h
-1.361728	long j
-0.5166298	long long
-1.361728	long q
-1.361728	long y
-1.060698	long z	-0.4403985
0	longjmp (
0	lpeoqempepneu e
0	lrand48 (
-0.30103	lu ,
-0.30103	lu =
0	luN ]
0	luelue lpeoqempepneu
-0.1760913	lv ,
-0.4771213	lv =
0	lwg +
-0.6532125	lys )	-0.4283414
-0.9542425	lys +=
-0.9542425	lys -=
-0.4771213	lys =	-0.4730096
-0.9542425	lys ==
-0.9542425	lys >=
-1.80618	m %
-1.80618	m &&
-0.80618	m (	-0.985445
