
\data\
ngram 1=908
ngram 2=5116
ngram 3=2181
ngram 4=1294
ngram 5=796
ngram 6=561
ngram 7=420
ngram 8=331

\1-grams:
-2.347886	!	-99
-3.041393	!=	-99
-2.798355	"	-99
-4.245512	"!:E%;!ea!!!WqE0z!f/y}!%!!Qi6!uzt!n}?]!bl!ak!SetR<"	-99
-4.245512	"!pv!;!Hm%Ro4"	-99
-3.400415	""	-99
-3.768391	"#"	-99
-3.768391	"$"	-99
-4.245512	"%."	-99
-4.245512	"%c"	-99
-3.944483	"%d	-99
-4.245512	"%f,%f,"	-99
-4.245512	"%s"	-99
-4.245512	"('A)"	-99
-3.944483	"('A`)"	-99
-4.245512	"(A`)"	-99
-4.245512	"(O**"	-99
-4.245512	")"	-99
-4.245512	")$"	-99
-4.245512	");"	-99
-4.245512	"*"	-99
-4.245512	"*_[512],**p=_,**d,b,q;for(b=0;b"	-99
-4.245512	"*p=#b,P[9999],*d=P,*e[]="	-99
-4.245512	"++<512;p=_+q)_[q"	-99
-4.245512	"/"	-99
-4.245512	"/*;;	-99
-4.245512	"11\x80"	-99
-4.245512	"258EAFA5-"	-99
-4.245512	"8!@dP,!!o+fb"	-99
-4.245512	"::::::::::::?_::::\"::.::::@:::'::-::::::::;!:):::::,:::::"	-99
-3.768391	";"	-99
-4.245512	";;"	-99
-4.245512	";Gam"	-99
-4.245512	";GlockQ18"	-99
-4.245512	";Heca"	-99
-4.245512	";Time:Q"	-99
-4.245512	";^Q<d|8=o;]Q<dj8<Pk8<c]'?;QQdi8?P'Q)d8<9`8?c;Qdh8=P']Q<`c8>PQ9_8"	-99
-4.245512	"<"	-99
-4.245512	"<;iQ=/*do<;dQ=ook8?boc;aQ=odr8>oc;_Q<ox8>oc"	-99
-4.245512	"<o_Q<o_QBdo`QQ';`Q=9`]8=bobQ_o_Q<o]8=';bQC(88cQ`bcgQ>oP']8<;cQ>98)^Q?''oc`Q>"	-99
-4.245512	"=(p-_+1)*9%512]=(O*)p;"	-99
-4.245512	"=:$"	-99
-3.944483	">	-99
-4.245512	">b;og8=''`Q<`b8?'QQ9_8?c;dPe8dQa8<P]Q<``8=;'f8>QQ`]8?ocQQ_8=''_Q`8aQ"	-99
-4.245512	"?guhljL!^P%	-99
-4.245512	"@"	-99
-4.245512	"@+-"	-99
-4.245512	"@CADBEHI"	-99
-4.245512	"C:"	-99
-4.245512	"CYOUQWIN!]Q=;of8BQQ)88bc]QA98P'Qo]8>oQQ_8CP;QQ98b`_8@P8(Q`]'^Q=`']QB)88"	-99
-4.245512	"E914-47DA-95CA-C5AB0DC85B"	-99
-4.245512	"HTTP/1.1	-99
-4.245512	"M@K~|JOEF\\^~_NHI]"	-99
-4.245512	"NBLF\1Nblfgjmf\1"	-99
-3.643453	"Q"	-99
-4.245512	"Q(j"	-99
-4.245512	"Q(jam"	-99
-4.245512	"Zj$x!~V!n&g8!cK!	-99
-4.245512	"\",\"%s\",\"%s\"},	-99
-4.245512	"\40main(){O"	-99
-4.245512	"\n"	-99
-4.245512	"\n\n\n"	-99
-4.245512	"\xe2%c%c\r\n"	-99
-4.245512	"a"	-99
-4.245512	"bQQ]`8J;QQ`88bc99bd(`8iQ@''QQo^8E'`8c;QQ'Q``8?QQ`'kQ<o]8B9PQQ`';_Q<`_8<cbQ"	-99
-4.245512	"d"	-99
-4.245512	"e.6!r!%l6G!n~^<i=%pEwL%P!'<!FQt%u	-99
-4.245512	"e:|	-99
-4.245512	"eQII:"	-99
-4.245512	"eQover."	-99
-4.245512	"etu"	-99
-4.245512	"f\n"	-99
-4.245512	"fl!"	-99
-4.245512	"hello	-99
-4.245512	"laugh"	-99
-4.245512	"m"	-99
-4.245512	"me"	-99
-4.245512	"med);"	-99
-4.245512	"n:}nkD!Q!kN"	-99
-4.245512	"o("	-99
-4.245512	"oc']Q]8<;cQ>`8bbQA``QQ''`Q?88P;dQ=`)nQ?*/;;"	-99
-4.245512	"oid	-99
-3.768391	"r"	-99
-4.245512	"rn+0;}\n"	-99
-4.245512	"syntax_error!"	-99
-4.245512	"t"	-99
-4.245512	"throw	-99
-4.245512	"{;}"	-99
-4.245512	"{\"%s\",	-99
-4.245512	"|~0y'vWtA@:LcO9d}y.!uL!Gd+ml(<+Ds!J"	-99
-4.245512	"}$"	-99
-2.162727	%	-99
-3.643453	%=	-99
-4.245512	%d\n"	-99
-4.245512	%u/%u	-99
-2.152091	&	-99
-2.321233	&&	-99
-4.245512	&=	-99
-3.20412	'	-99
-4.245512	'(	-99
-3.546543	','	-99
-3.944483	'128'	-99
-4.245512	'2O	-99
-4.245512	'2d'	-99
-4.245512	'7M{N^kh	-99
-4.245512	'='	-99
-4.245512	'Q]	-99
-2.740363	'_'	-99
-4.245512	'_3a	-99
-4.245512	'a'	-99
-4.245512	'b5sc!e"	-99
-4.245512	'c'	-99
-4.245512	'h(Q]0h#	-99
-4.245512	'lQ	-99
-4.245512	'nSM8	-99
-4.245512	'width:256px;height:256px'	-99
-4.245512	'ws'	-99
-4.245512	'|'	-99
-1.125268	(	-99
-1.097527	)	-99
-1.556204	*	-99
-3.245513	*=	-99
-4.245512	*m,!*m?H:"	-99
-1.885677	+	-99
-2.162727	++	-99
-4.245512	+99*!	-99
-2.474661	+=	-99
-1.175475	,	-99
-4.245512	,101	-99
-1.817378	-	-99
-2.555317	--	-99
-2.944483	-=	-99
-3.245513	->	-99
-2.224323	.	-99
-3.768391	...	-99
-4.245512	.0	-99
-3.768391	.05	-99
-3.768391	.1	-99
-4.245512	.27	-99
-3.768391	.5	-99
-2.296123	/	-99
-3.643453	/=	-99
-1.883785	0	-99
-4.245512	0.7	-99
-4.245512	01	-99
-4.245512	02	-99
-4.245512	024	-99
-4.245512	03	-99
-4.245512	040	-99
-4.245512	061	-99
-4.245512	075	-99
-4.245512	0d:`184>b)^15)OM	-99
-3.944483	0u	-99
-4.245512	0x1	-99
-4.245512	0x3f0	-99
-4.245512	0x67452301	-99
-4.245512	0x820008202625a0	-99
-4.245512	0x98BADCFE	-99
-4.245512	0xEFCDAB89	-99
-4.245512	0xf	-99
-4.245512	0xfc0	-99
-4.245512	0xfe0	-99
-4.245512	0xff00ff00ff	-99
-4.245512	0xffff	-99
-2.084145	1	-99
-3.944483	1.3	-99
-3.069421	10	-99
-4.245512	1008	-99
-4.245512	101	-99
-3.768391	1023	-99
-4.245512	1024	-99
-4.245512	1024.	-99
-4.245512	105	-99
-3.944483	11	-99
-4.245512	1103515245	-99
-4.245512	112	-99
-4.245512	1152	-99
-3.342423	12	-99
-4.245512	123	-99
-4.245512	12359778	-99
-4.245512	12365733	-99
-4.245512	124	-99
-4.245512	127	-99
-3.768391	128	-99
-4.245512	128L	-99
-3.944483	13	-99
-4.245512	13000	-99
-3.467361	14	-99
-4.245512	14202379	-99
-3.400415	15	-99
-4.245512	1500	-99
-3.29127	16	-99
-4.245512	1600	-99
-3.768391	16711935	-99
-4.245512	16774143	-99
-3.944483	16u	-99
-3.768391	17	-99
-4.245512	176	-99
-3.546543	18	-99
-4.245512	19	-99
-4.245512	1912	-99
-4.245512	19205553	-99
-4.245512	193	-99
-4.245512	1933008	-99
-4.245512	194	-99
-4.245512	1954	-99
-4.245512	196	-99
-4.245512	197	-99
-4.245512	198	-99
-3.944483	1LL	-99
-4.245512	1l	-99
-3.944483	1u	-99
-2.224323	2	-99
-3.944483	2.	-99
-3.342423	20	-99
-4.245512	204	-99
-4.245512	205	-99
-3.944483	21	-99
-3.944483	23	-99
-4.245512	234	-99
-3.342423	24	-99
-4.245512	25	-99
-4.245512	250	-99
-3.400415	255	-99
-3.768391	256	-99
-4.245512	256L	-99
-4.245512	258063	-99
-3.944483	26	-99
-4.245512	27	-99
-4.245512	275	-99
-4.245512	276	-99
-4.245512	28	-99
-4.245512	287	-99
-4.245512	2L	-99
-4.245512	2l	-99
-2.38818	3	-99
-4.245512	3'	-99
-3.400415	30	-99
-4.245512	308438	-99
-3.643453	31	-99
-2.830539	32	-99
-3.944483	32768	-99
-4.245512	3285377520	-99
-3.944483	33	-99
-3.944483	333	-99
-4.245512	3352537	-99
-3.768391	34	-99
-3.546543	35	-99
-3.768391	36	-99
-3.944483	37	-99
-4.245512	38	-99
-4.245512	384	-99
-4.245512	3920	-99
-2.439333	4	-99
-3.400415	40	-99
-4.245512	4092	-99
-3.944483	41	-99
-4.245512	41088	-99
-3.944483	4190208	-99
-4.245512	4194304	-99
-3.546543	42	-99
-4.245512	44	-99
-3.944483	45	-99
-4.245512	48	-99
-4.245512	480	-99
-4.245512	488848	-99
-4.245512	4L	-99
-3.944483	4u	-99
-2.714034	5	-99
-4.245512	50	-99
-4.245512	5000	-99
-4.245512	504	-99
-4.245512	508	-99
-4.245512	51	-99
-3.643453	512	-99
-4.245512	512L	-99
-4.245512	516	-99
-3.944483	5200	-99
-4.245512	5298487	-99
-4.245512	55	-99
-3.768391	56	-99
-4.245512	57	-99
-3.944483	58	-99
-3.944483	59	-99
-4.245512	5toG57j/3"	-99
-2.677311	6	-99
-3.400415	60	-99
-4.245512	60.	-99
-3.768391	61	-99
-3.944483	62	-99
-3.643453	63	-99
-4.245512	63504	-99
-3.29127	64	-99
-4.245512	64u	-99
-4.245512	65280	-99
-4.245512	65307	-99
-4.245512	65544	-99
-4.245512	667	-99
-4.245512	67	-99
-4.245512	69	-99
-4.245512	6990400	-99
-2.754151	7	-99
-4.245512	70	-99
-4.245512	74	-99
-4.245512	75	-99
-4.245512	76	-99
-3.643453	768	-99
-3.944483	77	-99
-3.643453	79	-99
-2.546543	8	-99
-3.099385	80	-99
-4.245512	8000	-99
-3.768391	81	-99
-4.245512	82	-99
-3.944483	85	-99
-3.944483	86400	-99
-4.245512	88	-99
-4.245512	881	-99
-4.245512	89	-99
-4.245512	8u	-99
-2.865301	9	-99
-4.245512	90	-99
-4.245512	91	-99
-3.546543	92	-99
-4.245512	93	-99
-4.245512	96	-99
-3.768391	97	-99
-4.245512	98	-99
-4.245512	9858122	-99
-3.944483	99	-99
-4.245512	9999	-99
-2.044116	:	-99
-4.245512	:23h)QN<'	-99
-1.265509	;	-99
-4.245512	;b'	-99
-2.096293	<	-99
-1.385774	</s>
-2.529509	<<	-99
-4.245512	<<=	-99
-3.467361	<=	-99
-4.245512	<P~6"	-99
-99	<s>	-99
-99	<unk>
-1.393643	=	-99
-2.529509	==	-99
-2.347886	>	-99
-3.400415	>=	-99
-2.529509	>>	-99
-3.768391	>>=	-99
-2.134923	?	-99
-4.245512	?"	-99
-2.564271	A	-99
-4.245512	Acce	-99
-4.245512	Alan	-99
-2.513119	B	-99
-4.245512	BUFSIZ	-99
-2.654448	C	-99
-3.944483	COLS	-99
-2.564271	D	-99
-4.245512	DefaultGC	-99
-4.245512	DefaultVisual	-99
-4.245512	Display	-99
-2.768391	E	-99
-4.245512	E0	-99
-3.944483	E3	-99
-3.342423	EOF	-99
-4.245512	ETIANMSURWDKGOHVF:L:PJBXCYZQ::54:3:::2&:+::::16=/:::(:7:::8:90"	-99
-4.245512	EX	-99
-2.701445	F	-99
-3.944483	F0	-99
-3.944483	F1	-99
-4.245512	F2	-99
-4.245512	FILENAME_MAX	-99
-4.245512	FV	-99
-3.944483	F_	-99
-2.701445	G	-99
-2.5923	H	-99
-4.245512	HP	-99
-4.245512	HY	-99
-4.245512	H_1	-99
-2.555317	I	-99
-2.798355	J	-99
-2.754151	K	-99
-4.245512	KrgR'8@c]!%-q9V.3fa[E8X%dY'w!#H	-99
-2.111974	L	-99
-3.768391	LINES	-99
-4.245512	LP	-99
-4.245512	L_tmpnam	-99
-2.798355	M	-99
-4.245512	M8q;k'	-99
-4.245512	MJ	-99
-4.245512	MK6lM	-99
-4.245512	McPc	-99
-4.245512	MkQN	-99
-2.497325	N	-99
-4.245512	N4	-99
-4.245512	N8b	-99
-4.245512	N9	-99
-4.245512	N9b	-99
-3.768391	NULL	-99
-4.245512	NUO	-99
-4.245512	N_1'	-99
-4.245512	N_7vN	-99
-2.311014	O	-99
-3.131569	O0	-99
-3.400415	O1	-99
-3.400415	O2	-99
-3.467361	O3	-99
-4.245512	O3NF	-99
-3.546543	O4	-99
-3.467361	O5	-99
-3.643453	O6	-99
-3.643453	O7	-99
-3.768391	O8	-99
-3.768391	O9	-99
-4.245512	OMQ	-99
-4.245512	OMaMch	-99
-4.245512	OMp	-99
-4.245512	ON8r	-99
-3.166332	OO	-99
-4.245512	O^ln	-99
-3.29127	O_	-99
-3.643453	O_o	-99
-4.245512	OaaD	-99
-4.245512	Ok	-99
-4.245512	On	-99
-4.245512	OsR	-99
-2.643453	P	-99
-2.460183	Q	-99
-3.166332	Q0	-99
-3.467361	Q1	-99
-3.400415	Q2	-99
-3.467361	Q3	-99
-3.643453	Q4	-99
-3.643453	Q5	-99
-3.643453	Q6	-99
-3.643453	Q7	-99
-3.768391	Q8	-99
-3.944483	Q9	-99
-4.245512	QH	-99
-4.245512	QL	-99
-3.166332	QO	-99
-3.29127	QQ	-99
-3.944483	QR	-99
-3.944483	QS	-99
-3.467361	Q_	-99
-4.245512	Qr	-99
-2.220207	R	-99
-4.245512	R8	-99
-4.245512	RAFT	-99
-4.245512	RGB	-99
-4.245512	RI4	-99
-4.245512	RM	-99
-4.245512	RMPmSk	-99
-4.245512	RP	-99
-4.245512	RlMG	-99
-4.245512	RmM	-99
-4.245512	RmPQ	-99
-4.245512	RootWindow	-99
-2.60206	S	-99
-4.245512	SDL_AudioSpec	-99
-4.245512	SDL_BlitSurface	-99
-4.245512	SDL_CreateRGBSurface	-99
-4.245512	SDL_Delay	-99
-4.245512	SDL_Event	-99
-4.245512	SDL_FillRect	-99
-4.245512	SDL_Flip	-99
-4.245512	SDL_Init	-99
-4.245512	SDL_LoadWAV	-99
-4.245512	SDL_MixAudio	-99
-4.245512	SDL_OpenAudio	-99
-4.245512	SDL_PauseAudio	-99
-4.245512	SDL_PollEvent	-99
-4.245512	SDL_Rect	-99
-4.245512	SDL_SetVideoMode	-99
-4.245512	SDL_Surface	-99
-4.245512	SNH	-99
-4.245512	SOPm	-99
-4.245512	SPEED	-99
-4.245512	Sec	-99
-4.245512	SlM90	-99
-4.245512	So	-99
-2.326435	T	-99
-4.245512	TIMESTEP	-99
-4.245512	TIOCGWINSZ	-99
-4.245512	TMP_MAX	-99
-4.245512	TmS	-99
-4.245512	TmSt	-99
-4.245512	Turing	-99
-4.245512	Type	-99
-2.622263	U	-99
-4.245512	UV_DROP	-99
-4.245512	Uint8Array	-99
-4.245512	Upgrade	-99
-2.564271	V	-99
-2.241191	W	-99
-3.944483	WebSocket	-99
-4.245512	Window	-99
-2.376281	X	-99
-4.245512	XCheckWindowEvent	-99
-4.245512	XCreateImage	-99
-4.245512	XCreateSimpleWindow	-99
-4.245512	XEvent	-99
-4.245512	XImage	-99
-4.245512	XLookupKeysym	-99
-4.245512	XMapWindow	-99
-4.245512	XOpenDisplay	-99
-4.245512	XPutImage	-99
-4.245512	XSelectInput	-99
-2.830539	Y	-99
-2.768391	Z	-99
-1.775691	[	-99
-4.245512	\""	-99
-4.245512	\n\t"	-99
-1.743086	]	-99
-2.632729	^	-99
-3.643453	^=	-99
-1.507525	_	-99
-4.245512	_){putchar(_);}O"	-99
-3.29127	_0	-99
-4.245512	_8	-99
-4.245512	_KK3	-99
-3.245513	_O	-99
-3.245513	_Q	-99
-4.245512	_Zadat57	-99
-2.38818	__	-99
-4.245512	__LINE__	-99
-3.944483	__STDC_VERSION__	-99
-3.944483	__STDC__	-99
-4.245512	__TIME__	-99
-4.245512	__VA_ARGS__	-99
-3.768391	___	-99
-2.944483	____	-99
-3.944483	_a	-99
-3.944483	_b	-99
-3.944483	_c	-99
-3.944483	_d	-99
-3.643453	_f	-99
-4.245512	_h	-99
-3.944483	_i	-99
-3.944483	_k	-99
-4.245512	_o	-99
-4.245512	_t	-99
-4.245512	_z	-99
-2.075251	a	-99
-3.944483	a_	-99
-3.944483	abs	-99
-4.245512	ageX	-99
-3.400415	ala	-99
-2.714034	and	-99
-3.944483	ar	-99
-3.546543	arg	-99
-3.643453	argh	-99
-3.131569	asn	-99
-3.768391	asp	-99
-3.643453	asx	-99
-3.944483	au	-99
-4.245512	ay	-99
-2.141709	b	-99
-4.245512	b1g	-99
-4.245512	b4	-99
-4.245512	b5g	-99
-3.546543	bA	-99
-3.643453	bB	-99
-3.643453	bC	-99
-3.768391	bD	-99
-3.546543	bE	-99
-4.245512	b\nq(%s)\n"	-99
-3.768391	ba	-99
-3.467361	bb	-99
-3.546543	bc	-99
-3.768391	bd	-99
-3.342423	be	-99
-3.166332	bf	-99
-3.643453	bg	-99
-3.643453	bh	-99
-4.245512	bh'	-99
-3.944483	bi	-99
-4.245512	binary	-99
-3.768391	bj	-99
-3.643453	bk	-99
-3.768391	bl	-99
-3.944483	bm	-99
-3.944483	bn	-99
-3.944483	bo	-99
-3.342423	bp	-99
-3.944483	bq	-99
-3.944483	br	-99
-3.099385	break	-99
-3.768391	bs	-99
-3.467361	bt	-99
-3.467361	bu	-99
-3.944483	bv	-99
-4.245512	bw	-99
-3.944483	bx	-99
-3.467361	by	-99
-3.546543	bz	-99
-2.155607	c	-99
-3.944483	c8	-99
-4.245512	c9	-99
-4.245512	cN	-99
-4.245512	c_X	-99
-4.245512	c_kah%0d9`b'	-99
-3.768391	calloc	-99
-3.29127	case	-99
-4.245512	cb	-99
-4.245512	ch	-99
-2.701445	char	-99
-4.245512	ckQaOrON	-99
-4.245512	close	-99
-2.90309	const	-99
-4.245512	continue	-99
-4.245512	cos	-99
-4.245512	cq	-99
-4.245512	crea	-99
-4.245512	curs_set	-99
-3.467361	cys	-99
-2.138303	d	-99
-4.245512	d2	-99
-4.245512	d77sNOsd	-99
-3.643453	d8	-99
-4.245512	d8ak	-99
-4.245512	dA	-99
-4.245512	dB	-99
-4.245512	dC	-99
-4.245512	d_C	-99
-4.245512	dat	-99
-4.245512	data	-99
-3.944483	default	-99
-4.245512	defined	-99
-3.944483	do	-99
-3.944483	dstr	-99
-4.245512	dup	-99
-3.944483	dup2	-99
-2.311014	e	-99
-4.245512	eep	-99
-2.783115	efine	-99
-3.015064	else	-99
-4.245512	elta_u	-99
-4.245512	elta_v	-99
-4.245512	epne	-99
-4.245512	er	-99
-3.546543	exit	-99
-3.768391	extern	-99
-2.20412	f	-99
-4.245512	f3	-99
-4.245512	fabs	-99
-4.245512	fclose	-99
-4.245512	fgets	-99
-4.245512	flash	-99
-3.400415	float	-99
-4.245512	float_	-99
-4.245512	flu	-99
-3.944483	fopen	-99
-2.406664	for	-99
-3.944483	fread	-99
-3.546543	free	-99
-4.245512	fscanf	-99
-4.245512	function	-99
-3.643453	fw	-99
-2.446172	g	-99
-4.245512	getC	-99
-4.245512	getch	-99
-3.944483	getchar	-99
-3.041393	gln	-99
-3.245513	glu	-99
-3.944483	glx	-99
-3.467361	gly	-99
-4.245512	go	-99
-4.245512	goofy	-99
-3.643453	goto	-99
-2.537942	h	-99
-4.245512	halting	-99
-4.245512	height	-99
-3.400415	his	-99
-4.245512	ho	-99
-4.245512	href	-99
-2.007467	i	-99
-2.546543	if	-99
-3.546543	ile	-99
-4.245512	in	-99
-4.245512	initscr	-99
-2.432599	int	-99
-4.245512	int_	-99
-4.245512	intw	-99
-4.245512	ioctl	-99
-4.245512	ipt	-99
-2.272385	j	-99
-4.245512	jQ	-99
-4.245512	j_la	-99
-4.245512	j_laaaN	-99
-4.245512	jmp_buf	-99
-2.439333	k	-99
-4.245512	k8b	-99
-4.245512	k9	-99
-4.245512	kP8	-99
-4.245512	k_	-99
-4.245512	kccMcOP	-99
-4.245512	kckQ	-99
-4.245512	kd	-99
-4.245512	ket	-99
-3.944483	key	-99
-4.245512	keysym	-99
-4.245512	kf	-99
-4.245512	kg	-99
-2.370451	l	-99
-3.944483	lM	-99
-4.245512	lNRmO_loa8	-99
-4.245512	lQ	-99
-4.245512	lQoOa	-99
-4.245512	l_	-99
-4.245512	le	-99
-4.245512	lea	-99
-3.643453	leu	-99
-4.245512	lf	-99
-4.245512	location	-99
-3.20412	long	-99
-4.245512	longjmp	-99
-4.245512	lpeoqempepneu	-99
-4.245512	lrand48	-99
-3.944483	lu	-99
-4.245512	luN	-99
-4.245512	luelue	-99
-3.768391	lv	-99
-4.245512	lwg	-99
-3.29127	lys	-99
-2.425969	m	-99
-3.944483	mR	-99
-4.245512	mR8	-99
-4.245512	mRMmO	-99
-4.245512	mRh	-99
-3.944483	mS	-99
-4.245512	mageData	-99
-2.99024	main	-99
-4.245512	malloc	-99
-4.245512	memcmp	-99
-3.944483	memcpy	-99
-4.245512	memset	-99
-3.29127	met	-99
-4.245512	mkM	-99
-4.245512	mq9l8b	-99
-4.245512	mva	-99
-4.245512	mvaddstr	-99
-3.944483	mvinch	-99
-4.245512	mvinsch	-99
-2.212089	n	-99
-4.245512	nR	-99
-4.245512	nRmUd	-99
-3.944483	ndif	-99
-3.944483	new	-99
-4.245512	nk	-99
-2.249877	not	-99
-4.245512	np	-99
-2.272385	o	-99
-4.245512	o(O	-99
-4.245512	oM	-99
-4.245512	oNS	-99
-4.245512	ocket	-99
-4.245512	oec	-99
-3.944483	of	-99
-4.245512	offsetLeft	-99
-4.245512	offsetTop	-99
-4.245512	og	-99
-4.245512	on	-99
-4.245512	onmousemove	-99
-4.245512	ontext	-99
-3.944483	open	-99
-2.177327	p	-99
-4.245512	pOpM866OsRlm	-99
-4.245512	pQaM8m	-99
-4.245512	pRM7O	-99
-4.245512	pageY	-99
-4.245512	peoqemtemw	-99
-3.643453	phe	-99
-4.245512	pixels	-99
-4.245512	pread	-99
-4.245512	prin	-99
-3.643453	printf	-99
-3.546543	pro	-99
-4.245512	pt	-99
-4.245512	ptj9	-99
-4.245512	pu	-99
-4.245512	putImageData	-99
-3.400415	putchar	-99
-3.400415	puts	-99
-4.245512	px	-99
-3.944483	pyl	-99
-2.513119	q	-99
-4.245512	qN	-99
-4.245512	qQ	-99
-2.446172	r	-99
-3.768391	rQ	-99
-4.245512	rR	-99
-3.944483	rand	-99
-4.245512	re	-99
-4.245512	rea	-99
-3.944483	read	-99
-3.768391	realloc	-99
-4.245512	refresh	-99
-2.883785	return	-99
-4.245512	round	-99
-4.245512	rror	-99
-2.181055	s	-99
-4.245512	sM	-99
-3.944483	sN	-99
-4.245512	sTaa	-99
-4.245512	s_4	-99
-4.245512	scanf	-99
-4.245512	scr	-99
-4.245512	script	-99
-3.29127	sec	-99
-4.245512	send	-99
-3.20412	ser	-99
-4.245512	set	-99
-4.245512	setjmp	-99
-4.245512	shi	-99
-3.944483	short	-99
-3.944483	si	-99
-4.245512	signal	-99
-3.944483	sin	-99
-4.245512	size_t	-99
-3.29127	sizeof	-99
-4.245512	slice	-99
-4.245512	slltwzh	-99
-4.245512	sprintf	-99
-4.245512	st_mtime	-99
-4.245512	st_size	-99
-3.768391	stat	-99
-3.467361	static	-99
-3.944483	stdin	-99
-4.245512	stdout	-99
-3.768391	strchr	-99
-3.768391	strlen	-99
-4.245512	strrchr	-99
-4.245512	strtol	-99
-3.643453	struct	-99
-4.245512	style	-99
-4.245512	subs	-99
-3.768391	switch	-99
-4.245512	sym	-99
-3.546543	sym_	-99
-4.245512	system	-99
-2.311014	t	-99
-4.245512	tQ	-99
-4.245512	tYv	-99
-4.245512	tape	-99
-4.245512	tch	-99
-4.245512	teI	-99
-4.245512	tf	-99
-4.245512	tgANs	-99
-3.342423	thr	-99
-4.245512	timeout	-99
-3.643453	tla	-99
-4.245512	to	-99
-4.245512	tr	-99
-3.245513	trp	-99
-4.245512	turnY_	-99
-4.245512	typ	-99
-3.944483	type	-99
-3.29127	typedef	-99
-3.245513	tyr	-99
-2.152091	u	-99
-4.245512	uU	-99
-4.245512	ub	-99
-3.944483	union	-99
-3.166332	unk	-99
-3.768391	unsigned	-99
-4.245512	up"	-99
-4.245512	upgrade	-99
-4.245512	usl	-99
-4.245512	usleep	-99
-4.245512	utchar	-99
-2.249877	v	-99
-4.245512	vOwwRor	-99
-4.245512	vQ	-99
-4.245512	va_arg	-99
-4.245512	va_end	-99
-4.245512	va_list	-99
-4.245512	va_start	-99
-4.245512	vad	-99
-2.798355	val	-99
-2.923293	void	-99
-4.245512	voidw	-99
-4.245512	vpr	-99
-2.413004	w	-99
-4.245512	webso	-99
-3.20412	while	-99
-4.245512	width	-99
-4.245512	window	-99
-4.245512	wnS	-99
-4.245512	world!"	-99
-3.768391	write	-99
-2.370451	x	-99
-4.245512	xa6	-99
-4.245512	xkey	-99
-3.944483	xle	-99
-2.5923	xor	-99
-4.245512	xv	-99
-2.632729	y	-99
-4.245512	yN	-99
-2.482085	z	-99
-3.944483	ze	-99
-1.863496	{	-99
-2.546543	|	-99
-3.768391	|=	-99
-2.830539	||	-99
-1.870764	}	-99
-2.714034	~	-99

\2-grams:
-0.8562344	! !	-0.4991533
-0.8184459	! (	-0.07487962
-1.897627	! )
-1.596597	! *
-1.897627	! --
-1.420506	! </s>
-1.897627	! D
-1.897627	! H
-1.897627	! K
-1.198657	! O	-0.6565661
-1.596597	! O9	0
-1.897627	! Q0
-1.897627	! Q2
-1.420506	! QO	-0.3521825
-1.897627	! _0
-1.596597	! b
-1.897627	! c
-1.596597	! g
-1.596597	! i
-1.596597	! j
-1.897627	! k
-1.596597	! l
-1.897627	! memcmp
-1.596597	! n
-1.897627	! o
-1.596597	! s
-1.897627	! setjmp
-1.897627	! stat
-1.596597	! t
-1.198657	! u	-0.6847296
-1.420506	! v	-0.5558149
-1.596597	! x
-1.897627	! z
-1.20412	!= '
-1.20412	!= 0
-1.20412	!= 98
-1.20412	!= NULL
-1.20412	!= __
-1.20412	!= bk
-1.20412	!= f
-0.90309	!= gln	-0.3143939
-0.90309	!= h	-0.4597472
-1.20412	!= mvinch
-1.20412	!= sizeof
-1.20412	!= trp
-1.20412	!= u
-1.20412	!= v
-0.544068	" "
-1.447158	" "%d
-1.447158	" %d\n"
-1.447158	" %u/%u
-1.146128	" )	-0.3771891
-0.845098	" ,	-0.298063
-1.447158	" ,101
-1.447158	" </s>
-1.447158	" ETIANMSURWDKGOHVF:L:PJBXCYZQ::54:3:::2&:+::::16=/:::(:7:::8:90"
-1.447158	" Type
-1.447158	" \n\t"
-1.447158	" c
-1.447158	" ipt
-1.447158	" ket
-1.447158	" mageData
-1.447158	" ontext
-1.447158	" teI
0	"!:E%;!ea!!!WqE0z!f/y}!%!!Qi6!uzt!n}?]!bl!ak!SetR<" </s>
0	"!pv!;!Hm%Ro4" "n:}nkD!Q!kN"
-0.845098	"" "@CADBEHI"
-0.845098	"" ,
-0.544068	"" :
-0.3679768	"" </s>
0	"#" )	-0.55341
0	"$" ,
0	"%." "f\n"
0	"%c" ,
0	"%d "
0	"%f,%f," ,
0	"%s" "\",\"%s\",\"%s\"},
0	"('A)" ,
-0.30103	"('A`)" </s>
-0.30103	"('A`)" }
0	"(A`)" ,
0	"(O**" </s>
0	")" )
0	")$" ;
0	");" )
0	"*" ""
0	"*_[512],**p=_,**d,b,q;for(b=0;b" "++<512;p=_+q)_[q"
0	"*p=#b,P[9999],*d=P,*e[]=" "{\"%s\",
0	"++<512;p=_+q)_[q" </s>
0	"/" )
0	"/*;; "
0	"11\x80" [
0	"258EAFA5-" "E914-47DA-95CA-C5AB0DC85B"
0	"8!@dP,!!o+fb" </s>
0	"::::::::::::?_::::\"::.::::@:::'::-::::::::;!:):::::,:::::" ;
-0.4771213	";" )
-0.4771213	";" :
-0.4771213	";" </s>
0	";;" )
0	";Gam" "eQover."
0	";GlockQ18" "C:"
0	";Heca" "t"
0	";Time:Q" )
0	";^Q<d|8=o;]Q<dj8<Pk8<c]'?;QQdi8?P'Q)d8<9`8?c;Qdh8=P']Q<`c8>PQ9_8" </s>
0	"<" ,
0	"<;iQ=/*do<;dQ=ook8?boc;aQ=odr8>oc;_Q<ox8>oc" </s>
0	"<o_Q<o_QBdo`QQ';`Q=9`]8=bobQ_o_Q<o]8=';bQC(88cQ`bcgQ>oP']8<;cQ>98)^Q?''oc`Q>" </s>
0	"=(p-_+1)*9%512]=(O*)p;" )
0	"=:$" ,
0	"> "	-0.4101745
0	">b;og8=''`Q<`b8?'QQ9_8?c;dPe8dQa8<P]Q<``8=;'f8>QQ`]8?ocQQ_8=''_Q`8aQ" </s>
0	"?guhljL!^P% ?"
0	"@" ,
0	"@+-" ,
0	"@CADBEHI" )
0	"C:" "Q"
0	"CYOUQWIN!]Q=;of8BQQ)88bc]QA98P'Qo]8>oQQ_8CP;QQ98b`_8@P8(Q`]'^Q=`']QB)88" </s>
0	"E914-47DA-95CA-C5AB0DC85B" "11\x80"
0	"HTTP/1.1 "
0	"M@K~|JOEF\\^~_NHI]" ;
0	"NBLF\1Nblfgjmf\1" ,
0	"Q" )	-0.5021279
0	"Q(j" "a"
0	"Q(jam" </s>
0	"Zj$x!~V!n&g8!cK! KrgR'8@c]!%-q9V.3fa[E8X%dY'w!#H
0	"\",\"%s\",\"%s\"}, b\nq(%s)\n"
0	"\40main(){O" ""
0	"\n" )
0	"\n\n\n" </s>
0	"\xe2%c%c\r\n" O_
0	"a" "m"
0	"bQQ]`8J;QQ`88bc99bd(`8iQ@''QQo^8E'`8c;QQ'Q``8?QQ`'kQ<o]8B9PQQ`';_Q<`_8<cbQ" </s>
0	"d" ")"
0	"e.6!r!%l6G!n~^<i=%pEwL%P!'<!FQt%u 5toG57j/3"
0	"e:| 'b5sc!e"
0	"eQII:" "Q"
0	"eQover." </s>
0	"etu" "rn+0;}\n"
0	"f\n" ,
0	"fl!" [
0	"hello world!"
0	"laugh" )
0	"m" "me"
0	"me" "d"
0	"med);" )
0	"n:}nkD!Q!kN" </s>
0	"o(" )
0	"oc']Q]8<;cQ>`8bbQA``QQ''`Q?88P;dQ=`)nQ?*/;;" ;
0	"oid o(O
-0.1760913	"r" )
-0.4771213	"r" </s>
0	"rn+0;}\n" )
0	"syntax_error!" </s>
0	"t" "eQII:"
0	"throw up"
0	"{;}" :
0	"{\"%s\", \""
0	"|~0y'vWtA@:LcO9d}y.!uL!Gd+ml(<+Ds!J" </s>
0	"}$" :
-1.781755	% %
-2.082785	% &
-1.605664	% (	-0.4698164
-2.082785	% -
-2.082785	% .27
-2.082785	% /
-2.082785	% 03
-2.082785	% 1500
-1.781755	% 16
-2.082785	% 176
-2.082785	% 198
-0.9366573	% 2	-0.5720968
-1.237687	% 3	-0.6867355
-2.082785	% 32
-2.082785	% 384
-1.304634	% 4	-0.05115253
-1.605664	% 5
-2.082785	% 512
-2.082785	% 6
-1.480725	% 64
-2.082785	% 7
-2.082785	% 768
-1.605664	% 8
-2.082785	% 86400
-2.082785	% 93
-2.082785	% :
-1.383815	% </s>
-1.781755	% >
-2.082785	% I
-1.781755	% M
-2.082785	% N
-2.082785	% N4
-2.082785	% N8b
-2.082785	% N9b
-1.781755	% O
-2.082785	% O3
-2.082785	% O4
-1.237687	% Q	-0.7129807
-1.781755	% QQ
-2.082785	% Qr
-2.082785	% R
-2.082785	% ]
-2.082785	% ^
-1.781755	% _	-0.4037759
-1.781755	% __	0.1249388
-2.082785	% _h
-2.082785	% c
-2.082785	% c9
-2.082785	% d8
-2.082785	% dA
-2.082785	% dB
-2.082785	% dC
-1.383815	% g
-2.082785	% lNRmO_loa8
-2.082785	% mR
-2.082785	% mRMmO
-2.082785	% mRh
-2.082785	% mS
-2.082785	% n
-2.082785	% q
-2.082785	% rQ
-2.082785	% s
-2.082785	% strlen
-2.082785	% w
-1.781755	% {
-0.60206	%= 1
-0.60206	%= 64
-0.60206	%= 8
-0.60206	%= z
0	%d\n" ,
0	%u/%u "
-2.093422	& !
-2.093422	& %
-1.792392	& (
-1.491362	& *	-0.5948963
-2.093422	& --
-2.093422	& 0
-2.093422	& 0x3f0
-2.093422	& 0xf
-2.093422	& 0xfe0
-2.093422	& 0xff00ff00ff
-1.31527	& 1	-0.184985
-2.093422	& 1008
-1.6163	& 1023	0
-2.093422	& 12
-2.093422	& 128
-2.093422	& 14
-1.394452	& 15	-0.154902
-1.792392	& 16
-1.792392	& 16711935
-2.093422	& 16774143
-1.31527	& 3	-0.636822
-2.093422	& 31
-2.093422	& 32
-2.093422	& 4
-2.093422	& 4092
-1.792392	& 4190208	0
-2.093422	& 6
-1.491362	& 63	0
-2.093422	& 64
-2.093422	& 65280
-2.093422	& 7
-2.093422	& 8
-2.093422	& 9
-2.093422	& ;
-2.093422	& <
-1.491362	& </s>
-2.093422	& B
-2.093422	& C
-2.093422	& L
-1.792392	& M
-1.792392	& N
-2.093422	& O
-1.792392	& OO
-1.792392	& Q
-2.093422	& S
-2.093422	& T
-2.093422	& TmS
-2.093422	& ^
-1.491362	& _	-0.2986416
-2.093422	& a
-1.792392	& arg	0.2218488
-2.093422	& asn
-2.093422	& bE
-2.093422	& bn
-2.093422	& bo
-2.093422	& bv
-1.792392	& c
-2.093422	& d
-2.093422	& e
-1.792392	& glu	-0.1760913
-2.093422	& h
-2.093422	& i
-2.093422	& k
-2.093422	& kccMcOP
-2.093422	& kckQ
-1.6163	& not	-0.5749078
-1.792392	& o
-2.093422	& p
-2.093422	& pRM7O
-2.093422	& r
-1.792392	& tyr	-0.3222193
-2.093422	& u
-2.093422	& v
-2.093422	& w
-1.792392	& x
-2.093422	& y
-1.792392	& z	-0.4618813
-1.792392	& ~	-0.3928004
-1.079181	&& !	-0.4976993
-0.4191293	&& (	-0.3530287
-1.623249	&& *
-1.924279	&& ++
-1.924279	&& 0
-1.924279	&& 101
-1.924279	&& 258063
-1.924279	&& 34
-1.623249	&& </s>
-1.623249	&& A	-0.3399481
-1.924279	&& B
-1.924279	&& F
-1.924279	&& G
-1.924279	&& R
-1.924279	&& T
-1.924279	&& Z
-1.924279	&& _
-1.924279	&& _0
-1.924279	&& a
-1.924279	&& bf
-1.924279	&& bg
-1.924279	&& d
-1.924279	&& fscanf
-1.924279	&& g
-1.924279	&& h
-1.924279	&& j
-1.623249	&& n
-1.623249	&& o	-0.3235373
-1.924279	&& putchar
-1.924279	&& q
-1.924279	&& r
-1.924279	&& read
-1.322219	&& s	-0.2934768
-1.322219	&& v	-0.5702127
-1.924279	&& x
-1.924279	&& y
0	&= z
-0.4393327	' '	-0.2138798
-1.041393	' )
-0.7403627	' </s>
-1.041393	' M8q;k'
-1.041393	' Q
-1.041393	' nR
-1.041393	' ||
0	'( 0d:`184>b)^15)OM
-0.69897	',' )
-0.09691001	',' ,	-0.697489
-0.30103	'128' height
-0.30103	'128' style
0	'2O 3'
0	'2d' )
0	'7M{N^kh '
0	'=' )
0	'Q] bh'
-0.7269987	'_' )	-0.2788511
-0.09017663	'_' ,	-1.405633
0	'_3a N_1'
0	'a' ,
0	'b5sc!e" </s>
0	'c' width
0	'h(Q]0h# c_kah%0d9`b'
0	'lQ O^ln
0	'nSM8 '
0	'width:256px;height:256px' </s>
0	'ws' +
0	'|' :
-2.275147	( !	-0.1293145
-2.819215	( "
-3.120245	( ""
-2.643124	( "#"	0
-3.120245	( "%."
-3.120245	( "%c"
-3.120245	( "(O**"
-3.120245	( ");"
-3.120245	( "*"
-3.120245	( "/*;;
-2.819215	( ";"
-3.120245	( ";Heca"
-3.120245	( ";Time:Q"
-3.120245	( "<"
-3.120245	( "@"
-3.120245	( "@+-"
-3.120245	( "HTTP/1.1
-2.819215	( "Q"	0
-3.120245	( "\n"
-3.120245	( "hello
-3.120245	( "laugh"
-3.120245	( "o("
-3.120245	( "r"
-3.120245	( "throw
-2.518185	( %
-2.120245	( &	-0.2757941
-3.120245	( '
-3.120245	( ','
-3.120245	( '2d'
-2.275147	( '_'	-0.1760913
-3.120245	( 'ws'
-1.421275	( (	-0.2996359
-0.9649088	( )	-0.8636765
-1.540461	( *	-0.3806674
-2.518185	( ++
-2.819215	( ,	-0.4730364
-2.518185	( -
-3.120245	( .05
-2.819215	( .5
-2.819215	( /
-1.944154	( 0	-0.5996932
-3.120245	( 075
-1.974117	( 1	-0.5410626
-3.120245	( 10
-3.120245	( 105
-2.819215	( 12
-3.120245	( 13
-3.120245	( 1912
-3.120245	( 1LL
-2.421275	( 2	-0.07572071
-3.120245	( 24
-3.120245	( 255
-3.120245	( 256L
-3.120245	( 2l
-2.166002	( 3	-0.258278
-3.120245	( 30
-2.819215	( 32
-3.120245	( 34
-2.421275	( 4	-0.5952206
-3.120245	( 40
-2.819215	( 41	0
-2.819215	( 42	0.2218488
-3.120245	( 45
-2.819215	( 5	-0.3258536
-3.120245	( 59
-2.819215	( 6
-2.819215	( 60
-3.120245	( 67
-3.120245	( 70
-2.643124	( 8	-0.4502491
-2.342093	( 9
-3.120245	( 97
-1.916125	( ;	-0.7031637
-1.688881	( </s>
-2.643124	( =	-0.4752849
-2.421275	( A	-0.174076
-2.342093	( B	-0.6139592
-2.006301	( C	-0.1962946
-2.275147	( D	-0.2665191
-3.120245	( E
-2.217155	( F	-0.4197197
-3.120245	( F_
-2.518185	( G	-0.1091444
-2.166002	( H	-0.09108047
-2.518185	( I	-0.2829317
-2.819215	( J
-2.421275	( K
-1.387851	( L	-0.9279135
-3.120245	( LINES
-2.342093	( M	-0.2340832
-2.275147	( N	-0.5882717
-1.864972	( O	-0.3293742
-3.120245	( O0
-2.518185	( O2	-0.1549019
-3.120245	( O3
-3.120245	( O4
-2.819215	( O5
-3.120245	( O6
-2.819215	( OO
-2.643124	( O_o	0
-2.078852	( P	-0.9017307
-2.078852	( Q	-0.1481574
-2.643124	( Q0	-0.3521825
-2.819215	( Q1
-3.120245	( Q2
-3.120245	( Q5
-3.120245	( Q6
-2.643124	( QO	-0.4259688
-3.120245	( QQ
-2.275147	( R	-0.7882752
-3.120245	( RAFT
-2.041064	( T	-0.8761064
-2.518185	( U	-0.6071997
-2.421275	( V
-2.217155	( W	-0.5889646
-1.688881	( X	-0.6164897
-3.120245	( XCheckWindowEvent
-3.120245	( XMapWindow
-2.518185	( Y	-0.2284793
-2.342093	( Z
-3.120245	( ^
-1.190826	( _	-0.6897421
-2.421275	( _O	-0.1249387
-2.819215	( _Q
-2.421275	( __
-3.120245	( __LINE__
-3.120245	( __STDC_VERSION__
-1.688881	( a	-0.1062001
-2.819215	( ala	-0.3309932
-1.777822	( and	-0.9094301
-3.120245	( ar
-2.643124	( argh	-0.1760913
-2.518185	( asn	0.1139433
-2.819215	( asp	0
-3.120245	( asx
-2.041064	( b	-0.4027013
-3.120245	( be
-2.819215	( bk	-0.1760913
-3.120245	( br
-2.819215	( bu
-3.120245	( by
-2.041064	( c	-0.1456233
-3.120245	( cN
-3.120245	( calloc
-3.120245	( cb
-2.275147	( char	-0.4004146
-2.643124	( const	-0.4357286
-3.120245	( curs_set
-2.518185	( cys	-0.2218488
-1.944154	( d	-0.256402
-3.120245	( dup2
-2.120245	( e	-0.1794449
-3.120245	( elta_u
-3.120245	( elta_v
-1.798025	( f	-0.5279812
-3.120245	( float_
-3.120245	( flu
-2.120245	( g	-0.1467841
-3.120245	( gln
-3.120245	( glu
-2.421275	( h	-0.1770364
-1.615095	( i	-0.2523805
-2.643124	( ile
-2.041064	( int	-0.1845978
-3.120245	( int_
-1.889796	( j	-0.5360746
-2.120245	( k	-0.6562179
-2.041064	( l	-0.07918124
-3.120245	( lQ
-3.120245	( lQoOa
-3.120245	( luN
-2.819215	( lys
-2.006301	( m	-0.584434
-3.120245	( memcpy
-3.120245	( memset
-2.421275	( met	-0.4259687
-1.777822	( n	-0.246851
-1.819215	( not	-0.9600525
-2.342093	( o	-0.4435126
-3.120245	( open
-1.944154	( p	-0.2273812
-3.120245	( pread
-3.120245	( prin
-3.120245	( printf
-3.120245	( pro
-2.819215	( puts	0.3679768
-2.518185	( q	-0.5686362
-3.120245	( qQ
-2.342093	( r
-3.120245	( rR
-2.120245	( s	-0.1948173
-2.819215	( sec	-0.2218488
-2.217155	( ser	-0.3899711
-3.120245	( short
-3.120245	( sizeof
-3.120245	( stdout
-2.518185	( sym_	0
-2.041064	( t	-0.1617161
-3.120245	( tQ
-3.120245	( tch
-3.120245	( tla
-3.120245	( to
-2.342093	( u	-0.4048888
-3.120245	( uU
-3.120245	( ub
-3.120245	( usl
-1.916125	( v	-0.287666
-3.120245	( va_arg
-3.120245	( val
-3.120245	( void
-1.889796	( w	-0.3440647
-2.041064	( x	-0.1772478
-2.217155	( xor	-0.5286311
-2.078852	( y	-0.1517125
-2.421275	( z	-0.3764511
-2.819215	( ze	0
-3.120245	( {
-3.120245	( }
-3.120245	( ~
-2.846955	) !=
-3.147985	) "\xe2%c%c\r\n"
-1.943865	) %	-0.3861524
-2.302887	) &
-1.869232	) &&	-0.1326256
-1.415592	) (	-0.3820184
-0.974799	) )	-0.4579031
-1.302887	) *	-0.3679768
-1.656624	) +	-0.2309109
-1.114562	) ,	-0.2474404
-1.767774	) -	-0.3268248
-3.147985	) --
-3.147985	) -=
-2.846955	) .	-0.4427037
-3.147985	) .0
-2.001857	) /	-0.2901597
-3.147985	) 0
-3.147985	) 0u
-2.846955	) 16u	0
-2.846955	) 1u
-3.147985	) 21
-3.147985	) 64u
-3.147985	) 8u
-1.656624	) :	-0.3269481
-0.6870875	) ;	-0.3431004
-2.244895	) <	-0.1187344
-1.302887	) </s>
-2.193743	) <<	-0.1924817
-2.846955	) =
-2.545925	) ==
-2.302887	) >	-0.1966693
-2.670864	) >=
-2.449015	) >>	-0.305186
-1.971894	) ?	-0.1446828
-2.369834	) B	-0.679226
-2.846955	) E3	0
-2.846955	) F	-0.3309932
-3.147985	) F0
-3.147985	) F1
-2.068804	) G	-0.4893556
-2.302887	) J	-0.544068
-3.147985	) K
-2.545925	) L	-0.1019895
-3.147985	) O
-3.147985	) O5
-2.545925	) O_	0.2552725
-3.147985	) P
-2.846955	) Q
-2.846955	) QR	0
-3.147985	) QS
-3.147985	) Q_
-2.846955	) R
-3.147985	) S
-3.147985	) U
-2.846955	) W	-0.2923438
-3.147985	) X
-3.147985	) Y
-2.369834	) [	-0.1595876
-1.466744	) ]	-0.8368253
-2.846955	) ^
-2.106593	) _	-0.6214687
-2.846955	) __	0.1249388
-3.147985	) ___
-1.892713	) ____	0.04575753
-3.147985	) _d
-3.147985	) _f
-2.846955	) a
-2.846955	) asx
-2.846955	) b
-2.846955	) bd	0
-2.670864	) break	0.544068
-3.147985	) bt
-3.147985	) by
-2.846955	) c
-3.147985	) continue
-2.846955	) d
-2.846955	) d8
-2.846955	) e	-0.4059457
-2.670864	) exit	0
-2.106593	) for	0.1576079
-3.147985	) g
-3.147985	) glx
-2.846955	) h
-2.545925	) i
-2.369834	) if	0.552842
-2.846955	) int
-3.147985	) j
-3.147985	) k
-2.670864	) l	-0.4533184
-3.147985	) lys
-3.147985	) m
-3.147985	) n
-2.846955	) not
-3.147985	) o
-3.147985	) putchar
-2.846955	) q
-2.545925	) r	-0.2259653
-2.846955	) return
-2.449015	) s	-0.1305186
-3.147985	) scanf
-3.147985	) sec
-3.147985	) t
-2.670864	) tyr
-2.670864	) u	-0.3568274
-2.846955	) v
-2.670864	) w	-0.4597472
-3.147985	) x
-2.670864	) z
-0.8491322	) {	-0.1251119
-2.302887	) |	-0.146128
-2.545925	) ||	-0.4881167
-2.846955	) ~
-1.911158	* !	-0.104539
-1.076525	* (	-0.1404922
-1.647916	* )
-1.575366	* *
-2.689309	* +
-1.786219	* ++	-0.5723529
-2.689309	* ,
-2.689309	* -
-2.212188	* --
-2.689309	* .1
-2.689309	* .5
-2.388279	* 0
-2.689309	* 1
-2.087249	* 10	-0.2388821
-2.689309	* 11
-2.689309	* 1103515245
-2.689309	* 12
-2.689309	* 16
-2.689309	* 17
-2.689309	* 193
-1.689309	* 2	0.04921804
-2.689309	* 23
-2.087249	* 3	-0.2697723
-2.689309	* 32
-1.575366	* 4	-0.199858
-2.388279	* 42
-2.689309	* 51
-2.689309	* 512L
-2.689309	* 5298487
-2.689309	* 6
-2.388279	* 7
-2.388279	* 768	-0.1760913
-2.388279	* 8
-1.689309	* 80	-0.455932
-2.689309	* 81
-2.689309	* 85
-2.689309	* 881
-2.212188	* 9
-2.689309	* 92
-1.388279	* </s>
-2.212188	* A
-2.689309	* B
-2.689309	* D
-1.990339	* E
-2.388279	* H
-2.388279	* I	-0.4401377
-1.990339	* K	-0.1618508
-2.087249	* L	-0.2780808
-2.689309	* L_tmpnam
-1.911158	* N	-0.391691
-2.689309	* O
-1.990339	* O0	-0.5392692
-2.388279	* O3
-2.689309	* O4
-2.388279	* O6
-2.212188	* Q
-2.689309	* Q0
-2.689309	* Q1
-2.689309	* Q2
-2.087249	* Q3	-0.1249387
-2.689309	* Q5
-2.689309	* Q7
-2.689309	* Q9
-2.689309	* QO
-2.388279	* QQ	-0.30103
-2.388279	* R
-2.388279	* S
-1.274336	* T	-0.6522424
-2.689309	* U
-2.689309	* V
-2.388279	* W
-1.786219	* X	-0.01158186
-2.689309	* Y
-2.689309	* ]
-1.388279	* _	-0.7234111
-2.087249	* _0
-2.689309	* _O
-2.388279	* __	0.1249388
-2.689309	* ___
-1.689309	* a	-0.4460387
-1.990339	* b
-2.689309	* bD
-2.689309	* ba
-2.212188	* bb	-0.30103
-2.689309	* be
-2.689309	* br
-2.689309	* bx
-1.911158	* c	-0.1653674
-2.689309	* c_X
-1.990339	* const	-0.6118199
-1.575366	* d	-0.1828246
-1.786219	* e	-0.1147196
-1.735066	* f	-0.7879111
-2.087249	* i
-2.388279	* j
-2.087249	* k	-0.2108534
-2.087249	* l
-2.388279	* m
-2.212188	* n	-0.4349236
-1.990339	* not	-0.4667628
-1.647916	* o	-0.4362416
-1.257945	* p	-0.3484546
-2.689309	* printf
-1.543181	* q	-0.282966
-2.212188	* r	-0.4412087
-1.610128	* s	-0.1503858
-2.689309	* sin
-2.212188	* sizeof
-2.388279	* t
-2.388279	* tyr
-1.575366	* u	-0.1840238
-2.388279	* x
-2.388279	* y
-1	*= !
-1	*= (
-0.69897	*= -	-0.4163424
-1	*= 0
-1	*= 0.7
-1	*= 02
-1	*= 1
-1	*= t
-1	*= z
0	*m,!*m?H:" upgrade
-2.058805	+ !
-2.359835	+ "fl!"
-0.8974375	+ (	-0.2520657
-1.660865	+ )	-0.6319717
-1.757776	+ *
-2.359835	+ ,
-1.882714	+ 0
-1.129387	+ 1	-0.4308087
-2.359835	+ 12
-2.359835	+ 128L
-2.359835	+ 16
-2.359835	+ 18
-2.359835	+ 19205553
-1.456746	+ 2	-0.2884408
-2.359835	+ 20
-2.359835	+ 287
-2.359835	+ 2L
-1.757776	+ 3	-0.4929155
-2.359835	+ 32
-2.359835	+ 42
-2.359835	+ 44
-2.359835	+ 4L
-1.882714	+ 5	-0.4227636
-2.058805	+ 512
-2.359835	+ 58
-2.359835	+ 6
-2.359835	+ 667
-2.058805	+ 7
-2.359835	+ 79
-2.359835	+ 86400
-2.359835	+ 99
-1.359836	+ </s>
-2.359835	+ C
-2.359835	+ EOF
-1.882714	+ F
-2.058805	+ H
-2.359835	+ J
-1.882714	+ N	-0.4220737
-2.359835	+ O4
-2.359835	+ P
-2.359835	+ Q
-2.359835	+ Q0
-2.359835	+ Q5
-2.359835	+ R
-2.359835	+ T
-2.359835	+ TMP_MAX
-2.359835	+ X
-1.581684	+ _	-0.7400017
-2.359835	+ _Q
-1.882714	+ __	0
-2.058805	+ __STDC__
-1.581684	+ a	-0.3932194
-2.359835	+ abs
-2.359835	+ asn
-2.359835	+ b
-1.757776	+ c
-2.359835	+ cos
-1.882714	+ d	-0.4268161
-1.882714	+ e
-2.058805	+ f
-1.757776	+ g	-0.2798407
-1.245892	+ i	-0.5690377
-2.058805	+ j	-0.4582359
-1.882714	+ k	-0.3869447
-2.058805	+ l
-2.359835	+ location
-1.882714	+ m
-1.660865	+ n	-0.2012622
-1.660865	+ o
-2.359835	+ p
-2.359835	+ q
-1.660865	+ s	-0.7590163
-2.359835	+ sTaa
-1.882714	+ t	-0.4669021
-1.882714	+ u	-0.4090055
-2.359835	+ unk
-2.058805	+ v
-2.359835	+ wnS
-1.757776	+ x	-0.1893967
-2.359835	+ y
-2.058805	+ z	-0.4618813
-1.882714	+ ~
-1.480725	++ %	-0.6730895
-2.082785	++ &
-2.082785	++ &&
-0.7605661	++ )	-0.1087324
-1.781755	++ *
-2.082785	++ +=
-1.237687	++ ,	-0.3559852
-1.781755	++ -
-2.082785	++ /
-1.781755	++ :	-0.4459859
-1.179695	++ ;	-0.1106073
-1.304634	++ <
-1.383815	++ </s>
-2.082785	++ <=
-1.041393	++ =	-0.3287723
-2.082785	++ ?
-1.781755	++ N
-1.480725	++ T	-0.580609
-1.179695	++ ]	-0.409263
-1.781755	++ c
-2.082785	++ f
-2.082785	++ g
-1.605664	++ i	-0.5571385
-2.082785	++ ile
-1.480725	++ j
-2.082785	++ l
-2.082785	++ leu
-2.082785	++ n
-1.605664	++ not	-0.2449141
-2.082785	++ p
-2.082785	++ q
-1.781755	++ s	-0.3857911
-2.082785	++ s_4
-1.781755	++ tla	-0.1760913
-2.082785	++ u
-2.082785	++ v
-1.304634	++ xor	-0.7716691
0	+99*! *m,!*m?H:"
-1.168792	+= !	-0.2842165
-1.770852	+= 'a'
-0.7294593	+= (	-0.1812193
-1.770852	+= .05
-1.770852	+= .1
-1.770852	+= 194
-1.168792	+= 2	-0.455932
-1.770852	+= 21
-1.770852	+= 4
-1.770852	+= 4u
-1.770852	+= 5
-1.770852	+= 7
-1.770852	+= A
-1.770852	+= E
-1.770852	+= K
-1.168792	+= O1
-1.770852	+= O8
-1.770852	+= UV_DROP
-1.770852	+= _
-1.293731	+= a	-0.4498743
-1.469822	+= be	-0.05115253
-1.469822	+= bf	-0.30103
-1.770852	+= bt
-1.770852	+= c
-1.770852	+= d
-1.770852	+= i
-1.469822	+= l
-1.770852	+= o
-1.469822	+= p
-1.770852	+= printf
-1.770852	+= s
-1.770852	+= u
-1.469822	+= v
-3.070038	, !
-3.070038	, "
-3.070038	, ""
-2.592917	, "$"	0
-3.070038	, "('A)"
-3.070038	, "('A`)"
-3.070038	, "(A`)"
-3.070038	, "=:$"
-2.769008	, ">	0
-2.769008	, "r"	0
-1.956095	, &	-0.06548882
-2.467978	, ','	0.09691
-1.672098	, '_'	0
-1.814765	, (	-0.1664362
-2.028645	, )	-0.3737736
-1.490254	, *	-0.2895713
-2.592917	, ++	-0.4625218
-2.592917	, ,
-2.371068	, -	-0.3371611
-3.070038	, --
-2.592917	, ...	0
-1.354035	, 0	-1.433457
-3.070038	, 0x98BADCFE
-3.070038	, 0xEFCDAB89
-1.747819	, 1	-1.09535
-3.070038	, 1.3
-3.070038	, 128
-2.166948	, 2	-0.3870506
-3.070038	, 24
-3.070038	, 256
-2.467978	, 3	-0.2697723
-3.070038	, 30
-3.070038	, 308438
-2.769008	, 32	-0.4045706
-3.070038	, 3285377520
-3.070038	, 4
-3.070038	, 5
-3.070038	, 60
-3.070038	, 65544
-2.769008	, 8
-3.070038	, 85
-3.070038	, <
-1.70831	, </s>
-2.769008	, =	-0.4758979
-2.371068	, A	-0.4801268
-2.115795	, B	-0.8016325
-2.070038	, C	-0.3120254
-2.467978	, D
-3.070038	, DefaultGC
-3.070038	, DefaultVisual
-2.467978	, E	-0.2388821
-2.291887	, F	-0.3954512
-3.070038	, F_
-2.769008	, G	-0.3802113
-2.371068	, H	-0.5081555
-2.371068	, I	-0.5998386
-2.592917	, J
-2.592917	, K	-0.4171233
-2.291887	, L	-0.5367069
-2.467978	, M	-0.05799194
-2.028645	, N	-0.4692959
-1.92391	, O	-0.3050512
-2.291887	, O0	-0.4301247
-3.070038	, O1
-2.769008	, O2
-3.070038	, O3
-3.070038	, O4
-2.769008	, O5
-3.070038	, O6
-3.070038	, O7
-3.070038	, O8
-3.070038	, O9
-2.769008	, OO
-2.592917	, P
-2.070038	, Q	-0.07500817
-2.467978	, Q0	-0.4648868
-2.769008	, Q1
-2.592917	, Q2	-0.3309932
-3.070038	, Q3
-2.592917	, Q4
-3.070038	, Q5
-2.769008	, Q6
-3.070038	, Q7
-3.070038	, Q8
-3.070038	, Q9
-2.592917	, QO	-0.39794
-3.070038	, QQ
-3.070038	, QS
-1.446789	, R	-1.348525
-3.070038	, RootWindow
-2.291887	, S
-2.592917	, T
-3.070038	, TIOCGWINSZ
-2.467978	, U	-0.5351132
-2.769008	, V
-2.22494	, W	-0.4939892
-2.769008	, X
-2.769008	, Y
-0.6601048	, _	-1.407012
-3.070038	, _0
-2.592917	, _O	-0.3802113
-2.592917	, _Q	-0.3802113
-1.990857	, __	-0.3679767
-3.070038	, __VA_ARGS__
-3.070038	, _f
-3.070038	, _i
-1.990857	, a	-0.3967646
-3.070038	, a_
-3.070038	, ar
-3.070038	, arg
-2.769008	, au	0
-1.956095	, b	-0.2979413
-2.769008	, bA
-2.769008	, bB
-2.769008	, bC
-2.769008	, bD
-3.070038	, bb
-3.070038	, be
-2.769008	, bf	-0.30103
-3.070038	, bg
-3.070038	, bi
-3.070038	, bo
-3.070038	, bq
-3.070038	, bt
-3.070038	, bu
-3.070038	, bv
-2.769008	, bz
-1.990857	, c	-0.360344
-3.070038	, c8
-3.070038	, ch
-2.115795	, char	-0.4515672
-2.467978	, const	-0.4357286
-1.791284	, d	-0.3018774
-3.070038	, do
-2.769008	, dstr	0
-3.070038	, dup
-1.956095	, e	-0.5686109
-3.070038	, eep
-2.115795	, f	-0.8562343
-3.070038	, fopen
-3.070038	, fw
-2.22494	, g	-0.7269987
-2.769008	, gln	-0.3143939
-2.592917	, glu	-0.1760913
-3.070038	, go
-2.291887	, h	-0.733339
-3.070038	, halting
-3.070038	, ho
-1.564888	, i	-0.5893232
-2.22494	, int	-0.1185445
-3.070038	, intw
-3.070038	, ioctl
-1.956095	, j	-0.2946303
-2.070038	, k	-0.3077634
-2.070038	, l	-0.539912
-3.070038	, le
-3.070038	, lea
-3.070038	, longjmp
-2.769008	, lu
-2.769008	, lv
-3.070038	, lys
-2.028645	, m	-0.5336026
-1.839589	, n	-0.1581071
-3.070038	, np
-1.92391	, o	-0.3948489
-3.070038	, oec
-2.769008	, of	0
-1.893947	, p	-0.2284793
-3.070038	, pu
-2.592917	, q
-2.070038	, r	-0.5228786
-3.070038	, rand
-2.115795	, s	-0.4038894
-3.070038	, shi
-2.769008	, si	0
-3.070038	, sizeof
-3.070038	, sprintf
-3.070038	, stdin
-3.070038	, strlen
-3.070038	, sym_
-1.791284	, t	-0.705983
-3.070038	, tape
-1.814765	, u	-0.932703
-3.070038	, unk
-3.070038	, usleep
-2.115795	, v	-0.1249387
-3.070038	, vad
-3.070038	, val
-3.070038	, vpr
-2.115795	, w	-0.1531421
-3.070038	, write
-1.893947	, x	-0.3891661
-2.371068	, y	-0.1772666
-2.467978	, z
-3.070038	, ~
0	,101 +99*!
-2.127105	- &
-1.428135	- (	-0.09526058
-2.428135	- )
-1.951014	- *
-2.428135	- .05
-0.8840668	- 1	-0.08167011
-2.428135	- 1.3
-2.428135	- 14202379
-2.428135	- 16
-2.428135	- 19
-2.428135	- 1933008
-1.729165	- 2	-0.5862657
-2.428135	- 205
-2.428135	- 24
-1.525045	- 3	-0.2021047
-2.428135	- 30
-1.951014	- 32	-0.4658403
-2.127105	- 33	0
-2.428135	- 35
-2.428135	- 37
-2.428135	- 488848
-2.428135	- 4u
-2.428135	- 5
-2.428135	- 508
-2.428135	- 59
-1.826075	- 6	-0.2643072
-2.428135	- 64
-1.951014	- 7
-2.127105	- 8
-2.428135	- 89
-1.951014	- 9
-2.428135	- 90
-1.428135	- </s>
-2.428135	- A
-2.428135	- Acce
-2.127105	- B
-1.951014	- D
-1.951014	- EOF
-2.428135	- F
-1.951014	- H
-2.428135	- I
-2.428135	- K
-2.428135	- L
-2.428135	- O1
-2.428135	- O7
-2.127105	- OO	-0.39794
-2.428135	- P
-2.428135	- Q
-2.428135	- Q0
-2.428135	- QO
-2.428135	- R
-2.428135	- V
-1.951014	- W	-0.464026
-2.428135	- WebSocket
-2.428135	- X
-1.951014	- _	-0.5639104
-2.428135	- _O
-2.428135	- _Q
-1.428135	- __	-0.3467875
-1.649984	- a	-0.4403984
-2.127105	- asn	0.3357921
-1.649984	- b	-0.1657092
-1.525045	- c	-0.1032195
-1.826075	- d	-0.6331527
-2.428135	- d8
-2.428135	- dup2
-1.951014	- e
-1.525045	- f	-0.4900862
-2.127105	- g
-1.951014	- h
-1.428135	- i	-0.4401686
-1.729165	- j	-0.6552611
-1.729165	- k
-2.428135	- key
-2.428135	- l
-1.951014	- m
-2.127105	- n
-2.428135	- o
-1.826075	- p	-0.289749
-2.428135	- q
-2.428135	- r
-2.127105	- s
-1.826075	- u	-0.5339442
-1.729165	- unk	-0.1760913
-1.649984	- v	-0.4405274
-1.951014	- x	-0.4216039
-1.314191	- ~	-0.0943478
-1.690196	-- &&
-0.845098	-- )	-0.1455098
-1.389166	-- ,	-0.3699261
-1.690196	-- 1954
-0.6488034	-- ;	-0.06856789
-1.389166	-- </s>
-1.389166	-- =
-1.389166	-- >
-1.690196	-- E
-1.690196	-- H
-1.389166	-- O
-1.690196	-- R
-0.9120448	-- T	-0.7455639
-1.389166	-- [
-1.690196	-- g
-1.389166	-- j
-1.690196	-- q
-1.690196	-- s
-1.690196	-- v
-1.690196	-- val
-1.690196	-- xor
-1	-= (
-1.30103	-= 061
-1.30103	-= 4
-1.30103	-= 80
-1.30103	-= </s>
-1.30103	-= D
-1.30103	-= W
-1.30103	-= b
-1	-= be	-0.05115253
-1	-= bf	-0.30103
-1.30103	-= d
-1	-= f	-0.3995164
-1.30103	-= i
-1.30103	-= t
-1	-= u	-0.4555816
-1	-> </s>
-1	-> c
-0.39794	-> not
-1	-> pixels
-0.5228788	-> val
-2.021189	. &
-2.021189	. /
-1.720159	. </s>
-2.021189	. ]
-1.118099	. _	-0.2001319
-2.021189	. binary
-0.9797966	. c	-0.584956
-2.021189	. crea
-2.021189	. dat
-2.021189	. data
-2.021189	. getC
-2.021189	. href
-2.021189	. key
-2.021189	. keysym
-0.4648868	. not	-0.6470271
-2.021189	. offsetLeft
-2.021189	. offsetTop
-2.021189	. onmousemove
-1.322219	. p	-0.2143607
-2.021189	. pageY
-2.021189	. putImageData
-2.021189	. send
-2.021189	. set
-2.021189	. slice
-2.021189	. st_mtime
-2.021189	. st_size
-2.021189	. subs
-2.021189	. sym
-1.720159	. t
-2.021189	. type
-0.8170693	. val	-0.2340832
-2.021189	. xkey
-0.1760913	... )	-0.4108432
-0.4771213	... </s>
0	.0 (
-0.4771213	.05 )
-0.4771213	.05 ;
-0.4771213	.05 </s>
-0.1760913	.1 )
-0.4771213	.1 :
0	.27 s
-0.4771213	.5 *
-0.4771213	.5 -
-0.4771213	.5 </s>
-1.94939	/ &
-1.104292	/ (
-1.94939	/ )
-1.94939	/ +
-1.94939	/ -
-1.94939	/ 1024.
-0.6941175	/ 2	-0.294781
-1.64836	/ 2.	0
-1.94939	/ 20
-1.94939	/ 24
-1.94939	/ 26
-1.472269	/ 3
-1.94939	/ 32768
-1.171239	/ 4	-0.4113039
-1.34733	/ 5	-0.1497623
-1.94939	/ 504
-1.94939	/ 6
-1.94939	/ 60
-1.94939	/ 60.
-1.94939	/ 768
-1.34733	/ 8	-0.5158738
-1.94939	/ 88
-1.94939	/ </s>
-1.64836	/ I
-1.94939	/ M
-1.94939	/ O
-1.94939	/ O3
-1.472269	/ Q	-0.3450039
-1.94939	/ QQ
-1.94939	/ RI4
-1.94939	/ RM
-1.94939	/ SlM90
-1.64836	/ _	-0.4389717
-1.34733	/ f	-0.2724745
-1.94939	/ fabs
-1.94939	/ g
-1.94939	/ j
-1.94939	/ k
-1.64836	/ lM
-1.94939	/ n
-1.64836	/ p
-1.94939	/ scr
-1.94939	/ w
-0.60206	/= ++
-0.60206	/= 2
-0.60206	/= c
-0.60206	/= z
-1.884607	0 &&
-2.361728	0 (
-0.6135398	0 )	-0.8388761
-2.060698	0 +
-0.6457245	0 ,	-0.217508
-1.039509	0 :	-0.1401273
-0.5693362	0 ;	-0.2496381
-1.884607	0 <	-0.4614411
-2.060698	0 </s>
-2.361728	0 ==
-2.060698	0 >
-1.361728	0 ?	-0.1161942
-1.361728	0 ]	-0.1145732
-2.361728	0 _t
-2.361728	0 m
-2.060698	0 ||
-2.361728	0 }
0	0.7 ;
0	01 ]
0	02 </s>
0	024 )
0	03 ;
0	040 )
0	061 *
0	075 )
0	0d:`184>b)^15)OM :23h)QN<'
-0.30103	0u ,
-0.30103	0u ;
0	0x1 !=
0	0x3f0 )
0	0x67452301 ,
0	0x820008202625a0 ;
0	0x98BADCFE </s>
0	0xEFCDAB89 ,
0	0xf |
0	0xfc0 ||
0	0xfe0 ^
0	0xff00ff00ff ;
0	0xffff )
-1.684247	1 &	-0.4592465
-1.559308	1 &&	-0.09275404
-0.6298891	1 )	-0.4510604
-2.161368	1 *
-1.684247	1 +
-0.763428	1 ,	-0.1943864
-1.684247	1 -
-2.161368	1 4
-1.559308	1 :	-0.2395119
-0.9309191	1 ;	-0.007950038
-2.161368	1 </s>
-1.207126	1 <<	-0.09211114
-1.684247	1 ?
-2.161368	1 A
-1.684247	1 [
-0.7463946	1 ]	-0.3104863
-2.161368	1 ^
-2.161368	1 cq
-1.860338	1 |
-1.684247	1 }	-0.4641007
-0.30103	1.3 ,
-0.30103	1.3 </s>
-0.69897	10 )
-1.176091	10 *
-0.8750613	10 +	-0.4675338
-0.8750613	10 ,
-1.176091	10 /
-1.176091	10 :
-0.8750613	10 ;
-1.176091	10 R
-1.176091	10 ||
-1.176091	10 }
0	1008 )
0	101 ==
-0.4771213	1023 )
-0.1760913	1023 |	-0.4409091
0	1024 /
0	1024. ;
0	105 <
-0.30103	11 )
-0.30103	11 ;
0	1103515245 &
0	112 ,
0	1152 +
-0.90309	12 &
-0.90309	12 +
-0.60206	12 -
-0.60206	12 </s>
-0.60206	12 >
0	123 :
0	12359778 ;
0	12365733 -
0	124 -
0	127 ;
-0.4771213	128 &&
-0.1760913	128 )	-0.3771891
0	128L +
-0.30103	13 ,
-0.30103	13 ?
0	13000 ;
-0.1760913	14 &
-0.7781513	14 ]
-0.7781513	14 ^
0	14202379 *
-0.544068	15 )	-0.4746431
-0.3679768	15 ,
-0.845098	15 ;
-0.845098	15 |
0	1500 ?
-0.9542425	16 &&
-0.6532125	16 )
-0.9542425	16 *
-0.9542425	16 +
-0.9542425	16 /
-0.9542425	16 ;
-0.9542425	16 </s>
-0.9542425	16 >
0	1600 &&
-0.1760913	16711935 ;	-0.4683937
-0.4771213	16711935 |
0	16774143 ;
0	16u )
-0.1760913	17 +
-0.4771213	17 ]
0	176 /
-0.69897	18 )
-0.69897	18 ,
-0.69897	18 </s>
-0.69897	18 ?
-0.69897	18 ]
0	19 )
0	1912 --
0	19205553 ;
0	193 +
0	1933008 </s>
0	194 ,
0	1954 )
0	196 -
0	197 )
0	198 ;
-0.30103	1LL +
-0.30103	1LL <<
0	1l N
-0.30103	1u )
-0.30103	1u ,
-1.720159	2 %
-1.544068	2 &
-2.021189	2 (
-0.544068	2 )	-0.1224023
-0.9072459	2 *	-0.06084877
-1.322219	2 +	-0.1883491
-0.9797966	2 ,	-0.07287277
-1.720159	2 -
-0.9797966	2 ;	-0.02307401
-1.720159	2 </s>
-1.243038	2 ?
-2.021189	2 MJ
-0.9072459	2 ]	-0.1514283
-2.021189	2 _KK3
-1.544068	2 ||
-2.021189	2 }
0	2. )	-0.4727752
-0.90309	20 %
-0.60206	20 )
-0.90309	20 *
-0.60206	20 </s>
-0.60206	20 ?
0	204 ]
0	205 )
-0.30103	21 -
-0.30103	21 ]
0	23 ;
0	234 ;
-0.60206	24 )
-0.90309	24 ,
-0.90309	24 ;
-0.60206	24 </s>
-0.90309	24 O3NF
-0.90309	24 ]
0	25 ;
0	250 ,
-0.845098	255 )
-0.845098	255 ,
-0.845098	255 -
-0.845098	255 :
-0.544068	255 ;
-0.845098	255 ?
-0.1760913	256 ,
-0.4771213	256 -
0	256L +
0	258063 &
-0.30103	26 ,
-0.30103	26 ]
0	27 )
0	275 )
0	276 )
0	28 &
0	287 )
0	2L )
0	2l NUO
-1.556303	3 &
-1.857332	3 (
-0.7433891	3 )	-0.2014864
-0.90309	3 *	-0.1001711
-1.158363	3 +	-0.6654704
-1.079181	3 ,	-0.06889607
-1.158363	3 -	-0.2053337
-1.857332	3 4
-1.556303	3 :
-1.012234	3 ;
-1.857332	3 </s>
-1.857332	3 ?
-1.857332	3 A
-1.857332	3 B
-0.6532125	3 ]	-0.2982899
-1.857332	3 _z
0	3' Q
-0.845098	30 &&
-0.845098	30 *
-0.845098	30 +
-0.544068	30 ;
-0.845098	30 ?
-0.845098	30 ]
0	308438 *
-0.60206	31 )
-0.1249387	31 ;
-0.5698753	32 )	-0.1239492
-0.9378521	32 +	-0.4183158
-0.8129134	32 ,
-1.414973	32 -
-1.414973	32 :
-0.7160034	32 ;	-0.1454779
-1.113943	32 <<	-0.4238757
-1.113943	32 ]	-0.429539
-1.414973	32 |
-0.30103	32768 )
-0.30103	32768 ,
0	3285377520 }
0	33 )
-0.30103	333 *
-0.30103	333 ;
0	3352537 *
-0.4771213	34 <
-0.4771213	34 </s>
-0.4771213	34 m
-0.69897	35 )
-0.69897	35 -
-0.69897	35 :
-0.69897	35 ?
-0.69897	35 R
-0.4771213	36 -
-0.1760913	36 :
-0.30103	37 +
-0.30103	37 ;
0	38 )
0	384 )
0	3920 )
-1.80618	4 &
-1.80618	4 &&
-0.60206	4 )	-0.2313979
-1.028029	4 *
-1.329059	4 +	-0.4436216
-1.028029	4 ,
-1.028029	4 -
-1.80618	4 :
-1.10721	4 ;
-1.80618	4 <
-1.80618	4 </s>
-1.80618	4 ?
-1.80618	4 SNH
-0.7269987	4 ]	-0.4060579
-1.329059	4 |
-0.243038	40 )
-0.845098	40 :
-0.845098	40 ;
-0.845098	40 ?
0	4092 ^
0	41 )	-0.3771891
0	41088 ,
0	4190208 |
0	4194304 </s>
-0.09691001	42 )	-0.2010978
-0.69897	42 ;
0	44 +
0	45 )
0	48 ;
0	480 ,
0	488848 *
0	4L +
-0.30103	4u )
-0.30103	4u ;
-1.531479	5 %
-1.230449	5 &&
-0.5314789	5 )	-0.3391531
-1.230449	5 *
-0.9294189	5 ,
-1.531479	5 -
-1.531479	5 ;
-1.531479	5 </s>
-1.054358	5 ?
-1.531479	5 OMaMch
-0.6283889	5 ]	-0.004528649
0	50 ;
0	5000 +
0	504 *
0	508 ]
0	51 )
-0.60206	512 *
-0.60206	512 +
-0.60206	512 ;
-0.60206	512 </s>
0	512L )
0	516 ]
-0.30103	5200 ;
-0.30103	5200 ]
0	5298487 :
0	55 ?
-0.4771213	56 )
-0.1760913	56 ;	-0.4130451
0	57 ;
-0.30103	58 :
-0.30103	58 >
-0.30103	59 ;
-0.30103	59 ==
0	5toG57j/3" </s>
-1.267172	6 %
-1.267172	6 &
-1.568202	6 &&
-0.7900504	6 )	-0.1539124
-1.09108	6 *	-0.4744487
-1.09108	6 ,	-0.4948648
-1.568202	6 -
-1.568202	6 /
-1.568202	6 :
-1.09108	6 ;
-1.568202	6 <
-1.267172	6 </s>
-1.568202	6 >
-1.267172	6 ?
-1.568202	6 N
-1.568202	6 O
-0.9661418	6 ]	-0.2534477
-1.568202	6 sN
-1.568202	6 yN
-0.243038	60 )	-0.2010978
-0.544068	60 *	-0.4390904
-0.845098	60 /
0	60. /
-0.1760913	61 :
-0.4771213	61 ;
-0.30103	62 ;
-0.30103	62 ?
-0.30103	63 )	-0.469644
-0.60206	63 ,
-0.60206	63 <<
0	63504 ;
-0.9542425	64 &
-0.6532125	64 )
-0.9542425	64 *
-0.6532125	64 ,
-0.9542425	64 :
-0.9542425	64 ;
-0.9542425	64 </s>
0	64u )
0	65280 )
0	65307 ;
0	65544 >
0	667 ,
0	67 *
0	69 j
0	6990400 ;
-1.491362	7 &
-1.491362	7 &&
-0.8893017	7 )	-0.2960595
-1.190332	7 *
-1.01424	7 ,
-1.491362	7 -
-1.491362	7 7
-1.491362	7 :
-1.190332	7 ;
-1.491362	7 <
-1.190332	7 </s>
-1.491362	7 ?
-1.01424	7 O
-1.491362	7 OMQ
-1.491362	7 ON8r
-0.7923917	7 ]	-0.1742665
-1.491362	7 sN
0	70 )
0	74 </s>
0	75 ?
0	76 )
-0.60206	768 ;
-0.60206	768 </s>
-0.30103	768 ]
-0.30103	77 ;
-0.30103	77 O
-0.60206	79 )
-0.60206	79 ;
-0.60206	79 ]
-0.60206	79 b
-1.221849	8 &
-1.69897	8 &&
-0.7447275	8 )	-0.1964856
-1.221849	8 +
-0.6197888	8 ,	-0.1618139
-1.39794	8 :
-1	8 ;	-0.2191116
-1.69897	8 <
-1.39794	8 >>	-0.451314
-1.39794	8 ?
-1.09691	8 ]
-1.69897	8 _a
-1.69897	8 b
-1.69897	8 j
-1.69897	8 k9
-1.39794	8 |	-0.4593925
-1.146128	80 )
-0.146128	80 +	-0.9766241
-1.146128	80 ,
-1.146128	80 ;
-1.146128	80 ]
0	8000 </s>
-0.4771213	81 )
-0.4771213	81 -
-0.4771213	81 /
0	82 ;
-0.30103	85 *
-0.30103	85 <<
-0.30103	86400 )
-0.30103	86400 -
0	88 )
0	881 ,
0	89 ?
0	8u +
-1.079181	9 %
-0.60206	9 )	-0.1098132
-1.079181	9 *
-1.380211	9 +
-1.079181	9 ,
-1.079181	9 -
-1.079181	9 ;	-0.458539
-1.380211	9 <<
-1.079181	9 ?
-1.380211	9 g
-1.380211	9 j_la
-1.380211	9 j_laaaN
-1.380211	9 slltwzh
0	90 ;
0	91 )
-0.69897	92 &&
-0.69897	92 )
-0.69897	92 +
-0.39794	92 ;
0	93 ,
0	96 ^
-0.4771213	97 +
-0.1760913	97 ]
0	98 +
0	9858122 :
0	99 ]	-0.3567112
0	9999 ]
-1.724276	: !
-2.201397	: ""
-2.201397	: ")$"
-2.201397	: "Q(j"
-2.201397	: "Q(jam"
-1.724276	: %
-1.900367	: &
-2.201397	: '='
-0.8396693	: (	-0.2899955
-1.502427	: *	-0.3742121
-1.900367	: -
-0.8791778	: 0	-0.5515561
-1.724276	: 1
-2.201397	: 12365733
-2.201397	: 2
-2.201397	: 24
-2.201397	: 32
-2.201397	: 3352537
-2.201397	: 5
-1.900367	: 6
-2.201397	: 69
-2.201397	: 79
-2.201397	: :
-1.160004	: </s>
-2.201397	: >
-2.201397	: B
-2.201397	: C
-2.201397	: EOF
-2.201397	: G
-1.900367	: I	-0.4303779
-2.201397	: N
-2.201397	: O
-2.201397	: P
-2.201397	: R
-2.201397	: S
-1.900367	: T
-2.201397	: V
-1.724276	: _	-0.4230811
-2.201397	: _Zadat57
-2.201397	: _c
-2.201397	: a
-1.900367	: b
-2.201397	: break
-1.724276	: c
-2.201397	: case
-1.724276	: d
-1.900367	: e
-2.201397	: f
-2.201397	: fopen
-1.900367	: g
-1.724276	: gln	-0.30103
-2.201397	: goto
-1.900367	: h
-1.900367	: i
-2.201397	: j
-2.201397	: k8b
-2.201397	: l
-1.900367	: m
-2.201397	: main
-2.201397	: n
-2.201397	: p
-2.201397	: putchar
-2.201397	: q
-1.900367	: r	-0.455932
-2.201397	: switch
-1.724276	: u	-0.4130833
-1.599337	: v	-0.2498775
-2.201397	: w
-2.201397	: webso
-2.201397	: x
-1.900367	: ~
0	:23h)QN<' /
-2.281033	; !	-0.6705747
-2.980003	; %
-2.980003	; &
-2.980003	; '(
-2.201852	; (	-0.1633956
-1.377943	; )	-0.4531084
-1.678973	; *	-0.321415
-1.980003	; ++	-0.9664325
-2.980003	; --
-2.980003	; 0
-2.025761	; ;	-0.3785025
-0.7924827	; </s>
-2.281033	; A	-0.5740312
-2.201852	; B	-0.7254882
-1.980003	; D	-0.1638568
-2.201852	; E	-0.6232493
-2.678973	; F	-0.4244149
-2.201852	; G	0.39794
-2.502882	; H	-0.5170493
-2.377943	; I	-0.5029286
-2.377943	; J	0
-2.502882	; K
-2.201852	; L	-0.4608536
-2.980003	; M
-2.980003	; N
-2.281033	; O
-2.076913	; P	-0.748188
-2.678973	; Q
-2.980003	; Q_
-2.134905	; R	-0.2305694
-2.980003	; SDL_BlitSurface
-2.980003	; SDL_Delay
-2.980003	; SDL_Event
-2.980003	; SDL_FillRect
-2.980003	; SDL_Flip
-2.980003	; SDL_Init
-2.980003	; SDL_LoadWAV
-2.980003	; SDL_MixAudio
-2.980003	; SDL_OpenAudio
-2.980003	; SDL_PauseAudio
-2.502882	; T	-0.4031412
-1.724731	; U	-0.3723859
-1.86606	; V	-0.1528614
-1.749554	; W	-1.045671
-2.980003	; Window
-2.678973	; X	-0.4274335
-2.980003	; XEvent
-2.980003	; XImage
-2.980003	; XSelectInput
-2.678973	; Y	-0.3843672
-1.803912	; _	-0.2737945
-2.980003	; __
-2.980003	; ___
-1.749554	; a	-0.4026099
-1.448524	; b	-0.2431508
-2.980003	; bA
-2.980003	; ba
-2.980003	; bc
-2.502882	; bh	0.1249388
-2.980003	; bj
-2.377943	; break	0.447158
-2.980003	; bz
-2.076913	; c	-0.122815
-2.281033	; case
-2.134905	; char	0.1346986
-2.134905	; d	-0.4191293
-2.678973	; default	0
-2.281033	; e	-0.1506732
-2.502882	; else
-2.980003	; extern
-2.025761	; f	-0.4225003
-2.980003	; fgets
-2.377943	; float
-1.488642	; for	0
-2.980003	; fread
-2.980003	; free
-2.281033	; g	-0.3694515
-2.678973	; goto
-2.980003	; h
-1.749554	; i	-0.6190853
-1.86606	; if	0.2839967
-1.938611	; int	-0.2284793
-1.938611	; j	-0.2723848
-2.025761	; k	-0.2535728
-2.281033	; l	-0.3222193
-2.678973	; long	-0.2138799
-2.134905	; m	-0.179369
-2.678973	; main	0.7781513
-2.980003	; memcpy
-2.980003	; mvaddstr
-2.980003	; mvinsch
-1.938611	; n	-0.4850901
-1.900822	; o	-0.4952194
-1.86606	; p	-0.4824501
-2.980003	; putchar
-2.201852	; q	-0.2588323
-2.025761	; r	-0.1635022
-2.980003	; refresh
-2.076913	; return	-0.1945747
-1.86606	; s	-0.3339161
-2.678973	; struct
-2.980003	; switch
-2.134905	; t	-0.2908108
-2.980003	; typedef
-1.803912	; u	-0.9740208
-2.980003	; union
-2.281033	; v	-0.1706962
-2.980003	; va_end
-2.980003	; va_start
-2.377943	; void	-0.5102897
-1.803912	; w	-0.3167102
-2.377943	; while	0
-2.076913	; x	-0.5123286
-2.201852	; xor	-0.7829501
-2.201852	; y	-0.5940421
-1.70125	; z	-0.2934769
-2.678973	; {
-2.980003	; |
-0.8627321	; }	-0.1462153
0	;b' %
-1.547159	< %
-2.149219	< *
-2.149219	< /
-0.9450991	< 0	-0.8509921
-2.149219	< 11
-2.149219	< 127
-2.149219	< 13
-1.848189	< 14	0
-2.149219	< 16
-1.848189	< 18
-1.547159	< 2	-0.5166298
-1.848189	< 20	-0.3521825
-1.547159	< 3
-2.149219	< 30
-2.149219	< 32
-2.149219	< 4
-1.848189	< 5
-2.149219	< 5200
-2.149219	< 57
-1.672098	< 6
-1.848189	< 60	-0.1091445
-2.149219	< 61
-1.848189	< 62
-2.149219	< 7
-2.149219	< 74
-2.149219	< 75
-2.149219	< 77
-1.848189	< 79
-2.149219	< 80
-2.149219	< 82
-2.149219	< 91
-2.149219	< 92
-2.149219	< :
-1.450249	< </s>
-2.149219	< B
-1.547159	< D	-0.243038
-1.848189	< E
-2.149219	< L
-2.149219	< M
-2.149219	< O
-2.149219	< Q
-2.149219	< SPEED
-2.149219	< U
-2.149219	< W
-1.848189	< _	-0.4389717
-1.672098	< a
-2.149219	< abs
-2.149219	< asn
-1.672098	< b
-2.149219	< b4
-1.672098	< c
-1.848189	< d
-1.848189	< f	-0.4485658
-1.450249	< i
-2.149219	< j
-2.149219	< kP8
-2.149219	< l
-1.848189	< m
-1.450249	< n	-0.188425
-1.371068	< not	-0.6128908
-2.149219	< p
-1.450249	< s	-0.6679358
-2.149219	< script
-1.848189	< t	-0.4564367
-1.848189	< u
-1.547159	< v
-2.149219	< x
-2.149219	< ~
-1.017033	<< (
-1.716003	<< 1
-1.716003	<< 14
-1.716003	<< 15
-1.414973	<< 18
-1.716003	<< 23
-1.716003	<< 24
-1.716003	<< 30
-1.238882	<< 32	-0.3843672
-1.414973	<< 4
-1.414973	<< 56	0
-1.414973	<< 6	-0.4403985
-1.716003	<< 60
-0.9378521	<< 8	-0.6354837
-1.414973	<< </s>
-1.716003	<< Q_
-1.414973	<< a
-1.716003	<< b
-1.414973	<< f	-0.4179998
-1.716003	<< i
-1.238882	<< l	-0.4533184
-1.716003	<< n
-1.414973	<< s
-1.113943	<< t
-1.414973	<< u	-0.4518854
-1.716003	<< unk
-1.716003	<< z
0	<<= b
-0.7781513	<= 24
-0.7781513	<= D
-0.7781513	<= Q
-0.7781513	<= f
-0.7781513	<= m
-0.7781513	<= q
0	<P~6" </s>
-2.558709	<s> !
-2.859739	<s> !=
-2.558709	<s> "
-2.859739	<s> "!:E%;!ea!!!WqE0z!f/y}!%!!Qi6!uzt!n}?]!bl!ak!SetR<"
-2.859739	<s> "!pv!;!Hm%Ro4"
-2.859739	<s> "%d
-2.859739	<s> "%f,%f,"
-2.859739	<s> "*_[512],**p=_,**d,b,q;for(b=0;b"
-2.859739	<s> "*p=#b,P[9999],*d=P,*e[]="
-2.859739	<s> "/"
-2.859739	<s> "258EAFA5-"
-2.859739	<s> "::::::::::::?_::::\"::.::::@:::'::-::::::::;!:):::::,:::::"
-2.859739	<s> ";;"
-2.859739	<s> ";Gam"
-2.859739	<s> ";GlockQ18"
-2.859739	<s> ";^Q<d|8=o;]Q<dj8<Pk8<c]'?;QQdi8?P'Q)d8<9`8?c;Qdh8=P']Q<`c8>PQ9_8"
-2.859739	<s> "<o_Q<o_QBdo`QQ';`Q=9`]8=bobQ_o_Q<o]8=';bQC(88cQ`bcgQ>oP']8<;cQ>98)^Q?''oc`Q>"
-2.859739	<s> "=(p-_+1)*9%512]=(O*)p;"
-2.859739	<s> ">b;og8=''`Q<`b8?'QQ9_8?c;dPe8dQa8<P]Q<``8=;'f8>QQ`]8?ocQQ_8=''_Q`8aQ"
-2.859739	<s> "?guhljL!^P%
-2.859739	<s> "CYOUQWIN!]Q=;of8BQQ)88bc]QA98P'Qo]8>oQQ_8CP;QQ98b`_8@P8(Q`]'^Q=`']QB)88"
-2.859739	<s> "M@K~|JOEF\\^~_NHI]"
-2.859739	<s> "Zj$x!~V!n&g8!cK!
-2.859739	<s> "bQQ]`8J;QQ`88bc99bd(`8iQ@''QQo^8E'`8c;QQ'Q``8?QQ`'kQ<o]8B9PQQ`';_Q<`_8<cbQ"
-2.859739	<s> "e.6!r!%l6G!n~^<i=%pEwL%P!'<!FQt%u
-2.859739	<s> "e:|
-2.859739	<s> "etu"
-2.859739	<s> "med);"
-2.859739	<s> "oc']Q]8<;cQ>`8bbQA``QQ''`Q?88P;dQ=`)nQ?*/;;"
-2.859739	<s> "oid
-2.081587	<s> %
-2.558709	<s> &
-2.382617	<s> &&	-0.2688453
-2.859739	<s> '7M{N^kh
-2.859739	<s> 'c'
-1.279955	<s> (	-0.04251072
-1.341225	<s> )	-0.1510858
-2.160769	<s> *
-2.382617	<s> +
-1.780557	<s> ++	-0.3466439
-2.558709	<s> +=
-1.444765	<s> ,	-0.05350634
-1.780557	<s> -	-0.1544966
-2.257679	<s> --
-2.859739	<s> -=
-2.382617	<s> .
-2.382617	<s> /
-2.160769	<s> 0	-0.2615215
-2.859739	<s> 0xffff
-2.382617	<s> 1
-2.859739	<s> 10
-2.859739	<s> 1152
-2.859739	<s> 128
-2.859739	<s> 15
-2.859739	<s> 16
-2.859739	<s> 16711935
-2.257679	<s> 2	-0.1549019
-2.859739	<s> 25
-2.859739	<s> 333
-2.558709	<s> 4
-2.859739	<s> 45
-2.859739	<s> 5
-2.859739	<s> 6
-2.859739	<s> 63504
-2.859739	<s> 64
-2.859739	<s> 65307
-2.257679	<s> 7
-2.382617	<s> 8
-2.859739	<s> 81
-2.859739	<s> 92
-2.859739	<s> 96
-2.257679	<s> :	-0.2331718
-1.604466	<s> ;	-0.05564183
-2.558709	<s> <
-2.257679	<s> <<
-1.655619	<s> =	-0.1049389
-2.558709	<s> >
-2.160769	<s> >>
-2.160769	<s> ?
-2.382617	<s> A
-2.859739	<s> Alan
-2.558709	<s> B
-2.859739	<s> C
-2.859739	<s> COLS
-2.859739	<s> E
-2.558709	<s> G
-1.859739	<s> I	-0.1848652
-2.558709	<s> J
-2.558709	<s> K
-2.160769	<s> L
-2.859739	<s> M
-2.859739	<s> MkQN
-2.382617	<s> N
-2.558709	<s> O
-2.859739	<s> O1
-2.859739	<s> O2
-2.859739	<s> O7
-2.859739	<s> O8
-2.859739	<s> O_
-2.859739	<s> On
-2.257679	<s> P	-0.4471581
-2.859739	<s> Q
-2.859739	<s> Q1
-2.859739	<s> Q2
-2.859739	<s> Q3
-2.859739	<s> QO
-2.859739	<s> S
-2.859739	<s> SDL_PollEvent
-2.859739	<s> SDL_Surface
-2.558709	<s> T
-2.859739	<s> U
-2.859739	<s> Upgrade
-2.257679	<s> V
-2.081587	<s> W	-0.2923438
-2.859739	<s> XPutImage
-2.859739	<s> Y
-2.558709	<s> Z
-2.160769	<s> [
-2.160769	<s> ]	-0.5125133
-1.905496	<s> _	-0.4751319
-2.859739	<s> _0
-2.558709	<s> __	0.1249388
-2.558709	<s> ____	0.8239088
-2.859739	<s> _f
-1.905496	<s> a	-0.2925105
-2.859739	<s> ageX
-2.558709	<s> ala
-2.257679	<s> and	-0.2747011
-2.382617	<s> asn	0.2108533
-2.257679	<s> b
-2.859739	<s> bB
-2.859739	<s> bC
-2.859739	<s> be
-2.859739	<s> bl
-2.859739	<s> bn
-2.257679	<s> break	0.447158
-2.859739	<s> bt
-2.558709	<s> bu
-2.859739	<s> by
-2.257679	<s> c	-0.5690597
-2.859739	<s> c8
-2.382617	<s> char	0.02555409
-1.905496	<s> const	-0.4247332
-2.558709	<s> d
-2.859739	<s> do
-2.382617	<s> e
-1.397341	<s> efine
-2.859739	<s> er
-2.558709	<s> exit	0
-2.257679	<s> f	-0.2234251
-1.683647	<s> for	0.03266907
-2.257679	<s> free	0
-2.859739	<s> fw
-2.382617	<s> g
-2.859739	<s> getchar
-2.257679	<s> gly	0
-2.382617	<s> h
-2.382617	<s> i
-1.558709	<s> if	0.07572079
-1.780557	<s> int	-0.07545337
-2.859739	<s> k
-2.257679	<s> l
-2.859739	<s> lf
-2.382617	<s> lys
-2.382617	<s> m
-2.859739	<s> mR8
-2.382617	<s> main	0.6532125
-2.382617	<s> met	-0.3679768
-2.859739	<s> mva
-2.257679	<s> n
-2.558709	<s> ndif	0
-2.859739	<s> new
-1.905496	<s> not	-0.7119349
-2.257679	<s> o	-0.2143929
-2.859739	<s> oM
-2.859739	<s> ocket
-2.859739	<s> on
-2.859739	<s> open
-2.558709	<s> p
-2.558709	<s> phe	0
-2.859739	<s> pt
-2.859739	<s> putchar
-2.558709	<s> puts	0.3679768
-2.382617	<s> q
-2.382617	<s> r
-2.859739	<s> rQ
-2.859739	<s> rea
-2.160769	<s> return
-2.859739	<s> rror
-2.382617	<s> s
-2.257679	<s> sec	-0.3467875
-2.859739	<s> signal
-2.859739	<s> sin
-2.160769	<s> static	0.07918125
-2.859739	<s> stdin
-2.859739	<s> strchr
-2.859739	<s> switch
-2.257679	<s> t	-0.2053806
-2.859739	<s> tf
-2.160769	<s> thr	-0.09691003
-2.859739	<s> tr
-2.859739	<s> type
-2.014641	<s> typedef	-0.03698356
-2.558709	<s> tyr	-0.2552725
-2.014641	<s> u	-0.3314599
-2.859739	<s> unsigned
-2.160769	<s> v
-2.558709	<s> val
-2.859739	<s> void
-2.558709	<s> w
-2.257679	<s> while	0
-2.859739	<s> x
-2.382617	<s> y
-2.859739	<s> z
-2.014641	<s> {	-0.2848128
-1.22627	<s> }	-0.498645
-2.558709	<s> ~
-2.1529	= !
-2.85187	= "
-2.85187	= "<;iQ=/*do<;dQ=ook8?boc;aQ=odr8>oc;_Q<ox8>oc"
-2.85187	= "NBLF\1Nblfgjmf\1"
-2.85187	= "\n\n\n"
-2.85187	= "syntax_error!"
-2.24981	= &	-0.6774303
-2.55084	= '128'
-2.85187	= 'width:256px;height:256px'
-1.218401	= (	-0.2456174
-2.55084	= )	-0.476503
-1.509447	= *	-0.564804
-2.374748	= ,	-0.4763814
-1.596597	= -	-0.4705904
-2.85187	= --
-2.85187	= .1
-0.9885467	= 0	-1.098569
-2.85187	= 040
-2.85187	= 0u
-2.85187	= 0x1
-2.85187	= 0x820008202625a0
-1.772688	= 1	-0.589911
-2.1529	= 10	-0.1597009
-2.85187	= 1024
-2.85187	= 112
-2.85187	= 12
-2.85187	= 12359778
-2.85187	= 13000
-2.85187	= 17
-2.85187	= 196
-2.85187	= 1LL
-2.374748	= 2	-0.4290598
-2.85187	= 234
-2.85187	= 250
-2.374748	= 255
-2.85187	= 256
-2.85187	= 26
-2.073718	= 3	-0.6916707
-2.85187	= 30
-2.374748	= 32
-2.85187	= 32768
-2.85187	= 333
-2.85187	= 34
-2.85187	= 37
-2.24981	= 4	-0.6170659
-2.85187	= 40
-2.85187	= 41088
-2.85187	= 48
-2.85187	= 480
-2.55084	= 5	-0.4227636
-2.85187	= 50
-2.85187	= 5000
-2.85187	= 512
-2.24981	= 6	-0.2643072
-2.85187	= 6990400
-2.073718	= 7	-0.1318876
-2.374748	= 8	-0.3579349
-2.85187	= 80
-2.85187	= 9
-1.596597	= </s>
-1.573116	= A	-0.4214211
-1.897627	= B	-0.4074854
-1.94878	= C	-0.2662679
-2.85187	= COLS
-2.073718	= D	-0.3756636
-2.1529	= E	-0.1597009
-2.24981	= F	-0.1549019
-2.073718	= H	-0.146128
-2.24981	= I	-0.5746218
-2.85187	= J
-2.55084	= K
-2.374748	= L	-0.4507923
-2.85187	= LINES
-2.24981	= M	-0.455932
-1.85187	= N	-0.4822609
-2.006772	= O	-0.4846309
-2.85187	= O0
-2.85187	= O5
-2.374748	= OO	-0.39794
-2.55084	= O_	0.4771213
-2.85187	= O_o
-2.374748	= P
-2.374748	= Q
-2.85187	= Q7
-2.85187	= Q8
-2.374748	= Q_	0
-2.55084	= R	-0.4474506
-2.24981	= S
-2.85187	= SDL_CreateRGBSurface
-2.85187	= SDL_SetVideoMode
-1.94878	= T	-0.1948652
-2.85187	= TIMESTEP
-2.85187	= U
-2.374748	= W
-2.85187	= X
-2.85187	= XCreateImage
-2.85187	= XCreateSimpleWindow
-2.85187	= XLookupKeysym
-2.85187	= XOpenDisplay
-2.85187	= Z
-2.85187	= _
-2.85187	= _0
-2.55084	= _Q
-2.374748	= __	-0.4648868
-2.85187	= __TIME__
-2.85187	= _b
-1.737926	= a	-0.181369
-1.94878	= b
-2.85187	= b5g
-2.55084	= bA
-2.85187	= bB
-2.85187	= bC
-2.55084	= bE	-0.07918125
-2.85187	= ba
-2.85187	= bb
-2.85187	= bf
-2.85187	= bl
-2.85187	= bm
-2.006772	= bp	0
-2.85187	= bs
-2.85187	= bx
-2.85187	= by
-2.55084	= bz
-1.705742	= c	-0.1506442
-2.55084	= calloc	0
-1.64775	= d	-0.5336026
-1.772688	= e	-0.466902
-1.85187	= f	-0.2960666
-2.85187	= fread
-2.85187	= function
-2.85187	= g
-2.85187	= getch
-2.85187	= getchar
-2.24981	= gln	-0.39794
-2.073718	= h	-0.2466723
-2.55084	= his
-1.897627	= i	-0.3044681
-1.810477	= j	-0.3764734
-2.1529	= k
-2.24981	= l
-2.85187	= lv
-2.006772	= m	-0.1189758
-2.85187	= main
-2.85187	= malloc
-1.94878	= n	-0.2956349
-2.85187	= new
-2.85187	= nk
-2.374748	= not	-0.3698528
-1.705742	= o	-0.2699102
-2.006772	= p	-0.4970715
-2.85187	= pyl
-2.374748	= q	-0.4607309
-2.1529	= r	-0.2006595
-2.85187	= rand
-2.85187	= read
-2.374748	= realloc	0
-2.85187	= round
-1.94878	= s	-0.08986451
-2.374748	= sizeof	0.05115247
-2.85187	= strrchr
-2.85187	= system
-2.1529	= t	-0.3499323
-1.94878	= trp	-0.3802113
-1.772688	= u	-0.4531209
-2.55084	= unk	-0.39794
-1.810477	= v	-0.3129292
-2.85187	= w
-2.85187	= window
-1.897627	= x	-0.04026319
-2.85187	= xle
-2.073718	= y	-0.08182133
-2.1529	= z	-0.6431122
-1.94878	= {
-1.716003	== (
-1.414973	== *
-1.414973	== -
-1.716003	== 0
-1.414973	== 1
-1.414973	== 10
-1.716003	== 2
-1.716003	== 27
-1.716003	== 275
-1.716003	== 276
-1.414973	== 3
-1.716003	== 32
-1.414973	== 35
-1.716003	== 4
-1.414973	== 5	-0.3258536
-1.716003	== 6
-1.716003	== 8
-1.716003	== 81
-1.716003	== 9
-1.716003	== 92
-1.716003	== </s>
-1.414973	== D
-1.414973	== NULL	0
-1.414973	== T	-0.3905521
-1.113943	== a	-0.2861043
-1.716003	== arg
-1.716003	== b
-1.414973	== c
-1.716003	== cys
-1.716003	== gln
-1.716003	== h
-1.414973	== n
-1.716003	== not
-1.716003	== r
-1.414973	== u
-1.716003	== ~
-1.295567	> (
-1.897627	> ->
-0.9945371	> 0	-0.2757619
-1.897627	> 1
-1.897627	> 12
-1.897627	> 1600
-1.897627	> 197
-1.198657	> 2	-0.4701724
-1.897627	> 20
-1.897627	> 255
-1.897627	> 3
-1.897627	> 30
-1.897627	> 31
-1.897627	> 32
-1.596597	> 4
-1.295567	> 5	-0.2609127
-1.897627	> 55
-1.420506	> 6
-1.897627	> 64
-1.596597	> 7
-1.897627	> 76
-1.596597	> 9
-1.897627	> 92
-1.897627	> ;
-1.897627	> <
-1.596597	> </s>
-1.897627	> BUFSIZ
-1.897627	> F
-1.897627	> H
-1.897627	> I
-1.897627	> Q0
-1.596597	> QQ	-0.30103
-1.295567	> _	-0.2628804
-1.897627	> a
-1.897627	> bs
-1.897627	> c
-1.897627	> char
-1.897627	> d_C
-1.897627	> e
-1.897627	> glu
-1.897627	> h
-1.596597	> i
-1.897627	> l
-1.897627	> lrand48
-1.897627	> p
-1.897627	> q
-1.897627	> s
-1.897627	> t
-1.897627	> v
-1.897627	> w
-1.897627	> x
-0.845098	>= (
-0.544068	>= 0
-0.845098	>= 2
-0.845098	>= LINES
-0.845098	>= Q
-0.845098	>= d
-1.238882	>> (
-1.716003	>> ++
-1.716003	>> 12
-1.414973	>> 14	0
-1.238882	>> 2	-0.3309932
-1.716003	>> 20
-1.716003	>> 28
-1.716003	>> 3
-1.414973	>> 31	0.1249388
-1.414973	>> 32	-0.4423591
-1.716003	>> 38
-1.414973	>> 4
-1.238882	>> 40	-0.2340832
-1.716003	>> 5
-1.716003	>> 56
-1.414973	>> 6
-0.7160034	>> 8	-0.4771211
-1.238882	>> </s>
-1.414973	>> a	-0.4498743
-1.716003	>> f
-1.716003	>> lys
-1.716003	>> n
-1.414973	>> s
-1.716003	>> u
-1.414973	>> unk	-0.1760913
-1.414973	>> z	-0.07542109
-0.4771213	>>= 4
-0.4771213	>>= 7
-0.4771213	>>= e
-2.11059	? !
-1.80956	? ""	-0.3309932
-2.11059	? ";"
-2.11059	? "{;}"
-2.11059	? "}$"
-1.80956	? &
-2.11059	? '
-2.11059	? '|'
-1.332438	? (
-1.332438	? *
-1.633469	? ++
-2.11059	? -
-1.633469	? --	-0.4203936
-1.069197	? 0	-1.0376
-1.633469	? 1	-0.5899111
-2.11059	? 124
-2.11059	? 1l
-2.11059	? 255
-2.11059	? 256
-1.80956	? 3
-2.11059	? 32
-1.80956	? 8	-0.4593925
-2.11059	? 9858122
-1.80956	? </s>
-1.80956	? D
-1.80956	? E	-0.3222193
-2.11059	? F
-2.11059	? FILENAME_MAX
-1.80956	? G	0.1127043
-2.11059	? H
-2.11059	? H_1
-1.80956	? I	-0.4590231
-1.80956	? L	-0.4541721
-2.11059	? O
-2.11059	? RGB
-2.11059	? S
-1.41162	? T	-0.5507439
-2.11059	? U
-2.11059	? _k
-1.80956	? a
-1.633469	? d
-2.11059	? e
-1.80956	? g
-1.633469	? glu	-0.4471581
-2.11059	? h
-1.633469	? i	-0.4720713
-1.633469	? k
-1.41162	? n
-1.633469	? o	-0.4484761
-1.633469	? p	-0.3912066
-2.11059	? putchar
-2.11059	? q
-2.11059	? r
-1.633469	? s	-0.3857911
-2.11059	? strlen
-2.11059	? t
-1.80956	? u
-1.265492	? v	-0.4675109
-2.11059	? w
-1.80956	? x
-2.11059	? ~
0	?" "8!@dP,!!o+fb"
-1.079181	A )
-0.90309	A ,
-1.681241	A -
-0.50515	A ;	-0.2581996
-1.681241	A </s>
-0.9822713	A =	-0.1947556
-1.681241	A J
-1.681241	A L
-1.681241	A R
-0.5672979	A [	-0.7917976
0	Acce </s>
0	Alan Turing
-0.7323937	B &	-0.07537033
-1.431364	B &&
-0.6910011	B (	-0.4300141
-0.8872957	B )	-0.7010039
-1.033424	B +	-0.6815572
-1.130334	B ,
-1.732394	B :
-1.255273	B ;
-1.732394	B </s>
-1.431364	B =
-1.732394	B ==
-1.732394	B J
-1.732394	B L
-1.033424	B R	-0.458994
0	BUFSIZ )
-1.290035	C &
-0.5118834	C (	-0.5790724
-1.113943	C )
-1.591065	C +
-1.290035	C ,
-1.290035	C -
-1.591065	C :
-1.290035	C ;
-1.591065	C <
-1.591065	C =
-1.290035	C ==
-0.9890046	C >
-1.591065	C J
-1.591065	C R
-1.591065	C [
-1.591065	C ^
-1.591065	C a
-1.591065	C p
-0.30103	COLS -
-0.30103	COLS /
-1.681241	D %
-1.079181	D &&	-0.09275404
-1.681241	D (
-1.380211	D )
-1.20412	D +
-1.681241	D ,
-1.681241	D -=
-1.681241	D ;
-1.380211	D </s>
-0.90309	D =	-0.171177
-1.681241	D ?
-1.681241	D L
-1.079181	D [	-0.293606
-1.681241	D ]
-0.90309	D c	-0.4165999
-0.90309	D d	-0.4152342
-0.9822713	D e	-0.6782854
-1.380211	D f
0	DefaultGC (
0	DefaultVisual (
0	Display *
-0.8750613	E (	-0.298719
-0.8750613	E )
-1.477121	E *
-1.176091	E ++
-1.477121	E +=
-0.8750613	E ,	-0.2988066
-0.8750613	E ;	-0.2369538
-1.477121	E </s>
-0.5228788	E =	-0.171177
0	E0 (
0	E3 (	-0.468139
-0.60206	EOF )
-0.90309	EOF +
-0.60206	EOF ;
-0.4259687	EOF ]	-0.5529512
0	ETIANMSURWDKGOHVF:L:PJBXCYZQ::54:3:::2&:+::::16=/:::(:7:::8:90" </s>
0	EX (
-1.243038	F %
-1.243038	F &
-0.544068	F (	-0.3210575
-1.544068	F )
-1.544068	F *
-0.7659168	F ,	-0.1640996
-0.9420081	F -	-0.2944991
-1.544068	F /
-1.544068	F :
-1.243038	F <
-0.9420081	F =
-1.544068	F >>
0	F0 (	-0.458967
0	F1 (	-0.458967
0	F2 (
0	FILENAME_MAX :
0	FV (
-0.30103	F_ )
-0.30103	F_ ,
-0.1290947	G (	-0.253372
-1.544068	G )
-1.544068	G ,
-0.69897	G [
-1.352183	H %
-1.352183	H &
-1.653213	H (
-1.352183	H )
-1.653213	H ++
-0.7501225	H ,	-0.1844619
-1.352183	H -
-1.653213	H --
-1.352183	H /
-1.176091	H ;
-1.653213	H <
-1.653213	H </s>
-1.653213	H <<
-0.7501225	H =
-1.653213	H >>
-1.352183	H ?
-1.653213	H C
-1.653213	H R
-1.352183	H ]	-0.3567112
-1.653213	H char
-1.653213	H long
-1.653213	H short
0	HP (
0	HY (
0	H_1 )
-1.690196	I &
-0.9912261	I (
-1.389166	I )
-1.690196	I *
-1.213075	I +
-1.690196	I ++
-1.389166	I ,
-1.389166	I -	-0.4722323
-1.389166	I :
-1.088136	I ;
-1.690196	I <
-0.6901961	I =
-1.088136	I ==
-1.690196	I ?
-1.088136	I H
-1.690196	I [
-1.690196	I char
-1.690196	I int
-1.690196	I jmp_buf
-1.690196	I long
-1.690196	I void
-0.30103	J (	-0.144809
-1.447158	J ,
-1.447158	J ;
-1.146128	J </s>
-1.146128	J =
-0.748188	J [
-1.447158	J l
-1.146128	J }
-1.491362	K %
-0.5882717	K (	-0.2794289
-0.8893017	K )	-0.2010978
-1.491362	K *
-1.190332	K ++
-1.491362	K +=
-0.8893017	K ,
-1.491362	K -
-1.491362	K ;
-1.491362	K <
-1.190332	K </s>
-1.01424	K =
-1.190332	K ?
0	KrgR'8@c]!%-q9V.3fa[E8X%dY'w!#H <P~6"
-2.133539	L %=
-1.656418	L (
-1.230449	L )	-0.1964069
-1.054358	L *	-0.2541856
-1.832509	L +
-0.4345689	L ,	-0.7117175
-1.288441	L -	-0.08534917
-2.133539	L ;
-2.133539	L <
-2.133539	L </s>
-1.656418	L =
-1.832509	L ==
-2.133539	L >
-1.832509	L >>
-2.133539	L >>=
-2.133539	L ?
-2.133539	L T
-2.133539	L [
-1.531479	L ]	-0.5785599
-2.133539	L a
-1.092146	L d	-0.8352939
-1.288441	L e	-0.6587875
-1.531479	L f
-2.133539	L m
-2.133539	L n
-1.179296	L t	-0.1554067
-0.4771213	LINES -
-0.4771213	LINES ;
-0.4771213	LINES ||
0	LP (
0	L_tmpnam )
-1.447158	M &&
-0.3679768	M (	-0.2787363
-1.146128	M )
-0.845098	M ,
-1.447158	M .
-1.447158	M ;
-1.447158	M <
-1.146128	M </s>
-1.447158	M =
-1.447158	M ==
-1.447158	M >
-1.447158	M qN
0	M8q;k' N_7vN
0	MJ 24
0	MK6lM L
0	McPc %
0	MkQN 77
-1.748188	N %
-1.748188	N &
-0.4694344	N (	-0.2112377
-0.9700368	N )	-0.3701336
-1.748188	N *
-1.748188	N +
-0.7067953	N ,	-1.048557
-1.271067	N ;
-1.748188	N <
-1.447158	N </s>
-1.146128	N =
-1.748188	N McPc
-1.447158	N [
-1.447158	N ]
-1.748188	N oNS
0	N4 RlMG
0	N8b %
0	N9 m
0	N9b %
0	NULL )	-0.535782
0	NUO <
0	N_1' 5
0	N_7vN 'nSM8
-1.633469	O %
-1.934498	O &
-1.934498	O &&
-0.8931057	O (	-0.3256395
-1.031408	O )	-0.1378419
-1.934498	O *
-1.332438	O +
-1.457377	O ++
-1.457377	O ,
-1.457377	O --	-0.3667088
-1.934498	O 8
-1.457377	O :
-1.235528	O ;	-0.1577726
-1.457377	O <	-0.4677812
-1.633469	O </s>
-0.5542872	O =	-0.401226
-1.934498	O ?
-1.934498	O G
-1.934498	O Q
-1.934498	O S
-1.934498	O ^
-1.934498	O ckQaOrON
-1.934498	O j
-1.934498	O jQ
-1.934498	O sM
-1.934498	O {
-1.934498	O ~
-0.4149733	O0 +=	-0.3674507
-1.113943	O0 ,
-0.5118834	O0 -	-0.2977768
-0.6368221	O0 =
-0.845098	O1 )
-0.845098	O1 *
-0.544068	O1 ,
-0.845098	O1 =
-0.845098	O1 >
-0.845098	O1 ]
-0.845098	O2 *
-0.845098	O2 ,
-0.845098	O2 -
-0.845098	O2 /
-0.544068	O2 =
-0.845098	O2 >
-0.4771213	O3 )
-0.7781513	O3 -
-0.7781513	O3 /
-0.7781513	O3 </s>
-0.7781513	O3 =
0	O3NF (
-0.39794	O4 *
-0.69897	O4 +
-0.69897	O4 =
-0.69897	O4 |
-0.4771213	O5 )
-0.7781513	O5 +
-0.4771213	O5 ,
-0.7781513	O5 [
-0.60206	O6 +
-0.30103	O6 ,
-0.60206	O6 =
-0.60206	O7 )
-0.60206	O7 ,
-0.60206	O7 =
-0.60206	O7 Q
-0.4771213	O8 *
-0.4771213	O8 +
-0.4771213	O8 =
-0.1760913	O9 --
-0.4771213	O9 =
0	OMQ ]
0	OMaMch &
0	OMp RmPQ
0	ON8r %
-0.7781513	OO )
-1.079181	OO +=
-0.7781513	OO ,
-0.7781513	OO -
-1.079181	OO <
-0.7781513	OO =
-1.079181	OO ==
-1.079181	OO >
0	O^ln ;b'
-0.9542425	O_ &
-0.05115252	O_ (	-0.4216671
-0.1249387	O_o )
-0.60206	O_o ,
0	OaaD %
0	Ok </s>
0	On %
0	OsR _
-0.5228788	P (	-0.162717
-0.5606673	P )	-0.4979934
-1.60206	P +=
-1.124939	P ,
-1.30103	P 1	-0.3610762
-1.30103	P ;
-1.60206	P =
-1.60206	P >=
-1.60206	P M
-1.60206	P U
-1.60206	P [
-1.60206	P _d
-1.60206	P _i
-1.60206	P i
-1.60206	P q
-1.78533	Q &
-1.78533	Q &&
-1.007179	Q (	-0.1701238
-1.08636	Q )
-1.308209	Q *	-0.4744487
-1.4843	Q ,
-1.78533	Q -
-1.4843	Q ;
-1.4843	Q </s>
-1.78533	Q <=
-1.308209	Q =
-1.78533	Q ?
-1.78533	Q O
-1.78533	Q OO
-1.78533	Q Ok
-1.78533	Q Q4
-1.78533	Q [
-0.5812098	Q ]	-0.02765609
-1.007179	Q ^
-1.78533	Q __
-1.78533	Q _k
-1.78533	Q main
-1.4843	Q write	0
-1.78533	Q x
-1.079181	Q0 &&
-0.7781513	Q0 )
-0.60206	Q0 +
-0.7781513	Q0 +=
-1.079181	Q0 ,
-0.60206	Q0 =	-0.4300723
-0.7781513	Q1 )
-0.4771213	Q1 ,
-0.30103	Q1 =
-0.845098	Q2 &&
-0.845098	Q2 *
-0.544068	Q2 +	-0.4436216
-0.845098	Q2 ,
-0.544068	Q2 =
-0.7781513	Q3 %
-0.4771213	Q3 ,	-0.476011
-0.4771213	Q3 =
-0.7781513	Q3 >>
-0.60206	Q4 &&
-0.60206	Q4 ,
-0.60206	Q4 --
-0.60206	Q4 =
-0.60206	Q5 +
-0.30103	Q5 ,
-0.60206	Q5 =
-0.60206	Q6 +=
-0.60206	Q6 ,
-0.60206	Q6 </s>
-0.60206	Q6 =
-0.60206	Q7 )
-0.60206	Q7 ;
-0.60206	Q7 =
-0.60206	Q7 O
-0.4771213	Q8 ,
-0.4771213	Q8 ;
-0.4771213	Q8 =
-0.30103	Q9 ,
-0.30103	Q9 =
0	QH (
0	QL (
-0.7781513	QO &&
-0.60206	QO *
-1.079181	QO +
-0.7781513	QO ,
-0.4771213	QO =
-0.4771213	QQ )
-0.9542425	QQ *
-0.4771213	QQ +	-0.4183158
-0.9542425	QQ ,
-0.9542425	QQ =
0	QR (	-0.458967
0	QS (	-0.458967
0	Q_ (	-0.1751024
0	Qr h
-1.423246	R !
-1.180208	R %	-0.09272645
-1.423246	R (
-0.3720933	R )	-0.6012678
-1.548185	R *
-2.025306	R ++
-1.247155	R ,	-0.3670782
-1.548185	R --	-0.5453324
-2.025306	R ;
-2.025306	R <
-1.247155	R </s>
-2.025306	R A
-1.724276	R D
-1.423246	R K	-0.5693362
-2.025306	R N
-2.025306	R ]
-1.724276	R a
-2.025306	R c
-1.724276	R g
-2.025306	R i
-1.548185	R j	-0.4334123
-2.025306	R k
-2.025306	R l
-2.025306	R n
-2.025306	R o
-2.025306	R s
-1.724276	R v
0	R8 /
0	RAFT )
0	RGB )
0	RI4 4
0	RM ;
0	RMPmSk U
0	RP (
0	RlMG /
0	RmM </s>
0	RmPQ O
0	RootWindow (
-1.643453	S (
-1.041393	S )
-1.342423	S +
-0.9444827	S ,
-1.643453	S :
-0.60206	S ;	-0.2633324
-1.166331	S =
-1.342423	S ?	-0.4599532
-1.643453	S [
-0.6892102	S ]	-0.8445123
-1.643453	S d
-1.643453	S j
-1.643453	S s
-1.643453	S u
-1.643453	S {
0	SDL_AudioSpec bu
0	SDL_BlitSurface (
0	SDL_CreateRGBSurface (
0	SDL_Delay (
0	SDL_Event bE
0	SDL_FillRect (
0	SDL_Flip (
0	SDL_Init (
0	SDL_LoadWAV (
0	SDL_MixAudio (
0	SDL_OpenAudio (
0	SDL_PauseAudio (
0	SDL_PollEvent (
0	SDL_Rect </s>
0	SDL_SetVideoMode (
0	SDL_Surface *
0	SNH %
0	SOPm R8
0	SPEED *
0	Sec -
0	SlM90 %
0	So long
-1.919078	T (
-1.317018	T )
-1.919078	T *
-0.7429869	T ++	-0.3028209
-1.919078	T +=
-1.140927	T ,	-0.1716331
-1.618048	T -
-1.441957	T --	-0.4590231
-1.220108	T :	-0.3840636
-1.317018	T ;	-0.2918382
-1.618048	T <
-1.220108	T </s>
-0.8051347	T =	-0.3271553
-1.220108	T ==	-0.1870866
-1.919078	T R
-0.8776854	T [	-0.2215542
-1.919078	T ]
-1.919078	T mR
-1.919078	T {
-1.919078	T |
0	TIMESTEP ,
0	TIOCGWINSZ ,
0	TMP_MAX )
0	TmS </s>
0	TmSt 6
0	Turing (
0	Type =
-1.322219	U (
-1.322219	U )
-0.845098	U ,
-1.623249	U 7
-0.3928004	U ;	-0.418255
-1.623249	U </s>
-1.021189	U =
-1.623249	U L
-1.623249	U i
-1.146128	U int	-0.4423591
-1.322219	U j	-0.3673162
-1.623249	U l
-1.623249	U u
0	UV_DROP :
0	Uint8Array (
0	Upgrade :
-0.9822713	V !
-1.681241	V )
-1.079181	V *
-1.20412	V ,
-1.681241	V ->
-1.380211	V ;
-1.681241	V </s>
-1.380211	V =
-1.079181	V F	-0.552842
-1.681241	V _b
-1.681241	V _c
-1.681241	V _f
-1.079181	V a
-1.681241	V b
-1.681241	V c
-1.380211	V d
-1.380211	V e
-1.681241	V f
-1.681241	V i
-1.681241	V j
-1.681241	V n
-1.380211	V o
-1.681241	V p
-1.681241	V r
-1.681241	V w
-1.681241	V y
-1.380211	V z	-0.07542109
-0.4602533	W (	-0.2626724
-0.9251401	W )	-0.1606217
-1.5272	W *	-0.4524544
-1.703291	W +
-2.004321	W +=
-1.22617	W ,	-0.4715414
-1.5272	W -	-0.4163424
-1.402261	W --	-0.4916475
-1.5272	W /
-0.890378	W ;	-0.3963911
-2.004321	W </s>
-1.5272	W =
-2.004321	W ==
-1.159223	W R	-0.333897
-2.004321	W S
-1.305351	W [	-0.390516
-2.004321	W ]
-0.30103	WebSocket (
-0.30103	WebSocket -
0	Window u
-1.869232	X !=
-1.869232	X &
-1.568202	X (
-0.6387828	X )	-0.2564819
-1.869232	X *
-1.568202	X +
-0.6387828	X ,	-0.06466278
-1.869232	X -
-1.869232	X --
-1.869232	X /
-1.869232	X :
-1.39211	X ;
-1.869232	X <
-1.09108	X </s>
-0.9661418	X =	-0.1150539
-1.568202	X S	-0.3521825
-0.9661418	X [	-0.1219843
-1.869232	X ]
0	XCheckWindowEvent (
0	XCreateImage (
0	XCreateSimpleWindow </s>
0	XEvent M
0	XImage *
0	XLookupKeysym (
0	XMapWindow (
0	XOpenDisplay (
0	XPutImage (
0	XSelectInput (
-0.7160034	Y (	-0.6491325
-1.113943	Y )
-0.8129134	Y ,
-1.414973	Y ;
-1.113943	Y =
-1.113943	Y S	-0.4357286
-0.4607309	Y [	-0.449779
-1.414973	Y a
-0.7781513	Z (	-0.2128665
-1.176091	Z )	-0.3771891
-1.477121	Z +
-0.7781513	Z ,	-0.2155194
-1.477121	Z -
-0.8750613	Z ;	-0.2950775
-0.7781513	Z =	-0.2100852
-1.477121	Z ?
-1.477121	Z W
-1.477121	Z e
-1.477121	Z g
-1.477121	Z h
-1.477121	Z k
-1.477121	Z n
-1.770852	[ (
-1.691671	[ *	-0.4533934
-2.469822	[ +
-1.293731	[ -	-0.3062649
-1.469822	[ 0	-1.022088
-2.469822	[ 01
-1.168792	[ 1	-1.181055
-2.469822	[ 17
-1.566732	[ 2	-0.896841
-2.469822	[ 204
-1.469822	[ 3	-0.8908556
-2.168792	[ 32	-0.4423591
-2.469822	[ 36
-1.428429	[ 4	-0.9890046
-1.770852	[ 5	-0.6616457
-2.469822	[ 516
-2.469822	[ 5200
-1.992701	[ 6	-0.5523722
-2.168792	[ 7	-0.4007329
-1.992701	[ 8	-0.5658479
-2.469822	[ 80
-2.469822	[ 9
-2.168792	[ 97	0
-2.469822	[ 99
-2.469822	[ 9999
-1.624724	[ </s>
-2.469822	[ B
-2.168792	[ EOF	-0.2730013
-2.168792	[ H	-0.4573772
-1.770852	[ L	-0.384975
-2.168792	[ O	-0.4564367
-2.469822	[ Q6
-2.168792	[ W	-0.464026
-2.168792	[ X
-1.428429	[ ]	-0.8485956
-1.168792	[ _	-1.195955
-2.469822	[ _Q
-1.071882	[ __	-0.8129134
-2.469822	[ a
-2.469822	[ b
-2.469822	[ bi
-2.168792	[ c
-1.770852	[ d
-2.469822	[ e
-2.469822	[ f
-1.770852	[ g	-0.6478175
-1.867762	[ h	-0.5757311
-1.390641	[ i	-1.017226
-1.691671	[ j	-0.7344423
-2.469822	[ k
-2.168792	[ l
-2.168792	[ leu	-0.1760913
-2.168792	[ m	-0.4637573
-1.867762	[ n	-0.2929121
-2.168792	[ not
-2.469822	[ o
-1.867762	[ p	-0.289749
-1.770852	[ r	-0.1859362
-2.469822	[ s
-2.168792	[ t
-2.469822	[ tgANs
-2.168792	[ u	-0.4628808
-1.566732	[ v	-0.8105447
-2.469822	[ val
-1.127399	[ xor	-1.070243
-2.168792	[ ~
0	\"" "%s"
0	\n\t" ,
-1.803457	] !=	-0.1638568
-2.025306	] %
-2.025306	] &	-0.4700594
-2.502427	] &&
-2.502427	] '2O
-2.502427	] '_3a
-2.201397	] (
-0.9342254	] )	-0.5334911
-1.388484	] *	-0.4499403
-2.201397	] *=	-0.3802113
-1.423246	] +	-0.1134081
-1.724276	] ++	-0.2182446
-1.657329	] +=	-0.2503373
-0.9839132	] ,	-0.2168675
-1.657329	] -	-0.2381491
-2.502427	] --
-2.201397	] -=
-2.025306	] /	-0.4672505
-2.502427	] 0
-2.502427	] 6
-1.803457	] :	-0.1539905
-0.9709482	] ;	-0.3920379
-2.025306	] <	-0.470917
-1.657329	] </s>
-2.502427	] <<
-0.6159364	] =	-0.4699875
-1.900367	] ==	-0.2839966
-1.599337	] >	-0.2485009
-2.502427	] >=
-2.201397	] >>
-2.201397	] ?
-2.502427	] OsR
-2.502427	] [
-2.502427	] ]
-2.025306	] ^
-1.388484	] _	-1.069683
-2.502427	] _o
-2.201397	] g	-0.4631105
-2.502427	] h
-2.502427	] k
-2.502427	] k_
-2.502427	] l
-2.502427	] l_
-2.025306	] |
-2.502427	] |=
-2.502427	] ||
-2.502427	] }
-1.612784	^ %
-1.612784	^ 'h(Q]0h#
-1.311754	^ (
-1.612784	^ )
-1.612784	^ *
-1.612784	^ -
-1.612784	^ --
-1.612784	^ /
-1.612784	^ 024
-1.612784	^ 0xfc0
-1.612784	^ 1
-1.612784	^ 10
-1.311754	^ 2
-1.612784	^ 20
-1.612784	^ 255
-1.612784	^ 3
-1.612784	^ 35
-1.612784	^ 3920
-1.612784	^ 4
-1.612784	^ 40
-1.311754	^ 6
-1.612784	^ 61
-1.612784	^ 9
-1.612784	^ OaaD
-1.612784	^ d
-1.612784	^ f
-1.612784	^ h
-1.311754	^ k
-1.135663	^ l
-1.612784	^ og
-1.135663	^ p	-0.5509075
-1.612784	^ t
-1.612784	^ ~
-0.60206	^= 20
-0.60206	^= _
-0.60206	^= k
-0.60206	^= y
-2.737987	_ %
-0.8085684	_ (	-1.059187
-0.9318073	_ )	-1.140353
-2.436957	_ *
-2.737987	_ +
-2.737987	_ ++
-0.3877393	_ ,	-1.538847
-2.737987	_ -
-2.737987	_ /
-2.737987	_ 6
-2.436957	_ :
-2.260866	_ ;
-2.260866	_ <	-0.4646227
-1.696595	_ </s>
-2.039017	_ =	-0.2163163
-2.737987	_ >>
-2.436957	_ ?
-2.737987	_ C
-2.737987	_ E
-2.737987	_ N
-2.737987	_ O
-1.07523	_ [	-1.289846
-2.737987	_ ^=
-1.013711	_ _	-1.534735
-2.737987	_ _8
-2.436957	_ __	0.1249388
-2.436957	_ a
-2.135927	_ b	-0.2579241
-2.737987	_ c
-2.737987	_ d
-2.260866	_ f	-0.4691523
-2.737987	_ g
-2.436957	_ n	-0.4168254
-2.737987	_ o
-2.436957	_ p
-2.737987	_ pQaM8m
-2.436957	_ r
-1.834897	_ s	-0.7705981
-2.737987	_ v
-2.436957	_ w
-2.737987	_ {
0	_){putchar(_);}O" "\40main(){O"
-0.9542425	_0 &&
-0.9542425	_0 )
-0.6532125	_0 *
-0.9542425	_0 +=
-0.9542425	_0 ,
-0.9542425	_0 /
-0.6532125	_0 =	-0.4300723
0	_8 (
0	_KK3 +
-0.69897	_O %
-1	_O %=
-0.69897	_O )	-0.4674386
-1	_O +
-1	_O +=
-0.69897	_O =
-1	_O >
-0.5228788	_Q %	-0.4698828
-1	_Q )
-0.69897	_Q +=
-1	_Q /
-1	_Q </s>
-0.69897	_Q =
0	_Zadat57 <
-1.556303	__ &	-0.4592465
-1.857332	__ &&
-0.1249387	__ (	-1.647179
-1.556303	__ )
-1.857332	__ *
-1.857332	__ +
-1.556303	__ +=	-0.3875105
-1.857332	__ ,
-1.857332	__ ;
-1.556303	__ </s>
-1.857332	__ <<
-1.556303	__ =
-1.857332	__ >>
-1.857332	__ >>=
0	__LINE__ *
-0.30103	__STDC_VERSION__ &&
-0.30103	__STDC_VERSION__ >
-0.30103	__STDC__ )
-0.30103	__STDC__ </s>
0	__TIME__ ;
0	__VA_ARGS__ }
-0.1760913	___ (
-0.4771213	___ )
-0.02227639	____ (	-1.2721
-1.30103	____ </s>
-0.30103	_a %
-0.30103	_a </s>
0	_b (
0	_c (
0	_d (
-0.60206	_f (
-0.60206	_f :
-0.60206	_f ;
-0.60206	_f </s>
0	_h *
0	_i (
-0.30103	_k (
-0.30103	_k :
0	_o ptj9
0	_t <
0	_z (
-2.170262	a %
-2.170262	a %=
-1.568202	a &
-2.170262	a &&
-2.170262	a &=
-1.170262	a (	-0.1459197
-0.9398128	a )	-0.1095218
-1.216019	a *	-0.6332206
-2.170262	a *=
-1.568202	a +
-1.869232	a ++	-0.3943359
-0.9941704	a ,	-0.0902055
-1.471292	a -	-0.2053337
-1.869232	a --
-2.170262	a .
-1.693141	a /	-0.4571502
-2.170262	a /=
-1.216019	a ;
-1.693141	a <	-0.4677812
-1.216019	a </s>
-2.170262	a <<
-1.024134	a =	-0.09359899
-1.568202	a >>
-2.170262	a ?
-1.568202	a L	-0.5654311
-1.869232	a S
-1.869232	a W
-2.170262	a X
-1.869232	a Z
-1.216019	a [	-0.3387266
-1.471292	a ]	-0.1014387
-2.170262	a {
-1.693141	a |
0	a_ (
0	abs (	-0.4603381
0	ageX -
-0.544068	ala *	-0.4726578
-0.845098	ala ;
-0.845098	ala asn
-0.3679768	ala not	-0.4405275
-0.1890562	and )	-0.3705286
-1.230449	and *
-1.531479	and ;
-1.531479	and asp
-1.531479	and gln
-1.230449	and his	-0.2340832
-1.531479	and pyl
-1.531479	and sec
-1.531479	and tla
-1.531479	and tyr
-1.531479	and xle
-0.30103	ar )
-0.30103	ar ,
-0.09691001	arg )
-0.69897	arg =
-0.60206	argh )
-0.30103	argh ,
-0.60206	argh ;
-1.113943	asn ,
-0.07255067	asn .	-0.7822677
-1.113943	asn ;
-0.1760913	asp -	-0.4738681
-0.4771213	asp =
-0.60206	asx )
-0.60206	asx +
-0.60206	asx =
-0.60206	asx >
0	au )	-0.475264
0	ay </s>
-1.258706	b !	-0.3276822
-2.103804	b %
-2.103804	b &
-1.501744	b (
-1.024622	b )	-0.340001
-2.103804	b *
-1.802774	b *=
-2.103804	b +
-1.149561	b ,	-0.1693867
-1.802774	b --
-2.103804	b .
-1.404834	b ;
-1.626683	b <
-1.258706	b </s>
-1.626683	b <<	-0.4600879
-1.062411	b =
-2.103804	b >
-1.802774	b >>
-1.626683	b ?
-1.325652	b B	-0.7561569
-2.103804	b D
-1.325652	b I	-0.4401377
-2.103804	b O
-2.103804	b P
-1.404834	b W	-0.1906552
-1.258706	b X	-0.09644026
-2.103804	b Z
-1.802774	b [	-0.4590857
-1.626683	b ]
-1.626683	b ^
-1.501744	b bf	-0.3187588
-2.103804	b bg
-2.103804	b bt
-2.103804	b h
-2.103804	b j
-2.103804	b kg
-2.103804	b n
-2.103804	b o
-1.802774	b q
-2.103804	b u
-2.103804	b ||
0	b1g (
0	b4 </s>
0	b5g (
-0.69897	bA ,
-0.69897	bA ;
-0.69897	bA <<
-0.39794	bA =	-0.4758979
-0.60206	bB )
-0.60206	bB ;
-0.30103	bB =
-0.60206	bC *
-0.60206	bC ,
-0.60206	bC /
-0.60206	bC =
-0.4771213	bD *
-0.4771213	bD ,
-0.4771213	bD =
-0.69897	bE )
-0.2218488	bE .
-0.69897	bE ;
0	b\nq(%s)\n" </s>
0	ba (
-0.7781513	bb )
-0.7781513	bb +
-0.7781513	bb +=
-0.7781513	bb ;
-0.4771213	bb =
0	bc (
-0.1760913	bd (
-0.4771213	bd </s>
-0.90309	be )
-0.60206	be ,	-0.4763814
-0.20412	be ;	-0.6869823
-0.60206	bf &&	-0.5808707
-0.4771213	bf )	-0.2347519
-0.4771213	bf ;	-0.2852862
-1.079181	bf =
-0.60206	bg &&
-0.60206	bg )
-0.60206	bg ;
-0.60206	bg =
-0.1249387	bh (	-0.4728197
-0.60206	bh </s>
0	bh' l
-0.30103	bi )
-0.30103	bi ]
0	binary "
0	bj (	-0.5930777
-0.60206	bk &&
-0.30103	bk ,
-0.60206	bk ;
-0.1760913	bl (	-0.4272838
-0.4771213	bl }
-0.30103	bm =
-0.30103	bm ==
-0.30103	bn ,
-0.30103	bn =
-0.30103	bo )
-0.30103	bo =
0	bp (
-0.30103	bq (
-0.30103	bq }
0	br ,
-0.03218468	break ;	-0.6544235
-1.146128	break H
-0.1760913	bs )
-0.4771213	bs ;
-0.7781513	bt ,
-0.4771213	bt ;
-0.4771213	bt =
-0.7781513	bt >
-0.7781513	bu *
-0.4771213	bu ,
-0.4771213	bu =
-0.7781513	bu >
-0.30103	bv ,
-0.30103	bv ;
0	bw ,
-0.30103	bx )
-0.30103	bx ;
-0.7781513	by ,
-0.7781513	by =
-0.30103	by ?	-0.4384136
-0.7781513	by ||
-0.69897	bz </s>
-0.69897	bz <<
-0.39794	bz =
-0.69897	bz >>
-2.089905	c "
-2.089905	c %
-2.089905	c &
-1.788875	c &&
-0.8857851	c )	-0.9104406
-1.311754	c *
-1.390935	c +	-0.2161217
-1.612784	c ++
-0.9759617	c ,	-0.1068633
-1.311754	c -	-0.1544966
-2.089905	c --
-2.089905	c -=
-1.788875	c .
-2.089905	c /
-1.390935	c :	-0.2135762
-1.135663	c ;	-0.1054911
-1.612784	c <
-1.487845	c </s>
-0.7676858	c =	-0.4004979
-1.487845	c ==
-1.788875	c >
-1.788875	c ?
-2.089905	c L
-2.089905	c R
-1.612784	c W
-1.788875	c Y
-2.089905	c Z
-1.788875	c ]
-1.788875	c ^
-2.089905	c |
-2.089905	c ||
-0.30103	c8 +
-0.30103	c8 7
0	c9 .
0	cN mkM
0	c_X </s>
0	c_kah%0d9`b' /
0	calloc (
-0.9542425	case 0
-0.9542425	case 10
-0.9542425	case 123
-0.9542425	case 35
-0.6532125	case 36	0
-0.9542425	case 40
-0.9542425	case 58
-0.9542425	case 61
0	cb ,
0	ch )
-0.1638568	char *	-0.4162013
-1.544068	char J
-1.544068	char L
-1.544068	char N
-1.544068	char O
-1.544068	char X
-1.243038	char c
-1.544068	char o
-1.544068	char p
-1.544068	char pro
-1.544068	char ser
0	ckQaOrON epne
0	close (
-1.041393	const ala	-0.2340832
-0.4973246	const and	-0.1197991
-1.342423	const char
-1.342423	const gln
-1.041393	const his	-0.2340832
-1.041393	const not	-0.449969
-0.8653014	const pro	-0.20412
-1.041393	const ser
-1.041393	const thr
0	continue ;
0	cos (
0	cq *
0	crea "
0	curs_set (
-0.7781513	cys )
-0.4771213	cys -
-0.7781513	cys =
-0.4771213	cys >>	-0.451314
-1.10721	d )	-0.2980078
-1.50515	d *
-1.50515	d +	-0.2756482
-1.80618	d ++
-2.10721	d +=
-0.8519375	d ,	-0.2356144
-1.50515	d -
-2.10721	d -=
-2.10721	d ->
-2.10721	d .
-2.10721	d /
-2.10721	d 9
-1.80618	d :
-0.9610819	d ;	-0.1628552
-1.630089	d <
-1.80618	d </s>
-2.10721	d <<
-0.80618	d =	-0.2607354
-2.10721	d ==
-2.10721	d >
-2.10721	d >=
-1.80618	d >>
-1.630089	d ?
-2.10721	d R
-1.028029	d W	-0.3301324
-1.630089	d X
-1.40824	d Y	-0.5144456
-1.80618	d [
-1.80618	d ]
-2.10721	d ^
-2.10721	d xv
-2.10721	d |
-1.80618	d ||
0	d2 xa6
0	d77sNOsd 8
-0.60206	d8 (
-0.60206	d8 ,
-0.60206	d8 _
-0.60206	d8 a
0	d8ak =
0	dA )
0	dB )
0	dC </s>
0	d_C f3
0	dat </s>
0	data )
0	default :
0	defined __STDC_VERSION__
-0.30103	do ,
-0.30103	do {
0	dstr )	-0.4601126
0	dup (
0	dup2 (
-1.332438	e (	-0.2920477
-1.0894	e )	-0.47779
-1.633469	e *
-1.633469	e +
-1.457377	e +=
-0.7883704	e ,	-0.2283785
-1.934498	e -
-1.934498	e -=
-1.457377	e .
-1.633469	e /
-1.934498	e :
-0.9344984	e ;	-0.3296268
-1.633469	e <
-1.633469	e </s>
-1.934498	e <<=
-0.8205551	e =	-0.3846173
-1.934498	e >
-1.934498	e >>
-1.633469	e W
-1.633469	e Y	-0.2925968
-0.9344984	e [	-0.06642068
-1.934498	e ]
-1.934498	e kf
0	eep ,
-1.462398	efine D
-1.462398	efine E
-1.462398	efine E0
-1.462398	efine EX
-1.462398	efine F0
-1.462398	efine F1
-1.462398	efine F2
-1.462398	efine FV
-1.462398	efine H
-1.462398	efine HP
-1.462398	efine HY
-1.462398	efine I
-1.462398	efine K
-1.462398	efine LP
-1.462398	efine M
-1.462398	efine N
-1.462398	efine O
-1.462398	efine P
-1.462398	efine Q
-1.462398	efine QH
-1.462398	efine QL
-1.462398	efine R
-1.462398	efine RP
-1.462398	efine S
-1.462398	efine T
-1.462398	efine U
-1.462398	efine W
-1.462398	efine Z
-1.462398	efine break
-0.9294189	else </s>
-1.230449	else V
-1.230449	else goto
-1.230449	else z
-0.1512677	else {	-0.1239078
0	elta_u )
0	elta_v )
0	epne luelue
0	er </s>
0	exit (	-0.6933362
0	extern void
-2.041393	f &
-1.564271	f &&	-0.2688453
-1.564271	f (	-0.4714875
-0.7861202	f )	-0.2027056
-1.740363	f *
-2.041393	f +
-0.8109438	f ,	-0.42088
-1.564271	f -	-0.4639598
-2.041393	f .
-0.8952646	f ;	0.009424061
-1.740363	f <
-2.041393	f </s>
-2.041393	f <<
-0.9274493	f =	-0.144788
-2.041393	f ==
-2.041393	f >
-1.196295	f ?	-0.1218982
-2.041393	f EOF
-1.08715	f L	-0.963371
-2.041393	f R
-1.740363	f X
-2.041393	f Z
-1.740363	f ]
-2.041393	f defined
-1.740363	f |	-0.4502491
-1.740363	f }
0	f3 ]
0	fabs (
0	fclose (
0	fgets (
0	flash (
-0.845098	float </s>
-0.845098	float C
-0.845098	float I
-0.845098	float K
-0.845098	float N
-0.845098	float V
-0.845098	float a
0	float_ )
0	flu ,
0	fopen (
-0.02593573	for (	-0.5511306
-1.236789	for </s>
0	fread (
0	free (	-0.3913044
0	fscanf (
0	function (
0	fw )	-0.2010978
-1.498311	g %
-1.322219	g &
-1.799341	g &&
-1.100371	g (	-0.2128665
-1.322219	g )	-0.535782
-1.498311	g *	-0.4681479
-1.799341	g *=
-1.100371	g +
-1.322219	g ++	-0.5723531
-1.100371	g ,	-0.2098571
-1.799341	g --
-1.799341	g -=
-1.498311	g 9
-1.799341	g :
-1.197281	g ;
-1.197281	g <	-0.2948257
-1.799341	g </s>
-1.799341	g <<
-0.7993405	g =	-0.04986108
-1.799341	g ==
-1.799341	g >>
-1.799341	g Q
-1.799341	g [
-1.799341	g ]
-1.498311	g ^
-1.799341	g ||
0	getC "
0	getch (
-0.30103	getchar (
-0.30103	getchar ;
-0.50515	gln )	-0.5930086
-0.30103	gln ;	-0.8778717
-0.90309	gln =
-1.20412	gln ==
-0.30103	glu )	-0.5930086
-0.5228788	glu :	-0.5937875
-1	glu <<
-1	glu =
-0.30103	glx %
-0.30103	glx =
0	gly (	-0.8411289
0	go )
0	goofy !
-0.1249387	goto O	-0.5760466
-0.60206	goto o
-1.0086	h %
-1.70757	h &
-1.70757	h &&
-1.70757	h 'lQ
-0.9294189	h (	-0.7657945
-1.70757	h )
-1.230449	h *	-0.5930867
-1.40654	h +	-0.4436216
-1.70757	h ++
-1.0086	h ,	-0.2185094
-1.0086	h -	-0.2053337
-1.70757	h /
-1.70757	h 9
-1.40654	h ;
-1.70757	h </s>
-1.70757	h <<
-0.8624721	h =
-1.70757	h >
-1.70757	h >>
-1.70757	h ?
-1.70757	h Q
-1.70757	h ^
-1.40654	h |
0	halting )
0	height =
-0.3679768	his )	-0.3771891
-0.845098	his ;
-0.3679768	his [	-0.4606176
0	ho )
0	href .
-1.459895	i %	-0.2901266
-1.760925	i &
-1.760925	i &&
-1.937016	i (
-1.061955	i )	-0.2740296
-1.334956	i *	-0.1132368
-2.238046	i *=
-1.459895	i +	-0.1703642
-1.539076	i ++	-0.1390634
-1.760925	i +=
-0.8066823	i ,	-0.434025
-1.334956	i -	-0.2911965
-2.238046	i --
-1.334956	i /	-0.2654538
-1.937016	i :
-1.238046	i ;
-1.007597	i <	-0.1008254
-2.238046	i </s>
-2.238046	i <=
-0.8230727	i =	-0.1918332
-1.937016	i >
-1.760925	i >>
-1.760925	i ?
-1.937016	i R
-1.635986	i S	-0.5026754
-1.539076	i ]	-0.168128
-2.238046	i |
-0.01772877	if (	-0.345138
-1.39794	if </s>
-0.69897	ile !=
-0.69897	ile +
-0.69897	ile --
-0.69897	ile ;
-0.69897	ile =
0	in tYv
0	initscr (
-1.210853	int )	-0.3004118
-1.034762	int *
-1.210853	int </s>
-1.812913	int F
-1.812913	int G
-1.812913	int H
-1.511883	int I
-1.812913	int K
-1.812913	int L
-1.812913	int M
-1.812913	int Q
-1.511883	int X
-1.812913	int _
-1.812913	int a
-1.812913	int bk
-1.812913	int bm
-1.812913	int bs
-1.812913	int bt
-1.812913	int bw
-1.812913	int by
-1.335792	int c	-0.4286088
-1.812913	int h
-1.113943	int i	-0.6282412
-1.335792	int j	-0.3673162
-1.812913	int k
-1.210853	int l	-0.2321487
-0.9678153	int main	0.4101745
-1.812913	int met
-1.812913	int o
-1.812913	int p
-1.812913	int puts
-1.812913	int t
-1.511883	int u
-1.812913	int v
0	int_ )
0	intw )
0	ioctl (
0	ipt >
-1.371068	j %	-0.5799725
-1.672098	j &&
-1.274158	j )
-1.973128	j *
-1.973128	j *=
-1.973128	j ++
-1.973128	j +=
-0.7690079	j ,	-0.3283982
-1.371068	j -	-0.2845149
-1.973128	j /
-1.672098	j /=
-1.672098	j :
-1.12803	j ;	-0.3901395
-1.018885	j <
-1.672098	j </s>
-0.6509085	j =	-0.188436
-1.973128	j ==
-1.973128	j >
-1.274158	j ?
-1.274158	j S	-0.5149098
-1.973128	j ]
-1.973128	j kd
-1.973128	j ||
0	jQ O7
0	j_la _
0	j_laaaN :
0	jmp_buf J
-1.80618	k %
-1.80618	k &
-1.50515	k (
-0.80618	k )	-0.07990138
-1.80618	k *
-1.329059	k +
-1.80618	k ++
-0.7269987	k ,	-0.285222
-1.329059	k -	-0.4672877
-1.329059	k /	-0.3789896
-1.80618	k :
-1.80618	k ;
-1.329059	k </s>
-0.80618	k =
-1.80618	k >
-1.80618	k >>
-1.80618	k >>=
-1.80618	k R
-1.329059	k [	-0.4466319
-1.80618	k ^
-1.80618	k ^=
-1.80618	k g
-1.80618	k |=
-1.80618	k }
0	k8b %
0	k9 b1g
0	kP8 ;
0	k_ 7
0	kccMcOP &
0	kckQ ,
0	kd 7
0	ket Sec
-0.30103	key .
-0.30103	key :
0	keysym .
0	kf _a
0	kg </s>
-1.574031	l %	-0.4237197
-1.875061	l &&
-1.273001	l (
-1.029963	l )	-0.2757519
-1.176091	l *
-1.574031	l +
-1.875061	l ++
-0.8336686	l ,
-1.273001	l -	-0.2402511
-1.875061	l /
-1.09691	l ;	-0.1738115
-1.574031	l <
-1.574031	l </s>
-1.875061	l <<
-0.79588	l =	-0.1808642
-1.875061	l ==
-1.875061	l >
-1.875061	l >>
-1.574031	l S
-1.574031	l ]
-1.574031	l ^
-1.875061	l mq9l8b
-1.875061	l peoqemtemw
-1.875061	l v
-1.875061	l vQ
-1.875061	l |
-0.30103	lM :
-0.30103	lM ;
0	lNRmO_loa8 %
0	lQ h
0	lQoOa N9
0	l_ %
0	le )
0	lea ,
-0.60206	leu ;
-0.60206	leu =
-0.30103	leu ]
0	lf )
0	location .
-1.041393	long </s>
-1.041393	long A
-1.041393	long Q8
-1.041393	long V
-1.041393	long Z
-1.041393	long __
-0.3424227	long long
0	longjmp (
0	lpeoqempepneu e
0	lrand48 (
-0.30103	lu ,
-0.30103	lu =
0	luN ]
0	luelue lpeoqempepneu
-0.1760913	lv ,
-0.4771213	lv =
0	lwg +
-0.6532125	lys )	-0.4284712
-0.9542425	lys +=
-0.9542425	lys -=
-0.4771213	lys =	-0.472207
-0.9542425	lys ==
-0.9542425	lys >=
-1.819544	m %
-1.819544	m &&
-0.819544	m (	-0.9795738
-1.041393	m )
-1.518514	m *	-0.4681479
-1.518514	m +
-1.819544	m ++
-1.819544	m +=
-0.6734159	m ,	-0.4181179
-1.819544	m -
-1.819544	m -=
-1.819544	m /
-1.819544	m :
-1.217484	m ;
-1.342423	m <
-1.518514	m </s>
-0.8653014	m =	-0.2163163
-1.342423	m >
-1.518514	m [
-1.819544	m vOwwRor
-0.30103	mR RMPmSk
-0.30103	mR mS
0	mR8 }
0	mRMmO %
0	mRh ^
0	mS ]
0	mageData (
-0.02482358	main (	-0.5722276
-1.255273	main </s>
0	malloc (
0	memcmp (
0	memcpy (
0	memset (
-0.4771213	met )	-0.4761936
-0.9542425	met ;
-0.9542425	met lys
-0.6532125	met main	0.7781513
-0.6532125	met val	-0.4279032
0	mkM :
0	mq9l8b ^
0	mva ,
0	mvaddstr (
0	mvinch (	-0.466455
0	mvinsch (
-2.033424	n %
-2.033424	n &&
-1.732394	n (	-0.4272838
-1.033424	n )	-0.1062519
-1.431364	n *
-1.334454	n +
-1.431364	n +=
-0.7323937	n ,	-0.3763439
-1.188326	n -	-0.3463822
-1.732394	n -=
-1.732394	n /
-2.033424	n :
-1.130334	n ;	-0.2153427
-1.431364	n <
-1.556303	n </s>
-0.8872957	n =	-0.1138024
-1.188326	n >
-1.556303	n >>	-0.4600879
-1.732394	n ?
-2.033424	n R
-1.732394	n ]
-2.033424	n ^=
-1.732394	n |
-2.033424	n |=
-2.033424	n }
0	nR ;
0	nRmUd s
0	ndif </s>
-0.30103	new Uint8Array
-0.30103	new WebSocket
0	nk ;
-1.995635	not !=
-1.995635	not &
-1.092545	not )	-0.8031579
-1.217484	not ,	-0.4745262
-1.150537	not ->	-0.3802112
-0.3828513	not .	-1.326336
-1.694605	not ;	-0.4007504
-1.393575	not =
-1.995635	not ==
-1.995635	not >
-1.995635	not >>
-0.5806618	not [	-1.391294
0	np )
-1.672098	o &
-1.12803	o )	-0.07985
-1.672098	o *
-1.371068	o +	-0.6893826
-1.973128	o ++
-1.672098	o +=	-0.4621441
-1.018885	o ,	-0.1039388
-1.973128	o -
-1.973128	o /
-1.973128	o :
-1.274158	o ;
-1.973128	o </s>
-0.7426789	o =	-0.09804872
-1.496007	o >	-0.4659849
-1.672098	o >>	-0.4600879
-1.672098	o W
-1.496007	o X
-0.5259698	o [	-0.6057249
-1.672098	o ]
-1.973128	o ||
0	o(O _){putchar(_);}O"
0	oM :
0	oNS &
0	ocket -
0	oec ,
0	of )	-0.4601126
0	offsetLeft ;
0	offsetTop }
0	og (
0	on :
0	onmousemove =
0	ontext (
0	open (
-1.767156	p &
-1.466126	p (	-0.2990499
-1.290035	p )	-0.5930086
-1.466126	p +	-0.2953029
-1.068186	p ++	-0.8203045
-1.026793	p ,
-1.466126	p -
-2.068186	p -=
-1.591065	p /
-2.068186	p :
-0.9890046	p ;	-0.1265275
-1.466126	p <	-0.5863798
-1.767156	p </s>
-2.068186	p <=
-0.7459666	p =	-0.2485009
-1.767156	p >
-2.068186	p L
-1.591065	p S	-0.3777366
-1.591065	p W	-0.4221899
-2.068186	p X
-2.068186	p Z
-0.9542425	p [	-0.4570346
-1.591065	p ]	-0.429539
-1.767156	p ^
-2.068186	p utchar
-2.068186	p |
0	pOpM866OsRlm N
0	pQaM8m {
0	pRM7O </s>
0	pageY -
0	peoqemtemw Q7
0	phe (	-0.6913303
0	pixels ,
0	pread (
0	prin </s>
0	printf (
-0.69897	pro )
-0.2218488	pro *	-0.4726578
-0.69897	pro ;
0	pt :
0	ptj9 lwg
0	pu ,
0	putImageData (
0	putchar (	-0.1293449
-0.06694679	puts (
-0.845098	puts </s>
0	px TmSt
-0.30103	pyl ;
-0.30103	pyl =
-1.732394	q !=
-1.130334	q (
-1.033424	q )	-0.2209211
-1.732394	q *
-1.431364	q +
-1.130334	q ++	-0.2751495
-1.732394	q +=
-1.732394	q ,
-1.130334	q -
-1.431364	q --	-0.4590231
-1.255273	q ;
-1.130334	q </s>
-0.7323937	q =	-0.09261306
-1.732394	q ==
-1.732394	q >>
-1.732394	q N
-1.732394	q R
-1.732394	q S
-1.033424	q [
-1.732394	q ]
-1.732394	q ^
0	qN OMp
0	qQ O
-1.498311	r %
-1.799341	r 'Q]
-0.7993405	r (	-0.2115198
-1.021189	r )	-0.0761591
-1.498311	r +	-0.4713942
-1.100371	r ++	-0.6414905
-1.799341	r +=
-1.100371	r ,
-1.799341	r :
-1.322219	r ;	-0.4130451
-1.498311	r </s>
-0.7993405	r =	-0.2081984
-1.799341	r ==
-1.799341	r >>
-1.799341	r ?
-1.322219	r L
-1.799341	r RmM
-1.799341	r W
-1.498311	r X
-1.498311	r Z	-0.39794
-1.799341	r [
-1.799341	r ]
-1.799341	r |
-0.4771213	rQ </s>
-0.4771213	rQ ]
-0.4771213	rQ rQ
0	rR pOpM866OsRlm
0	rand (	-0.4272838
0	re turnY_
0	rea ,
-0.30103	read (
-0.30103	read </s>
0	realloc (
0	refresh (
-1.060698	return (
-1.361728	return +
-1.060698	return 0	-0.3407027
-1.361728	return ;
-1.060698	return </s>
-1.361728	return W
-1.361728	return a
-1.361728	return bb
-1.361728	return d
-1.361728	return fclose
-1.361728	return o
-1.361728	return p
-1.361728	return r
-0.8846066	return s	-0.5710258
-1.361728	return strchr
-1.361728	return strtol
-1.060698	return u	-0.4518854
0	round (
0	rror goofy
-2.064458	s %
-2.064458	s &&
-1.763428	s (	-0.4272838
-1.161368	s )	-0.4169173
-1.462398	s *	-0.2929624
-1.763428	s +
-1.763428	s ++
-2.064458	s +=
-1.064458	s ,	-0.09245186
-1.587337	s -
-2.064458	s /=
-1.763428	s :
-1.161368	s ;	-0.2369538
-1.763428	s <	-0.4248122
-1.763428	s </s>
-2.064458	s <<
-0.7220353	s =	-0.06394047
-1.763428	s >
-2.064458	s ?
-1.110215	s L	-0.9309191
-1.161368	s W	-0.3301324
-1.21936	s X	-0.1889412
-1.462398	s Y	-0.1165056
-1.587337	s Z
-1.365488	s [
-1.763428	s ]	-0.3567112
-2.064458	s d77sNOsd
-1.763428	s |
0	sM nRmUd
-0.30103	sN '
-0.30103	sN 9
0	sTaa :
0	s_4 &
0	scanf (
0	scr "
0	script >
-0.3521825	sec )	-0.5138274
-0.2552725	sec =	-0.2193986
0	send (
-0.1383027	ser )	-0.2833784
-1.041393	ser ;
-1.041393	ser asx
-1.041393	ser glx
0	set (
0	setjmp (
0	shi ,
-0.30103	short *
-0.30103	short Y
0	si ,	-0.4763814
0	signal (
0	sin (
0	size_t thr
-0.1091445	sizeof (	-0.1388232
-0.9542425	sizeof his
-0.9542425	sizeof sec
0	slice (
0	slltwzh &
0	sprintf (
0	st_mtime ;
0	st_size ;
-0.1760913	stat (
-0.4771213	stat z
