
\data\
ngram 1=936
ngram 2=5131

\1-grams:
-2.33604	!	-99
-2.965771	!=	-99
-2.767403	"	-99
-4.244524	"!:E%;!ea!!!WqE0z!f/y}!%!!Qi6!uzt!n}?]!bl!ak!SetR<"	-99
-4.244524	"!pv!;!Hm%Ro4"	-99
-3.399426	""	-99
-3.767403	"#"	-99
-3.767403	"$"	-99
-4.244524	"%."	-99
-4.244524	"%c"	-99
-3.943495	"%d	-99
-4.244524	"%d,%dd%d\n"	-99
-4.244524	"%d\n"	-99
-4.244524	"%da%d,%d\n"	-99
-4.244524	"%da%d\n"	-99
-4.244524	"%dd%d\n"	-99
-4.244524	"%f,%f,"	-99
-3.545554	"%s"	-99
-4.244524	"('A)"	-99
-3.943495	"('A`)"	-99
-4.244524	"(A`)"	-99
-4.244524	"(O**"	-99
-4.244524	")"	-99
-4.244524	")$"	-99
-4.244524	");"	-99
-4.244524	"*"	-99
-4.244524	"*_[512],**p=_,**d,b,q;for(b=0;b"	-99
-4.244524	"*p=#b,P[9999],*d=P,*e[]="	-99
-4.244524	"++<512;p=_+q)_[q"	-99
-4.244524	"-"	-99
-4.244524	"/"	-99
-4.244524	"/*;;	-99
-4.244524	"11\x80"	-99
-4.244524	"258EAFA5-"	-99
-4.244524	"8!@dP,!!o+fb"	-99
-4.244524	"::::::::::::?_::::\"::.::::@:::'::-::::::::;!:):::::,:::::"	-99
-3.767403	";"	-99
-4.244524	";;"	-99
-4.244524	";Gam"	-99
-4.244524	";GlockQ18"	-99
-4.244524	";Heca"	-99
-4.244524	";Time:Q"	-99
-4.244524	";^Q<d|8=o;]Q<dj8<Pk8<c]'?;QQdi8?P'Q)d8<9`8?c;Qdh8=P']Q<`c8>PQ9_8"	-99
-4.244524	"<	-99
-4.244524	"<"	-99
-4.244524	"<;iQ=/*do<;dQ=ook8?boc;aQ=odr8>oc;_Q<ox8>oc"	-99
-4.244524	"<o_Q<o_QBdo`QQ';`Q=9`]8=bobQ_o_Q<o]8=';bQC(88cQ`bcgQ>oP']8<;cQ>98)^Q?''oc`Q>"	-99
-4.244524	"=(p-_+1)*9%512]=(O*)p;"	-99
-4.244524	"=:$"	-99
-3.767403	">	-99
-4.244524	">b;og8=''`Q<`b8?'QQ9_8?c;dPe8dQa8<P]Q<``8=;'f8>QQ`]8?ocQQ_8=''_Q`8aQ"	-99
-4.244524	"?guhljL!^P%	-99
-4.244524	"@"	-99
-4.244524	"@+-"	-99
-4.244524	"@CADBEHI"	-99
-4.244524	"C:"	-99
-4.244524	"CYOUQWIN!]Q=;of8BQQ)88bc]QA98P'Qo]8>oQQ_8CP;QQ98b`_8@P8(Q`]'^Q=`']QB)88"	-99
-4.244524	"E914-47DA-95CA-C5AB0DC85B"	-99
-4.244524	"HTTP/1.1	-99
-4.244524	"NBLF\1Nblfgjmf\1"	-99
-3.642465	"Q"	-99
-4.244524	"Q(j"	-99
-4.244524	"Q(jam"	-99
-4.244524	"Zj$x!~V!n&g8!cK!	-99
-4.244524	"\",\"%s\",\"%s\"},	-99
-4.244524	"\40main(){O"	-99
-4.244524	"\n"	-99
-4.244524	"\n\n\n"	-99
-4.244524	"\xe2%c%c\r\n"	-99
-4.244524	"a"	-99
-4.244524	"bQQ]`8J;QQ`88bc99bd(`8iQ@''QQo^8E'`8c;QQ'Q``8?QQ`'kQ<o]8B9PQQ`';_Q<`_8<cbQ"	-99
-3.943495	"d"	-99
-4.244524	"e.6!r!%l6G!n~^<i=%pEwL%P!'<!FQt%u	-99
-4.244524	"e:|	-99
-4.244524	"eQII:"	-99
-4.244524	"eQover."	-99
-4.244524	"etu"	-99
-4.244524	"f\n"	-99
-4.244524	"fl!"	-99
-4.244524	"hello	-99
-4.244524	"laugh"	-99
-4.244524	"m"	-99
-4.244524	"me"	-99
-4.244524	"med);"	-99
-4.244524	"n:}nkD!Q!kN"	-99
-4.244524	"o("	-99
-4.244524	"oc']Q]8<;cQ>`8bbQA``QQ''`Q?88P;dQ=`)nQ?*/;;"	-99
-4.244524	"oid	-99
-3.642465	"r"	-99
-4.244524	"rn+0;}\n"	-99
-4.244524	"t"	-99
-4.244524	"throw	-99
-4.244524	"usage:	-99
-4.244524	"{;}"	-99
-4.244524	"{\"%s\",	-99
-4.244524	"|~0y'vWtA@:LcO9d}y.!uL!Gd+ml(<+Ds!J"	-99
-4.244524	"}$"	-99
-2.18762	%	-99
-3.767403	%=	-99
-4.244524	%d\n"	-99
-4.244524	%s	-99
-4.244524	%u/%u	-99
-2.168977	&	-99
-2.424981	&&	-99
-3.203132	'	-99
-4.244524	'(	-99
-3.943495	'128'	-99
-4.244524	'2O	-99
-4.244524	'2d'	-99
-4.244524	'7M{N^kh	-99
-4.244524	'='	-99
-4.244524	'Q]	-99
-3.943495	'\n'	-99
-4.244524	'_3a	-99
-4.244524	'a'	-99
-4.244524	'b5sc!e"	-99
-4.244524	'c'	-99
-4.244524	'd'	-99
-4.244524	'h(Q]0h#	-99
-4.244524	'lQ	-99
-4.244524	'nSM8	-99
-4.244524	'width:256px;height:256px'	-99
-4.244524	'ws'	-99
-4.244524	'|'	-99
-1.154973	(	-99
-1.125599	)	-99
-1.563283	*	-99
-2.591312	*=	-99
-4.244524	*m,!*m?H:"	-99
-1.855358	+	-99
-2.285483	++	-99
-4.244524	+99*!	-99
-2.219219	+=	-99
-1.276042	,	-99
-4.244524	,101	-99
-1.839691	-	-99
-2.688222	--	-99
-2.676323	-=	-99
-2.363711	->	-99
-2.154619	.	-99
-3.767403	...	-99
-4.244524	.0	-99
-3.767403	.05	-99
-3.767403	.1	-99
-4.244524	.27	-99
-3.767403	.5	-99
-2.305005	/	-99
-3.545554	/=	-99
-1.81639	0	-99
-3.767403	0.5	-99
-4.244524	0.7	-99
-4.244524	01	-99
-4.244524	02	-99
-4.244524	024	-99
-4.244524	03	-99
-4.244524	040	-99
-4.244524	061	-99
-4.244524	075	-99
-4.244524	0d:`184>b)^15)OM	-99
-3.943495	0u	-99
-4.244524	0x1	-99
-4.244524	0x3f0	-99
-4.244524	0x67452301	-99
-4.244524	0x820008202625a0	-99
-4.244524	0x98BADCFE	-99
-4.244524	0xEFCDAB89	-99
-4.244524	0xf	-99
-4.244524	0xfc0	-99
-4.244524	0xfe0	-99
-4.244524	0xff00ff00ff	-99
-4.244524	0xffff	-99
-1.945671	1	-99
-4.244524	1.159922023e9	-99
-3.943495	1.5	-99
-4.244524	1.6937441874215991e190	-99
-3.068433	10	-99
-4.244524	1008	-99
-4.244524	101	-99
-3.767403	1023	-99
-4.244524	1024	-99
-4.244524	1024.	-99
-4.244524	105	-99
-3.767403	11	-99
-4.244524	1103515245	-99
-4.244524	112	-99
-4.244524	1152	-99
-3.244524	12	-99
-4.244524	123	-99
-4.244524	12359778	-99
-4.244524	12365733	-99
-4.244524	124	-99
-4.244524	127	-99
-3.642465	128	-99
-4.244524	128L	-99
-3.943495	13	-99
-4.244524	13000	-99
-4.244524	138	-99
-3.466373	14	-99
-4.244524	14202379	-99
-3.943495	14695981039346656037ULL	-99
-3.399426	15	-99
-4.244524	1500	-99
-4.244524	158	-99
-2.943495	16	-99
-4.244524	1600	-99
-3.767403	16711935	-99
-4.244524	16774143	-99
-3.943495	16u	-99
-3.767403	17	-99
-4.244524	176	-99
-3.545554	18	-99
-4.244524	19	-99
-4.244524	1912	-99
-4.244524	19205553	-99
-4.244524	193	-99
-4.244524	1933008	-99
-4.244524	194	-99
-4.244524	1954	-99
-4.244524	196	-99
-4.244524	197	-99
-4.244524	198	-99
-3.943495	1LL	-99
-4.244524	1l	-99
-3.943495	1u	-99
-2.140721	2	-99
-3.943495	2.	-99
-4.244524	2.271681097355226e15	-99
-3.341434	20	-99
-4.244524	204	-99
-4.244524	205	-99
-3.943495	21	-99
-3.943495	22	-99
-3.943495	23	-99
-4.244524	234	-99
-3.341434	24	-99
-4.244524	25	-99
-4.244524	250	-99
-3.399426	255	-99
-3.642465	256	-99
-4.244524	256L	-99
-4.244524	257	-99
-4.244524	258063	-99
-3.943495	26	-99
-4.244524	27	-99
-4.244524	275	-99
-4.244524	276	-99
-4.244524	28	-99
-4.244524	287	-99
-4.244524	2L	-99
-4.244524	2l	-99
-2.341434	3	-99
-4.244524	3'	-99
-4.244524	3.135045272e9	-99
-4.244524	3.9999e5	-99
-3.399426	30	-99
-4.244524	304	-99
-4.244524	308438	-99
-3.642465	31	-99
-2.813161	32	-99
-3.943495	32768	-99
-4.244524	3285377520	-99
-3.943495	33	-99
-3.943495	333	-99
-4.244524	3352537	-99
-3.767403	34	-99
-3.545554	35	-99
-3.767403	36	-99
-3.943495	37	-99
-3.943495	38	-99
-4.244524	384	-99
-4.244524	39	-99
-4.244524	3920	-99
-2.358034	4	-99
-4.244524	4.023233417e9	-99
-4.244524	4.294967296e9	-99
-4.244524	4.5	-99
-4.244524	4.503599627370496e15	-99
-4.244524	4.522871578970112e217	-99
-4.244524	4.6727004911171048e-153	-99
-3.341434	40	-99
-4.244524	4092	-99
-3.943495	41	-99
-4.244524	41088	-99
-3.943495	4190208	-99
-4.244524	4194304	-99
-3.545554	42	-99
-4.244524	44	-99
-3.943495	45	-99
-4.244524	48	-99
-4.244524	480	-99
-4.244524	488848	-99
-4.244524	4L	-99
-3.943495	4u	-99
-2.664741	5	-99
-4.244524	50	-99
-4.244524	5000	-99
-4.244524	504	-99
-4.244524	508	-99
-4.244524	51	-99
-3.642465	512	-99
-4.244524	512L	-99
-4.244524	516	-99
-3.943495	5200	-99
-4.244524	5298487	-99
-4.244524	55	-99
-3.767403	56	-99
-4.244524	57	-99
-3.943495	58	-99
-3.943495	59	-99
-4.244524	5toG57j/3"	-99
-2.642465	6	-99
-3.341434	60	-99
-4.244524	60.	-99
-3.767403	61	-99
-3.943495	62	-99
-3.642465	63	-99
-4.244524	63504	-99
-3.165343	64	-99
-4.244524	64u	-99
-4.244524	65280	-99
-4.244524	65307	-99
-3.943495	65536	-99
-4.244524	65544	-99
-4.244524	667	-99
-4.244524	67	-99
-4.244524	69	-99
-4.244524	6990400	-99
-2.726011	7	-99
-4.244524	7.5	-99
-4.244524	7.90055321525613e115	-99
-4.244524	70	-99
-3.943495	74	-99
-4.244524	75	-99
-4.244524	76	-99
-3.642465	768	-99
-3.943495	77	-99
-3.642465	79	-99
-2.512131	8	-99
-4.244524	8.44396048e8	-99
-3.098397	80	-99
-4.244524	8000	-99
-3.767403	81	-99
-4.244524	82	-99
-4.244524	84	-99
-3.767403	85	-99
-3.943495	86400	-99
-4.244524	88	-99
-4.244524	881	-99
-4.244524	89	-99
-4.244524	8u	-99
-2.829551	9	-99
-3.943495	90	-99
-4.244524	91	-99
-3.545554	92	-99
-4.244524	93	-99
-4.244524	96	-99
-3.767403	97	-99
-4.244524	98	-99
-4.244524	9858122	-99
-3.943495	99	-99
-4.244524	9999	-99
-4.244524	99999	-99
-2.154619	:	-99
-4.244524	:23h)QN<'	-99
-1.18534	;	-99
-4.244524	;b'	-99
-2.120673	<	-99
-1.235924	</s>
-2.591312	<<	-99
-3.399426	<=	-99
-4.244524	<P~6"	-99
-99	<s>	-99
-99	<unk>
-1.366003	=	-99
-2.601072	==	-99
-2.381202	>	-99
-3.466373	>=	-99
-2.621275	>>	-99
-3.943495	>>=	-99
-2.271397	?	-99
-4.244524	?"	-99
-2.601072	A	-99
-4.244524	Acce	-99
-4.244524	Alan	-99
-2.554328	B	-99
-4.244524	BUFSIZ	-99
-2.554328	C	-99
-3.943495	COLS	-99
-2.688222	D	-99
-4.244524	DefaultGC	-99
-4.244524	DefaultVisual	-99
-4.244524	Display	-99
-2.767403	E	-99
-4.244524	E0	-99
-3.943495	E3	-99
-3.203132	EOF	-99
-4.244524	ETIANMSURWDKGOHVF:L:PJBXCYZQ::54:3:::2&:+::::16=/:::(:7:::8:90"	-99
-4.244524	EX	-99
-2.621275	F	-99
-3.943495	F0	-99
-3.943495	F1	-99
-4.244524	F2	-99
-3.545554	FILE	-99
-4.244524	FILENAME_MAX	-99
-4.244524	FV	-99
-3.943495	F_	-99
-2.782126	G	-99
-2.466373	H	-99
-4.244524	HP	-99
-4.244524	HY	-99
-4.244524	H_1	-99
-2.528521	I	-99
-2.829551	J	-99
-2.496336	K	-99
-4.244524	KrgR'8@c]!%-q9V.3fa[E8X%dY'w!#H	-99
-2.140721	L	-99
-3.767403	LINES	-99
-4.244524	LP	-99
-4.244524	L_tmpnam	-99
-2.726011	M	-99
-4.244524	M8q;k'	-99
-4.244524	MJ	-99
-4.244524	MK6lM	-99
-4.244524	McPc	-99
-4.244524	MkQN	-99
-2.545554	N	-99
-4.244524	N4	-99
-4.244524	N8b	-99
-4.244524	N9	-99
-4.244524	N9b	-99
-3.767403	NULL	-99
-4.244524	NUO	-99
-4.244524	N_1'	-99
-4.244524	N_7vN	-99
-2.280737	O	-99
-3.130581	O0	-99
-3.399426	O1	-99
-3.399426	O2	-99
-3.466373	O3	-99
-4.244524	O3NF	-99
-3.545554	O4	-99
-3.466373	O5	-99
-3.642465	O6	-99
-3.642465	O7	-99
-3.767403	O8	-99
-3.767403	O9	-99
-4.244524	OMQ	-99
-4.244524	OMaMch	-99
-4.244524	OMp	-99
-4.244524	ON8r	-99
-3.165343	OO	-99
-4.244524	O^ln	-99
-3.290282	O_	-99
-3.642465	O_o	-99
-4.244524	OaaD	-99
-4.244524	Ok	-99
-4.244524	On	-99
-4.244524	OsR	-99
-2.782126	P	-99
-2.271397	Q	-99
-3.165343	Q0	-99
-3.466373	Q1	-99
-3.399426	Q2	-99
-3.466373	Q3	-99
-3.642465	Q4	-99
-3.642465	Q5	-99
-3.642465	Q6	-99
-3.642465	Q7	-99
-3.767403	Q8	-99
-3.943495	Q9	-99
-4.244524	QH	-99
-4.244524	QL	-99
-3.165343	QO	-99
-3.290282	QQ	-99
-3.943495	QR	-99
-3.943495	QS	-99
-3.466373	Q_	-99
-4.244524	Qr	-99
-2.248889	R	-99
-4.244524	R8	-99
-4.244524	RAFT	-99
-4.244524	RGB	-99
-4.244524	RI4	-99
-4.244524	RM	-99
-4.244524	RMPmSk	-99
-4.244524	RP	-99
-4.244524	RlMG	-99
-4.244524	RmM	-99
-4.244524	RmPQ	-99
-4.244524	RootWindow	-99
-2.688222	S	-99
-4.244524	SDL_AudioSpec	-99
-4.244524	SDL_BlitSurface	-99
-4.244524	SDL_CreateRGBSurface	-99
-4.244524	SDL_Delay	-99
-4.244524	SDL_Event	-99
-4.244524	SDL_FillRect	-99
-4.244524	SDL_Flip	-99
-4.244524	SDL_Init	-99
-4.244524	SDL_LoadWAV	-99
-4.244524	SDL_MixAudio	-99
-4.244524	SDL_OpenAudio	-99
-4.244524	SDL_PauseAudio	-99
-4.244524	SDL_PollEvent	-99
-4.244524	SDL_Rect	-99
-4.244524	SDL_SetVideoMode	-99
-4.244524	SDL_Surface	-99
-3.943495	SEEK_SET	-99
-4.244524	SNH	-99
-4.244524	SOPm	-99
-4.244524	SPEED	-99
-4.244524	Sec	-99
-4.244524	SlM90	-99
-4.244524	So	-99
-2.753163	T	-99
-4.244524	TIMESTEP	-99
-4.244524	TIOCGWINSZ	-99
-4.244524	TMP_MAX	-99
-4.244524	TmS	-99
-4.244524	TmSt	-99
-4.244524	Turing	-99
-4.244524	Type	-99
-2.591312	U	-99
-4.244524	UV_DROP	-99
-4.244524	Uint8Array	-99
-4.244524	Upgrade	-99
-2.713046	V	-99
-2.315106	W	-99
-3.943495	WebSocket	-99
-4.244524	Window	-99
-2.346897	X	-99
-4.244524	XCheckWindowEvent	-99
-4.244524	XCreateImage	-99
-4.244524	XCreateSimpleWindow	-99
-4.244524	XEvent	-99
-4.244524	XImage	-99
-4.244524	XLookupKeysym	-99
-4.244524	XMapWindow	-99
-4.244524	XOpenDisplay	-99
-4.244524	XPutImage	-99
-4.244524	XSelectInput	-99
-2.536954	Y	-99
-2.753163	Z	-99
-1.864313	[	-99
-4.244524	[-d]	-99
-4.244524	\""	-99
-4.244524	\n\t"	-99
-1.824569	]	-99
-2.631741	^	-99
-3.642465	^=	-99
-2.18762	_	-99
-4.244524	_){putchar(_);}O"	-99
-3.290282	_0	-99
-4.244524	_8	-99
-4.244524	_KK3	-99
-3.244524	_O	-99
-3.244524	_Q	-99
-4.244524	_Zadat57	-99
-3.014076	__	-99
-4.244524	__LINE__	-99
-3.943495	__STDC_VERSION__	-99
-3.943495	__STDC__	-99
-4.244524	__TIME__	-99
-3.943495	_a	-99
-4.244524	_h	-99
-4.244524	_o	-99
-4.244524	_t	-99
-4.244524	_z	-99
-2.227491	a	-99
-3.943495	a_	-99
-3.943495	abs	-99
-4.244524	ageX	-99
-3.399426	ala	-99
-2.713046	and	-99
-3.545554	arg	-99
-3.642465	argh	-99
-3.130581	asn	-99
-3.767403	asp	-99
-3.642465	asx	-99
-4.244524	ay	-99
-2.074263	b	-99
-4.244524	b1g	-99
-4.244524	b4	-99
-4.244524	b5g	-99
-3.545554	bA	-99
-3.642465	bB	-99
-3.642465	bC	-99
-3.767403	bD	-99
-3.545554	bE	-99
-4.244524	b\nq(%s)\n"	-99
-3.767403	ba	-99
-3.466373	bb	-99
-3.545554	bc	-99
-3.767403	bd	-99
-3.341434	be	-99
-3.165343	bf	-99
-3.642465	bg	-99
-3.642465	bh	-99
-4.244524	bh'	-99
-3.943495	bi	-99
-4.244524	binary	-99
-3.767403	bj	-99
-3.642465	bk	-99
-3.767403	bl	-99
-3.943495	bm	-99
-3.943495	bn	-99
-3.943495	bo	-99
-3.341434	bp	-99
-3.943495	bq	-99
-3.943495	br	-99
-3.014076	break	-99
-3.767403	bs	-99
-3.466373	bt	-99
-3.466373	bu	-99
-3.642465	buf	-99
-3.943495	bv	-99
-4.244524	bw	-99
-3.943495	bx	-99
-3.466373	by	-99
-3.545554	bz	-99
-2.262253	c	-99
-3.943495	c8	-99
-4.244524	c9	-99
-4.244524	cN	-99
-4.244524	c_X	-99
-4.244524	c_kah%0d9`b'	-99
-3.642465	calloc	-99
-3.244524	case	-99
-4.244524	cb	-99
-2.676323	char	-99
-4.244524	ckQaOrON	-99
-4.244524	close	-99
-2.902102	const	-99
-4.244524	continue	-99
-3.767403	cos	-99
-4.244524	cq	-99
-4.244524	crea	-99
-4.244524	curs_set	-99
-3.466373	cys	-99
-2.021808	d	-99
-4.244524	d2	-99
-4.244524	d77sNOsd	-99
-3.642465	d8	-99
-4.244524	d8ak	-99
-4.244524	dA	-99
-4.244524	dB	-99
-4.244524	dC	-99
-4.244524	d_C	-99
-4.244524	dat	-99
-4.244524	data	-99
-3.767403	default	-99
-4.244524	defined	-99
-3.642465	do	-99
-4.244524	double	-99
-3.943495	dstr	-99
-4.244524	dup	-99
-3.943495	dup2	-99
-2.244524	e	-99
-4.244524	eep	-99
-2.782126	efine	-99
-2.922305	else	-99
-4.244524	elta_u	-99
-4.244524	elta_v	-99
-4.244524	epne	-99
-4.244524	er	-99
-3.545554	err	-99
-4.244524	errx	-99
-3.545554	exit	-99
-3.767403	exp	-99
-3.767403	extern	-99
-2.35243	f	-99
-4.244524	f3	-99
-4.244524	fabs	-99
-4.244524	fclose	-99
-4.244524	fgetc	-99
-4.244524	fgets	-99
-4.244524	file1	-99
-4.244524	file2"	-99
-4.244524	flash	-99
-3.399426	float	-99
-4.244524	float_	-99
-4.244524	flu	-99
-3.767403	fopen	-99
-2.375293	for	-99
-4.244524	fputc	-99
-3.767403	fread	-99
-3.466373	free	-99
-4.244524	fscanf	-99
-3.943495	fseek	-99
-4.244524	function	-99
-3.642465	fw	-99
-2.165343	g	-99
-4.244524	getC	-99
-4.244524	getch	-99
-3.767403	getchar	-99
-4.244524	getopt	-99
-3.040405	gln	-99
-3.244524	glu	-99
-3.943495	glx	-99
-3.466373	gly	-99
-4.244524	goofy	-99
-3.642465	goto	-99
-2.399426	h	-99
-4.244524	halting	-99
-4.244524	height	-99
-3.399426	his	-99
-4.244524	ho	-99
-4.244524	href	-99
-1.95449	i	-99
-2.393266	if	-99
-3.545554	ile	-99
-4.244524	in	-99
-4.244524	initscr	-99
-2.341434	int	-99
-4.244524	int_	-99
-4.244524	intw	-99
-4.244524	ioctl	-99
-4.244524	ipt	-99
-2.248889	j	-99
-4.244524	jQ	-99
-4.244524	j_la	-99
-4.244524	j_laaaN	-99
-2.330711	k	-99
-4.244524	k8b	-99
-4.244524	k9	-99
-4.244524	kP8	-99
-4.244524	k_	-99
-4.244524	kccMcOP	-99
-4.244524	kckQ	-99
-4.244524	kd	-99
-4.244524	ket	-99
-3.943495	key	-99
-4.244524	keysym	-99
-4.244524	kf	-99
-4.244524	kg	-99
-2.266801	l	-99
-3.943495	lM	-99
-4.244524	lNRmO_loa8	-99
-4.244524	lQ	-99
-4.244524	lQoOa	-99
-4.244524	l_	-99
-4.244524	lea	-99
-3.642465	leu	-99
-4.244524	lf	-99
-4.244524	location	-99
-2.965771	long	-99
-4.244524	lpeoqempepneu	-99
-4.244524	lrand48	-99
-3.943495	lu	-99
-4.244524	luN	-99
-4.244524	luelue	-99
-3.767403	lv	-99
-4.244524	lwg	-99
-3.290282	lys	-99
-2.520249	m	-99
-3.943495	mR	-99
-4.244524	mR8	-99
-4.244524	mRMmO	-99
-4.244524	mRh	-99
-3.943495	mS	-99
-4.244524	mageData	-99
-2.965771	main	-99
-3.943495	malloc	-99
-4.244524	memcmp	-99
-3.943495	memcpy	-99
-4.244524	memset	-99
-3.290282	met	-99
-4.244524	mkM	-99
-4.244524	mq9l8b	-99
-4.244524	mva	-99
-4.244524	mvaddstr	-99
-3.943495	mvinch	-99
-4.244524	mvinsch	-99
-2.172642	n	-99
-4.244524	nR	-99
-4.244524	nRmUd	-99
-3.943495	ndif	-99
-3.943495	new	-99
-4.244524	nk	-99
-2.248889	not	-99
-4.244524	np	-99
-2.0514	o	-99
-4.244524	o(O	-99
-4.244524	oM	-99
-4.244524	oNS	-99
-4.244524	ocket	-99
-4.244524	oec	-99
-4.244524	offsetLeft	-99
-4.244524	offsetTop	-99
-4.244524	og	-99
-4.244524	on	-99
-4.244524	onmousemove	-99
-4.244524	ontext	-99
-3.290282	op	-99
-3.943495	open	-99
-3.466373	optind	-99
-2.183827	p	-99
-4.244524	pOpM866OsRlm	-99
-4.244524	pQaM8m	-99
-4.244524	pRM7O	-99
-4.244524	pageY	-99
-4.244524	peoqemtemw	-99
-3.642465	phe	-99
-4.244524	pixels	-99
-3.767403	pow	-99
-4.244524	pread	-99
-4.244524	prin	-99
-3.165343	printf	-99
-3.545554	pro	-99
-4.244524	pt	-99
-4.244524	ptj9	-99
-4.244524	putImageData	-99
-3.399426	putchar	-99
-3.399426	puts	-99
-4.244524	px	-99
-3.943495	pyl	-99
-2.520249	q	-99
-4.244524	qN	-99
-4.244524	qQ	-99
-2.466373	r	-99
-3.767403	rQ	-99
-4.244524	rR	-99
-3.943495	rand	-99
-4.244524	re	-99
-4.244524	rea	-99
-3.943495	read	-99
-3.642465	realloc	-99
-4.244524	refresh	-99
-2.713046	return	-99
-3.943495	rewind	-99
-4.244524	round	-99
-4.244524	rror	-99
-2.203132	s	-99
-4.244524	sM	-99
-3.943495	sN	-99
-4.244524	sTaa	-99
-4.244524	s_4	-99
-4.244524	scanf	-99
-4.244524	scr	-99
-4.244524	script	-99
-3.290282	sec	-99
-4.244524	send	-99
-3.203132	ser	-99
-4.244524	set	-99
-4.244524	shi	-99
-4.244524	short	-99
-4.244524	signal	-99
-3.943495	sin	-99
-4.244524	size_t	-99
-3.098397	sizeof	-99
-4.244524	slice	-99
-4.244524	slltwzh	-99
-4.244524	sprintf	-99
-4.244524	sqrt	-99
-4.244524	st_mtime	-99
-4.244524	st_size	-99
-3.767403	stat	-99
-3.466373	static	-99
-3.943495	stdin	-99
-4.244524	stdout	-99
-3.767403	strchr	-99
-4.244524	strcmp	-99
-3.767403	strlen	-99
-4.244524	strrchr	-99
-4.244524	strtol	-99
-3.290282	struct	-99
-4.244524	style	-99
-4.244524	subs	-99
-3.642465	switch	-99
-4.244524	sym	-99
-3.545554	sym_	-99
-4.244524	system	-99
-2.399426	t	-99
-4.244524	tQ	-99
-4.244524	tYv	-99
-4.244524	tape	-99
-4.244524	teI	-99
-4.244524	tf	-99
-4.244524	tgANs	-99
-3.341434	thr	-99
-4.244524	timeout	-99
-3.642465	tla	-99
-4.244524	tmpfile	-99
-4.244524	tr	-99
-3.244524	trp	-99
-4.244524	turnY_	-99
-4.244524	typ	-99
-3.943495	type	-99
-3.098397	typedef	-99
-3.244524	tyr	-99
-2.219219	u	-99
-4.244524	uU	-99
-3.943495	union	-99
-3.165343	unk	-99
-3.290282	unsigned	-99
-4.244524	up"	-99
-4.244524	upgrade	-99
-4.244524	usl	-99
-4.244524	usleep	-99
-4.244524	utchar	-99
-2.528521	v	-99
-4.244524	vOwwRor	-99
-4.244524	vQ	-99
-4.244524	va_arg	-99
-4.244524	va_end	-99
-4.244524	va_list	-99
-4.244524	va_start	-99
-4.244524	vad	-99
-2.797366	val	-99
-2.846585	void	-99
-4.244524	voidw	-99
-4.244524	volatile	-99
-4.244524	vpr	-99
-2.341434	w	-99
-4.244524	webso	-99
-2.902102	while	-99
-4.244524	width	-99
-4.244524	window	-99
-4.244524	wnS	-99
-4.244524	world!"	-99
-3.767403	write	-99
-2.295135	x	-99
-4.244524	xa6	-99
-4.244524	xkey	-99
-3.943495	xle	-99
-2.591312	xor	-99
-4.244524	xv	-99
-2.295135	y	-99
-4.244524	yN	-99
-2.466373	z	-99
-1.827884	{	-99
-2.664741	|	-99
-3.943495	|=	-99
-2.864313	||	-99
-1.831225	}	-99
-3.130581	~	-99

\2-grams:
-0.8670923	! !
-0.7323937	! (
-1.908485	! )
-1.607455	! *
-1.908485	! --
-1.431364	! </s>
-1.908485	! D
-1.908485	! H
-1.908485	! K
-1.130334	! O
-1.607455	! O9
-1.908485	! P
-1.908485	! Q
-1.908485	! Q0
-1.908485	! Q2
-1.431364	! QO
-1.908485	! _0
-1.607455	! b
-1.607455	! g
-1.607455	! i
-1.908485	! j
-1.908485	! k
-1.607455	! l
-1.908485	! memcmp
-1.607455	! n
-1.908485	! o
-1.908485	! printf
-1.607455	! s
-1.908485	! stat
-1.908485	! strcmp
-1.607455	! t
-1.209515	! u
-1.431364	! v
-1.278754	!= '
-1.278754	!= -
-1.278754	!= 0
-1.278754	!= 98
-1.278754	!= B
-0.9777236	!= EOF
-1.278754	!= NULL
-0.9777236	!= b
-1.278754	!= bk
-0.9777236	!= gln
-0.9777236	!= h
-1.278754	!= mvinch
-1.278754	!= sizeof
-1.278754	!= trp
-1.278754	!= u
-0.5740313	" "
-1.477121	" "%d
-1.477121	" %d\n"
-1.477121	" %u/%u
-0.8750613	" )
-0.8750613	" ,
-1.477121	" ,101
-1.477121	" </s>
-1.477121	" ETIANMSURWDKGOHVF:L:PJBXCYZQ::54:3:::2&:+::::16=/:::(:7:::8:90"
-1.477121	" Type
-1.477121	" \n\t"
-1.477121	" c
-1.477121	" ipt
-1.477121	" ket
-1.477121	" mageData
-1.477121	" ontext
-1.477121	" teI
0	"!:E%;!ea!!!WqE0z!f/y}!%!!Qi6!uzt!n}?]!bl!ak!SetR<" </s>
0	"!pv!;!Hm%Ro4" "n:}nkD!Q!kN"
-0.845098	"" "@CADBEHI"
-0.845098	"" ,
-0.544068	"" :
-0.3679768	"" </s>
0	"#" )
0	"$" ,
0	"%." "f\n"
0	"%c" ,
0	"%d "
0	"%d,%dd%d\n" ,
0	"%d\n" ,
0	"%da%d,%d\n" ,
0	"%da%d\n" ,
0	"%dd%d\n" ,
0	"%f,%f," ,
-0.69897	"%s" "\",\"%s\",\"%s\"},
-0.09691001	"%s" ,
0	"('A)" ,
-0.30103	"('A`)" </s>
-0.30103	"('A`)" }
0	"(A`)" ,
0	"(O**" </s>
0	")" )
0	")$" ;
0	");" )
0	"*" ""
0	"*_[512],**p=_,**d,b,q;for(b=0;b" "++<512;p=_+q)_[q"
0	"*p=#b,P[9999],*d=P,*e[]=" "{\"%s\",
0	"++<512;p=_+q)_[q" </s>
0	"-" ,
0	"/" )
0	"/*;; "
0	"11\x80" [
0	"258EAFA5-" "E914-47DA-95CA-C5AB0DC85B"
0	"8!@dP,!!o+fb" </s>
0	"::::::::::::?_::::\"::.::::@:::'::-::::::::;!:):::::,:::::" ;
-0.4771213	";" )
-0.4771213	";" :
-0.4771213	";" </s>
0	";;" )
0	";Gam" "eQover."
0	";GlockQ18" "C:"
0	";Heca" "t"
0	";Time:Q" )
0	";^Q<d|8=o;]Q<dj8<Pk8<c]'?;QQdi8?P'Q)d8<9`8?c;Qdh8=P']Q<`c8>PQ9_8" </s>
0	"< "
0	"<" ,
0	"<;iQ=/*do<;dQ=ook8?boc;aQ=odr8>oc;_Q<ox8>oc" </s>
0	"<o_Q<o_QBdo`QQ';`Q=9`]8=bobQ_o_Q<o]8=';bQC(88cQ`bcgQ>oP']8<;cQ>98)^Q?''oc`Q>" </s>
0	"=(p-_+1)*9%512]=(O*)p;" )
0	"=:$" ,
0	"> "
0	">b;og8=''`Q<`b8?'QQ9_8?c;dPe8dQa8<P]Q<``8=;'f8>QQ`]8?ocQQ_8=''_Q`8aQ" </s>
0	"?guhljL!^P% ?"
0	"@" ,
0	"@+-" ,
0	"@CADBEHI" )
0	"C:" "Q"
0	"CYOUQWIN!]Q=;of8BQQ)88bc]QA98P'Qo]8>oQQ_8CP;QQ98b`_8@P8(Q`]'^Q=`']QB)88" </s>
0	"E914-47DA-95CA-C5AB0DC85B" "11\x80"
0	"HTTP/1.1 "
0	"NBLF\1Nblfgjmf\1" ,
0	"Q" )
0	"Q(j" "a"
0	"Q(jam" </s>
0	"Zj$x!~V!n&g8!cK! KrgR'8@c]!%-q9V.3fa[E8X%dY'w!#H
0	"\",\"%s\",\"%s\"}, b\nq(%s)\n"
0	"\40main(){O" ""
0	"\n" )
0	"\n\n\n" </s>
0	"\xe2%c%c\r\n" O_
0	"a" "m"
0	"bQQ]`8J;QQ`88bc99bd(`8iQ@''QQo^8E'`8c;QQ'Q``8?QQ`'kQ<o]8B9PQQ`';_Q<`_8<cbQ" </s>
-0.30103	"d" ")"
-0.30103	"d" )
0	"e.6!r!%l6G!n~^<i=%pEwL%P!'<!FQt%u 5toG57j/3"
0	"e:| 'b5sc!e"
0	"eQII:" "Q"
0	"eQover." </s>
0	"etu" "rn+0;}\n"
0	"f\n" ,
0	"fl!" [
0	"hello world!"
0	"laugh" )
0	"m" "me"
0	"me" "d"
0	"med);" )
0	"n:}nkD!Q!kN" </s>
0	"o(" )
0	"oc']Q]8<;cQ>`8bbQA``QQ''`Q?88P;dQ=`)nQ?*/;;" ;
0	"oid o(O
-0.1249387	"r" )
-0.60206	"r" </s>
0	"rn+0;}\n" )
0	"t" "eQII:"
0	"throw up"
0	"usage: %s
0	"{;}" :
0	"{\"%s\", \""
0	"|~0y'vWtA@:LcO9d}y.!uL!Gd+ml(<+Ds!J" </s>
0	"}$" :
-1.755875	% %
-2.056905	% &
-1.579784	% (
-2.056905	% -
-2.056905	% .27
-2.056905	% /
-2.056905	% 03
-2.056905	% 1500
-1.755875	% 16
-2.056905	% 176
-2.056905	% 198
-0.9107768	% 2
-1.211807	% 3
-2.056905	% 32
-2.056905	% 384
-1.278754	% 4
-1.579784	% 5
-2.056905	% 512
-2.056905	% 6
-1.454845	% 64
-2.056905	% 7
-2.056905	% 768
-1.579784	% 8
-2.056905	% 86400
-2.056905	% 93
-2.056905	% :
-1.454845	% </s>
-2.056905	% I
-1.755875	% M
-2.056905	% N
-2.056905	% N4
-2.056905	% N8b
-2.056905	% N9b
-1.755875	% O
-2.056905	% O3
-2.056905	% O4
-1.211807	% Q
-1.755875	% QQ
-2.056905	% Qr
-2.056905	% R
-2.056905	% ]
-2.056905	% ^
-2.056905	% _
-2.056905	% _h
-2.056905	% c9
-2.056905	% d8
-2.056905	% dA
-2.056905	% dB
-2.056905	% dC
-1.357935	% g
-2.056905	% lNRmO_loa8
-2.056905	% mR
-2.056905	% mRMmO
-2.056905	% mRh
-2.056905	% mS
-2.056905	% n
-2.056905	% q
-2.056905	% rQ
-2.056905	% s
-2.056905	% strlen
-2.056905	% w
-1.755875	% {
-0.4771213	%= 1
-0.4771213	%= 64
-0.4771213	%= 8
0	%d\n" ,
0	%s [-d]
0	%u/%u "
-2.075547	& !
-2.075547	& %
-1.774517	& (
-1.473487	& *
-2.075547	& --
-2.075547	& 0
-2.075547	& 0x3f0
-2.075547	& 0xf
-2.075547	& 0xfe0
-2.075547	& 0xff00ff00ff
-1.297396	& 1
-2.075547	& 1008
-1.598426	& 1023
-2.075547	& 12
-2.075547	& 128
-2.075547	& 14
-1.376577	& 15
-1.774517	& 16
-1.774517	& 16711935
-2.075547	& 16774143
-1.297396	& 3
-2.075547	& 31
-2.075547	& 32
-2.075547	& 4
-2.075547	& 4092
-1.774517	& 4190208
-2.075547	& 6
-1.473487	& 63
-2.075547	& 64
-2.075547	& 65280
-2.075547	& 7
-2.075547	& 8
-2.075547	& 9
-2.075547	& ;
-2.075547	& <
-1.473487	& </s>
-2.075547	& B
-2.075547	& C
-2.075547	& L
-1.774517	& M
-1.774517	& N
-2.075547	& O
-1.774517	& OO
-1.774517	& Q
-2.075547	& S
-2.075547	& T
-2.075547	& TmS
-2.075547	& ^
-1.598426	& _
-1.774517	& arg
-2.075547	& asn
-2.075547	& bE
-2.075547	& bn
-2.075547	& bo
-2.075547	& bv
-1.774517	& c
-2.075547	& d
-2.075547	& e
-1.774517	& glu
-2.075547	& h
-2.075547	& i
-2.075547	& k
-2.075547	& kccMcOP
-2.075547	& kckQ
-1.598426	& not
-2.075547	& o
-2.075547	& p
-2.075547	& pRM7O
-2.075547	& r
-1.774517	& tyr
-2.075547	& u
-2.075547	& v
-2.075547	& w
-1.774517	& x
-2.075547	& y
-1.774517	& z
-0.916454	&& !
-0.4973246	&& (
-1.819544	&& *
-1.819544	&& 0
-1.819544	&& 101
-1.819544	&& 258063
-1.819544	&& 34
-1.819544	&& </s>
-1.819544	&& A
-1.819544	&& B
-1.819544	&& F
-1.819544	&& R
-1.819544	&& Z
-1.819544	&& _
-1.819544	&& _0
-1.342423	&& a
-1.819544	&& b
-1.819544	&& bf
-1.819544	&& bg
-1.819544	&& d
-1.819544	&& fscanf
-1.819544	&& g
-1.819544	&& h
-1.819544	&& j
-1.819544	&& n
-1.518514	&& o
-1.819544	&& q
-1.819544	&& read
-1.217484	&& s
-1.819544	&& v
-1.819544	&& x
-1.518514	&& y
-0.4393327	' '
-1.041393	' )
-0.7403627	' </s>
-1.041393	' M8q;k'
-1.041393	' Q
-1.041393	' nR
-1.041393	' ||
0	'( 0d:`184>b)^15)OM
-0.30103	'128' height
-0.30103	'128' style
0	'2O 3'
0	'2d' )
0	'7M{N^kh '
0	'=' )
0	'Q] bh'
0	'\n' )
0	'_3a N_1'
0	'a' ,
0	'b5sc!e" </s>
0	'c' width
0	'd' :
0	'h(Q]0h# c_kah%0d9`b'
0	'lQ O^ln
0	'nSM8 '
0	'width:256px;height:256px' </s>
0	'ws' +
0	'|' :
-1.943424	( !
-2.788522	( "
-3.089552	( ""
-2.612431	( "#"
-3.089552	( "%."
-3.089552	( "%c"
-3.089552	( "%d,%dd%d\n"
-3.089552	( "%d\n"
-3.089552	( "%da%d,%d\n"
-3.089552	( "%da%d\n"
-3.089552	( "%dd%d\n"
-3.089552	( "%s"
-3.089552	( "(O**"
-3.089552	( ");"
-3.089552	( "*"
-3.089552	( "-"
-3.089552	( "/*;;
-2.788522	( ";"
-3.089552	( ";Heca"
-3.089552	( ";Time:Q"
-3.089552	( "<
-3.089552	( "<"
-3.089552	( ">
-3.089552	( "@"
-3.089552	( "@+-"
-3.089552	( "HTTP/1.1
-2.788522	( "Q"
-3.089552	( "\n"
-3.089552	( "hello
-3.089552	( "laugh"
-3.089552	( "o("
-3.089552	( "r"
-3.089552	( "throw
-2.487492	( %
-2.089552	( &
-3.089552	( '
-3.089552	( '2d'
-3.089552	( 'ws'
-1.373549	( (
-1.326124	( )
-1.571038	( *
-3.089552	( ++
-2.788522	( ,
-2.244454	( -
-3.089552	( .05
-2.788522	( .5
-2.788522	( /
-1.727824	( 0
-3.089552	( 075
-1.674579	( 1
-3.089552	( 10
-3.089552	( 105
-2.788522	( 12
-3.089552	( 13
-2.788522	( 16
-3.089552	( 1912
-3.089552	( 1LL
-1.810798	( 2
-3.089552	( 22
-3.089552	( 24
-3.089552	( 255
-3.089552	( 256L
-3.089552	( 2l
-1.975609	( 3
-3.089552	( 30
-2.788522	( 32
-3.089552	( 34
-3.089552	( 38
-2.089552	( 4
-3.089552	( 40
-2.788522	( 41
-2.788522	( 42
-3.089552	( 45
-2.390582	( 5
-3.089552	( 59
-2.788522	( 6
-2.788522	( 60
-2.788522	( 64
-3.089552	( 67
-3.089552	( 7
-3.089552	( 70
-2.612431	( 8
-2.311401	( 9
-3.089552	( 97
-3.089552	( 99999
-1.859103	( ;
-1.727824	( </s>
-3.089552	( =
-2.244454	( A
-2.390582	( B
-1.859103	( C
-2.311401	( D
-2.612431	( E
-2.089552	( F
-2.788522	( FILE
-3.089552	( F_
-2.487492	( G
-2.048159	( H
-2.390582	( I
-2.788522	( J
-2.089552	( K
-1.426794	( L
-3.089552	( LINES
-2.390582	( M
-2.244454	( N
-1.788522	( O
-3.089552	( O0
-2.487492	( O2
-3.089552	( O3
-3.089552	( O4
-2.788522	( O5
-3.089552	( O6
-2.788522	( OO
-2.612431	( O_o
-2.612431	( P
-1.859103	( Q
-2.612431	( Q0
-2.788522	( Q1
-3.089552	( Q2
-3.089552	( Q5
-3.089552	( Q6
-2.612431	( QO
-3.089552	( QQ
-2.135309	( R
-3.089552	( RAFT
-2.244454	( T
-2.487492	( U
-2.788522	( V
-2.186462	( W
-1.642394	( X
-3.089552	( XCheckWindowEvent
-3.089552	( XMapWindow
-2.487492	( Y
-2.487492	( Z
-3.089552	( ^
-1.975609	( _
-2.390582	( _O
-2.788522	( _Q
-2.487492	( __
-3.089552	( __LINE__
-3.089552	( __STDC_VERSION__
-1.859103	( a
-2.788522	( ala
-1.747129	( and
-2.612431	( argh
-2.487492	( asn
-2.788522	( asp
-3.089552	( asx
-1.943424	( b
-3.089552	( be
-2.788522	( bk
-3.089552	( br
-2.788522	( bu
-2.788522	( buf
-3.089552	( by
-2.048159	( c
-3.089552	( cN
-3.089552	( calloc
-3.089552	( cb
-2.135309	( char
-2.612431	( const
-3.089552	( cos
-3.089552	( curs_set
-2.487492	( cys
-1.885432	( d
-3.089552	( dup2
-2.311401	( e
-3.089552	( elta_u
-3.089552	( elta_v
-1.834279	( f
-3.089552	( float_
-3.089552	( flu
-1.885432	( g
-3.089552	( gln
-3.089552	( glu
-2.048159	( h
-1.52135	( i
-2.612431	( ile
-1.943424	( int
-3.089552	( int_
-1.788522	( j
-1.859103	( k
-2.010371	( l
-3.089552	( lQ
-3.089552	( lQoOa
-3.089552	( luN
-2.788522	( lys
-2.186462	( m
-3.089552	( memcpy
-3.089552	( memset
-2.390582	( met
-1.834279	( n
-1.788522	( not
-1.913461	( o
-3.089552	( open
-1.943424	( p
-3.089552	( pread
-3.089552	( prin
-3.089552	( printf
-3.089552	( pro
-2.788522	( puts
-2.311401	( q
-3.089552	( qQ
-2.390582	( r
-3.089552	( rR
-2.089552	( s
-2.788522	( sec
-2.186462	( ser
-3.089552	( short
-2.788522	( sizeof
-3.089552	( stdout
-2.487492	( sym_
-2.010371	( t
-3.089552	( tQ
-3.089552	( tla
-2.244454	( u
-3.089552	( uU
-3.089552	( usl
-2.311401	( v
-3.089552	( va_arg
-3.089552	( val
-2.788522	( void
-1.859103	( w
-1.943424	( x
-2.186462	( xor
-1.913461	( y
-2.390582	( z
-3.089552	( {
-3.089552	( }
-3.089552	( ~
-2.419956	) !=
-3.118926	) "\xe2%c%c\r\n"
-1.972798	) %
-2.273828	) &
-2.039745	) &&
-1.516866	) (
-0.948664	) )
-1.273828	) *
-2.340775	) *=
-1.671768	) +
-2.215836	) +=
-1.205112	) ,
-1.914806	) -
-3.118926	) --
-2.419956	) -=
-2.817896	) .
-3.118926	) .0
-1.942834	) /
-3.118926	) 0
-3.118926	) 0u
-2.817896	) 16u
-2.817896	) 1u
-3.118926	) 21
-3.118926	) 64u
-3.118926	) 8u
-2.004982	) :
-0.5785963	) ;
-2.419956	) <
-1.226831	) </s>
-2.340775	) <<
-2.641804	) =
-3.118926	) ==
-2.273828	) >
-2.817896	) >=
-2.516866	) >>
-2.077533	) ?
-2.340775	) B
-2.817896	) E3
-2.817896	) F
-3.118926	) F0
-3.118926	) F1
-2.039745	) G
-2.273828	) J
-3.118926	) K
-2.516866	) L
-3.118926	) O
-3.118926	) O5
-2.516866	) O_
-3.118926	) P
-2.817896	) Q
-2.817896	) QR
-3.118926	) QS
-3.118926	) Q_
-3.118926	) R
-3.118926	) U
-3.118926	) W
-3.118926	) X
-3.118926	) Y
-2.641804	) [
-2.817896	) ]
-2.817896	) ^
-2.817896	) a
-2.817896	) asx
-2.817896	) b
-2.817896	) bd
-2.641804	) break
-3.118926	) bt
-3.118926	) by
-2.817896	) c
-3.118926	) continue
-2.817896	) d
-2.817896	) d8
-2.817896	) e
-3.118926	) err
-2.641804	) exit
-2.077533	) for
-3.118926	) g
-3.118926	) glx
-2.817896	) h
-2.516866	) i
-2.340775	) if
-2.817896	) int
-3.118926	) j
-3.118926	) k
-2.641804	) l
-3.118926	) lys
-3.118926	) n
-2.817896	) not
-3.118926	) o
-3.118926	) printf
-3.118926	) putchar
-2.817896	) q
-2.641804	) r
-2.817896	) return
-2.419956	) s
-3.118926	) scanf
-3.118926	) sec
-3.118926	) t
-2.641804	) tyr
-2.641804	) u
-2.641804	) w
-2.641804	) z
-0.8135744	) {
-2.273828	) |
-2.516866	) ||
-2.817896	) ~
-1.90309	* !
-1.028029	* (
-1.726999	* )
-1.639849	* *
-2.681241	* +
-2.20412	* ++
-2.681241	* ,
-2.681241	* .1
-2.681241	* .5
-2.380211	* 0
-2.681241	* 1
-2.681241	* 1.6937441874215991e190
-2.079181	* 10
-2.681241	* 11
-2.681241	* 1103515245
-2.681241	* 12
-2.079181	* 16
-2.681241	* 17
-2.681241	* 193
-1.639849	* 2
-2.681241	* 23
-1.982271	* 3
-2.681241	* 32
-2.681241	* 39
-1.535113	* 4
-2.681241	* 4.522871578970112e217
-2.681241	* 4.6727004911171048e-153
-2.380211	* 42
-2.681241	* 51
-2.681241	* 512L
-2.681241	* 5298487
-2.681241	* 6
-2.380211	* 7
-2.681241	* 7.90055321525613e115
-2.380211	* 768
-2.20412	* 8
-1.681241	* 80
-2.681241	* 81
-2.681241	* 85
-2.681241	* 881
-2.20412	* 9
-2.681241	* 92
-1.535113	* </s>
-2.681241	* A
-2.681241	* B
-2.079181	* C
-2.681241	* D
-2.20412	* E
-2.380211	* H
-1.982271	* I
-2.20412	* K
-2.079181	* L
-2.681241	* L_tmpnam
-2.380211	* N
-2.20412	* O
-1.982271	* O0
-2.380211	* O3
-2.681241	* O4
-2.380211	* O6
-1.639849	* Q
-2.681241	* Q0
-2.681241	* Q1
-2.681241	* Q2
-2.079181	* Q3
-2.681241	* Q5
-2.681241	* Q7
-2.681241	* Q9
-2.681241	* QO
-2.380211	* QQ
-2.380211	* R
-2.681241	* S
-2.681241	* T
-2.681241	* U
-2.681241	* V
-2.380211	* W
-1.778151	* X
-1.982271	* Y
-2.681241	* ]
-1.778151	* _
-2.079181	* _0
-2.681241	* _O
-1.60206	* a
-1.681241	* b
-2.681241	* bD
-2.681241	* ba
-2.20412	* bb
-2.681241	* be
-2.681241	* br
-2.681241	* bx
-2.079181	* c
-2.681241	* c_X
-1.982271	* const
-1.535113	* d
-1.726999	* e
-2.380211	* f
-1.726999	* g
-2.079181	* i
-2.20412	* j
-2.20412	* k
-2.20412	* l
-2.380211	* m
-1.90309	* n
-1.982271	* not
-1.234083	* o
-1.266268	* p
-2.681241	* printf
-1.60206	* q
-2.20412	* r
-1.60206	* s
-2.681241	* sin
-2.079181	* sizeof
-2.380211	* t
-2.380211	* tyr
-1.726999	* u
-2.079181	* y
-2.380211	* z
-1.653213	*= !
-1.352183	*= (
-1.352183	*= -
-1.653213	*= 0
-1.653213	*= 0.7
-1.653213	*= 02
-1.176091	*= 1
-1.653213	*= 256
-1.653213	*= C
-1.653213	*= I
-0.8750613	*= Q
-1.352183	*= Y
-1.653213	*= _
-0.7501225	*= g
-0.6532125	*= o
-1.352183	*= s
-1.653213	*= t
-1.653213	*= u
0	*m,!*m?H:" upgrade
-2.088136	+ !
-2.389166	+ "fl!"
-0.8576872	+ (
-1.690196	+ )
-1.787106	+ *
-2.389166	+ ,
-1.912045	+ 0
-2.389166	+ 0.5
-0.9267681	+ 1
-2.389166	+ 1.5
-2.389166	+ 11
-2.389166	+ 12
-2.389166	+ 128L
-2.389166	+ 138
-2.088136	+ 16
-2.389166	+ 18
-2.389166	+ 19205553
-1.389166	+ 2
-2.389166	+ 20
-2.389166	+ 287
-2.389166	+ 2L
-1.611015	+ 3
-2.389166	+ 32
-2.088136	+ 4
-2.389166	+ 4.5
-2.389166	+ 42
-2.389166	+ 44
-2.389166	+ 4L
-1.912045	+ 5
-2.088136	+ 512
-2.389166	+ 58
-2.389166	+ 6
-2.389166	+ 667
-2.088136	+ 7
-2.389166	+ 74
-2.389166	+ 79
-2.088136	+ 8
-2.389166	+ 84
-2.389166	+ 86400
-2.389166	+ 99
-1.486076	+ </s>
-2.389166	+ A
-2.088136	+ B
-2.389166	+ C
-2.389166	+ E
-2.389166	+ EOF
-1.912045	+ F
-1.912045	+ H
-2.389166	+ J
-1.912045	+ N
-2.389166	+ O4
-2.389166	+ P
-2.389166	+ Q
-2.389166	+ Q0
-2.389166	+ Q5
-2.389166	+ R
-2.389166	+ T
-2.389166	+ TMP_MAX
-2.389166	+ V
-2.389166	+ X
-2.389166	+ Y
-2.389166	+ _Q
-2.088136	+ __STDC__
-2.088136	+ a
-2.389166	+ abs
-2.389166	+ asn
-2.389166	+ cos
-1.912045	+ d
-2.389166	+ e
-1.912045	+ g
-1.275223	+ i
-2.389166	+ j
-1.912045	+ k
-1.912045	+ l
-2.389166	+ location
-1.912045	+ m
-1.690196	+ n
-1.544068	+ o
-2.088136	+ p
-2.389166	+ q
-1.611015	+ s
-2.389166	+ sTaa
-1.912045	+ t
-1.912045	+ u
-2.389166	+ unk
-2.389166	+ v
-2.389166	+ wnS
-1.787106	+ x
-2.389166	+ y
-1.912045	+ z
-1.356981	++ %
-1.959041	++ &
-0.7285925	++ )
-1.959041	++ *
-1.113943	++ ,
-1.658011	++ -
-1.959041	++ /
-0.9176487	++ ;
-1.18089	++ <
-1.48192	++ </s>
-1.959041	++ <=
-1.356981	++ =
-1.959041	++ ==
-1.18089	++ ]
-1.658011	++ c
-1.959041	++ g
-1.48192	++ i
-1.959041	++ ile
-1.959041	++ j
-1.959041	++ l
-1.959041	++ leu
-1.959041	++ n
-1.48192	++ not
-1.658011	++ s
-1.959041	++ s_4
-1.658011	++ tla
-1.959041	++ u
-1.18089	++ xor
0	+99*! *m,!*m?H:"
-1.423246	+= !
-2.025306	+= 'a'
-0.9839132	+= (
-2.025306	+= .05
-2.025306	+= .1
-2.025306	+= 0.5
-1.548185	+= 1
-2.025306	+= 1.5
-2.025306	+= 16
-2.025306	+= 194
-1.423246	+= 2
-2.025306	+= 21
-2.025306	+= 4
-2.025306	+= 4u
-2.025306	+= 5
-2.025306	+= 7
-2.025306	+= A
-1.724276	+= E
-1.724276	+= F
-1.423246	+= H
-2.025306	+= K
-2.025306	+= M
-1.423246	+= O1
-2.025306	+= O8
-2.025306	+= Q
-1.724276	+= U
-2.025306	+= UV_DROP
-1.724276	+= V
-1.548185	+= Y
-2.025306	+= _
-1.724276	+= be
-1.724276	+= bf
-2.025306	+= bt
-1.548185	+= d
-1.724276	+= e
-1.423246	+= g
-2.025306	+= h
-1.326336	+= i
-1.326336	+= l
-1.071063	+= o
-1.724276	+= p
-2.025306	+= printf
-2.025306	+= r
-2.025306	+= s
-1.724276	+= u
-1.724276	+= v
-1.548185	+= w
-2.968483	, !
-2.968483	, "
-2.968483	, ""
-2.491362	, "$"
-2.491362	, "%s"
-2.968483	, "('A)"
-2.968483	, "('A`)"
-2.968483	, "(A`)"
-2.968483	, "=:$"
-2.667453	, ">
-2.968483	, "d"
-2.491362	, "r"
-2.968483	, "usage:
-1.889302	, &
-1.689729	, (
-2.269513	, )
-1.437004	, *
-2.968483	, ++
-2.491362	, ,
-2.366423	, -
-2.491362	, ...
-1.183153	, 0
-2.968483	, 0x98BADCFE
-2.968483	, 0xEFCDAB89
-1.606755	, 1
-2.968483	, 128
-2.491362	, 16
-1.968483	, 2
-2.968483	, 24
-2.968483	, 256
-2.269513	, 3
-2.968483	, 3.9999e5
-2.968483	, 30
-2.968483	, 308438
-2.491362	, 32
-2.968483	, 3285377520
-2.968483	, 4
-2.968483	, 5
-2.667453	, 6
-2.968483	, 60
-2.968483	, 65544
-2.667453	, 8
-2.968483	, 85
-2.968483	, 9
-2.968483	, <
-1.278287	, </s>
-2.366423	, A
-2.065393	, B
-1.92709	, C
-2.491362	, D
-2.968483	, DefaultGC
-2.968483	, DefaultVisual
-2.366423	, E
-2.968483	, EOF
-2.190332	, F
-2.968483	, F_
-2.667453	, G
-2.269513	, H
-2.269513	, I
-2.491362	, J
-1.85454	, K
-2.269513	, L
-2.491362	, M
-1.92709	, N
-1.822355	, O
-2.190332	, O0
-2.968483	, O1
-2.667453	, O2
-2.968483	, O3
-2.968483	, O4
-2.667453	, O5
-2.968483	, O6
-2.968483	, O7
-2.968483	, O8
-2.968483	, O9
-2.667453	, OO
-2.491362	, P
-1.889302	, Q
-2.366423	, Q0
-2.667453	, Q1
-2.491362	, Q2
-2.968483	, Q3
-2.491362	, Q4
-2.968483	, Q5
-2.667453	, Q6
-2.968483	, Q7
-2.968483	, Q8
-2.968483	, Q9
-2.491362	, QO
-2.968483	, QQ
-2.968483	, QS
-1.345234	, R
-2.968483	, RootWindow
-2.190332	, S
-2.667453	, SEEK_SET
-2.190332	, T
-2.968483	, TIOCGWINSZ
-2.366423	, U
-2.667453	, V
-2.123385	, W
-2.667453	, X
-2.491362	, Y
-1.491362	, _
-2.968483	, _0
-2.491362	, _O
-2.491362	, _Q
-2.366423	, __
-2.123385	, a
-2.968483	, a_
-2.968483	, arg
-1.92709	, b
-2.667453	, bA
-2.667453	, bB
-2.667453	, bC
-2.667453	, bD
-2.968483	, bb
-2.968483	, be
-2.667453	, bf
-2.968483	, bg
-2.968483	, bi
-2.968483	, bo
-2.968483	, bq
-2.968483	, bt
-2.968483	, bu
-2.968483	, bv
-2.667453	, bz
-1.92709	, c
-2.968483	, c8
-1.968483	, char
-2.366423	, const
-1.606755	, d
-2.667453	, dstr
-2.968483	, dup
-1.889302	, e
-2.968483	, eep
-2.123385	, f
-2.968483	, fopen
-2.968483	, fw
-2.123385	, g
-2.667453	, gln
-2.491362	, glu
-2.123385	, h
-2.968483	, halting
-2.968483	, ho
-1.667453	, i
-2.123385	, int
-2.968483	, intw
-2.968483	, ioctl
-1.85454	, j
-2.014241	, k
-1.92709	, l
-2.968483	, lea
-2.667453	, lu
-2.667453	, lv
-2.968483	, lys
-1.968483	, m
-1.646264	, n
-2.968483	, np
-1.764363	, o
-2.968483	, oec
-2.968483	, op
-1.792392	, p
-2.968483	, pow
-2.491362	, q
-2.065393	, r
-2.968483	, rand
-2.065393	, s
-2.968483	, shi
-2.366423	, sizeof
-2.968483	, sprintf
-2.968483	, stdin
-2.968483	, strlen
-2.968483	, sym_
-1.92709	, t
-2.968483	, tape
-1.764363	, u
-2.968483	, unk
-2.968483	, usleep
-2.123385	, v
-2.968483	, vad
-2.968483	, val
-2.968483	, vpr
-1.968483	, w
-2.968483	, write
-1.792392	, x
-2.014241	, y
-2.366423	, z
-2.968483	, ~
0	,101 +99*!
-2.103804	- &
-1.325652	- (
-2.404834	- )
-1.927712	- *
-2.404834	- .05
-2.404834	- 0.5
-0.761381	- 1
-2.404834	- 12
-2.404834	- 128
-2.404834	- 14202379
-2.404834	- 158
-2.404834	- 16
-2.404834	- 19
-2.404834	- 1933008
-1.705864	- 2
-2.404834	- 205
-2.404834	- 22
-2.404834	- 24
-2.404834	- 257
-1.501744	- 3
-2.404834	- 30
-2.404834	- 304
-1.927712	- 32
-2.103804	- 33
-2.404834	- 35
-2.404834	- 37
-2.404834	- 4
-2.404834	- 488848
-2.404834	- 4u
-2.404834	- 5
-2.404834	- 508
-2.404834	- 59
-1.705864	- 6
-2.404834	- 60
-2.404834	- 64
-1.927712	- 7
-2.404834	- 7.5
-2.103804	- 8
-2.404834	- 89
-1.802774	- 9
-2.103804	- 90
-1.559736	- </s>
-2.404834	- A
-2.404834	- Acce
-2.103804	- E
-1.927712	- EOF
-2.404834	- F
-1.802774	- H
-1.927712	- I
-2.404834	- L
-2.404834	- M
-2.404834	- O1
-2.404834	- O7
-2.103804	- OO
-2.404834	- P
-2.103804	- Q
-2.404834	- Q0
-2.404834	- QO
-2.404834	- R
-2.103804	- V
-1.927712	- W
-2.404834	- WebSocket
-2.404834	- X
-2.404834	- Y
-2.404834	- _O
-2.404834	- _Q
-1.927712	- __
-2.103804	- a
-2.103804	- asn
-2.404834	- b
-1.927712	- c
-1.705864	- d
-2.404834	- d8
-2.404834	- dup2
-2.404834	- e
-2.404834	- f
-1.927712	- g
-1.927712	- h
-1.404834	- i
-1.802774	- j
-1.626683	- k
-2.404834	- key
-2.404834	- l
-2.103804	- m
-1.559736	- n
-1.927712	- o
-1.705864	- p
-2.404834	- q
-2.404834	- r
-2.103804	- u
-1.705864	- unk
-1.705864	- v
-1.927712	- x
-1.705864	- ~
-1.556303	-- &&
-0.60206	-- )
-1.255273	-- ,
-1.556303	-- 1954
-0.5149098	-- ;
-1.556303	-- </s>
-1.255273	-- >
-1.556303	-- H
-1.255273	-- O
-1.556303	-- R
-1.556303	-- g
-1.556303	-- j
-1.556303	-- s
-1.556303	-- val
-1.556303	-- xor
-1.09108	-= (
-1.568202	-= 061
-1.568202	-= 2
-1.568202	-= 4
-1.568202	-= 80
-1.568202	-= D
-1.568202	-= F
-1.09108	-= H
-1.568202	-= V
-1.568202	-= W
-1.568202	-= b
-1.267172	-= be
-1.267172	-= bf
-1.09108	-= d
-1.568202	-= e
-0.9661418	-= g
-1.568202	-= h
-1.568202	-= i
-0.9661418	-= l
-1.568202	-= r
-1.568202	-= u
-1.267172	-= w
-1.880814	-> </s>
-1.278754	-> a
-0.8016323	-> b
-1.880814	-> c
-0.7346855	-> j
-1.035716	-> n
-1.278754	-> not
-1.278754	-> op
-1.880814	-> pixels
-1.403692	-> val
-0.8394209	-> x
-0.8394209	-> y
-1.403692	-> z
-2.089905	. &
-2.089905	. /
-1.788875	. </s>
-2.089905	. ]
-1.186815	. _
-2.089905	. binary
-1.048512	. c
-2.089905	. crea
-2.089905	. dat
-2.089905	. data
-1.487845	. e
-2.089905	. getC
-2.089905	. href
-2.089905	. key
-2.089905	. keysym
-0.5336026	. not
-2.089905	. offsetLeft
-2.089905	. offsetTop
-2.089905	. onmousemove
-1.390935	. p
-2.089905	. pageY
-2.089905	. putImageData
-1.487845	. q
-2.089905	. send
-2.089905	. set
-2.089905	. slice
-2.089905	. st_mtime
-2.089905	. st_size
-2.089905	. subs
-2.089905	. sym
-1.788875	. t
-2.089905	. type
-0.8857851	. val
-2.089905	. xkey
-1.089905	. y
-0.1760913	... )
-0.4771213	... </s>
0	.0 (
-0.4771213	.05 )
-0.4771213	.05 ;
-0.4771213	.05 </s>
-0.1760913	.1 )
-0.4771213	.1 :
0	.27 s
-0.4771213	.5 *
-0.4771213	.5 -
-0.4771213	.5 </s>
-1.939519	/ &
-1.161368	/ (
-1.939519	/ )
-1.939519	/ +
-1.939519	/ -
-1.939519	/ 1024.
-1.939519	/ 12
-0.6607656	/ 2
-1.638489	/ 2.
-1.939519	/ 20
-1.939519	/ 24
-1.939519	/ 26
-1.462398	/ 3
-1.939519	/ 32768
-1.036429	/ 4
-1.337459	/ 5
-1.939519	/ 504
-1.939519	/ 6
-1.939519	/ 60
-1.939519	/ 60.
-1.939519	/ 768
-1.337459	/ 8
-1.939519	/ 85
-1.939519	/ 88
-1.638489	/ I
-1.939519	/ M
-1.939519	/ O
-1.939519	/ O3
-1.462398	/ Q
-1.939519	/ QQ
-1.939519	/ RI4
-1.939519	/ RM
-1.939519	/ SlM90
-1.939519	/ fabs
-1.939519	/ g
-1.939519	/ j
-1.939519	/ k
-1.638489	/ lM
-1.638489	/ n
-1.638489	/ p
-1.939519	/ scr
-1.939519	/ w
-0.69897	/= ++
-0.39794	/= 2
-0.69897	/= H
-0.69897	/= l
-1.951014	0 &&
-2.428135	0 (
-0.5830368	0 )
-2.127105	0 +
-0.6287943	0 ,
-1.105916	0 :
-0.5892857	0 ;
-1.525045	0 <
-2.127105	0 </s>
-2.428135	0 ==
-2.127105	0 >
-1.428135	0 ?
-1.428135	0 ]
-2.428135	0 _t
-2.428135	0 m
-2.127105	0 ||
-2.127105	0 }
-0.4771213	0.5 *
-0.1760913	0.5 ;
0	0.7 ;
0	01 ]
0	02 </s>
0	024 )
0	03 ;
0	040 )
0	061 *
0	075 )
0	0d:`184>b)^15)OM :23h)QN<'
-0.30103	0u ,
-0.30103	0u ;
0	0x1 !=
0	0x3f0 )
0	0x67452301 ,
0	0x820008202625a0 ;
0	0x98BADCFE </s>
0	0xEFCDAB89 ,
0	0xf |
0	0xfc0 ||
0	0xfe0 ^
0	0xff00ff00ff ;
0	0xffff )
-1.821732	1 &
-1.696793	1 &&
-0.6360952	1 )
-2.298853	1 *
-1.696793	1 +
-0.8364551	1 ,
-1.068404	1 -
-2.298853	1 4
-1.599883	1 :
-0.8217318	1 ;
-2.298853	1 </s>
-1.344611	1 <<
-1.997823	1 ==
-1.821732	1 ?
-2.298853	1 A
-1.821732	1 [
-0.7803391	1 ]
-2.298853	1 ^
-2.298853	1 cq
-1.997823	1 |
-1.821732	1 }
0	1.159922023e9 ,
0	1.5 ;
0	1.6937441874215991e190 ;
-0.69897	10 )
-1.176091	10 *
-0.8750613	10 +
-0.8750613	10 ,
-1.176091	10 /
-1.176091	10 :
-0.8750613	10 ;
-1.176091	10 R
-1.176091	10 ||
-1.176091	10 }
0	1008 )
0	101 ==
-0.4771213	1023 )
-0.1760913	1023 |
0	1024 /
0	1024. ;
0	105 <
-0.1760913	11 )
-0.4771213	11 ;
0	1103515245 &
0	112 ,
0	1152 +
-1	12 &
-0.69897	12 )
-1	12 +
-0.69897	12 -
-0.69897	12 </s>
-0.69897	12 >
0	123 :
0	12359778 ;
0	12365733 -
0	124 -
0	127 ;
-0.60206	128 &&
-0.30103	128 )
-0.60206	128 ,
0	128L +
-0.30103	13 ,
-0.30103	13 ?
0	13000 ;
0	138 )
-0.1760913	14 &
-0.7781513	14 ]
-0.7781513	14 ^
0	14202379 *
0	14695981039346656037ULL ;
-0.544068	15 )
-0.3679768	15 ,
-0.845098	15 ;
-0.845098	15 |
0	1500 ?
0	158 )
-1.30103	16 &&
-0.5228788	16 )
-0.8239087	16 *
-1.30103	16 +
-0.8239087	16 ,
-1.30103	16 /
-0.8239087	16 ;
-1.30103	16 </s>
-1.30103	16 >
0	1600 &&
-0.1760913	16711935 ;
-0.4771213	16711935 |
0	16774143 ;
0	16u )
-0.1760913	17 +
-0.4771213	17 ]
0	176 /
-0.69897	18 )
-0.69897	18 ,
-0.69897	18 </s>
-0.69897	18 ?
-0.69897	18 ]
0	19 )
0	1912 --
0	19205553 ;
0	193 +
0	1933008 </s>
0	194 ,
0	1954 )
0	196 -
0	197 )
0	198 ;
-0.30103	1LL +
-0.30103	1LL <<
0	1l N
-0.30103	1u )
-0.30103	1u ,
-1.802774	2 %
-1.626683	2 &
-2.103804	2 (
-0.5240201	2 )
-0.8996837	2 *
-1.325652	2 +
-0.8485312	2 ,
-1.802774	2 -
-0.9576757	2 ;
-1.802774	2 </s>
-1.325652	2 ?
-2.103804	2 MJ
-0.9898604	2 ]
-2.103804	2 _KK3
-1.626683	2 ||
-2.103804	2 }
0	2. )
0	2.271681097355226e15 ,
-0.90309	20 %
-0.60206	20 )
-0.90309	20 *
-0.60206	20 </s>
-0.60206	20 ?
0	204 ]
0	205 )
-0.30103	21 -
-0.30103	21 ]
-0.30103	22 )
-0.30103	22 *
0	23 ;
0	234 ;
-0.60206	24 )
-0.90309	24 ,
-0.90309	24 ;
-0.60206	24 </s>
-0.90309	24 O3NF
-0.90309	24 ]
0	25 ;
0	250 ,
-0.845098	255 )
-0.845098	255 ,
-0.845098	255 -
-0.845098	255 :
-0.544068	255 ;
-0.845098	255 ?
-0.30103	256 ,
-0.60206	256 -
-0.60206	256 ;
0	256L +
0	257 ,
0	258063 &
-0.30103	26 ,
-0.30103	26 ]
0	27 )
0	275 )
0	276 )
0	28 &
0	287 )
0	2L )
0	2l NUO
-1.60206	3 &
-1.90309	3 (
-0.6243364	3 )
-0.9488475	3 *
-1.20412	3 +
-1.057992	3 ,
-1.20412	3 -
-1.90309	3 4
-1.60206	3 :
-1	3 ;
-1.90309	3 </s>
-1.90309	3 ?
-1.90309	3 A
-1.90309	3 B
-0.69897	3 ]
-1.90309	3 _z
0	3' Q
0	3.135045272e9 ,
0	3.9999e5 )
-0.845098	30 &&
-0.845098	30 *
-0.845098	30 +
-0.544068	30 ;
-0.845098	30 ?
-0.845098	30 ]
0	304 -
0	308438 *
-0.60206	31 )
-0.1249387	31 ;
-0.5282738	32 )
-0.9542425	32 +
-0.8293038	32 ,
-1.431364	32 -
-1.431364	32 :
-0.7323937	32 ;
-1.130334	32 <<
-1.130334	32 ]
-1.431364	32 |
-0.30103	32768 )
-0.30103	32768 ,
0	3285377520 }
0	33 )
-0.30103	333 *
-0.30103	333 ;
0	3352537 *
-0.4771213	34 <
-0.4771213	34 </s>
-0.4771213	34 m
-0.69897	35 )
-0.69897	35 -
-0.69897	35 :
-0.69897	35 ?
-0.69897	35 R
-0.4771213	36 -
-0.1760913	36 :
-0.30103	37 +
-0.30103	37 ;
-0.30103	38 )
-0.30103	38 *
0	384 )
0	39 ;
0	3920 )
-1.886491	4 &
-1.886491	4 &&
-0.5247629	4 )
-0.9834008	4 *
-1.284431	4 +
-0.9834008	4 ,
-1.108339	4 -
-1.886491	4 :
-1.108339	4 ;
-1.886491	4 <
-1.886491	4 </s>
-1.886491	4 ?
-1.886491	4 SNH
-0.8073095	4 ]
-1.409369	4 |
0	4.023233417e9 ,
0	4.294967296e9 ,
0	4.5 )
0	4.503599627370496e15 ,
0	4.522871578970112e217 ;
0	4.6727004911171048e-153 ;
-0.20412	40 )
-0.90309	40 :
-0.90309	40 ;
-0.90309	40 ?
0	4092 ^
0	41 )
0	41088 ,
0	4190208 |
0	4194304 </s>
-0.09691001	42 )
-0.69897	42 ;
0	44 +
0	45 )
0	48 ;
0	480 ,
0	488848 *
0	4L +
-0.30103	4u )
-0.30103	4u ;
-1.579784	5 %
-1.278754	5 &&
-0.4336556	5 )
-1.278754	5 *
-0.9777236	5 ,
-1.579784	5 -
-1.579784	5 ;
-1.579784	5 </s>
-1.102662	5 ?
-1.579784	5 OMaMch
-0.6766936	5 ]
0	50 ;
0	5000 +
0	504 *
0	508 ]
0	51 )
-0.60206	512 *
-0.60206	512 +
-0.60206	512 ;
-0.60206	512 </s>
0	512L )
0	516 ]
-0.30103	5200 ;
-0.30103	5200 ]
0	5298487 :
0	55 ?
-0.4771213	56 )
-0.1760913	56 ;
0	57 ;
-0.30103	58 :
-0.30103	58 >
-0.30103	59 ;
-0.30103	59 ==
0	5toG57j/3" </s>
-1.30103	6 %
-1.30103	6 &
-1.60206	6 &&
-0.6478175	6 )
-1.124939	6 *
-1.124939	6 ,
-1.60206	6 -
-1.60206	6 /
-1.60206	6 :
-1.124939	6 ;
-1.60206	6 <
-1.30103	6 </s>
-1.60206	6 >
-1.30103	6 ?
-1.60206	6 N
-1.60206	6 O
-1	6 ]
-1.60206	6 sN
-1.60206	6 yN
-0.20412	60 )
-0.60206	60 *
-0.90309	60 /
0	60. /
-0.1760913	61 :
-0.4771213	61 ;
-0.30103	62 ;
-0.30103	62 ?
-0.30103	63 )
-0.60206	63 ,
-0.60206	63 <<
0	63504 ;
-1.079181	64 &
-0.7781513	64 )
-1.079181	64 *
-0.3802112	64 ,
-1.079181	64 :
-1.079181	64 ;
-1.079181	64 </s>
0	64u )
0	65280 )
0	65307 ;
-0.30103	65536 ;
-0.30103	65536 ]
0	65544 >
0	667 ,
0	67 *
0	69 j
0	6990400 ;
-1.518514	7 &
-1.518514	7 &&
-0.819544	7 )
-1.217484	7 *
-0.916454	7 ,
-1.518514	7 -
-1.518514	7 7
-1.518514	7 :
-1.217484	7 ;
-1.518514	7 <
-1.217484	7 </s>
-1.518514	7 ?
-1.041393	7 O
-1.518514	7 OMQ
-1.518514	7 ON8r
-0.819544	7 ]
-1.518514	7 sN
0	7.5 )
0	7.90055321525613e115 ;
0	70 )
-0.30103	74 )
-0.30103	74 </s>
0	75 ?
0	76 )
-0.60206	768 ;
-0.60206	768 </s>
-0.30103	768 ]
-0.30103	77 ;
-0.30103	77 O
-0.60206	79 )
-0.60206	79 ;
-0.60206	79 ]
-0.60206	79 b
-1.255273	8 &
-1.732394	8 &&
-0.6910011	8 )
-1.255273	8 +
-0.6184504	8 ,
-1.431364	8 :
-0.9542425	8 ;
-1.732394	8 <
-1.431364	8 >>
-1.431364	8 ?
-1.130334	8 ]
-1.732394	8 _a
-1.732394	8 b
-1.732394	8 j
-1.732394	8 k9
-1.431364	8 |
0	8.44396048e8 ,
-1.146128	80 )
-0.146128	80 +
-1.146128	80 ,
-1.146128	80 ;
-1.146128	80 ]
0	8000 </s>
-0.4771213	81 )
-0.4771213	81 -
-0.4771213	81 /
0	82 ;
0	84 )
-0.4771213	85 *
-0.4771213	85 +
-0.4771213	85 <<
-0.30103	86400 )
-0.30103	86400 -
0	88 )
0	881 ,
0	89 ?
0	8u +
-1.113943	9 %
-0.5118834	9 )
-1.113943	9 *
-1.414973	9 +
-1.113943	9 ,
-1.113943	9 -
-1.113943	9 ;
-1.414973	9 <<
-1.113943	9 ?
-1.414973	9 g
-1.414973	9 j_la
-1.414973	9 j_laaaN
-1.414973	9 slltwzh
-0.30103	90 )
-0.30103	90 ;
0	91 )
-0.69897	92 &&
-0.69897	92 )
-0.69897	92 +
-0.39794	92 ;
0	93 ,
0	96 ^
-0.4771213	97 +
-0.1760913	97 ]
0	98 +
0	9858122 :
0	99 ]
0	9999 ]
0	99999 )
-2.089905	: ""
-2.089905	: ")$"
-2.089905	: "Q(j"
-2.089905	: "Q(jam"
-1.612784	: %
-1.788875	: &
-2.089905	: '='
-0.9138138	: (
-1.788875	: *
-2.089905	: -
-0.7676858	: 0
-1.612784	: 1
-2.089905	: 12365733
-2.089905	: 2
-2.089905	: 24
-2.089905	: 32
-2.089905	: 3352537
-2.089905	: 5
-1.788875	: 6
-2.089905	: 65536
-2.089905	: 69
-2.089905	: 79
-1.186815	: </s>
-2.089905	: B
-2.089905	: C
-2.089905	: EOF
-1.788875	: I
-2.089905	: N
-2.089905	: O
-2.089905	: P
-2.089905	: R
-2.089905	: V
-1.788875	: _
-2.089905	: _Zadat57
-2.089905	: a
-1.788875	: b
-2.089905	: break
-1.788875	: c
-2.089905	: case
-1.788875	: d
-2.089905	: f
-2.089905	: fopen
-2.089905	: g
-1.612784	: gln
-2.089905	: goto
-2.089905	: h
-2.089905	: i
-2.089905	: j
-2.089905	: k8b
-2.089905	: l
-1.788875	: m
-2.089905	: main
-2.089905	: n
-2.089905	: p
-2.089905	: putchar
-2.089905	: q
-1.788875	: r
-2.089905	: switch
-1.612784	: u
-1.788875	: v
-2.089905	: w
-2.089905	: webso
-2.089905	: x
0	:23h)QN<' /
-2.457125	; !
-3.059185	; %
-3.059185	; &
-3.059185	; '(
-2.360215	; (
-1.446401	; )
-2.017792	; *
-2.104942	; ++
-3.059185	; --
-3.059185	; 0
-2.104942	; ;
-0.4421843	; </s>
-3.059185	; A
-2.360215	; B
-2.281033	; D
-3.059185	; E
-2.758155	; F
-2.281033	; G
-2.582063	; H
-2.457125	; I
-2.582063	; J
-2.156095	; K
-2.360215	; L
-3.059185	; M
-3.059185	; N
-2.360215	; O
-2.156095	; P
-3.059185	; Q_
-3.059185	; R
-3.059185	; SDL_BlitSurface
-3.059185	; SDL_Delay
-3.059185	; SDL_Event
-3.059185	; SDL_FillRect
-3.059185	; SDL_Flip
-3.059185	; SDL_Init
-3.059185	; SDL_LoadWAV
-3.059185	; SDL_MixAudio
-3.059185	; SDL_OpenAudio
-3.059185	; SDL_PauseAudio
-3.059185	; T
-1.803912	; U
-2.017792	; V
-2.360215	; W
-3.059185	; Window
-2.758155	; X
-3.059185	; XEvent
-3.059185	; XImage
-3.059185	; XSelectInput
-2.758155	; Y
-2.156095	; _
-3.059185	; __
-1.855065	; a
-1.540671	; b
-3.059185	; bA
-3.059185	; ba
-3.059185	; bc
-2.582063	; bh
-3.059185	; bj
-2.457125	; break
-3.059185	; bz
-2.214087	; c
-2.360215	; case
-2.214087	; char
-1.828736	; d
-2.758155	; default
-2.457125	; e
-2.582063	; else
-3.059185	; extern
-2.156095	; f
-3.059185	; fgets
-2.457125	; float
-1.567823	; for
-3.059185	; fread
-3.059185	; free
-2.360215	; g
-2.758155	; goto
-3.059185	; h
-1.828736	; i
-1.945241	; if
-1.945241	; int
-2.104942	; j
-1.945241	; k
-2.360215	; l
-2.457125	; long
-2.281033	; m
-2.758155	; main
-3.059185	; memcpy
-3.059185	; mvaddstr
-3.059185	; mvinsch
-2.017792	; n
-1.980003	; o
-2.017792	; p
-3.059185	; putchar
-2.758155	; q
-2.156095	; r
-3.059185	; refresh
-1.980003	; return
-1.980003	; s
-2.582063	; struct
-3.059185	; switch
-2.281033	; t
-3.059185	; typedef
-1.883093	; u
-3.059185	; union
-2.457125	; v
-3.059185	; va_end
-3.059185	; va_start
-2.457125	; void
-1.883093	; w
-2.457125	; while
-2.214087	; x
-2.281033	; xor
-2.281033	; y
-1.780431	; z
-3.059185	; {
-3.059185	; |
-1.006106	; }
0	;b' %
-2.123852	< %
-2.123852	< (
-2.123852	< *
-2.123852	< /
-0.9197317	< 0
-2.123852	< 11
-2.123852	< 127
-2.123852	< 13
-1.822822	< 14
-2.123852	< 16
-1.822822	< 18
-1.521792	< 2
-1.822822	< 20
-1.521792	< 3
-2.123852	< 30
-2.123852	< 32
-2.123852	< 4
-1.822822	< 5
-2.123852	< 5200
-2.123852	< 57
-1.64673	< 6
-1.822822	< 60
-2.123852	< 61
-1.822822	< 62
-2.123852	< 7
-2.123852	< 74
-2.123852	< 75
-2.123852	< 77
-1.822822	< 79
-2.123852	< 80
-2.123852	< 82
-2.123852	< 91
-2.123852	< 92
-1.424882	< </s>
-1.822822	< A
-2.123852	< B
-1.64673	< D
-2.123852	< L
-2.123852	< M
-2.123852	< O
-2.123852	< Q
-2.123852	< SPEED
-2.123852	< U
-2.123852	< W
-1.521792	< a
-2.123852	< abs
-2.123852	< asn
-1.64673	< b
-2.123852	< b4
-2.123852	< c
-1.822822	< d
-2.123852	< f
-2.123852	< h
-1.3457	< i
-2.123852	< j
-2.123852	< kP8
-2.123852	< l
-1.822822	< m
-1.3457	< n
-1.3457	< not
-2.123852	< p
-1.424882	< s
-2.123852	< script
-1.521792	< v
-1.822822	< x
-2.123852	< y
-0.9542425	<< (
-1.176091	<< 1
-1.653213	<< 14
-1.653213	<< 15
-1.352183	<< 18
-1.653213	<< 23
-1.653213	<< 24
-1.653213	<< 30
-1.176091	<< 32
-1.176091	<< 4
-1.653213	<< 40
-1.653213	<< 5
-1.352183	<< 56
-1.352183	<< 6
-1.653213	<< 60
-1.653213	<< 7
-0.8081145	<< 8
-1.653213	<< </s>
-1.653213	<< Q_
-1.653213	<< a
-1.653213	<< i
-1.176091	<< l
-1.653213	<< n
-1.653213	<< unk
-0.845098	<= 24
-0.845098	<= L
-0.845098	<= Q
-0.845098	<= k
-0.845098	<= m
-0.845098	<= optind
-0.845098	<= q
0	<P~6" </s>
-2.70757	<s> !
-3.0086	<s> !=
-2.70757	<s> "
-3.0086	<s> "!:E%;!ea!!!WqE0z!f/y}!%!!Qi6!uzt!n}?]!bl!ak!SetR<"
-3.0086	<s> "!pv!;!Hm%Ro4"
-3.0086	<s> "%d
-3.0086	<s> "%f,%f,"
-3.0086	<s> "*_[512],**p=_,**d,b,q;for(b=0;b"
-3.0086	<s> "*p=#b,P[9999],*d=P,*e[]="
-3.0086	<s> "/"
-3.0086	<s> "258EAFA5-"
-3.0086	<s> "::::::::::::?_::::\"::.::::@:::'::-::::::::;!:):::::,:::::"
-3.0086	<s> ";;"
-3.0086	<s> ";Gam"
-3.0086	<s> ";GlockQ18"
-3.0086	<s> ";^Q<d|8=o;]Q<dj8<Pk8<c]'?;QQdi8?P'Q)d8<9`8?c;Qdh8=P']Q<`c8>PQ9_8"
-3.0086	<s> "<o_Q<o_QBdo`QQ';`Q=9`]8=bobQ_o_Q<o]8=';bQC(88cQ`bcgQ>oP']8<;cQ>98)^Q?''oc`Q>"
-3.0086	<s> "=(p-_+1)*9%512]=(O*)p;"
-3.0086	<s> ">b;og8=''`Q<`b8?'QQ9_8?c;dPe8dQa8<P]Q<``8=;'f8>QQ`]8?ocQQ_8=''_Q`8aQ"
-3.0086	<s> "?guhljL!^P%
-3.0086	<s> "CYOUQWIN!]Q=;of8BQQ)88bc]QA98P'Qo]8>oQQ_8CP;QQ98b`_8@P8(Q`]'^Q=`']QB)88"
-3.0086	<s> "Zj$x!~V!n&g8!cK!
-3.0086	<s> "bQQ]`8J;QQ`88bc99bd(`8iQ@''QQo^8E'`8c;QQ'Q``8?QQ`'kQ<o]8B9PQQ`';_Q<`_8<cbQ"
-3.0086	<s> "e.6!r!%l6G!n~^<i=%pEwL%P!'<!FQt%u
-3.0086	<s> "e:|
-3.0086	<s> "etu"
-3.0086	<s> "med);"
-3.0086	<s> "oc']Q]8<;cQ>`8bbQA``QQ''`Q?88P;dQ=`)nQ?*/;;"
-3.0086	<s> "oid
-2.230449	<s> %
-2.70757	<s> &
-3.0086	<s> '7M{N^kh
-3.0086	<s> 'c'
-1.577236	<s> (
-1.593627	<s> )
-2.40654	<s> *
-2.531479	<s> +
-2.0086	<s> ++
-2.70757	<s> +=
-1.753328	<s> ,
-2.163502	<s> -
-2.40654	<s> --
-3.0086	<s> -=
-2.531479	<s> .
-2.531479	<s> /
-2.30963	<s> 0
-3.0086	<s> 0xffff
-2.531479	<s> 1
-3.0086	<s> 10
-3.0086	<s> 1152
-3.0086	<s> 128
-3.0086	<s> 15
-3.0086	<s> 16
-3.0086	<s> 16711935
-2.40654	<s> 2
-3.0086	<s> 25
-3.0086	<s> 333
-2.70757	<s> 4
-3.0086	<s> 45
-3.0086	<s> 5
-3.0086	<s> 6
-3.0086	<s> 63504
-3.0086	<s> 64
-3.0086	<s> 65307
-2.40654	<s> 7
-2.531479	<s> 8
-3.0086	<s> 81
-3.0086	<s> 92
-3.0086	<s> 96
-2.40654	<s> :
-1.862472	<s> ;
-3.0086	<s> <
-2.70757	<s> <<
-1.929419	<s> =
-2.70757	<s> >
-2.40654	<s> >>
-3.0086	<s> ?
-2.30963	<s> A
-3.0086	<s> Alan
-2.70757	<s> B
-2.531479	<s> C
-3.0086	<s> COLS
-2.70757	<s> D
-2.10551	<s> E
-2.531479	<s> F
-2.531479	<s> FILE
-3.0086	<s> G
-2.230449	<s> H
-2.70757	<s> I
-2.70757	<s> J
-2.230449	<s> K
-2.230449	<s> L
-2.163502	<s> M
-3.0086	<s> MkQN
-2.531479	<s> N
-2.70757	<s> O
-3.0086	<s> O1
-3.0086	<s> O2
-3.0086	<s> O7
-3.0086	<s> O8
-3.0086	<s> O_
-3.0086	<s> On
-2.40654	<s> P
-2.40654	<s> Q
-3.0086	<s> Q1
-3.0086	<s> Q2
-3.0086	<s> Q3
-3.0086	<s> QO
-2.531479	<s> R
-3.0086	<s> S
-3.0086	<s> SDL_PollEvent
-3.0086	<s> SDL_Surface
-2.230449	<s> T
-2.40654	<s> U
-3.0086	<s> Upgrade
-2.40654	<s> V
-2.30963	<s> W
-2.531479	<s> X
-3.0086	<s> XPutImage
-1.894657	<s> Y
-2.10551	<s> Z
-2.531479	<s> [
-2.70757	<s> ]
-3.0086	<s> _
-3.0086	<s> _0
-1.967207	<s> a
-3.0086	<s> ageX
-2.70757	<s> ala
-2.40654	<s> and
-2.531479	<s> asn
-2.054358	<s> b
-3.0086	<s> bB
-3.0086	<s> bC
-3.0086	<s> be
-3.0086	<s> bl
-3.0086	<s> bn
-2.163502	<s> break
-3.0086	<s> bt
-2.70757	<s> bu
-3.0086	<s> by
-2.531479	<s> c
-3.0086	<s> c8
-3.0086	<s> case
-2.40654	<s> char
-2.054358	<s> const
-1.80448	<s> d
-3.0086	<s> default
-2.40654	<s> do
-3.0086	<s> double
-1.686381	<s> e
-1.546202	<s> efine
-2.70757	<s> else
-3.0086	<s> er
-2.40654	<s> err
-3.0086	<s> errx
-2.70757	<s> exit
-2.531479	<s> f
-1.70757	<s> for
-3.0086	<s> fputc
-2.30963	<s> free
-2.70757	<s> fseek
-3.0086	<s> fw
-1.561442	<s> g
-2.40654	<s> gly
-2.0086	<s> h
-1.61066	<s> i
-1.395816	<s> if
-1.628389	<s> int
-2.30963	<s> j
-2.40654	<s> k
-1.967207	<s> l
-3.0086	<s> lf
-2.531479	<s> long
-2.531479	<s> lys
-2.531479	<s> m
-3.0086	<s> mR8
-2.40654	<s> main
-2.531479	<s> met
-3.0086	<s> mva
-2.40654	<s> n
-2.70757	<s> ndif
-3.0086	<s> new
-2.054358	<s> not
-1.729847	<s> o
-3.0086	<s> oM
-3.0086	<s> ocket
-3.0086	<s> on
-2.70757	<s> op
-3.0086	<s> open
-3.0086	<s> optind
-2.230449	<s> p
-2.70757	<s> phe
-2.230449	<s> printf
-3.0086	<s> pt
-2.70757	<s> putchar
-2.70757	<s> puts
-2.531479	<s> q
-2.30963	<s> r
-3.0086	<s> rQ
-3.0086	<s> rea
-1.929419	<s> return
-2.70757	<s> rewind
-3.0086	<s> rror
-1.929419	<s> s
-2.40654	<s> sec
-3.0086	<s> signal
-3.0086	<s> sin
-2.30963	<s> static
-3.0086	<s> stdin
-3.0086	<s> strchr
-2.70757	<s> switch
-2.230449	<s> t
-3.0086	<s> tf
-2.30963	<s> thr
-3.0086	<s> tr
-3.0086	<s> type
-1.967207	<s> typedef
-2.70757	<s> tyr
-2.163502	<s> u
-2.163502	<s> unsigned
-3.0086	<s> v
-2.70757	<s> val
-2.30963	<s> void
-3.0086	<s> volatile
-2.0086	<s> w
-1.929419	<s> while
-2.70757	<s> x
-1.929419	<s> y
-2.230449	<s> z
-1.832509	<s> {
-1.089522	<s> }
-2.401401	= !
-2.878522	= "
-2.878522	= "<;iQ=/*do<;dQ=ook8?boc;aQ=odr8>oc;_Q<ox8>oc"
-2.878522	= "NBLF\1Nblfgjmf\1"
-2.878522	= "\n\n\n"
-2.276462	= &
-2.577492	= '128'
-2.878522	= 'width:256px;height:256px'
-1.245053	= (
-1.648073	= *
-2.878522	= ,
-1.577492	= -
-2.878522	= --
-2.878522	= .1
-0.9242793	= 0
-2.878522	= 040
-2.878522	= 0u
-2.878522	= 0x1
-2.878522	= 0x820008202625a0
-1.516794	= 1
-2.878522	= 1.159922023e9
-2.179552	= 10
-2.878522	= 1024
-2.878522	= 112
-2.878522	= 12
-2.878522	= 12359778
-2.878522	= 13000
-2.577492	= 14695981039346656037ULL
-2.878522	= 16
-2.878522	= 17
-2.878522	= 196
-2.878522	= 1LL
-2.401401	= 2
-2.878522	= 2.271681097355226e15
-2.878522	= 234
-2.878522	= 250
-2.401401	= 255
-2.878522	= 256
-2.878522	= 26
-2.100371	= 3
-2.878522	= 3.135045272e9
-2.878522	= 30
-2.401401	= 32
-2.878522	= 32768
-2.878522	= 333
-2.878522	= 34
-2.878522	= 37
-2.179552	= 4
-2.878522	= 4.023233417e9
-2.878522	= 4.294967296e9
-2.878522	= 4.503599627370496e15
-2.878522	= 40
-2.878522	= 41088
-2.878522	= 48
-2.878522	= 480
-2.577492	= 5
-2.878522	= 50
-2.878522	= 5000
-2.878522	= 512
-2.276462	= 6
-2.878522	= 64
-2.878522	= 6990400
-2.100371	= 7
-2.401401	= 8
-2.878522	= 8.44396048e8
-2.878522	= 80
-2.878522	= 9
-1.732394	= </s>
-1.648073	= A
-2.276462	= B
-1.975432	= C
-2.878522	= COLS
-2.179552	= D
-2.401401	= E
-2.276462	= F
-2.100371	= H
-2.179552	= I
-2.878522	= J
-2.100371	= K
-2.276462	= L
-2.878522	= LINES
-2.276462	= M
-1.878522	= N
-1.878522	= O
-2.878522	= O0
-2.878522	= O5
-2.401401	= OO
-2.577492	= O_
-2.878522	= O_o
-2.401401	= P
-1.878522	= Q
-2.878522	= Q7
-2.878522	= Q8
-2.401401	= Q_
-2.401401	= R
-2.878522	= S
-2.878522	= SDL_CreateRGBSurface
-2.878522	= SDL_SetVideoMode
-2.577492	= T
-2.878522	= TIMESTEP
-2.878522	= U
-2.401401	= W
-2.878522	= X
-2.878522	= XCreateImage
-2.878522	= XCreateSimpleWindow
-2.878522	= XLookupKeysym
-2.878522	= XOpenDisplay
-2.878522	= Y
-2.577492	= Z
-1.924279	= _
-2.878522	= _0
-2.577492	= _Q
-2.401401	= __
-2.878522	= __TIME__
-2.100371	= a
-1.878522	= b
-2.878522	= b5g
-2.577492	= bA
-2.878522	= bB
-2.878522	= bC
-2.577492	= bE
-2.878522	= ba
-2.878522	= bb
-2.878522	= bf
-2.878522	= bl
-2.878522	= bm
-2.033424	= bp
-2.878522	= bs
-2.878522	= buf
-2.878522	= bx
-2.878522	= by
-2.577492	= bz
-1.799341	= c
-2.401401	= calloc
-2.878522	= cos
-1.878522	= d
-1.70243	= e
-2.577492	= exp
-1.674402	= f
-2.878522	= fgetc
-2.878522	= fopen
-2.577492	= fread
-2.878522	= function
-2.276462	= g
-2.878522	= getch
-2.401401	= getchar
-2.878522	= getopt
-2.276462	= gln
-1.924279	= h
-2.577492	= his
-1.878522	= i
-2.401401	= j
-2.276462	= k
-2.276462	= l
-2.878522	= lv
-2.100371	= m
-2.878522	= main
-2.577492	= malloc
-1.975432	= n
-2.878522	= new
-2.878522	= nk
-2.401401	= not
-1.732394	= o
-2.878522	= op
-1.975432	= p
-2.577492	= pow
-2.878522	= pyl
-2.276462	= q
-2.179552	= r
-2.878522	= rand
-2.878522	= read
-2.276462	= realloc
-2.878522	= round
-2.100371	= s
-2.401401	= sizeof
-2.878522	= sqrt
-2.878522	= strrchr
-2.878522	= system
-2.100371	= t
-2.878522	= tmpfile
-1.975432	= trp
-1.924279	= u
-2.577492	= unk
-1.975432	= v
-2.878522	= w
-2.878522	= window
-1.837129	= x
-2.878522	= xle
-1.924279	= y
-2.179552	= z
-1.924279	= {
-1.342423	== '\n'
-1.342423	== *
-1.643453	== -
-1.643453	== 0
-1.342423	== 1
-1.342423	== 10
-1.643453	== 2
-1.643453	== 27
-1.643453	== 275
-1.643453	== 276
-1.342423	== 3
-1.643453	== 32
-1.342423	== 35
-1.643453	== 4
-1.342423	== 5
-1.643453	== 6
-1.643453	== 8
-1.643453	== 81
-1.643453	== 9
-1.643453	== 92
-1.643453	== B
-1.342423	== D
-1.342423	== NULL
-1.643453	== arg
-1.166331	== b
-1.643453	== cys
-1.643453	== gln
-1.643453	== h
-1.342423	== n
-1.643453	== not
-1.643453	== r
-1.643453	== u
-1.261263	> (
-1.863323	> ->
-0.9602329	> 0
-1.863323	> 1
-1.863323	> 12
-1.863323	> 1600
-1.863323	> 197
-1.164353	> 2
-1.863323	> 20
-1.863323	> 255
-1.863323	> 3
-1.863323	> 30
-1.863323	> 31
-1.863323	> 32
-1.562293	> 4
-1.261263	> 5
-1.863323	> 55
-1.386202	> 6
-1.863323	> 64
-1.562293	> 7
-1.863323	> 76
-1.562293	> 9
-1.863323	> 92
-1.863323	> <
-1.562293	> </s>
-1.863323	> B
-1.863323	> BUFSIZ
-1.863323	> F
-1.863323	> H
-1.863323	> I
-1.863323	> Q0
-1.562293	> QQ
-1.863323	> _
-1.863323	> a
-1.863323	> bs
-1.863323	> d_C
-1.863323	> e
-1.863323	> glu
-1.863323	> h
-1.562293	> i
-1.863323	> l
-1.863323	> lrand48
-1.863323	> q
-1.863323	> s
-1.863323	> t
-1.863323	> v
-1.863323	> w
-1.863323	> x
-0.7781513	>= (
-0.4771213	>= 0
-0.7781513	>= 2
-0.7781513	>= LINES
-0.7781513	>= Q
-1.146128	>> (
-1.623249	>> ++
-1.623249	>> 12
-1.322219	>> 14
-1.146128	>> 2
-1.623249	>> 20
-1.623249	>> 28
-1.623249	>> 3
-1.322219	>> 31
-1.322219	>> 32
-1.623249	>> 38
-1.322219	>> 4
-1.146128	>> 40
-1.623249	>> 5
-1.623249	>> 56
-1.322219	>> 6
-0.6232493	>> 8
-1.623249	>> </s>
-1.623249	>> lys
-1.623249	>> n
-1.322219	>> unk
-0.30103	>>= 4
-0.30103	>>= 7
-1.973128	? !
-1.672098	? ""
-1.973128	? ";"
-1.973128	? "{;}"
-1.973128	? "}$"
-1.973128	? &
-1.973128	? '
-1.973128	? '|'
-1.274158	? (
-1.371068	? *
-1.672098	? ++
-1.973128	? -
-0.9317352	? 0
-1.496007	? 1
-1.973128	? 124
-1.973128	? 1l
-1.973128	? 255
-1.973128	? 256
-1.672098	? 3
-1.973128	? 32
-1.672098	? 8
-1.973128	? 9858122
-1.973128	? </s>
-1.973128	? F
-1.973128	? FILENAME_MAX
-1.973128	? H
-1.973128	? H_1
-1.672098	? I
-1.672098	? L
-1.672098	? O
-1.973128	? RGB
-1.672098	? T
-1.973128	? a
-1.496007	? d
-1.973128	? e
-1.672098	? g
-1.496007	? glu
-1.496007	? i
-1.496007	? k
-1.496007	? n
-1.672098	? o
-1.496007	? p
-1.973128	? putchar
-1.973128	? q
-1.973128	? r
-1.973128	? s
-1.973128	? strlen
-1.973128	? t
-1.672098	? u
-1.973128	? v
-1.973128	? x
-1.973128	? ~
0	?" "8!@dP,!!o+fb"
-0.9444827	A )
-1.643453	A +
-1.643453	A +=
-0.8653014	A ,
-0.7403627	A ->
-0.4673614	A ;
-0.9444827	A =
-1.643453	A J
-1.643453	A L
-1.643453	A R
0	Acce </s>
0	Alan Turing
-0.6901961	B &
-1.690196	B &&
-0.6488034	B (
-0.9912261	B )
-1.389166	B ,
-0.7871061	B ->
-1.389166	B ;
-1.213075	B =
-1.690196	B J
-1.690196	B L
-0.9912261	B R
0	BUFSIZ )
-1.389166	C &
-0.6110148	C (
-0.9912261	C )
-1.213075	C *
-1.389166	C +
-1.690196	C +=
-1.088136	C ,
-1.389166	C -
-1.389166	C /
-1.690196	C :
-1.389166	C ;
-1.690196	C <
-1.389166	C =
-1.389166	C ==
-1.088136	C >
-1.690196	C J
-1.690196	C R
-1.690196	C [
-1.690196	C ^
-0.30103	COLS -
-0.30103	COLS /
-1.556303	D %
-1.255273	D &&
-1.079181	D (
-1.556303	D )
-1.556303	D ,
-1.556303	D -=
-1.556303	D </s>
-1.556303	D =
-1.556303	D ?
-1.556303	D L
-0.9542425	D [
-0.7781513	D c
-0.7781513	D d
-0.8573325	D e
-1.255273	D f
0	DefaultGC (
0	DefaultVisual (
0	Display *
-0.8750613	E (
-1.477121	E )
-0.4771213	E *
-1.477121	E *=
-1.477121	E +
-0.7781513	E ,
-0.7781513	E ;
-1	E =
0	E0 (
0	E3 (
-0.3424227	EOF )
-1.041393	EOF +
-0.7403627	EOF ;
-0.5642715	EOF ]
0	ETIANMSURWDKGOHVF:L:PJBXCYZQ::54:3:::2&:+::::16=/:::(:7:::8:90" </s>
0	EX (
-1.322219	F %
-1.322219	F &
-0.6232493	F (
-1.623249	F )
-1.146128	F *
-1.623249	F +
-0.845098	F ,
-0.9242793	F -
-1.623249	F /
-1.623249	F :
-1.623249	F ;
-1.322219	F <
-0.845098	F =
-1.623249	F >>
0	F0 (
0	F1 (
0	F2 (
0	FILE *
0	FILENAME_MAX :
0	FV (
-0.30103	F_ )
-0.30103	F_ ,
-0.161368	G (
-1.462398	G )
-1.462398	G ,
-0.6173	G [
-1.477121	H %
-1.477121	H &
-1.778151	H (
-1.477121	H )
-1	H *
-1.778151	H +
-1.778151	H ++
-0.8750613	H ,
-1.477121	H -
-1.778151	H --
-1.30103	H /
-0.6642079	H ;
-1.778151	H <
-1.778151	H </s>
-1.778151	H <<
-0.8239087	H =
-1.778151	H >>
-1.477121	H ?
-1.778151	H R
-1.477121	H ]
0	HP (
0	HY (
0	H_1 )
-1.716003	I &
-0.60206	I (
-1.238882	I )
-1.716003	I *
-1.238882	I +
-1.716003	I ++
-1.414973	I ,
-1.414973	I -
-1.414973	I :
-0.9378521	I ;
-1.716003	I <
-0.6746107	I =
-1.113943	I ==
-1.716003	I ?
-1.716003	I [
-0.2688453	J (
-1.414973	J ,
-1.113943	J </s>
-1.113943	J =
-0.7160034	J [
-1.113943	J }
-1.447158	K !=
-1.748188	K %
-0.7067953	K (
-0.9700368	K )
-1.748188	K *
-1.748188	K ++
-1.748188	K +=
-1.271067	K ,
-0.5177391	K ->
-1.146128	K ;
-1.748188	K <
-1.447158	K </s>
-0.9700368	K =
0	KrgR'8@c]!%-q9V.3fa[E8X%dY'w!#H <P~6"
-2.103804	L %=
-1.626683	L (
-1.149561	L )
-2.103804	L *
-1.802774	L +
-2.103804	L ++
-0.3962336	L ,
-1.200714	L -
-2.103804	L <
-2.103804	L </s>
-1.501744	L =
-1.802774	L ==
-2.103804	L >
-1.802774	L >>
-2.103804	L >>=
-2.103804	L ?
-2.103804	L [
-1.325652	L ]
-1.062411	L d
-1.258706	L e
-1.501744	L f
-1.149561	L t
-0.4771213	LINES -
-0.4771213	LINES ;
-0.4771213	LINES ||
0	LP (
0	L_tmpnam )
-1.518514	M &&
-0.5642715	M (
-1.041393	M )
-1.518514	M *=
-1.518514	M +=
-0.916454	M ,
-1.518514	M -=
-1.518514	M .
-1.217484	M ;
-1.518514	M <
-1.217484	M </s>
-0.916454	M =
-1.518514	M ==
-1.518514	M >
-1.518514	M qN
0	M8q;k' N_7vN
0	MJ 24
0	MK6lM L
0	McPc %
0	MkQN 77
-1.69897	N %
-1.69897	N &
-0.3565473	N (
-1.09691	N )
-1.69897	N *
-0.7447275	N ,
-1.69897	N ;
-1.69897	N <
-1.69897	N </s>
-1.221849	N =
-1.69897	N McPc
-1.39794	N [
-1.39794	N ]
-1.69897	N oNS
0	N4 RlMG
0	N8b %
0	N9 m
0	N9b %
0	NULL )
0	NUO <
0	N_1' 5
0	N_7vN 'nSM8
-1.662758	O %
-1.963788	O &
-1.963788	O &&
-0.8176598	O (
-0.9223952	O )
-1.361728	O +
-1.486667	O ++
-1.361728	O ,
-1.486667	O --
-1.662758	O ->
-1.963788	O 8
-1.486667	O :
-1.361728	O ;
-1.486667	O <
-1.662758	O </s>
-0.5835766	O =
-1.662758	O ?
-1.963788	O Q
-1.963788	O ^
-1.963788	O ckQaOrON
-1.963788	O j
-1.963788	O jQ
-1.963788	O sM
-1.963788	O {
-1.963788	O ~
-0.4149733	O0 +=
-1.113943	O0 ,
-0.5118834	O0 -
-0.6368221	O0 =
-0.845098	O1 )
-0.845098	O1 *
-0.544068	O1 ,
-0.845098	O1 =
-0.845098	O1 >
-0.845098	O1 ]
-0.845098	O2 *
-0.845098	O2 ,
-0.845098	O2 -
-0.845098	O2 /
-0.544068	O2 =
-0.845098	O2 >
-0.4771213	O3 )
-0.7781513	O3 -
-0.7781513	O3 /
-0.7781513	O3 </s>
-0.7781513	O3 =
0	O3NF (
-0.39794	O4 *
-0.69897	O4 +
-0.69897	O4 =
-0.69897	O4 |
-0.4771213	O5 )
-0.7781513	O5 +
-0.4771213	O5 ,
-0.7781513	O5 [
-0.60206	O6 +
-0.30103	O6 ,
-0.60206	O6 =
-0.60206	O7 )
-0.60206	O7 ,
-0.60206	O7 =
-0.60206	O7 Q
-0.4771213	O8 *
-0.4771213	O8 +
-0.4771213	O8 =
-0.1760913	O9 --
-0.4771213	O9 =
0	OMQ ]
0	OMaMch &
0	OMp RmPQ
0	ON8r %
-0.7781513	OO )
-1.079181	OO +=
-0.7781513	OO ,
-0.7781513	OO -
-1.079181	OO <
-0.7781513	OO =
-1.079181	OO ==
-1.079181	OO >
0	O^ln ;b'
-0.9542425	O_ &
-0.05115252	O_ (
-0.1249387	O_o )
-0.60206	O_o ,
0	OaaD %
0	Ok </s>
0	On %
0	OsR _
-0.3832167	P (
-0.860338	P )
-1.462398	P +=
-0.9852768	P ,
-1.161368	P 1
-1.161368	P ;
-1.161368	P =
-1.462398	P >=
-1.462398	P [
-1.462398	P i
-1.973128	Q &
-1.973128	Q &&
-0.6307052	Q (
-0.8269998	Q )
-1.496007	Q *
-1.496007	Q ,
-1.973128	Q -
-1.496007	Q ;
-1.672098	Q </s>
-1.973128	Q <=
-1.194977	Q =
-1.973128	Q ?
-1.973128	Q O
-1.973128	Q OO
-1.973128	Q Ok
-1.973128	Q Q4
-1.12803	Q [
-0.7690079	Q ]
-1.194977	Q ^
-1.973128	Q __
-1.672098	Q write
-1.079181	Q0 &&
-0.7781513	Q0 )
-0.60206	Q0 +
-0.7781513	Q0 +=
-1.079181	Q0 ,
-0.60206	Q0 =
-0.7781513	Q1 )
-0.4771213	Q1 ,
-0.30103	Q1 =
-0.845098	Q2 &&
-0.845098	Q2 *
-0.544068	Q2 +
-0.845098	Q2 ,
-0.544068	Q2 =
-0.7781513	Q3 %
-0.4771213	Q3 ,
-0.4771213	Q3 =
-0.7781513	Q3 >>
-0.60206	Q4 &&
-0.60206	Q4 ,
-0.60206	Q4 --
-0.60206	Q4 =
-0.60206	Q5 +
-0.30103	Q5 ,
-0.60206	Q5 =
-0.60206	Q6 +=
-0.60206	Q6 ,
-0.60206	Q6 </s>
-0.60206	Q6 =
-0.60206	Q7 )
-0.60206	Q7 ;
-0.60206	Q7 =
-0.60206	Q7 O
-0.4771213	Q8 ,
-0.4771213	Q8 ;
-0.4771213	Q8 =
-0.30103	Q9 ,
-0.30103	Q9 =
0	QH (
0	QL (
-0.7781513	QO &&
-0.60206	QO *
-1.079181	QO +
-0.7781513	QO ,
-0.4771213	QO =
-0.4771213	QQ )
-0.9542425	QQ *
-0.4771213	QQ +
-0.9542425	QQ ,
-0.9542425	QQ =
0	QR (
0	QS (
0	Q_ (
0	Qr h
-1.393575	R !
-1.150537	R %
-1.296665	R (
-0.3328774	R )
-1.995635	R *
-1.995635	R +
-1.995635	R ++
-1.995635	R +=
-1.217484	R ,
-1.995635	R ;
-1.995635	R <
-1.217484	R </s>
-1.995635	R =
-1.694605	R D
-1.393575	R K
-1.995635	R N
-1.995635	R ]
-1.995635	R c
-1.694605	R g
-1.995635	R i
-1.694605	R j
-1.995635	R k
-1.995635	R l
-1.995635	R o
-1.995635	R s
0	R8 /
0	RAFT )
0	RGB )
0	RI4 4
0	RM ;
0	RMPmSk U
0	RP (
0	RlMG /
0	RmM </s>
0	RmPQ O
0	RootWindow (
-1.556303	S (
-1.079181	S )
-1.556303	S +
-0.8573325	S ,
-0.5149098	S ;
-1.556303	S =
-0.60206	S ]
-1.556303	S d
-1.556303	S j
-1.556303	S s
-1.556303	S u
-1.556303	S {
0	SDL_AudioSpec bu
0	SDL_BlitSurface (
0	SDL_CreateRGBSurface (
0	SDL_Delay (
0	SDL_Event bE
0	SDL_FillRect (
0	SDL_Flip (
0	SDL_Init (
0	SDL_LoadWAV (
0	SDL_MixAudio (
0	SDL_OpenAudio (
0	SDL_PauseAudio (
0	SDL_PollEvent (
0	SDL_Rect </s>
0	SDL_SetVideoMode (
0	SDL_Surface *
0	SEEK_SET )
0	SNH %
0	SOPm R8
0	SPEED *
0	Sec -
0	SlM90 %
0	So long
-1.01424	T (
-1.491362	T *
-1.190332	T ;
-1.190332	T </s>
-1.491362	T I
-1.491362	T Q
-1.491362	T R
-0.5882717	T [
-1.491362	T _
-0.8893017	T d
-1.491362	T f
-0.8893017	T l
-1.491362	T mR
-1.491362	T {
0	TIMESTEP ,
0	TIOCGWINSZ ,
0	TMP_MAX )
0	TmS </s>
0	TmSt 6
0	Turing (
0	Type =
-1.653213	U (
-1.352183	U )
-1.653213	U *=
-1.653213	U +
-1.653213	U +=
-0.8750613	U ,
-1.653213	U 7
-0.39794	U ;
-0.9542425	U =
-1.653213	U L
-1.653213	U i
-1.176091	U int
-1.352183	U j
-1.653213	U l
-1.653213	U u
0	UV_DROP :
0	Uint8Array (
0	Upgrade :
-0.8325089	V !
-1.531479	V )
-0.7533277	V *
-1.054358	V ,
-1.531479	V ->
-1.531479	V ;
-0.9294189	V =
-1.054358	V F
-1.230449	V a
-1.531479	V b
-1.531479	V c
-1.230449	V d
-1.531479	V f
-1.531479	V j
-1.531479	V o
-1.531479	V p
-0.6283889	W (
-0.8502377	W )
-1.452298	W *
-1.628389	W +
-1.929419	W +=
-1.151268	W ,
-1.452298	W -
-1.327359	W --
-1.452298	W /
-0.8154756	W ;
-1.452298	W =
-1.929419	W ==
-1.084321	W R
-1.929419	W S
-1.230449	W [
-1.929419	W ]
-0.30103	WebSocket (
-0.30103	WebSocket -
0	Window u
-1.897627	X !=
-1.897627	X &
-1.596597	X (
-0.6671782	X )
-1.596597	X *
-1.420506	X +
-0.6671782	X ,
-1.897627	X -
-1.897627	X --
-1.897627	X /
-1.897627	X :
-1.295567	X ;
-1.897627	X <
-1.119476	X </s>
-0.9945371	X =
-1.596597	X S
-0.9945371	X [
-1.897627	X ]
-1.897627	X h
-1.897627	X v
0	XCheckWindowEvent (
0	XCreateImage (
0	XCreateSimpleWindow </s>
0	XEvent M
0	XImage *
0	XLookupKeysym (
0	XMapWindow (
0	XOpenDisplay (
0	XPutImage (
0	XSelectInput (
-1.0086	Y (
-1.10551	Y )
-1.230449	Y *
-1.70757	Y *=
-1.40654	Y +
-1.70757	Y +=
-1.10551	Y ,
-1.70757	Y -
-1.40654	Y ->
-0.9294189	Y ;
-0.6661775	Y =
-1.40654	Y S
-0.7533277	Y [
-0.7923917	Z (
-1.190332	Z )
-1.190332	Z *=
-1.491362	Z +
-1.190332	Z +=
-0.7923917	Z ,
-1.491362	Z -
-1.491362	Z -=
-0.8893017	Z ;
-0.7132105	Z =
-1.491362	Z ?
-1.491362	Z W
-1.778151	[ (
-2.380211	[ +
-1.30103	[ -
-1.380211	[ 0
-2.380211	[ 01
-1.057992	[ 1
-2.380211	[ 17
-1.477121	[ 2
-2.380211	[ 204
-1.380211	[ 3
-2.079181	[ 32
-2.380211	[ 36
-1.338819	[ 4
-1.681241	[ 5
-2.380211	[ 516
-2.380211	[ 5200
-1.90309	[ 6
-2.380211	[ 65536
-2.079181	[ 7
-1.90309	[ 8
-2.380211	[ 80
-2.380211	[ 9
-2.079181	[ 97
-2.380211	[ 99
-2.380211	[ 9999
-1.778151	[ </s>
-2.380211	[ B
-2.079181	[ EOF
-2.079181	[ H
-1.477121	[ L
-2.079181	[ O
-2.380211	[ Q6
-2.079181	[ W
-2.079181	[ X
-1.477121	[ ]
-2.380211	[ _Q
-2.380211	[ a
-2.380211	[ b
-2.380211	[ bi
-2.380211	[ c
-1.535113	[ d
-2.380211	[ e
-1.681241	[ g
-1.778151	[ h
-1.30103	[ i
-1.681241	[ j
-1.681241	[ k
-2.079181	[ l
-2.079181	[ leu
-2.079181	[ m
-1.778151	[ n
-2.079181	[ not
-2.380211	[ o
-1.778151	[ optind
-1.778151	[ p
-1.681241	[ r
-2.380211	[ s
-2.079181	[ t
-2.380211	[ tgANs
-2.079181	[ u
-2.380211	[ val
-2.079181	[ x
-1.037789	[ xor
-2.079181	[ y
0	[-d] file1
0	\"" "%s"
0	\n\t" ,
-2.118926	] !=
-2.118926	] %
-1.942834	] &
-2.419956	] &&
-2.419956	] '2O
-2.419956	] '_3a
-2.118926	] (
-0.9148058	] )
-1.516866	] *
-2.118926	] *=
-1.516866	] +
-1.942834	] ++
-1.720986	] +=
-0.9014418	] ,
-1.817896	] -
-2.419956	] --
-2.118926	] -=
-1.340775	] .
-2.419956	] /
-2.419956	] 0
-2.419956	] 6
-1.942834	] :
-0.9285941	] ;
-2.419956	] <
-1.641804	] </s>
-2.419956	] <<
-0.6070424	] =
-2.118926	] ==
-1.641804	] >
-2.419956	] >=
-2.118926	] >>
-2.118926	] ?
-2.419956	] OsR
-2.419956	] [
-2.419956	] ]
-1.942834	] ^
-2.419956	] _o
-2.118926	] g
-2.419956	] h
-2.419956	] k
-2.419956	] k_
-2.419956	] l
-2.419956	] l_
-2.118926	] |
-2.419956	] |=
-2.419956	] }
-1.612784	^ %
-1.612784	^ 'h(Q]0h#
-1.311754	^ (
-1.612784	^ )
-1.612784	^ *
-1.612784	^ -
-1.612784	^ --
-1.612784	^ /
-1.612784	^ 024
-1.612784	^ 0xfc0
-1.612784	^ 1
-1.612784	^ 10
-1.311754	^ 2
-1.612784	^ 20
-1.612784	^ 255
-1.612784	^ 3
-1.612784	^ 35
-1.612784	^ 3920
-1.612784	^ 4
-1.612784	^ 40
-1.311754	^ 6
-1.612784	^ 61
-1.612784	^ 9
-1.612784	^ I
-1.612784	^ OaaD
-1.612784	^ d
-1.612784	^ f
-1.612784	^ h
-1.311754	^ k
-1.135663	^ l
-1.612784	^ og
-1.135663	^ p
-1.612784	^ ~
-0.60206	^= *
-0.60206	^= 20
-0.60206	^= _
-0.60206	^= k
-2.056905	_ %
-0.5006024	_ (
-1.015512	_ )
-1.755875	_ *
-2.056905	_ +
-2.056905	_ ++
-1.579784	_ ,
-2.056905	_ -
-2.056905	_ /
-2.056905	_ 6
-2.056905	_ :
-1.579784	_ ;
-1.278754	_ </s>
-1.454845	_ =
-2.056905	_ >>
-1.755875	_ ?
-2.056905	_ C
-2.056905	_ E
-2.056905	_ N
-2.056905	_ O
-2.056905	_ [
-2.056905	_ ^=
-2.056905	_ _8
-1.755875	_ a
-1.454845	_ b
-2.056905	_ c
-2.056905	_ d
-1.579784	_ f
-2.056905	_ g
-1.755875	_ n
-2.056905	_ o
-1.755875	_ p
-2.056905	_ pQaM8m
-1.755875	_ r
-1.153815	_ s
-2.056905	_ v
-1.755875	_ w
-2.056905	_ {
0	_){putchar(_);}O" "\40main(){O"
-0.9542425	_0 &&
-0.9542425	_0 )
-0.6532125	_0 *
-0.9542425	_0 +=
-0.9542425	_0 ,
-0.9542425	_0 /
-0.6532125	_0 =
0	_8 (
0	_KK3 +
-0.69897	_O %
-1	_O %=
-0.69897	_O )
-1	_O +
-1	_O +=
-0.69897	_O =
-1	_O >
-0.5228788	_Q %
-1	_Q )
-0.69897	_Q +=
-1	_Q /
-1	_Q </s>
-0.69897	_Q =
0	_Zadat57 <
-0.9294189	__ &
-1.230449	__ &&
-0.9294189	__ )
-1.230449	__ *
-1.230449	__ +
-0.9294189	__ +=
-1.230449	__ ,
-1.230449	__ ;
-1.230449	__ </s>
-1.230449	__ <<
-0.9294189	__ =
-1.230449	__ >>
-1.230449	__ >>=
0	__LINE__ *
-0.30103	__STDC_VERSION__ &&
-0.30103	__STDC_VERSION__ >
-0.30103	__STDC__ )
-0.30103	__STDC__ </s>
0	__TIME__ ;
-0.30103	_a %
-0.30103	_a </s>
0	_h *
0	_o ptj9
0	_t <
0	_z (
-2.017033	a %
-1.539912	a &
-1.017033	a (
-1.414973	a )
-2.017033	a *=
-1.539912	a +
-1.716003	a ++
-2.017033	a +=
-0.90309	a ,
-1.539912	a -
-1.716003	a --
-1.238882	a ->
-2.017033	a .
-2.017033	a /
-1.238882	a ;
-1.539912	a <
-1.716003	a </s>
-0.7865844	a =
-2.017033	a ?
-1.414973	a L
-1.716003	a S
-1.716003	a W
-2.017033	a X
-1.716003	a Z
-1.062791	a [
-1.539912	a ]
-2.017033	a {
0	a_ (
0	abs (
0	ageX -
-0.544068	ala *
-0.845098	ala ;
-0.845098	ala asn
-0.3679768	ala not
-0.1890562	and )
-1.230449	and *
-1.531479	and ;
-1.531479	and asp
-1.531479	and gln
-1.230449	and his
-1.531479	and pyl
-1.531479	and sec
-1.531479	and tla
-1.531479	and tyr
-1.531479	and xle
-0.09691001	arg )
-0.69897	arg =
-0.60206	argh )
-0.30103	argh ,
-0.60206	argh ;
-1.113943	asn ,
-0.07255067	asn .
-1.113943	asn ;
-0.1760913	asp -
-0.4771213	asp =
-0.60206	asx )
-0.60206	asx +
-0.60206	asx =
-0.60206	asx >
0	ay </s>
-1.325164	b !
-2.170262	b %
-2.170262	b &
-1.869232	b &&
-1.568202	b (
-1.170262	b )
-2.170262	b *
-1.869232	b *=
-2.170262	b ++
-1.216019	b ,
-1.869232	b --
-1.39211	b ->
-2.170262	b .
-1.056318	b ;
-1.693141	b <
-1.325164	b </s>
-1.869232	b <<
-0.9149892	b =
-2.170262	b >
-1.869232	b >>
-1.39211	b B
-2.170262	b D
-1.39211	b I
-2.170262	b O
-2.170262	b P
-1.471292	b W
-1.325164	b X
-2.170262	b Z
-1.170262	b [
-2.170262	b ]
-1.869232	b ^
-1.568202	b bf
-2.170262	b bg
-2.170262	b bt
-2.170262	b h
-2.170262	b j
-2.170262	b kg
-2.170262	b n
-2.170262	b o
-1.869232	b q
-2.170262	b u
0	b1g (
0	b4 </s>
0	b5g (
-0.69897	bA ,
-0.69897	bA ;
-0.69897	bA <<
-0.39794	bA =
-0.60206	bB )
-0.60206	bB ;
-0.30103	bB =
-0.60206	bC *
-0.60206	bC ,
-0.60206	bC /
-0.60206	bC =
-0.4771213	bD *
-0.4771213	bD ,
-0.4771213	bD =
-0.69897	bE )
-0.2218488	bE .
-0.69897	bE ;
0	b\nq(%s)\n" </s>
0	ba (
-0.7781513	bb )
-0.7781513	bb +
-0.7781513	bb +=
-0.7781513	bb ;
-0.4771213	bb =
0	bc (
-0.1760913	bd (
-0.4771213	bd </s>
-0.90309	be )
-0.60206	be ,
-0.20412	be ;
-0.60206	bf &&
-0.4771213	bf )
-0.4771213	bf ;
-1.079181	bf =
-0.60206	bg &&
-0.60206	bg )
-0.60206	bg ;
-0.60206	bg =
-0.1249387	bh (
-0.60206	bh </s>
0	bh' l
-0.30103	bi )
-0.30103	bi ]
0	binary "
0	bj (
-0.60206	bk &&
-0.30103	bk ,
-0.60206	bk ;
-0.1760913	bl (
-0.4771213	bl }
-0.30103	bm =
-0.30103	bm ==
-0.30103	bn ,
-0.30103	bn =
-0.30103	bo )
-0.30103	bo =
0	bp (
-0.30103	bq (
-0.30103	bq }
0	br ,
-0.02632894	break ;
-1.230449	break H
-0.1760913	bs )
-0.4771213	bs ;
-0.7781513	bt ,
-0.4771213	bt ;
-0.4771213	bt =
-0.7781513	bt >
-0.7781513	bu *
-0.4771213	bu ,
-0.4771213	bu =
-0.7781513	bu >
-0.60206	buf )
-0.60206	buf ,
-0.60206	buf ;
-0.60206	buf [
-0.30103	bv ,
-0.30103	bv ;
0	bw ,
-0.30103	bx )
-0.30103	bx ;
-0.7781513	by ,
-0.7781513	by =
-0.30103	by ?
-0.7781513	by ||
-0.69897	bz </s>
-0.69897	bz <<
-0.39794	bz =
-0.69897	bz >>
-1.982271	c "
-1.982271	c %
-1.982271	c &
-0.8361432	c )
-1.50515	c *
-1.982271	c +
-1.50515	c ++
-0.9408786	c ,
-1.681241	c -
-1.982271	c --
-1.982271	c -=
-1.681241	c .
-1.380211	c :
-1.20412	c ;
-1.50515	c <
-1.50515	c </s>
-0.6600519	c =
-1.380211	c ==
-1.681241	c >
-1.982271	c L
-1.982271	c R
-1.50515	c W
-1.681241	c Y
-1.982271	c Z
-1.681241	c ^
-1.982271	c |
-1.982271	c ||
-0.30103	c8 +
-0.30103	c8 7
0	c9 .
0	cN mkM
0	c_X </s>
0	c_kah%0d9`b' /
0	calloc (
-1	case 'd'
-1	case 0
-1	case 10
-1	case 123
-1	case 35
-0.69897	case 36
-1	case 40
-1	case 58
-1	case 61
0	cb ,
-0.136838	char *
-1.568202	char J
-1.568202	char N
-1.568202	char X
-1.568202	char buf
-1.267172	char c
-1.568202	char o
-1.568202	char p
-1.568202	char pro
-1.568202	char ser
0	ckQaOrON epne
0	close (
-1.041393	const ala
-0.4973246	const and
-1.342423	const char
-1.342423	const gln
-1.041393	const his
-1.041393	const not
-0.8653014	const pro
-1.041393	const ser
-1.041393	const thr
0	continue ;
0	cos (
0	cq *
0	crea "
0	curs_set (
-0.7781513	cys )
-0.4771213	cys -
-0.7781513	cys =
-0.4771213	cys >>
-1.108773	d )
-1.523746	d *
-1.620656	d *=
-1.377618	d +
-1.921687	d ++
-1.181324	d +=
-0.9004972	d ,
-1.444565	d -
-1.444565	d -=
-2.222717	d ->
-2.222717	d .
-2.222717	d /
-1.745595	d /=
-2.222717	d 9
-1.921687	d :
-1.108773	d ;
-1.745595	d <
-2.222717	d </s>
-2.222717	d <<
-2.222717	d <=
-0.8247765	d =
-2.222717	d ==
-2.222717	d >
-2.222717	d >=
-1.921687	d >>
-1.745595	d ?
-2.222717	d R
-1.143535	d W
-1.745595	d X
-1.523746	d Y
-1.921687	d [
-1.745595	d ]
-2.222717	d ^
-2.222717	d xv
-2.222717	d |
-1.921687	d ||
0	d2 xa6
0	d77sNOsd 8
-0.60206	d8 (
-0.60206	d8 ,
-0.60206	d8 _
-0.60206	d8 a
0	d8ak =
0	dA )
0	dB )
0	dC </s>
0	d_C f3
0	dat </s>
0	data )
0	default :
0	defined __STDC_VERSION__
0	do {
0	double </s>
0	dstr )
0	dup (
0	dup2 (
-1.39794	e (
-1.154902	e )
-2	e *
-2	e *=
-2	e +
-1.154902	e +=
-0.9208187	e ,
-2	e -
-2	e -=
-0.9208187	e ->
-1.522879	e .
-2	e :
-0.8239087	e ;
-1.69897	e <
-2	e </s>
-0.8538719	e =
-1.69897	e W
-1.69897	e Y
-1	e [
-2	e ]
-2	e kf
-2	e {
0	eep ,
-1.462398	efine D
-1.462398	efine E
-1.462398	efine E0
-1.462398	efine EX
-1.462398	efine F0
-1.462398	efine F1
-1.462398	efine F2
-1.462398	efine FV
-1.462398	efine H
-1.462398	efine HP
-1.462398	efine HY
-1.462398	efine I
-1.462398	efine K
-1.462398	efine LP
-1.462398	efine M
-1.462398	efine N
-1.462398	efine O
-1.462398	efine P
-1.462398	efine Q
-1.462398	efine QH
-1.462398	efine QL
-1.462398	efine R
-1.462398	efine RP
-1.462398	efine S
-1.462398	efine T
-1.462398	efine U
-1.462398	efine W
-1.462398	efine Z
-1.462398	efine break
-0.7201593	else </s>
-1.322219	else V
-1.322219	else goto
-1.322219	else z
-0.1760913	else {
0	elta_u )
0	elta_v )
0	epne luelue
0	er </s>
0	err (
0	errx (
0	exit (
0	exp (
0	extern void
-1.892095	f &
-1.892095	f &&
-0.7781513	f (
-0.8507019	f )
-0.7781513	f ,
-1.892095	f .
-1.193125	f ;
-1.892095	f </s>
-1.892095	f <<
-0.8129134	f =
-1.892095	f ?
-1.892095	f EOF
-0.9378521	f L
-1.892095	f R
-1.591065	f X
-1.892095	f Z
-1.892095	f defined
-1.892095	f |
-1.591065	f }
0	f3 ]
0	fabs (
0	fclose (
0	fgetc (
0	fgets (
0	file1 file2"
0	file2" ,
0	flash (
-0.845098	float </s>
-0.845098	float C
-0.845098	float I
-0.845098	float K
-0.845098	float N
-0.845098	float V
-0.845098	float a
0	float_ )
0	flu ,
0	fopen (
-0.02413368	for (
-1.267172	for </s>
0	fputc (
0	fread (
0	free (
0	fscanf (
0	fseek (
0	function (
0	fw )
-1.778151	g %
-1.60206	g &
-2.079181	g &&
-2.079181	g (
-1.30103	g )
-1.079181	g *
-1.477121	g *=
-1.234083	g +
-1.60206	g ++
-1.778151	g +=
-1.176091	g ,
-2.079181	g --
-1.477121	g -=
-2.079181	g /
-1.778151	g 9
-2.079181	g :
-0.7174534	g ;
-1.477121	g <
-2.079181	g </s>
-2.079181	g <<
-0.6478175	g =
-2.079181	g ==
-2.079181	g >>
-2.079181	g Q
-2.079181	g [
-2.079181	g ]
-1.778151	g ^
-2.079181	g ||
0	getC "
0	getch (
0	getchar (
0	getopt (
-0.50515	gln )
-0.30103	gln ;
-0.90309	gln =
-1.20412	gln ==
-0.30103	glu )
-0.5228788	glu :
-1	glu <<
-1	glu =
-0.30103	glx %
-0.30103	glx =
0	gly (
0	goofy !
-0.1249387	goto O
-0.60206	goto o
-1.146128	h %
-1.845098	h &
-1.845098	h &&
-1.845098	h 'lQ
-1.367977	h (
-1.544068	h )
-1.367977	h *
-1.845098	h *=
-1.544068	h +
-1.845098	h ++
-1.845098	h +=
-1.146128	h ,
-1.146128	h -
-1.367977	h .
-1.845098	h /
-1.845098	h 9
-1	h ;
-1	h <<
-0.8037053	h =
-1.845098	h >
-1.845098	h >>
-1.845098	h ?
-1.845098	h Q
-1.845098	h ^
-1.845098	h ^=
-1.845098	h b
-1.544068	h |
0	halting )
0	height =
-0.3679768	his )
-0.845098	his ;
-0.3679768	his [
0	ho )
0	href .
-1.511883	i %
-1.812913	i &
-1.812913	i &&
-0.8586708	i (
-1.176091	i )
-1.386945	i *
-2.290035	i *=
-1.511883	i +
-1.591065	i ++
-1.812913	i +=
-1.059586	i ,
-1.386945	i -
-2.290035	i --
-1.386945	i /
-1.989005	i :
-1.143907	i ;
-1.059586	i <
-2.290035	i </s>
-2.290035	i <=
-0.8129134	i =
-2.290035	i ==
-1.989005	i >
-1.812913	i >>
-1.812913	i ?
-1.989005	i R
-1.687975	i S
-1.591065	i ]
-2.290035	i |
-0.01240926	if (
-1.550228	if </s>
-0.69897	ile !=
-0.69897	ile +
-0.69897	ile --
-0.69897	ile ;
-0.69897	ile =
0	in tYv
0	initscr (
-1.30103	int )
-1.124939	int *
-1.124939	int </s>
-1.90309	int F
-1.90309	int G
-1.90309	int H
-1.425969	int I
-1.90309	int K
-1.90309	int L
-1.90309	int M
-1.90309	int P
-1.60206	int X
-1.90309	int _
-1.90309	int a
-1.90309	int bk
-1.90309	int bm
-1.90309	int bs
-1.90309	int bt
-1.90309	int bw
-1.90309	int by
-1.425969	int c
-1.90309	int h
-1	int i
-1.425969	int j
-1.425969	int k
-1.30103	int l
-1	int main
-1.90309	int met
-1.90309	int o
-1.90309	int op
-1.90309	int p
-1.90309	int puts
-1.90309	int t
-1.60206	int u
-1.90309	int v
-1.425969	int x
-1.60206	int y
0	int_ )
0	intw )
0	ioctl (
0	ipt >
-1.518514	j %
-1.694605	j &&
-1.041393	j )
-1.995635	j *
-1.518514	j *=
-1.150537	j +
-1.995635	j ++
-1.518514	j +=
-0.7403627	j ,
-1.296665	j -
-1.995635	j /
-1.995635	j /=
-1.995635	j :
-1.393575	j ;
-1.092545	j <
-1.995635	j </s>
-0.7403627	j =
-1.694605	j >
-1.518514	j ?
-1.296665	j S
-1.995635	j ]
-1.995635	j kd
-1.995635	j ||
0	jQ O7
0	j_la _
0	j_laaaN :
-1.913814	k %
-1.913814	k (
-0.9138138	k )
-1.913814	k *
-1.913814	k *=
-1.214844	k +
-1.436693	k ++
-1.913814	k +=
-0.7377226	k ,
-1.311754	k -
-1.913814	k --
-1.913814	k -=
-1.436693	k /
-1.913814	k :
-1.436693	k ;
-1.612784	k <
-1.612784	k </s>
-0.7998705	k =
-1.913814	k >
-1.913814	k >>
-1.913814	k R
-1.436693	k [
-1.436693	k ]
-1.913814	k ^
-1.913814	k ^=
-1.913814	k g
-1.913814	k |=
-1.913814	k }
0	k8b %
0	k9 b1g
0	kP8 ;
0	k_ 7
0	kccMcOP &
0	kckQ ,
0	kd 7
0	ket Sec
-0.30103	key .
-0.30103	key :
0	keysym .
0	kf _a
0	kg </s>
-1.676694	l %
-1.977724	l &&
-1.375664	l (
-0.9777236	l )
-1.199572	l *
-1.977724	l *=
-1.676694	l +
-1.977724	l ++
-1.375664	l +=
-0.8985423	l ,
-1.375664	l -
-1.977724	l -=
-1.977724	l /
-0.8637803	l ;
-1.676694	l <
-1.676694	l </s>
-1.977724	l <<
-0.8315955	l =
-1.977724	l ==
-1.977724	l >
-1.977724	l >>
-1.676694	l S
-1.676694	l ]
-1.676694	l ^
-1.977724	l mq9l8b
-1.977724	l peoqemtemw
-1.977724	l v
-1.977724	l vQ
-1.977724	l |
-0.30103	lM :
-0.30103	lM ;
0	lNRmO_loa8 %
0	lQ h
0	lQoOa N9
0	l_ %
0	lea ,
-0.60206	leu ;
-0.60206	leu =
-0.30103	leu ]
0	lf )
0	location .
-1.278754	long </s>
-1.278754	long A
-1.278754	long L
-1.278754	long Q8
-1.278754	long __
-1.278754	long a
-1.278754	long b
-1.278754	long c
-1.278754	long h
-1.278754	long j
-0.5797836	long long
-1.278754	long q
-1.278754	long y
-0.9777236	long z
0	lpeoqempepneu e
0	lrand48 (
-0.30103	lu ,
-0.30103	lu =
0	luN ]
0	luelue lpeoqempepneu
-0.1760913	lv ,
-0.4771213	lv =
0	lwg +
-0.6532125	lys )
-0.9542425	lys +=
-0.9542425	lys -=
-0.4771213	lys =
-0.9542425	lys ==
-0.9542425	lys >=
-1.724276	m %
-1.724276	m &&
-0.9461246	m )
-1.423246	m *
-1.423246	m +
-1.724276	m ++
-1.724276	m +=
-0.6450946	m ,
-1.724276	m -
-1.724276	m -=
-1.724276	m /
-1.724276	m :
-1.122216	m ;
-1.247155	m <
-1.724276	m </s>
-0.7700334	m =
-1.247155	m >
-1.423246	m [
-1.724276	m vOwwRor
-0.30103	mR RMPmSk
-0.30103	mR mS
0	mR8 }
0	mRMmO %
0	mRh ^
0	mS ]
0	mageData (
-0.0234811	main (
-1.278754	main </s>
0	malloc (
0	memcmp (
0	memcpy (
0	memset (
-0.4771213	met )
-0.9542425	met ;
-0.9542425	met lys
-0.6532125	met main
-0.6532125	met val
0	mkM :
0	mq9l8b ^
0	mva ,
0	mvaddstr (
0	mvinch (
0	mvinsch (
-2.071882	n %
-2.071882	n &&
-0.8957908	n )
-1.372912	n *
-1.293731	n +
-1.594761	n +=
-0.770852	n ,
-1.11764	n -
-2.071882	n --
-1.770852	n -=
-1.770852	n /
-2.071882	n :
-0.9579387	n ;
-1.469822	n <
-1.594761	n </s>
-0.8414331	n =
-1.226784	n >
-1.770852	n ?
-2.071882	n R
-1.770852	n ]
-1.770852	n |
-2.071882	n }
0	nR ;
0	nRmUd s
0	ndif </s>
-0.30103	new Uint8Array
-0.30103	new WebSocket
0	nk ;
-1.995635	not !=
-1.995635	not &
-1.092545	not )
-1.217484	not ,
-1.150537	not ->
-0.3828513	not .
-1.694605	not ;
-1.393575	not =
-1.995635	not ==
-1.995635	not >
-1.995635	not >>
-0.5806618	not [
0	np )
-1.892095	o &
-1.238882	o )
-1.151732	o *
-2.193125	o *=
-1.151732	o +
-1.892095	o ++
-1.716003	o +=
-0.9626757	o ,
-1.238882	o -
-1.892095	o -=
-2.193125	o /
-2.193125	o :
-0.8313968	o ;
-2.193125	o </s>
-0.7951846	o =
-1.716003	o >
-1.892095	o >>
-1.892095	o W
-1.716003	o X
-0.7781513	o [
-1.892095	o ]
0	o(O _){putchar(_);}O"
0	oM :
0	oNS &
0	ocket -
0	oec ,
0	offsetLeft ;
0	offsetTop }
0	og (
0	on :
0	onmousemove =
0	ontext (
-0.6532125	op &&
-0.9542425	op )
-0.6532125	op ;
-0.4771213	op =
-0.9542425	op ^
0	open (
-0.7781513	optind )
-0.4771213	optind +
-0.7781513	optind =
-0.4771213	optind ]
-1.759668	p &
-1.458638	p )
-1.458638	p +
-1.060698	p ++
-1.060698	p ,
-1.458638	p -
-2.060698	p -=
-1.583577	p /
-2.060698	p :
-0.8302489	p ;
-1.458638	p <
-1.759668	p </s>
-2.060698	p <=
-0.7384785	p =
-1.759668	p >
-2.060698	p L
-1.583577	p S
-1.583577	p W
-2.060698	p X
-2.060698	p Z
-0.9467545	p [
-1.583577	p ]
-1.759668	p ^
-2.060698	p utchar
-2.060698	p |
0	pOpM866OsRlm N
0	pQaM8m {
0	pRM7O </s>
0	pageY -
0	peoqemtemw Q7
0	phe (
0	pixels ,
0	pow (
0	pread (
0	prin </s>
0	printf (
-0.69897	pro )
-0.2218488	pro *
-0.69897	pro ;
0	pt :
0	ptj9 lwg
0	putImageData (
0	putchar (
-0.06694679	puts (
-0.845098	puts </s>
0	px TmSt
-0.30103	pyl ;
-0.30103	pyl =
-1.724276	q !=
-1.423246	q (
-1.025306	q )
-1.724276	q *
-1.247155	q +
-1.122216	q ++
-1.724276	q +=
-1.724276	q ,
-1.247155	q -
-0.9461246	q ;
-1.122216	q </s>
-0.6828832	q =
-1.724276	q ==
-1.724276	q >>
-1.724276	q N
-1.724276	q R
-1.724276	q S
-1.025306	q [
-1.724276	q ^
0	qN OMp
0	qQ O
-1.477121	r %
-1.778151	r 'Q]
-1.30103	r (
-1	r )
-1.477121	r +
-1.079181	r ++
-1.477121	r +=
-1.079181	r ,
-1.778151	r :
-1.079181	r ;
-1.477121	r </s>
-0.7367586	r =
-1.778151	r ==
-1.778151	r >>
-1.778151	r ?
-1.30103	r L
-1.778151	r RmM
-1.778151	r W
-1.477121	r X
-1.477121	r Z
-1.778151	r [
-1.778151	r ]
-1.778151	r |
-0.4771213	rQ </s>
-0.4771213	rQ ]
-0.4771213	rQ rQ
0	rR pOpM866OsRlm
0	rand (
0	re turnY_
0	rea ,
-0.30103	read (
-0.30103	read </s>
0	realloc (
0	refresh (
-1.230449	return (
-1.531479	return +
-0.9294189	return 0
-1.531479	return ;
-1.230449	return </s>
-1.531479	return Q
-1.531479	return W
-1.531479	return Y
-1.531479	return a
-1.531479	return b
-1.531479	return bb
-0.9294189	return d
-1.531479	return exp
-1.531479	return fclose
-1.531479	return l
-1.531479	return o
-1.531479	return p
-1.531479	return r
-1.054358	return s
-1.531479	return strchr
-1.531479	return strtol
-1.230449	return u
-1.531479	return y
0	rewind (
0	round (
0	rror goofy
-2.041393	s %
-1.740363	s (
-1.263241	s )
-1.740363	s *
-1.439333	s *=
-1.740363	s +
-1.740363	s ++
-1.564271	s +=
-1.08715	s ,
-1.740363	s -
-1.564271	s -=
-2.041393	s /=
-2.041393	s :
-1.196295	s ;
-1.740363	s <
-1.740363	s </s>
-0.69897	s =
-1.740363	s >
-1.08715	s L
-1.138303	s W
-1.196295	s X
-1.439333	s Y
-1.564271	s Z
-1.342423	s [
-2.041393	s d77sNOsd
0	sM nRmUd
-0.30103	sN '
-0.30103	sN 9
0	sTaa :
0	s_4 &
0	scanf (
0	scr "
0	script >
-0.3521825	sec )
-0.2552725	sec =
0	send (
-0.1383027	ser )
-1.041393	ser ;
-1.041393	ser asx
-1.041393	ser glx
0	set (
0	shi ,
0	short *
0	signal (
0	sin (
0	size_t thr
-0.06694679	sizeof (
-1.146128	sizeof his
-1.146128	sizeof sec
0	slice (
0	slltwzh &
0	sprintf (
0	sqrt (
0	st_mtime ;
0	st_size ;
-0.1760913	stat (
-0.4771213	stat z
-0.7781513	static const
-0.07918125	static void
0	stdin )
0	stdout )
0	strchr (
0	strcmp (
0	strlen (
0	strrchr (
0	strtol </s>
-0.6532125	struct T
-0.6532125	struct e
-0.9542425	struct stat
-0.3521825	struct {
0	style =
0	subs </s>
0	switch (
0	sym ;
-0.69897	sym_ (
-0.09691001	sym_ ,
0	system (
-1.544068	t !=
-1.845098	t %=
-1	t )
-1.544068	t *
-1.845098	t *=
-1.367977	t +
-1.367977	t +=
-1.066947	t ,
-1.845098	t -
-1.845098	t --
-1.845098	t :
-1	t ;
-1.243038	t <
-1.845098	t </s>
-0.6690068	t =
-1.845098	t ==
-1.544068	t >
-1.845098	t ?
-1.544068	t L
-1.845098	t S
-1.146128	t [
-1.845098	t |
-1.544068	t ||
0	tQ ?
0	tYv =
0	tape )
0	teI "
0	tf (
0	tgANs =
-0.90309	thr ;
-0.90309	thr cys
-0.90309	thr ile
-0.90309	thr leu
-0.90309	thr trp
-0.90309	thr val
-0.60206	thr xor
0	timeout (
-0.30103	tla ;
-0.60206	tla =
-0.60206	tla ==
0	tmpfile (
0	tr (
-1	trp )
-1	trp ,
-0.154902	trp ;
-1	trp =
0	turnY_ .
0	typ and
0	type ==
-1.146128	typedef </s>
-1.146128	typedef char
-1.146128	typedef int
-1.146128	typedef size_t
-0.3679768	typedef struct
-1.146128	typedef typ
-1.146128	typedef union
-0.845098	typedef unsigned
-1	tyr )
-1	tyr +
-1	tyr /
-0.39794	tyr =
-0.5228788	tyr [
-0.8791778	u )
-2.025306	u *=
-1.548185	u +
-1.724276	u ++
-1.548185	u +=
-0.9113625	u ,
-1.724276	u /
-2.025306	u :
-1.247155	u ;
-1.423246	u <
-0.794857	u =
-2.025306	u ?
-1.423246	u R
-2.025306	u S
-0.5481846	u [
-1.724276	u ]
-1.724276	u ||
0	uU ]
0	union w
-0.30103	unk )
-0.7781513	unk ;
-1.079181	unk =
-0.60206	unk ]
-0.9542425	unsigned So
-0.6532125	unsigned char
-0.1760913	unsigned long
0	up" )
0	upgrade </s>
0	usl ,
0	usleep (
0	utchar (
-1.716003	v !=
-1.414973	v %
-1.113943	v )
-1.716003	v *
-1.716003	v *=
-1.414973	v +
-1.716003	v ++
-0.9378521	v ,
-1.414973	v -
-1.716003	v --
-0.8709053	v .
-1.238882	v /
-1.716003	v :
-1.017033	v ;
-1.716003	v <
-1.716003	v <<
-0.8709053	v =
-1.414973	v ==
-1.716003	v >
-1.716003	v >>
-1.716003	v ?
-1.716003	v [
0	vOwwRor ~
0	vQ ^
0	va_arg (
0	va_end </s>
0	va_list argh
0	va_start (
0	vad ,
-0.9700368	val )
-1.447158	val *
-1.447158	val +
-1.447158	val +=
-0.9700368	val ,
-1.447158	val -
-1.447158	val -=
-0.4057654	val ;
-1.447158	val <
-1.146128	val =
-1.447158	val ==
-1.146128	val ]
-1.39794	void )
-0.69897	void *
-0.69897	void </s>
-1.39794	void B
-1.39794	void G
-1.39794	void Q
-1.39794	void W
-1.39794	void e
-1.09691	void gly
-1.09691	void phe
-1.39794	void s
-1.39794	void w
-1.39794	void x
-1.39794	void y
-1.39794	void z
0	voidw (
0	volatile </s>
0	vpr ,
-0.69897	w (
-1	w )
-1.30103	w *
-1.90309	w *=
-1.30103	w +=
-1.30103	w ,
-1.90309	w -=
-1.60206	w .
-1	w ;
-1.90309	w </s>
-1	w =
-1.60206	w L
-1.60206	w W
-1.425969	w Z
-1.90309	w [
-1.90309	w _
-1.90309	w a
-1.90309	w a_
-1.20412	w f
-1.60206	w fw
-1.90309	w w
-1.425969	w x
-1.90309	w {
0	webso "
0	while (
0	width =
0	window .
0	wnS _
0	world!" )
0	write (
-1.94939	x (
-0.8702087	x )
-1.94939	x *=
-1.472269	x +
-1.94939	x ++
-0.5691788	x ,
-1.94939	x -
-0.9079973	x .
-1.94939	x /
-1.25042	x ;
-1.34733	x <
-1.94939	x </s>
-1.94939	x <<
-1.94939	x <=
-0.803262	x =
-1.94939	x ==
-1.64836	x >>
-1.472269	x ?
-1.64836	x ]
0	xa6 ,
0	xkey ,
-0.30103	xle ;
-0.30103	xle =
-0.8081145	xor )
-1.352183	xor -
-1.352183	xor ;
-0.8750613	xor <
-0.8081145	xor =
-1.653213	xor ==
-0.3521825	xor ]
0	xv SOPm
-1.94939	y !=
-1.25042	y (
-0.8702087	y )
-1.25042	y +
-1.94939	y ++
-1.94939	y +=
-1.104292	y ,
-1.472269	y -
-1.25042	y ->
-1.64836	y .
-1.94939	y /
-0.8702087	y ;
-1.34733	y <
-1.94939	y </s>
-0.7189411	y =
-1.94939	y ==
-1.94939	y >>
-1.25042	y [
-1.94939	y ]
-1.64836	y ^
-1.94939	y ^=
-1.94939	y ||
0	yN _
-0.455932	z (
-1.477121	z )
-1.079181	z *
-1.477121	z *=
-1.079181	z +=
-1.477121	z ,
-1.477121	z .
-1	z ;
-1.477121	z </s>
-1.778151	z <<
-1.778151	z <=
-1	z =
-1.079181	z [
-2.416641	{ "('A`)"
-2.416641	{ )
-1.814581	{ *
-1.571543	{ .
-2.416641	{ 0
-2.416641	{ 0x67452301
-2.416641	{ 8
-2.416641	{ 8000
-1.939519	{ ;
-0.5081555	{ </s>
-2.416641	{ D
-2.416641	{ Display
-2.416641	{ F
-2.115611	{ G
-2.115611	{ H
-2.416641	{ I
-2.115611	{ J
-2.416641	{ L
-2.416641	{ M
-2.416641	{ MK6lM
-2.115611	{ O
-2.416641	{ O_
-2.416641	{ Q
-2.416641	{ R
-2.416641	{ S
-2.416641	{ SDL_Rect
-2.416641	{ T
-1.717671	{ U
-2.115611	{ V
-1.375248	{ _
-2.115611	{ a
-1.337459	{ b
-1.939519	{ bc
-2.416641	{ bg
-2.416641	{ bj
-2.416641	{ by
-1.939519	{ c
-1.939519	{ case
-2.115611	{ char
-1.638489	{ d
-2.416641	{ d2
-2.115611	{ float
-1.462398	{ for
-2.416641	{ g
-2.416641	{ i
-1.638489	{ if
-2.416641	{ in
-2.416641	{ initscr
-1.462398	{ int
-1.939519	{ l
-2.416641	{ m
-2.115611	{ n
-1.939519	{ o
-2.416641	{ printf
-2.416641	{ puts
-2.416641	{ px
-1.814581	{ q
-1.638489	{ r
-1.814581	{ return
-2.115611	{ s
-2.416641	{ t
-2.416641	{ timeout
-1.571543	{ u
-2.416641	{ va_list
-1.814581	{ w
-2.115611	{ while
-1.939519	{ x
-2.416641	{ y
-2.115611	{ z
-2.416641	{ {
-1.717671	{ }
-1.102662	| !
-0.6255411	| (
-1.579784	| 1
-1.579784	| 4194304
-1.579784	| 8
-1.579784	| </s>
-1.579784	| O
-1.579784	| _
-1.579784	| arg
-1.278754	| b
-1.278754	| d
-1.579784	| d8ak
-1.278754	| f
-1.579784	| h
-0.9777236	| i
-1.278754	| k
-1.579784	| l
-1.278754	| o
-1.278754	| x
0	|= t
-0.90309	|| !
-1.380211	|| '
-0.60206	|| (
-1.380211	|| *
-1.380211	|| 0
-1.380211	|| </s>
-1.380211	|| Q
-1.380211	|| bE
-1.380211	|| c
-1.380211	|| close
-1.380211	|| i
-1.380211	|| main
-1.380211	|| mvinch
-1.380211	|| r
-1.380211	|| strchr
-1.380211	|| t
-1.380211	|| v
-2.4133	} "|~0y'vWtA@:LcO9d}y.!uL!Gd+ml(<+Ds!J"
-1.936179	} (
-1.635149	} )
-1.635149	} ,
-2.4133	} 0
-1.635149	} ;
-2.4133	} <
-0.5102098	} </s>
-2.4133	} D
-2.4133	} E
-2.4133	} H
-2.4133	} J
-2.4133	} O
-2.4133	} SDL_AudioSpec
-2.11227	} U
-1.936179	} V
-1.936179	} W
-2.4133	} X
-2.4133	} Y
-2.4133	} Z
-1.635149	} _
-2.4133	} a
-2.4133	} ala
-2.4133	} ay
-1.568202	} b
-2.4133	} bc
-2.4133	} bd
-2.4133	} bh
-2.4133	} bj
-2.4133	} bl
-2.4133	} bp
-2.4133	} bq
-2.4133	} break
-2.11227	} c
-2.4133	} char
-2.11227	} e
-1.20918	} else
-2.11227	} extern
-2.11227	} f
-2.4133	} flash
-2.4133	} float
-1.936179	} for
-1.936179	} h
-2.4133	} i
-1.71433	} if
-1.568202	} int
-2.4133	} l
-2.4133	} m
-2.11227	} o
-2.4133	} putchar
-2.4133	} puts
-2.4133	} q
-2.4133	} re
-1.81124	} return
-2.4133	} stat
-2.4133	} static
-2.11227	} typedef
-1.635149	} void
-2.4133	} voidw
-1.81124	} w
-1.81124	} while
-2.4133	} z
-0.8569973	} }
-1.113943	~ (
-1.113943	~ *
-1.113943	~ -
-1.113943	~ </s>
-1.113943	~ M
-1.113943	~ c
-1.113943	~ d
-1.113943	~ g
-1.113943	~ gln
-1.113943	~ h
-1.113943	~ m
-1.113943	~ q
-1.113943	~ }

\end\
