
\data\
ngram 1=854
ngram 2=4901

\1-grams:
-2.388218	!	-99
-2.909118	!=	-99
-3.17236	"	-99
-4.251541	"!:E%;!ea!!!WqE0z!f/y}!%!!Qi6!uzt!n}?]!bl!ak!SetR<"	-99
-4.251541	"!pv!;!Hm%Ro4"	-99
-3.552571	""	-99
-3.77442	"#"	-99
-4.251541	"%."	-99
-4.251541	"%c"	-99
-4.251541	"%d	-99
-4.251541	"%d,%dd%d\n"	-99
-4.251541	"%d\n"	-99
-4.251541	"%da%d,%d\n"	-99
-4.251541	"%da%d\n"	-99
-4.251541	"%dd%d\n"	-99
-3.552571	"%s"	-99
-4.251541	"('A)"	-99
-3.950511	"('A`)"	-99
-4.251541	"(A`)"	-99
-4.251541	"(O**"	-99
-4.251541	")"	-99
-4.251541	");"	-99
-4.251541	"*"	-99
-4.251541	"*_[512],**p=_,**d,b,q;for(b=0;b"	-99
-4.251541	"*p=#b,P[9999],*d=P,*e[]="	-99
-4.251541	"++<512;p=_+q)_[q"	-99
-4.251541	"-"	-99
-4.251541	"/"	-99
-4.251541	"/*;;	-99
-4.251541	"8!@dP,!!o+fb"	-99
-4.251541	"::::::::::::?_::::\"::.::::@:::'::-::::::::;!:):::::,:::::"	-99
-3.77442	";"	-99
-4.251541	";;"	-99
-4.251541	";Gam"	-99
-4.251541	";GlockQ18"	-99
-4.251541	";Heca"	-99
-4.251541	";Time:Q"	-99
-4.251541	";^Q<d|8=o;]Q<dj8<Pk8<c]'?;QQdi8?P'Q)d8<9`8?c;Qdh8=P']Q<`c8>PQ9_8"	-99
-4.251541	"<	-99
-4.251541	"<;iQ=/*do<;dQ=ook8?boc;aQ=odr8>oc;_Q<ox8>oc"	-99
-4.251541	"<o_Q<o_QBdo`QQ';`Q=9`]8=bobQ_o_Q<o]8=';bQC(88cQ`bcgQ>oP']8<;cQ>98)^Q?''oc`Q>"	-99
-4.251541	"=(p-_+1)*9%512]=(O*)p;"	-99
-3.77442	">	-99
-4.251541	">b;og8=''`Q<`b8?'QQ9_8?c;dPe8dQa8<P]Q<``8=;'f8>QQ`]8?ocQQ_8=''_Q`8aQ"	-99
-4.251541	"?guhljL!^P%	-99
-4.251541	"@CADBEHI"	-99
-4.251541	"C:"	-99
-4.251541	"CYOUQWIN!]Q=;of8BQQ)88bc]QA98P'Qo]8>oQQ_8CP;QQ98b`_8@P8(Q`]'^Q=`']QB)88"	-99
-4.251541	"M@K~|JOEF\\^~_NHI]"	-99
-3.649481	"Q"	-99
-4.251541	"Q(j"	-99
-4.251541	"Q(jam"	-99
-4.251541	"Zj$x!~V!n&g8!cK!	-99
-4.251541	"\",\"%s\",\"%s\"},	-99
-4.251541	"\40main(){O"	-99
-4.251541	"\n"	-99
-4.251541	"\n\n\n"	-99
-4.251541	"\xe2%c%c\r\n"	-99
-4.251541	"a"	-99
-4.251541	"bQQ]`8J;QQ`88bc99bd(`8iQ@''QQo^8E'`8c;QQ'Q``8?QQ`'kQ<o]8B9PQQ`';_Q<`_8<cbQ"	-99
-3.950511	"d"	-99
-4.251541	"e.6!r!%l6G!n~^<i=%pEwL%P!'<!FQt%u	-99
-4.251541	"e:|	-99
-4.251541	"eQII:"	-99
-4.251541	"eQover."	-99
-4.251541	"etu"	-99
-4.251541	"f\n"	-99
-4.251541	"hello	-99
-4.251541	"laugh"	-99
-4.251541	"m"	-99
-4.251541	"me"	-99
-4.251541	"med);"	-99
-4.251541	"n:}nkD!Q!kN"	-99
-4.251541	"o("	-99
-4.251541	"oc']Q]8<;cQ>`8bbQA``QQ''`Q?88P;dQ=`)nQ?*/;;"	-99
-4.251541	"oid	-99
-3.77442	"r"	-99
-4.251541	"rn+0;}\n"	-99
-4.251541	"syntax_error!"	-99
-4.251541	"t"	-99
-4.251541	"throw	-99
-4.251541	"usage:	-99
-4.251541	"{;}"	-99
-4.251541	"{\"%s\",	-99
-4.251541	"|~0y'vWtA@:LcO9d}y.!uL!Gd+ml(<+Ds!J"	-99
-2.226235	%	-99
-3.649481	%=	-99
-4.251541	%d\n"	-99
-4.251541	%s	-99
-4.251541	%u/%u	-99
-2.183355	&	-99
-2.302151	&&	-99
-4.251541	&=	-99
-3.210148	'	-99
-4.251541	'(	-99
-3.552571	','	-99
-4.251541	'2O	-99
-4.251541	'7M{N^kh	-99
-4.251541	'='	-99
-4.251541	'Q]	-99
-3.950511	'\n'	-99
-2.746391	'_'	-99
-4.251541	'_3a	-99
-4.251541	'a'	-99
-4.251541	'b5sc!e"	-99
-4.251541	'd'	-99
-4.251541	'h(Q]0h#	-99
-4.251541	'lQ	-99
-4.251541	'nSM8	-99
-4.251541	'|'	-99
-1.109778	(	-99
-1.097117	)	-99
-1.534703	*	-99
-2.588783	*=	-99
-1.864151	+	-99
-2.183355	++	-99
-2.234508	+=	-99
-1.191221	,	-99
-1.823406	-	-99
-2.628292	--	-99
-2.618073	-=	-99
-2.370727	->	-99
-2.278413	.	-99
-3.77442	...	-99
-4.251541	.0	-99
-3.77442	.05	-99
-3.77442	.1	-99
-3.77442	.5	-99
-2.343056	/	-99
-3.406443	/=	-99
-1.925205	0	-99
-3.77442	0.5	-99
-4.251541	0.7	-99
-4.251541	01	-99
-4.251541	02	-99
-4.251541	024	-99
-4.251541	03	-99
-4.251541	040	-99
-4.251541	061	-99
-4.251541	075	-99
-4.251541	0d:`184>b)^15)OM	-99
-3.950511	0u	-99
-4.251541	0x1	-99
-4.251541	0x3f0	-99
-4.251541	0x820008202625a0	-99
-4.251541	0xf	-99
-4.251541	0xfc0	-99
-4.251541	0xfe0	-99
-4.251541	0xff00ff00ff	-99
-4.251541	0xffff	-99
-2.013495	1	-99
-4.251541	1.159922023e9	-99
-3.950511	1.3	-99
-3.950511	1.5	-99
-4.251541	1.6937441874215991e190	-99
-3.17236	10	-99
-4.251541	1008	-99
-4.251541	101	-99
-3.77442	1023	-99
-4.251541	1024	-99
-4.251541	1024.	-99
-4.251541	105	-99
-3.77442	11	-99
-4.251541	1103515245	-99
-4.251541	112	-99
-4.251541	1152	-99
-3.297298	12	-99
-4.251541	12359778	-99
-4.251541	12365733	-99
-3.77442	128	-99
-4.251541	128L	-99
-3.950511	13	-99
-4.251541	13000	-99
-4.251541	138	-99
-3.47339	14	-99
-4.251541	14202379	-99
-3.950511	14695981039346656037ULL	-99
-3.406443	15	-99
-4.251541	1500	-99
-4.251541	158	-99
-2.972787	16	-99
-4.251541	1600	-99
-3.77442	16711935	-99
-4.251541	16774143	-99
-3.950511	16u	-99
-3.77442	17	-99
-4.251541	176	-99
-3.649481	18	-99
-4.251541	19	-99
-4.251541	19205553	-99
-4.251541	193	-99
-4.251541	1933008	-99
-4.251541	194	-99
-4.251541	196	-99
-4.251541	197	-99
-4.251541	198	-99
-4.251541	1l	-99
-3.950511	1u	-99
-2.234508	2	-99
-3.950511	2.	-99
-4.251541	2.271681097355226e15	-99
-3.649481	20	-99
-3.950511	21	-99
-3.950511	22	-99
-3.950511	23	-99
-4.251541	234	-99
-3.406443	24	-99
-4.251541	25	-99
-4.251541	250	-99
-3.552571	255	-99
-3.649481	256	-99
-4.251541	256L	-99
-4.251541	257	-99
-4.251541	258063	-99
-4.251541	26	-99
-4.251541	27	-99
-4.251541	275	-99
-4.251541	276	-99
-4.251541	28	-99
-4.251541	287	-99
-4.251541	2L	-99
-4.251541	2l	-99
-2.388218	3	-99
-4.251541	3'	-99
-4.251541	3.135045272e9	-99
-4.251541	3.9999e5	-99
-3.77442	30	-99
-4.251541	304	-99
-3.77442	31	-99
-2.87133	32	-99
-3.950511	32768	-99
-3.950511	33	-99
-3.950511	333	-99
-4.251541	3352537	-99
-3.77442	34	-99
-3.950511	35	-99
-4.251541	36	-99
-4.251541	37	-99
-3.950511	38	-99
-4.251541	384	-99
-4.251541	39	-99
-4.251541	3920	-99
-2.459149	4	-99
-4.251541	4.023233417e9	-99
-4.251541	4.294967296e9	-99
-4.251541	4.5	-99
-4.251541	4.503599627370496e15	-99
-4.251541	4.522871578970112e217	-99
-4.251541	4.6727004911171048e-153	-99
-3.47339	40	-99
-4.251541	4092	-99
-3.950511	41	-99
-4.251541	41088	-99
-3.950511	4190208	-99
-4.251541	4194304	-99
-3.552571	42	-99
-4.251541	44	-99
-3.950511	45	-99
-4.251541	48	-99
-4.251541	488848	-99
-4.251541	4L	-99
-3.950511	4u	-99
-2.820177	5	-99
-4.251541	50	-99
-4.251541	5000	-99
-4.251541	51	-99
-3.950511	512	-99
-4.251541	512L	-99
-3.950511	5200	-99
-4.251541	5298487	-99
-4.251541	55	-99
-3.77442	56	-99
-4.251541	58	-99
-3.950511	59	-99
-4.251541	5toG57j/3"	-99
-2.671757	6	-99
-3.406443	60	-99
-4.251541	60.	-99
-4.251541	62	-99
-3.77442	63	-99
-3.17236	64	-99
-4.251541	64u	-99
-4.251541	65280	-99
-4.251541	65307	-99
-3.950511	65536	-99
-4.251541	667	-99
-4.251541	67	-99
-4.251541	69	-99
-4.251541	6990400	-99
-2.789143	7	-99
-4.251541	7.5	-99
-4.251541	7.90055321525613e115	-99
-4.251541	70	-99
-4.251541	74	-99
-4.251541	75	-99
-3.649481	768	-99
-3.950511	77	-99
-3.649481	79	-99
-2.579443	8	-99
-4.251541	8.44396048e8	-99
-3.137598	80	-99
-4.251541	8000	-99
-3.950511	81	-99
-4.251541	84	-99
-3.77442	85	-99
-3.950511	86400	-99
-4.251541	88	-99
-4.251541	89	-99
-4.251541	8u	-99
-2.929322	9	-99
-3.950511	90	-99
-4.251541	91	-99
-3.649481	92	-99
-4.251541	93	-99
-4.251541	96	-99
-3.950511	97	-99
-4.251541	98	-99
-4.251541	9858122	-99
-4.251541	99	-99
-4.251541	9999	-99
-4.251541	99999	-99
-2.161636	:	-99
-4.251541	:23h)QN<'	-99
-1.24422	;	-99
-4.251541	;b'	-99
-2.202323	<	-99
-1.223784	</s>
-2.527265	<<	-99
-4.251541	<<=	-99
-3.297298	<=	-99
-4.251541	<P~6"	-99
-99	<s>	-99
-99	<unk>
-1.408308	=	-99
-2.543971	==	-99
-2.425466	>	-99
-3.406443	>=	-99
-2.552571	>>	-99
-3.77442	>>=	-99
-2.222157	?	-99
-4.251541	?"	-99
-2.561345	A	-99
-2.511178	B	-99
-4.251541	BUFSIZ	-99
-2.649481	C	-99
-3.950511	COLS	-99
-2.77442	D	-99
-4.251541	DefaultGC	-99
-4.251541	DefaultVisual	-99
-4.251541	Display	-99
-2.608088	E	-99
-4.251541	E0	-99
-3.950511	E3	-99
-3.210148	EOF	-99
-4.251541	ETIANMSURWDKGOHVF:L:PJBXCYZQ::54:3:::2&:+::::16=/:::(:7:::8:90"	-99
-4.251541	EX	-99
-2.638757	F	-99
-3.950511	F0	-99
-3.950511	F1	-99
-4.251541	F2	-99
-3.552571	FILE	-99
-4.251541	FILENAME_MAX	-99
-4.251541	FV	-99
-3.950511	F_	-99
-2.746391	G	-99
-2.495666	H	-99
-4.251541	HP	-99
-4.251541	HY	-99
-4.251541	H_1	-99
-2.495666	I	-99
-2.909118	J	-99
-2.488113	K	-99
-4.251541	KrgR'8@c]!%-q9V.3fa[E8X%dY'w!#H	-99
-2.206218	L	-99
-3.77442	LINES	-99
-4.251541	LP	-99
-4.251541	L_tmpnam	-99
-2.77442	M	-99
-4.251541	M8q;k'	-99
-4.251541	MJ	-99
-4.251541	MK6lM	-99
-4.251541	McPc	-99
-4.251541	MkQN	-99
-2.543971	N	-99
-4.251541	N4	-99
-4.251541	N8b	-99
-4.251541	N9	-99
-4.251541	N9b	-99
-3.77442	NULL	-99
-4.251541	NUO	-99
-4.251541	N_1'	-99
-4.251541	N_7vN	-99
-2.312022	O	-99
-3.137598	O0	-99
-3.406443	O1	-99
-3.406443	O2	-99
-3.47339	O3	-99
-4.251541	O3NF	-99
-3.552571	O4	-99
-3.47339	O5	-99
-3.649481	O6	-99
-3.649481	O7	-99
-3.77442	O8	-99
-3.77442	O9	-99
-4.251541	OMQ	-99
-4.251541	OMaMch	-99
-4.251541	OMp	-99
-4.251541	ON8r	-99
-3.17236	OO	-99
-4.251541	O^ln	-99
-3.297298	O_	-99
-3.649481	O_o	-99
-4.251541	OaaD	-99
-4.251541	Ok	-99
-4.251541	On	-99
-4.251541	OsR	-99
-2.638757	P	-99
-2.26927	Q	-99
-3.17236	Q0	-99
-3.47339	Q1	-99
-3.406443	Q2	-99
-3.47339	Q3	-99
-3.649481	Q4	-99
-3.649481	Q5	-99
-3.649481	Q6	-99
-3.649481	Q7	-99
-3.77442	Q8	-99
-3.950511	Q9	-99
-4.251541	QH	-99
-4.251541	QL	-99
-3.17236	QO	-99
-3.297298	QQ	-99
-3.950511	QR	-99
-3.950511	QS	-99
-3.47339	Q_	-99
-4.251541	Qr	-99
-2.297298	R	-99
-4.251541	R8	-99
-4.251541	RAFT	-99
-4.251541	RI4	-99
-4.251541	RM	-99
-4.251541	RMPmSk	-99
-4.251541	RP	-99
-4.251541	RlMG	-99
-4.251541	RmM	-99
-4.251541	RmPQ	-99
-4.251541	RootWindow	-99
-3.047421	S	-99
-4.251541	SDL_AudioSpec	-99
-4.251541	SDL_BlitSurface	-99
-4.251541	SDL_CreateRGBSurface	-99
-4.251541	SDL_Delay	-99
-4.251541	SDL_Event	-99
-4.251541	SDL_FillRect	-99
-4.251541	SDL_Flip	-99
-4.251541	SDL_Init	-99
-4.251541	SDL_LoadWAV	-99
-4.251541	SDL_MixAudio	-99
-4.251541	SDL_OpenAudio	-99
-4.251541	SDL_PauseAudio	-99
-4.251541	SDL_PollEvent	-99
-4.251541	SDL_Rect	-99
-4.251541	SDL_SetVideoMode	-99
-4.251541	SDL_Surface	-99
-3.950511	SEEK_SET	-99
-4.251541	SNH	-99
-4.251541	SOPm	-99
-4.251541	SlM90	-99
-4.251541	So	-99
-2.264769	T	-99
-4.251541	TIOCGWINSZ	-99
-4.251541	TMP_MAX	-99
-4.251541	TmS	-99
-4.251541	TmSt	-99
-2.889813	U	-99
-2.695238	V	-99
-2.459149	W	-99
-4.251541	Window	-99
-2.527265	X	-99
-4.251541	XCheckWindowEvent	-99
-4.251541	XCreateImage	-99
-4.251541	XCreateSimpleWindow	-99
-4.251541	XEvent	-99
-4.251541	XImage	-99
-4.251541	XLookupKeysym	-99
-4.251541	XMapWindow	-99
-4.251541	XOpenDisplay	-99
-4.251541	XPutImage	-99
-4.251541	XSelectInput	-99
-2.660476	Y	-99
-2.889813	Z	-99
-1.828295	[	-99
-4.251541	[-d]	-99
-4.251541	\""	-99
-1.792148	]	-99
-2.760179	^	-99
-3.552571	^=	-99
-1.53387	_	-99
-4.251541	_){putchar(_);}O"	-99
-3.297298	_0	-99
-4.251541	_8	-99
-4.251541	_KK3	-99
-3.251541	_O	-99
-3.251541	_Q	-99
-4.251541	_Zadat57	-99
-2.394208	__	-99
-4.251541	__LINE__	-99
-3.950511	__STDC_VERSION__	-99
-3.950511	__STDC__	-99
-4.251541	__TIME__	-99
-4.251541	__VA_ARGS__	-99
-3.77442	___	-99
-2.950511	____	-99
-3.950511	_a	-99
-3.950511	_b	-99
-3.950511	_c	-99
-3.950511	_d	-99
-3.649481	_f	-99
-4.251541	_h	-99
-3.950511	_i	-99
-3.950511	_k	-99
-4.251541	_o	-99
-4.251541	_t	-99
-4.251541	_z	-99
-2.093179	a	-99
-3.950511	a_	-99
-3.950511	abs	-99
-3.406443	ala	-99
-2.720062	and	-99
-3.950511	ar	-99
-3.552571	arg	-99
-3.649481	argh	-99
-3.137598	asn	-99
-3.77442	asp	-99
-3.649481	asx	-99
-3.950511	au	-99
-4.251541	ay	-99
-2.111662	b	-99
-4.251541	b1g	-99
-4.251541	b4	-99
-4.251541	b5g	-99
-3.552571	bA	-99
-3.649481	bB	-99
-3.649481	bC	-99
-3.77442	bD	-99
-3.552571	bE	-99
-4.251541	b\nq(%s)\n"	-99
-3.77442	ba	-99
-3.47339	bb	-99
-3.552571	bc	-99
-3.77442	bd	-99
-3.348451	be	-99
-3.17236	bf	-99
-3.649481	bg	-99
-3.649481	bh	-99
-4.251541	bh'	-99
-3.950511	bi	-99
-3.77442	bj	-99
-3.649481	bk	-99
-3.77442	bl	-99
-3.950511	bm	-99
-3.950511	bn	-99
-3.950511	bo	-99
-3.348451	bp	-99
-3.950511	bq	-99
-3.950511	br	-99
-3.210148	break	-99
-3.77442	bs	-99
-3.47339	bt	-99
-3.47339	bu	-99
-3.649481	buf	-99
-3.950511	bv	-99
-4.251541	bw	-99
-3.950511	bx	-99
-3.47339	by	-99
-3.552571	bz	-99
-2.4522	c	-99
-3.950511	c8	-99
-4.251541	c9	-99
-4.251541	cN	-99
-4.251541	c_X	-99
-4.251541	c_kah%0d9`b'	-99
-3.77442	calloc	-99
-4.251541	case	-99
-4.251541	cb	-99
-4.251541	ch	-99
-2.820177	char	-99
-4.251541	ckQaOrON	-99
-4.251541	close	-99
-2.909118	const	-99
-4.251541	continue	-99
-3.77442	cos	-99
-4.251541	cq	-99
-4.251541	curs_set	-99
-3.47339	cys	-99
-2.168756	d	-99
-4.251541	d2	-99
-4.251541	d77sNOsd	-99
-3.649481	d8	-99
-4.251541	d8ak	-99
-4.251541	dA	-99
-4.251541	dB	-99
-4.251541	dC	-99
-4.251541	d_C	-99
-4.251541	default	-99
-4.251541	defined	-99
-3.552571	do	-99
-4.251541	double	-99
-3.950511	dstr	-99
-4.251541	dup	-99
-3.950511	dup2	-99
-2.307058	e	-99
-4.251541	eep	-99
-2.789143	efine	-99
-2.996268	else	-99
-4.251541	epne	-99
-3.552571	err	-99
-4.251541	errx	-99
-3.552571	exit	-99
-3.77442	exp	-99
-3.77442	extern	-99
-2.255906	f	-99
-4.251541	f3	-99
-4.251541	fabs	-99
-4.251541	fclose	-99
-4.251541	fgetc	-99
-4.251541	file1	-99
-4.251541	file2"	-99
-4.251541	flash	-99
-3.406443	float	-99
-4.251541	float_	-99
-4.251541	flu	-99
-3.950511	fopen	-99
-2.480689	for	-99
-4.251541	fputc	-99
-3.77442	fread	-99
-3.47339	free	-99
-3.950511	fseek	-99
-3.649481	fw	-99
-2.194636	g	-99
-4.251541	getch	-99
-3.649481	getchar	-99
-4.251541	getopt	-99
-3.047421	gln	-99
-3.251541	glu	-99
-3.950511	glx	-99
-3.47339	gly	-99
-4.251541	go	-99
-4.251541	goofy	-99
-2.419032	h	-99
-4.251541	halting	-99
-3.406443	his	-99
-4.251541	ho	-99
-2.108526	i	-99
-2.400283	if	-99
-3.552571	ile	-99
-4.251541	in	-99
-4.251541	initscr	-99
-2.495666	int	-99
-4.251541	int_	-99
-4.251541	intw	-99
-4.251541	ioctl	-99
-2.278413	j	-99
-4.251541	jQ	-99
-4.251541	j_la	-99
-4.251541	j_laaaN	-99
-4.251541	jmp_buf	-99
-2.419032	k	-99
-4.251541	k8b	-99
-4.251541	k9	-99
-4.251541	kP8	-99
-4.251541	k_	-99
-4.251541	kccMcOP	-99
-4.251541	kckQ	-99
-4.251541	kd	-99
-4.251541	key	-99
-4.251541	keysym	-99
-4.251541	kf	-99
-4.251541	kg	-99
-2.348451	l	-99
-3.950511	lM	-99
-4.251541	lNRmO_loa8	-99
-4.251541	lQ	-99
-4.251541	lQoOa	-99
-4.251541	l_	-99
-4.251541	le	-99
-4.251541	lea	-99
-3.649481	leu	-99
-4.251541	lf	-99
-2.929322	long	-99
-4.251541	longjmp	-99
-4.251541	lpeoqempepneu	-99
-4.251541	lrand48	-99
-4.251541	luN	-99
-4.251541	luelue	-99
-4.251541	lwg	-99
-3.297298	lys	-99
-2.466211	m	-99
-3.950511	mR	-99
-4.251541	mR8	-99
-4.251541	mRMmO	-99
-4.251541	mRh	-99
-3.950511	mS	-99
-2.996268	main	-99
-3.950511	malloc	-99
-4.251541	memset	-99
-3.297298	met	-99
-4.251541	mkM	-99
-4.251541	mq9l8b	-99
-4.251541	mva	-99
-4.251541	mvaddstr	-99
-3.950511	mvinch	-99
-4.251541	mvinsch	-99
-2.202323	n	-99
-4.251541	nR	-99
-4.251541	nRmUd	-99
-3.950511	ndif	-99
-4.251541	nk	-99
-2.255906	not	-99
-4.251541	np	-99
-2.081279	o	-99
-4.251541	o(O	-99
-4.251541	oM	-99
-4.251541	oNS	-99
-4.251541	oec	-99
-3.950511	of	-99
-4.251541	og	-99
-3.297298	op	-99
-4.251541	open	-99
-3.47339	optind	-99
-2.353914	p	-99
-4.251541	pOpM866OsRlm	-99
-4.251541	pQaM8m	-99
-4.251541	pRM7O	-99
-4.251541	peoqemtemw	-99
-3.649481	phe	-99
-4.251541	pixels	-99
-3.77442	pow	-99
-4.251541	pread	-99
-3.17236	printf	-99
-3.552571	pro	-99
-4.251541	ptj9	-99
-4.251541	pu	-99
-3.406443	putchar	-99
-3.406443	puts	-99
-4.251541	px	-99
-3.950511	pyl	-99
-2.552571	q	-99
-4.251541	qN	-99
-4.251541	qQ	-99
-2.561345	r	-99
-3.77442	rQ	-99
-4.251541	rR	-99
-3.950511	rand	-99
-4.251541	re	-99
-4.251541	rea	-99
-4.251541	read	-99
-3.950511	realloc	-99
-4.251541	refresh	-99
-2.889813	return	-99
-3.950511	rewind	-99
-4.251541	round	-99
-4.251541	rror	-99
-2.343056	s	-99
-4.251541	sM	-99
-3.950511	sN	-99
-4.251541	sTaa	-99
-4.251541	s_4	-99
-4.251541	scanf	-99
-3.297298	sec	-99
-3.210148	ser	-99
-4.251541	setjmp	-99
-4.251541	shi	-99
-3.950511	short	-99
-3.950511	si	-99
-4.251541	signal	-99
-3.950511	sin	-99
-4.251541	size_t	-99
-3.137598	sizeof	-99
-4.251541	slltwzh	-99
-4.251541	sprintf	-99
-4.251541	sqrt	-99
-3.47339	static	-99
-4.251541	stdin	-99
-4.251541	stdout	-99
-4.251541	strcmp	-99
-3.950511	strlen	-99
-4.251541	strrchr	-99
-4.251541	strtol	-99
-3.47339	struct	-99
-4.251541	switch	-99
-4.251541	sym	-99
-3.552571	sym_	-99
-2.445361	t	-99
-4.251541	tQ	-99
-4.251541	tYv	-99
-4.251541	tape	-99
-4.251541	tch	-99
-4.251541	tgANs	-99
-3.348451	thr	-99
-4.251541	timeout	-99
-3.649481	tla	-99
-4.251541	tmpfile	-99
-4.251541	to	-99
-3.251541	trp	-99
-4.251541	turnY_	-99
-4.251541	typ	-99
-3.950511	type	-99
-3.17236	typedef	-99
-3.251541	tyr	-99
-2.24722	u	-99
-4.251541	uU	-99
-4.251541	ub	-99
-3.950511	union	-99
-3.17236	unk	-99
-3.348451	unsigned	-99
-4.251541	up"	-99
-4.251541	usl	-99
-4.251541	usleep	-99
-4.251541	utchar	-99
-2.317042	v	-99
-4.251541	vOwwRor	-99
-4.251541	vQ	-99
-4.251541	va_arg	-99
-4.251541	va_end	-99
-4.251541	va_list	-99
-4.251541	va_start	-99
-4.251541	vad	-99
-2.804383	val	-99
-2.996268	void	-99
-4.251541	voidw	-99
-4.251541	volatile	-99
-4.251541	vpr	-99
-2.412692	w	-99
-2.909118	while	-99
-4.251541	wnS	-99
-4.251541	world!"	-99
-3.77442	write	-99
-2.322122	x	-99
-4.251541	xa6	-99
-4.251541	xkey	-99
-3.950511	xle	-99
-2.598328	xor	-99
-4.251541	xv	-99
-2.327262	y	-99
-4.251541	yN	-99
-2.438627	z	-99
-3.950511	ze	-99
-1.880473	{	-99
-2.579443	|	-99
-4.251541	|=	-99
-2.929322	||	-99
-1.884185	}	-99
-2.733027	~	-99

\2-grams:
-0.8219302	! !
-0.632874	! (
-1.863323	! )
-1.562293	! *
-1.863323	! --
-1.386202	! </s>
-1.863323	! H
-1.085172	! O
-1.562293	! O9
-1.863323	! P
-1.863323	! Q
-1.863323	! Q0
-1.863323	! Q2
-1.386202	! QO
-1.863323	! _0
-1.386202	! b
-1.863323	! c
-1.863323	! j
-1.863323	! k
-1.863323	! l
-1.863323	! n
-1.863323	! o
-1.863323	! printf
-1.863323	! setjmp
-1.863323	! strcmp
-1.562293	! t
-1.863323	! u
-1.386202	! v
-1.562293	! x
-1.863323	! z
-1.342423	!= '
-1.342423	!= -
-1.342423	!= 0
-1.342423	!= 98
-1.342423	!= B
-1.041393	!= EOF
-1.342423	!= NULL
-1.342423	!= __
-1.041393	!= b
-1.342423	!= bk
-1.342423	!= f
-1.041393	!= gln
-1.041393	!= h
-1.342423	!= mvinch
-1.342423	!= sizeof
-1.342423	!= trp
-1.342423	!= u
-1.342423	!= v
-1.079181	" "
-1.079181	" %d\n"
-1.079181	" %u/%u
-0.4771213	" )
-0.4771213	" ,
-1.079181	" ETIANMSURWDKGOHVF:L:PJBXCYZQ::54:3:::2&:+::::16=/:::(:7:::8:90"
0	"!:E%;!ea!!!WqE0z!f/y}!%!!Qi6!uzt!n}?]!bl!ak!SetR<" </s>
0	"!pv!;!Hm%Ro4" "n:}nkD!Q!kN"
-0.69897	"" "@CADBEHI"
-0.69897	"" :
-0.2218488	"" </s>
0	"#" )
0	"%." "f\n"
0	"%c" ,
0	"%d "
0	"%d,%dd%d\n" ,
0	"%d\n" ,
0	"%da%d,%d\n" ,
0	"%da%d\n" ,
0	"%dd%d\n" ,
-0.69897	"%s" "\",\"%s\",\"%s\"},
-0.09691001	"%s" ,
0	"('A)" ,
-0.30103	"('A`)" </s>
-0.30103	"('A`)" }
0	"(A`)" ,
0	"(O**" </s>
0	")" )
0	");" )
0	"*" ""
0	"*_[512],**p=_,**d,b,q;for(b=0;b" "++<512;p=_+q)_[q"
0	"*p=#b,P[9999],*d=P,*e[]=" "{\"%s\",
0	"++<512;p=_+q)_[q" </s>
0	"-" ,
0	"/" )
0	"/*;; "
0	"8!@dP,!!o+fb" </s>
0	"::::::::::::?_::::\"::.::::@:::'::-::::::::;!:):::::,:::::" ;
-0.4771213	";" )
-0.4771213	";" :
-0.4771213	";" </s>
0	";;" )
0	";Gam" "eQover."
0	";GlockQ18" "C:"
0	";Heca" "t"
0	";Time:Q" )
0	";^Q<d|8=o;]Q<dj8<Pk8<c]'?;QQdi8?P'Q)d8<9`8?c;Qdh8=P']Q<`c8>PQ9_8" </s>
0	"< "
0	"<;iQ=/*do<;dQ=ook8?boc;aQ=odr8>oc;_Q<ox8>oc" </s>
0	"<o_Q<o_QBdo`QQ';`Q=9`]8=bobQ_o_Q<o]8=';bQC(88cQ`bcgQ>oP']8<;cQ>98)^Q?''oc`Q>" </s>
0	"=(p-_+1)*9%512]=(O*)p;" )
0	"> "
0	">b;og8=''`Q<`b8?'QQ9_8?c;dPe8dQa8<P]Q<``8=;'f8>QQ`]8?ocQQ_8=''_Q`8aQ" </s>
0	"?guhljL!^P% ?"
0	"@CADBEHI" )
0	"C:" "Q"
0	"CYOUQWIN!]Q=;of8BQQ)88bc]QA98P'Qo]8>oQQ_8CP;QQ98b`_8@P8(Q`]'^Q=`']QB)88" </s>
0	"M@K~|JOEF\\^~_NHI]" ;
0	"Q" )
0	"Q(j" "a"
0	"Q(jam" </s>
0	"Zj$x!~V!n&g8!cK! KrgR'8@c]!%-q9V.3fa[E8X%dY'w!#H
0	"\",\"%s\",\"%s\"}, b\nq(%s)\n"
0	"\40main(){O" ""
0	"\n" )
0	"\n\n\n" </s>
0	"\xe2%c%c\r\n" O_
0	"a" "m"
0	"bQQ]`8J;QQ`88bc99bd(`8iQ@''QQo^8E'`8c;QQ'Q``8?QQ`'kQ<o]8B9PQQ`';_Q<`_8<cbQ" </s>
-0.30103	"d" ")"
-0.30103	"d" )
0	"e.6!r!%l6G!n~^<i=%pEwL%P!'<!FQt%u 5toG57j/3"
0	"e:| 'b5sc!e"
0	"eQII:" "Q"
0	"eQover." </s>
0	"etu" "rn+0;}\n"
0	"f\n" ,
0	"hello world!"
0	"laugh" )
0	"m" "me"
0	"me" "d"
0	"med);" )
0	"n:}nkD!Q!kN" </s>
0	"o(" )
0	"oc']Q]8<;cQ>`8bbQA``QQ''`Q?88P;dQ=`)nQ?*/;;" ;
0	"oid o(O
-0.1760913	"r" )
-0.4771213	"r" </s>
0	"rn+0;}\n" )
0	"syntax_error!" </s>
0	"t" "eQII:"
0	"throw up"
0	"usage: %s
0	"{;}" :
0	"{\"%s\", \""
0	"|~0y'vWtA@:LcO9d}y.!uL!Gd+ml(<+Ds!J" </s>
-1.724276	% %
-2.025306	% &
-1.548185	% (
-2.025306	% -
-2.025306	% /
-2.025306	% 03
-2.025306	% 1500
-1.724276	% 16
-2.025306	% 176
-2.025306	% 198
-0.9839132	% 2
-1.247155	% 3
-2.025306	% 32
-2.025306	% 384
-1.724276	% 4
-2.025306	% 512
-2.025306	% 6
-1.423246	% 64
-2.025306	% 7
-2.025306	% 768
-1.548185	% 8
-2.025306	% 86400
-2.025306	% 93
-2.025306	% :
-1.326336	% </s>
-1.724276	% >
-2.025306	% I
-1.724276	% M
-2.025306	% N
-2.025306	% N4
-2.025306	% N8b
-2.025306	% N9b
-1.724276	% O
-2.025306	% O3
-2.025306	% O4
-1.180208	% Q
-1.724276	% QQ
-2.025306	% Qr
-2.025306	% R
-2.025306	% ]
-2.025306	% ^
-1.724276	% _
-1.724276	% __
-2.025306	% _h
-2.025306	% c
-2.025306	% c9
-2.025306	% d8
-2.025306	% dA
-2.025306	% dB
-2.025306	% dC
-1.548185	% g
-2.025306	% lNRmO_loa8
-2.025306	% mR
-2.025306	% mRMmO
-2.025306	% mRh
-2.025306	% mS
-2.025306	% n
-2.025306	% q
-2.025306	% rQ
-2.025306	% strlen
-2.025306	% w
-1.724276	% {
-0.60206	%= 1
-0.60206	%= 64
-0.60206	%= 8
-0.60206	%= z
0	%d\n" ,
0	%s [-d]
0	%u/%u "
-2.068186	& !
-2.068186	& %
-1.767156	& (
-1.466126	& *
-2.068186	& --
-2.068186	& 0
-2.068186	& 0x3f0
-2.068186	& 0xf
-2.068186	& 0xfe0
-2.068186	& 0xff00ff00ff
-1.290035	& 1
-2.068186	& 1008
-1.591065	& 1023
-2.068186	& 12
-2.068186	& 128
-2.068186	& 14
-1.369216	& 15
-1.767156	& 16
-1.767156	& 16711935
-2.068186	& 16774143
-1.290035	& 3
-2.068186	& 31
-2.068186	& 32
-2.068186	& 4
-2.068186	& 4092
-1.767156	& 4190208
-2.068186	& 6
-1.591065	& 63
-2.068186	& 64
-2.068186	& 65280
-2.068186	& 7
-2.068186	& 8
-2.068186	& 9
-2.068186	& ;
-2.068186	& <
-1.466126	& </s>
-2.068186	& B
-2.068186	& C
-2.068186	& L
-1.767156	& M
-1.767156	& N
-2.068186	& O
-1.767156	& OO
-1.767156	& Q
-2.068186	& S
-2.068186	& T
-2.068186	& TmS
-2.068186	& ^
-1.466126	& _
-2.068186	& a
-1.767156	& arg
-2.068186	& asn
-2.068186	& bE
-2.068186	& bn
-2.068186	& bo
-2.068186	& bv
-1.767156	& c
-2.068186	& d
-2.068186	& e
-1.767156	& glu
-2.068186	& h
-2.068186	& i
-2.068186	& kccMcOP
-2.068186	& kckQ
-1.591065	& not
-1.767156	& o
-2.068186	& pRM7O
-2.068186	& r
-1.767156	& tyr
-2.068186	& w
-1.767156	& x
-2.068186	& y
-1.767156	& ~
-0.9951475	&& !
-0.44424	&& (
-1.94939	&& *
-1.94939	&& ++
-1.94939	&& 0
-1.94939	&& 101
-1.94939	&& 258063
-1.94939	&& 34
-1.64836	&& </s>
-1.472269	&& A
-1.94939	&& B
-1.94939	&& F
-1.94939	&& G
-1.94939	&& R
-1.94939	&& T
-1.94939	&& Z
-1.94939	&& _
-1.94939	&& _0
-1.472269	&& a
-1.94939	&& b
-1.94939	&& bf
-1.94939	&& bg
-1.94939	&& d
-1.94939	&& g
-1.94939	&& h
-1.94939	&& j
-1.64836	&& n
-1.64836	&& o
-1.94939	&& putchar
-1.94939	&& q
-1.94939	&& r
-1.94939	&& read
-1.34733	&& s
-1.34733	&& v
-1.94939	&& x
-1.64836	&& y
0	&= z
-0.4393327	' '
-1.041393	' )
-0.7403627	' </s>
-1.041393	' M8q;k'
-1.041393	' Q
-1.041393	' nR
-1.041393	' ||
0	'( 0d:`184>b)^15)OM
-0.69897	',' )
-0.09691001	',' ,
0	'2O 3'
0	'7M{N^kh '
0	'=' )
0	'Q] bh'
0	'\n' )
-0.7269987	'_' )
-0.09017663	'_' ,
0	'_3a N_1'
0	'a' ,
0	'b5sc!e" </s>
0	'd' :
0	'h(Q]0h# c_kah%0d9`b'
0	'lQ O^ln
0	'nSM8 '
0	'|' :
-1.937643	( !
-3.141763	( "
-3.141763	( ""
-2.664642	( "#"
-3.141763	( "%."
-3.141763	( "%c"
-3.141763	( "%d,%dd%d\n"
-3.141763	( "%d\n"
-3.141763	( "%da%d,%d\n"
-3.141763	( "%da%d\n"
-3.141763	( "%dd%d\n"
-3.141763	( "%s"
-3.141763	( "(O**"
-3.141763	( ");"
-3.141763	( "*"
-3.141763	( "-"
-3.141763	( "/*;;
-2.840733	( ";"
-3.141763	( ";Heca"
-3.141763	( ";Time:Q"
-3.141763	( "<
-3.141763	( ">
-2.840733	( "Q"
-3.141763	( "\n"
-3.141763	( "hello
-3.141763	( "laugh"
-3.141763	( "o("
-3.141763	( "r"
-3.141763	( "throw
-2.539703	( %
-2.141763	( &
-3.141763	( '
-3.141763	( ','
-2.296665	( '_'
-1.356433	( (
-0.9774104	( )
-1.636613	( *
-2.539703	( ++
-2.840733	( ,
-2.238673	( -
-3.141763	( .05
-2.840733	( .5
-2.840733	( /
-1.799341	( 0
-3.141763	( 075
-1.743823	( 1
-3.141763	( 10
-3.141763	( 105
-3.141763	( 12
-3.141763	( 13
-2.840733	( 16
-1.86301	( 2
-3.141763	( 22
-3.141763	( 24
-3.141763	( 255
-3.141763	( 256L
-3.141763	( 2l
-2.062582	( 3
-3.141763	( 32
-3.141763	( 34
-3.141763	( 38
-2.187521	( 4
-3.141763	( 40
-2.840733	( 41
-2.840733	( 42
-3.141763	( 45
-2.442793	( 5
-3.141763	( 59
-2.840733	( 6
-2.840733	( 60
-2.840733	( 64
-3.141763	( 67
-3.141763	( 7
-3.141763	( 70
-2.664642	( 8
-2.442793	( 9
-3.141763	( 97
-3.141763	( 99999
-1.995635	( ;
-1.72679	( </s>
-2.664642	( =
-2.187521	( A
-2.296665	( B
-1.886491	( C
-2.840733	( D
-2.664642	( E
-2.141763	( F
-2.840733	( FILE
-3.141763	( F_
-2.539703	( G
-2.238673	( H
-2.442793	( I
-2.840733	( J
-2.100371	( K
-1.409369	( L
-3.141763	( LINES
-2.363612	( M
-2.442793	( N
-1.886491	( O
-3.141763	( O0
-2.539703	( O2
-3.141763	( O3
-3.141763	( O4
-2.840733	( O5
-3.141763	( O6
-2.840733	( OO
-2.664642	( O_o
-2.062582	( P
-1.886491	( Q
-2.664642	( Q0
-2.840733	( Q1
-3.141763	( Q2
-3.141763	( Q5
-3.141763	( Q6
-2.664642	( QO
-3.141763	( QQ
-2.187521	( R
-3.141763	( RAFT
-1.937643	( T
-2.539703	( U
-2.442793	( V
-2.238673	( W
-1.694605	( X
-3.141763	( XCheckWindowEvent
-3.141763	( XMapWindow
-2.442793	( Y
-2.363612	( Z
-3.141763	( ^
-1.266702	( _
-2.442793	( _O
-2.840733	( _Q
-2.442793	( __
-3.141763	( __LINE__
-3.141763	( __STDC_VERSION__
-1.761552	( a
-2.840733	( ala
-1.799341	( and
-3.141763	( ar
-2.664642	( argh
-2.539703	( asn
-2.840733	( asp
-3.141763	( asx
-2.296665	( b
-3.141763	( be
-2.840733	( bk
-3.141763	( br
-2.840733	( bu
-2.840733	( buf
-3.141763	( by
-2.296665	( c
-3.141763	( cN
-3.141763	( cb
-2.296665	( char
-2.664642	( const
-3.141763	( cos
-3.141763	( curs_set
-2.539703	( cys
-2.296665	( d
-3.141763	( dup2
-2.187521	( e
-1.86301	( f
-3.141763	( float_
-3.141763	( flu
-1.911314	( g
-3.141763	( gln
-3.141763	( glu
-2.141763	( h
-1.679365	( i
-2.664642	( ile
-2.100371	( int
-3.141763	( int_
-1.799341	( j
-1.965672	( k
-2.062582	( l
-3.141763	( lQ
-3.141763	( lQoOa
-3.141763	( luN
-2.840733	( lys
-2.02782	( m
-3.141763	( memset
-2.442793	( met
-1.7104	( n
-1.840733	( not
-2.100371	( o
-2.238673	( p
-3.141763	( pread
-3.141763	( printf
-3.141763	( pro
-2.840733	( puts
-2.442793	( q
-3.141763	( qQ
-2.442793	( r
-3.141763	( rR
-2.664642	( s
-2.840733	( sec
-2.238673	( ser
-3.141763	( short
-2.840733	( sizeof
-3.141763	( stdout
-2.539703	( sym_
-2.187521	( t
-3.141763	( tQ
-3.141763	( tch
-3.141763	( tla
-3.141763	( to
-2.442793	( u
-3.141763	( uU
-3.141763	( ub
-3.141763	( usl
-1.965672	( v
-3.141763	( va_arg
-3.141763	( val
-2.840733	( void
-1.965672	( w
-2.141763	( x
-2.238673	( xor
-2.062582	( y
-2.363612	( z
-2.840733	( ze
-3.141763	( {
-3.141763	( }
-3.141763	( ~
-2.455454	) !=
-3.154424	) "\xe2%c%c\r\n"
-1.950304	) %
-2.455454	) &
-1.87567	) &&
-1.42203	) (
-0.9783327	) )
-1.214905	) *
-2.376273	) *=
-1.622945	) +
-2.251334	) +=
-1.137391	) ,
-1.756484	) -
-2.455454	) -=
-2.853394	) .
-3.154424	) .0
-2.040481	) /
-3.154424	) 0
-3.154424	) 0u
-2.853394	) 16u
-2.853394	) 1u
-3.154424	) 21
-3.154424	) 64u
-3.154424	) 8u
-1.692026	) :
-0.6574943	) ;
-2.309326	) <
-1.219926	) </s>
-2.251334	) <<
-2.455454	) =
-2.552364	) ==
-2.455454	) >
-2.677303	) >=
-2.455454	) >>
-1.978333	) ?
-3.154424	) B
-2.853394	) E3
-2.853394	) F
-3.154424	) F0
-3.154424	) F1
-2.075243	) G
-2.455454	) J
-3.154424	) K
-2.677303	) L
-3.154424	) O
-3.154424	) O5
-2.552364	) O_
-3.154424	) P
-3.154424	) Q
-2.853394	) QR
-3.154424	) QS
-3.154424	) Q_
-2.853394	) R
-3.154424	) S
-3.154424	) U
-2.853394	) W
-3.154424	) X
-3.154424	) Y
-2.376273	) [
-1.473183	) ]
-2.853394	) ^
-2.113031	) _
-2.853394	) __
-3.154424	) ___
-1.899151	) ____
-3.154424	) _d
-3.154424	) _f
-2.853394	) a
-2.853394	) asx
-2.853394	) b
-2.853394	) bd
-2.677303	) break
-3.154424	) bt
-3.154424	) by
-2.853394	) c
-3.154424	) continue
-2.853394	) d
-2.853394	) d8
-3.154424	) err
-2.677303	) exit
-2.376273	) for
-3.154424	) g
-3.154424	) glx
-2.853394	) h
-2.376273	) if
-2.853394	) int
-2.677303	) l
-3.154424	) lys
-3.154424	) m
-3.154424	) n
-2.853394	) not
-3.154424	) o
-3.154424	) printf
-3.154424	) q
-2.552364	) r
-2.853394	) s
-3.154424	) scanf
-3.154424	) sec
-3.154424	) t
-2.677303	) tyr
-2.853394	) u
-2.853394	) v
-2.677303	) w
-3.154424	) x
-2.677303	) z
-0.9064507	) {
-2.455454	) |
-2.552364	) ||
-2.853394	) ~
-1.938686	* !
-1.093588	* (
-1.637656	* )
-1.675445	* *
-2.716838	* +
-1.813748	* ++
-2.716838	* ,
-2.716838	* -
-2.239717	* --
-2.716838	* .1
-2.716838	* .5
-2.415808	* 0
-2.716838	* 1
-2.716838	* 1.6937441874215991e190
-2.114778	* 10
-2.716838	* 11
-2.716838	* 1103515245
-2.716838	* 12
-2.239717	* 16
-2.716838	* 17
-2.716838	* 193
-1.813748	* 2
-2.716838	* 23
-2.114778	* 3
-2.716838	* 32
-2.716838	* 39
-1.762595	* 4
-2.716838	* 4.522871578970112e217
-2.716838	* 4.6727004911171048e-153
-2.415808	* 42
-2.716838	* 51
-2.716838	* 512L
-2.716838	* 5298487
-2.415808	* 7
-2.716838	* 7.90055321525613e115
-2.415808	* 768
-2.716838	* 8
-1.716838	* 80
-2.716838	* 81
-2.716838	* 85
-2.415808	* 9
-2.716838	* 92
-1.35511	* </s>
-2.114778	* A
-2.415808	* B
-2.114778	* C
-1.87174	* E
-2.017868	* I
-1.87174	* K
-2.114778	* L
-2.716838	* L_tmpnam
-1.938686	* N
-2.239717	* O
-2.017868	* O0
-2.415808	* O3
-2.716838	* O4
-2.415808	* O6
-1.675445	* Q
-2.716838	* Q0
-2.716838	* Q1
-2.716838	* Q2
-2.114778	* Q3
-2.716838	* Q5
-2.716838	* Q7
-2.716838	* Q9
-2.716838	* QO
-2.415808	* QQ
-2.415808	* R
-2.415808	* S
-1.301864	* T
-2.716838	* U
-2.716838	* V
-2.415808	* W
-1.813748	* X
-2.017868	* Y
-2.716838	* ]
-1.438084	* _
-2.114778	* _0
-2.716838	* _O
-2.415808	* __
-2.716838	* ___
-2.239717	* a
-1.87174	* b
-2.716838	* bD
-2.716838	* ba
-2.239717	* bb
-2.716838	* be
-2.716838	* br
-2.716838	* bx
-1.938686	* c
-2.716838	* c_X
-2.017868	* const
-1.762595	* d
-1.87174	* e
-1.762595	* f
-1.762595	* g
-2.114778	* i
-2.239717	* j
-2.239717	* k
-2.239717	* l
-2.716838	* m
-1.938686	* n
-2.017868	* not
-1.239716	* o
-1.415808	* p
-2.716838	* printf
-1.87174	* q
-2.239717	* r
-1.675445	* s
-2.716838	* sin
-2.239717	* sizeof
-2.415808	* t
-2.415808	* tyr
-1.57071	* u
-2.415808	* x
-2.114778	* y
-2.415808	* z
-1.662758	*= !
-1.361728	*= (
-1.361728	*= -
-1.662758	*= 0
-1.662758	*= 0.7
-1.662758	*= 02
-1.185637	*= 1
-1.662758	*= 256
-1.662758	*= C
-1.662758	*= I
-0.8846066	*= Q
-1.361728	*= Y
-1.662758	*= _
-0.7596679	*= g
-0.6627578	*= o
-1.361728	*= s
-1.662758	*= t
-1.662758	*= u
-1.662758	*= z
-2.08636	+ !
-0.8688759	+ (
-1.68842	+ )
-2.08636	+ *
-2.38739	+ ,
-1.910269	+ 0
-2.38739	+ 0.5
-0.9724165	+ 1
-2.38739	+ 1.5
-2.38739	+ 11
-2.38739	+ 12
-2.38739	+ 128L
-2.38739	+ 138
-2.08636	+ 16
-2.38739	+ 18
-2.38739	+ 19205553
-1.433147	+ 2
-2.38739	+ 287
-2.38739	+ 2L
-1.609239	+ 3
-2.38739	+ 32
-2.08636	+ 4
-2.38739	+ 4.5
-2.38739	+ 42
-2.38739	+ 44
-2.38739	+ 4L
-2.38739	+ 5
-2.38739	+ 58
-2.38739	+ 6
-2.38739	+ 667
-2.38739	+ 7
-2.38739	+ 74
-2.38739	+ 79
-2.08636	+ 8
-2.38739	+ 84
-2.38739	+ 86400
-2.38739	+ 99
-1.4843	+ </s>
-2.38739	+ A
-2.08636	+ B
-2.38739	+ C
-2.38739	+ E
-2.38739	+ EOF
-1.910269	+ F
-1.910269	+ H
-2.38739	+ J
-1.910269	+ N
-2.38739	+ O4
-2.38739	+ P
-2.38739	+ Q
-2.38739	+ Q0
-2.38739	+ Q5
-2.38739	+ R
-2.38739	+ T
-2.38739	+ TMP_MAX
-2.38739	+ V
-2.38739	+ X
-2.38739	+ Y
-1.609239	+ _
-2.38739	+ _Q
-1.910269	+ __
-2.08636	+ __STDC__
-1.542292	+ a
-2.38739	+ abs
-2.38739	+ asn
-2.38739	+ b
-1.78533	+ c
-2.38739	+ cos
-1.910269	+ d
-2.08636	+ e
-2.08636	+ f
-1.78533	+ g
-1.609239	+ i
-2.38739	+ j
-1.910269	+ l
-1.910269	+ m
-1.78533	+ n
-1.609239	+ o
-2.38739	+ p
-2.38739	+ q
-1.609239	+ s
-2.38739	+ sTaa
-1.910269	+ t
-1.68842	+ u
-2.38739	+ unk
-2.08636	+ v
-2.38739	+ wnS
-1.78533	+ x
-2.38739	+ y
-2.38739	+ z
-1.910269	+ ~
-1.466126	++ %
-2.068186	++ &
-2.068186	++ &&
-0.7671559	++ )
-1.767156	++ *
-2.068186	++ +=
-1.466126	++ ,
-1.767156	++ -
-2.068186	++ /
-1.767156	++ :
-1.026793	++ ;
-1.369216	++ <
-1.369216	++ </s>
-2.068186	++ <=
-1.026793	++ =
-2.068186	++ ==
-2.068186	++ ?
-1.767156	++ N
-1.466126	++ T
-1.113943	++ ]
-1.767156	++ c
-2.068186	++ f
-2.068186	++ g
-2.068186	++ ile
-1.591065	++ j
-2.068186	++ l
-2.068186	++ leu
-2.068186	++ n
-1.591065	++ not
-2.068186	++ p
-2.068186	++ q
-1.767156	++ s
-2.068186	++ s_4
-1.767156	++ tla
-2.068186	++ u
-2.068186	++ v
-1.290035	++ xor
-1.414973	+= !
-2.017033	+= 'a'
-1.017033	+= (
-2.017033	+= .05
-2.017033	+= .1
-2.017033	+= 0.5
-1.539912	+= 1
-2.017033	+= 1.5
-2.017033	+= 16
-2.017033	+= 194
-1.716003	+= 2
-2.017033	+= 21
-2.017033	+= 4u
-2.017033	+= 7
-2.017033	+= A
-1.716003	+= E
-1.716003	+= F
-1.414973	+= H
-2.017033	+= K
-2.017033	+= M
-1.414973	+= O1
-2.017033	+= O8
-2.017033	+= Q
-1.716003	+= U
-1.716003	+= V
-1.539912	+= Y
-2.017033	+= _
-1.539912	+= a
-1.716003	+= be
-1.716003	+= bf
-2.017033	+= bt
-2.017033	+= c
-1.539912	+= d
-1.716003	+= e
-1.414973	+= g
-2.017033	+= h
-1.318063	+= i
-1.318063	+= l
-1.062791	+= o
-2.017033	+= p
-2.017033	+= printf
-2.017033	+= r
-1.716003	+= s
-1.716003	+= u
-1.716003	+= v
-1.539912	+= w
-3.06032	, !
-3.06032	, "
-2.583199	, "%s"
-3.06032	, "('A)"
-3.06032	, "('A`)"
-3.06032	, "(A`)"
-2.75929	, ">
-3.06032	, "d"
-2.75929	, "r"
-3.06032	, "usage:
-2.106077	, &
-2.45826	, ','
-1.66238	, '_'
-1.75929	, (
-2.018927	, )
-1.45826	, *
-2.75929	, ++
-2.583199	, ,
-2.75929	, -
-3.06032	, --
-2.583199	, ...
-1.397562	, 0
-1.805048	, 1
-3.06032	, 1.3
-2.583199	, 16
-2.15723	, 2
-3.06032	, 24
-3.06032	, 256
-2.36135	, 3
-3.06032	, 3.9999e5
-2.583199	, 32
-2.75929	, 6
-3.06032	, 60
-2.75929	, 8
-3.06032	, 85
-3.06032	, 9
-3.06032	, <
-1.388222	, </s>
-2.75929	, =
-2.282169	, A
-2.106077	, B
-2.282169	, C
-2.583199	, D
-3.06032	, DefaultGC
-3.06032	, DefaultVisual
-2.45826	, E
-3.06032	, EOF
-2.282169	, F
-3.06032	, F_
-2.75929	, G
-2.36135	, H
-2.36135	, I
-2.583199	, J
-1.946377	, K
-2.282169	, L
-2.45826	, M
-2.018927	, N
-1.914192	, O
-2.282169	, O0
-3.06032	, O1
-2.75929	, O2
-3.06032	, O3
-3.06032	, O4
-2.75929	, O5
-3.06032	, O6
-3.06032	, O7
-3.06032	, O8
-3.06032	, O9
-2.75929	, OO
-2.583199	, P
-1.981139	, Q
-2.45826	, Q0
-2.75929	, Q1
-2.583199	, Q2
-3.06032	, Q3
-2.583199	, Q4
-3.06032	, Q5
-2.75929	, Q6
-3.06032	, Q7
-3.06032	, Q8
-3.06032	, Q9
-2.583199	, QO
-3.06032	, QQ
-3.06032	, QS
-1.437071	, R
-3.06032	, RootWindow
-2.583199	, S
-2.75929	, SEEK_SET
-2.215222	, T
-3.06032	, TIOCGWINSZ
-2.45826	, U
-2.75929	, V
-2.215222	, W
-2.75929	, X
-2.583199	, Y
-0.6554863	, _
-3.06032	, _0
-2.583199	, _O
-2.583199	, _Q
-1.981139	, __
-3.06032	, __VA_ARGS__
-3.06032	, _f
-3.06032	, _i
-1.946377	, a
-3.06032	, a_
-3.06032	, ar
-3.06032	, arg
-2.75929	, au
-2.06032	, b
-2.75929	, bA
-2.75929	, bB
-2.75929	, bC
-2.75929	, bD
-3.06032	, bb
-3.06032	, be
-2.75929	, bf
-3.06032	, bg
-3.06032	, bi
-3.06032	, bo
-3.06032	, bq
-3.06032	, bt
-3.06032	, bu
-3.06032	, bv
-2.75929	, bz
-2.282169	, c
-3.06032	, c8
-3.06032	, ch
-2.36135	, char
-2.45826	, const
-1.8562	, d
-3.06032	, do
-2.75929	, dstr
-3.06032	, dup
-1.981139	, e
-3.06032	, eep
-2.15723	, f
-3.06032	, fopen
-3.06032	, fw
-2.282169	, g
-2.75929	, gln
-2.583199	, glu
-3.06032	, go
-2.215222	, h
-3.06032	, halting
-3.06032	, ho
-1.66238	, i
-2.75929	, int
-3.06032	, intw
-3.06032	, ioctl
-1.946377	, j
-2.15723	, k
-2.106077	, l
-3.06032	, le
-3.06032	, lea
-3.06032	, longjmp
-3.06032	, lys
-2.106077	, m
-1.829871	, n
-3.06032	, np
-1.884229	, o
-3.06032	, oec
-2.75929	, of
-3.06032	, op
-2.018927	, p
-3.06032	, pow
-3.06032	, pu
-2.75929	, q
-2.15723	, r
-3.06032	, rand
-2.15723	, s
-3.06032	, shi
-2.75929	, si
-2.45826	, sizeof
-3.06032	, sprintf
-3.06032	, stdin
-3.06032	, strlen
-3.06032	, sym_
-1.8562	, t
-3.06032	, tape
-1.829871	, u
-3.06032	, unk
-3.06032	, usleep
-2.15723	, v
-3.06032	, vad
-3.06032	, val
-3.06032	, vpr
-2.106077	, w
-3.06032	, write
-1.981139	, x
-2.15723	, y
-2.75929	, z
-3.06032	, ~
-2.127105	- &
-1.348954	- (
-2.428135	- )
-2.127105	- *
-2.428135	- .05
-2.428135	- 0.5
-0.8718323	- 1
-2.428135	- 1.3
-2.428135	- 12
-2.428135	- 128
-2.428135	- 14202379
-2.428135	- 158
-2.428135	- 16
-2.428135	- 19
-2.428135	- 1933008
-1.826075	- 2
-2.428135	- 22
-2.428135	- 257
-1.583037	- 3
-2.428135	- 304
-1.951014	- 32
-2.127105	- 33
-2.428135	- 35
-2.428135	- 4
-2.428135	- 488848
-2.428135	- 4u
-2.428135	- 5
-2.428135	- 59
-1.826075	- 6
-2.428135	- 60
-2.428135	- 64
-2.127105	- 7
-2.428135	- 7.5
-2.428135	- 8
-2.428135	- 89
-1.826075	- 9
-2.127105	- 90
-1.525045	- </s>
-2.127105	- A
-2.127105	- B
-1.951014	- D
-2.127105	- E
-1.951014	- EOF
-2.428135	- F
-1.826075	- H
-1.951014	- I
-2.428135	- K
-2.428135	- L
-2.428135	- M
-2.428135	- O1
-2.428135	- O7
-2.127105	- OO
-2.428135	- P
-2.127105	- Q
-2.428135	- Q0
-2.428135	- QO
-2.428135	- R
-2.127105	- V
-1.951014	- W
-2.428135	- X
-2.428135	- Y
-1.951014	- _
-2.428135	- _O
-2.428135	- _Q
-1.428135	- __
-1.729165	- a
-2.127105	- asn
-1.649984	- b
-1.649984	- c
-1.729165	- d
-2.428135	- d8
-2.428135	- dup2
-1.951014	- e
-1.525045	- f
-1.951014	- g
-1.951014	- h
-1.729165	- i
-1.826075	- j
-1.951014	- k
-2.428135	- l
-1.951014	- m
-1.649984	- n
-1.951014	- o
-1.826075	- p
-2.428135	- q
-2.428135	- r
-2.127105	- s
-2.127105	- u
-1.729165	- unk
-2.428135	- v
-1.951014	- x
-1.314191	- ~
-1.623249	-- &&
-0.6690068	-- )
-1.322219	-- ,
-0.9242793	-- ;
-1.322219	-- </s>
-1.322219	-- =
-1.322219	-- >
-1.623249	-- E
-1.623249	-- H
-1.322219	-- O
-0.845098	-- T
-1.322219	-- [
-1.623249	-- g
-1.623249	-- j
-1.623249	-- q
-1.623249	-- s
-1.623249	-- v
-1.623249	-- val
-1.623249	-- xor
-1.156347	-= (
-1.633469	-= 061
-1.633469	-= 2
-1.633469	-= 4
-1.633469	-= 80
-1.633469	-= </s>
-1.633469	-= D
-1.633469	-= F
-1.156347	-= H
-1.633469	-= V
-1.633469	-= W
-1.633469	-= b
-1.332438	-= be
-1.332438	-= bf
-1.156347	-= d
-1.633469	-= e
-1.332438	-= f
-1.031408	-= g
-1.633469	-= h
-1.633469	-= i
-1.031408	-= l
-1.633469	-= r
-1.633469	-= t
-1.156347	-= u
-1.332438	-= w
-1.880814	-> </s>
-1.278754	-> a
-0.8016323	-> b
-1.880814	-> c
-0.7346855	-> j
-1.035716	-> n
-1.278754	-> not
-1.278754	-> op
-1.880814	-> pixels
-1.403692	-> val
-0.8394209	-> x
-0.8394209	-> y
-1.403692	-> z
-1.973128	. &
-1.973128	. /
-1.672098	. </s>
-1.973128	. ]
-1.070038	. _
-1.672098	. c
-1.371068	. e
-1.973128	. key
-1.973128	. keysym
-0.4168254	. not
-1.371068	. p
-1.371068	. q
-1.973128	. sym
-1.973128	. type
-0.7690079	. val
-1.973128	. xkey
-0.9731278	. y
-0.1760913	... )
-0.4771213	... </s>
0	.0 (
-0.4771213	.05 )
-0.4771213	.05 ;
-0.4771213	.05 </s>
-0.1760913	.1 )
-0.4771213	.1 :
-0.4771213	.5 *
-0.4771213	.5 -
-0.4771213	.5 </s>
-1.908485	/ &
-1.063387	/ (
-1.908485	/ )
-1.908485	/ -
-1.908485	/ 1024.
-1.908485	/ 12
-0.7323937	/ 2
-1.607455	/ 2.
-1.908485	/ 24
-1.607455	/ 3
-1.908485	/ 32768
-1.005395	/ 4
-1.607455	/ 5
-1.908485	/ 6
-1.908485	/ 60
-1.908485	/ 60.
-1.908485	/ 768
-1.431364	/ 8
-1.908485	/ 85
-1.908485	/ 88
-1.908485	/ </s>
-1.607455	/ I
-1.908485	/ M
-1.908485	/ O
-1.908485	/ O3
-1.431364	/ Q
-1.908485	/ QQ
-1.908485	/ RI4
-1.908485	/ RM
-1.908485	/ SlM90
-1.607455	/ _
-1.306425	/ f
-1.908485	/ fabs
-1.908485	/ g
-1.908485	/ j
-1.607455	/ lM
-1.607455	/ n
-1.607455	/ p
-1.908485	/ w
-0.845098	/= ++
-0.544068	/= 2
-0.845098	/= H
-0.845098	/= c
-0.845098	/= l
-0.845098	/= z
-1.849215	0 &&
-2.326336	0 (
-0.5481846	0 )
-2.025306	0 +
-0.60206	0 ,
-1.180208	0 :
-0.654238	0 ;
-1.423246	0 <
-2.025306	0 </s>
-2.326336	0 ==
-2.025306	0 >
-1.548185	0 ?
-1.423246	0 ]
-2.326336	0 _t
-2.326336	0 m
-2.326336	0 ||
-2.025306	0 }
-0.4771213	0.5 *
-0.1760913	0.5 ;
0	0.7 ;
0	01 ]
0	02 </s>
0	024 )
0	03 ;
0	040 )
0	061 *
0	075 )
0	0d:`184>b)^15)OM :23h)QN<'
-0.30103	0u ,
-0.30103	0u ;
0	0x1 !=
0	0x3f0 )
0	0x820008202625a0 ;
0	0xf |
0	0xfc0 ||
0	0xfe0 ^
0	0xff00ff00ff ;
0	0xffff )
-1.760925	1 &
-1.635986	1 &&
-0.6817436	1 )
-2.238046	1 *
-1.635986	1 +
-0.8401061	1 ,
-1.007597	1 -
-2.238046	1 4
-1.539076	1 :
-0.8230727	1 ;
-2.238046	1 </s>
-1.283804	1 <<
-1.937016	1 ==
-1.760925	1 ?
-2.238046	1 A
-1.937016	1 [
-0.8066823	1 ]
-2.238046	1 ^
-2.238046	1 cq
-1.937016	1 |
-1.937016	1 }
0	1.159922023e9 ,
-0.30103	1.3 ,
-0.30103	1.3 </s>
0	1.5 ;
0	1.6937441874215991e190 ;
-0.60206	10 )
-1.079181	10 *
-0.7781513	10 +
-0.7781513	10 ,
-1.079181	10 /
-0.7781513	10 ;
-1.079181	10 }
0	1008 )
0	101 ==
-0.4771213	1023 )
-0.1760913	1023 |
0	1024 /
0	1024. ;
0	105 <
-0.1760913	11 )
-0.4771213	11 ;
0	1103515245 &
0	112 ,
0	1152 +
-0.9542425	12 &
-0.6532125	12 )
-0.9542425	12 +
-0.6532125	12 -
-0.9542425	12 </s>
-0.6532125	12 >
0	12359778 ;
0	12365733 -
-0.4771213	128 &&
-0.4771213	128 )
-0.4771213	128 ,
0	128L +
-0.30103	13 ,
-0.30103	13 ?
0	13000 ;
0	138 )
-0.1760913	14 &
-0.7781513	14 ]
-0.7781513	14 ^
0	14202379 *
0	14695981039346656037ULL ;
-0.544068	15 )
-0.3679768	15 ,
-0.845098	15 ;
-0.845098	15 |
0	1500 ?
0	158 )
-1.278754	16 &&
-0.5006024	16 )
-0.8016323	16 *
-1.278754	16 +
-0.8016323	16 ,
-0.8016323	16 ;
-1.278754	16 </s>
-1.278754	16 >
0	1600 &&
-0.1760913	16711935 ;
-0.4771213	16711935 |
0	16774143 ;
0	16u )
-0.1760913	17 +
-0.4771213	17 ]
0	176 /
-0.60206	18 )
-0.60206	18 ,
-0.60206	18 </s>
-0.60206	18 ]
0	19 )
0	19205553 ;
0	193 +
0	1933008 </s>
0	194 ,
0	196 -
0	197 )
0	198 ;
0	1l N
-0.30103	1u )
-0.30103	1u ,
-1.716003	2 %
-1.539912	2 &
-2.017033	2 (
-0.5118834	2 )
-0.8409421	2 *
-1.238882	2 +
-0.8129134	2 ,
-1.017033	2 ;
-1.716003	2 </s>
-1.539912	2 ?
-2.017033	2 MJ
-1.017033	2 ]
-2.017033	2 _KK3
-2.017033	2 ||
-2.017033	2 }
0	2. )
0	2.271681097355226e15 ,
-0.30103	20 )
-0.60206	20 *
-0.60206	20 </s>
-0.30103	21 -
-0.30103	21 ]
-0.30103	22 )
-0.30103	22 *
0	23 ;
0	234 ;
-0.544068	24 )
-0.845098	24 ,
-0.845098	24 ;
-0.544068	24 </s>
-0.845098	24 O3NF
0	25 ;
0	250 ,
-0.69897	255 )
-0.69897	255 ,
-0.69897	255 -
-0.39794	255 ;
-0.30103	256 ,
-0.60206	256 -
-0.60206	256 ;
0	256L +
0	257 ,
0	258063 &
0	26 ,
0	27 )
0	275 )
0	276 )
0	28 &
0	287 )
0	2L )
0	2l NUO
-1.562293	3 &
-1.863323	3 (
-0.5845693	3 )
-0.9602329	3 *
-1.261263	3 +
-1.018225	3 ,
-1.261263	3 -
-1.863323	3 4
-1.863323	3 :
-1.085172	3 ;
-1.863323	3 </s>
-1.863323	3 ?
-1.863323	3 A
-1.863323	3 B
-0.6872316	3 ]
-1.863323	3 _z
0	3' Q
0	3.135045272e9 ,
0	3.9999e5 )
-0.4771213	30 &&
-0.1760913	30 ;
0	304 -
-0.4771213	31 )
-0.1760913	31 ;
-0.4771213	32 )
-0.90309	32 +
-0.7781513	32 ,
-0.7781513	32 ;
-1.079181	32 <<
-1.079181	32 ]
-1.380211	32 |
-0.30103	32768 )
-0.30103	32768 ,
0	33 )
-0.30103	333 *
-0.30103	333 ;
0	3352537 *
-0.4771213	34 <
-0.4771213	34 </s>
-0.4771213	34 m
-0.30103	35 )
-0.30103	35 -
0	36 -
0	37 ;
-0.30103	38 )
-0.30103	38 *
0	384 )
0	39 ;
0	3920 )
-1.792392	4 &
-1.792392	4 &&
-0.5136381	4 )
-1.01424	4 *
-1.31527	4 +
-1.01424	4 ,
-1.190332	4 -
-1.792392	4 :
-1.190332	4 ;
-1.792392	4 <
-1.792392	4 ?
-1.792392	4 SNH
-0.750999	4 ]
-1.31527	4 |
0	4.023233417e9 ,
0	4.294967296e9 ,
0	4.5 )
0	4.503599627370496e15 ,
0	4.522871578970112e217 ;
0	4.6727004911171048e-153 ;
-0.07918125	40 )
-0.7781513	40 ;
0	4092 ^
0	41 )
0	41088 ,
0	4190208 |
0	4194304 </s>
-0.09691001	42 )
-0.69897	42 ;
0	44 +
0	45 )
0	48 ;
0	488848 *
0	4L +
-0.30103	4u )
-0.30103	4u ;
-1.130334	5 &&
-0.3521825	5 )
-1.130334	5 ,
-1.431364	5 ;
-1.431364	5 </s>
-0.9542425	5 ?
-1.431364	5 OMaMch
-0.7323937	5 ]
0	50 ;
0	5000 +
0	51 )
-0.30103	512 ;
-0.30103	512 </s>
0	512L )
-0.30103	5200 ;
-0.30103	5200 ]
0	5298487 :
0	55 ?
-0.4771213	56 )
-0.1760913	56 ;
0	58 >
-0.30103	59 ;
-0.30103	59 ==
0	5toG57j/3" </s>
-1.278754	6 %
-1.278754	6 &
-1.579784	6 &&
-0.6766936	6 )
-1.102662	6 *
-1.102662	6 ,
-1.579784	6 -
-1.579784	6 /
-1.579784	6 :
-1.102662	6 ;
-1.579784	6 <
-1.278754	6 </s>
-1.579784	6 >
-1.278754	6 ?
-1.579784	6 N
-1.579784	6 O
-1.102662	6 ]
-1.579784	6 sN
-1.579784	6 yN
-0.243038	60 )
-0.544068	60 *
-0.845098	60 /
0	60. /
0	62 ;
-0.1760913	63 )
-0.4771213	63 <<
-1.079181	64 &
-0.7781513	64 )
-1.079181	64 *
-0.3802112	64 ,
-1.079181	64 :
-1.079181	64 ;
-1.079181	64 </s>
0	64u )
0	65280 )
0	65307 ;
-0.30103	65536 ;
-0.30103	65536 ]
0	667 ,
0	67 *
0	69 j
0	6990400 ;
-1.462398	7 &
-1.462398	7 &&
-0.763428	7 )
-1.462398	7 *
-0.9852768	7 ,
-1.462398	7 -
-1.462398	7 7
-1.462398	7 :
-1.161368	7 ;
-1.462398	7 <
-1.161368	7 </s>
-0.9852768	7 O
-1.462398	7 OMQ
-1.462398	7 ON8r
-0.860338	7 ]
-1.462398	7 sN
0	7.5 )
0	7.90055321525613e115 ;
0	70 )
0	74 )
0	75 ?
-0.60206	768 ;
-0.60206	768 </s>
-0.30103	768 ]
-0.30103	77 ;
-0.30103	77 O
-0.60206	79 )
-0.60206	79 ;
-0.60206	79 ]
-0.60206	79 b
-1.194977	8 &
-1.672098	8 &&
-0.6720979	8 )
-1.371068	8 +
-0.6307052	8 ,
-1.371068	8 :
-0.8939466	8 ;
-1.672098	8 <
-1.371068	8 >>
-1.371068	8 ?
-1.672098	8 ]
-1.672098	8 _a
-1.672098	8 b
-1.672098	8 j
-1.672098	8 k9
-1.371068	8 |
0	8.44396048e8 ,
-0.1139434	80 +
-1.113943	80 ,
-1.113943	80 ;
-1.113943	80 ]
0	8000 </s>
-0.30103	81 )
-0.30103	81 /
0	84 )
-0.4771213	85 *
-0.4771213	85 +
-0.4771213	85 <<
-0.30103	86400 )
-0.30103	86400 -
0	88 )
0	89 ?
0	8u +
-1.021189	9 %
-0.4771213	9 )
-1.021189	9 *
-1.322219	9 +
-1.021189	9 ,
-1.322219	9 -
-1.322219	9 ;
-1.322219	9 ?
-1.322219	9 g
-1.322219	9 j_la
-1.322219	9 j_laaaN
-1.322219	9 slltwzh
-0.30103	90 )
-0.30103	90 ;
0	91 )
-0.60206	92 &&
-0.60206	92 )
-0.60206	92 +
-0.60206	92 ;
0	93 ,
0	96 ^
-0.30103	97 +
-0.30103	97 ]
0	98 +
0	9858122 :
0	99 ]
0	9999 ]
0	99999 )
-1.612784	: !
-2.089905	: ""
-2.089905	: "Q(j"
-2.089905	: "Q(jam"
-1.788875	: %
-1.788875	: &
-2.089905	: '='
-0.7888751	: (
-1.487845	: *
-1.788875	: -
-0.8111515	: 0
-1.788875	: 1
-2.089905	: 12365733
-2.089905	: 24
-2.089905	: 32
-2.089905	: 3352537
-2.089905	: 5
-1.788875	: 6
-2.089905	: 65536
-2.089905	: 69
-2.089905	: 79
-2.089905	: :
-1.135663	: </s>
-2.089905	: >
-2.089905	: B
-2.089905	: EOF
-2.089905	: G
-2.089905	: N
-2.089905	: O
-2.089905	: R
-2.089905	: S
-1.788875	: T
-1.612784	: _
-2.089905	: _Zadat57
-2.089905	: _c
-2.089905	: a
-1.788875	: b
-2.089905	: c
-1.612784	: d
-1.788875	: e
-1.788875	: g
-1.612784	: gln
-2.089905	: h
-1.788875	: i
-2.089905	: k8b
-1.788875	: m
-2.089905	: main
-2.089905	: p
-2.089905	: putchar
-2.089905	: q
-1.487845	: v
-1.788875	: ~
0	:23h)QN<' /
-3.007321	; !
-3.007321	; %
-3.007321	; &
-3.007321	; '(
-2.308351	; (
-1.92814	; )
-1.803201	; *
-2.162223	; ++
-3.007321	; 0
-2.053078	; ;
-0.3779114	; </s>
-2.308351	; A
-2.706291	; B
-2.162223	; D
-2.22917	; E
-2.706291	; F
-2.405261	; G
-2.5302	; H
-2.5302	; I
-2.706291	; J
-2.104231	; K
-2.22917	; L
-3.007321	; M
-3.007321	; N
-2.405261	; O
-2.104231	; P
-2.706291	; Q
-3.007321	; Q_
-2.162223	; R
-3.007321	; SDL_BlitSurface
-3.007321	; SDL_Delay
-3.007321	; SDL_Event
-3.007321	; SDL_FillRect
-3.007321	; SDL_Flip
-3.007321	; SDL_Init
-3.007321	; SDL_LoadWAV
-3.007321	; SDL_MixAudio
-3.007321	; SDL_OpenAudio
-3.007321	; SDL_PauseAudio
-2.405261	; T
-2.5302	; V
-1.776872	; W
-3.007321	; Window
-2.706291	; X
-3.007321	; XEvent
-3.007321	; XImage
-3.007321	; XSelectInput
-2.706291	; Y
-2.007321	; _
-3.007321	; __
-3.007321	; ___
-1.803201	; a
-1.544923	; b
-3.007321	; bA
-3.007321	; ba
-3.007321	; bc
-2.5302	; bh
-3.007321	; bj
-3.007321	; break
-3.007321	; bz
-3.007321	; c
-2.405261	; char
-1.861193	; d
-2.405261	; e
-2.706291	; else
-3.007321	; extern
-2.405261	; f
-2.405261	; float
-1.62711	; for
-3.007321	; fread
-3.007321	; free
-2.308351	; g
-3.007321	; h
-2.162223	; i
-1.893378	; if
-2.104231	; int
-2.162223	; j
-1.965928	; k
-2.5302	; l
-2.405261	; long
-2.162223	; m
-2.706291	; main
-3.007321	; mvaddstr
-3.007321	; mvinsch
-2.162223	; n
-1.965928	; o
-2.162223	; p
-3.007321	; putchar
-2.22917	; q
-2.22917	; r
-3.007321	; refresh
-2.104231	; return
-2.308351	; s
-3.007321	; struct
-2.162223	; t
-2.104231	; u
-3.007321	; union
-2.5302	; v
-3.007321	; va_end
-3.007321	; va_start
-2.706291	; void
-2.007321	; w
-2.405261	; while
-2.22917	; x
-2.22917	; xor
-2.405261	; y
-1.728567	; z
-2.706291	; {
-3.007321	; |
-1.011686	; }
0	;b' %
-1.447158	< %
-2.049218	< (
-2.049218	< *
-1.094975	< 0
-2.049218	< 11
-2.049218	< 13
-1.748188	< 14
-2.049218	< 16
-2.049218	< 18
-1.748188	< 2
-1.572097	< 3
-2.049218	< 32
-2.049218	< 4
-1.748188	< 5
-2.049218	< 5200
-1.572097	< 6
-1.748188	< 60
-2.049218	< 62
-2.049218	< 75
-2.049218	< 77
-1.748188	< 79
-2.049218	< 91
-2.049218	< 92
-2.049218	< :
-1.447158	< </s>
-1.748188	< A
-1.748188	< B
-2.049218	< D
-1.748188	< E
-2.049218	< L
-2.049218	< M
-2.049218	< O
-2.049218	< Q
-2.049218	< U
-2.049218	< W
-1.748188	< _
-1.447158	< a
-2.049218	< abs
-2.049218	< asn
-1.572097	< b
-2.049218	< b4
-1.748188	< c
-1.572097	< d
-1.748188	< f
-2.049218	< h
-1.447158	< i
-2.049218	< j
-2.049218	< kP8
-2.049218	< l
-1.748188	< m
-1.572097	< n
-1.271067	< not
-2.049218	< p
-1.748188	< t
-1.748188	< u
-1.447158	< v
-1.748188	< x
-2.049218	< y
-2.049218	< ~
-1.122216	<< (
-1.247155	<< 1
-1.724276	<< 14
-1.724276	<< 15
-1.423246	<< 18
-1.724276	<< 23
-1.724276	<< 24
-1.724276	<< 30
-1.423246	<< 32
-1.423246	<< 4
-1.724276	<< 40
-1.724276	<< 5
-1.423246	<< 56
-1.423246	<< 6
-1.724276	<< 7
-0.8791778	<< 8
-1.423246	<< </s>
-1.724276	<< Q_
-1.724276	<< a
-1.724276	<< b
-1.423246	<< f
-1.247155	<< l
-1.724276	<< n
-1.423246	<< s
-1.122216	<< t
-1.423246	<< u
-1.724276	<< unk
-1.724276	<< z
0	<<= b
-0.9542425	<= 24
-0.9542425	<= D
-0.9542425	<= L
-0.9542425	<= Q
-0.9542425	<= f
-0.9542425	<= k
-0.9542425	<= m
-0.9542425	<= optind
-0.9542425	<= q
0	<P~6" </s>
-2.726727	<s> !
-3.027757	<s> !=
-2.726727	<s> "
-3.027757	<s> "!:E%;!ea!!!WqE0z!f/y}!%!!Qi6!uzt!n}?]!bl!ak!SetR<"
-3.027757	<s> "!pv!;!Hm%Ro4"
-3.027757	<s> "%d
-3.027757	<s> "*_[512],**p=_,**d,b,q;for(b=0;b"
-3.027757	<s> "*p=#b,P[9999],*d=P,*e[]="
-3.027757	<s> "/"
-3.027757	<s> "::::::::::::?_::::\"::.::::@:::'::-::::::::;!:):::::,:::::"
-3.027757	<s> ";;"
-3.027757	<s> ";Gam"
-3.027757	<s> ";GlockQ18"
-3.027757	<s> ";^Q<d|8=o;]Q<dj8<Pk8<c]'?;QQdi8?P'Q)d8<9`8?c;Qdh8=P']Q<`c8>PQ9_8"
-3.027757	<s> "<o_Q<o_QBdo`QQ';`Q=9`]8=bobQ_o_Q<o]8=';bQC(88cQ`bcgQ>oP']8<;cQ>98)^Q?''oc`Q>"
-3.027757	<s> "=(p-_+1)*9%512]=(O*)p;"
-3.027757	<s> ">b;og8=''`Q<`b8?'QQ9_8?c;dPe8dQa8<P]Q<``8=;'f8>QQ`]8?ocQQ_8=''_Q`8aQ"
-3.027757	<s> "?guhljL!^P%
-3.027757	<s> "CYOUQWIN!]Q=;of8BQQ)88bc]QA98P'Qo]8>oQQ_8CP;QQ98b`_8@P8(Q`]'^Q=`']QB)88"
-3.027757	<s> "M@K~|JOEF\\^~_NHI]"
-3.027757	<s> "Zj$x!~V!n&g8!cK!
-3.027757	<s> "bQQ]`8J;QQ`88bc99bd(`8iQ@''QQo^8E'`8c;QQ'Q``8?QQ`'kQ<o]8B9PQQ`';_Q<`_8<cbQ"
-3.027757	<s> "e.6!r!%l6G!n~^<i=%pEwL%P!'<!FQt%u
-3.027757	<s> "e:|
-3.027757	<s> "etu"
-3.027757	<s> "med);"
-3.027757	<s> "oc']Q]8<;cQ>`8bbQA``QQ''`Q?88P;dQ=`)nQ?*/;;"
-3.027757	<s> "oid
-2.249606	<s> %
-2.726727	<s> &
-2.550636	<s> &&
-3.027757	<s> '7M{N^kh
-1.496278	<s> (
-1.565359	<s> )
-2.328787	<s> *
-2.726727	<s> +
-1.948576	<s> ++
-2.726727	<s> +=
-1.685335	<s> ,
-1.986364	<s> -
-2.425697	<s> --
-3.027757	<s> -=
-2.550636	<s> .
-2.550636	<s> /
-2.425697	<s> 0
-3.027757	<s> 0xffff
-2.726727	<s> 1
-3.027757	<s> 10
-3.027757	<s> 1152
-3.027757	<s> 128
-3.027757	<s> 15
-3.027757	<s> 16
-3.027757	<s> 16711935
-2.550636	<s> 2
-3.027757	<s> 25
-3.027757	<s> 333
-2.726727	<s> 4
-3.027757	<s> 45
-3.027757	<s> 5
-3.027757	<s> 6
-3.027757	<s> 64
-3.027757	<s> 65307
-2.425697	<s> 7
-2.726727	<s> 8
-3.027757	<s> 92
-3.027757	<s> 96
-2.425697	<s> :
-1.881629	<s> ;
-3.027757	<s> <
-2.550636	<s> <<
-1.913814	<s> =
-3.027757	<s> >
-2.425697	<s> >>
-2.328787	<s> ?
-2.249606	<s> A
-2.726727	<s> B
-2.550636	<s> C
-3.027757	<s> COLS
-2.726727	<s> D
-2.073515	<s> E
-2.550636	<s> F
-2.550636	<s> FILE
-2.726727	<s> G
-2.249606	<s> H
-2.027757	<s> I
-3.027757	<s> J
-2.182659	<s> K
-2.249606	<s> L
-2.182659	<s> M
-3.027757	<s> MkQN
-2.425697	<s> N
-2.550636	<s> O
-3.027757	<s> O1
-3.027757	<s> O2
-3.027757	<s> O7
-3.027757	<s> O8
-3.027757	<s> O_
-3.027757	<s> On
-2.328787	<s> P
-2.425697	<s> Q
-3.027757	<s> Q1
-3.027757	<s> Q2
-3.027757	<s> Q3
-3.027757	<s> QO
-2.550636	<s> R
-3.027757	<s> S
-3.027757	<s> SDL_PollEvent
-3.027757	<s> SDL_Surface
-2.124667	<s> T
-2.425697	<s> U
-2.425697	<s> V
-2.182659	<s> W
-2.550636	<s> X
-3.027757	<s> XPutImage
-1.948576	<s> Y
-2.182659	<s> Z
-2.425697	<s> [
-2.328787	<s> ]
-2.073515	<s> _
-3.027757	<s> _0
-2.726727	<s> __
-2.726727	<s> ____
-3.027757	<s> _f
-1.881629	<s> a
-2.726727	<s> ala
-2.425697	<s> and
-2.550636	<s> asn
-2.027757	<s> b
-3.027757	<s> bB
-3.027757	<s> bC
-3.027757	<s> be
-3.027757	<s> bl
-3.027757	<s> bn
-2.249606	<s> break
-3.027757	<s> bt
-2.726727	<s> bu
-3.027757	<s> by
-2.726727	<s> c
-3.027757	<s> c8
-3.027757	<s> case
-2.550636	<s> char
-2.073515	<s> const
-1.881629	<s> d
-3.027757	<s> default
-2.425697	<s> do
-3.027757	<s> double
-1.772485	<s> e
-1.565359	<s> efine
-2.726727	<s> else
-2.425697	<s> err
-3.027757	<s> errx
-2.726727	<s> exit
-2.328787	<s> f
-1.705538	<s> for
-3.027757	<s> fputc
-2.328787	<s> free
-2.726727	<s> fseek
-3.027757	<s> fw
-1.612784	<s> g
-3.027757	<s> getchar
-2.425697	<s> gly
-2.027757	<s> h
-1.647546	<s> i
-1.414973	<s> if
-1.705538	<s> int
-2.328787	<s> j
-2.328787	<s> k
-2.027757	<s> l
-3.027757	<s> lf
-2.550636	<s> long
-2.550636	<s> lys
-2.550636	<s> m
-3.027757	<s> mR8
-2.425697	<s> main
-2.550636	<s> met
-3.027757	<s> mva
-2.425697	<s> n
-2.726727	<s> ndif
-2.073515	<s> not
-1.705538	<s> o
-3.027757	<s> oM
-2.726727	<s> op
-3.027757	<s> open
-3.027757	<s> optind
-2.249606	<s> p
-2.726727	<s> phe
-2.249606	<s> printf
-2.726727	<s> putchar
-2.726727	<s> puts
-2.425697	<s> q
-2.425697	<s> r
-3.027757	<s> rQ
-3.027757	<s> rea
-1.948576	<s> return
-2.726727	<s> rewind
-3.027757	<s> rror
-1.881629	<s> s
-2.425697	<s> sec
-3.027757	<s> signal
-3.027757	<s> sin
-2.328787	<s> static
-3.027757	<s> switch
-2.182659	<s> t
-2.328787	<s> thr
-3.027757	<s> type
-2.027757	<s> typedef
-2.726727	<s> tyr
-2.182659	<s> u
-2.182659	<s> unsigned
-2.328787	<s> v
-2.726727	<s> val
-2.425697	<s> void
-3.027757	<s> volatile
-2.027757	<s> w
-1.948576	<s> while
-2.550636	<s> x
-1.948576	<s> y
-2.182659	<s> z
-1.823637	<s> {
-1.108679	<s> }
-2.726727	<s> ~
-2.241173	= !
-2.843233	= "<;iQ=/*do<;dQ=ook8?boc;aQ=odr8>oc;_Q<ox8>oc"
-2.843233	= "\n\n\n"
-2.843233	= "syntax_error!"
-2.241173	= &
-1.180475	= (
-2.542203	= )
-1.564479	= *
-2.366112	= ,
-1.542203	= -
-2.843233	= --
-2.843233	= .1
-1.010724	= 0
-2.843233	= 040
-2.843233	= 0u
-2.843233	= 0x1
-2.843233	= 0x820008202625a0
-1.481505	= 1
-2.843233	= 1.159922023e9
-2.144263	= 10
-2.843233	= 1024
-2.843233	= 112
-2.843233	= 12
-2.843233	= 12359778
-2.843233	= 13000
-2.542203	= 14695981039346656037ULL
-2.843233	= 16
-2.843233	= 17
-2.843233	= 196
-2.366112	= 2
-2.843233	= 2.271681097355226e15
-2.843233	= 234
-2.843233	= 250
-2.366112	= 255
-2.843233	= 256
-2.843233	= 26
-2.144263	= 3
-2.843233	= 3.135045272e9
-2.843233	= 30
-2.366112	= 32
-2.843233	= 32768
-2.843233	= 333
-2.843233	= 34
-2.843233	= 37
-2.241173	= 4
-2.843233	= 4.023233417e9
-2.843233	= 4.294967296e9
-2.843233	= 4.503599627370496e15
-2.843233	= 40
-2.843233	= 41088
-2.843233	= 48
-2.542203	= 5
-2.843233	= 50
-2.843233	= 5000
-2.843233	= 512
-2.241173	= 6
-2.843233	= 64
-2.843233	= 6990400
-2.065082	= 7
-2.366112	= 8
-2.843233	= 8.44396048e8
-2.843233	= 80
-2.843233	= 9
-1.729289	= </s>
-2.065082	= A
-1.764052	= B
-2.366112	= C
-2.843233	= COLS
-2.366112	= D
-2.366112	= E
-2.065082	= F
-2.241173	= H
-2.144263	= I
-2.843233	= J
-1.998135	= K
-2.241173	= L
-2.843233	= LINES
-1.998135	= N
-1.88899	= O
-2.843233	= O0
-2.843233	= O5
-2.366112	= OO
-2.542203	= O_
-2.843233	= O_o
-2.843233	= P
-1.843233	= Q
-2.843233	= Q7
-2.843233	= Q8
-2.366112	= Q_
-2.366112	= R
-2.366112	= S
-2.843233	= SDL_CreateRGBSurface
-2.843233	= SDL_SetVideoMode
-1.88899	= T
-2.843233	= U
-2.366112	= W
-2.843233	= X
-2.843233	= XCreateImage
-2.843233	= XCreateSimpleWindow
-2.843233	= XLookupKeysym
-2.843233	= XOpenDisplay
-2.843233	= Y
-2.542203	= Z
-1.88899	= _
-2.843233	= _0
-2.542203	= _Q
-2.366112	= __
-2.843233	= __TIME__
-2.843233	= _b
-1.729289	= a
-1.843233	= b
-2.843233	= b5g
-2.542203	= bA
-2.843233	= bB
-2.843233	= bC
-2.542203	= bE
-2.843233	= ba
-2.843233	= bb
-2.843233	= bf
-2.843233	= bl
-2.843233	= bm
-1.998135	= bp
-2.843233	= bs
-2.843233	= buf
-2.843233	= bx
-2.843233	= by
-2.542203	= bz
-1.998135	= c
-2.366112	= calloc
-2.843233	= cos
-1.80184	= d
-1.843233	= e
-2.542203	= exp
-1.697105	= f
-2.843233	= fgetc
-2.843233	= fopen
-2.542203	= fread
-2.366112	= g
-2.843233	= getch
-2.366112	= getchar
-2.843233	= getopt
-2.241173	= gln
-2.065082	= h
-2.542203	= his
-1.940143	= i
-1.88899	= j
-2.144263	= k
-2.366112	= l
-2.065082	= m
-2.843233	= main
-2.542203	= malloc
-2.065082	= n
-2.843233	= nk
-2.366112	= not
-1.729289	= o
-2.843233	= op
-2.144263	= p
-2.542203	= pow
-2.843233	= pyl
-2.366112	= q
-2.241173	= r
-2.843233	= rand
-2.542203	= realloc
-2.843233	= round
-2.241173	= s
-2.366112	= sizeof
-2.843233	= sqrt
-2.843233	= strrchr
-2.542203	= t
-2.843233	= tmpfile
-1.940143	= trp
-1.80184	= u
-2.542203	= unk
-1.88899	= v
-2.843233	= w
-1.843233	= x
-2.843233	= xle
-1.998135	= y
-2.241173	= z
-1.940143	= {
-1.40654	== '\n'
-1.70757	== (
-1.40654	== *
-1.40654	== -
-1.70757	== 0
-1.70757	== 1
-1.70757	== 10
-1.70757	== 2
-1.70757	== 27
-1.70757	== 275
-1.70757	== 276
-1.40654	== 3
-1.70757	== 32
-1.70757	== 35
-1.70757	== 4
-1.70757	== 5
-1.70757	== 6
-1.70757	== 8
-1.70757	== 81
-1.70757	== 9
-1.70757	== </s>
-1.70757	== B
-1.40654	== D
-1.40654	== NULL
-1.40654	== T
-1.10551	== a
-1.70757	== arg
-1.40654	== b
-1.40654	== c
-1.70757	== cys
-1.70757	== gln
-1.70757	== h
-1.40654	== n
-1.70757	== not
-1.70757	== r
-1.40654	== u
-1.70757	== ~
-1.224015	> (
-1.826075	> ->
-0.9809768	> 0
-1.826075	> 1
-1.826075	> 12
-1.826075	> 1600
-1.826075	> 197
-1.224015	> 2
-1.826075	> 20
-1.826075	> 3
-1.826075	> 30
-1.826075	> 32
-1.525045	> 4
-1.224015	> 5
-1.826075	> 55
-1.348954	> 6
-1.826075	> 64
-1.826075	> 7
-1.826075	> 9
-1.826075	> 92
-1.826075	> ;
-1.826075	> B
-1.826075	> BUFSIZ
-1.826075	> F
-1.826075	> H
-1.826075	> I
-1.826075	> Q0
-1.525045	> QQ
-1.224015	> _
-1.826075	> a
-1.826075	> bs
-1.826075	> c
-1.826075	> char
-1.826075	> d_C
-1.826075	> e
-1.826075	> glu
-1.826075	> h
-1.525045	> i
-1.826075	> l
-1.826075	> lrand48
-1.826075	> p
-1.826075	> q
-1.826075	> t
-1.826075	> v
-0.845098	>= (
-0.544068	>= 0
-0.845098	>= 2
-0.845098	>= LINES
-0.845098	>= Q
-0.845098	>= d
-1.69897	>> (
-1.69897	>> ++
-1.69897	>> 12
-1.39794	>> 14
-1.221849	>> 2
-1.69897	>> 20
-1.69897	>> 28
-1.69897	>> 3
-1.39794	>> 31
-1.39794	>> 32
-1.69897	>> 38
-1.39794	>> 4
-1.221849	>> 40
-1.69897	>> 5
-1.69897	>> 56
-1.39794	>> 6
-0.69897	>> 8
-1.221849	>> </s>
-1.39794	>> a
-1.69897	>> f
-1.69897	>> lys
-1.69897	>> n
-1.39794	>> s
-1.69897	>> u
-1.39794	>> unk
-1.39794	>> z
-0.4771213	>>= 4
-0.4771213	>>= 7
-0.4771213	>>= e
-2.029384	? ""
-2.029384	? ";"
-2.029384	? "{;}"
-1.728354	? &
-2.029384	? '
-2.029384	? '|'
-1.330414	? (
-1.427324	? *
-1.552263	? ++
-2.029384	? -
-1.552263	? --
-1.184286	? 0
-1.552263	? 1
-2.029384	? 1l
-2.029384	? 256
-1.728354	? 3
-1.728354	? 8
-2.029384	? 9858122
-1.728354	? </s>
-1.728354	? D
-1.728354	? E
-2.029384	? F
-2.029384	? FILENAME_MAX
-1.728354	? G
-2.029384	? H
-2.029384	? H_1
-1.728354	? I
-1.728354	? L
-1.728354	? O
-2.029384	? S
-1.330414	? T
-2.029384	? U
-2.029384	? _k
-1.728354	? a
-2.029384	? d
-2.029384	? e
-1.728354	? g
-1.552263	? glu
-2.029384	? h
-1.552263	? i
-1.552263	? k
-1.552263	? n
-1.552263	? o
-1.728354	? p
-2.029384	? putchar
-1.552263	? s
-2.029384	? t
-1.728354	? u
-1.184286	? v
-2.029384	? w
-1.728354	? x
0	?" "8!@dP,!!o+fb"
-1.088136	A )
-1.690196	A +
-1.690196	A +=
-0.9120448	A ,
-1.690196	A -
-0.7871061	A ->
-1.213075	A ;
-1.690196	A </s>
-0.7871061	A =
-1.690196	A J
-1.690196	A L
-1.690196	A R
-0.5762527	A [
-0.7403627	B &
-1.439333	B &&
-0.8952646	B )
-1.041393	B +
-1.138303	B ,
-0.8372727	B ->
-1.740363	B :
-1.041393	B ;
-1.740363	B </s>
-1.138303	B =
-1.740363	B ==
-1.740363	B J
-1.740363	B L
-1.041393	B R
0	BUFSIZ )
-1.30103	C &
-0.90309	C )
-1.124939	C *
-1.30103	C +
-1.60206	C +=
-1	C ,
-1.30103	C -
-1.30103	C /
-1.60206	C :
-1.124939	C ;
-1.60206	C <
-1.30103	C =
-1.30103	C ==
-1	C >
-1.60206	C J
-1.60206	C R
-1.60206	C [
-1.60206	C ^
-1.60206	C a
-1.60206	C p
-0.30103	COLS -
-0.30103	COLS /
-1.477121	D %
-0.8750613	D &&
-1	D (
-1.176091	D )
-1	D +
-1.477121	D ,
-1.477121	D -=
-1.477121	D ;
-1.477121	D </s>
-0.69897	D =
-1.477121	D ?
-1.477121	D L
-0.8750613	D [
-1.477121	D ]
0	DefaultGC (
0	DefaultVisual (
0	Display *
-1.643453	E (
-1.041393	E )
-0.6434527	E *
-1.643453	E *=
-1.643453	E +
-1.342423	E ++
-1.643453	E +=
-0.8653014	E ,
-0.7983546	E ;
-1.643453	E </s>
-0.6434527	E =
0	E0 (
0	E3 (
-0.3424227	EOF )
-1.041393	EOF +
-0.7403627	EOF ;
-0.5642715	EOF ]
0	ETIANMSURWDKGOHVF:L:PJBXCYZQ::54:3:::2&:+::::16=/:::(:7:::8:90" </s>
0	EX (
-1.311754	F %
-1.311754	F &
-0.6585413	F (
-1.612784	F )
-1.135663	F *
-1.612784	F +
-0.8346326	F ,
-0.9138138	F -
-1.612784	F /
-1.612784	F :
-1.612784	F ;
-1.311754	F <
-0.8346326	F =
-1.612784	F >>
0	F0 (
0	F1 (
0	F2 (
0	FILE *
0	FILENAME_MAX :
0	FV (
-0.30103	F_ )
-0.30103	F_ ,
-0.1434221	G (
-1.50515	G )
-1.50515	G ,
-0.6600519	G [
-1.454845	H %
-1.454845	H &
-1.755875	H (
-1.454845	H )
-0.9777236	H *
-1.755875	H +
-1.755875	H ++
-1.153815	H ,
-1.454845	H -
-1.755875	H --
-1.278754	H /
-0.7144822	H ;
-1.755875	H <
-1.755875	H </s>
-1.755875	H <<
-0.8527849	H =
-1.755875	H >>
-1.454845	H ?
-1.755875	H C
-1.755875	H R
-1.454845	H ]
-1.755875	H char
-1.755875	H long
-1.755875	H short
0	HP (
0	HY (
0	H_1 )
-1.755875	I &
-0.8016323	I (
-1.278754	I )
-1.755875	I *
-1.278754	I +
-1.755875	I ++
-1.454845	I ,
-1.454845	I -
-1.454845	I :
-0.9777236	I ;
-1.755875	I <
-0.7144822	I =
-1.153815	I ==
-1.755875	I ?
-1.153815	I H
-1.755875	I [
-1.755875	I char
-1.755875	I int
-1.755875	I jmp_buf
-1.755875	I long
-1.755875	I void
-0.4393327	J (
-1.342423	J ,
-1.342423	J ;
-1.041393	J </s>
-1.041393	J =
-0.6434527	J [
-1.342423	J l
-1.041393	J }
-1.462398	K !=
-1.763428	K %
-1.064458	K (
-0.860338	K )
-1.763428	K *
-1.462398	K ++
-1.763428	K +=
-1.161368	K ,
-1.763428	K -
-0.5329791	K ->
-1.161368	K ;
-1.763428	K <
-1.462398	K </s>
-0.91833	K =
-1.462398	K ?
0	KrgR'8@c]!%-q9V.3fa[E8X%dY'w!#H <P~6"
-2.045323	L %=
-1.568202	L (
-1.09108	L )
-0.9661418	L *
-1.744293	L +
-2.045323	L ++
-0.3377528	L ,
-1.142233	L -
-2.045323	L ;
-2.045323	L <
-1.443263	L =
-1.744293	L ==
-2.045323	L >
-1.744293	L >>
-2.045323	L >>=
-2.045323	L ?
-2.045323	L T
-2.045323	L [
-1.267172	L ]
-2.045323	L a
-2.045323	L m
-2.045323	L n
-0.4771213	LINES -
-0.4771213	LINES ;
-0.4771213	LINES ||
0	LP (
0	L_tmpnam )
-1.477121	M &&
-0.69897	M (
-1	M )
-1.477121	M *=
-1.477121	M +=
-0.8750613	M ,
-1.477121	M -=
-1.477121	M .
-1.176091	M ;
-1.477121	M <
-1.176091	M </s>
-0.8750613	M =
-1.477121	M ==
-1.477121	M >
-1.477121	M qN
0	M8q;k' N_7vN
0	MJ 24
0	MK6lM L
0	McPc %
0	MkQN 77
-1.70757	N %
-1.70757	N &
-0.5614421	N (
-0.9294189	N )
-1.70757	N *
-1.70757	N +
-0.6661775	N ,
-1.230449	N ;
-1.70757	N <
-1.40654	N </s>
-1.10551	N =
-1.70757	N McPc
-1.40654	N [
-1.40654	N ]
-1.70757	N oNS
0	N4 RlMG
0	N8b %
0	N9 m
0	N9b %
0	NULL )
0	NUO <
0	N_1' 5
0	N_7vN 'nSM8
-1.638489	O %
-1.939519	O &
-1.939519	O &&
-0.9395192	O (
-0.8981265	O )
-1.939519	O *
-1.337459	O +
-1.462398	O ++
-1.337459	O ,
-1.462398	O --
-1.638489	O ->
-1.939519	O 8
-1.939519	O :
-1.638489	O ;
-1.462398	O <
-1.638489	O </s>
-0.559308	O =
-1.638489	O ?
-1.939519	O G
-1.939519	O Q
-1.939519	O S
-1.939519	O ^
-1.939519	O ckQaOrON
-1.939519	O j
-1.939519	O jQ
-1.939519	O sM
-1.939519	O {
-1.939519	O ~
-0.4149733	O0 +=
-1.113943	O0 ,
-0.5118834	O0 -
-0.6368221	O0 =
-0.845098	O1 )
-0.845098	O1 *
-0.544068	O1 ,
-0.845098	O1 =
-0.845098	O1 >
-0.845098	O1 ]
-0.845098	O2 *
-0.845098	O2 ,
-0.845098	O2 -
-0.845098	O2 /
-0.544068	O2 =
-0.845098	O2 >
-0.4771213	O3 )
-0.7781513	O3 -
-0.7781513	O3 /
-0.7781513	O3 </s>
-0.7781513	O3 =
0	O3NF (
-0.39794	O4 *
-0.69897	O4 +
-0.69897	O4 =
-0.69897	O4 |
-0.4771213	O5 )
-0.7781513	O5 +
-0.4771213	O5 ,
-0.7781513	O5 [
-0.60206	O6 +
-0.30103	O6 ,
-0.60206	O6 =
-0.60206	O7 )
-0.60206	O7 ,
-0.60206	O7 =
-0.60206	O7 Q
-0.4771213	O8 *
-0.4771213	O8 +
-0.4771213	O8 =
-0.1760913	O9 --
-0.4771213	O9 =
0	OMQ ]
0	OMaMch &
0	OMp RmPQ
0	ON8r %
-0.7781513	OO )
-1.079181	OO +=
-0.7781513	OO ,
-0.7781513	OO -
-1.079181	OO <
-0.7781513	OO =
-1.079181	OO ==
-1.079181	OO >
0	O^ln ;b'
-0.9542425	O_ &
-0.05115252	O_ (
-0.1249387	O_o )
-0.60206	O_o ,
0	OaaD %
0	Ok </s>
0	On %
0	OsR _
-0.5336026	P (
-0.4988405	P )
-1.612784	P +=
-1.135663	P ,
-1.135663	P ;
-1.311754	P =
-1.612784	P >=
-1.612784	P M
-1.612784	P U
-1.612784	P [
-1.612784	P _d
-1.612784	P _i
-1.612784	P q
-1.982271	Q &
-1.982271	Q &&
-0.6812412	Q (
-0.8361432	Q )
-1.50515	Q *
-1.50515	Q ,
-1.982271	Q -
-1.380211	Q ;
-1.681241	Q </s>
-1.982271	Q <=
-1.20412	Q =
-1.982271	Q ?
-1.982271	Q O
-1.982271	Q OO
-1.982271	Q Ok
-1.982271	Q Q4
-1.137173	Q [
-0.7781513	Q ]
-1.20412	Q ^
-1.982271	Q __
-1.982271	Q _k
-1.982271	Q main
-1.681241	Q write
-1.982271	Q x
-1.079181	Q0 &&
-0.7781513	Q0 )
-0.60206	Q0 +
-0.7781513	Q0 +=
-1.079181	Q0 ,
-0.60206	Q0 =
-0.7781513	Q1 )
-0.4771213	Q1 ,
-0.30103	Q1 =
-0.845098	Q2 &&
-0.845098	Q2 *
-0.544068	Q2 +
-0.845098	Q2 ,
-0.544068	Q2 =
-0.7781513	Q3 %
-0.4771213	Q3 ,
-0.4771213	Q3 =
-0.7781513	Q3 >>
-0.60206	Q4 &&
-0.60206	Q4 ,
-0.60206	Q4 --
-0.60206	Q4 =
-0.60206	Q5 +
-0.30103	Q5 ,
-0.60206	Q5 =
-0.60206	Q6 +=
-0.60206	Q6 ,
-0.60206	Q6 </s>
-0.60206	Q6 =
-0.60206	Q7 )
-0.60206	Q7 ;
-0.60206	Q7 =
-0.60206	Q7 O
-0.4771213	Q8 ,
-0.4771213	Q8 ;
-0.4771213	Q8 =
-0.30103	Q9 ,
-0.30103	Q9 =
0	QH (
0	QL (
-0.7781513	QO &&
-0.60206	QO *
-1.079181	QO +
-0.7781513	QO ,
-0.4771213	QO =
-0.4771213	QQ )
-0.9542425	QQ *
-0.4771213	QQ +
-0.9542425	QQ ,
-0.9542425	QQ =
0	QR (
0	QS (
0	Q_ (
0	Qr h
-1.109144	R %
-1.176091	R (
-0.2914847	R )
-1.653213	R *
-1.954242	R +
-1.954242	R ++
-1.954242	R +=
-1.176091	R ,
-1.477121	R --
-1.954242	R ;
-1.954242	R <
-1.255273	R </s>
-1.954242	R =
-1.954242	R A
-1.954242	R N
-1.954242	R ]
-1.653213	R a
-1.954242	R j
-1.954242	R n
-1.653213	R v
0	R8 /
0	RAFT )
0	RI4 4
0	RM ;
0	RMPmSk U
0	RP (
0	RlMG /
0	RmM </s>
0	RmPQ O
0	RootWindow (
-1.20412	S (
-1.20412	S )
-0.90309	S +
-0.60206	S ,
-1.20412	S :
-0.7269987	S =
-0.90309	S ?
-1.20412	S [
-1.20412	S {
0	SDL_AudioSpec bu
0	SDL_BlitSurface (
0	SDL_CreateRGBSurface (
0	SDL_Delay (
0	SDL_Event bE
0	SDL_FillRect (
0	SDL_Flip (
0	SDL_Init (
0	SDL_LoadWAV (
0	SDL_MixAudio (
0	SDL_OpenAudio (
0	SDL_PauseAudio (
0	SDL_PollEvent (
0	SDL_Rect </s>
0	SDL_SetVideoMode (
0	SDL_Surface *
0	SEEK_SET )
0	SNH %
0	SOPm R8
0	SlM90 %
0	So long
-1.50965	T (
-1.384712	T )
-0.8106804	T ++
-1.986772	T +=
-1.20862	T ,
-1.685742	T -
-1.50965	T --
-1.287802	T :
-1.287802	T ;
-1.685742	T <
-1.20862	T </s>
-0.8728284	T =
-1.287802	T ==
-1.986772	T I
-1.986772	T Q
-1.986772	T R
-0.9453791	T [
-1.986772	T ]
-1.986772	T _
-1.384712	T d
-1.986772	T f
-1.384712	T l
-1.986772	T mR
-1.986772	T |
0	TIOCGWINSZ ,
0	TMP_MAX )
0	TmS </s>
0	TmSt 6
-1.060698	U (
-1.060698	U )
-1.361728	U *=
-1.361728	U +
-1.361728	U +=
-0.5835766	U ,
-1.361728	U 7
-1.060698	U ;
-1.361728	U </s>
-0.6627578	U =
-1.361728	U L
-1.556303	V )
-0.6532125	V *
-1.079181	V ,
-1.556303	V ->
-1.255273	V ;
-1.556303	V </s>
-0.9542425	V =
-1.556303	V F
-1.556303	V _b
-1.556303	V _c
-1.556303	V _f
-1.255273	V a
-1.255273	V e
-1.556303	V i
-1.556303	V n
-1.556303	V o
-1.556303	V r
-1.556303	V w
-1.556303	V y
-1.255273	V z
-0.2126081	W (
-1.190332	W )
-1.491362	W *
-1.792392	W +
-1.190332	W ,
-1.31527	W /
-1.190332	W ;
-1.792392	W </s>
-1.093422	W [
0	Window u
-1.724276	X !=
-1.724276	X &
-1.423246	X (
-0.5781478	X )
-1.423246	X *
-1.724276	X +
-0.6450946	X ,
-1.724276	X -
-1.724276	X --
-1.724276	X /
-1.724276	X :
-1.423246	X ;
-1.724276	X <
-1.025306	X </s>
-1.247155	X =
-1.423246	X [
-1.724276	X ]
-1.724276	X h
-1.724276	X v
0	XCheckWindowEvent (
0	XCreateImage (
0	XCreateSimpleWindow </s>
0	XEvent M
0	XImage *
0	XLookupKeysym (
0	XMapWindow (
0	XOpenDisplay (
0	XPutImage (
0	XSelectInput (
-0.8920946	Y (
-1.113943	Y )
-1.113943	Y *
-1.591065	Y *=
-1.290035	Y +
-1.591065	Y +=
-1.113943	Y ,
-1.591065	Y -
-1.290035	Y ->
-0.7459666	Y ;
-0.5910646	Y =
-1.591065	Y a
-0.6627578	Z (
-1.060698	Z *=
-1.361728	Z +
-1.060698	Z +=
-1.361728	Z ,
-1.361728	Z -
-1.361728	Z -=
-0.8846066	Z ;
-1.361728	Z =
-1.361728	Z ?
-1.361728	Z e
-1.361728	Z g
-1.361728	Z h
-1.361728	Z k
-1.361728	Z n
-1.724276	[ (
-1.645095	[ *
-1.469003	[ -
-1.520156	[ 0
-2.423246	[ 01
-1.192797	[ 1
-2.423246	[ 17
-1.578148	[ 2
-1.423246	[ 3
-2.122216	[ 32
-2.423246	[ 36
-1.423246	[ 4
-1.821186	[ 5
-2.423246	[ 5200
-1.946125	[ 6
-2.423246	[ 65536
-2.122216	[ 7
-2.423246	[ 8
-2.423246	[ 80
-2.423246	[ 97
-2.423246	[ 9999
-1.578148	[ </s>
-2.423246	[ B
-2.122216	[ EOF
-2.122216	[ H
-1.520156	[ L
-2.122216	[ O
-2.423246	[ Q6
-2.122216	[ W
-2.122216	[ X
-1.423246	[ ]
-1.122216	[ _
-2.423246	[ _Q
-1.025306	[ __
-2.423246	[ a
-2.423246	[ b
-2.423246	[ bi
-2.423246	[ c
-1.645095	[ d
-2.423246	[ f
-1.724276	[ g
-1.821186	[ h
-1.946125	[ i
-2.423246	[ j
-1.645095	[ k
-2.423246	[ l
-2.122216	[ leu
-2.122216	[ m
-1.946125	[ n
-2.122216	[ not
-2.423246	[ o
-1.821186	[ optind
-2.423246	[ p
-1.821186	[ r
-2.122216	[ t
-2.423246	[ tgANs
-1.520156	[ v
-2.423246	[ val
-2.122216	[ x
-1.080823	[ xor
-2.122216	[ y
-2.122216	[ ~
0	[-d] file1
0	\"" "%s"
-1.760422	] !=
-2.158362	] %
-1.982271	] &
-2.459393	] &&
-2.459393	] '2O
-2.459393	] '_3a
-2.158362	] (
-0.9680308	] )
-1.380211	] *
-2.158362	] *=
-1.50515	] +
-1.681241	] ++
-1.760422	] +=
-0.9822713	] ,
-1.681241	] -
-2.459393	] --
-2.158362	] -=
-1.380211	] .
-1.982271	] /
-2.459393	] 0
-2.459393	] 6
-1.982271	] :
-0.9680308	] ;
-1.982271	] <
-1.857332	] </s>
-2.459393	] <<
-0.6464791	] =
-1.982271	] ==
-1.556303	] >
-2.459393	] >=
-2.158362	] >>
-2.158362	] ?
-2.459393	] OsR
-2.459393	] [
-2.459393	] ]
-1.345449	] _
-2.459393	] _o
-2.158362	] g
-2.459393	] h
-2.459393	] k
-2.459393	] k_
-2.459393	] l
-2.459393	] l_
-1.982271	] |
-2.459393	] ||
-2.459393	] }
-1.491362	^ %
-1.491362	^ 'h(Q]0h#
-1.190332	^ (
-1.491362	^ )
-1.491362	^ -
-1.491362	^ --
-1.491362	^ /
-1.491362	^ 024
-1.491362	^ 0xfc0
-1.491362	^ 1
-1.491362	^ 2
-1.491362	^ 20
-1.491362	^ 255
-1.491362	^ 3
-1.491362	^ 3920
-1.491362	^ 4
-1.190332	^ 6
-1.491362	^ I
-1.491362	^ OaaD
-1.491362	^ d
-1.491362	^ f
-1.491362	^ h
-1.491362	^ k
-1.01424	^ l
-1.491362	^ og
-1.491362	^ t
-1.491362	^ ~
-0.69897	^= *
-0.69897	^= 20
-0.69897	^= _
-0.69897	^= k
-0.69897	^= y
-2.71767	_ %
-0.7399469	_ (
-0.91833	_ )
-2.71767	_ *
-2.71767	_ +
-2.71767	_ ++
-0.3674225	_ ,
-2.71767	_ -
-2.71767	_ /
-2.71767	_ 6
-2.416641	_ :
-2.416641	_ ;
-2.240549	_ <
-1.717671	_ </s>
-2.018701	_ =
-2.71767	_ >>
-2.416641	_ ?
-1.054913	_ [
-2.71767	_ ^=
-0.9933946	_ _
-2.71767	_ _8
-2.416641	_ __
-2.416641	_ f
-2.71767	_ g
-2.71767	_ pQaM8m
-2.71767	_ {
0	_){putchar(_);}O" "\40main(){O"
-0.9542425	_0 &&
-0.9542425	_0 )
-0.6532125	_0 *
-0.9542425	_0 +=
-0.9542425	_0 ,
-0.9542425	_0 /
-0.6532125	_0 =
0	_8 (
0	_KK3 +
-0.69897	_O %
-1	_O %=
-0.69897	_O )
-1	_O +
-1	_O +=
-0.69897	_O =
-1	_O >
-0.5228788	_Q %
-1	_Q )
-0.69897	_Q +=
-1	_Q /
-1	_Q </s>
-0.69897	_Q =
0	_Zadat57 <
-1.556303	__ &
-1.857332	__ &&
-0.1249387	__ (
-1.556303	__ )
-1.857332	__ *
-1.857332	__ +
-1.556303	__ +=
-1.857332	__ ,
-1.857332	__ ;
-1.556303	__ </s>
-1.857332	__ <<
-1.556303	__ =
-1.857332	__ >>
-1.857332	__ >>=
0	__LINE__ *
-0.30103	__STDC_VERSION__ &&
-0.30103	__STDC_VERSION__ >
-0.30103	__STDC__ )
-0.30103	__STDC__ </s>
0	__TIME__ ;
0	__VA_ARGS__ }
-0.1760913	___ (
-0.4771213	___ )
-0.02227639	____ (
-1.30103	____ </s>
-0.30103	_a %
-0.30103	_a </s>
0	_b (
0	_c (
0	_d (
-0.60206	_f (
-0.60206	_f :
-0.60206	_f ;
-0.60206	_f </s>
0	_h *
0	_i (
-0.30103	_k (
-0.30103	_k :
0	_o ptj9
0	_t <
0	_z (
-2.158362	a %
-2.158362	a %=
-1.556303	a &
-2.158362	a &&
-2.158362	a &=
-1.158363	a (
-0.9822713	a )
-1.20412	a *
-1.857332	a *=
-1.556303	a +
-1.857332	a ++
-2.158362	a +=
-1.044419	a ,
-1.459392	a -
-1.857332	a --
-1.380211	a ->
-1.681241	a /
-2.158362	a /=
-1.20412	a ;
-1.681241	a <
-1.20412	a </s>
-2.158362	a <<
-0.90309	a =
-1.556303	a >>
-2.158362	a ?
-1.20412	a [
-1.459392	a ]
-2.158362	a {
-1.681241	a |
0	a_ (
0	abs (
-0.544068	ala *
-0.845098	ala ;
-0.845098	ala asn
-0.3679768	ala not
-0.1890562	and )
-1.230449	and *
-1.531479	and ;
-1.531479	and asp
-1.531479	and gln
-1.230449	and his
-1.531479	and pyl
-1.531479	and sec
-1.531479	and tla
-1.531479	and tyr
-1.531479	and xle
-0.30103	ar )
-0.30103	ar ,
-0.09691001	arg )
-0.69897	arg =
-0.60206	argh )
-0.30103	argh ,
-0.60206	argh ;
-1.113943	asn ,
-0.07255067	asn .
-1.113943	asn ;
-0.1760913	asp -
-0.4771213	asp =
-0.60206	asx )
-0.60206	asx +
-0.60206	asx =
-0.60206	asx >
0	au )
0	ay </s>
-1.294781	b !
-2.139879	b %
-2.139879	b &
-1.838849	b &&
-1.537819	b (
-1.098486	b )
-2.139879	b *
-1.838849	b *=
-2.139879	b +
-2.139879	b ++
-1.838849	b ,
-1.838849	b --
-1.361728	b ->
-0.9094301	b ;
-1.662758	b <
-1.361728	b </s>
-1.662758	b <<
-0.9094301	b =
-1.838849	b >>
-1.662758	b ?
-1.361728	b B
-2.139879	b D
-1.361728	b I
-2.139879	b O
-2.139879	b P
-2.139879	b W
-2.139879	b Z
-1.236789	b [
-1.662758	b ]
-1.662758	b ^
-1.537819	b bf
-2.139879	b bg
-2.139879	b bt
-2.139879	b h
-2.139879	b j
-2.139879	b kg
-2.139879	b n
-2.139879	b o
-1.838849	b q
-2.139879	b u
-2.139879	b ||
0	b1g (
0	b4 </s>
0	b5g (
-0.69897	bA ,
-0.69897	bA ;
-0.69897	bA <<
-0.39794	bA =
-0.60206	bB )
-0.60206	bB ;
-0.30103	bB =
-0.60206	bC *
-0.60206	bC ,
-0.60206	bC /
-0.60206	bC =
-0.4771213	bD *
-0.4771213	bD ,
-0.4771213	bD =
-0.69897	bE )
-0.2218488	bE .
-0.69897	bE ;
0	b\nq(%s)\n" </s>
0	ba (
-0.7781513	bb )
-0.7781513	bb +
-0.7781513	bb +=
-0.7781513	bb ;
-0.4771213	bb =
0	bc (
-0.1760913	bd (
-0.4771213	bd </s>
-0.90309	be )
-0.60206	be ,
-0.20412	be ;
-0.60206	bf &&
-0.4771213	bf )
-0.4771213	bf ;
-1.079181	bf =
-0.60206	bg &&
-0.60206	bg )
-0.60206	bg ;
-0.60206	bg =
-0.1249387	bh (
-0.60206	bh </s>
0	bh' l
-0.30103	bi )
-0.30103	bi ]
0	bj (
-0.60206	bk &&
-0.30103	bk ,
-0.60206	bk ;
-0.1760913	bl (
-0.4771213	bl }
-0.30103	bm =
-0.30103	bm ==
-0.30103	bn ,
-0.30103	bn =
-0.30103	bo )
-0.30103	bo =
0	bp (
-0.30103	bq (
-0.30103	bq }
0	br ,
-0.04139268	break ;
-1.041393	break H
-0.1760913	bs )
-0.4771213	bs ;
-0.7781513	bt ,
-0.4771213	bt ;
-0.4771213	bt =
-0.7781513	bt >
-0.7781513	bu *
-0.4771213	bu ,
-0.4771213	bu =
-0.7781513	bu >
-0.60206	buf )
-0.60206	buf ,
-0.60206	buf ;
-0.60206	buf [
-0.30103	bv ,
-0.30103	bv ;
0	bw ,
-0.30103	bx )
-0.30103	bx ;
-0.7781513	by ,
-0.7781513	by =
-0.30103	by ?
-0.7781513	by ||
-0.69897	bz </s>
-0.69897	bz <<
-0.39794	bz =
-0.69897	bz >>
-1.799341	c &
-1.498311	c &&
-1.197281	c )
-1.100371	c *
-1.197281	c +
-1.498311	c ++
-0.9542425	c ,
-1.100371	c -
-1.799341	c -=
-1.799341	c /
-1.100371	c :
-1.100371	c ;
-1.799341	c <
-1.322219	c </s>
-0.845098	c =
-1.799341	c ==
-1.799341	c >
-1.498311	c ?
-1.498311	c ]
-1.799341	c |
-1.799341	c ||
-0.30103	c8 +
-0.30103	c8 7
0	c9 .
0	cN mkM
0	c_X </s>
0	c_kah%0d9`b' /
0	calloc (
0	case 'd'
0	cb ,
0	ch )
-0.1760913	char *
-1.431364	char J
-1.431364	char L
-1.431364	char N
-1.431364	char O
-1.431364	char X
-1.431364	char buf
-1.431364	char o
-1.431364	char pro
-1.431364	char ser
0	ckQaOrON epne
0	close (
-1.041393	const ala
-0.4973246	const and
-1.342423	const char
-1.342423	const gln
-1.041393	const his
-1.041393	const not
-0.8653014	const pro
-1.041393	const ser
-1.041393	const thr
0	continue ;
0	cos (
0	cq *
0	curs_set (
-0.7781513	cys )
-0.4771213	cys -
-0.7781513	cys =
-0.4771213	cys >>
-1.041393	d )
-1.480725	d *
-1.480725	d *=
-1.383815	d +
-1.781755	d ++
-1.041393	d +=
-0.968842	d ,
-1.304634	d -
-1.304634	d -=
-2.082785	d ->
-2.082785	d /
-1.605664	d /=
-2.082785	d 9
-2.082785	d :
-0.8040318	d ;
-1.605664	d <
-2.082785	d </s>
-2.082785	d <<
-2.082785	d <=
-0.968842	d =
-2.082785	d ==
-2.082785	d >
-2.082785	d >=
-1.781755	d >>
-2.082785	d ?
-2.082785	d [
-1.480725	d ]
-2.082785	d xv
-2.082785	d |
-2.082785	d ||
0	d2 xa6
0	d77sNOsd 8
-0.60206	d8 (
-0.60206	d8 ,
-0.60206	d8 _
-0.60206	d8 a
0	d8ak =
0	dA )
0	dB )
0	dC </s>
0	d_C f3
0	default :
0	defined __STDC_VERSION__
-0.69897	do ,
-0.09691001	do {
0	double </s>
0	dstr )
0	dup (
0	dup2 (
-1.342423	e (
-1.099385	e )
-1.467361	e *
-1.944483	e *=
-1.944483	e +
-1.245513	e +=
-0.9444827	e ,
-1.944483	e -
-1.643453	e -=
-0.8653014	e ->
-1.643453	e /
-1.944483	e :
-0.7683914	e ;
-1.643453	e <
-1.643453	e </s>
-1.944483	e <<=
-0.9444827	e =
-1.944483	e >
-1.944483	e >>
-1.245513	e [
-1.944483	e kf
-1.944483	e {
0	eep ,
-1.462398	efine D
-1.462398	efine E
-1.462398	efine E0
-1.462398	efine EX
-1.462398	efine F0
-1.462398	efine F1
-1.462398	efine F2
-1.462398	efine FV
-1.462398	efine H
-1.462398	efine HP
-1.462398	efine HY
-1.462398	efine I
-1.462398	efine K
-1.462398	efine LP
-1.462398	efine M
-1.462398	efine N
-1.462398	efine O
-1.462398	efine P
-1.462398	efine Q
-1.462398	efine QH
-1.462398	efine QL
-1.462398	efine R
-1.462398	efine RP
-1.462398	efine S
-1.462398	efine T
-1.462398	efine U
-1.462398	efine W
-1.462398	efine Z
-1.462398	efine break
-0.6532125	else </s>
-1.255273	else z
-0.1413292	else {
0	epne luelue
0	err (
0	errx (
0	exit (
0	exp (
0	extern void
-1.995635	f &
-1.694605	f &&
-0.8816918	f (
-0.7168816	f )
-1.694605	f *
-1.995635	f +
-0.7403627	f ,
-1.518514	f -
-1.995635	f .
-0.9956352	f ;
-1.694605	f <
-1.995635	f </s>
-1.995635	f <<
-1.092545	f =
-1.995635	f ==
-1.995635	f >
-1.150537	f ?
-1.995635	f EOF
-1.694605	f ]
-1.995635	f defined
-1.694605	f |
-1.694605	f }
0	f3 ]
0	fabs (
0	fclose (
0	fgetc (
0	file1 file2"
0	file2" ,
0	flash (
-0.845098	float </s>
-0.845098	float C
-0.845098	float I
-0.845098	float K
-0.845098	float N
-0.845098	float V
-0.845098	float a
0	float_ )
0	flu ,
0	fopen (
-0.02266398	for (
-1.293731	for </s>
0	fputc (
0	fread (
0	free (
0	fseek (
0	fw )
-1.755875	g %
-1.579784	g &
-2.056905	g &&
-1.357935	g (
-1.454845	g )
-1.056905	g *
-1.454845	g *=
-1.211807	g +
-1.579784	g ++
-1.755875	g +=
-1.211807	g ,
-2.056905	g --
-1.454845	g -=
-2.056905	g /
-1.755875	g 9
-2.056905	g :
-0.695177	g ;
-1.454845	g <
-2.056905	g </s>
-0.6589649	g =
-2.056905	g Q
-2.056905	g [
-2.056905	g ]
-2.056905	g ^
0	getch (
-0.1249387	getchar (
-0.60206	getchar ;
0	getopt (
-0.50515	gln )
-0.30103	gln ;
-0.90309	gln =
-1.20412	gln ==
-0.30103	glu )
-0.5228788	glu :
-1	glu <<
-1	glu =
-0.30103	glx %
-0.30103	glx =
0	gly (
0	go )
0	goofy !
-1.133539	h %
-1.832509	h &
-1.832509	h &&
-1.832509	h 'lQ
-1.355388	h (
-1.832509	h )
-1.355388	h *
-1.832509	h *=
-1.531479	h +
-1.832509	h ++
-1.832509	h +=
-1.133539	h ,
-1.133539	h -
-1.355388	h .
-1.832509	h /
-1.832509	h 9
-1.054358	h ;
-1.832509	h </s>
-0.9874108	h <<
-0.8325089	h =
-1.832509	h >
-1.832509	h >>
-1.832509	h ?
-1.832509	h Q
-1.832509	h ^
-1.832509	h ^=
-1.832509	h b
-1.531479	h |
0	halting )
-0.3679768	his )
-0.845098	his ;
-0.3679768	his [
0	ho )
-1.665894	i %
-1.665894	i &
-1.665894	i &&
-0.6806168	i (
-1.029071	i )
-1.297917	i *
-2.143015	i *=
-1.540955	i +
-1.665894	i ++
-2.143015	i +=
-0.7450748	i ,
-1.444045	i -
-2.143015	i --
-1.665894	i /
-1.841985	i :
-1.101622	i ;
-1.841985	i <
-2.143015	i <=
-0.9669235	i =
-2.143015	i ==
-1.665894	i >>
-1.841985	i ?
-2.143015	i |
-0.01240926	if (
-1.550228	if </s>
-0.69897	ile !=
-0.69897	ile +
-0.69897	ile --
-0.69897	ile ;
-0.69897	ile =
0	in tYv
0	initscr (
-1.153815	int )
-0.9777236	int *
-1.056905	int </s>
-1.755875	int G
-1.755875	int H
-1.278754	int I
-1.755875	int L
-1.755875	int P
-1.755875	int Q
-1.454845	int X
-1.755875	int _
-1.755875	int a
-1.755875	int bk
-1.755875	int bm
-1.755875	int bs
-1.755875	int bt
-1.755875	int bw
-1.755875	int by
-1.755875	int c
-1.278754	int i
-1.755875	int j
-1.454845	int k
-1.755875	int l
-0.9777236	int main
-1.755875	int met
-1.755875	int op
-1.755875	int puts
-1.755875	int u
-1.755875	int v
-1.278754	int x
-1.454845	int y
0	int_ )
0	intw )
0	ioctl (
-1.973128	j %
-1.371068	j &&
-0.9731278	j )
-1.672098	j *
-1.496007	j *=
-1.12803	j +
-1.973128	j ++
-1.672098	j +=
-0.7178553	j ,
-1.496007	j -
-1.973128	j /
-1.672098	j /=
-1.672098	j :
-1.12803	j ;
-1.496007	j <
-1.672098	j </s>
-0.7426789	j =
-1.973128	j ==
-1.672098	j >
-1.371068	j ?
-1.973128	j kd
-1.973128	j ||
0	jQ O7
0	j_la _
0	j_laaaN :
0	jmp_buf J
-1.832509	k %
-1.832509	k &
-1.531479	k (
-0.8782664	k )
-1.832509	k *
-1.832509	k *=
-1.230449	k +
-1.531479	k ++
-1.832509	k +=
-0.7911162	k ,
-1.832509	k -
-1.832509	k --
-1.832509	k -=
-1.355388	k /
-1.832509	k :
-1.531479	k ;
-1.531479	k <
-1.531479	k </s>
-0.8325089	k =
-1.832509	k >
-1.832509	k >>
-1.832509	k >>=
-1.355388	k [
-1.355388	k ]
-1.832509	k ^=
-1.832509	k g
-1.832509	k }
0	k8b %
0	k9 b1g
0	kP8 ;
0	k_ 7
0	kccMcOP &
0	kckQ ,
0	kd 7
0	key .
0	keysym .
0	kf _a
0	kg </s>
-1.90309	l &&
-1.60206	l (
-0.9488475	l )
-1.30103	l *
-1.90309	l *=
-1.60206	l +
-1.90309	l ++
-1.30103	l +=
-0.8239087	l ,
-1.20412	l -
-1.90309	l -=
-0.8239087	l ;
-1.90309	l <
-1.90309	l </s>
-1.90309	l <<
-0.8239087	l =
-1.90309	l ==
-1.90309	l >
-1.90309	l >>
-1.60206	l ]
-1.60206	l ^
-1.90309	l mq9l8b
-1.90309	l peoqemtemw
-1.90309	l vQ
-1.90309	l |
-0.30103	lM :
-0.30103	lM ;
0	lNRmO_loa8 %
0	lQ h
0	lQoOa N9
0	l_ %
0	le )
0	lea ,
-0.60206	leu ;
-0.60206	leu =
-0.30103	leu ]
0	lf )
-1.322219	long A
-1.322219	long L
-1.322219	long Q8
-1.322219	long V
-1.322219	long Z
-1.322219	long __
-1.322219	long a
-1.322219	long b
-1.322219	long c
-1.322219	long h
-1.322219	long j
-0.544068	long long
-1.322219	long q
-1.322219	long y
-1.021189	long z
0	longjmp (
0	lpeoqempepneu e
0	lrand48 (
0	luN ]
0	luelue lpeoqempepneu
0	lwg +
-0.6532125	lys )
-0.9542425	lys +=
-0.9542425	lys -=
-0.4771213	lys =
-0.9542425	lys ==
-0.9542425	lys >=
-1.78533	m %
-1.78533	m &&
-0.7853298	m (
-1.007179	m )
-1.4843	m *
-1.4843	m +
-1.78533	m ++
-1.78533	m +=
-0.7061486	m ,
-1.78533	m -
-1.78533	m -=
-1.78533	m /
-1.78533	m :
-1.308209	m ;
-1.308209	m <
-1.4843	m </s>
-0.8310874	m =
-1.308209	m >
-1.78533	m vOwwRor
-0.30103	mR RMPmSk
-0.30103	mR mS
0	mR8 }
0	mRMmO %
0	mRh ^
0	mS ]
0	main (
0	malloc (
0	memset (
-0.4771213	met )
-0.9542425	met ;
-0.9542425	met lys
-0.6532125	met main
-0.6532125	met val
0	mkM :
0	mq9l8b ^
0	mva ,
0	mvaddstr (
0	mvinch (
0	mvinsch (
-2.049218	n %
-2.049218	n &&
-1.748188	n (
-0.8187691	n )
-1.447158	n *
-1.350248	n +
-1.447158	n +=
-0.651278	n ,
-1.350248	n -
-2.049218	n --
-1.748188	n -=
-2.049218	n /
-2.049218	n :
-1.049218	n ;
-1.748188	n <
-1.572097	n </s>
-1.007825	n =
-1.271067	n >
-1.572097	n >>
-2.049218	n ?
-1.748188	n ]
-2.049218	n ^=
-1.748188	n |
-2.049218	n |=
-2.049218	n }
0	nR ;
0	nRmUd s
0	ndif </s>
0	nk ;
-1.995635	not !=
-1.995635	not &
-1.092545	not )
-1.217484	not ,
-1.150537	not ->
-0.3828513	not .
-1.694605	not ;
-1.393575	not =
-1.995635	not ==
-1.995635	not >
-1.995635	not >>
-0.5806618	not [
0	np )
-1.869232	o &
-1.216019	o )
-1.128869	o *
-2.170262	o *=
-1.216019	o +
-1.869232	o ++
-1.693141	o +=
-0.9149892	o ,
-1.170262	o -
-1.869232	o -=
-2.170262	o /
-0.8692317	o ;
-0.738898	o =
-1.869232	o >
-1.869232	o >>
-0.7552884	o [
-1.869232	o ]
-2.170262	o ||
0	o(O _){putchar(_);}O"
0	oM :
0	oNS &
0	oec ,
0	of )
0	og (
-0.6532125	op &&
-0.9542425	op )
-0.6532125	op ;
-0.4771213	op =
-0.9542425	op ^
0	open (
-0.7781513	optind )
-0.4771213	optind +
-0.7781513	optind =
-0.4771213	optind ]
-1.897627	p &
-1.295567	p (
-1.198657	p )
-1.596597	p +
-0.8976271	p ++
-0.9945371	p ,
-1.420506	p -
-1.897627	p -=
-1.420506	p /
-0.7836837	p ;
-1.897627	p <
-1.897627	p </s>
-1.897627	p <=
-0.6423546	p =
-1.596597	p >
-1.420506	p [
-1.596597	p ]
-1.897627	p utchar
0	pOpM866OsRlm N
0	pQaM8m {
0	pRM7O </s>
0	peoqemtemw Q7
0	phe (
0	pixels ,
0	pow (
0	pread (
0	printf (
-0.69897	pro )
-0.2218488	pro *
-0.69897	pro ;
0	ptj9 lwg
0	pu ,
0	putchar (
-0.06694679	puts (
-0.845098	puts </s>
0	px TmSt
-0.30103	pyl ;
-0.30103	pyl =
-1.69897	q !=
-1.09691	q (
-1	q )
-1.69897	q *
-1.39794	q +
-1.69897	q ++
-1.69897	q +=
-1.69897	q ,
-1.221849	q -
-1.39794	q --
-0.8538719	q ;
-1.221849	q </s>
-0.69897	q =
-1.69897	q ==
-1.69897	q >>
-1.69897	q N
-1	q [
-1.69897	q ]
0	qN OMp
0	qQ O
-1.389166	r %
-1.690196	r 'Q]
-0.6901961	r (
-0.9912261	r )
-1.389166	r +
-0.9912261	r ++
-1.389166	r +=
-1.088136	r ,
-1.213075	r ;
-0.7359536	r =
-1.690196	r ==
-1.690196	r >>
-1.690196	r RmM
-1.690196	r [
-1.690196	r ]
-1.690196	r |
-0.4771213	rQ </s>
-0.4771213	rQ ]
-0.4771213	rQ rQ
0	rR pOpM866OsRlm
0	rand (
0	re turnY_
0	rea ,
0	read (
0	realloc (
0	refresh (
-1.361728	return (
-1.361728	return +
-0.7596679	return 0
-1.060698	return </s>
-1.361728	return Q
-1.361728	return W
-1.361728	return Y
-1.361728	return b
-1.361728	return bb
-0.7596679	return d
-1.361728	return exp
-1.361728	return fclose
-1.361728	return l
-1.361728	return strtol
-1.361728	return u
-1.361728	return y
0	rewind (
0	round (
0	rror goofy
-1.908485	s &&
-1.306425	s )
-1.209515	s *
-1.306425	s *=
-1.607455	s +
-1.607455	s ++
-1.431364	s +=
-1.063387	s ,
-1.431364	s -
-1.431364	s -=
-1.908485	s /=
-1.607455	s :
-1.005395	s ;
-1.607455	s <
-1.908485	s </s>
-1.908485	s <<
-0.6297314	s =
-1.607455	s >
-1.908485	s ?
-1.209515	s [
-1.607455	s ]
-1.908485	s d77sNOsd
-1.607455	s |
0	sM nRmUd
-0.30103	sN '
-0.30103	sN 9
0	sTaa :
0	s_4 &
0	scanf (
-0.3521825	sec )
-0.2552725	sec =
-0.1383027	ser )
-1.041393	ser ;
-1.041393	ser asx
-1.041393	ser glx
0	setjmp (
0	shi ,
-0.30103	short *
-0.30103	short Y
0	si ,
0	signal (
0	sin (
0	size_t thr
-0.07255067	sizeof (
-1.113943	sizeof his
-1.113943	sizeof sec
0	slltwzh &
0	sprintf (
0	sqrt (
-0.7781513	static const
-0.07918125	static void
0	stdin )
0	stdout )
0	strcmp (
0	strlen (
0	strrchr (
0	strtol </s>
-0.4771213	struct e
-0.1760913	struct {
0	switch (
0	sym ;
-0.69897	sym_ (
-0.09691001	sym_ ,
-1.50515	t !=
-1.80618	t %=
-1.80618	t &&
-0.6922366	t )
-1.50515	t *
-1.80618	t *=
-1.50515	t +
-1.329059	t +=
-1.028029	t ,
-1.50515	t -
-1.50515	t :
-1.028029	t ;
-1.80618	t <
-1.80618	t </s>
-0.7269987	t =
-1.80618	t ==
-1.80618	t >
-1.20412	t ?
-1.80618	t |
-1.50515	t ||
0	tQ ?
0	tYv =
0	tape )
0	tch ,
0	tgANs =
-0.90309	thr ;
-0.90309	thr cys
-0.90309	thr ile
-0.90309	thr leu
-0.90309	thr trp
-0.90309	thr val
-0.60206	thr xor
0	timeout (
-0.30103	tla ;
-0.60206	tla =
-0.60206	tla ==
0	tmpfile (
0	to ,
-1	trp )
-1	trp ,
-0.154902	trp ;
-1	trp =
0	turnY_ .
0	typ and
0	type ==
-1.079181	typedef </s>
-1.079181	typedef char
-1.079181	typedef int
-1.079181	typedef size_t
-0.3802112	typedef struct
-1.079181	typedef typ
-1.079181	typedef union
-1.079181	typedef unsigned
-1	tyr )
-1	tyr +
-1	tyr /
-0.39794	tyr =
-0.5228788	tyr [
-0.7255678	u )
-2.004321	u *
-2.004321	u *=
-1.5272	u +
-1.703291	u ++
-1.5272	u +=
-1.004321	u ,
-2.004321	u -
-1.703291	u /
-1.101231	u ;
-2.004321	u <
-1.703291	u </s>
-1.22617	u <<
-1.101231	u =
-1.703291	u ?
-0.5571634	u [
-1.703291	u ]
-1.703291	u ||
0	uU ]
0	ub ,
0	union w
-0.30103	unk )
-0.7781513	unk ;
-1.079181	unk =
-0.60206	unk ]
-0.90309	unsigned So
-0.60206	unsigned char
-0.20412	unsigned long
0	up" )
0	usl ,
0	usleep (
0	utchar (
-1.934498	v !=
-1.934498	v %
-1.934498	v &
-1.934498	v *=
-1.457377	v +
-1.633469	v ++
-1.235528	v ,
-0.8931057	v -
-1.934498	v --
-1.235528	v -=
-1.457377	v .
-1.457377	v /
-1.633469	v :
-0.980256	v ;
-1.0894	v <
-1.934498	v </s>
-1.633469	v <=
-0.9344984	v =
-1.633469	v ==
-1.934498	v >
-1.934498	v >>
-1.235528	v ?
-1.934498	v [
-1.332438	v ]
-1.332438	v |
0	vOwwRor ~
0	vQ ^
0	va_arg (
0	va_end </s>
0	va_list argh
0	va_start (
0	vad ,
-0.9700368	val )
-1.447158	val *
-1.447158	val +
-1.447158	val +=
-0.9700368	val ,
-1.447158	val -
-1.447158	val -=
-0.4057654	val ;
-1.447158	val <
-1.146128	val =
-1.447158	val ==
-1.146128	val ]
-1.255273	void )
-0.7781513	void *
-0.7781513	void </s>
-1.255273	void P
-1.255273	void W
-1.255273	void e
-0.9542425	void gly
-0.9542425	void phe
-1.255273	void w
-1.255273	void x
-1.255273	void y
-1.255273	void z
0	voidw (
0	volatile </s>
0	vpr ,
-0.5600955	w (
-0.9357591	w )
-1.236789	w *
-1.838849	w *=
-1.236789	w +=
-1.236789	w ,
-1.838849	w -=
-0.993751	w ;
-1.838849	w </s>
-1.236789	w =
-1.838849	w [
-1.838849	w _
-1.838849	w a
-1.838849	w a_
-1.139879	w f
-1.537819	w fw
-1.838849	w w
-1.361728	w x
-1.838849	w {
0	while (
0	wnS _
0	world!" )
0	write (
-1.929419	x &&
-1.929419	x (
-0.8502377	x )
-1.929419	x *=
-1.327359	x +
-1.929419	x ++
-0.5492077	x ,
-1.929419	x -
-1.452298	x .
-1.327359	x ;
-1.452298	x <
-1.628389	x </s>
-1.929419	x <<
-1.929419	x <=
-0.7832909	x =
-1.929419	x ==
-1.628389	x >>
-1.327359	x ?
-1.452298	x [
-1.628389	x ]
0	xa6 ,
0	xkey ,
-0.30103	xle ;
-0.30103	xle =
-0.8081145	xor )
-1.352183	xor -
-1.352183	xor ;
-0.8750613	xor <
-0.8081145	xor =
-1.653213	xor ==
-0.3521825	xor ]
0	xv SOPm
-1.924279	y !=
-0.9242793	y (
-0.8828866	y )
-1.225309	y +
-1.924279	y ++
-1.924279	y +=
-1.079181	y ,
-1.447158	y -
-1.225309	y ->
-0.8828866	y ;
-1.322219	y <
-1.924279	y </s>
-0.8103359	y =
-1.924279	y ==
-1.924279	y >>
-1.322219	y [
-1.924279	y ]
-1.623249	y ^
-1.924279	y ^=
-1.924279	y ||
0	yN _
-0.2688453	z (
-1.335792	z *
-1.511883	z *=
-1.113943	z +=
-1.511883	z ,
-1.210853	z ;
-1.511883	z </s>
-1.812913	z <<
-1.812913	z <=
-1.113943	z =
-1.113943	z [
0	ze ,
-2.371068	{ "('A`)"
-2.371068	{ )
-1.592917	{ *
-1.52597	{ .
-2.371068	{ 0
-2.371068	{ 8
-2.371068	{ 8000
-2.070038	{ ;
-0.457254	{ </s>
-2.371068	{ Display
-2.371068	{ F
-2.070038	{ G
-2.070038	{ H
-2.371068	{ I
-2.371068	{ J
-1.769008	{ L
-2.371068	{ MK6lM
-1.893947	{ O
-2.371068	{ O_
-1.52597	{ R
-2.371068	{ S
-2.371068	{ SDL_Rect
-2.070038	{ T
-1.672098	{ V
-2.070038	{ W
-2.371068	{ Z
-2.371068	{ _
-2.070038	{ a
-1.329675	{ b
-1.893947	{ bc
-2.371068	{ bg
-2.371068	{ bj
-2.371068	{ by
-2.371068	{ c
-2.371068	{ char
-1.672098	{ d
-2.371068	{ d2
-2.070038	{ float
-1.592917	{ for
-2.371068	{ g
-2.371068	{ i
-1.592917	{ if
-2.371068	{ in
-2.371068	{ initscr
-1.52597	{ int
-2.070038	{ l
-1.893947	{ m
-2.070038	{ n
-1.893947	{ o
-2.371068	{ printf
-2.371068	{ puts
-2.371068	{ px
-1.893947	{ q
-1.893947	{ r
-2.371068	{ return
-2.371068	{ s
-2.371068	{ timeout
-1.672098	{ u
-2.371068	{ va_list
-1.893947	{ w
-2.070038	{ while
-2.070038	{ x
-2.371068	{ y
-2.070038	{ z
-2.371068	{ {
-1.672098	{ }
-1.194977	| !
-0.7690079	| (
-1.672098	| 1
-1.672098	| 4194304
-1.672098	| 8
-1.672098	| </s>
-1.672098	| O
-1.672098	| T
-1.672098	| _
-0.8939466	| a
-1.672098	| arg
-1.194977	| b
-1.371068	| d
-1.672098	| d8ak
-1.194977	| f
-1.371068	| h
-1.070038	| i
-1.672098	| k
-1.672098	| l
-1.371068	| o
-1.672098	| u
-1.371068	| x
0	|= y
-1.322219	|| !
-1.322219	|| '
-0.6232493	|| (
-1.322219	|| *
-1.322219	|| 0
-1.021189	|| </s>
-1.322219	|| Q
-1.322219	|| bE
-1.322219	|| close
-1.322219	|| i
-1.322219	|| main
-1.322219	|| mvinch
-1.021189	|| p
-1.322219	|| r
-1.322219	|| v
-2.367356	} "|~0y'vWtA@:LcO9d}y.!uL!Gd+ml(<+Ds!J"
-1.765296	} (
-1.522258	} )
-1.668386	} ,
-2.367356	} 0
-1.668386	} ;
-0.4697288	} </s>
-2.367356	} C
-2.367356	} D
-2.367356	} E
-2.367356	} H
-2.367356	} J
-2.066326	} L
-2.367356	} O
-1.765296	} P
-2.367356	} Q
-2.367356	} SDL_AudioSpec
-2.367356	} U
-1.464266	} V
-1.890235	} W
-2.367356	} X
-2.367356	} Y
-1.890235	} Z
-2.367356	} _
-2.367356	} ala
-2.367356	} ay
-1.522258	} b
-2.367356	} bc
-2.367356	} bd
-2.367356	} bh
-2.367356	} bj
-2.367356	} bl
-2.367356	} bp
-2.367356	} bq
-2.066326	} e
-1.221228	} else
-2.066326	} extern
-2.066326	} f
-2.367356	} flash
-2.367356	} float
-2.066326	} for
-1.890235	} h
-1.668386	} if
-1.765296	} int
-2.367356	} o
-2.367356	} putchar
-2.367356	} puts
-2.367356	} q
-2.367356	} re
-2.066326	} return
-2.367356	} static
-2.066326	} typedef
-2.367356	} void
-2.367356	} voidw
-1.765296	} w
-1.765296	} while
-2.367356	} z
-0.9523826	} }
-1.518514	~ (
-0.7403627	~ -
-1.217484	~ </s>
-1.518514	~ M
-1.518514	~ b
-1.518514	~ c
-1.217484	~ d
-1.518514	~ e
-1.518514	~ f
-1.518514	~ g
-1.518514	~ gln
-1.518514	~ h
-1.518514	~ m
-1.518514	~ q
-0.7403627	~ s
-1.217484	~ t
-1.217484	~ u
-1.518514	~ z
-1.518514	~ }

\end\
