
\data\
ngram 1=797
ngram 2=4947
ngram 3=2494
ngram 4=1471

\1-grams:
-2.324399	!	-99
-2.967852	!=	-99
-2.791761	"	-99
-4.268882	"!:E%;!ea!!!WqE0z!f/y}!%!!Qi6!uzt!n}?]!bl!ak!SetR<"	-99
-4.268882	"!pv!;!Hm%Ro4"	-99
-3.423784	""	-99
-3.791761	"#"	-99
-3.791761	"$"	-99
-4.268882	"%."	-99
-4.268882	"%c"	-99
-3.967852	"%d	-99
-4.268882	"%d,%dd%d\n"	-99
-4.268882	"%d\n"	-99
-4.268882	"%da%d,%d\n"	-99
-4.268882	"%da%d\n"	-99
-4.268882	"%dd%d\n"	-99
-4.268882	"%f,%f,"	-99
-3.569912	"%s"	-99
-4.268882	"('A)"	-99
-3.967852	"('A`)"	-99
-4.268882	"(A`)"	-99
-4.268882	"(O**"	-99
-4.268882	")"	-99
-4.268882	")$"	-99
-4.268882	");"	-99
-4.268882	"*"	-99
-4.268882	"*_[512],**p=_,**d,b,q;for(b=0;b"	-99
-4.268882	"*p=#b,P[9999],*d=P,*e[]="	-99
-4.268882	"++<512;p=_+q)_[q"	-99
-4.268882	"-"	-99
-4.268882	"/"	-99
-4.268882	"/*;;	-99
-4.268882	"11\x80"	-99
-4.268882	"258EAFA5-"	-99
-4.268882	"8!@dP,!!o+fb"	-99
-4.268882	"::::::::::::?_::::\"::.::::@:::'::-::::::::;!:):::::,:::::"	-99
-3.791761	";"	-99
-4.268882	";;"	-99
-4.268882	";Gam"	-99
-4.268882	";GlockQ18"	-99
-4.268882	";Heca"	-99
-4.268882	";Time:Q"	-99
-4.268882	";^Q<d|8=o;]Q<dj8<Pk8<c]'?;QQdi8?P'Q)d8<9`8?c;Qdh8=P']Q<`c8>PQ9_8"	-99
-4.268882	"<	-99
-4.268882	"<"	-99
-4.268882	"<;iQ=/*do<;dQ=ook8?boc;aQ=odr8>oc;_Q<ox8>oc"	-99
-4.268882	"<o_Q<o_QBdo`QQ';`Q=9`]8=bobQ_o_Q<o]8=';bQC(88cQ`bcgQ>oP']8<;cQ>98)^Q?''oc`Q>"	-99
-4.268882	"=(p-_+1)*9%512]=(O*)p;"	-99
-4.268882	"=:$"	-99
-3.791761	">	-99
-4.268882	">b;og8=''`Q<`b8?'QQ9_8?c;dPe8dQa8<P]Q<``8=;'f8>QQ`]8?ocQQ_8=''_Q`8aQ"	-99
-4.268882	"?guhljL!^P%	-99
-4.268882	"@"	-99
-4.268882	"@+-"	-99
-4.268882	"@CADBEHI"	-99
-4.268882	"C:"	-99
-4.268882	"CYOUQWIN!]Q=;of8BQQ)88bc]QA98P'Qo]8>oQQ_8CP;QQ98b`_8@P8(Q`]'^Q=`']QB)88"	-99
-4.268882	"E914-47DA-95CA-C5AB0DC85B"	-99
-4.268882	"HTTP/1.1	-99
-4.268882	"M@K~|JOEF\\^~_NHI]"	-99
-4.268882	"NBLF\1Nblfgjmf\1"	-99
-3.666822	"Q"	-99
-4.268882	"Q(j"	-99
-4.268882	"Q(jam"	-99
-4.268882	"Zj$x!~V!n&g8!cK!	-99
-4.268882	"\",\"%s\",\"%s\"},	-99
-4.268882	"\40main(){O"	-99
-4.268882	"\n"	-99
-4.268882	"\n\n\n"	-99
-4.268882	"\xe2%c%c\r\n"	-99
-4.268882	"a"	-99
-4.268882	"bQQ]`8J;QQ`88bc99bd(`8iQ@''QQo^8E'`8c;QQ'Q``8?QQ`'kQ<o]8B9PQQ`';_Q<`_8<cbQ"	-99
-3.967852	"d"	-99
-4.268882	"e.6!r!%l6G!n~^<i=%pEwL%P!'<!FQt%u	-99
-4.268882	"e:|	-99
-4.268882	"eQII:"	-99
-4.268882	"eQover."	-99
-4.268882	"etu"	-99
-4.268882	"f\n"	-99
-4.268882	"fl!"	-99
-4.268882	"hello	-99
-4.268882	"laugh"	-99
-4.268882	"m"	-99
-4.268882	"me"	-99
-4.268882	"med);"	-99
-4.268882	"n:}nkD!Q!kN"	-99
-4.268882	"o("	-99
-4.268882	"oc']Q]8<;cQ>`8bbQA``QQ''`Q?88P;dQ=`)nQ?*/;;"	-99
-4.268882	"oid	-99
-3.666822	"r"	-99
-4.268882	"rn+0;}\n"	-99
-4.268882	"syntax_error!"	-99
-4.268882	"t"	-99
-4.268882	"throw	-99
-4.268882	"usage:	-99
-4.268882	"{;}"	-99
-4.268882	"{\"%s\",	-99
-4.268882	"|~0y'vWtA@:LcO9d}y.!uL!Gd+ml(<+Ds!J"	-99
-4.268882	"}$"	-99
-2.382391	%	-99
-3.666822	%=	-99
-4.268882	%d\n"	-99
-4.268882	%s	-99
-4.268882	%u/%u	-99
-2.239498	&	-99
-2.334384	&&	-99
-4.268882	&=	-99
-3.365792	'	-99
-3.967852	'128'	-99
-4.268882	'2d'	-99
-4.268882	'='	-99
-3.967852	'\n'	-99
-4.268882	'a'	-99
-4.268882	'b5sc!e"	-99
-4.268882	'c'	-99
-4.268882	'd'	-99
-4.268882	'width:256px;height:256px'	-99
-4.268882	'ws'	-99
-4.268882	'|'	-99
-1.145357	(	-99
-1.113546	)	-99
-1.534883	*	-99
-2.606124	*=	-99
-4.268882	*m,!*m?H:"	-99
-1.864048	+	-99
-2.223559	++	-99
-4.268882	+99*!	-99
-2.227489	+=	-99
-1.288879	,	-99
-4.268882	,101	-99
-1.804989	-	-99
-2.578686	--	-99
-2.656098	-=	-99
-2.388068	->	-99
-2.193335	.	-99
-3.791761	...	-99
-3.791761	.05	-99
-3.791761	.1	-99
-4.268882	.27	-99
-3.791761	.5	-99
-2.382391	/	-99
-3.423784	/=	-99
-1.853909	0	-99
-3.791761	0.5	-99
-4.268882	0.7	-99
-4.268882	01	-99
-4.268882	02	-99
-4.268882	024	-99
-4.268882	03	-99
-4.268882	040	-99
-4.268882	061	-99
-4.268882	075	-99
-3.967852	0u	-99
-4.268882	0x1	-99
-4.268882	0x3f0	-99
-4.268882	0x67452301	-99
-4.268882	0x820008202625a0	-99
-4.268882	0x98BADCFE	-99
-4.268882	0xEFCDAB89	-99
-4.268882	0xf	-99
-4.268882	0xfc0	-99
-4.268882	0xfe0	-99
-4.268882	0xff00ff00ff	-99
-4.268882	0xffff	-99
-1.978848	1	-99
-4.268882	1.159922023e9	-99
-3.967852	1.5	-99
-4.268882	1.6937441874215991e190	-99
-3.122754	10	-99
-4.268882	1008	-99
-4.268882	101	-99
-3.791761	1023	-99
-4.268882	1024	-99
-4.268882	1024.	-99
-3.791761	11	-99
-4.268882	1103515245	-99
-4.268882	112	-99
-3.31464	12	-99
-4.268882	123	-99
-4.268882	12359778	-99
-4.268882	12365733	-99
-4.268882	124	-99
-4.268882	127	-99
-3.666822	128	-99
-4.268882	128L	-99
-3.967852	13	-99
-4.268882	13000	-99
-4.268882	138	-99
-3.490731	14	-99
-4.268882	14202379	-99
-3.967852	14695981039346656037ULL	-99
-3.423784	15	-99
-4.268882	1500	-99
-4.268882	158	-99
-2.990129	16	-99
-4.268882	1600	-99
-3.791761	16711935	-99
-4.268882	16774143	-99
-3.967852	16u	-99
-3.967852	17	-99
-4.268882	176	-99
-3.569912	18	-99
-4.268882	19	-99
-4.268882	1912	-99
-4.268882	19205553	-99
-4.268882	193	-99
-4.268882	1933008	-99
-4.268882	194	-99
-4.268882	1954	-99
-4.268882	196	-99
-4.268882	197	-99
-4.268882	198	-99
-3.967852	1LL	-99
-3.967852	1u	-99
-2.189701	2	-99
-3.967852	2.	-99
-4.268882	2.271681097355226e15	-99
-3.365792	20	-99
-4.268882	204	-99
-4.268882	205	-99
-3.967852	22	-99
-4.268882	23	-99
-4.268882	234	-99
-3.423784	24	-99
-4.268882	25	-99
-4.268882	250	-99
-3.423784	255	-99
-3.666822	256	-99
-4.268882	256L	-99
-4.268882	257	-99
-4.268882	258063	-99
-3.967852	26	-99
-4.268882	27	-99
-4.268882	275	-99
-4.268882	276	-99
-4.268882	28	-99
-4.268882	287	-99
-4.268882	2L	-99
-2.393821	3	-99
-4.268882	3.135045272e9	-99
-4.268882	3.9999e5	-99
-3.423784	30	-99
-4.268882	304	-99
-4.268882	308438	-99
-3.666822	31	-99
-2.870942	32	-99
-3.967852	32768	-99
-4.268882	3285377520	-99
-3.967852	33	-99
-3.967852	333	-99
-4.268882	3352537	-99
-4.268882	34	-99
-3.569912	35	-99
-3.967852	36	-99
-3.967852	37	-99
-3.967852	38	-99
-4.268882	384	-99
-4.268882	39	-99
-4.268882	3920	-99
-2.41155	4	-99
-4.268882	4.023233417e9	-99
-4.268882	4.294967296e9	-99
-4.268882	4.5	-99
-4.268882	4.503599627370496e15	-99
-4.268882	4.522871578970112e217	-99
-4.268882	4.6727004911171048e-153	-99
-3.365792	40	-99
-4.268882	4092	-99
-3.967852	41	-99
-4.268882	41088	-99
-3.967852	4190208	-99
-4.268882	4194304	-99
-3.569912	42	-99
-4.268882	44	-99
-3.967852	45	-99
-4.268882	48	-99
-4.268882	480	-99
-4.268882	488848	-99
-4.268882	4L	-99
-3.967852	4u	-99
-2.70068	5	-99
-4.268882	50	-99
-4.268882	504	-99
-4.268882	508	-99
-4.268882	51	-99
-3.666822	512	-99
-4.268882	512L	-99
-4.268882	516	-99
-3.967852	5200	-99
-4.268882	5298487	-99
-3.791761	56	-99
-4.268882	57	-99
-3.967852	58	-99
-3.967852	59	-99
-4.268882	5toG57j/3"	-99
-2.791761	6	-99
-3.365792	60	-99
-4.268882	60.	-99
-3.791761	61	-99
-3.967852	62	-99
-3.666822	63	-99
-4.268882	63504	-99
-3.189701	64	-99
-4.268882	64u	-99
-4.268882	65280	-99
-4.268882	65307	-99
-3.967852	65536	-99
-4.268882	65544	-99
-4.268882	67	-99
-4.268882	6990400	-99
-2.907154	7	-99
-4.268882	7.5	-99
-4.268882	7.90055321525613e115	-99
-4.268882	70	-99
-3.967852	74	-99
-4.268882	75	-99
-4.268882	76	-99
-3.666822	768	-99
-4.268882	77	-99
-3.791761	79	-99
-2.569912	8	-99
-4.268882	8.44396048e8	-99
-3.122754	80	-99
-4.268882	8000	-99
-3.791761	81	-99
-4.268882	82	-99
-4.268882	84	-99
-3.791761	85	-99
-3.967852	86400	-99
-4.268882	88	-99
-4.268882	881	-99
-4.268882	8u	-99
-3.038433	9	-99
-3.967852	90	-99
-4.268882	91	-99
-3.791761	92	-99
-4.268882	96	-99
-3.791761	97	-99
-4.268882	9858122	-99
-4.268882	99	-99
-4.268882	9999	-99
-4.268882	99999	-99
-2.122754	:	-99
-1.180037	;	-99
-2.148308	<	-99
-1.235056	</s>
-2.49803	<<	-99
-4.268882	<<=	-99
-3.31464	<=	-99
-4.268882	<P~6"	-99
-99	<s>	-99
-99	<unk>
-1.350327	=	-99
-2.528519	==	-99
-2.436373	>	-99
-3.490731	>=	-99
-2.561312	>>	-99
-3.791761	>>=	-99
-2.182522	?	-99
-4.268882	?"	-99
-2.462702	A	-99
-4.268882	Acce	-99
-4.268882	Alan	-99
-2.449338	B	-99
-4.268882	BUFSIZ	-99
-2.552879	C	-99
-3.967852	COLS	-99
-2.569912	D	-99
-4.268882	DefaultGC	-99
-4.268882	DefaultVisual	-99
-4.268882	Display	-99
-2.596784	E	-99
-4.268882	E0	-99
-3.967852	E3	-99
-3.227489	EOF	-99
-4.268882	ETIANMSURWDKGOHVF:L:PJBXCYZQ::54:3:::2&:+::::16=/:::(:7:::8:90"	-99
-4.268882	EX	-99
-2.615669	F	-99
-3.967852	F0	-99
-3.967852	F1	-99
-4.268882	F2	-99
-3.569912	FILE	-99
-4.268882	FILENAME_MAX	-99
-4.268882	FV	-99
-3.967852	F_	-99
-2.724814	G	-99
-2.469542	H	-99
-4.268882	HP	-99
-4.268882	HY	-99
-2.483552	I	-99
-2.821724	J	-99
-2.462702	K	-99
-4.268882	KrgR'8@c]!%-q9V.3fa[E8X%dY'w!#H	-99
-2.116594	L	-99
-3.791761	LINES	-99
-4.268882	LP	-99
-4.268882	L_tmpnam	-99
-2.77752	M	-99
-2.569912	N	-99
-3.791761	NULL	-99
-2.355068	O	-99
-3.154939	O0	-99
-3.423784	O1	-99
-3.423784	O2	-99
-3.490731	O3	-99
-3.569912	O4	-99
-3.490731	O5	-99
-3.666822	O6	-99
-3.791761	O7	-99
-3.791761	O8	-99
-3.791761	O9	-99
-3.189701	OO	-99
-3.365792	O_	-99
-3.666822	O_o	-99
-2.625429	P	-99
-2.355068	Q	-99
-3.189701	Q0	-99
-3.490731	Q1	-99
-3.423784	Q2	-99
-3.490731	Q3	-99
-3.666822	Q4	-99
-3.666822	Q5	-99
-3.666822	Q6	-99
-3.791761	Q7	-99
-3.791761	Q8	-99
-3.967852	Q9	-99
-4.268882	QH	-99
-4.268882	QL	-99
-3.189701	QO	-99
-3.31464	QQ	-99
-3.967852	QR	-99
-3.967852	QS	-99
-3.490731	Q_	-99
-2.227489	R	-99
-4.268882	RAFT	-99
-4.268882	RGB	-99
-4.268882	RP	-99
-4.268882	RootWindow	-99
-2.635414	S	-99
-4.268882	SDL_AudioSpec	-99
-4.268882	SDL_BlitSurface	-99
-4.268882	SDL_CreateRGBSurface	-99
-4.268882	SDL_Delay	-99
-4.268882	SDL_Event	-99
-4.268882	SDL_FillRect	-99
-4.268882	SDL_Flip	-99
-4.268882	SDL_Init	-99
-4.268882	SDL_LoadWAV	-99
-4.268882	SDL_MixAudio	-99
-4.268882	SDL_OpenAudio	-99
-4.268882	SDL_PauseAudio	-99
-4.268882	SDL_PollEvent	-99
-4.268882	SDL_Rect	-99
-4.268882	SDL_SetVideoMode	-99
-4.268882	SDL_Surface	-99
-3.967852	SEEK_SET	-99
-4.268882	SPEED	-99
-4.268882	Sec	-99
-4.268882	So	-99
-2.277656	T	-99
-4.268882	TIMESTEP	-99
-4.268882	TIOCGWINSZ	-99
-4.268882	TMP_MAX	-99
-4.268882	Turing	-99
-4.268882	Type	-99
-2.606124	U	-99
-4.268882	UV_DROP	-99
-4.268882	Uint8Array	-99
-4.268882	Upgrade	-99
-2.528519	V	-99
-2.251849	W	-99
-3.967852	WebSocket	-99
-4.268882	Window	-99
-2.371255	X	-99
-4.268882	XCheckWindowEvent	-99
-4.268882	XCreateImage	-99
-4.268882	XCreateSimpleWindow	-99
-4.268882	XEvent	-99
-4.268882	XImage	-99
-4.268882	XLookupKeysym	-99
-4.268882	XMapWindow	-99
-4.268882	XOpenDisplay	-99
-4.268882	XPutImage	-99
-4.268882	XSelectInput	-99
-2.544606	Y	-99
-2.70068	Z	-99
-1.855582	[	-99
-4.268882	[-d]	-99
-4.268882	\""	-99
-4.268882	\n\t"	-99
-1.855582	]	-99
-2.837518	^	-99
-3.569912	^=	-99
-2.235458	_	-99
-4.268882	_){putchar(_);}O"	-99
-3.31464	_0	-99
-3.268882	_O	-99
-3.268882	_Q	-99
-3.038433	__	-99
-4.268882	__LINE__	-99
-3.967852	__STDC_VERSION__	-99
-3.967852	__STDC__	-99
-4.268882	__TIME__	-99
-3.967852	_b	-99
-3.967852	_c	-99
-3.967852	_d	-99
-3.967852	_f	-99
-3.967852	_i	-99
-3.967852	_k	-99
-2.056695	a	-99
-3.967852	a_	-99
-3.967852	abs	-99
-4.268882	ageX	-99
-3.423784	ala	-99
-2.737403	and	-99
-3.569912	arg	-99
-3.666822	argh	-99
-3.154939	asn	-99
-3.791761	asp	-99
-3.666822	asx	-99
-2.084191	b	-99
-3.569912	bA	-99
-3.666822	bB	-99
-3.666822	bC	-99
-3.791761	bD	-99
-3.569912	bE	-99
-4.268882	b\nq(%s)\n"	-99
-3.791761	ba	-99
-3.490731	bb	-99
-3.569912	bc	-99
-3.791761	bd	-99
-3.365792	be	-99
-3.189701	bf	-99
-3.666822	bg	-99
-3.791761	bh	-99
-3.967852	bi	-99
-4.268882	binary	-99
-3.791761	bj	-99
-3.666822	bk	-99
-3.967852	bl	-99
-3.967852	bm	-99
-3.967852	bn	-99
-3.967852	bo	-99
-3.365792	bp	-99
-3.967852	bq	-99
-3.967852	br	-99
-3.038433	break	-99
-3.791761	bs	-99
-3.490731	bt	-99
-3.490731	bu	-99
-3.666822	buf	-99
-3.967852	bv	-99
-4.268882	bw	-99
-3.967852	bx	-99
-3.490731	by	-99
-3.569912	bz	-99
-2.200696	c	-99
-3.666822	calloc	-99
-3.268882	case	-99
-4.268882	cb	-99
-2.689098	char	-99
-4.268882	close	-99
-2.926459	const	-99
-4.268882	continue	-99
-3.791761	cos	-99
-4.268882	crea	-99
-4.268882	curs_set	-99
-3.490731	cys	-99
-2.067485	d	-99
-4.268882	dA	-99
-4.268882	dB	-99
-4.268882	dC	-99
-4.268882	dat	-99
-4.268882	data	-99
-3.791761	default	-99
-4.268882	defined	-99
-3.666822	do	-99
-4.268882	double	-99
-3.967852	dstr	-99
-4.268882	dup	-99
-3.967852	dup2	-99
-2.193335	e	-99
-4.268882	eep	-99
-2.806484	efine	-99
-2.946663	else	-99
-4.268882	elta_u	-99
-4.268882	elta_v	-99
-4.268882	er	-99
-3.569912	err	-99
-4.268882	errx	-99
-3.569912	exit	-99
-3.791761	exp	-99
-3.791761	extern	-99
-2.189701	f	-99
-4.268882	fabs	-99
-4.268882	fclose	-99
-4.268882	fgetc	-99
-4.268882	fgets	-99
-4.268882	file1	-99
-4.268882	file2"	-99
-4.268882	flash	-99
-3.423784	float	-99
-4.268882	float_	-99
-4.268882	flu	-99
-3.791761	fopen	-99
-2.423784	for	-99
-4.268882	fputc	-99
-3.791761	fread	-99
-3.490731	free	-99
-4.268882	fscanf	-99
-3.967852	fseek	-99
-4.268882	function	-99
-3.666822	fw	-99
-2.219664	g	-99
-4.268882	getC	-99
-4.268882	getch	-99
-3.666822	getchar	-99
-4.268882	getopt	-99
-3.064762	gln	-99
-3.268882	glu	-99
-3.967852	glx	-99
-3.490731	gly	-99
-4.268882	goofy	-99
-3.666822	goto	-99
-2.436373	h	-99
-4.268882	halting	-99
-4.268882	height	-99
-3.423784	his	-99
-4.268882	ho	-99
-4.268882	href	-99
-1.974416	i	-99
-2.430033	if	-99
-3.569912	ile	-99
-4.268882	initscr	-99
-2.360397	int	-99
-4.268882	int_	-99
-4.268882	intw	-99
-4.268882	ioctl	-99
-4.268882	ipt	-99
-2.178977	j	-99
-4.268882	jmp_buf	-99
-2.324399	k	-99
-4.268882	ket	-99
-3.967852	key	-99
-4.268882	keysym	-99
-2.28211	l	-99
-4.268882	lea	-99
-3.666822	leu	-99
-4.268882	location	-99
-2.907154	long	-99
-4.268882	longjmp	-99
-4.268882	lrand48	-99
-3.967852	lu	-99
-3.791761	lv	-99
-3.31464	lys	-99
-2.490731	m	-99
-4.268882	mageData	-99
-2.967852	main	-99
-3.967852	malloc	-99
-4.268882	memcmp	-99
-3.967852	memcpy	-99
-4.268882	memset	-99
-3.31464	met	-99
-4.268882	mva	-99
-4.268882	mvaddstr	-99
-3.967852	mvinch	-99
-4.268882	mvinsch	-99
-2.193335	n	-99
-3.967852	ndif	-99
-3.967852	new	-99
-2.273247	not	-99
-4.268882	np	-99
-2.048774	o	-99
-4.268882	o(O	-99
-4.268882	ocket	-99
-4.268882	oec	-99
-4.268882	offsetLeft	-99
-4.268882	offsetTop	-99
-4.268882	on	-99
-4.268882	onmousemove	-99
-4.268882	ontext	-99
-3.31464	op	-99
-3.967852	open	-99
-3.490731	optind	-99
-2.189701	p	-99
-4.268882	pageY	-99
-3.666822	phe	-99
-4.268882	pixels	-99
-3.791761	pow	-99
-4.268882	pread	-99
-4.268882	prin	-99
-3.189701	printf	-99
-3.569912	pro	-99
-4.268882	pt	-99
-4.268882	putImageData	-99
-3.365792	putchar	-99
-3.490731	puts	-99
-3.967852	pyl	-99
-2.513007	q	-99
-2.505454	r	-99
-3.967852	rand	-99
-4.268882	rea	-99
-3.967852	read	-99
-3.666822	realloc	-99
-4.268882	refresh	-99
-2.750368	return	-99
-3.967852	rewind	-99
-4.268882	round	-99
-4.268882	rror	-99
-2.189701	s	-99
-4.268882	scanf	-99
-4.268882	scr	-99
-4.268882	script	-99
-3.31464	sec	-99
-4.268882	send	-99
-3.227489	ser	-99
-4.268882	set	-99
-4.268882	setjmp	-99
-4.268882	shi	-99
-3.967852	short	-99
-4.268882	signal	-99
-3.967852	sin	-99
-4.268882	size_t	-99
-3.122754	sizeof	-99
-4.268882	slice	-99
-4.268882	sprintf	-99
-4.268882	sqrt	-99
-4.268882	st_mtime	-99
-4.268882	st_size	-99
-3.791761	stat	-99
-3.490731	static	-99
-3.967852	stdin	-99
-4.268882	stdout	-99
-3.791761	strchr	-99
-4.268882	strcmp	-99
-3.791761	strlen	-99
-4.268882	strrchr	-99
-4.268882	strtol	-99
-3.31464	struct	-99
-4.268882	style	-99
-4.268882	subs	-99
-3.666822	switch	-99
-4.268882	sym	-99
-3.569912	sym_	-99
-4.268882	system	-99
-2.371255	t	-99
-4.268882	tape	-99
-4.268882	teI	-99
-4.268882	tf	-99
-3.365792	thr	-99
-4.268882	timeout	-99
-3.666822	tla	-99
-4.268882	tmpfile	-99
-4.268882	tr	-99
-3.268882	trp	-99
-4.268882	typ	-99
-3.967852	type	-99
-3.122754	typedef	-99
-3.268882	tyr	-99
-2.151611	u	-99
-3.967852	union	-99
-3.189701	unk	-99
-3.31464	unsigned	-99
-4.268882	up"	-99
-4.268882	upgrade	-99
-4.268882	usl	-99
-4.268882	usleep	-99
-2.305094	v	-99
-4.268882	va_arg	-99
-4.268882	va_end	-99
-4.268882	va_list	-99
-4.268882	va_start	-99
-4.268882	vad	-99
-2.821724	val	-99
-2.853909	void	-99
-4.268882	voidw	-99
-4.268882	volatile	-99
-4.268882	vpr	-99
-2.349804	w	-99
-4.268882	webso	-99
-2.926459	while	-99
-4.268882	width	-99
-4.268882	window	-99
-4.268882	world!"	-99
-3.791761	write	-99
-2.291158	x	-99
-4.268882	xkey	-99
-3.967852	xle	-99
-2.615669	xor	-99
-2.295754	y	-99
-2.39965	z	-99
-1.832719	{	-99
-2.596784	|	-99
-3.791761	|=	-99
-2.870942	||	-99
-1.832719	}	-99
-2.763732	~	-99

\2-grams:
-0.9444827	! !	-0.6465819
-0.7140337	! (	-0.04843538
-1.944483	! )
-1.643453	! *
-1.944483	! --
-1.467361	! </s>
-1.944483	! D
-1.944483	! H
-1.944483	! K
-1.166331	! O	-0.7155958
-1.643453	! O9	0
-1.944483	! P
-1.944483	! Q
-1.944483	! Q0
-1.944483	! Q2
-1.467361	! QO	-0.3521825
-1.944483	! _0
-1.467361	! b
-1.944483	! c
-1.643453	! g
-1.643453	! i
-1.643453	! j
-1.944483	! k
-1.643453	! l
-1.944483	! memcmp
-1.944483	! n
-1.944483	! o
-1.944483	! printf
-1.643453	! s
-1.944483	! setjmp
-1.944483	! stat
-1.944483	! strcmp
-1.643453	! t
-1.245513	! u	-0.6855025
-1.467361	! v	-0.5520861
-1.643453	! x
-1.944483	! z
-1.30103	!= '
-1.30103	!= -
-1.30103	!= 0
-1.30103	!= B
-1	!= EOF	-0.2138799
-1.30103	!= NULL
-1	!= b	-0.4259687
-1.30103	!= bk
-1.30103	!= f
-1	!= gln	-0.3143939
-1	!= h	-0.4641563
-1.30103	!= mvinch
-1.30103	!= sizeof
-1.30103	!= trp
-1.30103	!= u
-1.30103	!= v
-0.5740313	" "
-1.477121	" "%d
-1.477121	" %d\n"
-1.477121	" %u/%u
-0.8750613	" )	-0.5701672
-0.8750613	" ,	-0.2964584
-1.477121	" ,101
-1.477121	" </s>
-1.477121	" ETIANMSURWDKGOHVF:L:PJBXCYZQ::54:3:::2&:+::::16=/:::(:7:::8:90"
-1.477121	" Type
-1.477121	" \n\t"
-1.477121	" c
-1.477121	" ipt
-1.477121	" ket
-1.477121	" mageData
-1.477121	" ontext
-1.477121	" teI
0	"!:E%;!ea!!!WqE0z!f/y}!%!!Qi6!uzt!n}?]!bl!ak!SetR<" </s>
0	"!pv!;!Hm%Ro4" "n:}nkD!Q!kN"
-0.845098	"" "@CADBEHI"
-0.845098	"" ,
-0.544068	"" :
-0.3679768	"" </s>
0	"#" )	-0.5501856
0	"$" ,
0	"%." "f\n"
0	"%c" ,
0	"%d "
0	"%d,%dd%d\n" ,
0	"%d\n" ,
0	"%da%d,%d\n" ,
0	"%da%d\n" ,
0	"%dd%d\n" ,
0	"%f,%f," ,
-0.69897	"%s" "\",\"%s\",\"%s\"},
-0.09691001	"%s" ,	-0.2969177
0	"('A)" ,
-0.30103	"('A`)" </s>
-0.30103	"('A`)" }
0	"(A`)" ,
0	"(O**" </s>
0	")" )
0	")$" ;
0	");" )
0	"*" ""
0	"*_[512],**p=_,**d,b,q;for(b=0;b" "++<512;p=_+q)_[q"
0	"*p=#b,P[9999],*d=P,*e[]=" "{\"%s\",
0	"++<512;p=_+q)_[q" </s>
0	"-" ,
0	"/" )
0	"/*;; "
0	"11\x80" [
0	"258EAFA5-" "E914-47DA-95CA-C5AB0DC85B"
0	"8!@dP,!!o+fb" </s>
0	"::::::::::::?_::::\"::.::::@:::'::-::::::::;!:):::::,:::::" ;
-0.4771213	";" )
-0.4771213	";" :
-0.4771213	";" </s>
0	";;" )
0	";Gam" "eQover."
0	";GlockQ18" "C:"
0	";Heca" "t"
0	";Time:Q" )
0	";^Q<d|8=o;]Q<dj8<Pk8<c]'?;QQdi8?P'Q)d8<9`8?c;Qdh8=P']Q<`c8>PQ9_8" </s>
0	"< "
0	"<" ,
0	"<;iQ=/*do<;dQ=ook8?boc;aQ=odr8>oc;_Q<ox8>oc" </s>
0	"<o_Q<o_QBdo`QQ';`Q=9`]8=bobQ_o_Q<o]8=';bQC(88cQ`bcgQ>oP']8<;cQ>98)^Q?''oc`Q>" </s>
0	"=(p-_+1)*9%512]=(O*)p;" )
0	"=:$" ,
0	"> "	-0.4149733
0	">b;og8=''`Q<`b8?'QQ9_8?c;dPe8dQa8<P]Q<``8=;'f8>QQ`]8?ocQQ_8=''_Q`8aQ" </s>
0	"?guhljL!^P% ?"
0	"@" ,
0	"@+-" ,
0	"@CADBEHI" )
0	"C:" "Q"
0	"CYOUQWIN!]Q=;of8BQQ)88bc]QA98P'Qo]8>oQQ_8CP;QQ98b`_8@P8(Q`]'^Q=`']QB)88" </s>
0	"E914-47DA-95CA-C5AB0DC85B" "11\x80"
0	"HTTP/1.1 "
0	"M@K~|JOEF\\^~_NHI]" ;
0	"NBLF\1Nblfgjmf\1" ,
0	"Q" )	-0.4732572
0	"Q(j" "a"
0	"Q(jam" </s>
0	"Zj$x!~V!n&g8!cK! KrgR'8@c]!%-q9V.3fa[E8X%dY'w!#H
0	"\",\"%s\",\"%s\"}, b\nq(%s)\n"
0	"\40main(){O" ""
0	"\n" )
0	"\n\n\n" </s>
0	"\xe2%c%c\r\n" O_
0	"a" "m"
0	"bQQ]`8J;QQ`88bc99bd(`8iQ@''QQo^8E'`8c;QQ'Q``8?QQ`'kQ<o]8B9PQQ`';_Q<`_8<cbQ" </s>
-0.30103	"d" ")"
-0.30103	"d" )
0	"e.6!r!%l6G!n~^<i=%pEwL%P!'<!FQt%u 5toG57j/3"
0	"e:| 'b5sc!e"
0	"eQII:" "Q"
0	"eQover." </s>
0	"etu" "rn+0;}\n"
0	"f\n" ,
0	"fl!" [
0	"hello world!"
0	"laugh" )
0	"m" "me"
0	"me" "d"
0	"med);" )
0	"n:}nkD!Q!kN" </s>
0	"o(" )
0	"oc']Q]8<;cQ>`8bbQA``QQ''`Q?88P;dQ=`)nQ?*/;;" ;
0	"oid o(O
-0.1249387	"r" )	-0.4252468
-0.60206	"r" </s>
0	"rn+0;}\n" )
0	"syntax_error!" </s>
0	"t" "eQII:"
0	"throw up"
0	"usage: %s
0	"{;}" :
0	"{\"%s\", \""
0	"|~0y'vWtA@:LcO9d}y.!uL!Gd+ml(<+Ds!J" </s>
0	"}$" :
-1.409369	% (	-0.4698719
-1.886491	% .27
-1.886491	% 03
-1.886491	% 1500
-1.585461	% 16
-1.886491	% 176
-1.886491	% 198
-0.7403627	% 2	-0.5512466
-1.108339	% 3	-0.651278
-1.886491	% 32
-1.886491	% 384
-1.108339	% 4	-0.008954838
-1.409369	% 5
-1.886491	% 512
-1.886491	% 6
-1.284431	% 64
-1.886491	% 768
-1.409369	% 8
-1.886491	% 86400
-1.284431	% </s>
-1.886491	% I
-1.886491	% O3
-1.886491	% O4
-1.041393	% Q	-0.8005159
-1.585461	% QQ
-1.886491	% c
-1.886491	% dA
-1.886491	% dB
-1.886491	% dC
-1.585461	% g
-1.886491	% s
-1.886491	% strlen
-1.886491	% w
-0.60206	%= 1
-0.60206	%= 64
-0.60206	%= 8
-0.60206	%= z
0	%d\n" ,
0	%s [-d]
0	%u/%u "
-2.029384	& !
-1.728354	& (
-1.427324	& *	-0.595602
-2.029384	& --
-2.029384	& 0
-2.029384	& 0x3f0
-2.029384	& 0xf
-2.029384	& 0xfe0
-2.029384	& 0xff00ff00ff
-1.251233	& 1	-0.1841816
-2.029384	& 1008
-1.552263	& 1023	0
-2.029384	& 128
-2.029384	& 14
-1.330414	& 15	-0.154902
-1.728354	& 16
-1.728354	& 16711935
-2.029384	& 16774143
-1.251233	& 3	-0.5843312
-2.029384	& 31
-2.029384	& 32
-2.029384	& 4
-2.029384	& 4092
-1.728354	& 4190208	0
-2.029384	& 6
-1.427324	& 63	0
-2.029384	& 64
-2.029384	& 65280
-2.029384	& 7
-2.029384	& 8
-2.029384	& 9
-1.552263	& </s>
-2.029384	& B
-2.029384	& C
-2.029384	& L
-1.728354	& M
-2.029384	& N
-1.728354	& OO
-2.029384	& Q
-2.029384	& S
-1.427324	& _	-0.2887955
-2.029384	& a
-1.728354	& arg	0.2218488
-2.029384	& asn
-2.029384	& bE
-2.029384	& bn
-2.029384	& bo
-2.029384	& bv
-2.029384	& e
-1.728354	& glu	-0.1760913
-2.029384	& h
-2.029384	& i
-2.029384	& k
-1.552263	& not	-0.5749078
-1.728354	& o
-2.029384	& p
-2.029384	& r
-1.728354	& tyr	-0.3222193
-2.029384	& u
-2.029384	& v
-2.029384	& w
-1.728354	& x
-2.029384	& y
-1.728354	& z	-0.465222
-1.728354	& ~	-0.3869447
-0.980256	&& !	-0.305327
-0.4721005	&& (	-0.3123561
-1.633469	&& *
-1.934498	&& ++
-1.934498	&& 0
-1.934498	&& 101
-1.934498	&& 258063
-1.633469	&& </s>
-1.457377	&& A	-0.3785115
-1.934498	&& B
-1.934498	&& F
-1.934498	&& G
-1.934498	&& R
-1.934498	&& T
-1.934498	&& Z
-1.934498	&& _
-1.934498	&& _0
-1.457377	&& a	-0.4608333
-1.934498	&& b
-1.934498	&& bf
-1.934498	&& bg
-1.934498	&& fscanf
-1.934498	&& g
-1.934498	&& h
-1.934498	&& j
-1.633469	&& n
-1.633469	&& o	-0.3968922
-1.934498	&& putchar
-1.934498	&& q
-1.934498	&& r
-1.934498	&& read
-1.332438	&& s	-0.2937307
-1.332438	&& v	-0.5676911
-1.934498	&& x
-1.633469	&& y	-0.4582359
0	&= z
-0.30103	' '	-0.1760913
-0.90309	' )
-0.60206	' </s>
-0.90309	' ||
-0.30103	'128' height
-0.30103	'128' style
0	'2d' )
0	'=' )
0	'\n' )
0	'a' ,
0	'b5sc!e" </s>
0	'c' width
0	'd' :
0	'width:256px;height:256px' </s>
0	'ws' +
0	'|' :
-1.919405	( !	-0.1890562
-2.822495	( "
-3.123525	( ""
-2.646404	( "#"	0
-3.123525	( "%."
-3.123525	( "%c"
-3.123525	( "%d,%dd%d\n"
-3.123525	( "%d\n"
-3.123525	( "%da%d,%d\n"
-3.123525	( "%da%d\n"
-3.123525	( "%dd%d\n"
-3.123525	( "%s"
-3.123525	( "(O**"
-3.123525	( ");"
-3.123525	( "*"
-3.123525	( "-"
-3.123525	( "/*;;
-2.822495	( ";"
-3.123525	( ";Heca"
-3.123525	( ";Time:Q"
-3.123525	( "<
-3.123525	( "<"
-3.123525	( ">
-3.123525	( "@"
-3.123525	( "@+-"
-3.123525	( "HTTP/1.1
-2.822495	( "Q"	0
-3.123525	( "\n"
-3.123525	( "hello
-3.123525	( "laugh"
-3.123525	( "o("
-3.123525	( "r"
-3.123525	( "throw
-2.646404	( %
-2.169282	( &	-0.1637408
-3.123525	( '
-3.123525	( '2d'
-3.123525	( 'ws'
-1.375337	( (	-0.271519
-1.159737	( )	-0.8468732
-1.543741	( *	-0.3361442
-2.521465	( ++
-2.822495	( ,	-0.4748415
-2.220435	( -
-3.123525	( .05
-2.822495	( .5
-1.781102	( 0	-1.013809
-3.123525	( 075
-1.708552	( 1	-0.6209453
-3.123525	( 10
-2.822495	( 12
-3.123525	( 13
-2.822495	( 16	-0.4024876
-3.123525	( 1912
-3.123525	( 1LL
-1.868253	( 2	-0.8662871
-3.123525	( 22
-3.123525	( 24
-3.123525	( 255
-3.123525	( 256L
-2.009582	( 3	-0.4052135
-3.123525	( 30
-2.822495	( 32
-3.123525	( 34
-3.123525	( 38
-2.123525	( 4	-0.4751059
-3.123525	( 40
-2.822495	( 41	0
-2.822495	( 42	0.2218488
-3.123525	( 45
-2.424555	( 5	-0.5716774
-3.123525	( 59
-3.123525	( 6
-2.822495	( 60
-2.822495	( 64	-0.2430381
-3.123525	( 67
-3.123525	( 7
-3.123525	( 70
-2.646404	( 8	-0.4502491
-2.424555	( 9
-3.123525	( 97
-3.123525	( 99999
-1.919405	( ;	-0.708192
-1.708552	( </s>
-2.169282	( A	-0.2272438
-2.278427	( B	-0.4147202
-1.868253	( C	-0.2382392
-2.278427	( D	-0.2710668
-2.646404	( E	-0.3732251
-2.123525	( F	-0.3748162
-2.822495	( FILE	0
-3.123525	( F_
-2.521465	( G	-0.1091444
-2.082132	( H	-0.07932483
-2.424555	( I	-0.6618282
-2.822495	( J
-2.082132	( K	-0.2632414
-1.391131	( L	-0.9354931
-3.123525	( LINES
-2.345374	( M	-0.241032
-2.278427	( N	-0.5078559
-1.844771	( O	-0.3756636
-3.123525	( O0
-2.521465	( O2	-0.1549019
-3.123525	( O3
-3.123525	( O4
-2.822495	( O5
-3.123525	( O6
-2.822495	( OO
-2.646404	( O_o	0
-2.044344	( P	-0.9270902
-2.044344	( Q	-0.3114954
-2.646404	( Q0	-0.3521825
-2.822495	( Q1
-3.123525	( Q2
-3.123525	( Q5
-3.123525	( Q6
-2.646404	( QO	-0.4259688
-3.123525	( QQ
-2.169282	( R	-0.4225003
-3.123525	( RAFT
-1.919405	( T	-1.002651
-2.521465	( U	-0.6159958
-2.424555	( V
-2.220435	( W	-0.5762526
-1.676367	( X	-0.5385355
-3.123525	( XCheckWindowEvent
-3.123525	( XMapWindow
-2.424555	( Y	-0.187769
-2.345374	( Z
-2.009582	( _	-0.4027389
-2.424555	( _O	-0.1249387
-2.822495	( _Q
-2.521465	( __
-3.123525	( __LINE__
-3.123525	( __STDC_VERSION__
-1.692161	( a	-0.09835395
-2.822495	( ala	-0.3309932
-1.781102	( and	-0.9094301
-2.646404	( argh	-0.1760913
-2.521465	( asn	0.1139433
-2.822495	( asp	0
-3.123525	( asx
-2.009582	( b	-0.379501
-3.123525	( be
-2.822495	( bk	-0.1760913
-3.123525	( br
-2.822495	( bu
-2.822495	( buf
-3.123525	( by
-2.082132	( c	-0.1718639
-3.123525	( calloc
-3.123525	( cb
-2.169282	( char	-0.4993976
-2.646404	( const	-0.4357286
-3.123525	( cos
-3.123525	( curs_set
-2.521465	( cys	-0.2218488
-1.977397	( d	-0.2157977
-3.123525	( dup2
-2.169282	( e	-0.1379708
-3.123525	( elta_u
-3.123525	( elta_v
-1.844771	( f	-0.5217916
-3.123525	( float_
-3.123525	( flu
-1.919405	( g	-0.228009
-3.123525	( gln
-3.123525	( glu
-2.082132	( h	-0.6560417
-1.555323	( i	-0.2907688
-2.646404	( ile
-1.977397	( int	-0.1526322
-3.123525	( int_
-1.761797	( j	-0.4759427
-1.868253	( k	-0.6330092
-1.977397	( l	-0.1446331
-2.822495	( lys
-2.082132	( m	-0.541995
-3.123525	( memcpy
-3.123525	( memset
-2.424555	( met	-0.4259687
-1.781102	( n	-0.1833297
-1.822495	( not	-0.9600525
-1.947434	( o	-0.6027135
-3.123525	( open
-2.009582	( p	-0.2442771
-3.123525	( pread
-3.123525	( prin
-3.123525	( printf
-3.123525	( pro
-2.822495	( puts	0.30103
-2.424555	( q	-0.1983677
-2.424555	( r
-2.123525	( s	-0.1957459
-2.822495	( sec	-0.2218488
-2.220435	( ser	-0.3899711
-3.123525	( short
-2.822495	( sizeof	0.3679768
-3.123525	( stdout
-2.521465	( sym_	0
-2.044344	( t	-0.1985875
-3.123525	( tla
-2.278427	( u	-0.2960285
-3.123525	( usl
-1.893076	( v	-0.2344764
-3.123525	( va_arg
-3.123525	( val
-2.822495	( void
-1.868253	( w	-0.436565
-1.977397	( x	-0.1611052
-2.220435	( xor	-0.5286311
-1.947434	( y	-0.288135
-2.345374	( z	-0.4999841
-3.123525	( {
-3.123525	( }
-3.123525	( ~
-2.456366	) !=	-0.1760913
-3.155336	) "\xe2%c%c\r\n"
-2.009208	) %	-0.2682375
-2.310238	) &
-1.876582	) &&	-0.1142885
-1.532087	) (	-0.3431648
-0.9485102	) )	-0.5322151
-1.274522	) *	-0.3705472
-2.377185	) *=	-0.7621238
-1.678215	) +	-0.2036923
-2.252246	) +=	-0.2639587
-1.196295	) ,	-0.2450723
-1.900064	) -	-0.2195143
-3.155336	) --
-2.456366	) -=
-2.854306	) .	-0.4468973
-2.009208	) /	-0.2849432
-3.155336	) 0
-3.155336	) 0u
-2.854306	) 16u	0
-2.854306	) 1u
-3.155336	) 64u
-3.155336	) 8u
-1.663974	) :	-0.2940811
-0.59067	) ;	-0.3292236
-2.310238	) <	-0.1394975
-1.225917	) </s>
-2.201093	) <<	-0.2004239
-2.553276	) =
-2.553276	) ==
-2.310238	) >	-0.195859
-2.678215	) >=
-2.456366	) >>	-0.3031537
-1.979245	) ?	-0.1428099
-2.377185	) B	-0.69897
-2.854306	) E3	0
-2.854306	) F	-0.3290587
-3.155336	) F0
-3.155336	) F1
-2.076155	) G	-0.4893556
-2.310238	) J	-0.544068
-3.155336	) K
-2.553276	) L	-0.107783
-3.155336	) O
-3.155336	) O5
-2.553276	) O_	0
-3.155336	) P
-2.854306	) Q
-2.854306	) QR	0
-3.155336	) QS
-3.155336	) Q_
-2.854306	) R
-3.155336	) S
-3.155336	) U
-2.854306	) W	-0.2796319
-3.155336	) X
-3.155336	) Y
-2.678215	) [
-2.854306	) ]
-2.854306	) ^
-3.155336	) _d
-2.854306	) a
-2.854306	) asx
-2.854306	) b
-2.854306	) bd	0
-2.678215	) break	0.6283889
-3.155336	) bt
-3.155336	) by
-3.155336	) c
-3.155336	) continue
-3.155336	) d
-2.854306	) e	-0.4101745
-3.155336	) err
-2.678215	) exit	0
-2.155336	) for	0.2016454
-3.155336	) g
-3.155336	) glx
-2.854306	) h
-2.553276	) i
-2.553276	) if	0.8388491
-2.854306	) int
-3.155336	) j
-3.155336	) k
-2.678215	) l	-0.4588325
-3.155336	) lys
-3.155336	) n
-2.854306	) not
-3.155336	) o
-3.155336	) printf
-3.155336	) putchar
-2.854306	) q
-2.678215	) r	-0.3949345
-2.854306	) return
-2.456366	) s	-0.1383027
-3.155336	) scanf
-3.155336	) sec
-2.678215	) tyr
-2.678215	) u	-0.3641714
-2.854306	) v
-2.678215	) w	-0.4891619
-3.155336	) x
-2.678215	) z
-0.8109438	) {	-0.04176837
-2.377185	) |	-0.1971338
-2.553276	) ||	-0.4828736
-2.854306	) ~
-2.035029	* !	-0.1286244
-1.071241	* (	-0.1928312
-1.692607	* )	-0.0742036
-1.620056	* *	-0.06852566
-2.035029	* ++	-0.6748363
-2.733999	* -
-2.256878	* --
-2.733999	* .1
-2.733999	* .5
-2.432969	* 0
-2.733999	* 1
-2.733999	* 1.6937441874215991e190
-2.131939	* 10	-0.2340832
-2.733999	* 11
-2.733999	* 1103515245
-2.733999	* 12
-2.131939	* 16	-0.2263964
-2.733999	* 17
-2.733999	* 193
-1.779757	* 2	-0.06258202
-2.035029	* 3	-0.1918855
-2.733999	* 32
-2.733999	* 39
-1.587871	* 4	-0.2308036
-2.733999	* 4.522871578970112e217
-2.733999	* 4.6727004911171048e-153
-2.432969	* 42
-2.733999	* 51
-2.733999	* 512L
-2.733999	* 5298487
-2.733999	* 6
-2.432969	* 7
-2.733999	* 7.90055321525613e115
-2.432969	* 768	-0.1760913
-2.256878	* 8
-1.733999	* 80	-0.455932
-2.733999	* 81
-2.733999	* 85
-2.733999	* 881
-2.432969	* 9
-2.733999	* 92
-1.372271	* </s>
-2.131939	* A	-0.2507249
-2.432969	* B
-2.131939	* C	-0.6264194
-2.733999	* D
-1.888901	* E	-0.08681404
-2.432969	* H
-2.035029	* I	-0.6160706
-1.888901	* K	-0.3099848
-2.131939	* L	-0.2758464
-2.733999	* L_tmpnam
-2.035029	* N	-0.60206
-2.256878	* O	-0.4145657
-2.035029	* O0	-0.5392692
-2.432969	* O3
-2.733999	* O4
-2.432969	* O6
-1.733999	* Q	-0.3979399
-2.733999	* Q0
-2.733999	* Q1
-2.733999	* Q2
-2.131939	* Q3	-0.1249387
-2.733999	* Q5
-2.733999	* Q7
-2.733999	* Q9
-2.733999	* QO
-2.432969	* QQ	-0.30103
-2.432969	* R
-2.432969	* S
-1.319026	* T	-0.710054
-2.733999	* U
-2.733999	* V
-2.432969	* W
-1.830909	* X	-0.01970332
-2.035029	* Y	-0.2051431
-1.955848	* _	-0.4436975
-2.131939	* _0
-2.733999	* _O
-1.654818	* a	-0.5234113
-1.733999	* b	-0.1706962
-2.733999	* bD
-2.733999	* ba
-2.256878	* bb	-0.30103
-2.733999	* be
-2.733999	* br
-2.733999	* bx
-2.256878	* c
-2.035029	* const	-0.6118199
-1.620056	* d	-0.1950928
-1.692607	* e	-0.3460569
-1.733999	* f	-0.5388668
-1.779757	* g	-0.5533845
-2.131939	* i
-2.256878	* j
-2.131939	* k	-0.2198702
-2.131939	* l
-2.432969	* m
-1.955848	* n	-0.6421235
-2.035029	* not	-0.4667628
-1.242638	* o	-0.7184116
-1.319026	* p	-0.3058289
-2.733999	* printf
-1.620056	* q	-0.2273002
-2.035029	* s	-0.2145495
-2.733999	* sin
-2.131939	* sizeof	0.544068
-2.256878	* t
-2.432969	* tyr
-1.587871	* u	-0.2211852
-2.432969	* x
-2.035029	* y	-0.338626
-2.432969	* z
-1.662758	*= !
-1.361728	*= (
-1.361728	*= -	-0.4094276
-1.662758	*= 0
-1.662758	*= 0.7
-1.662758	*= 02
-1.185637	*= 1	-0.4375066
-1.662758	*= 256
-1.662758	*= C
-1.662758	*= I
-0.8846066	*= Q	-0.7021362
-1.361728	*= Y	-0.4156032
-1.662758	*= _
-0.7596679	*= g	-0.8544145
-0.6627578	*= o	-0.9766206
-1.361728	*= s	-0.4393327
-1.662758	*= t
-1.662758	*= u
-1.662758	*= z
0	*m,!*m?H:" upgrade
-2.103804	+ !
-2.404834	+ "fl!"
-0.8485312	+ (	-0.3293038
-2.103804	+ )	-0.4042115
-1.927712	+ *
-2.103804	+ 0
-2.404834	+ 0.5
-0.9424357	+ 1	-0.6195217
-2.404834	+ 1.5
-2.404834	+ 11
-2.404834	+ 12
-2.404834	+ 128L
-2.404834	+ 138
-2.103804	+ 16
-2.404834	+ 18
-2.404834	+ 19205553
-1.404834	+ 2	-0.1840602
-2.404834	+ 20
-2.404834	+ 287
-2.404834	+ 2L
-1.626683	+ 3	-0.1968207
-2.404834	+ 32
-2.103804	+ 4	-0.3099849
-2.404834	+ 4.5
-2.404834	+ 42
-2.404834	+ 44
-2.404834	+ 4L
-1.927712	+ 5	-0.4274335
-2.103804	+ 512
-2.404834	+ 58
-2.404834	+ 6
-2.103804	+ 7
-2.404834	+ 74
-2.404834	+ 79
-2.103804	+ 8
-2.404834	+ 84
-2.404834	+ 86400
-1.450591	+ </s>
-2.404834	+ A
-2.103804	+ B	-0.4210053
-2.404834	+ C
-2.404834	+ E
-2.404834	+ EOF
-1.927712	+ F
-1.927712	+ H
-2.404834	+ J
-1.927712	+ N	-0.365488
-2.404834	+ O4
-2.404834	+ P
-2.404834	+ Q0
-2.404834	+ Q5
-2.404834	+ R
-2.404834	+ T
-2.404834	+ TMP_MAX
-2.404834	+ V
-2.404834	+ X
-2.404834	+ Y
-2.404834	+ _Q
-2.103804	+ __STDC__
-1.559736	+ a	-0.4654194
-2.404834	+ abs
-2.404834	+ asn
-2.404834	+ b
-1.802774	+ c
-2.404834	+ cos
-2.404834	+ d
-1.927712	+ e
-2.103804	+ f
-1.802774	+ g	-0.2892385
-1.29089	+ i	-0.5778843
-2.103804	+ j	-0.4627631
-1.927712	+ k	-0.3959615
-1.927712	+ l
-2.404834	+ location
-1.927712	+ m
-1.705864	+ n	-0.2032066
-1.559736	+ o
-2.103804	+ p
-1.626683	+ s	-0.7596679
-1.927712	+ t	-0.4659849
-1.802774	+ u	-0.5729248
-2.404834	+ unk
-2.404834	+ v
-1.802774	+ x	-0.1684044
-2.404834	+ y
-1.927712	+ z	-0.5716774
-1.927712	+ ~
-1.443263	++ %	-0.6575773
-2.045323	++ &
-2.045323	++ &&
-0.8148741	++ )	-0.005261123
-1.744293	++ *
-2.045323	++ +=
-1.346353	++ ,
-1.744293	++ -
-1.744293	++ :	-0.434797
-1.00393	++ ;	-0.008363143
-1.267172	++ <
-1.443263	++ </s>
-2.045323	++ <=
-1.142233	++ =	-0.292566
-2.045323	++ ==
-2.045323	++ ?
-1.744293	++ N
-1.443263	++ T	-0.5793169
-1.142233	++ ]	-0.1973604
-1.744293	++ c
-2.045323	++ f
-2.045323	++ g
-1.568202	++ i	-0.5628663
-2.045323	++ ile
-1.443263	++ j
-2.045323	++ l
-2.045323	++ leu
-2.045323	++ n
-1.568202	++ not	-0.2449141
-2.045323	++ p
-2.045323	++ q
-1.744293	++ tla	-0.1760913
-2.045323	++ u
-2.045323	++ v
-1.267172	++ xor	-0.7716691
0	+99*! *m,!*m?H:"
-1.439333	+= !	-0.2859662
-2.041393	+= 'a'
-0.9622114	+= (	-0.2789083
-2.041393	+= .05
-2.041393	+= .1
-2.041393	+= 0.5
-1.564271	+= 1	-0.4045706
-2.041393	+= 1.5
-2.041393	+= 16
-2.041393	+= 194
-1.439333	+= 2	-0.4366926
-2.041393	+= 4
-2.041393	+= 4u
-2.041393	+= 5
-2.041393	+= 7
-2.041393	+= A
-1.740363	+= E	-0.4070834
-1.740363	+= F	-0.447158
-1.439333	+= H	-0.6071997
-2.041393	+= K
-2.041393	+= M
-1.439333	+= O1
-2.041393	+= O8
-2.041393	+= Q
-1.740363	+= U
-2.041393	+= UV_DROP
-1.740363	+= V	-0.3995164
-1.564271	+= Y	-0.4518154
-2.041393	+= _
-1.564271	+= a	-0.4439106
-1.740363	+= be	-0.05115253
-1.740363	+= bf	-0.30103
-2.041393	+= bt
-2.041393	+= c
-1.564271	+= d	-0.4187389
-1.740363	+= e	-0.4058957
-1.439333	+= g	-0.201202
-2.041393	+= h
-1.342423	+= i	-0.6298131
-1.342423	+= l	-0.3302464
-1.08715	+= o	-0.4473449
-1.740363	+= p
-2.041393	+= printf
-2.041393	+= r
-1.740363	+= s	-0.4586379
-1.740363	+= u
-2.041393	+= v
-1.564271	+= w	-0.5580432
-2.980003	, !
-2.980003	, "
-2.980003	, ""
-2.502882	, "$"	0
-2.502882	, "%s"	0.09691
-2.980003	, "('A)"
-2.980003	, "('A`)"
-2.980003	, "(A`)"
-2.980003	, "=:$"
-2.678973	, ">	0
-2.980003	, "d"
-2.502882	, "r"	0
-2.980003	, "usage:
-1.86606	, &	-0.06435619
-1.724731	, (	-0.1665096
-2.281033	, )	-0.1699743
-1.377943	, *	-0.258788
-2.502882	, ++	-0.4611821
-2.502882	, -	-0.5343664
-2.980003	, --
-2.502882	, ...	0
-1.201852	, 0	-1.470388
-2.980003	, 0x98BADCFE
-2.980003	, 0xEFCDAB89
-1.618276	, 1	-1.150875
-2.980003	, 128
-2.502882	, 16	-0.4372498
-1.980003	, 2	-0.4259687
-2.980003	, 24
-2.980003	, 256
-2.281033	, 3	-0.1918855
-2.980003	, 3.9999e5
-2.980003	, 30
-2.980003	, 308438
-2.502882	, 32	-0.4014006
-2.980003	, 3285377520
-2.980003	, 4
-2.980003	, 5
-2.678973	, 6	-0.3222193
-2.980003	, 60
-2.980003	, 65544
-2.678973	, 8
-2.980003	, 85
-2.980003	, 9
-1.289807	, </s>
-2.201852	, A	-0.3143939
-2.025761	, B	-0.8336687
-1.938611	, C	-0.2673974
-2.377943	, D
-2.980003	, DefaultGC
-2.980003	, DefaultVisual
-2.377943	, E	-0.241716
-2.980003	, EOF
-2.201852	, F	-0.4149733
-2.980003	, F_
-2.678973	, G	-0.3802113
-2.281033	, H	-0.5623873
-2.281033	, I	-0.6126102
-2.502882	, J
-1.86606	, K	-0.9412318
-2.201852	, L	-0.5396767
-2.377943	, M	-0.1106983
-1.938611	, N	-0.4563661
-1.833875	, O	-0.2967721
-2.201852	, O0	-0.4301247
-2.980003	, O1
-2.678973	, O2
-2.980003	, O3
-2.980003	, O4
-2.678973	, O5
-2.980003	, O6
-2.980003	, O7
-2.980003	, O8
-2.980003	, O9
-2.678973	, OO
-2.502882	, P
-1.900822	, Q	-0.05466909
-2.377943	, Q0	-0.4648868
-2.678973	, Q1
-2.502882	, Q2	-0.3309932
-2.980003	, Q3
-2.502882	, Q4
-2.980003	, Q5
-2.678973	, Q6
-2.980003	, Q7
-2.980003	, Q8
-2.980003	, Q9
-2.502882	, QO	-0.39794
-2.980003	, QQ
-2.980003	, QS
-1.356754	, R	-1.362928
-2.980003	, RootWindow
-2.201852	, S
-2.678973	, SEEK_SET	0
-2.134905	, T	-0.3498785
-2.980003	, TIOCGWINSZ
-2.377943	, U	-0.5413622
-2.678973	, V
-2.134905	, W	-0.4955176
-2.678973	, X
-2.502882	, Y	-0.4430415
-1.502882	, _	-0.6124895
-2.980003	, _0
-2.502882	, _O	-0.3802113
-2.502882	, _Q	-0.3802113
-2.377943	, __	-0.2466723
-2.980003	, _f
-2.980003	, _i
-1.938611	, a	-0.347719
-2.980003	, a_
-2.980003	, arg
-1.900822	, b	-0.3531277
-2.678973	, bA
-2.678973	, bB
-2.678973	, bC
-2.678973	, bD
-2.980003	, bb
-2.980003	, be
-2.678973	, bf	-0.30103
-2.980003	, bg
-2.980003	, bi
-2.980003	, bo
-2.980003	, bq
-2.980003	, bt
-2.980003	, bu
-2.980003	, bv
-2.678973	, bz
-1.900822	, c	-0.3583254
-1.980003	, char	-0.4993976
-2.377943	, const	-0.4357286
-1.657784	, d	-0.6648903
-2.678973	, dstr	0
-2.980003	, dup
-1.833875	, e	-0.4910869
-2.980003	, eep
-2.025761	, f	-0.8846065
-2.980003	, fopen
-2.980003	, fw
-2.201852	, g	-0.6823707
-2.678973	, gln	-0.3143939
-2.502882	, glu	-0.1760913
-2.134905	, h	-0.5108997
-2.980003	, halting
-2.980003	, ho
-1.678973	, i	-0.4443143
-2.134905	, int	-0.1241338
-2.980003	, intw
-2.980003	, ioctl
-1.749554	, j	-0.3773329
-1.980003	, k	-0.3167802
-1.938611	, l	-0.8180488
-2.980003	, lea
-2.980003	, longjmp
-2.678973	, lu
-2.678973	, lv
-2.980003	, lys
-1.938611	, m	-0.5304132
-1.70125	, n	-0.535645
-2.980003	, np
-1.775883	, o	-0.5482833
-2.980003	, oec
-2.980003	, op
-1.775883	, p	-0.2520435
-2.980003	, pow
-2.502882	, q
-1.980003	, r	-0.5266066
-2.980003	, rand
-2.025761	, s	-0.4149734
-2.980003	, shi
-2.377943	, sizeof	0.146128
-2.980003	, sprintf
-2.980003	, stdin
-2.980003	, strlen
-2.980003	, sym_
-1.980003	, t	-0.3132263
-2.980003	, tape
-1.749554	, u	-0.9193577
-2.980003	, unk
-2.980003	, usleep
-2.281033	, v	-0.3372422
-2.980003	, vad
-2.980003	, val
-2.980003	, vpr
-1.980003	, w	-0.1301399
-2.980003	, write
-1.803912	, x	-0.3671597
-2.025761	, y	-0.4178073
-2.377943	, z
-2.980003	, ~
0	,101 +99*!
-2.162863	- &
-1.384712	- (	-0.2136775
-1.986772	- *
-2.463893	- .05
-2.463893	- 0.5
-0.8406437	- 1	-0.2954261
-2.463893	- 12
-2.463893	- 128
-2.463893	- 14202379
-2.463893	- 158
-2.463893	- 19
-2.463893	- 1933008
-1.764923	- 2	-0.1638568
-2.463893	- 205
-2.463893	- 22
-2.463893	- 24
-2.463893	- 257
-1.560803	- 3	-0.1529674
-2.463893	- 30
-2.463893	- 304
-1.986772	- 32	-0.4593925
-2.162863	- 33	0
-2.463893	- 35
-2.463893	- 37
-2.463893	- 4
-2.463893	- 488848
-2.463893	- 4u
-2.463893	- 5
-2.463893	- 508
-2.463893	- 59
-1.764923	- 6	-0.1760913
-2.463893	- 60
-2.463893	- 64
-2.162863	- 7
-2.463893	- 7.5
-2.162863	- 8
-1.986772	- 9	-0.2466723
-2.162863	- 90
-1.50965	- </s>
-2.162863	- A
-2.463893	- Acce
-2.162863	- B
-1.986772	- D
-2.162863	- E
-1.986772	- EOF
-2.463893	- F
-1.861833	- H
-1.986772	- I	-0.3730327
-2.463893	- K
-2.463893	- L
-2.463893	- M
-2.463893	- O1
-2.463893	- O7
-2.162863	- OO	-0.39794
-2.463893	- P
-2.162863	- Q
-2.463893	- Q0
-2.463893	- QO
-2.463893	- R
-2.162863	- V
-1.986772	- W	-0.4644093
-2.463893	- WebSocket
-2.463893	- X
-2.463893	- Y
-2.463893	- _O
-2.463893	- _Q
-1.986772	- __	-0.4227636
-1.685742	- a	-0.4439106
-2.162863	- asn	0.3357921
-1.685742	- b	-0.1674911
-1.618795	- c	-0.1232652
-1.764923	- d	-0.7070879
-2.463893	- dup2
-1.986772	- e
-1.560803	- f	-0.4913617
-1.986772	- g	-0.3772932
-1.986772	- h
-1.463893	- i	-0.4458964
-1.685742	- j	-0.4206399
-1.685742	- k	-0.1610275
-2.463893	- key
-2.463893	- l
-1.986772	- m
-1.685742	- n	-0.4058957
-1.986772	- o	-0.4473449
-1.764923	- p	-0.2108534
-2.463893	- q
-2.463893	- r
-2.162863	- s
-1.861833	- u	-0.5378672
-1.764923	- unk	-0.1760913
-1.685742	- v	-0.4218184
-2.162863	- x	-0.4236769
-1.34995	- ~	-0.08591464
-1.690196	-- &&
-0.7359536	-- )	-0.2785538
-1.389166	-- ,	-0.4632596
-1.690196	-- 1954
-0.6901961	-- ;	-0.0836124
-1.389166	-- </s>
-1.389166	-- =
-1.690196	-- >
-1.690196	-- E
-1.690196	-- H
-1.389166	-- O
-1.690196	-- R
-0.9120448	-- T	-0.7507131
-1.389166	-- [
-1.690196	-- g
-1.389166	-- j
-1.690196	-- q
-1.690196	-- s
-1.690196	-- v
-1.690196	-- val
-1.690196	-- xor
-1.135663	-= (
-1.612784	-= 061
-1.612784	-= 2
-1.612784	-= 4
-1.612784	-= 80
-1.612784	-= </s>
-1.612784	-= D
-1.612784	-= F
-1.135663	-= H	-0.5102897
-1.612784	-= V
-1.612784	-= W
-1.311754	-= be	-0.05115253
-1.311754	-= bf	-0.30103
-1.311754	-= d	-0.4187389
-1.612784	-= e
-1.311754	-= f	-0.39794
-1.010724	-= g	-0.5614422
-1.612784	-= h
-1.612784	-= i
-1.010724	-= l	-0.6312764
-1.612784	-= r
-1.612784	-= t
-1.135663	-= u	-0.45676
-1.311754	-= w	-0.4331044
-1.880814	-> </s>
-1.278754	-> a	-0.2441784
-0.8016323	-> b	-0.5142785
-1.880814	-> c
-0.7346855	-> j	-0.4711963
-1.035716	-> n	-0.666392
-1.278754	-> not
-1.278754	-> op	-0.1918855
-1.880814	-> pixels
-1.403692	-> val
-0.8394209	-> x	-0.4060917
-0.8394209	-> y	-0.4040569
-1.403692	-> z
-2.075547	. </s>
-1.172457	. _	-0.1835334
-2.075547	. binary
-1.034154	. c	-0.5698039
-2.075547	. crea
-2.075547	. dat
-2.075547	. data
-1.473487	. e	-0.2298044
-2.075547	. getC
-2.075547	. href
-2.075547	. key
-2.075547	. keysym
-0.5192444	. not	-0.6470271
-2.075547	. offsetLeft
-2.075547	. offsetTop
-2.075547	. onmousemove
-1.376577	. p	-0.2145495
-2.075547	. pageY
-2.075547	. putImageData
-1.473487	. q	-0.5451552
-2.075547	. send
-2.075547	. set
-2.075547	. slice
-2.075547	. st_mtime
-2.075547	. st_size
-2.075547	. subs
-2.075547	. sym
-1.774517	. t
-2.075547	. type
-0.871427	. val	-0.2340832
-2.075547	. xkey
-1.075547	. y	-0.1852346
-0.1760913	... )	-0.4042115
-0.4771213	... </s>
-0.4771213	.05 )
-0.4771213	.05 ;
-0.4771213	.05 </s>
-0.1760913	.1 )
-0.4771213	.1 :
0	.27 s
-0.4771213	.5 *
-0.4771213	.5 -
-0.4771213	.5 </s>
-1.108339	/ (
-1.886491	/ +
-1.886491	/ -
-1.886491	/ 1024.
-1.886491	/ 12
-0.6823707	/ 2	-0.1249386
-1.585461	/ 2.	0
-1.886491	/ 20
-1.886491	/ 24
-1.886491	/ 26
-1.585461	/ 3
-1.886491	/ 32768
-0.9834008	/ 4	-0.3539661
-1.284431	/ 5	-0.09455609
-1.886491	/ 504
-1.886491	/ 60
-1.886491	/ 60.
-1.886491	/ 768
-1.284431	/ 8	-0.4941546
-1.886491	/ 85
-1.886491	/ 88
-1.886491	/ </s>
-1.585461	/ I
-1.886491	/ O3
-1.409369	/ Q	-0.4325391
-1.886491	/ QQ
-1.284431	/ f	-0.2749272
-1.886491	/ fabs
-1.886491	/ g
-1.886491	/ j
-1.886491	/ k
-1.886491	/ n
-1.585461	/ p
-1.886491	/ scr
-1.886491	/ w
-0.845098	/= ++
-0.544068	/= 2
-0.845098	/= H
-0.845098	/= c
-0.845098	/= l
-0.845098	/= z
-1.937852	0 &&
-0.5824645	0 )	-0.6237655
-2.414973	0 +
-0.6225817	0 ,	-0.2742313
-1.113943	0 :	-0.146128
-0.5824645	0 ;	-0.1741807
-1.511883	0 <	-0.1839166
-2.113943	0 </s>
-2.414973	0 ==
-2.113943	0 >
-1.414973	0 ?	-0.1177601
-1.414973	0 ]	-0.0808548
-2.414973	0 m
-2.113943	0 ||
-2.113943	0 }
-0.4771213	0.5 *
-0.1760913	0.5 ;
0	0.7 ;
0	01 ]
0	02 </s>
0	024 )
0	03 ;
0	040 )
0	061 *
0	075 )
-0.30103	0u ,
-0.30103	0u ;
0	0x1 !=
0	0x3f0 )
0	0x67452301 ,
0	0x820008202625a0 ;
0	0x98BADCFE </s>
0	0xEFCDAB89 ,
0	0xf |
0	0xfc0 ||
0	0xfe0 ^
0	0xff00ff00ff ;
0	0xffff )
-1.812913	1 &	-0.4563377
-1.812913	1 &&
-0.6272768	1 )	-0.1659632
-2.290035	1 *
-1.687975	1 +
-0.8276366	1 ,	-0.1715467
-1.059586	1 -	-0.1754124
-1.591065	1 :	-0.154902
-0.8129134	1 ;	-0.1130985
-2.290035	1 </s>
-1.335792	1 <<	-0.09416732
-1.989005	1 ==	-0.4527619
-1.812913	1 ?
-2.290035	1 A
-1.812913	1 [
-0.7848846	1 ]	-0.334888
-2.290035	1 ^
-1.989005	1 |
-1.812913	1 }	-0.4674699
0	1.159922023e9 ,
0	1.5 ;
0	1.6937441874215991e190 ;
-0.6690068	10 )
-1.146128	10 *
-0.845098	10 +	-0.4667392
-0.845098	10 ,
-1.146128	10 /
-1.146128	10 :
-1.146128	10 ;
-1.146128	10 R
-1.146128	10 ||
-1.146128	10 }
0	1008 )
0	101 ==
-0.4771213	1023 )
-0.1760913	1023 |	-0.4384919
0	1024 /
0	1024. ;
-0.1760913	11 )
-0.4771213	11 ;
0	1103515245 &
0	112 ,
-0.9542425	12 &
-0.6532125	12 )
-0.9542425	12 +
-0.6532125	12 -
-0.6532125	12 </s>
-0.9542425	12 >
0	123 :
0	12359778 ;
0	12365733 -
0	124 -
0	127 ;
-0.60206	128 &&
-0.30103	128 )	-0.3483185
-0.60206	128 ,
0	128L +
-0.30103	13 ,
-0.30103	13 ?
0	13000 ;
0	138 )
-0.1760913	14 &
-0.7781513	14 ]
-0.7781513	14 ^
0	14202379 *
0	14695981039346656037ULL ;	-0.2891898
-0.544068	15 )	-0.4749901
-0.3679768	15 ,
-0.845098	15 ;
-0.845098	15 |
0	1500 ?
0	158 )
-1.278754	16 &&
-0.5006024	16 )	-0.1722272
-0.8016323	16 *
-1.278754	16 +
-0.8016323	16 ,
-1.278754	16 /
-0.8016323	16 ;	-0.2891898
-1.278754	16 >
0	1600 &&
-0.1760913	16711935 ;	-0.4703436
-0.4771213	16711935 |
0	16774143 ;
0	16u )
0	17 +
0	176 /
-0.69897	18 )
-0.69897	18 ,
-0.69897	18 </s>
-0.69897	18 ?
-0.69897	18 ]
0	19 )
0	1912 --
0	19205553 ;
0	193 +
0	1933008 </s>
0	194 ,
0	1954 )
0	196 -
0	197 )
0	198 ;
-0.30103	1LL +
-0.30103	1LL <<
-0.30103	1u )
-0.30103	1u ,
-2.079181	2 %
-1.60206	2 &
-0.4993976	2 )	0.003103316
-0.90309	2 *	-0.1608704
-1.380211	2 +	-0.1691976
-0.8239087	2 ,	-0.2057087
-1.778151	2 -
-0.9330532	2 ;	0.07479095
-2.079181	2 </s>
-1.30103	2 ?
-0.9652379	2 ]	-0.1071838
-1.60206	2 ||
-2.079181	2 }
0	2. )	-0.4728485
0	2.271681097355226e15 ,
-0.90309	20 %
-0.60206	20 )
-0.90309	20 *
-0.60206	20 </s>
-0.60206	20 ?
0	204 ]
0	205 )
-0.30103	22 )
-0.30103	22 *
0	23 ;
0	234 ;
-0.544068	24 )
-0.845098	24 ,
-0.845098	24 ;
-0.544068	24 </s>
-0.845098	24 ]
0	25 ;
0	250 ,
-0.845098	255 )
-0.845098	255 ,
-0.845098	255 -
-0.845098	255 :
-0.544068	255 ;
-0.845098	255 ?
-0.30103	256 ,
-0.60206	256 -
-0.60206	256 ;
0	256L +
0	257 ,
0	258063 &
-0.30103	26 ,
-0.30103	26 ]
0	27 )
0	275 )
0	276 )
0	28 &
0	287 )
0	2L )
-1.574031	3 &
-0.5963076	3 )	-0.07819591
-0.9719713	3 *
-1.176091	3 +	-0.6688846
-1.029963	3 ,	-0.1322664
-1.273001	3 -	-0.2965295
-1.574031	3 :
-0.9719713	3 ;
-1.875061	3 </s>
-1.875061	3 ?
-1.875061	3 A
-1.875061	3 B
-0.6709413	3 ]	-0.2379782
0	3.135045272e9 ,
0	3.9999e5 )
-0.845098	30 &&
-0.845098	30 *
-0.845098	30 +
-0.544068	30 ;
-0.845098	30 ?
-0.845098	30 ]
0	304 -
0	308438 *
-0.60206	31 )
-0.1249387	31 ;
-0.552842	32 )	-0.01732528
-0.9208187	32 +	-0.410744
-0.79588	32 ,
-1.39794	32 -
-1.39794	32 :
-0.79588	32 ;	-0.1130985
-1.09691	32 <<	-0.4222726
-1.09691	32 ]	-0.4179299
-1.39794	32 |
-0.30103	32768 )
-0.30103	32768 ,
0	3285377520 }
0	33 )
-0.30103	333 *
-0.30103	333 ;
0	3352537 *
0	34 m
-0.69897	35 )
-0.69897	35 -
-0.69897	35 :
-0.69897	35 ?
-0.69897	35 R
0	36 :
-0.30103	37 +
-0.30103	37 ;
-0.30103	38 )
-0.30103	38 *
0	384 )
0	39 ;
0	3920 )
-1.857332	4 &
-0.4956047	4 )	-0.3737092
-1.012234	4 *	-0.1205497
-1.255273	4 +	-0.5494088
-0.9542425	4 ,
-1.079181	4 -
-1.857332	4 :
-1.158363	4 ;
-1.857332	4 <
-1.857332	4 </s>
-0.7781513	4 ]	-0.3982752
-1.380211	4 |
0	4.023233417e9 ,
0	4.294967296e9 ,
0	4.5 )
0	4.503599627370496e15 ,
0	4.522871578970112e217 ;
0	4.6727004911171048e-153 ;
-0.20412	40 )	-0.09304599
-0.90309	40 :
-0.90309	40 ;
-0.90309	40 ?
0	4092 ^
0	41 )	-0.3483185
0	41088 ,
0	4190208 |
0	4194304 </s>
-0.09691001	42 )	-0.1722272
-0.69897	42 ;
0	44 +
0	45 )
0	48 ;
0	480 ,
0	488848 *
0	4L +
-0.30103	4u )
-0.30103	4u ;
-1.568202	5 %
-1.267172	5 &&
-0.4220737	5 )	-0.4768682
-1.267172	5 *
-0.9661418	5 ,
-1.568202	5 -
-1.568202	5 ;
-1.568202	5 </s>
-1.09108	5 ?
-0.6651117	5 ]	0.01884811
0	50 ;
0	504 *
0	508 ]
0	51 )
-0.60206	512 *
-0.60206	512 +
-0.60206	512 ;
-0.60206	512 </s>
0	512L )
0	516 ]
-0.30103	5200 ;
-0.30103	5200 ]
0	5298487 :
-0.4771213	56 )
-0.1760913	56 ;	-0.4276908
0	57 ;
-0.30103	58 :
-0.30103	58 >
-0.30103	59 ;
-0.30103	59 ==
0	5toG57j/3" </s>
-1.176091	6 &
-1.477121	6 &&
-0.5228788	6 )	-0.3161024
-1	6 *	-0.4722868
-1	6 ,	-0.5881984
-1	6 ;
-1.176091	6 </s>
-1.477121	6 >
-1.176091	6 ?
-0.8750613	6 ]	-0.2418387
-0.20412	60 )	-0.2691373
-0.60206	60 *	-0.4386037
-0.90309	60 /
0	60. /
-0.1760913	61 :
-0.4771213	61 ;
-0.30103	62 ;
-0.30103	62 ?
-0.30103	63 )	-0.4716199
-0.60206	63 ,
-0.60206	63 <<
0	63504 ;
-1.079181	64 &
-0.7781513	64 )
-1.079181	64 *
-0.3802112	64 ,
-1.079181	64 :
-1.079181	64 ;
-1.079181	64 </s>
0	64u )
0	65280 )
0	65307 ;
-0.30103	65536 ;
-0.30103	65536 ]
0	65544 >
0	67 *
0	6990400 ;
-1.361728	7 &
-1.361728	7 &&
-0.6627578	7 )	-0.217576
-1.060698	7 *
-0.7596679	7 ,
-1.361728	7 -
-1.060698	7 ;
-1.361728	7 <
-1.361728	7 </s>
-1.361728	7 ?
-0.7596679	7 ]	-0.2418387
0	7.5 )
0	7.90055321525613e115 ;
0	70 )
-0.30103	74 )
-0.30103	74 </s>
0	75 ?
0	76 )
-0.60206	768 ;
-0.60206	768 </s>
-0.30103	768 ]
0	77 ;
-0.4771213	79 )
-0.4771213	79 ;
-0.4771213	79 ]
-1.221849	8 &
-1.69897	8 &&
-0.6575773	8 )	-0.1393946
-1.221849	8 +
-0.5850267	8 ,	-0.1295752
-1.39794	8 :
-0.9208187	8 ;	-0.2859038
-1.69897	8 <
-1.39794	8 >>	-0.4507923
-1.39794	8 ?
-1.09691	8 ]
-1.39794	8 |	-0.4582359
0	8.44396048e8 ,
-1.146128	80 )
-0.146128	80 +	-0.9789815
-1.146128	80 ,
-1.146128	80 ;
-1.146128	80 ]
0	8000 </s>
-0.4771213	81 )
-0.4771213	81 -
-0.4771213	81 /
0	82 ;
0	84 )
-0.4771213	85 *
-0.4771213	85 +
-0.4771213	85 <<
-0.30103	86400 )
-0.30103	86400 -
0	88 )
0	881 ,
0	8u +
-1.230449	9 %
-0.3853509	9 )	-0.4429619
-1.230449	9 *
-1.230449	9 +
-0.9294189	9 ,
-0.9294189	9 -
-1.230449	9 ;
-1.230449	9 <<
-1.230449	9 ?
-0.30103	90 )
-0.30103	90 ;
0	91 )
-0.4771213	92 )
-0.4771213	92 +
-0.4771213	92 ;
0	96 ^
-0.4771213	97 +
-0.1760913	97 ]
0	9858122 :
0	99 ]
0	9999 ]
0	99999 )
-1.669007	: !
-2.146128	: ""
-2.146128	: ")$"
-2.146128	: "Q(j"
-2.146128	: "Q(jam"
-2.146128	: %
-2.146128	: &
-2.146128	: '='
-0.8037053	: (	-0.3137181
-1.447158	: *	-0.3765904
-1.845098	: -
-0.845098	: 0	-0.5093058
-1.669007	: 1
-2.146128	: 12365733
-2.146128	: 2
-2.146128	: 24
-2.146128	: 3352537
-2.146128	: 5
-2.146128	: 65536
-1.032185	: </s>
-2.146128	: B
-2.146128	: C
-2.146128	: EOF
-2.146128	: G
-1.845098	: I	-0.3730327
-2.146128	: N
-2.146128	: O
-2.146128	: P
-2.146128	: R
-2.146128	: S
-1.845098	: T
-2.146128	: V
-1.845098	: _	-0.4259687
-2.146128	: _c
-2.146128	: a
-2.146128	: break
-1.669007	: c
-2.146128	: case
-2.146128	: d
-1.845098	: e
-2.146128	: f
-2.146128	: fopen
-2.146128	: g
-1.669007	: gln	-0.30103
-2.146128	: goto
-1.845098	: h
-1.845098	: i
-2.146128	: j
-2.146128	: l
-1.845098	: m
-2.146128	: main
-2.146128	: n
-2.146128	: p
-2.146128	: putchar
-1.845098	: r	-0.454056
-2.146128	: switch
-1.669007	: u	-0.4129284
-1.669007	: v	-0.4271473
-2.146128	: w
-2.146128	: webso
-2.146128	: x
-1.845098	: ~
-2.389874	; !	-0.6735654
-2.486784	; (	-0.2884312
-1.520643	; )	-0.4251755
-1.858396	; *	-0.271878
-2.088845	; ++	-0.9632771
-3.088845	; --
-3.088845	; 0
-2.185755	; ;	-0.2173659
-0.4543673	; </s>
-2.389874	; A	-0.6054397
-2.310693	; B	-0.7331243
-2.088845	; D	-0.1663314
-2.310693	; E	-0.6742551
-2.787815	; F	-0.4149733
-2.310693	; G	0.39794
-2.611723	; H	-0.5351132
-2.486784	; I	-0.5157002
-2.486784	; J	0
-2.185755	; K	-0.2352127
-2.310693	; L	-0.4583718
-3.088845	; M
-3.088845	; N
-2.389874	; O
-2.185755	; P	-0.7647873
-2.787815	; Q
-3.088845	; Q_
-2.243747	; R	-0.2310291
-3.088845	; SDL_BlitSurface
-3.088845	; SDL_Delay
-3.088845	; SDL_Event
-3.088845	; SDL_FillRect
-3.088845	; SDL_Flip
-3.088845	; SDL_Init
-3.088845	; SDL_LoadWAV
-3.088845	; SDL_MixAudio
-3.088845	; SDL_OpenAudio
-3.088845	; SDL_PauseAudio
-2.486784	; T	-0.2392228
-1.833572	; U	-0.3883947
-1.974901	; V	-0.1606868
-1.858396	; W	-1.03296
-3.088845	; Window
-2.787815	; X	-0.4307525
-3.088845	; XEvent
-3.088845	; XImage
-3.088845	; XSelectInput
-2.787815	; Y	-0.4340866
-2.134602	; _	-0.08855794
-3.088845	; __
-1.858396	; a	-0.3948383
-1.583695	; b	-0.3043717
-3.088845	; bA
-3.088845	; ba
-3.088845	; bc
-2.787815	; bh	0
-3.088845	; bj
-2.486784	; break	0.5314789
-3.088845	; bz
-2.185755	; c	-0.1136577
-2.389874	; case
-2.243747	; char	0.1326256
-1.912753	; d	-0.4100606
-2.787815	; default	0
-2.389874	; e	-0.154902
-2.611723	; else
-3.088845	; extern
-2.134602	; f	-0.4232459
-3.088845	; fgets
-2.486784	; float
-1.641687	; for	0
-3.088845	; fread
-3.088845	; free
-2.389874	; g	-0.3821457
-2.787815	; goto
-3.088845	; h
-1.858396	; i	-0.6261787
-1.974901	; if	0.4238758
-1.974901	; int	-0.1456901
-2.047452	; j	-0.308469
-1.942716	; k	-0.4191294
-2.389874	; l	-0.3302464
-2.486784	; long	-0.1434221
-2.243747	; m	-0.172457
-2.787815	; main	0.8239088
-3.088845	; memcpy
-3.088845	; mvaddstr
-3.088845	; mvinsch
-2.088845	; n	-0.6101947
-2.009663	; o	-0.5954696
-1.974901	; p	-0.4921393
-3.088845	; putchar
-2.310693	; q	-0.2527253
-2.243747	; r	-0.2673066
-3.088845	; refresh
-2.009663	; return	-0.2419085
-2.009663	; s	-0.4366926
-2.611723	; struct
-3.088845	; switch
-2.310693	; t	-0.3856741
-3.088845	; typedef
-1.912753	; u	-0.9844755
-3.088845	; union
-2.389874	; v	-0.1611509
-3.088845	; va_end
-3.088845	; va_start
-2.486784	; void	-0.509306
-1.912753	; w	-0.3504348
-2.486784	; while	0
-2.310693	; x	-0.4024876
-2.310693	; xor	-0.7829501
-2.310693	; y	-0.698045
-1.810091	; z	-0.4638795
-3.088845	; {
-0.9682707	; }	-0.1196404
-2.120574	< (
-2.120574	< /
-0.916454	< 0	-0.8460512
-2.120574	< 11
-2.120574	< 127
-2.120574	< 13
-1.819544	< 14	0
-2.120574	< 16
-1.819544	< 18
-1.518514	< 2	-0.5006024
-1.819544	< 20	-0.3521825
-1.819544	< 3
-2.120574	< 30
-2.120574	< 32
-1.819544	< 5
-2.120574	< 5200
-2.120574	< 57
-1.643453	< 6
-1.819544	< 60	-0.05115253
-2.120574	< 61
-1.819544	< 62
-2.120574	< 7
-2.120574	< 74
-2.120574	< 75
-2.120574	< 77
-1.819544	< 79
-2.120574	< 80
-2.120574	< 82
-2.120574	< 91
-1.518514	< </s>
-1.819544	< A	-0.4191293
-1.819544	< B
-1.518514	< D	-0.2455126
-1.819544	< E
-2.120574	< L
-2.120574	< M
-2.120574	< O
-2.120574	< Q
-2.120574	< SPEED
-2.120574	< U
-2.120574	< W
-1.518514	< a	-0.284742
-2.120574	< abs
-2.120574	< asn
-1.643453	< c
-1.819544	< d
-1.819544	< f	-0.4510185
-2.120574	< h
-1.342423	< i	-0.1440761
-2.120574	< j
-2.120574	< l
-1.819544	< m
-1.342423	< n	-0.1217336
-1.342423	< not	-0.6128908
-2.120574	< p
-1.421604	< s	-0.6690068
-2.120574	< script
-1.819544	< t	-0.4545555
-1.819544	< u
-1.643453	< v
-1.819544	< x
-2.120574	< y
-2.120574	< ~
-1.071882	<< (
-1.293731	<< 1	-0.3602729
-1.770852	<< 14
-1.770852	<< 15
-1.469822	<< 18
-1.770852	<< 23
-1.770852	<< 24
-1.770852	<< 30
-1.293731	<< 32	-0.4014006
-1.293731	<< 4	-0.3099849
-1.770852	<< 40
-1.770852	<< 5
-1.469822	<< 56	0
-1.469822	<< 6	-0.4313638
-1.770852	<< 60
-1.770852	<< 7
-0.925754	<< 8	-0.3891661
-1.469822	<< </s>
-1.770852	<< Q_
-1.469822	<< a
-1.770852	<< b
-1.469822	<< f	-0.4232459
-1.770852	<< i
-1.293731	<< l	-0.4541374
-1.770852	<< n
-1.469822	<< s
-1.168792	<< t
-1.469822	<< u	-0.4426353
-1.770852	<< unk
-1.770852	<< z
0	<<= b
-0.9542425	<= 24
-0.9542425	<= D
-0.9542425	<= L
-0.9542425	<= Q
-0.9542425	<= f
-0.9542425	<= k
-0.9542425	<= m
-0.9542425	<= optind
-0.9542425	<= q
0	<P~6" </s>
-2.732796	<s> !
-3.033826	<s> !=
-2.732796	<s> "
-3.033826	<s> "!:E%;!ea!!!WqE0z!f/y}!%!!Qi6!uzt!n}?]!bl!ak!SetR<"
-3.033826	<s> "!pv!;!Hm%Ro4"
-3.033826	<s> "%d
-3.033826	<s> "%f,%f,"
-3.033826	<s> "*_[512],**p=_,**d,b,q;for(b=0;b"
-3.033826	<s> "*p=#b,P[9999],*d=P,*e[]="
-3.033826	<s> "/"
-3.033826	<s> "258EAFA5-"
-3.033826	<s> "::::::::::::?_::::\"::.::::@:::'::-::::::::;!:):::::,:::::"
-3.033826	<s> ";;"
-3.033826	<s> ";Gam"
-3.033826	<s> ";GlockQ18"
-3.033826	<s> ";^Q<d|8=o;]Q<dj8<Pk8<c]'?;QQdi8?P'Q)d8<9`8?c;Qdh8=P']Q<`c8>PQ9_8"
-3.033826	<s> "<o_Q<o_QBdo`QQ';`Q=9`]8=bobQ_o_Q<o]8=';bQC(88cQ`bcgQ>oP']8<;cQ>98)^Q?''oc`Q>"
-3.033826	<s> "=(p-_+1)*9%512]=(O*)p;"
-3.033826	<s> ">b;og8=''`Q<`b8?'QQ9_8?c;dPe8dQa8<P]Q<``8=;'f8>QQ`]8?ocQQ_8=''_Q`8aQ"
-3.033826	<s> "?guhljL!^P%
-3.033826	<s> "CYOUQWIN!]Q=;of8BQQ)88bc]QA98P'Qo]8>oQQ_8CP;QQ98b`_8@P8(Q`]'^Q=`']QB)88"
-3.033826	<s> "M@K~|JOEF\\^~_NHI]"
-3.033826	<s> "Zj$x!~V!n&g8!cK!
-3.033826	<s> "bQQ]`8J;QQ`88bc99bd(`8iQ@''QQo^8E'`8c;QQ'Q``8?QQ`'kQ<o]8B9PQQ`';_Q<`_8<cbQ"
-3.033826	<s> "e.6!r!%l6G!n~^<i=%pEwL%P!'<!FQt%u
-3.033826	<s> "e:|
-3.033826	<s> "etu"
-3.033826	<s> "med);"
-3.033826	<s> "oc']Q]8<;cQ>`8bbQA``QQ''`Q?88P;dQ=`)nQ?*/;;"
-3.033826	<s> "oid
-2.556705	<s> %
-2.732796	<s> &
-2.556705	<s> &&	-0.2984977
-3.033826	<s> 'c'
-1.515312	<s> (	-0.07148374
-1.542464	<s> )	-0.06548506
-2.431766	<s> *
-2.732796	<s> +
-1.954644	<s> ++	-0.3434884
-2.732796	<s> +=
-1.711606	<s> ,	-0.09426437
-2.033826	<s> -	-0.2020005
-2.431766	<s> --
-3.033826	<s> -=
-3.033826	<s> .
-2.556705	<s> /
-2.334856	<s> 0	-0.2662679
-3.033826	<s> 0xffff
-2.556705	<s> 1
-3.033826	<s> 10
-3.033826	<s> 128
-3.033826	<s> 15
-3.033826	<s> 16
-3.033826	<s> 16711935
-2.431766	<s> 2	-0.1356626
-3.033826	<s> 25
-3.033826	<s> 333
-2.732796	<s> 4
-3.033826	<s> 45
-3.033826	<s> 5
-3.033826	<s> 6
-3.033826	<s> 63504
-3.033826	<s> 64
-3.033826	<s> 65307
-3.033826	<s> 7
-2.556705	<s> 8
-3.033826	<s> 81
-3.033826	<s> 96
-2.732796	<s> :
-1.803377	<s> ;	-0.05214668
-2.732796	<s> <
-2.431766	<s> <<
-1.887698	<s> =	-0.1279406
-3.033826	<s> >
-2.334856	<s> >>
-2.431766	<s> ?
-2.255674	<s> A	-0.1180993
-3.033826	<s> Alan
-2.556705	<s> B
-2.556705	<s> C
-3.033826	<s> COLS
-2.732796	<s> D	-0.4502491
-2.079583	<s> E	-0.3732251
-2.556705	<s> F	-0.4149733
-2.556705	<s> FILE	0
-2.732796	<s> G
-2.255674	<s> H	-0.7346856
-1.992433	<s> I	-0.1668397
-2.732796	<s> J
-2.188728	<s> K	-0.1611339
-2.255674	<s> L
-2.255674	<s> M	-0.241032
-2.556705	<s> N	-0.2405493
-2.732796	<s> O
-3.033826	<s> O1
-3.033826	<s> O2
-3.033826	<s> O7
-3.033826	<s> O8
-3.033826	<s> O_
-2.334856	<s> P	-0.2596373
-2.556705	<s> Q	-0.444121
-3.033826	<s> Q1
-3.033826	<s> Q2
-3.033826	<s> Q3
-3.033826	<s> QO
-2.556705	<s> R
-3.033826	<s> S
-3.033826	<s> SDL_PollEvent
-3.033826	<s> SDL_Surface
-2.130736	<s> T
-2.431766	<s> U	-0.251056
-3.033826	<s> Upgrade
-2.255674	<s> V	-0.1432987
-2.079583	<s> W	-0.4557231
-2.556705	<s> X
-3.033826	<s> XPutImage
-1.919882	<s> Y	-0.5146062
-2.130736	<s> Z	-0.2513422
-2.556705	<s> [
-2.431766	<s> ]	-0.4787948
-2.732796	<s> _
-3.033826	<s> _0
-1.857734	<s> a	-0.2791741
-3.033826	<s> ageX
-2.732796	<s> ala
-2.431766	<s> and	-0.2747011
-2.556705	<s> asn	0.2108533
-2.033826	<s> b	-0.3435823
-3.033826	<s> bB
-3.033826	<s> bC
-3.033826	<s> be
-3.033826	<s> bl
-3.033826	<s> bn
-2.188728	<s> break	0.327359
-3.033826	<s> bt
-2.732796	<s> bu
-3.033826	<s> by
-2.431766	<s> c	-0.5632579
-3.033826	<s> case
-2.732796	<s> char
-2.079583	<s> const	-0.4247332
-1.829706	<s> d	-0.7585978
-3.033826	<s> default
-2.431766	<s> do	0
-3.033826	<s> double
-1.711606	<s> e	-0.4667804
-1.571428	<s> efine
-2.732796	<s> else	-0.3853509
-3.033826	<s> er
-2.431766	<s> err	0
-3.033826	<s> errx
-2.732796	<s> exit	0
-2.334856	<s> f	-0.1426675
-1.711606	<s> for	-0.09938467
-3.033826	<s> fputc
-2.334856	<s> free	0
-2.732796	<s> fseek	0
-3.033826	<s> fw
-1.602462	<s> g	-1.257207
-3.033826	<s> getchar
-2.431766	<s> gly	0
-2.079583	<s> h	-0.1786385
-1.635886	<s> i	-0.9423229
-1.421042	<s> if	-0.08543015
-1.653614	<s> int	-0.1546094
-2.334856	<s> j	-0.6772507
-2.334856	<s> k
-1.954644	<s> l	-0.2118853
-2.556705	<s> long
-2.556705	<s> lys
-2.556705	<s> m
-2.431766	<s> main	0.60206
-2.556705	<s> met	-0.3679768
-3.033826	<s> mva
-2.334856	<s> n
-2.732796	<s> ndif	0
-3.033826	<s> new
-2.079583	<s> not	-0.7119349
-1.711606	<s> o	-0.7455639
-3.033826	<s> ocket
-3.033826	<s> on
-2.732796	<s> op	-0.30103
-3.033826	<s> open
-3.033826	<s> optind
-2.334856	<s> p	-0.3099849
-2.732796	<s> phe	0
-2.255674	<s> printf	0
-3.033826	<s> pt
-2.732796	<s> putchar	0
-2.732796	<s> puts	0.30103
-2.431766	<s> q
-2.431766	<s> r
-3.033826	<s> rea
-1.992433	<s> return	-0.08218674
-2.732796	<s> rewind	0
-3.033826	<s> rror
-1.887698	<s> s	-0.7153069
-2.431766	<s> sec	-0.3467875
-3.033826	<s> signal
-3.033826	<s> sin
-2.334856	<s> static	0.07918125
-3.033826	<s> stdin
-3.033826	<s> strchr
-2.732796	<s> switch	0
-2.130736	<s> t	-0.4287087
-3.033826	<s> tf
-2.334856	<s> thr	-0.09691003
-3.033826	<s> tr
-3.033826	<s> type
-1.992433	<s> typedef	-0.02020337
-2.732796	<s> tyr	-0.2552725
-2.079583	<s> u	-0.3488546
-2.188728	<s> unsigned	-0.06694677
-2.334856	<s> v
-2.732796	<s> val
-2.334856	<s> void	-0.305186
-3.033826	<s> volatile
-2.033826	<s> w	-0.3301203
-1.954644	<s> while	0
-2.556705	<s> x
-1.954644	<s> y	-0.3613259
-2.188728	<s> z	-0.7611962
-1.829706	<s> {	-0.5718695
-1.114748	<s> }	-0.5686276
-2.732796	<s> ~
-2.219584	= !
-2.918555	= "
-2.918555	= "<;iQ=/*do<;dQ=ook8?boc;aQ=odr8>oc;_Q<ox8>oc"
-2.918555	= "NBLF\1Nblfgjmf\1"
-2.918555	= "\n\n\n"
-2.918555	= "syntax_error!"
-2.316494	= &	-0.6739076
-2.617525	= '128'
-2.918555	= 'width:256px;height:256px'
-1.255797	= (	-0.2723572
-1.714435	= *	-0.4595705
-2.918555	= ,
-1.556827	= -	-0.3676568
-2.918555	= --
-2.918555	= .1
-0.9691646	= 0	-1.162519
-2.918555	= 040
-2.918555	= 0u
-2.918555	= 0x1
-2.918555	= 0x820008202625a0
-1.556827	= 1	-0.8120559
-2.918555	= 1.159922023e9
-2.316494	= 10
-2.918555	= 1024
-2.918555	= 112
-2.918555	= 12
-2.918555	= 12359778
-2.918555	= 13000
-2.617525	= 14695981039346656037ULL	0
-2.918555	= 16
-2.918555	= 17
-2.918555	= 196
-2.918555	= 1LL
-2.441433	= 2	-0.4232459
-2.918555	= 2.271681097355226e15
-2.918555	= 234
-2.918555	= 250
-2.441433	= 255
-2.918555	= 256
-2.918555	= 26
-2.140403	= 3	-0.6812412
-2.918555	= 3.135045272e9
-2.918555	= 30
-2.441433	= 32
-2.918555	= 32768
-2.918555	= 333
-2.918555	= 37
-2.219584	= 4	-0.6916707
-2.918555	= 4.023233417e9
-2.918555	= 4.294967296e9
-2.918555	= 4.503599627370496e15
-2.918555	= 40
-2.918555	= 41088
-2.918555	= 48
-2.918555	= 480
-2.617525	= 5	-0.4274335
-2.918555	= 50
-2.918555	= 512
-2.441433	= 6	-0.4313638
-2.918555	= 64
-2.918555	= 6990400
-2.140403	= 7	-0.09311702
-2.441433	= 8	-0.346353
-2.918555	= 8.44396048e8
-2.918555	= 80
-2.918555	= 9
-1.714435	= </s>
-1.596335	= A	-0.4580474
-1.839373	= B	-0.4637572
-2.015465	= C	-0.3120254
-2.918555	= COLS
-2.140403	= D	-0.3802112
-2.219584	= E	-0.1832193
-2.140403	= F	-0.3290587
-2.219584	= H
-2.219584	= I	-0.3760382
-2.918555	= J
-2.073457	= K	-0.3713565
-2.316494	= L	-0.2725933
-2.918555	= LINES
-2.316494	= M	-0.5086383
-1.839373	= N	-0.4941546
-1.918555	= O	-0.4479139
-2.918555	= O0
-2.918555	= O5
-2.441433	= OO	-0.39794
-2.617525	= O_	0
-2.918555	= O_o
-2.441433	= P
-1.964312	= Q	-0.4636745
-2.918555	= Q7
-2.918555	= Q8
-2.441433	= Q_	0
-2.441433	= R	-0.4485658
-2.316494	= S
-2.918555	= SDL_CreateRGBSurface
-2.918555	= SDL_SetVideoMode
-1.964312	= T	-0.1671365
-2.918555	= TIMESTEP
-2.918555	= U
-2.441433	= W
-2.918555	= X
-2.918555	= XCreateImage
-2.918555	= XCreateSimpleWindow
-2.918555	= XLookupKeysym
-2.918555	= XOpenDisplay
-2.918555	= Y
-2.617525	= Z	-0.4140695
-1.964312	= _	-0.7900505
-2.918555	= _0
-2.617525	= _Q
-2.441433	= __	-0.4227636
-2.918555	= __TIME__
-2.918555	= _b
-1.804611	= a	-0.2474561
-1.839373	= b	-0.2302819
-2.617525	= bA
-2.918555	= bB
-2.918555	= bC
-2.617525	= bE	-0.07918125
-2.918555	= ba
-2.918555	= bb
-2.918555	= bf
-2.918555	= bm
-2.073457	= bp	0
-2.918555	= bs
-2.918555	= buf
-2.918555	= bx
-2.918555	= by
-2.617525	= bz
-1.742463	= c	-0.1604344
-2.441433	= calloc	0
-2.918555	= cos
-1.688106	= d	-0.5475657
-1.714435	= e	-0.5322653
-2.617525	= exp	0
-1.639801	= f	-0.5217916
-2.918555	= fgetc
-2.918555	= fopen
-2.617525	= fread	0
-2.918555	= function
-2.316494	= g	-0.5614422
-2.918555	= getch
-2.441433	= getchar	0
-2.918555	= getopt
-2.316494	= gln	-0.39794
-1.964312	= h	-0.536707
-2.617525	= his
-1.918555	= i	-0.2496018
-1.877162	= j	-0.4088647
-2.219584	= k
-2.316494	= l
-2.918555	= lv
-2.073457	= m	-0.1161648
-2.918555	= main
-2.617525	= malloc	0
-2.073457	= n	-0.1886804
-2.918555	= new
-2.441433	= not	-0.3698528
-1.714435	= o	-0.3550797
-2.918555	= op
-2.015465	= p	-0.535716
-2.617525	= pow	0
-2.918555	= pyl
-2.441433	= q	-0.5785789
-2.316494	= r	-0.2618779
-2.918555	= rand
-2.918555	= read
-2.316494	= realloc	0
-2.918555	= round
-2.015465	= s	-0.09108046
-2.441433	= sizeof	0.243038
-2.918555	= sqrt
-2.918555	= strrchr
-2.918555	= system
-2.140403	= t	-0.4245922
-2.918555	= tmpfile
-2.015465	= trp	-0.3802113
-1.839373	= u	-0.4625123
-2.617525	= unk	-0.39794
-1.839373	= v	-0.5852153
-2.918555	= w
-2.918555	= window
-1.877162	= x	-0.2623262
-2.918555	= xle
-1.918555	= y	-0.2377255
-2.140403	= z	-0.4339643
-2.015465	= {
-1.439333	== '\n'	0
-1.740363	== (
-1.439333	== *
-1.439333	== -
-1.740363	== 0
-1.439333	== 1
-1.439333	== 10
-1.740363	== 2
-1.740363	== 27
-1.740363	== 275
-1.740363	== 276
-1.439333	== 3
-1.740363	== 32
-1.439333	== 35
-1.740363	== 4
-1.439333	== 5	-0.2706474
-1.740363	== 6
-1.740363	== 8
-1.740363	== 81
-1.740363	== 92
-1.740363	== </s>
-1.740363	== B
-1.439333	== D
-1.439333	== NULL	0
-1.439333	== T	-0.4049733
-1.138303	== a	-0.2874995
-1.740363	== arg
-1.263241	== b	-0.4597472
-1.439333	== c
-1.740363	== cys
-1.740363	== gln
-1.740363	== h
-1.740363	== n
-1.740363	== not
-1.740363	== r
-1.439333	== u
-1.740363	== ~
-1.230449	> (
-1.832509	> ->
-0.9874108	> 0	-0.3457004
-1.832509	> 12
-1.832509	> 1600
-1.832509	> 197
-1.133539	> 2	-0.4458636
-1.832509	> 20
-1.832509	> 255
-1.832509	> 3
-1.832509	> 30
-1.832509	> 31
-1.832509	> 4
-1.230449	> 5	-0.2643072
-1.355388	> 6
-1.832509	> 64
-1.531479	> 7
-1.832509	> 76
-1.531479	> 9
-1.832509	> 92
-1.832509	> <
-1.531479	> </s>
-1.832509	> B
-1.832509	> BUFSIZ
-1.832509	> F
-1.832509	> H
-1.832509	> I
-1.832509	> Q0
-1.531479	> QQ	-0.30103
-1.832509	> _
-1.832509	> a
-1.832509	> bs
-1.832509	> c
-1.832509	> e
-1.832509	> glu
-1.832509	> h
-1.531479	> i
-1.832509	> l
-1.832509	> lrand48
-1.832509	> p
-1.832509	> q
-1.832509	> s
-1.832509	> v
-1.832509	> w
-1.832509	> x
-0.7781513	>= (
-0.4771213	>= 0
-0.7781513	>= LINES
-0.7781513	>= Q
-0.7781513	>= d
-1.230449	>> (
-1.70757	>> ++
-1.70757	>> 12
-1.40654	>> 14	0
-1.230449	>> 2	-0.3117539
-1.70757	>> 20
-1.70757	>> 28
-1.70757	>> 3
-1.40654	>> 31	0.1249388
-1.40654	>> 32	-0.4409091
-1.70757	>> 38
-1.40654	>> 4
-1.230449	>> 40	-0.1760913
-1.70757	>> 5
-1.70757	>> 56
-1.40654	>> 6
-0.7075702	>> 8	-0.4471579
-1.230449	>> </s>
-1.40654	>> a	-0.4524544
-1.70757	>> f
-1.70757	>> lys
-1.40654	>> s
-1.70757	>> u
-1.40654	>> unk	-0.1760913
-1.40654	>> z	-0.1989541
-0.4771213	>>= 4
-0.4771213	>>= 7
-0.4771213	>>= e
-2.08636	? !
-1.78533	? ""	-0.3309932
-2.08636	? ";"
-2.08636	? "{;}"
-2.08636	? "}$"
-1.78533	? &
-2.08636	? '
-2.08636	? '|'
-1.308209	? (
-1.4843	? *
-1.609239	? ++
-2.08636	? -
-1.609239	? --	-0.4203936
-1.08636	? 0	-1.006631
-1.609239	? 1	-0.590779
-2.08636	? 124
-2.08636	? 255
-2.08636	? 256
-1.78533	? 3
-2.08636	? 32
-1.78533	? 8	-0.4593925
-2.08636	? 9858122
-1.78533	? </s>
-1.78533	? D
-1.78533	? E	-0.3732251
-2.08636	? F
-2.08636	? FILENAME_MAX
-1.78533	? G	0.1127043
-2.08636	? H
-1.78533	? I	-0.4626434
-1.78533	? L	-0.4519377
-1.78533	? O
-2.08636	? RGB
-2.08636	? S
-1.38739	? T	-0.5769756
-2.08636	? U
-2.08636	? _k
-1.78533	? a
-1.609239	? d
-2.08636	? e
-1.78533	? g
-1.609239	? glu	-0.4471581
-2.08636	? h
-1.609239	? i	-0.4726897
-1.609239	? k
-1.38739	? n
-1.609239	? o	-0.521831
-1.78533	? p	-0.3891661
-2.08636	? putchar
-2.08636	? q
-2.08636	? r
-1.609239	? s	-0.3935752
-2.08636	? strlen
-1.78533	? u
-1.308209	? v	-0.7008541
-2.08636	? w
-1.78533	? x
-2.08636	? ~
0	?" "8!@dP,!!o+fb"
-1.10721	A )	-0.09304599
-1.80618	A +
-1.80618	A +=
-0.9610819	A ,	-0.1275458
-1.80618	A -
-0.90309	A ->	-0.772399
-0.60206	A ;	-0.1538388
-1.80618	A </s>
-0.90309	A =	-0.5671668
-1.80618	A J
-1.80618	A L
-1.80618	A R
-0.6922366	A [	-0.7887797
0	Acce </s>
0	Alan Turing
-0.819544	B &	-0.0718476
-1.518514	B &&
-0.7781513	B (	-0.4307521
-0.9744459	B )	-0.6774283
-1.120574	B +	-0.6815261
-1.217484	B ,
-0.916454	B ->	-0.772399
-1.819544	B :
-1.120574	B ;	-0.03391725
-1.819544	B </s>
-1.217484	B =
-1.819544	B ==
-1.819544	B J
-1.819544	B L
-1.120574	B R	-0.4637573
0	BUFSIZ )
-1.414973	C &
-0.6368221	C (	-0.5757923
-1.017033	C )	-0.2691373
-1.238882	C *	-0.4739043
-1.414973	C +
-1.716003	C +=
-1.113943	C ,
-1.414973	C -
-1.414973	C /	-0.4294796
-1.716003	C :
-1.238882	C ;
-1.716003	C <
-1.414973	C =
-1.414973	C ==
-1.113943	C >
-1.716003	C J
-1.716003	C R
-1.716003	C [
-1.716003	C ^
-1.716003	C a
-1.716003	C p
-0.30103	COLS -
-0.30103	COLS /
-1.69897	D %
-1.09691	D &&	-0.1224064
-1.221849	D (
-1.39794	D )
-1.221849	D +
-1.69897	D ,
-1.69897	D -=
-1.69897	D ;
-1.39794	D </s>
-0.9208187	D =	-0.1697588
-1.69897	D ?
-1.69897	D L
-1.09691	D [	-0.2942704
-1.69897	D ]
-0.9208187	D c	-0.4175355
-0.9208187	D d	-0.4280125
-1	D e	-0.6841209
-1.39794	D f
0	DefaultGC (
0	DefaultVisual (
0	Display *
-1.070038	E (	-0.2987365
-1.070038	E )
-0.6720979	E *	-0.6542795
-1.672098	E *=
-1.672098	E +
-1.371068	E ++
-1.672098	E +=
-0.8939466	E ,	-0.1733541
-0.8269998	E ;	-0.5784216
-1.672098	E </s>
-0.6720979	E =	-0.1501613
0	E0 (
0	E3 (	-0.4678736
-0.3424227	EOF )	-0.148939
-1.041393	EOF +
-0.7403627	EOF ;
-0.5642715	EOF ]	-0.5485957
0	ETIANMSURWDKGOHVF:L:PJBXCYZQ::54:3:::2&:+::::16=/:::(:7:::8:90" </s>
0	EX (
-1.352183	F %
-1.352183	F &
-0.5392691	F (	-0.350633
-1.653213	F )
-1.176091	F *	-0.4386037
-1.653213	F +
-0.8750613	F ,	-0.1668995
-0.9542425	F -	-0.6224669
-1.653213	F /
-1.653213	F :
-1.653213	F ;
-1.352183	F <
-0.8750613	F =
-1.653213	F >>
0	F0 (	-0.4591065
0	F1 (	-0.4591065
0	F2 (
0	FILE *	-0.3898523
0	FILENAME_MAX :
0	FV (
-0.30103	F_ )
-0.30103	F_ ,
-0.1290947	G (	-0.2740964
-1.544068	G )
-1.544068	G ,
-0.69897	G [
-1.498311	H %
-1.498311	H &
-1.799341	H (
-1.498311	H )
-1.021189	H *	-0.1572593
-1.799341	H +
-1.799341	H ++
-0.8962505	H ,	-0.1759396
-1.498311	H -
-1.799341	H --
-1.322219	H /
-0.7201593	H ;	-0.5752329
-1.799341	H <
-1.799341	H </s>
-1.799341	H <<
-0.845098	H =
-1.799341	H >>
-1.498311	H ?
-1.799341	H C
-1.799341	H R
-1.498311	H ]	-0.3333344
-1.799341	H char
-1.799341	H long
-1.799341	H short
0	HP (
0	HY (
-1.78533	I &
-0.6713865	I (	-0.1547712
-1.308209	I )	-0.4042115
-1.78533	I *
-1.308209	I +
-1.78533	I ++
-1.4843	I ,
-1.4843	I -	-0.4741261
-1.4843	I :
-1.007179	I ;	0.01184025
-1.78533	I <
-0.7439371	I =
-1.18327	I ==
-1.78533	I ?
-1.18327	I H
-1.78533	I [
-1.78533	I char
-1.78533	I int
-1.78533	I jmp_buf
-1.78533	I long
-1.78533	I void
-0.30103	J (	-0.1448189
-1.447158	J ,
-1.447158	J ;
-1.146128	J </s>
-1.146128	J =
-0.748188	J [
-1.447158	J l
-1.146128	J }
-1.50515	K !=	-0.4313638
-1.80618	K %
-0.7647873	K (	-0.5317095
-0.90309	K )	-0.6268498
-1.80618	K *
-1.50515	K ++
-1.80618	K +=
-1.20412	K ,
-1.80618	K -
-0.575731	K ->	-0.5446118
-1.20412	K ;	-0.1130985
-1.80618	K <
-1.50515	K </s>
-0.9610819	K =	-0.1424453
-1.50515	K ?
0	KrgR'8@c]!%-q9V.3fa[E8X%dY'w!#H <P~6"
-2.152288	L %=
-1.851258	L (
-1.198046	L )	-0.1215392
-1.073107	L *	-0.2589958
-1.851258	L +
-2.152288	L ++
-0.4447182	L ,	-0.7559347
-1.249198	L -	-0.1364263
-2.152288	L ;
-2.152288	L <
-2.152288	L </s>
-1.550228	L =
-1.851258	L ==
-2.152288	L >
-1.851258	L >>
-2.152288	L >>=
-2.152288	L ?
-2.152288	L T
-2.152288	L [
-1.374137	L ]	-0.6723475
-2.152288	L a
-1.110896	L d	-0.8690099
-1.30719	L e	-0.6788013
-1.550228	L f
-2.152288	L m
-2.152288	L n
-1.198046	L t	-0.1535254
-0.4771213	LINES -
-0.4771213	LINES ;
-0.4771213	LINES ||
0	LP (
0	L_tmpnam )
-1.491362	M &&
-0.449969	M (	-0.319957
-1.01424	M )
-1.491362	M *=
-1.491362	M +=
-0.8893017	M ,
-1.491362	M -=
-1.491362	M .
-1.190332	M ;
-0.8893017	M =
-1.491362	M ==
-1.491362	M >
-0.3767507	N (	-0.2150311
-0.9208187	N )	-0.370227
-1.69897	N +
-0.6575773	N ,	-1.040192
-1.221849	N ;
-1.69897	N <
-1.69897	N </s>
-1.09691	N =
-1.39794	N [
0	NULL )	-0.5291503
-1.913814	O &
-1.913814	O &&
-0.7998705	O (	-0.3918189
-0.8724211	O )	-0.2378529
-1.913814	O *
-1.311754	O +
-1.436693	O ++
-1.311754	O ,
-1.436693	O --	-0.3779898
-1.612784	O ->
-1.436693	O :
-1.214844	O ;	-0.1724183
-1.913814	O <
-1.612784	O </s>
-0.5336026	O =	-0.4073715
-1.612784	O ?
-1.913814	O G
-1.913814	O S
-0.4149733	O0 +=	-0.3818532
-1.113943	O0 ,
-0.5118834	O0 -	-0.2980348
-0.6368221	O0 =
-0.845098	O1 )
-0.845098	O1 *
-0.544068	O1 ,
-0.845098	O1 =
-0.845098	O1 >
-0.845098	O1 ]
-0.845098	O2 *
-0.845098	O2 ,
-0.845098	O2 -
-0.845098	O2 /
-0.544068	O2 =
-0.845098	O2 >
-0.4771213	O3 )
-0.7781513	O3 -
-0.7781513	O3 /
-0.7781513	O3 </s>
-0.7781513	O3 =
-0.39794	O4 *
-0.69897	O4 +
-0.69897	O4 =
-0.69897	O4 |
-0.4771213	O5 )
-0.7781513	O5 +
-0.4771213	O5 ,
-0.7781513	O5 [
-0.60206	O6 +
-0.30103	O6 ,
-0.60206	O6 =
-0.4771213	O7 )
-0.4771213	O7 ,
-0.4771213	O7 =
-0.4771213	O8 *
-0.4771213	O8 +
-0.4771213	O8 =
-0.1760913	O9 --
-0.4771213	O9 =
-0.7781513	OO )
-1.079181	OO +=
-0.7781513	OO ,
-0.7781513	OO -
-1.079181	OO <
-0.7781513	OO =
-1.079181	OO ==
-1.079181	OO >
0	O_ (	-0.4207084
-0.1249387	O_o )
-0.60206	O_o ,
-0.5642715	P (	-0.1634925
-0.5295093	P )	-0.3420636
-1.643453	P +=
-1.166331	P ,
-1.342423	P 1	-0.3602729
-1.166331	P ;	-0.2891898
-1.342423	P =
-1.643453	P >=
-1.643453	P M
-1.643453	P U
-1.643453	P [
-1.643453	P _d
-1.643453	P _i
-1.643453	P i
-1.643453	P q
-1.913814	Q &
-1.913814	Q &&
-0.552086	Q (	-0.2888287
-0.7676858	Q )	-0.2040441
-1.436693	Q *	-0.4690336
-1.436693	Q ,
-1.913814	Q -
-1.311754	Q ;	-0.4141285
-1.913814	Q </s>
-1.913814	Q <=
-1.135663	Q =
-1.913814	Q ?
-1.913814	Q O
-1.913814	Q OO
-1.913814	Q Q4
-1.135663	Q [	-0.82625
-1.010724	Q ]	-0.2679414
-1.913814	Q __
-1.913814	Q _k
-1.913814	Q main
-1.612784	Q write	0
-1.913814	Q x
-1.079181	Q0 &&
-0.7781513	Q0 )
-0.60206	Q0 +
-0.7781513	Q0 +=
-1.079181	Q0 ,
-0.60206	Q0 =	-0.4277984
-0.7781513	Q1 )
-0.4771213	Q1 ,
-0.30103	Q1 =
-0.845098	Q2 &&
-0.845098	Q2 *
-0.544068	Q2 +	-0.4244701
-0.845098	Q2 ,
-0.544068	Q2 =
-0.7781513	Q3 %
-0.4771213	Q3 ,	-0.4757548
-0.4771213	Q3 =
-0.7781513	Q3 >>
-0.60206	Q4 &&
-0.60206	Q4 ,
-0.60206	Q4 --
-0.60206	Q4 =
-0.60206	Q5 +
-0.30103	Q5 ,
-0.60206	Q5 =
-0.60206	Q6 +=
-0.60206	Q6 ,
-0.60206	Q6 </s>
-0.60206	Q6 =
-0.4771213	Q7 )
-0.4771213	Q7 ;
-0.4771213	Q7 =
-0.4771213	Q8 ,
-0.4771213	Q8 ;
-0.4771213	Q8 =
-0.30103	Q9 ,
-0.30103	Q9 =
0	QH (
0	QL (
-0.7781513	QO &&
-0.60206	QO *
-1.079181	QO +
-0.7781513	QO ,
-0.4771213	QO =
-0.4771213	QQ )
-0.9542425	QQ *
-0.4771213	QQ +	-0.410744
-0.9542425	QQ ,
-0.9542425	QQ =
0	QR (	-0.4591065
0	QS (	-0.4591065
0	Q_ (	-0.1751098
-1.439333	R !
-1.196295	R %	-0.05897787
-1.263241	R (
-0.3786348	R )	-0.6146318
-1.564271	R *
-2.041393	R +
-2.041393	R ++
-2.041393	R +=
-1.263241	R ,	-0.4604334
-1.564271	R --	-0.5453324
-2.041393	R ;
-2.041393	R <
-1.342423	R </s>
-2.041393	R =
-2.041393	R A
-1.740363	R D
-1.439333	R K	-0.6170659
-2.041393	R ]
-1.740363	R a
-2.041393	R c
-1.740363	R g
-2.041393	R i
-1.564271	R j	-0.444121
-2.041393	R k
-2.041393	R l
-2.041393	R n
-2.041393	R o
-2.041393	R s
-1.740363	R v
0	RAFT )
0	RGB )
0	RP (
0	RootWindow (
-1.633469	S (
-1.031408	S )
-1.332438	S +
-0.9344984	S ,
-1.633469	S :
-0.5920758	S ;	-0.2817425
-1.156347	S =
-1.332438	S ?	-0.4589473
-1.633469	S [
-0.6792259	S ]	-0.8331988
-1.633469	S d
-1.633469	S j
-1.633469	S s
-1.633469	S u
0	SDL_AudioSpec bu
0	SDL_BlitSurface (
0	SDL_CreateRGBSurface (
0	SDL_Delay (
0	SDL_Event bE
0	SDL_FillRect (
0	SDL_Flip (
0	SDL_Init (
0	SDL_LoadWAV (
0	SDL_MixAudio (
0	SDL_OpenAudio (
0	SDL_PauseAudio (
0	SDL_PollEvent (
0	SDL_Rect </s>
0	SDL_SetVideoMode (
0	SDL_Surface *
0	SEEK_SET )	-0.3483185
0	SPEED *
0	Sec -
0	So long
-1.514105	T (
-1.389166	T )
-1.991226	T *
-0.8151348	T ++	-0.3238929
-1.991226	T +=
-1.213075	T ,	-0.1710599
-1.690196	T -
-1.514105	T --	-0.4590231
-1.292256	T :	-0.3821457
-1.292256	T ;	-0.6914728
-1.690196	T <
-1.213075	T </s>
-0.8772827	T =	-0.3267936
-1.292256	T ==	-0.1890562
-1.991226	T I
-1.991226	T Q
-1.991226	T R
-0.9498334	T [	-0.2154296
-1.991226	T ]
-1.991226	T _
-1.389166	T d	-0.6405877
-1.991226	T f
-1.389166	T l	-0.6416172
-1.991226	T {
-1.991226	T |
0	TIMESTEP ,
0	TIOCGWINSZ ,
0	TMP_MAX )
0	Turing (
0	Type =
-1.361728	U (
-1.361728	U )
-1.662758	U *=
-1.662758	U +
-1.662758	U +=
-0.8846066	U ,
-0.4074853	U ;	-0.3820277
-1.662758	U </s>
-0.9637879	U =
-1.662758	U L
-1.662758	U i
-1.185637	U int	-0.4319591
-1.361728	U j	-0.3872162
-1.662758	U l
-1.662758	U u
0	UV_DROP :
0	Uint8Array (
0	Upgrade :
-1.041393	V !
-1.740363	V )
-0.7861202	V *	-0.2123547
-1.263241	V ,
-1.740363	V ->
-1.439333	V ;
-1.740363	V </s>
-1.138303	V =
-1.138303	V F	-0.5509075
-1.740363	V _b
-1.740363	V _c
-1.740363	V _f
-1.138303	V a
-1.740363	V b
-1.740363	V c
-1.439333	V d
-1.439333	V e
-1.740363	V f
-1.740363	V i
-1.740363	V j
-1.740363	V n
-1.439333	V o
-1.740363	V p
-1.740363	V r
-1.740363	V w
-1.740363	V y
-1.439333	V z	-0.1989541
-0.4372497	W (	-0.2524859
-0.9378521	W )	-0.1039711
-1.539912	W *	-0.4557717
-1.716003	W +
-2.017033	W +=
-1.238882	W ,	-0.4697835
-1.539912	W -	-0.4094276
-1.414973	W --	-0.5029286
-1.539912	W /
-0.90309	W ;	-0.4016758
-2.017033	W </s>
-1.539912	W =
-2.017033	W ==
-1.171935	W R	-0.3351843
-2.017033	W S
-1.318063	W [	-0.389474
-2.017033	W ]
-0.30103	WebSocket (
-0.30103	WebSocket -
0	Window u
-1.897627	X !=
-1.897627	X &
-1.596597	X (
-0.6671782	X )	-0.2194647
-1.596597	X *
-1.420506	X +
-0.6671782	X ,	-0.05614055
-1.897627	X -
-1.897627	X --
-1.897627	X /
-1.897627	X :
-1.295567	X ;	-0.1130985
-1.897627	X <
-1.119476	X </s>
-0.9945371	X =	-0.1159402
-1.596597	X S	-0.3488028
-0.9945371	X [	-0.1215721
-1.897627	X ]
-1.897627	X h
-1.897627	X v
0	XCheckWindowEvent (
0	XCreateImage (
0	XCreateSimpleWindow </s>
0	XEvent M
0	XImage *
0	XLookupKeysym (
0	XMapWindow (
0	XOpenDisplay (
0	XPutImage (
0	XSelectInput (
-1.025306	Y (	-0.6678147
-1.122216	Y )	-0.4732572
-1.247155	Y *
-1.724276	Y *=
-1.423246	Y +	-0.410744
-1.724276	Y +=
-1.122216	Y ,
-1.724276	Y -
-1.423246	Y ->
-0.8791778	Y ;	-0.7151585
-0.6828832	Y =	-0.1840751
-1.423246	Y S	-0.4347174
-0.7700334	Y [	-0.4458385
-1.724276	Y a
-0.8692317	Z (	-0.2126011
-1.267172	Z )	-0.3483185
-1.267172	Z *=
-1.568202	Z +
-1.267172	Z +=
-0.8692317	Z ,	-0.2131212
-1.568202	Z -
-1.568202	Z -=
-0.8692317	Z ;	-0.5038872
-0.7900504	Z =	-0.1649481
-1.568202	Z ?
-1.568202	Z W
-1.568202	Z e
-1.568202	Z g
-1.568202	Z h
-1.568202	Z k
-1.568202	Z n
-1.81124	[ (
-1.635149	[ *	-0.4557717
-2.4133	[ +
-1.237208	[ -	-0.3032629
-1.4133	[ 0	-1.024359
-2.4133	[ 01
-1.11227	[ 1	-1.198516
-1.51021	[ 2	-0.9044451
-2.4133	[ 204
-1.4133	[ 3	-0.8957908
-2.11227	[ 32	-0.4409091
-1.371907	[ 4	-0.9999999
-1.71433	[ 5	-0.6723475
-2.4133	[ 516
-2.4133	[ 5200
-1.936179	[ 6	-0.5399121
-2.4133	[ 65536
-2.11227	[ 7	-0.394147
-1.936179	[ 8	-0.5658479
-2.4133	[ 80
-2.4133	[ 9
-2.11227	[ 97	0
-2.4133	[ 99
-2.4133	[ 9999
-1.635149	[ </s>
-2.4133	[ B
-2.11227	[ EOF	-0.3388186
-2.11227	[ H	-0.4631105
-1.51021	[ L	-0.4072193
-2.11227	[ O	-0.455402
-2.4133	[ Q6
-2.11227	[ W	-0.4644093
-2.11227	[ X
-1.51021	[ ]	-0.7256342
-2.4133	[ _Q
-2.4133	[ a
-2.4133	[ b
-2.4133	[ bi
-2.11227	[ c
-1.71433	[ d	-0.3868746
-2.4133	[ e
-2.4133	[ f
-1.71433	[ g	-0.6409781
-1.81124	[ h	-0.5824645
-1.334118	[ i	-1.025264
-1.635149	[ j	-0.7374641
-1.635149	[ k	-0.2859662
-2.11227	[ l
-2.11227	[ leu	-0.1760913
-2.11227	[ m	-0.462398
-1.81124	[ n	-0.2936689
-2.11227	[ not
-2.4133	[ o
-1.81124	[ optind	-0.2218488
-1.81124	[ p	-0.2900346
-1.71433	[ r	-0.2066088
-2.4133	[ s
-2.11227	[ t
-2.11227	[ u	-0.4636537
-1.51021	[ v	-0.8085338
-2.4133	[ val
-2.11227	[ x
-1.070877	[ xor	-1.070243
-2.11227	[ y
-2.11227	[ ~
0	[-d] file1
0	\"" "%s"
0	\n\t" ,
-1.81124	] !=	-0.2552725
-2.4133	] %
-1.936179	] &	-0.4689268
-2.4133	] &&
-0.8947858	] )	-0.4170243
-1.51021	] *	-0.200903
-2.11227	] *=	-0.4578161
-1.51021	] +
-1.936179	] ++
-1.635149	] +=	-0.4134521
-0.8947858	] ,	-0.1981099
-1.81124	] -
-2.4133	] --
-2.11227	] -=
-1.334118	] .	-1.042718
-2.4133	] /
-1.81124	] :	-0.2267839
-0.9361785	] ;	-0.2747674
-2.4133	] <
-1.635149	] </s>
-2.4133	] <<
-0.5499769	] =	-0.4369534
-1.81124	] ==	-0.2849432
-1.635149	] >	-0.1429229
-2.4133	] >=
-2.11227	] >>
-2.11227	] ?
-1.936179	] ^
-1.936179	] |
-2.4133	] |=
-1.431364	^ (
-1.431364	^ *
-1.431364	^ --
-1.431364	^ 024
-1.431364	^ 0xfc0
-1.431364	^ 1
-1.431364	^ 10
-1.130334	^ 2
-1.431364	^ 20
-1.431364	^ 255
-1.431364	^ 35
-1.431364	^ 3920
-1.431364	^ 4
-1.431364	^ 40
-1.431364	^ 61
-1.431364	^ 9
-1.431364	^ I
-1.431364	^ f
-1.431364	^ k
-1.130334	^ l
-0.9542425	^ p	-0.5522625
-1.431364	^ t
-1.431364	^ ~
-0.69897	^= *
-0.69897	^= 20
-0.69897	^= _
-0.69897	^= k
-0.69897	^= y
-2.033424	_ %
-0.5019448	_ (	-0.7760547
-0.9542425	_ )	-0.4837517
-1.732394	_ *
-2.033424	_ ++
-1.556303	_ ,
-2.033424	_ -
-2.033424	_ /
-1.732394	_ :
-1.556303	_ ;
-1.334454	_ </s>
-1.334454	_ =	-0.2160475
-2.033424	_ >>
-1.732394	_ ?
-2.033424	_ C
-2.033424	_ E
-2.033424	_ N
-2.033424	_ O
-2.033424	_ [
-2.033424	_ ^=
-1.732394	_ a
-1.431364	_ b	-0.2624666
-2.033424	_ c
-2.033424	_ d
-1.556303	_ f	-0.469822
-1.732394	_ n	-0.4058957
-2.033424	_ o
-1.732394	_ p
-1.732394	_ r
-1.130334	_ s	-0.7941394
-2.033424	_ v
-1.732394	_ w
0	_){putchar(_);}O" "\40main(){O"
-0.9542425	_0 &&
-0.9542425	_0 )
-0.6532125	_0 *
-0.9542425	_0 +=
-0.9542425	_0 ,
-0.9542425	_0 /
-0.6532125	_0 =	-0.4277984
-0.69897	_O %
-1	_O %=
-0.69897	_O )	-0.4679133
-1	_O +
-1	_O +=
-0.69897	_O =
-1	_O >
-0.5228788	_Q %	-0.4656918
-1	_Q )
-0.69897	_Q +=
-1	_Q /
-1	_Q </s>
-0.69897	_Q =
-0.9294189	__ &	-0.4563377
-1.230449	__ &&
-0.9294189	__ )
-1.230449	__ *
-1.230449	__ +
-0.9294189	__ +=	-0.4269547
-1.230449	__ ,
-1.230449	__ ;
-1.230449	__ </s>
-1.230449	__ <<
-0.9294189	__ =
-1.230449	__ >>
-1.230449	__ >>=
0	__LINE__ *
-0.30103	__STDC_VERSION__ &&
-0.30103	__STDC_VERSION__ >
-0.30103	__STDC__ )
-0.30103	__STDC__ </s>
0	__TIME__ ;
0	_b (
0	_c (
0	_d (
-0.30103	_f (
-0.30103	_f </s>
0	_i (
-0.30103	_k (
-0.30103	_k :
-2.212188	a %=
-1.610128	a &
-2.212188	a &&
-2.212188	a &=
-1.212188	a (	-0.1456543
-0.9569151	a )	-0.09042332
-1.257945	a *	-0.633543
-1.911158	a *=
-1.610128	a +
-1.911158	a ++	-0.4049261
-2.212188	a +=
-1.036096	a ,	-0.04356563
-1.513218	a -	-0.2082049
-1.911158	a --
-1.434036	a ->	-0.6966782
-2.212188	a .
-1.735066	a /	-0.4539534
-2.212188	a /=
-1.133006	a ;	0.06299278
-1.735066	a <	-0.467137
-1.257945	a </s>
-2.212188	a <<
-0.9111576	a =	-0.1508669
-1.610128	a >>
-2.212188	a ?
-1.610128	a L	-0.5670429
-1.911158	a S
-1.911158	a W
-2.212188	a X
-1.911158	a Z
-1.257945	a [	-0.3368228
-1.610128	a ]	-0.1572431
-1.735066	a |
0	a_ (
0	abs (	-0.4584247
0	ageX -
-0.544068	ala *	-0.4730963
-0.845098	ala ;
-0.845098	ala asn
-0.3679768	ala not	-0.4405275
-0.1890562	and )	-0.3746074
-1.230449	and *
-1.531479	and ;
-1.531479	and asp
-1.531479	and gln
-1.230449	and his	-0.2340832
-1.531479	and pyl
-1.531479	and sec
-1.531479	and tla
-1.531479	and tyr
-1.531479	and xle
-0.09691001	arg )
-0.69897	arg =
-0.60206	argh )
-0.30103	argh ,
-0.60206	argh ;
-1.113943	asn ,
-0.07255067	asn .	-0.8297091
-1.113943	asn ;
-0.1760913	asp -	-0.4741261
-0.4771213	asp =
-0.60206	asx )
-0.60206	asx +
-0.60206	asx =
-0.60206	asx >
-1.339593	b !	-0.3265841
-2.184691	b &
-1.883661	b &&
-1.883661	b (
-1.070748	b )	-0.3146331
-2.184691	b *
-1.883661	b *=
-2.184691	b +
-2.184691	b ++
-1.184691	b ,	-0.1471014
-1.40654	b ->	-0.409221
-2.184691	b .
-0.9542425	b ;	-0.3391606
-2.184691	b <
-1.485721	b </s>
-1.70757	b <<	-0.4621441
-0.9294189	b =	-0.1956924
-2.184691	b >
-1.883661	b >>
-1.70757	b ?
-1.40654	b B	-0.7737421
-2.184691	b D
-1.40654	b I	-0.4476663
-2.184691	b O
-2.184691	b P
-1.485721	b W	-0.1915872
-1.339593	b X	-0.0997593
-2.184691	b Z
-1.184691	b [	-0.9577679
-1.70757	b ]
-1.883661	b ^
-1.582631	b bf	-0.3187588
-2.184691	b bg
-2.184691	b bt
-2.184691	b j
-2.184691	b n
-2.184691	b o
-1.883661	b q
-2.184691	b u
-2.184691	b ||
-0.69897	bA ,
-0.69897	bA ;
-0.69897	bA <<
-0.39794	bA =	-0.4760723
-0.60206	bB )
-0.60206	bB ;
-0.30103	bB =
-0.60206	bC *
-0.60206	bC ,
-0.60206	bC /
-0.60206	bC =
-0.4771213	bD *
-0.4771213	bD ,
-0.4771213	bD =
-0.69897	bE )
-0.2218488	bE .
-0.69897	bE ;
0	b\nq(%s)\n" </s>
0	ba (
-0.7781513	bb )
-0.7781513	bb +
-0.7781513	bb +=
-0.7781513	bb ;
-0.4771213	bb =
0	bc (
-0.1760913	bd (
-0.4771213	bd </s>
-0.90309	be )
-0.60206	be ,	-0.4762108
-0.20412	be ;	-0.6900299
-0.60206	bf &&	-0.5813754
-0.4771213	bf )	-0.2281202
-0.4771213	bf ;	-0.2895533
-1.079181	bf =
-0.60206	bg &&
-0.60206	bg )
-0.60206	bg ;
-0.60206	bg =
0	bh (	-0.4735117
-0.30103	bi )
-0.30103	bi ]
0	binary "
0	bj (	-0.5928124
-0.60206	bk &&
-0.30103	bk ,
-0.60206	bk ;
0	bl (	-0.445966
-0.30103	bm =
-0.30103	bm ==
-0.30103	bn ,
-0.30103	bn =
-0.30103	bo )
-0.30103	bo =
0	bp (
-0.30103	bq (
-0.30103	bq }
0	br ,
-0.02632894	break ;	-0.6318107
-1.230449	break H
-0.1760913	bs )
-0.4771213	bs ;
-0.7781513	bt ,
-0.4771213	bt ;
-0.4771213	bt =
-0.7781513	bt >
-0.7781513	bu *
-0.4771213	bu ,
-0.4771213	bu =
-0.7781513	bu >
-0.60206	buf )
-0.60206	buf ,
-0.60206	buf ;
-0.60206	buf [
-0.30103	bv ,
-0.30103	bv ;
0	bw ,
-0.30103	bx )
-0.30103	bx ;
-0.7781513	by ,
-0.7781513	by =
-0.30103	by ?	-0.4399795
-0.7781513	by ||
-0.69897	bz </s>
-0.69897	bz <<
-0.39794	bz =
-0.69897	bz >>
-2.068186	c "
-2.068186	c %
-1.767156	c &&
-0.8640659	c )	-0.8542846
-1.290035	c *
-1.369216	c +	-0.214955
-2.068186	c ++
-0.9890046	c ,	-0.06952474
-1.290035	c -	-0.1562431
-2.068186	c --
-1.767156	c .
-2.068186	c /
-1.591065	c :
-1.068186	c ;	-0.09406915
-1.591065	c <
-1.591065	c </s>
-0.7257632	c =	-0.362763
-1.466126	c ==
-1.767156	c >
-1.767156	c ?
-2.068186	c L
-2.068186	c R
-1.591065	c W
-1.767156	c Y
-2.068186	c Z
-1.767156	c ]
-1.767156	c ^
-2.068186	c |
-2.068186	c ||
0	calloc (
-1	case 'd'
-1	case 0
-1	case 10
-1	case 123
-1	case 35
-0.69897	case 36	0
-1	case 40
-1	case 58
-1	case 61
0	cb ,
-0.1648103	char *	-0.4582196
-1.579784	char J
-1.579784	char L
-1.579784	char N
-1.579784	char O
-1.579784	char X
-1.579784	char buf
-1.278754	char c
-1.579784	char o
-1.579784	char p
-1.579784	char pro
-1.579784	char ser
0	close (
-1.041393	const ala	-0.2340832
-0.4973246	const and	-0.1197991
-1.342423	const char
-1.342423	const gln
-1.041393	const his	-0.2340832
-1.041393	const not	-0.449969
-0.8653014	const pro	-0.20412
-1.041393	const ser
-1.041393	const thr
0	continue ;
0	cos (
0	crea "
0	curs_set (
-0.7781513	cys )
-0.4771213	cys -
-0.7781513	cys =
-0.4771213	cys >>	-0.4507923
-1.087454	d )	-0.3830806
-1.599337	d *
-1.599337	d *=
-1.356299	d +	-0.1233114
-2.201397	d ++
-1.160004	d +=	-0.1635021
-0.9003671	d ,	-0.212657
-1.724276	d -
-1.423246	d -=	-0.3828513
-2.201397	d ->
-2.201397	d .
-1.724276	d /=
-2.201397	d :
-0.9003671	d ;	-0.02776316
-2.201397	d <
-1.900367	d </s>
-2.201397	d <<
-2.201397	d <=
-0.8211859	d =	-0.2667043
-2.201397	d ==
-1.900367	d >>
-1.900367	d ?
-2.201397	d R
-1.122216	d W	-0.3351492
-1.724276	d X
-1.502427	d Y	-0.6181468
-2.201397	d [
-1.599337	d ]	-0.2804272
-2.201397	d ^
-2.201397	d |
-1.900367	d ||
0	dA )
0	dB )
0	dC </s>
0	dat </s>
0	data )
0	default :
0	defined __STDC_VERSION__
0	do {	-0.5438408
0	double </s>
0	dstr )	-0.4641747
0	dup (
0	dup2 (
-1.473487	e (	-0.2924494
-1.075547	e )	-0.468946
-1.598426	e *
-2.075547	e *=
-1.774517	e +
-1.230449	e +=
-0.9616036	e ,	-0.2507374
-2.075547	e -
-1.774517	e -=
-0.9963657	e ->	-0.4771211
-1.598426	e .
-1.774517	e /
-2.075547	e :
-0.8202745	e ;	-0.5075325
-1.774517	e <
-1.774517	e </s>
-2.075547	e <<=
-0.845098	e =	-0.2486315
-2.075547	e >
-2.075547	e >>
-1.774517	e W
-1.774517	e Y	-0.3962981
-1.075547	e [	-0.06200814
-2.075547	e ]
-2.075547	e {
0	eep ,
-1.462398	efine D
-1.462398	efine E
-1.462398	efine E0
-1.462398	efine EX
-1.462398	efine F0
-1.462398	efine F1
-1.462398	efine F2
-1.462398	efine FV
-1.462398	efine H
-1.462398	efine HP
-1.462398	efine HY
-1.462398	efine I
-1.462398	efine K
-1.462398	efine LP
-1.462398	efine M
-1.462398	efine N
-1.462398	efine O
-1.462398	efine P
-1.462398	efine Q
-1.462398	efine QH
-1.462398	efine QL
-1.462398	efine R
-1.462398	efine RP
-1.462398	efine S
-1.462398	efine T
-1.462398	efine U
-1.462398	efine W
-1.462398	efine Z
-1.462398	efine break
-0.7201593	else </s>
-1.322219	else V
-1.322219	else goto
-1.322219	else z
-0.1760913	else {	-0.1177204
0	elta_u )
0	elta_v )
0	er </s>
0	err (	-0.772229
0	errx (
0	exit (	-0.6910555
0	exp (	-0.5994378
0	extern void
-2.079181	f &
-1.60206	f &&	-0.2984977
-0.9652379	f (	-0.4017013
-0.7781513	f )	-0.07255071
-1.778151	f *
-2.079181	f +
-0.9330532	f ,	-0.2070236
-1.60206	f -	-0.4665466
-2.079181	f .
-0.9330532	f ;	0.1209847
-1.778151	f <
-2.079181	f </s>
-2.079181	f <<
-0.9330532	f =	-0.1279406
-2.079181	f ==
-2.079181	f >
-1.234083	f ?	-0.1242262
-2.079181	f EOF
-1.124939	f L	-0.9649828
-2.079181	f R
-1.778151	f X
-2.079181	f Z
-1.778151	f ]
-2.079181	f defined
-1.778151	f |	-0.4484761
-1.778151	f }
0	fabs (
0	fclose (
0	fgetc (
0	fgets (
0	file1 file2"
0	file2" ,
0	flash (
-0.845098	float </s>
-0.845098	float C
-0.845098	float I
-0.845098	float K
-0.845098	float N
-0.845098	float V
-0.845098	float a
0	float_ )
0	flu ,
0	fopen (
-0.0255541	for (	-0.6305173
-1.243038	for </s>
0	fputc (
0	fread (
0	free (	-0.2944447
0	fscanf (
0	fseek (
0	function (
0	fw )	-0.1722272
-1.748188	g %
-2.049218	g &
-2.049218	g &&
-1.447158	g (	-0.292116
-1.271067	g )	-0.2281202
-1.049218	g *	-0.5073811
-1.447158	g *=
-1.447158	g +
-1.572097	g ++	-0.5695742
-1.748188	g +=
-1.146128	g ,	-0.115747
-2.049218	g --
-1.447158	g -=
-2.049218	g /
-2.049218	g :
-0.6874902	g ;	-0.5717363
-1.447158	g <	-0.2943994
-2.049218	g <<
-0.6178542	g =	-0.3277224
-2.049218	g ==
-2.049218	g >>
-2.049218	g ]
-2.049218	g ^
-2.049218	g ||
0	getC "
0	getch (
-0.1249387	getchar (	-0.5709047
-0.60206	getchar ;
0	getopt (
-0.50515	gln )	-0.5481273
-0.30103	gln ;	-0.766311
-0.90309	gln =
-1.20412	gln ==
-0.30103	glu )	-0.5481273
-0.5228788	glu :	-0.5926526
-1	glu <<
-1	glu =
-0.30103	glx %
-0.30103	glx =
0	gly (	-0.8414885
0	goofy !
-0.1249387	goto O	-0.5747369
-0.60206	goto o
-1.355388	h %
-1.832509	h &&
-1.054358	h (	-0.7665605
-1.531479	h )
-1.355388	h *	-0.5939724
-1.832509	h *=
-1.531479	h +	-0.4244701
-1.832509	h ++
-1.832509	h +=
-1.133539	h ,	-0.2177365
-1.133539	h -	-0.2066621
-1.355388	h .	-0.4390008
-1.832509	h /
-0.9874108	h ;	-0.3561365
-1.832509	h </s>
-0.9874108	h <<	-0.09127937
-0.7911162	h =	-0.1829962
-1.832509	h >
-1.832509	h >>
-1.832509	h ?
-1.832509	h ^
-1.832509	h ^=
-1.832509	h b
-1.531479	h |
0	halting )
0	height =
-0.3679768	his )	-0.3483185
-0.845098	his ;
-0.3679768	his [	-0.4634952
0	ho )
0	href .
-1.516315	i %	-0.283771
-1.817345	i &
-1.817345	i &&
-0.8320682	i (	-0.7283934
-1.180523	i )	-0.1375842
-1.391376	i *	-0.1135734
-2.294466	i *=
-1.516315	i +	-0.1709313
-1.595496	i ++	-0.1496536
-1.817345	i +=
-1.064017	i ,	-0.1879634
-1.391376	i -	-0.2919818
-2.294466	i --
-1.391376	i /	-0.2596373
-1.993436	i :
-1.148338	i ;	-0.003954008
-1.064017	i <	-0.09973535
-2.294466	i </s>
-2.294466	i <=
-0.817345	i =	-0.1490448
-2.294466	i ==
-1.993436	i >
-1.817345	i >>
-1.817345	i ?
-1.993436	i R
-1.692406	i S	-0.5000705
-1.595496	i ]	-0.1626574
-2.294466	i |
-0.01277429	if (	-0.3368255
-1.537819	if </s>
-0.69897	ile !=
-0.69897	ile +
-0.69897	ile --
-0.69897	ile ;
-0.69897	ile =
0	initscr (
-1.306425	int )	-0.3004222
-1.130334	int *
-1.130334	int </s>
-1.908485	int F
-1.908485	int G
-1.908485	int H
-1.431364	int I
-1.908485	int K
-1.908485	int L
-1.908485	int M
-1.908485	int P
-1.908485	int Q
-1.607455	int X
-1.908485	int _
-1.908485	int a
-1.908485	int bk
-1.908485	int bm
-1.908485	int bs
-1.908485	int bt
-1.908485	int bw
-1.908485	int by
-1.431364	int c	-0.4301247
-1.908485	int h
-1.005395	int i	-0.7933152
-1.431364	int j	-0.3872162
-1.431364	int k
-1.306425	int l	-0.2385375
-1.005395	int main	0.39794
-1.908485	int met
-1.908485	int o
-1.908485	int op
-1.908485	int p
-1.908485	int puts
-1.908485	int t
-1.607455	int u
-1.908485	int v
-1.431364	int x	-0.3444957
-1.607455	int y	-0.4178073
0	int_ )
0	intw )
0	ioctl (
0	ipt >
-1.487845	j %	-0.5668277
-1.487845	j &&
-1.048512	j )	-0.3342475
-1.788875	j *
-1.612784	j *=
-1.244807	j +	-0.3540782
-2.089905	j ++
-1.612784	j +=
-0.7888751	j ,	-0.304302
-1.311754	j -	-0.1609046
-2.089905	j /
-1.788875	j /=
-1.788875	j :
-1.135663	j ;	-0.3865361
-1.135663	j <
-2.089905	j </s>
-0.7281772	j =	-0.2267196
-2.089905	j ==
-1.788875	j >
-1.390935	j ?
-1.390935	j S	-0.5064106
-2.089905	j ]
-2.089905	j ||
0	jmp_buf J
-1.944483	k %
-1.944483	k &
-1.643453	k (
-0.8305393	k )	-0.06454308
-1.944483	k *=
-1.245513	k +
-1.467361	k ++	-0.4049261
-1.944483	k +=
-0.7683914	k ,	-0.3468443
-1.342423	k -	-0.2919818
-1.944483	k --
-1.944483	k -=
-1.467361	k /	-0.3759604
-1.944483	k :
-1.467361	k ;
-1.643453	k <
-1.467361	k </s>
-0.7983546	k =	-0.05541255
-1.944483	k >
-1.944483	k >>
-1.944483	k >>=
-1.944483	k R
-1.467361	k [	-0.4422194
-1.467361	k ]	-0.5814572
-1.944483	k ^
-1.944483	k ^=
-1.944483	k |=
-1.944483	k }
0	ket Sec
-0.30103	key .
-0.30103	key :
0	keysym .
-1.685742	l %	-0.3899711
-1.986772	l &&
-1.384712	l (
-0.9075905	l )	-0.5070439
-1.20862	l *
-1.986772	l *=
-1.685742	l +
-1.986772	l ++
-1.384712	l +=
-0.8728284	l ,
-1.287802	l -	-0.1541551
-1.986772	l -=
-1.986772	l /
-0.8406437	l ;	-0.3450852
-1.685742	l <
-1.685742	l </s>
-1.986772	l <<
-0.8406437	l =	-0.1366539
-1.986772	l ==
-1.986772	l >
-1.986772	l >>
-1.685742	l S
-1.685742	l ]
-1.685742	l ^
-1.986772	l v
-1.986772	l |
0	lea ,
-0.60206	leu ;
-0.60206	leu =
-0.30103	leu ]
0	location .
-1.361728	long </s>
-1.361728	long A
-1.361728	long L
-1.361728	long Q8
-1.361728	long V
-1.361728	long Z
-1.361728	long __
-1.361728	long a
-1.361728	long b
-1.361728	long c
-1.361728	long h
-1.361728	long j
-0.5166298	long long
-1.361728	long q
-1.361728	long y
-1.060698	long z	-0.4403985
0	longjmp (
0	lrand48 (
-0.30103	lu ,
-0.30103	lu =
-0.1760913	lv ,
-0.4771213	lv =
-0.6532125	lys )	-0.4252468
-0.9542425	lys +=
-0.9542425	lys -=
-0.4771213	lys =	-0.4729099
-0.9542425	lys ==
-0.9542425	lys >=
-1.778151	m %
-1.778151	m &&
-0.9330532	m (	-0.8719347
-1	m )
-1.477121	m *	-0.4690336
-1.477121	m +
-1.778151	m ++
-1.778151	m +=
-0.69897	m ,	-0.357336
-1.778151	m -
-1.778151	m -=
-1.778151	m /
-1.778151	m :
-1.176091	m ;
-1.30103	m <
-1.477121	m </s>
-0.8239087	m =	-0.2175316
-1.30103	m >
-1.477121	m [
0	mageData (
-0.02227639	main (	-0.6388159
-1.30103	main </s>
0	malloc (
0	memcmp (
0	memcpy (
0	memset (
-0.4771213	met )	-0.4762092
-0.9542425	met ;
-0.9542425	met lys
-0.6532125	met main	0.8239088
-0.6532125	met val	-0.4279032
0	mva ,
0	mvaddstr (
0	mvinch (	-0.4648588
0	mvinsch (
-2.075547	n %
-1.774517	n (	-0.445966
-0.8202745	n )	-0.2341136
-1.473487	n *
-1.376577	n +
-1.473487	n +=
-0.845098	n ,	-0.3049628
-1.121304	n -	-0.3842962
-2.075547	n --
-1.774517	n -=
-1.774517	n /
-0.9294189	n ;	-0.252491
-1.473487	n <
-1.774517	n </s>
-0.8202745	n =	-0.109829
-1.297396	n >
-1.598426	n >>	-0.4597472
-2.075547	n ?
-2.075547	n R
-1.774517	n ]
-2.075547	n ^=
-2.075547	n |
-2.075547	n |=
0	ndif </s>
-0.30103	new Uint8Array
-0.30103	new WebSocket
-1.995635	not !=
-1.995635	not &
-1.092545	not )	-0.7742872
-1.217484	not ,	-0.4739262
-1.150537	not ->	-0.8611255
-0.3828513	not .	-1.373777
-1.694605	not ;	-0.2891898
-1.393575	not =
-1.995635	not ==
-1.995635	not >
-1.995635	not >>
-0.5806618	not [	-1.38542
0	np )
-1.919078	o &
-1.265866	o )	-0.1549324
-1.178715	o *
-2.220108	o *=
-1.178715	o +	-0.1859126
-1.919078	o ++
-1.742987	o +=	-0.4569179
-0.9413545	o ,	-0.1620731
-1.220108	o -
-1.919078	o -=	-0.4325391
-2.220108	o /
-2.220108	o :
-0.8583803	o ;	-0.5717363
-2.220108	o </s>
-0.7577101	o =	-0.2681193
-1.742987	o >	-0.4641563
-1.919078	o >>	-0.4597472
-1.919078	o W
-1.742987	o X
-0.7729501	o [	-0.5961511
-1.919078	o ]
-2.220108	o ||
0	o(O _){putchar(_);}O"
0	ocket -
0	oec ,
0	offsetLeft ;
0	offsetTop }
0	on :
0	onmousemove =
0	ontext (
-0.6532125	op &&	-0.4617009
-0.9542425	op )
-0.6532125	op ;
-0.4771213	op =
-0.9542425	op ^
0	open (
-0.7781513	optind )
-0.4771213	optind +	-0.4244701
-0.7781513	optind =
-0.4771213	optind ]	-0.4179299
-1.778151	p &
-1.477121	p (	-0.2987365
-1.30103	p )	-0.5481273
-1.477121	p +	-0.29587
-1.176091	p ++	-0.4652219
-1	p ,
-1.477121	p -
-1.60206	p /
-2.079181	p :
-0.8487324	p ;	-0.04197147
-1.477121	p <	-0.5818566
-1.778151	p </s>
-2.079181	p <=
-0.7367586	p =	-0.2214819
-1.778151	p >
-2.079181	p L
-1.60206	p S	-0.3751317
-1.60206	p W	-0.4238757
-2.079181	p X
-2.079181	p Z
-0.9652379	p [	-0.4488316
-1.60206	p ]	-0.4179299
-1.778151	p ^
-2.079181	p |
0	pageY -
0	phe (	-0.6913882
0	pixels ,
0	pow (	-0.471199
0	pread (
0	prin </s>
0	printf (
-0.69897	pro )
-0.2218488	pro *	-0.4730963
-0.69897	pro ;
0	pt :
0	putImageData (
0	putchar (	-0.1062422
-0.07918125	puts (
-0.7781513	puts </s>
-0.30103	pyl ;
-0.30103	pyl =
-1.755875	q !=
-1.278754	q (
-0.9777236	q )	-0.1751792
-1.755875	q *
-1.278754	q +
-1.278754	q ++	-0.4571041
-1.755875	q +=
-1.755875	q ,
-1.153815	q -
-1.454845	q --	-0.4590231
-1.056905	q ;	-0.5110385
-1.278754	q </s>
-0.6766936	q =	-0.1633326
-1.755875	q ==
-1.755875	q >>
-1.755875	q R
-1.755875	q S
-0.9777236	q [
-1.755875	q ]
-1.755875	q ^
-1.462398	r %
-0.860338	r (	-0.118685
-0.9852768	r )	-0.04728849
-1.462398	r +	-0.4719613
-1.462398	r ++	-0.4611821
-1.462398	r +=
-1.064458	r ,
-1.763428	r :
-1.064458	r ;	-0.4322935
-1.462398	r </s>
-0.763428	r =	-0.336718
-1.763428	r ==
-1.763428	r >>
-1.763428	r ?
-1.286307	r L
-1.763428	r W
-1.462398	r X
-1.462398	r Z	-0.4002812
-1.763428	r ]
-1.763428	r |
0	rand (	-0.445966
0	rea ,
-0.30103	read (
-0.30103	read </s>
0	realloc (
0	refresh (
-1.518514	return (
-1.518514	return +
-0.916454	return 0	-0.4703879
-1.518514	return ;
-1.217484	return </s>
-1.518514	return Q
-1.518514	return W
-1.518514	return Y
-1.518514	return a
-1.518514	return b
-1.518514	return bb
-0.916454	return d	-0.2927575
-1.518514	return exp
-1.518514	return fclose
-1.518514	return l
-1.518514	return o
-1.518514	return p
-1.518514	return r
-1.041393	return s	-0.5642715
-1.518514	return strchr
-1.518514	return strtol
-1.217484	return u	-0.4426353
-1.518514	return y
0	rewind (	-0.4731821
0	round (
0	rror goofy
-2.079181	s %
-2.079181	s &&
-1.778151	s (	-0.445966
-1.176091	s )	-0.372036
-1.380211	s *	-0.2137611
-1.477121	s *=	-0.2817248
-1.778151	s +
-2.079181	s ++
-1.60206	s +=
-1.176091	s ,	-0.119447
-1.778151	s -
-1.60206	s -=
-2.079181	s /=
-2.079181	s :
-1.079181	s ;	-0.2562022
-1.778151	s <	-0.4210053
-1.778151	s </s>
-2.079181	s <<
-0.7569619	s =	-0.07018274
-2.079181	s >
-2.079181	s ?
-1.124939	s L	-0.9340714
-1.176091	s W	-0.3332146
-1.234083	s X	-0.2027435
-1.477121	s Y	-0.2202068
-1.60206	s Z
-1.380211	s [
-1.778151	s ]	-0.3333344
-1.778151	s |
0	scanf (
0	scr "
0	script >
-0.3521825	sec )	-0.4689461
-0.2552725	sec =	-0.2197482
0	send (
-0.1383027	ser )	-0.2874572
-1.041393	ser ;
-1.041393	ser asx
-1.041393	ser glx
0	set (
0	setjmp (
0	shi ,
-0.30103	short *
-0.30103	short Y
0	signal (
0	sin (
0	size_t thr
-0.06694679	sizeof (	-0.2140198
-1.146128	sizeof his
-1.146128	sizeof sec
0	slice (
0	sprintf (
0	sqrt (
0	st_mtime ;
0	st_size ;
-0.1760913	stat (
-0.4771213	stat z
-0.7781513	static const
-0.07918125	static void	-0.6264194
0	stdin )
0	stdout )
0	strchr (
0	strcmp (
0	strlen (
0	strrchr (
0	strtol </s>
-0.6532125	struct T
-0.6532125	struct e
-0.9542425	struct stat
-0.3521825	struct {	-0.5438408
0	style =
0	subs </s>
0	switch (
0	sym ;
-0.69897	sym_ (
-0.09691001	sym_ ,	-0.6794374
0	system (
-1.596597	t !=	-0.4313638
-1.897627	t %=
-1.897627	t &&
-0.9433846	t )	-0.3310236
-1.596597	t *
-1.897627	t *=
-1.420506	t +
-1.596597	t +=
-0.9433846	t ,	-0.0905622
-1.596597	t -
-1.897627	t --
-1.897627	t :
-0.9433846	t ;	-0.2034559
-1.295567	t <	-0.6428541
-1.897627	t </s>
-0.7215359	t =	-0.08469052
-1.897627	t ==
-1.897627	t >
-1.295567	t ?	-0.6579332
-1.596597	t L	-0.4486846
-1.897627	t S
-1.198657	t [	-0.2012459
-1.897627	t |
-1.897627	t ||
0	tape )
0	teI "
0	tf (
-0.90309	thr ;
-0.90309	thr cys
-0.90309	thr ile
-0.90309	thr leu
-0.90309	thr trp
-0.90309	thr val
-0.60206	thr xor
0	timeout (
-0.30103	tla ;	-0.2891898
-0.60206	tla =
-0.60206	tla ==
0	tmpfile (
0	tr (
-1	trp )
-1	trp ,
-0.154902	trp ;	-0.7118725
-1	trp =
0	typ and
0	type ==
-1.146128	typedef </s>
-1.146128	typedef char
-1.146128	typedef int
-1.146128	typedef size_t
-0.3679768	typedef struct	-0.2218488
-1.146128	typedef typ
-1.146128	typedef union
-0.845098	typedef unsigned
-1	tyr )
-1	tyr +
-1	tyr /
-0.39794	tyr =	-0.2989294
-0.5228788	tyr [	-0.4737546
-0.8619988	u )	-0.1390672
-2.117271	u *
-2.117271	u *=
-1.515211	u +
-1.816241	u ++	-0.4317983
-1.64015	u +=
-0.9411801	u ,	-0.1227109
-2.117271	u -
-1.816241	u /	-0.4539534
