
\data\
ngram 1=936
ngram 2=5369
ngram 3=2479
ngram 4=1451
ngram 5=821
ngram 6=502

\1-grams:
-2.326836	!	-99
-2.958859	!=	-99
-2.803958	"	-99
-4.281079	"!:E%;!ea!!!WqE0z!f/y}!%!!Qi6!uzt!n}?]!bl!ak!SetR<"	-99
-4.281079	"!pv!;!Hm%Ro4"	-99
-3.435981	""	-99
-3.803958	"#"	-99
-3.803958	"$"	-99
-4.281079	"%c"	-99
-3.980049	"%d	-99
-4.281079	"%d,%dd%d\n"	-99
-4.281079	"%d\n"	-99
-4.281079	"%da%d,%d\n"	-99
-4.281079	"%da%d\n"	-99
-4.281079	"%dd%d\n"	-99
-4.281079	"%f,%f,"	-99
-3.582109	"%s"	-99
-4.281079	"('A)"	-99
-3.980049	"('A`)"	-99
-4.281079	"(A`)"	-99
-4.281079	"(O**"	-99
-4.281079	")"	-99
-4.281079	")$"	-99
-4.281079	");"	-99
-4.281079	"*"	-99
-4.281079	"*_[512],**p=_,**d,b,q;for(b=0;b"	-99
-4.281079	"*p=#b,P[9999],*d=P,*e[]="	-99
-4.281079	"++<512;p=_+q)_[q"	-99
-4.281079	"-"	-99
-4.281079	"/"	-99
-4.281079	"/*;;	-99
-4.281079	"11\x80"	-99
-4.281079	"258EAFA5-"	-99
-4.281079	"8!@dP,!!o+fb"	-99
-4.281079	"::::::::::::?_::::\"::.::::@:::'::-::::::::;!:):::::,:::::"	-99
-3.803958	";"	-99
-4.281079	";;"	-99
-4.281079	";Gam"	-99
-4.281079	";GlockQ18"	-99
-4.281079	";Heca"	-99
-4.281079	";Time:Q"	-99
-4.281079	";^Q<d|8=o;]Q<dj8<Pk8<c]'?;QQdi8?P'Q)d8<9`8?c;Qdh8=P']Q<`c8>PQ9_8"	-99
-4.281079	"<	-99
-4.281079	"<"	-99
-4.281079	"<;iQ=/*do<;dQ=ook8?boc;aQ=odr8>oc;_Q<ox8>oc"	-99
-4.281079	"<o_Q<o_QBdo`QQ';`Q=9`]8=bobQ_o_Q<o]8=';bQC(88cQ`bcgQ>oP']8<;cQ>98)^Q?''oc`Q>"	-99
-4.281079	"=(p-_+1)*9%512]=(O*)p;"	-99
-4.281079	"=:$"	-99
-3.803958	">	-99
-4.281079	">b;og8=''`Q<`b8?'QQ9_8?c;dPe8dQa8<P]Q<``8=;'f8>QQ`]8?ocQQ_8=''_Q`8aQ"	-99
-4.281079	"?guhljL!^P%	-99
-4.281079	"@"	-99
-4.281079	"@+-"	-99
-4.281079	"@CADBEHI"	-99
-4.281079	"C:"	-99
-4.281079	"CYOUQWIN!]Q=;of8BQQ)88bc]QA98P'Qo]8>oQQ_8CP;QQ98b`_8@P8(Q`]'^Q=`']QB)88"	-99
-4.281079	"E914-47DA-95CA-C5AB0DC85B"	-99
-4.281079	"HTTP/1.1	-99
-4.281079	"M@K~|JOEF\\^~_NHI]"	-99
-4.281079	"NBLF\1Nblfgjmf\1"	-99
-3.679019	"Q"	-99
-4.281079	"Q(j"	-99
-4.281079	"Q(jam"	-99
-4.281079	"Zj$x!~V!n&g8!cK!	-99
-4.281079	"\",\"%s\",\"%s\"},	-99
-4.281079	"\40main(){O"	-99
-4.281079	"\n"	-99
-4.281079	"\n\n\n"	-99
-4.281079	"\xe2%c%c\r\n"	-99
-4.281079	"a"	-99
-4.281079	"bQQ]`8J;QQ`88bc99bd(`8iQ@''QQo^8E'`8c;QQ'Q``8?QQ`'kQ<o]8B9PQQ`';_Q<`_8<cbQ"	-99
-3.980049	"d"	-99
-4.281079	"e.6!r!%l6G!n~^<i=%pEwL%P!'<!FQt%u	-99
-4.281079	"e:|	-99
-4.281079	"eQII:"	-99
-4.281079	"eQover."	-99
-4.281079	"etu"	-99
-4.281079	"fl!"	-99
-4.281079	"hello	-99
-4.281079	"laugh"	-99
-4.281079	"m"	-99
-4.281079	"me"	-99
-4.281079	"med);"	-99
-4.281079	"n:}nkD!Q!kN"	-99
-4.281079	"o("	-99
-4.281079	"oc']Q]8<;cQ>`8bbQA``QQ''`Q?88P;dQ=`)nQ?*/;;"	-99
-4.281079	"oid	-99
-3.679019	"r"	-99
-4.281079	"rn+0;}\n"	-99
-4.281079	"syntax_error!"	-99
-4.281079	"t"	-99
-4.281079	"throw	-99
-4.281079	"usage:	-99
-4.281079	"{;}"	-99
-4.281079	"{\"%s\",	-99
-4.281079	"|~0y'vWtA@:LcO9d}y.!uL!Gd+ml(<+Ds!J"	-99
-4.281079	"}$"	-99
-2.220381	%	-99
-3.679019	%=	-99
-4.281079	%d\n"	-99
-4.281079	%s	-99
-4.281079	%u/%u	-99
-2.194719	&	-99
-2.326836	&&	-99
-4.281079	&=	-99
-3.239686	'	-99
-4.281079	'(	-99
-3.980049	'128'	-99
-4.281079	'2O	-99
-4.281079	'2d'	-99
-4.281079	'7M{N^kh	-99
-4.281079	'='	-99
-4.281079	'Q]	-99
-3.980049	'\n'	-99
-4.281079	'_3a	-99
-4.281079	'a'	-99
-4.281079	'b5sc!e"	-99
-4.281079	'c'	-99
-4.281079	'd'	-99
-4.281079	'h(Q]0h#	-99
-4.281079	'lQ	-99
-4.281079	'nSM8	-99
-4.281079	'width:256px;height:256px'	-99
-4.281079	'ws'	-99
-4.281079	'|'	-99
-1.158863	(	-99
-1.13186	)	-99
-1.525204	*	-99
-2.618321	*=	-99
-4.281079	*m,!*m?H:"	-99
-1.851327	+	-99
-2.180708	++	-99
-4.281079	+99*!	-99
-2.231861	+=	-99
-1.30153	,	-99
-4.281079	,101	-99
-1.799636	-	-99
-2.573509	--	-99
-2.64761	-=	-99
-2.406018	->	-99
-2.243652	.	-99
-4.281079	.0	-99
-3.803958	.05	-99
-3.803958	.1	-99
-4.281079	.27	-99
-3.803958	.5	-99
-2.331689	/	-99
-3.435981	/=	-99
-1.854568	0	-99
-3.803958	0.5	-99
-4.281079	0.7	-99
-4.281079	01	-99
-4.281079	02	-99
-4.281079	024	-99
-4.281079	03	-99
-4.281079	040	-99
-4.281079	061	-99
-4.281079	075	-99
-4.281079	0d:`184>b)^15)OM	-99
-3.980049	0u	-99
-4.281079	0x1	-99
-4.281079	0x3f0	-99
-4.281079	0x67452301	-99
-4.281079	0x820008202625a0	-99
-4.281079	0x98BADCFE	-99
-4.281079	0xEFCDAB89	-99
-4.281079	0xf	-99
-4.281079	0xfc0	-99
-4.281079	0xfe0	-99
-4.281079	0xff00ff00ff	-99
-4.281079	0xffff	-99
-1.997778	1	-99
-4.281079	1.159922023e9	-99
-3.980049	1.5	-99
-4.281079	1.6937441874215991e190	-99
-3.134951	10	-99
-4.281079	1008	-99
-4.281079	101	-99
-3.803958	1023	-99
-4.281079	1024	-99
-4.281079	1024.	-99
-4.281079	105	-99
-3.803958	11	-99
-4.281079	1103515245	-99
-4.281079	112	-99
-4.281079	1152	-99
-3.281079	12	-99
-4.281079	123	-99
-4.281079	12359778	-99
-4.281079	12365733	-99
-4.281079	124	-99
-4.281079	127	-99
-3.679019	128	-99
-4.281079	128L	-99
-3.980049	13	-99
-4.281079	13000	-99
-4.281079	138	-99
-3.502928	14	-99
-4.281079	14202379	-99
-3.980049	14695981039346656037ULL	-99
-3.435981	15	-99
-4.281079	1500	-99
-4.281079	158	-99
-2.980049	16	-99
-4.281079	1600	-99
-3.803958	16711935	-99
-4.281079	16774143	-99
-3.980049	16u	-99
-3.803958	17	-99
-4.281079	176	-99
-3.582109	18	-99
-4.281079	19	-99
-4.281079	1912	-99
-4.281079	19205553	-99
-4.281079	193	-99
-4.281079	1933008	-99
-4.281079	194	-99
-4.281079	1954	-99
-4.281079	196	-99
-4.281079	197	-99
-4.281079	198	-99
-3.980049	1LL	-99
-4.281079	1l	-99
-3.980049	1u	-99
-2.177275	2	-99
-3.980049	2.	-99
-4.281079	2.271681097355226e15	-99
-3.377989	20	-99
-4.281079	204	-99
-4.281079	205	-99
-3.980049	21	-99
-3.980049	22	-99
-3.980049	23	-99
-4.281079	234	-99
-3.435981	24	-99
-4.281079	25	-99
-4.281079	250	-99
-3.435981	255	-99
-3.679019	256	-99
-4.281079	256L	-99
-4.281079	257	-99
-4.281079	258063	-99
-3.980049	26	-99
-4.281079	27	-99
-4.281079	275	-99
-4.281079	276	-99
-4.281079	28	-99
-4.281079	287	-99
-4.281079	2L	-99
-4.281079	2l	-99
-2.377989	3	-99
-4.281079	3'	-99
-4.281079	3.135045272e9	-99
-4.281079	3.9999e5	-99
-3.435981	30	-99
-4.281079	304	-99
-4.281079	308438	-99
-3.679019	31	-99
-2.849715	32	-99
-3.980049	32768	-99
-4.281079	3285377520	-99
-3.980049	33	-99
-3.980049	333	-99
-4.281079	3352537	-99
-3.803958	34	-99
-3.582109	35	-99
-3.803958	36	-99
-3.980049	37	-99
-3.980049	38	-99
-4.281079	384	-99
-4.281079	39	-99
-4.281079	3920	-99
-2.394588	4	-99
-4.281079	4.023233417e9	-99
-4.281079	4.294967296e9	-99
-4.281079	4.5	-99
-4.281079	4.503599627370496e15	-99
-4.281079	4.522871578970112e217	-99
-4.281079	4.6727004911171048e-153	-99
-3.377989	40	-99
-4.281079	4092	-99
-3.980049	41	-99
-4.281079	41088	-99
-3.980049	4190208	-99
-4.281079	4194304	-99
-3.582109	42	-99
-4.281079	44	-99
-3.980049	45	-99
-4.281079	48	-99
-4.281079	480	-99
-4.281079	488848	-99
-4.281079	4L	-99
-3.980049	4u	-99
-2.701295	5	-99
-4.281079	50	-99
-4.281079	5000	-99
-4.281079	504	-99
-4.281079	508	-99
-4.281079	51	-99
-3.679019	512	-99
-4.281079	512L	-99
-4.281079	516	-99
-3.980049	5200	-99
-4.281079	5298487	-99
-4.281079	55	-99
-3.803958	56	-99
-4.281079	57	-99
-3.980049	58	-99
-3.980049	59	-99
-4.281079	5toG57j/3"	-99
-2.679019	6	-99
-3.435981	60	-99
-3.803958	61	-99
-3.980049	62	-99
-3.679019	63	-99
-4.281079	63504	-99
-3.201898	64	-99
-4.281079	64u	-99
-4.281079	65280	-99
-4.281079	65307	-99
-3.980049	65536	-99
-4.281079	65544	-99
-4.281079	667	-99
-4.281079	67	-99
-4.281079	69	-99
-4.281079	6990400	-99
-2.762565	7	-99
-4.281079	7.5	-99
-4.281079	7.90055321525613e115	-99
-4.281079	70	-99
-3.980049	74	-99
-4.281079	75	-99
-4.281079	76	-99
-3.679019	768	-99
-3.980049	77	-99
-3.679019	79	-99
-2.548685	8	-99
-4.281079	8.44396048e8	-99
-3.134951	80	-99
-4.281079	8000	-99
-3.803958	81	-99
-4.281079	82	-99
-4.281079	84	-99
-3.803958	85	-99
-3.980049	86400	-99
-4.281079	88	-99
-4.281079	881	-99
-4.281079	89	-99
-4.281079	8u	-99
-2.866106	9	-99
-3.980049	90	-99
-4.281079	91	-99
-3.582109	92	-99
-4.281079	93	-99
-4.281079	96	-99
-3.803958	97	-99
-4.281079	98	-99
-4.281079	9858122	-99
-3.980049	99	-99
-4.281079	9999	-99
-4.281079	99999	-99
-2.082422	:	-99
-4.281079	:23h)QN<'	-99
-1.189412	;	-99
-4.281079	;b'	-99
-2.113761	<	-99
-1.240872	</s>
-2.517651	<<	-99
-4.281079	<<=	-99
-3.326836	<=	-99
-4.281079	<P~6"	-99
-99	<s>	-99
-99	<unk>
-1.356283	=	-99
-2.525204	==	-99
-2.406018	>	-99
-3.435981	>=	-99
-2.565075	>>	-99
-3.803958	>>=	-99
-2.170489	?	-99
-4.281079	?"	-99
-2.474899	A	-99
-4.281079	Acce	-99
-4.281079	Alan	-99
-2.461535	B	-99
-4.281079	BUFSIZ	-99
-2.565075	C	-99
-3.980049	COLS	-99
-2.582109	D	-99
-4.281079	DefaultGC	-99
-4.281079	DefaultVisual	-99
-4.281079	Display	-99
-2.608981	E	-99
-4.281079	E0	-99
-3.980049	E3	-99
-3.239686	EOF	-99
-4.281079	ETIANMSURWDKGOHVF:L:PJBXCYZQ::54:3:::2&:+::::16=/:::(:7:::8:90"	-99
-4.281079	EX	-99
-2.64761	F	-99
-3.980049	F0	-99
-3.980049	F1	-99
-4.281079	F2	-99
-3.582109	FILE	-99
-4.281079	FILENAME_MAX	-99
-4.281079	FV	-99
-2.737011	G	-99
-2.474899	H	-99
-4.281079	HP	-99
-4.281079	HY	-99
-4.281079	H_1	-99
-2.495749	I	-99
-2.833921	J	-99
-2.474899	K	-99
-4.281079	KrgR'8@c]!%-q9V.3fa[E8X%dY'w!#H	-99
-2.13186	L	-99
-3.803958	LINES	-99
-4.281079	LP	-99
-4.281079	L_tmpnam	-99
-2.724776	M	-99
-4.281079	M8q;k'	-99
-4.281079	MJ	-99
-4.281079	MK6lM	-99
-4.281079	McPc	-99
-4.281079	MkQN	-99
-2.510227	N	-99
-4.281079	N4	-99
-4.281079	N8b	-99
-4.281079	N9	-99
-4.281079	N9b	-99
-3.803958	NULL	-99
-4.281079	NUO	-99
-4.281079	N_1'	-99
-4.281079	N_7vN	-99
-2.298808	O	-99
-3.167135	O0	-99
-3.435981	O1	-99
-3.435981	O2	-99
-3.502928	O3	-99
-4.281079	O3NF	-99
-3.582109	O4	-99
-3.502928	O5	-99
-3.679019	O6	-99
-3.679019	O7	-99
-3.803958	O8	-99
-3.803958	O9	-99
-4.281079	OMQ	-99
-4.281079	OMaMch	-99
-4.281079	OMp	-99
-4.281079	ON8r	-99
-3.201898	OO	-99
-4.281079	O^ln	-99
-3.326836	O_	-99
-3.679019	O_o	-99
-4.281079	OaaD	-99
-4.281079	Ok	-99
-4.281079	On	-99
-4.281079	OsR	-99
-2.637626	P	-99
-2.285444	Q	-99
-3.201898	Q0	-99
-3.502928	Q1	-99
-3.435981	Q2	-99
-3.502928	Q3	-99
-3.679019	Q4	-99
-3.679019	Q5	-99
-3.679019	Q6	-99
-3.679019	Q7	-99
-3.803958	Q8	-99
-3.980049	Q9	-99
-4.281079	QH	-99
-4.281079	QL	-99
-3.201898	QO	-99
-3.326836	QQ	-99
-3.980049	QR	-99
-3.980049	QS	-99
-3.502928	Q_	-99
-4.281079	Qr	-99
-2.231861	R	-99
-4.281079	R8	-99
-4.281079	RAFT	-99
-4.281079	RGB	-99
-4.281079	RI4	-99
-4.281079	RM	-99
-4.281079	RMPmSk	-99
-4.281079	RP	-99
-4.281079	RlMG	-99
-4.281079	RmM	-99
-4.281079	RmPQ	-99
-4.281079	RootWindow	-99
-2.637626	S	-99
-4.281079	SDL_AudioSpec	-99
-4.281079	SDL_BlitSurface	-99
-4.281079	SDL_CreateRGBSurface	-99
-4.281079	SDL_Delay	-99
-4.281079	SDL_Event	-99
-4.281079	SDL_FillRect	-99
-4.281079	SDL_Flip	-99
-4.281079	SDL_Init	-99
-4.281079	SDL_LoadWAV	-99
-4.281079	SDL_MixAudio	-99
-4.281079	SDL_OpenAudio	-99
-4.281079	SDL_PauseAudio	-99
-4.281079	SDL_PollEvent	-99
-4.281079	SDL_Rect	-99
-4.281079	SDL_SetVideoMode	-99
-4.281079	SDL_Surface	-99
-3.980049	SEEK_SET	-99
-4.281079	SNH	-99
-4.281079	SOPm	-99
-4.281079	SPEED	-99
-4.281079	Sec	-99
-4.281079	SlM90	-99
-4.281079	So	-99
-2.285444	T	-99
-4.281079	TIMESTEP	-99
-4.281079	TIOCGWINSZ	-99
-4.281079	TMP_MAX	-99
-4.281079	TmS	-99
-4.281079	TmSt	-99
-4.281079	Turing	-99
-4.281079	Type	-99
-2.608981	U	-99
-4.281079	UV_DROP	-99
-4.281079	Uint8Array	-99
-4.281079	Upgrade	-99
-2.540716	V	-99
-2.276757	W	-99
-3.980049	WebSocket	-99
-4.281079	Window	-99
-2.383452	X	-99
-4.281079	XCheckWindowEvent	-99
-4.281079	XCreateImage	-99
-4.281079	XCreateSimpleWindow	-99
-4.281079	XEvent	-99
-4.281079	XImage	-99
-4.281079	XLookupKeysym	-99
-4.281079	XMapWindow	-99
-4.281079	XOpenDisplay	-99
-4.281079	XPutImage	-99
-4.281079	XSelectInput	-99
-2.573509	Y	-99
-2.712877	Z	-99
-1.862778	[	-99
-4.281079	[-d]	-99
-4.281079	\""	-99
-4.281079	\n\t"	-99
-1.826234	]	-99
-2.65783	^	-99
-3.582109	^=	-99
-2.25989	_	-99
-4.281079	_){putchar(_);}O"	-99
-3.326836	_0	-99
-4.281079	_8	-99
-4.281079	_KK3	-99
-3.281079	_O	-99
-3.281079	_Q	-99
-4.281079	_Zadat57	-99
-3.05063	__	-99
-4.281079	__LINE__	-99
-3.980049	__STDC_VERSION__	-99
-3.980049	__STDC__	-99
-4.281079	__TIME__	-99
-3.980049	_a	-99
-3.980049	_b	-99
-3.980049	_c	-99
-3.980049	_d	-99
-3.980049	_f	-99
-4.281079	_h	-99
-3.980049	_i	-99
-3.980049	_k	-99
-4.281079	_o	-99
-4.281079	_t	-99
-4.281079	_z	-99
-2.079682	a	-99
-3.980049	abs	-99
-4.281079	ageX	-99
-3.435981	ala	-99
-2.7496	and	-99
-3.582109	arg	-99
-3.167135	asn	-99
-3.803958	asp	-99
-3.679019	asx	-99
-4.281079	ay	-99
-2.060971	b	-99
-4.281079	b1g	-99
-4.281079	b4	-99
-4.281079	b5g	-99
-3.582109	bA	-99
-3.679019	bB	-99
-3.679019	bC	-99
-3.803958	bD	-99
-3.582109	bE	-99
-4.281079	b\nq(%s)\n"	-99
-3.803958	ba	-99
-3.502928	bb	-99
-3.582109	bc	-99
-3.803958	bd	-99
-3.377989	be	-99
-3.201898	bf	-99
-3.679019	bg	-99
-3.679019	bh	-99
-4.281079	bh'	-99
-3.980049	bi	-99
-4.281079	binary	-99
-3.803958	bj	-99
-3.679019	bk	-99
-3.803958	bl	-99
-3.980049	bm	-99
-3.980049	bn	-99
-3.980049	bo	-99
-3.377989	bp	-99
-3.980049	bq	-99
-3.980049	br	-99
-3.05063	break	-99
-3.803958	bs	-99
-3.502928	bt	-99
-3.502928	bu	-99
-3.679019	buf	-99
-3.980049	bv	-99
-4.281079	bw	-99
-3.980049	bx	-99
-3.502928	by	-99
-3.582109	bz	-99
-2.198293	c	-99
-3.980049	c8	-99
-4.281079	c9	-99
-4.281079	cN	-99
-4.281079	c_X	-99
-4.281079	c_kah%0d9`b'	-99
-3.679019	calloc	-99
-3.281079	case	-99
-4.281079	cb	-99
-2.690014	char	-99
-4.281079	ckQaOrON	-99
-4.281079	close	-99
-2.938656	const	-99
-4.281079	continue	-99
-3.803958	cos	-99
-4.281079	cq	-99
-4.281079	crea	-99
-4.281079	curs_set	-99
-3.502928	cys	-99
-2.033106	d	-99
-4.281079	d2	-99
-4.281079	d77sNOsd	-99
-3.679019	d8	-99
-4.281079	d8ak	-99
-4.281079	dA	-99
-4.281079	dB	-99
-4.281079	dC	-99
-4.281079	d_C	-99
-4.281079	dat	-99
-4.281079	data	-99
-3.803958	default	-99
-4.281079	defined	-99
-3.679019	do	-99
-4.281079	double	-99
-3.980049	dstr	-99
-4.281079	dup	-99
-3.980049	dup2	-99
-2.201898	e	-99
-4.281079	eep	-99
-2.818681	efine	-99
-2.958859	else	-99
-4.281079	elta_u	-99
-4.281079	elta_v	-99
-4.281079	epne	-99
-4.281079	er	-99
-3.582109	err	-99
-4.281079	errx	-99
-3.582109	exit	-99
-3.803958	exp	-99
-3.803958	extern	-99
-2.281079	f	-99
-4.281079	f3	-99
-4.281079	fabs	-99
-4.281079	fclose	-99
-4.281079	fgetc	-99
-4.281079	fgets	-99
-4.281079	file1	-99
-4.281079	file2"	-99
-4.281079	flash	-99
-3.435981	float	-99
-4.281079	float_	-99
-4.281079	flu	-99
-3.803958	fopen	-99
-2.406018	for	-99
-4.281079	fputc	-99
-3.803958	fread	-99
-3.582109	free	-99
-4.281079	fscanf	-99
-3.980049	fseek	-99
-4.281079	function	-99
-2.187657	g	-99
-4.281079	getC	-99
-4.281079	getch	-99
-3.679019	getchar	-99
-4.281079	getopt	-99
-3.076959	gln	-99
-3.281079	glu	-99
-3.980049	glx	-99
-3.502928	gly	-99
-4.281079	goofy	-99
-3.679019	goto	-99
-2.411847	h	-99
-4.281079	halting	-99
-4.281079	height	-99
-3.435981	his	-99
-4.281079	ho	-99
-4.281079	href	-99
-1.986613	i	-99
-2.429821	if	-99
-3.582109	ile	-99
-4.281079	in	-99
-4.281079	initscr	-99
-2.383452	int	-99
-4.281079	int_	-99
-4.281079	intw	-99
-4.281079	ioctl	-99
-4.281079	ipt	-99
-2.180708	j	-99
-4.281079	jQ	-99
-4.281079	j_la	-99
-4.281079	j_laaaN	-99
-4.281079	jmp_buf	-99
-2.362001	k	-99
-4.281079	k8b	-99
-4.281079	k9	-99
-4.281079	kP8	-99
-4.281079	k_	-99
-4.281079	kccMcOP	-99
-4.281079	kckQ	-99
-4.281079	kd	-99
-4.281079	ket	-99
-3.980049	key	-99
-4.281079	keysym	-99
-4.281079	kf	-99
-4.281079	kg	-99
-2.289853	l	-99
-3.980049	lM	-99
-4.281079	lNRmO_loa8	-99
-4.281079	lQ	-99
-4.281079	lQoOa	-99
-4.281079	l_	-99
-4.281079	lea	-99
-3.679019	leu	-99
-4.281079	lf	-99
-4.281079	location	-99
-2.919351	long	-99
-4.281079	longjmp	-99
-4.281079	lpeoqempepneu	-99
-4.281079	lrand48	-99
-3.980049	lu	-99
-4.281079	luN	-99
-4.281079	luelue	-99
-3.803958	lv	-99
-4.281079	lwg	-99
-3.326836	lys	-99
-2.495749	m	-99
-3.980049	mR	-99
-4.281079	mR8	-99
-4.281079	mRMmO	-99
-4.281079	mRh	-99
-3.980049	mS	-99
-4.281079	mageData	-99
-3.002325	main	-99
-3.980049	malloc	-99
-4.281079	memcmp	-99
-3.980049	memcpy	-99
-4.281079	memset	-99
-3.326836	met	-99
-4.281079	mkM	-99
-4.281079	mq9l8b	-99
-4.281079	mva	-99
-4.281079	mvaddstr	-99
-3.980049	mvinch	-99
-4.281079	mvinsch	-99
-2.160505	n	-99
-4.281079	nR	-99
-4.281079	nRmUd	-99
-3.980049	ndif	-99
-3.980049	new	-99
-4.281079	nk	-99
-2.285444	not	-99
-4.281079	np	-99
-2.060971	o	-99
-4.281079	o(O	-99
-4.281079	oM	-99
-4.281079	oNS	-99
-4.281079	ocket	-99
-4.281079	oec	-99
-4.281079	offsetLeft	-99
-4.281079	offsetTop	-99
-4.281079	og	-99
-4.281079	on	-99
-4.281079	onmousemove	-99
-4.281079	ontext	-99
-3.326836	op	-99
-3.980049	open	-99
-3.502928	optind	-99
-2.194719	p	-99
-4.281079	pOpM866OsRlm	-99
-4.281079	pQaM8m	-99
-4.281079	pRM7O	-99
-4.281079	pageY	-99
-4.281079	peoqemtemw	-99
-3.679019	phe	-99
-4.281079	pixels	-99
-3.803958	pow	-99
-4.281079	pread	-99
-4.281079	prin	-99
-3.239686	printf	-99
-3.582109	pro	-99
-4.281079	pt	-99
-4.281079	ptj9	-99
-4.281079	putImageData	-99
-3.377989	putchar	-99
-3.435981	puts	-99
-4.281079	px	-99
-3.980049	pyl	-99
-2.474899	q	-99
-4.281079	qN	-99
-4.281079	qQ	-99
-2.495749	r	-99
-3.803958	rQ	-99
-4.281079	rR	-99
-3.980049	rand	-99
-4.281079	re	-99
-4.281079	rea	-99
-3.980049	read	-99
-3.679019	realloc	-99
-4.281079	refresh	-99
-2.7496	return	-99
-3.980049	rewind	-99
-4.281079	round	-99
-4.281079	rror	-99
-2.163808	s	-99
-4.281079	sM	-99
-3.980049	sN	-99
-4.281079	sTaa	-99
-4.281079	s_4	-99
-4.281079	scanf	-99
-4.281079	scr	-99
-4.281079	script	-99
-3.326836	sec	-99
-4.281079	send	-99
-3.239686	ser	-99
-4.281079	set	-99
-4.281079	setjmp	-99
-4.281079	shi	-99
-3.980049	short	-99
-4.281079	signal	-99
-3.980049	sin	-99
-4.281079	size_t	-99
-3.167135	sizeof	-99
-4.281079	slice	-99
-4.281079	slltwzh	-99
-4.281079	sprintf	-99
-4.281079	sqrt	-99
-4.281079	st_mtime	-99
-4.281079	st_size	-99
-3.803958	stat	-99
-3.502928	static	-99
-3.980049	stdin	-99
-4.281079	stdout	-99
-3.803958	strchr	-99
-4.281079	strcmp	-99
-3.803958	strlen	-99
-4.281079	strrchr	-99
-4.281079	strtol	-99
-3.326836	struct	-99
-4.281079	style	-99
-4.281079	subs	-99
-3.679019	switch	-99
-4.281079	sym	-99
-3.582109	sym_	-99
-4.281079	system	-99
-2.362001	t	-99
-4.281079	tQ	-99
-4.281079	tYv	-99
-4.281079	tape	-99
-4.281079	teI	-99
-4.281079	tf	-99
-4.281079	tgANs	-99
-3.377989	thr	-99
-4.281079	timeout	-99
-3.679019	tla	-99
-4.281079	tmpfile	-99
-4.281079	tr	-99
-3.281079	trp	-99
-4.281079	turnY_	-99
-4.281079	typ	-99
-3.980049	type	-99
-3.167135	typedef	-99
-3.281079	tyr	-99
-2.160505	u	-99
-4.281079	uU	-99
-3.201898	unk	-99
-3.326836	unsigned	-99
-4.281079	up"	-99
-4.281079	upgrade	-99
-4.281079	usl	-99
-4.281079	usleep	-99
-4.281079	utchar	-99
-2.268242	v	-99
-4.281079	vOwwRor	-99
-4.281079	vQ	-99
-4.281079	vad	-99
-2.833921	val	-99
-2.883139	void	-99
-4.281079	voidw	-99
-4.281079	volatile	-99
-4.281079	vpr	-99
-2.548685	w	-99
-4.281079	webso	-99
-2.938656	while	-99
-4.281079	width	-99
-4.281079	window	-99
-4.281079	wnS	-99
-4.281079	world!"	-99
-3.803958	write	-99
-2.34156	x	-99
-4.281079	xa6	-99
-4.281079	xkey	-99
-3.980049	xle	-99
-2.627866	xor	-99
-4.281079	xv	-99
-2.322037	y	-99
-4.281079	yN	-99
-2.44223	z	-99
-1.854568	{	-99
-2.582109	|	-99
-3.803958	|=	-99
-2.866106	||	-99
-1.857833	}	-99
-2.7496	~	-99

\2-grams:
-0.9128498	! !	-0.507656
-0.7237936	! (	-0.04841737
-1.954242	! )
-1.653213	! *
-1.954242	! --
-1.477121	! </s>
-1.954242	! D
-1.954242	! H
-1.954242	! K
-1.176091	! O	-0.725299
-1.653213	! O9	0
-1.954242	! P
-1.954242	! Q
-1.954242	! Q0
-1.954242	! Q2
-1.477121	! QO	-0.3521825
-1.954242	! _0
-1.477121	! b
-1.954242	! c
-1.653213	! g
-1.653213	! i
-1.653213	! j
-1.954242	! k
-1.653213	! l
-1.954242	! memcmp
-1.653213	! n
-1.954242	! o
-1.954242	! printf
-1.653213	! s
-1.954242	! setjmp
-1.954242	! stat
-1.954242	! strcmp
-1.653213	! t
-1.255273	! u	-0.6856061
-1.477121	! v	-0.5577058
-1.653213	! x
-1.954242	! z
-1.322219	!= '
-1.322219	!= -
-1.322219	!= 0
-1.322219	!= 98
-1.322219	!= B
-1.021189	!= EOF	-0.2138799
-1.322219	!= NULL
-1.021189	!= b	-0.4301994
-1.322219	!= bk
-1.322219	!= f
-1.021189	!= gln	-0.3143939
-1.021189	!= h	-0.465222
-1.322219	!= mvinch
-1.322219	!= sizeof
-1.322219	!= trp
-1.322219	!= u
-1.322219	!= v
-0.5740313	" "
-1.477121	" "%d
-1.477121	" %d\n"
-1.477121	" %u/%u
-0.8750613	" )	-0.5713536
-0.8750613	" ,	-0.2964536
-1.477121	" ,101
-1.477121	" </s>
-1.477121	" ETIANMSURWDKGOHVF:L:PJBXCYZQ::54:3:::2&:+::::16=/:::(:7:::8:90"
-1.477121	" Type
-1.477121	" \n\t"
-1.477121	" c
-1.477121	" ipt
-1.477121	" ket
-1.477121	" mageData
-1.477121	" ontext
-1.477121	" teI
0	"!:E%;!ea!!!WqE0z!f/y}!%!!Qi6!uzt!n}?]!bl!ak!SetR<" </s>
0	"!pv!;!Hm%Ro4" "n:}nkD!Q!kN"
-0.845098	"" "@CADBEHI"
-0.845098	"" ,
-0.544068	"" :
-0.3679768	"" </s>
0	"#" )	-0.5500982
0	"$" ,
0	"%c" ,
0	"%d "
0	"%d,%dd%d\n" ,
0	"%d\n" ,
0	"%da%d,%d\n" ,
0	"%da%d\n" ,
0	"%dd%d\n" ,
0	"%f,%f," ,
-0.69897	"%s" "\",\"%s\",\"%s\"},
-0.09691001	"%s" ,	-0.2969134
0	"('A)" ,
-0.30103	"('A`)" </s>
-0.30103	"('A`)" }
0	"(A`)" ,
0	"(O**" </s>
0	")" )
0	")$" ;
0	");" )
0	"*" ""
0	"*_[512],**p=_,**d,b,q;for(b=0;b" "++<512;p=_+q)_[q"
0	"*p=#b,P[9999],*d=P,*e[]=" "{\"%s\",
0	"++<512;p=_+q)_[q" </s>
0	"-" ,
0	"/" )
0	"/*;; "
0	"11\x80" [
0	"258EAFA5-" "E914-47DA-95CA-C5AB0DC85B"
0	"8!@dP,!!o+fb" </s>
0	"::::::::::::?_::::\"::.::::@:::'::-::::::::;!:):::::,:::::" ;
-0.4771213	";" )
-0.4771213	";" :
-0.4771213	";" </s>
0	";;" )
0	";Gam" "eQover."
0	";GlockQ18" "C:"
0	";Heca" "t"
0	";Time:Q" )
0	";^Q<d|8=o;]Q<dj8<Pk8<c]'?;QQdi8?P'Q)d8<9`8?c;Qdh8=P']Q<`c8>PQ9_8" </s>
0	"< "
0	"<" ,
0	"<;iQ=/*do<;dQ=ook8?boc;aQ=odr8>oc;_Q<ox8>oc" </s>
0	"<o_Q<o_QBdo`QQ';`Q=9`]8=bobQ_o_Q<o]8=';bQC(88cQ`bcgQ>oP']8<;cQ>98)^Q?''oc`Q>" </s>
0	"=(p-_+1)*9%512]=(O*)p;" )
0	"=:$" ,
0	"> "	-0.4149733
0	">b;og8=''`Q<`b8?'QQ9_8?c;dPe8dQa8<P]Q<``8=;'f8>QQ`]8?ocQQ_8=''_Q`8aQ" </s>
0	"?guhljL!^P% ?"
0	"@" ,
0	"@+-" ,
0	"@CADBEHI" )
0	"C:" "Q"
0	"CYOUQWIN!]Q=;of8BQQ)88bc]QA98P'Qo]8>oQQ_8CP;QQ98b`_8@P8(Q`]'^Q=`']QB)88" </s>
0	"E914-47DA-95CA-C5AB0DC85B" "11\x80"
0	"HTTP/1.1 "
0	"M@K~|JOEF\\^~_NHI]" ;
0	"NBLF\1Nblfgjmf\1" ,
0	"Q" )	-0.4744436
0	"Q(j" "a"
0	"Q(jam" </s>
0	"Zj$x!~V!n&g8!cK! KrgR'8@c]!%-q9V.3fa[E8X%dY'w!#H
0	"\",\"%s\",\"%s\"}, b\nq(%s)\n"
0	"\40main(){O" ""
0	"\n" )
0	"\n\n\n" </s>
0	"\xe2%c%c\r\n" O_
0	"a" "m"
0	"bQQ]`8J;QQ`88bc99bd(`8iQ@''QQo^8E'`8c;QQ'Q``8?QQ`'kQ<o]8B9PQQ`';_Q<`_8<cbQ" </s>
-0.30103	"d" ")"
-0.30103	"d" )
0	"e.6!r!%l6G!n~^<i=%pEwL%P!'<!FQt%u 5toG57j/3"
0	"e:| 'b5sc!e"
0	"eQII:" "Q"
0	"eQover." </s>
0	"etu" "rn+0;}\n"
0	"fl!" [
0	"hello world!"
0	"laugh" )
0	"m" "me"
0	"me" "d"
0	"med);" )
0	"n:}nkD!Q!kN" </s>
0	"o(" )
0	"oc']Q]8<;cQ>`8bbQA``QQ''`Q?88P;dQ=`)nQ?*/;;" ;
0	"oid o(O
-0.1249387	"r" )	-0.4251595
-0.60206	"r" </s>
0	"rn+0;}\n" )
0	"syntax_error!" </s>
0	"t" "eQII:"
0	"throw up"
0	"usage: %s
0	"{;}" :
0	"{\"%s\", \""
0	"|~0y'vWtA@:LcO9d}y.!uL!Gd+ml(<+Ds!J" </s>
0	"}$" :
-1.759668	% %
-2.060698	% &
-1.583577	% (	-0.4698498
-2.060698	% -
-2.060698	% .27
-2.060698	% /
-2.060698	% 03
-2.060698	% 1500
-1.759668	% 16
-2.060698	% 176
-2.060698	% 198
-0.9145698	% 2	-0.5673692
-1.2156	% 3	-0.6580114
-2.060698	% 32
-2.060698	% 384
-1.282547	% 4	-0.02199428
-1.583577	% 5
-2.060698	% 512
-2.060698	% 6
-1.458638	% 64
-2.060698	% 7
-2.060698	% 768
-1.583577	% 8
-2.060698	% 86400
-2.060698	% 93
-2.060698	% :
-1.458638	% </s>
-2.060698	% I
-1.759668	% M
-2.060698	% N
-2.060698	% N4
-2.060698	% N8b
-2.060698	% N9b
-1.759668	% O
-2.060698	% O3
-2.060698	% O4
-1.2156	% Q	-0.7685409
-1.759668	% QQ
-2.060698	% Qr
-2.060698	% R
-2.060698	% ]
-2.060698	% ^
-2.060698	% _
-2.060698	% _h
-2.060698	% c
-2.060698	% c9
-2.060698	% d8
-2.060698	% dA
-2.060698	% dB
-2.060698	% dC
-1.361728	% g
-2.060698	% lNRmO_loa8
-2.060698	% mR
-2.060698	% mRMmO
-2.060698	% mRh
-2.060698	% mS
-2.060698	% n
-2.060698	% q
-2.060698	% rQ
-2.060698	% s
-2.060698	% strlen
-2.060698	% w
-1.759668	% {
-0.60206	%= 1
-0.60206	%= 64
-0.60206	%= 8
-0.60206	%= z
0	%d\n" ,
0	%s [-d]
0	%u/%u "
-2.08636	& !
-2.08636	& %
-1.78533	& (
-1.4843	& *	-0.5959215
-2.08636	& --
-2.08636	& 0
-2.08636	& 0x3f0
-2.08636	& 0xf
-2.08636	& 0xfe0
-2.08636	& 0xff00ff00ff
-1.308209	& 1	-0.1879905
-2.08636	& 1008
-1.609239	& 1023	0
-2.08636	& 12
-2.08636	& 128
-2.08636	& 14
-1.38739	& 15	-0.154902
-1.78533	& 16
-1.78533	& 16711935
-2.08636	& 16774143
-1.308209	& 3	-0.5993371
-2.08636	& 31
-2.08636	& 32
-2.08636	& 4
-2.08636	& 4092
-1.78533	& 4190208	0
-2.08636	& 6
-1.4843	& 63	0
-2.08636	& 64
-2.08636	& 65280
-2.08636	& 7
-2.08636	& 8
-2.08636	& 9
-2.08636	& ;
-2.08636	& <
-1.4843	& </s>
-2.08636	& B
-2.08636	& C
-2.08636	& L
-1.78533	& M
-1.78533	& N
-2.08636	& O
-1.78533	& OO
-1.78533	& Q
-2.08636	& S
-2.08636	& T
-2.08636	& TmS
-2.08636	& ^
-1.78533	& _
-2.08636	& a
-1.78533	& arg	0.2218488
-2.08636	& asn
-2.08636	& bE
-2.08636	& bn
-2.08636	& bo
-2.08636	& bv
-1.78533	& c
-2.08636	& d
-2.08636	& e
-1.78533	& glu	-0.1760913
-2.08636	& h
-2.08636	& i
-2.08636	& k
-2.08636	& kccMcOP
-2.08636	& kckQ
-1.609239	& not	-0.5749078
-1.78533	& o
-2.08636	& p
-2.08636	& pRM7O
-2.08636	& r
-1.78533	& tyr	-0.3222193
-2.08636	& u
-2.08636	& v
-2.08636	& w
-1.78533	& x
-2.08636	& y
-1.78533	& z	-0.464347
-1.78533	& ~	-0.3928004
-1	&& !	-0.306425
-0.4628808	&& (	-0.3713118
-1.653213	&& *
-1.954242	&& ++
-1.954242	&& 0
-1.954242	&& 101
-1.954242	&& 258063
-1.954242	&& 34
-1.653213	&& </s>
-1.477121	&& A	-0.3785115
-1.954242	&& B
-1.954242	&& F
-1.954242	&& G
-1.954242	&& R
-1.954242	&& T
-1.954242	&& Z
-1.954242	&& _
-1.954242	&& _0
-1.477121	&& a	-0.4604156
-1.954242	&& b
-1.954242	&& bf
-1.954242	&& bg
-1.954242	&& d
-1.954242	&& fscanf
-1.954242	&& g
-1.954242	&& h
-1.954242	&& j
-1.653213	&& n
-1.653213	&& o	-0.3968922
-1.954242	&& putchar
-1.954242	&& q
-1.954242	&& r
-1.954242	&& read
-1.352183	&& s	-0.2943484
-1.352183	&& v	-0.571494
-1.954242	&& x
-1.653213	&& y	-0.4575991
0	&= z
-0.4393327	' '	-0.2138798
-1.041393	' )
-0.7403627	' </s>
-1.041393	' M8q;k'
-1.041393	' Q
-1.041393	' nR
-1.041393	' ||
0	'( 0d:`184>b)^15)OM
-0.30103	'128' height
-0.30103	'128' style
0	'2O 3'
0	'2d' )
0	'7M{N^kh '
0	'=' )
0	'Q] bh'
0	'\n' )
0	'_3a N_1'
0	'a' ,
0	'b5sc!e" </s>
0	'c' width
0	'd' :
0	'h(Q]0h# c_kah%0d9`b'
0	'lQ O^ln
0	'nSM8 '
0	'width:256px;height:256px' </s>
0	'ws' +
0	'|' :
-1.918096	( !	-0.1918855
-2.821186	( "
-3.122216	( ""
-2.645095	( "#"	0
-3.122216	( "%c"
-3.122216	( "%d,%dd%d\n"
-3.122216	( "%d\n"
-3.122216	( "%da%d,%d\n"
-3.122216	( "%da%d\n"
-3.122216	( "%dd%d\n"
-3.122216	( "%s"
-3.122216	( "(O**"
-3.122216	( ");"
-3.122216	( "*"
-3.122216	( "-"
-3.122216	( "/*;;
-2.821186	( ";"
-3.122216	( ";Heca"
-3.122216	( ";Time:Q"
-3.122216	( "<
-3.122216	( "<"
-3.122216	( ">
-3.122216	( "@"
-3.122216	( "@+-"
-3.122216	( "HTTP/1.1
-2.821186	( "Q"	0
-3.122216	( "\n"
-3.122216	( "hello
-3.122216	( "laugh"
-3.122216	( "o("
-3.122216	( "r"
-3.122216	( "throw
-2.520156	( %
-2.122216	( &	-0.275368
-3.122216	( '
-3.122216	( '2d'
-3.122216	( 'ws'
-1.39794	( (	-0.2719345
-1.163175	( )	-0.8561221
-1.542432	( *	-0.3583254
-2.520156	( ++
-2.821186	( ,	-0.4748391
-2.219126	( -
-3.122216	( .05
-2.821186	( .5
-2.821186	( /
-1.760488	( 0	-1.035587
-3.122216	( 075
-1.707242	( 1	-0.6230338
-3.122216	( 10
-3.122216	( 105
-2.821186	( 12
-3.122216	( 13
-2.821186	( 16	-0.4065402
-3.122216	( 1912
-3.122216	( 1LL
-1.843462	( 2	-0.6142825
-3.122216	( 22
-3.122216	( 24
-3.122216	( 255
-3.122216	( 256L
-3.122216	( 2l
-2.008272	( 3	-0.40583
-3.122216	( 30
-2.821186	( 32
-3.122216	( 34
-3.122216	( 38
-2.122216	( 4	-0.4937205
-3.122216	( 40
-2.821186	( 41	0
-2.821186	( 42	0.2218488
-3.122216	( 45
-2.423246	( 5	-0.5785789
-3.122216	( 59
-2.821186	( 6
-2.821186	( 60
-2.821186	( 64	-0.2430381
-3.122216	( 67
-3.122216	( 7
-3.122216	( 70
-2.645095	( 8	-0.4522977
-2.344065	( 9
-3.122216	( 97
-3.122216	( 99999
-1.866943	( ;	-0.7572607
-1.707242	( </s>
-3.122216	( =
-2.167973	( A	-0.2272438
-2.277118	( B	-0.4147202
-1.866943	( C	-0.2382392
-2.277118	( D	-0.2710668
-2.645095	( E	-0.3732251
-2.167973	( F	-0.2750166
-2.821186	( FILE	0
-2.520156	( G	-0.1091444
-2.080823	( H	-0.08031074
-2.423246	( I	-0.6618282
-2.821186	( J
-2.080823	( K	-0.2632414
-1.389822	( L	-0.9321282
-3.122216	( LINES
-2.344065	( M	-0.2498775
-2.277118	( N	-0.5656078
-1.821186	( O	-0.3521826
-3.122216	( O0
-2.520156	( O2	-0.1549019
-3.122216	( O3
-3.122216	( O4
-2.821186	( O5
-3.122216	( O6
-2.821186	( OO
-2.645095	( O_o	0
-2.043035	( P	-0.9270902
-1.866943	( Q	-0.3565474
-2.645095	( Q0	-0.3521825
-2.821186	( Q1
-3.122216	( Q2
-3.122216	( Q5
-3.122216	( Q6
-2.645095	( QO	-0.4259688
-3.122216	( QQ
-2.167973	( R	-0.4235385
-3.122216	( RAFT
-1.918096	( T	-1.005666
-2.520156	( U	-0.6179368
-2.423246	( V
-2.344065	( W	-0.6981091
-1.675058	( X	-0.5385355
-3.122216	( XCheckWindowEvent
-3.122216	( XMapWindow
-2.645095	( Y
-2.344065	( Z
-3.122216	( ^
-2.043035	( _	-0.4893557
-2.423246	( _O	-0.1249387
-2.821186	( _Q
-2.520156	( __
-3.122216	( __LINE__
-3.122216	( __STDC_VERSION__
-1.707242	( a	-0.1082331
-2.821186	( ala	-0.3309932
-1.779793	( and	-0.9094301
-2.520156	( asn	0.1139433
-2.821186	( asp	0
-3.122216	( asx
-1.976088	( b	-0.4542937
-3.122216	( be
-2.821186	( bk	-0.1760913
-3.122216	( br
-2.821186	( bu
-2.821186	( buf
-3.122216	( by
-2.043035	( c	-0.1577639
-3.122216	( cN
-3.122216	( calloc
-3.122216	( cb
-2.167973	( char	-0.4881166
-2.645095	( const	-0.4357286
-3.122216	( cos
-3.122216	( curs_set
-2.520156	( cys	-0.2218488
-1.918096	( d	-0.2310739
-3.122216	( dup2
-2.167973	( e	-0.1383027
-3.122216	( elta_u
-3.122216	( elta_v
-2.043035	( f	-0.3579348
-3.122216	( float_
-3.122216	( flu
-1.891767	( g	-0.3188708
-3.122216	( gln
-3.122216	( glu
-2.080823	( h	-0.6635226
-1.554014	( i	-0.2907688
-2.645095	( ile
-1.976088	( int	-0.1515909
-3.122216	( int_
-1.760488	( j	-0.4762011
-1.891767	( k	-0.6124007
-1.976088	( l	-0.1476028
-3.122216	( lQ
-3.122216	( lQoOa
-3.122216	( luN
-2.821186	( lys
-2.080823	( m	-0.5460974
-3.122216	( memcpy
-3.122216	( memset
-2.423246	( met	-0.4259687
-1.760488	( n	-0.2131252
-1.821186	( not	-0.9600525
-1.946125	( o	-0.6027135
-3.122216	( open
-1.946125	( p	-0.225394
-3.122216	( pread
-3.122216	( prin
-3.122216	( printf
-3.122216	( pro
-2.821186	( puts	0.3679768
-2.344065	( q	-0.2730013
-3.122216	( qQ
-2.423246	( r
-3.122216	( rR
-2.122216	( s	-0.1979991
-2.821186	( sec	-0.2218488
-2.219126	( ser	-0.3899711
-3.122216	( short
-3.122216	( sizeof
-3.122216	( stdout
-2.520156	( sym_	0
-2.122216	( t	-0.1881319
-3.122216	( tQ
-3.122216	( tla
-2.277118	( u	-0.2966209
-3.122216	( uU
-3.122216	( usl
-1.891767	( v	-0.2475749
-3.122216	( val
-2.821186	( void
-2.423246	( w	-0.1970252
-2.008272	( x	-0.1689612
-2.219126	( xor	-0.5286311
-1.946125	( y	-0.2839966
-2.344065	( z	-0.5303668
-3.122216	( {
-3.122216	( }
-3.122216	( ~
-2.450249	) !=	-0.1783831
-3.149219	) "\xe2%c%c\r\n"
-2.003091	) %	-0.3309429
-2.304121	) &
-1.870466	) &&	-0.1106313
-1.547159	) (	-0.3290587
-0.947822	) )	-0.5400231
-1.246129	) *	-0.3652709
-2.371068	) *=	-0.7621238
-1.672098	) +	-0.2097342
-2.246129	) +=	-0.2646492
-1.199829	) ,	-0.273192
-1.870466	) -	-0.2030763
-3.149219	) --
-2.450249	) -=
-3.149219	) .0
-1.973128	) /	-0.2409417
-3.149219	) 0
-3.149219	) 0u
-2.848189	) 16u	0
-2.848189	) 1u
-3.149219	) 21
-3.149219	) 64u
-3.149219	) 8u
-1.657857	) :	-0.3161857
-0.5941247	) ;	-0.348034
-2.304121	) <	-0.1401787
-1.251592	) </s>
-2.246129	) <<	-0.2451722
-2.547159	) =
-2.547159	) ==
-2.304121	) >	-0.1940516
-2.672098	) >=
-2.450249	) >>	-0.305186
-1.973128	) ?	-0.1446828
-2.371068	) B	-0.69897
-2.848189	) E3	0
-2.848189	) F	-0.3350145
-3.149219	) F0
-3.149219	) F1
-2.070038	) G	-0.4893556
-2.304121	) J	-0.544068
-3.149219	) K
-2.672098	) L	-0.2821447
-3.149219	) O
-3.149219	) O5
-2.547159	) O_	0.2552725
-3.149219	) P
-2.848189	) Q
-2.848189	) QR	0
-3.149219	) QS
-3.149219	) Q_
-2.848189	) R
-3.149219	) S
-3.149219	) U
-2.848189	) W	-0.2857133
-3.149219	) X
-3.149219	) Y
-2.672098	) [
-2.848189	) ]
-2.848189	) ^
-3.149219	) _d
-2.848189	) a
-2.848189	) asx
-2.848189	) b
-2.848189	) bd	0
-2.672098	) break	0.6283889
-3.149219	) bt
-3.149219	) by
-2.848189	) c
-3.149219	) continue
-2.848189	) d
-2.848189	) d8
-2.848189	) e	-0.4107772
-3.149219	) err
-2.672098	) exit	0
-2.107826	) for	0.1938201
-3.149219	) g
-3.149219	) glx
-2.848189	) h
-2.547159	) i
-2.371068	) if	0.7051303
-3.149219	) int
-3.149219	) j
-3.149219	) k
-3.149219	) l
-3.149219	) lys
-3.149219	) n
-2.848189	) not
-3.149219	) o
-3.149219	) printf
-3.149219	) putchar
-2.848189	) q
-2.672098	) r	-0.3993616
-2.848189	) return
-2.450249	) s	-0.1339612
-3.149219	) scanf
-3.149219	) sec
-3.149219	) t
-2.672098	) tyr
-2.672098	) u	-0.3651475
-2.848189	) v
-2.672098	) w	-0.4259688
-3.149219	) x
-2.672098	) z
-0.8249366	) {	-0.1351323
-2.304121	) |	-0.146128
-2.547159	) ||	-0.4881167
-2.848189	) ~
-1.977724	* !	-0.0851716
-1.093117	* (	-0.1929817
-1.714482	* )	-0.07465163
-1.609747	* *	-0.06312038
-2.755875	* +
-1.852785	* ++	-0.5735714
-2.755875	* ,
-2.755875	* -
-2.278754	* --
-2.755875	* .1
-2.755875	* .5
-2.454845	* 0
-2.755875	* 1
-2.755875	* 1.6937441874215991e190
-2.153815	* 10	-0.2340832
-2.755875	* 11
-2.755875	* 1103515245
-2.755875	* 12
-2.153815	* 16	-0.2304489
-2.755875	* 17
-2.755875	* 193
-1.714482	* 2	-0.01156901
-2.755875	* 23
-2.056905	* 3	-0.19382
-2.755875	* 32
-2.755875	* 39
-1.609747	* 4	-0.248642
-2.755875	* 4.522871578970112e217
-2.755875	* 4.6727004911171048e-153
-2.454845	* 42
-2.755875	* 51
-2.755875	* 512L
-2.755875	* 5298487
-2.755875	* 6
-2.454845	* 7
-2.755875	* 7.90055321525613e115
-2.454845	* 768	-0.1760913
-2.278754	* 8
-1.755875	* 80	-0.455932
-2.755875	* 81
-2.755875	* 85
-2.755875	* 881
-2.278754	* 9
-2.755875	* 92
-1.413452	* </s>
-2.153815	* A	-0.2507249
-2.454845	* B
-2.153815	* C	-0.6264194
-2.755875	* D
-1.910777	* E	-0.08681404
-2.454845	* H
-2.056905	* I	-0.6160706
-1.910777	* K	-0.3099848
-2.153815	* L	-0.2756625
-2.755875	* L_tmpnam
-1.977724	* N	-0.3964653
-2.278754	* O	-0.424269
-2.056905	* O0	-0.5392692
-2.454845	* O3
-2.755875	* O4
-2.454845	* O6
-1.714482	* Q	-0.3320642
-2.755875	* Q0
-2.755875	* Q1
-2.755875	* Q2
-2.153815	* Q3	-0.1249387
-2.755875	* Q5
-2.755875	* Q7
-2.755875	* Q9
-2.755875	* QO
-2.454845	* QQ	-0.30103
-2.454845	* R
-2.454845	* S
-1.340901	* T	-0.7130689
-2.755875	* U
-2.755875	* V
-2.454845	* W
-1.852785	* X	-0.01970332
-2.056905	* Y	-0.2044747
-2.755875	* ]
-1.852785	* _	-0.3960055
-2.153815	* _0
-2.755875	* _O
-1.714482	* a	-0.6595395
-1.755875	* b	-0.1749269
-2.755875	* bD
-2.755875	* ba
-2.278754	* bb	-0.30103
-2.755875	* be
-2.755875	* br
-2.755875	* bx
-2.056905	* c	-0.2109454
-2.755875	* c_X
-2.056905	* const	-0.6118199
-1.676694	* d	-0.170328
-1.714482	* e	-0.348413
-1.755875	* f	-0.537819
-1.801632	* g	-0.5641122
-2.153815	* i
-2.278754	* j
-2.454845	* k
-2.153815	* l
-2.454845	* m
-1.977724	* n	-0.6532125
-2.056905	* not	-0.4667628
-1.264513	* o	-0.7184116
-1.308717	* p	-0.3385218
-2.755875	* printf
-1.579784	* q	-0.2730012
-2.278754	* r	-0.4399795
-1.676694	* s	-0.1614823
-2.755875	* sin
-2.153815	* sizeof	0.5118834
-2.278754	* t
-2.454845	* tyr
-1.609747	* u	-0.2178826
-2.454845	* x
-2.056905	* y	-0.3365257
-2.454845	* z
-1.662758	*= !
-1.361728	*= (
-1.361728	*= -	-0.410652
-1.662758	*= 0
-1.662758	*= 0.7
-1.662758	*= 02
-1.185637	*= 1	-0.4368581
-1.662758	*= 256
-1.662758	*= C
-1.662758	*= I
-0.8846066	*= Q	-0.7302764
-1.361728	*= Y	-0.4130037
-1.662758	*= _
-0.7596679	*= g	-0.8651422
-0.6627578	*= o	-0.9766206
-1.361728	*= s	-0.4390312
-1.662758	*= t
-1.662758	*= u
-1.662758	*= z
0	*m,!*m?H:" upgrade
-2.128722	+ !
-2.429752	+ "fl!"
-0.8734498	+ (	-0.3306129
-1.730782	+ )	-0.627845
-1.827692	+ *
-2.429752	+ ,
-1.952631	+ 0
-2.429752	+ 0.5
-0.9825943	+ 1	-0.6187017
-2.429752	+ 1.5
-2.429752	+ 11
-2.429752	+ 12
-2.429752	+ 128L
-2.429752	+ 138
-2.128722	+ 16
-2.429752	+ 18
-2.429752	+ 19205553
-1.429752	+ 2	-0.2114667
-2.429752	+ 20
-2.429752	+ 287
-2.429752	+ 2L
-1.651601	+ 3	-0.20412
-2.429752	+ 32
-2.128722	+ 4	-0.3230243
-2.429752	+ 4.5
-2.429752	+ 42
-2.429752	+ 44
-2.429752	+ 4L
-1.952631	+ 5	-0.4288166
-2.128722	+ 512
-2.429752	+ 58
-2.429752	+ 6
-2.429752	+ 667
-2.128722	+ 7
-2.429752	+ 74
-2.429752	+ 79
-2.128722	+ 8
-2.429752	+ 84
-2.429752	+ 86400
-2.429752	+ 99
-1.47551	+ </s>
-2.429752	+ A
-2.128722	+ B	-0.4210053
-2.429752	+ C
-2.429752	+ E
-2.429752	+ EOF
-1.952631	+ F
-1.952631	+ H
-2.429752	+ J
-1.952631	+ N	-0.3994097
-2.429752	+ O4
-2.429752	+ P
-2.429752	+ Q
-2.429752	+ Q0
-2.429752	+ Q5
-2.429752	+ R
-2.429752	+ T
-2.429752	+ TMP_MAX
-2.429752	+ V
-2.429752	+ X
-2.429752	+ Y
-2.429752	+ _Q
-2.128722	+ __STDC__
-1.584654	+ a	-0.4632449
-2.429752	+ abs
-2.429752	+ asn
-2.429752	+ b
-1.827692	+ c
-2.429752	+ cos
-1.952631	+ d	-0.4222726
-1.952631	+ e
-2.128722	+ f
-1.827692	+ g	-0.2903937
-1.315809	+ i	-0.5778843
-2.128722	+ j	-0.4631105
-1.952631	+ k	-0.3968922
-1.952631	+ l
-2.429752	+ location
-1.952631	+ m
-1.730782	+ n	-0.2016454
-1.584654	+ o
-2.128722	+ p
-2.429752	+ q
-1.651601	+ s	-0.7612505
-2.429752	+ sTaa
-1.952631	+ t	-0.4665282
-1.730782	+ u	-0.6488034
-2.429752	+ unk
-2.128722	+ v
-2.429752	+ wnS
-1.827692	+ x	-0.1940196
-2.429752	+ y
-1.952631	+ z	-0.5693909
-1.952631	+ ~
-1.498311	++ %	-0.6716959
-2.100371	++ &
-2.100371	++ &&
-0.7993405	++ )	-0.02438331
-1.799341	++ *
-2.100371	++ +=
-1.255273	++ ,	-0.3564441
-1.799341	++ -
-2.100371	++ /
-1.799341	++ :	-0.4398322
-1.021189	++ ;	-0.09698033
-1.322219	++ <
-1.401401	++ </s>
-2.100371	++ <=
-1.058978	++ =	-0.3314405
-2.100371	++ ==
-2.100371	++ ?
-1.799341	++ N
-1.498311	++ T	-0.5795527
-1.146128	++ ]	-0.2726964
-1.799341	++ c
-2.100371	++ f
-2.100371	++ g
-1.623249	++ i	-0.5628663
-2.100371	++ ile
-1.498311	++ j
-2.100371	++ l
-2.100371	++ leu
-2.100371	++ n
-1.623249	++ not	-0.2449141
-2.100371	++ p
-2.100371	++ q
-1.799341	++ s	-0.3892338
-2.100371	++ s_4
-1.799341	++ tla	-0.1760913
-2.100371	++ u
-2.100371	++ v
-1.322219	++ xor	-0.7716691
0	+99*! *m,!*m?H:"
-1.447158	+= !	-0.2863067
-2.049218	+= 'a'
-0.9700368	+= (	-0.2788398
-2.049218	+= .05
-2.049218	+= .1
-2.049218	+= 0.5
-1.572097	+= 1	-0.4033351
-2.049218	+= 1.5
-2.049218	+= 16
-2.049218	+= 194
-1.447158	+= 2	-0.4476463
-2.049218	+= 21
-2.049218	+= 4
-2.049218	+= 4u
-2.049218	+= 5
-2.049218	+= 7
-2.049218	+= A
-1.748188	+= E	-0.4070834
-1.748188	+= F	-0.4457128
-1.447158	+= H	-0.6003602
-2.049218	+= K
-2.049218	+= M
-1.447158	+= O1
-2.049218	+= O8
-2.049218	+= Q
-1.748188	+= U
-2.049218	+= UV_DROP
-1.748188	+= V	-0.3995164
-1.572097	+= Y	-0.4507923
-2.049218	+= _
-1.572097	+= a	-0.4430415
-1.748188	+= be	-0.05115253
-1.748188	+= bf	-0.30103
-2.049218	+= bt
-2.049218	+= c
-1.572097	+= d	-0.4222726
-1.748188	+= e	-0.4065402
-1.447158	+= g	-0.2119297
-2.049218	+= h
-1.350248	+= i	-0.6298131
-1.350248	+= l	-0.3309932
-1.094975	+= o	-0.4473449
-1.748188	+= p
-2.049218	+= printf
-2.049218	+= r
-1.748188	+= s	-0.4602205
-1.748188	+= u
-1.748188	+= v
-1.572097	+= w	-0.5417641
-2.979548	, !
-2.979548	, "
-2.979548	, ""
-2.502427	, "$"	0
-2.502427	, "%s"	0.09691
-2.979548	, "('A)"
-2.979548	, "('A`)"
-2.979548	, "(A`)"
-2.979548	, "=:$"
-2.678518	, ">	0
-2.979548	, "d"
-2.502427	, "r"	0
-2.979548	, "usage:
-1.865605	, &	-0.06537209
-1.775428	, (	-0.1971817
-2.280578	, )	-0.1698869
-1.326336	, *	-0.2642792
-2.502427	, ++	-0.4631105
-2.502427	, ,
-2.377488	, -	-0.5355908
-2.979548	, --
-1.194219	, 0	-1.479393
-2.979548	, 0x98BADCFE
-2.979548	, 0xEFCDAB89
-1.617821	, 1	-1.153974
-2.979548	, 128
-2.502427	, 16	-0.4471581
-1.979548	, 2	-0.4464246
-2.979548	, 24
-2.979548	, 256
-2.280578	, 3	-0.19382
-2.979548	, 3.9999e5
-2.979548	, 30
-2.979548	, 308438
-2.502427	, 32	-0.4074853
-2.979548	, 3285377520
-2.979548	, 4
-2.979548	, 5
-2.678518	, 6	-0.366423
-2.979548	, 60
-2.979548	, 65544
-2.678518	, 8
-2.979548	, 85
-2.979548	, 9
-2.979548	, <
-1.316791	, </s>
-2.201397	, A	-0.3143939
-2.025306	, B	-0.8336687
-1.938156	, C	-0.2673974
-2.377488	, D
-2.979548	, DefaultGC
-2.979548	, DefaultVisual
-2.377488	, E	-0.241716
-2.979548	, EOF
-2.280578	, F	-0.6452851
-2.678518	, G	-0.3802113
-2.280578	, H	-0.5648879
-2.280578	, I	-0.6126102
-2.502427	, J
-1.865605	, K	-0.9412318
-2.201397	, L	-0.5374171
-2.377488	, M	-0.1249387
-1.938156	, N	-0.4746607
-1.83342	, O	-0.3222193
-2.201397	, O0	-0.4301247
-2.979548	, O1
-2.678518	, O2
-2.979548	, O3
-2.979548	, O4
-2.678518	, O5
-2.979548	, O6
-2.979548	, O7
-2.979548	, O8
-2.979548	, O9
-2.678518	, OO
-2.502427	, P
-1.900367	, Q	-0.07808315
-2.377488	, Q0	-0.4648868
-2.678518	, Q1
-2.502427	, Q2	-0.3309932
-2.979548	, Q3
-2.502427	, Q4
-2.979548	, Q5
-2.678518	, Q6
-2.979548	, Q7
-2.979548	, Q8
-2.979548	, Q9
-2.502427	, QO	-0.39794
-2.979548	, QQ
-2.979548	, QS
-1.356299	, R	-1.362402
-2.979548	, RootWindow
-2.201397	, S
-2.678518	, SEEK_SET	0
-2.13445	, T	-0.3500652
-2.979548	, TIOCGWINSZ
-2.377488	, U	-0.542746
-2.678518	, V
-2.201397	, W	-0.7328712
-2.678518	, X
-2.502427	, Y	-0.441649
-1.488187	, _	-0.6084751
-2.979548	, _0
-2.502427	, _O	-0.3802113
-2.502427	, _Q	-0.3802113
-2.377488	, __	-0.2466723
-2.979548	, _f
-2.979548	, _i
-2.025306	, a	-0.2906645
-2.979548	, arg
-1.865605	, b	-0.298669
-2.678518	, bA
-2.678518	, bB
-2.678518	, bC
-2.678518	, bD
-2.979548	, bb
-2.979548	, be
-2.678518	, bf	-0.30103
-2.979548	, bg
-2.979548	, bi
-2.979548	, bo
-2.979548	, bq
-2.979548	, bt
-2.979548	, bu
-2.979548	, bv
-2.678518	, bz
-1.900367	, c	-0.3674637
-2.979548	, c8
-1.979548	, char	-0.4881166
-2.377488	, const	-0.4357286
-1.617821	, d	-0.5557115
-2.678518	, dstr	0
-2.979548	, dup
-1.83342	, e	-0.4929155
-2.979548	, eep
-2.201397	, f	-0.7427251
-2.979548	, fopen
-2.13445	, g	-0.7010664
-2.678518	, gln	-0.3143939
-2.502427	, glu	-0.1760913
-2.13445	, h	-0.5136854
-2.979548	, halting
-2.979548	, ho
-1.678518	, i	-0.4443143
-2.13445	, int	-0.1235622
-2.979548	, intw
-2.979548	, ioctl
-1.749099	, j	-0.3792767
-2.025306	, k	-0.3968922
-1.938156	, l	-0.8210185
-2.979548	, lea
-2.979548	, longjmp
-2.678518	, lu
-2.678518	, lv
-2.979548	, lys
-1.938156	, m	-0.5348164
-1.637126	, n	-0.2388821
-2.979548	, np
-1.775428	, o	-0.5482833
-2.979548	, oec
-2.979548	, op
-1.775428	, p	-0.2576392
-2.979548	, pow
-2.502427	, q
-2.025306	, r	-0.8221252
-2.979548	, rand
-2.025306	, s	-0.4129284
-2.979548	, shi
-2.377488	, sizeof	0.1139433
-2.979548	, sprintf
-2.979548	, stdin
-2.979548	, strlen
-2.979548	, sym_
-1.900367	, t	-0.3288952
-2.979548	, tape
-1.749099	, u	-0.916055
-2.979548	, unk
-2.979548	, usleep
-2.025306	, v	-0.1222954
-2.979548	, vad
-2.979548	, val
-2.979548	, vpr
-2.13445	, w	-0.2588323
-2.979548	, write
-1.938156	, x	-0.2354123
-2.025306	, y	-0.415707
-2.377488	, z
-2.979548	, ~
0	,101 +99*!
-2.180413	- &
-1.402261	- (	-0.2146439
-2.481443	- )
-2.004321	- *
-2.481443	- .05
-2.481443	- 0.5
-0.8479742	- 1	-0.2532573
-2.481443	- 12
-2.481443	- 128
-2.481443	- 14202379
-2.481443	- 158
-2.481443	- 16
-2.481443	- 19
-2.481443	- 1933008
-1.782473	- 2	-0.163368
-2.481443	- 205
-2.481443	- 22
-2.481443	- 24
-2.481443	- 257
-1.578353	- 3	-0.1760912
-2.481443	- 30
-2.481443	- 304
-2.004321	- 32	-0.4494498
-2.180413	- 33	0
-2.481443	- 35
-2.481443	- 37
-2.481443	- 4
-2.481443	- 488848
-2.481443	- 4u
-2.481443	- 5
-2.481443	- 508
-2.481443	- 59
-1.782473	- 6	-0.1879905
-2.481443	- 60
-2.481443	- 64
-2.004321	- 7
-2.481443	- 7.5
-2.180413	- 8
-2.481443	- 89
-1.879383	- 9	-0.1413291
-2.180413	- 90
-1.481443	- </s>
-2.180413	- A
-2.481443	- Acce
-2.180413	- B
-2.004321	- D
-2.180413	- E
-2.004321	- EOF
-2.481443	- F
-1.879383	- H
-2.004321	- I	-0.3730327
-2.481443	- K
-2.481443	- L
-2.481443	- M
-2.481443	- O1
-2.481443	- O7
-2.180413	- OO	-0.39794
-2.481443	- P
-2.180413	- Q
-2.481443	- Q0
-2.481443	- QO
-2.481443	- R
-2.180413	- V
-2.004321	- W	-0.464026
-2.481443	- WebSocket
-2.481443	- X
-2.481443	- Y
-2.481443	- _O
-2.481443	- _Q
-2.004321	- __	-0.4227636
-1.703291	- a	-0.4430414
-2.180413	- asn	0.3357921
-1.703291	- b	-0.1681708
-1.578353	- c	-0.1028512
-1.703291	- d	-0.7761017
-2.481443	- d8
-2.481443	- dup2
-2.004321	- e
-1.578353	- f	-0.499687
-2.004321	- g	-0.388021
-2.004321	- h
-1.481443	- i	-0.4458964
-1.703291	- j	-0.4220737
-1.703291	- k	-0.1601031
-2.481443	- key
-2.481443	- l
-2.004321	- m
-1.636345	- n	-0.3004813
-2.004321	- o	-0.4473449
-1.782473	- p	-0.2110359
-2.481443	- q
-2.481443	- r
-2.180413	- s
-1.879383	- u	-0.5345646
-1.782473	- unk	-0.1760913
-1.703291	- v	-0.4280718
-2.004321	- x	-0.4296966
-1.367499	- ~	-0.0943478
-1.70757	-- &&
-0.7533277	-- )	-0.2810576
-1.40654	-- ,	-0.4627746
-1.70757	-- 1954
-0.6661775	-- ;	-0.07248754
-1.40654	-- </s>
-1.40654	-- =
-1.40654	-- >
-1.70757	-- E
-1.70757	-- H
-1.40654	-- O
-1.70757	-- R
-0.9294189	-- T	-0.750999
-1.40654	-- [
-1.70757	-- g
-1.40654	-- j
-1.70757	-- q
-1.70757	-- s
-1.70757	-- v
-1.70757	-- val
-1.70757	-- xor
-1.156347	-= (
-1.633469	-= 061
-1.633469	-= 2
-1.633469	-= 4
-1.633469	-= 80
-1.633469	-= </s>
-1.633469	-= D
-1.633469	-= F
-1.156347	-= H	-0.5034502
-1.633469	-= V
-1.633469	-= W
-1.633469	-= b
-1.332438	-= be	-0.05115253
-1.332438	-= bf	-0.30103
-1.156347	-= d	-0.4222726
-1.633469	-= e
-1.332438	-= f	-0.4116197
-1.031408	-= g	-0.5655432
-1.633469	-= h
-1.633469	-= i
-1.031408	-= l	-0.6320232
-1.633469	-= r
-1.633469	-= t
-1.156347	-= u	-0.4569179
-1.332438	-= w	-0.4168254
-1.875061	-> </s>
-1.273001	-> a	-0.2426477
-0.79588	-> b	-0.5186725
-0.7289332	-> j	-0.4717263
-1.029963	-> n	-0.6910009
-1.273001	-> not
-1.273001	-> op	-0.1918855
-1.875061	-> pixels
-1.39794	-> val
-0.8336686	-> x	-0.4240927
-0.8336686	-> y	-0.4045706
-1.39794	-> z
-2.037426	. &
-2.037426	. /
-1.736397	. </s>
-2.037426	. ]
-2.037426	. binary
-1.083184	. c	-0.4237197
-2.037426	. crea
-2.037426	. dat
-2.037426	. data
-1.435367	. e	-0.2304489
-2.037426	. getC
-2.037426	. href
-2.037426	. key
-2.037426	. keysym
-0.481124	. not	-0.6470271
-2.037426	. offsetLeft
-2.037426	. offsetTop
-2.037426	. onmousemove
-2.037426	. p
-2.037426	. pageY
-2.037426	. putImageData
-1.435367	. q	-0.5362427
-2.037426	. send
-2.037426	. set
-2.037426	. slice
-2.037426	. st_mtime
-2.037426	. st_size
-2.037426	. subs
-2.037426	. sym
-1.736397	. t
-2.037426	. type
-0.8333065	. val	-0.2340832
-2.037426	. xkey
-1.037426	. y	-0.1870866
0	.0 (
-0.4771213	.05 )
-0.4771213	.05 ;
-0.4771213	.05 </s>
-0.1760913	.1 )
-0.4771213	.1 :
0	.27 s
-0.4771213	.5 *
-0.4771213	.5 -
-0.4771213	.5 </s>
-1.94939	/ &
-1.171239	/ (
-1.94939	/ )
-1.94939	/ +
-1.94939	/ -
-1.94939	/ 1024.
-1.94939	/ 12
-0.6706364	/ 2	-0.263086
-1.64836	/ 2.	0
-1.94939	/ 20
-1.94939	/ 26
-1.472269	/ 3
-1.94939	/ 32768
-1.0463	/ 4	-0.3523913
-1.34733	/ 5	-0.1014576
-1.94939	/ 504
-1.94939	/ 6
-1.94939	/ 768
-1.34733	/ 8	-0.5031347
-1.94939	/ 85
-1.94939	/ 88
-1.94939	/ </s>
-1.64836	/ I
-1.94939	/ M
-1.94939	/ O
-1.94939	/ O3
-1.472269	/ Q	-0.4005642
-1.94939	/ QQ
-1.94939	/ RI4
-1.94939	/ RM
-1.94939	/ SlM90
-1.34733	/ f	-0.2695129
-1.94939	/ fabs
-1.94939	/ g
-1.94939	/ j
-1.94939	/ k
-1.64836	/ lM
-1.64836	/ n
-1.64836	/ p
-1.94939	/ scr
-1.94939	/ w
-0.845098	/= ++
-0.544068	/= 2
-0.845098	/= H
-0.845098	/= c
-0.845098	/= l
-0.845098	/= z
-1.94939	0 &&
-2.426511	0 (
-0.5814132	0 )	-0.5886688
-2.125481	0 +
-0.6271707	0 ,	-0.2641716
-1.104292	0 :	-0.1390744
-0.5876622	0 ;	-0.1943402
-1.523421	0 <	-0.1860218
-2.125481	0 </s>
-2.426511	0 ==
-2.125481	0 >
-1.426511	0 ?	-0.1161942
-1.472269	0 ]	-0.05328071
-2.426511	0 _t
-2.426511	0 m
-2.125481	0 ||
-2.125481	0 }
-0.4771213	0.5 *
-0.1760913	0.5 ;
0	0.7 ;
0	01 ]
0	02 </s>
0	024 )
0	03 ;
0	040 )
0	061 *
0	075 )
0	0d:`184>b)^15)OM :23h)QN<'
-0.30103	0u ,
-0.30103	0u ;
0	0x1 !=
0	0x3f0 )
0	0x67452301 ,
0	0x820008202625a0 ;
0	0x98BADCFE </s>
0	0xEFCDAB89 ,
0	0xf |
0	0xfc0 ||
0	0xfe0 ^
0	0xff00ff00ff ;
0	0xffff )
-1.80618	1 &	-0.4589473
-1.681241	1 &&	-0.1176395
-0.6398485	1 )	-0.1569914
-2.283301	1 *
-1.681241	1 +
-0.8209032	1 ,	-0.172524
-1.052852	1 -	-0.1744812
-2.283301	1 4
-1.584331	1 :	-0.1599122
-0.80618	1 ;	-0.1140786
-2.283301	1 </s>
-1.329059	1 <<	-0.09390452
-1.982271	1 ==	-0.4536402
-1.80618	1 ?
-2.283301	1 A
-1.80618	1 [
-0.80618	1 ]	-0.2870941
-2.283301	1 ^
-2.283301	1 cq
-1.982271	1 |
-2.283301	1 }
0	1.159922023e9 ,
0	1.5 ;
0	1.6937441874215991e190 ;
-0.6690068	10 )
-1.146128	10 *
-0.845098	10 +	-0.4673247
-0.845098	10 ,
-1.146128	10 /
-1.146128	10 :
-0.845098	10 ;
-1.146128	10 R
-1.146128	10 ||
0	1008 )
0	101 ==
-0.4771213	1023 )
-0.1760913	1023 |	-0.4409091
0	1024 /
0	1024. ;
0	105 <
-0.1760913	11 )
-0.4771213	11 ;
0	1103515245 &
0	112 ,
0	1152 +
-1	12 &
-0.69897	12 )
-1	12 +
-0.69897	12 -
-0.69897	12 </s>
-0.69897	12 >
0	123 :
0	12359778 ;
0	12365733 -
0	124 -
0	127 ;
-0.60206	128 &&
-0.30103	128 )	-0.3495049
-0.60206	128 ,
0	128L +
-0.30103	13 ,
-0.30103	13 ?
0	13000 ;
0	138 )
-0.1760913	14 &
-0.7781513	14 ]
-0.7781513	14 ^
0	14202379 *
0	14695981039346656037ULL ;	-0.2901699
-0.544068	15 )	-0.4749598
-0.3679768	15 ,
-0.845098	15 ;
-0.845098	15 |
0	1500 ?
0	158 )
-1.30103	16 &&
-0.5228788	16 )	-0.1734136
-0.8239087	16 *
-1.30103	16 +
-0.8239087	16 ,
-1.30103	16 /
-0.8239087	16 ;	-0.2901699
-1.30103	16 </s>
-1.30103	16 >
0	1600 &&
-0.1760913	16711935 ;	-0.4718141
-0.4771213	16711935 |
0	16774143 ;
0	16u )
-0.1760913	17 +
-0.4771213	17 ]
0	176 /
-0.69897	18 )
-0.69897	18 ,
-0.69897	18 </s>
-0.69897	18 ?
-0.69897	18 ]
0	19 )
0	1912 --
0	19205553 ;
0	193 +
0	1933008 </s>
0	194 ,
0	1954 )
0	196 -
0	197 )
0	198 ;
-0.30103	1LL +
-0.30103	1LL <<
0	1l N
-0.30103	1u )
-0.30103	1u ,
-1.802774	2 %
-1.626683	2 &
-2.103804	2 (
-0.5240201	2 )	-0.006172121
-0.8996837	2 *	-0.1446015
-1.325652	2 +	-0.128356
-0.8485312	2 ,	-0.2025808
-1.802774	2 -
-0.9576757	2 ;	0.06983471
-1.802774	2 </s>
-1.325652	2 ?
-2.103804	2 MJ
-0.9898604	2 ]	-0.1264599
-2.103804	2 _KK3
-1.626683	2 ||
-2.103804	2 }
0	2. )	-0.4724764
0	2.271681097355226e15 ,
-0.90309	20 %
-0.60206	20 )
-0.90309	20 *
-0.60206	20 </s>
-0.60206	20 ?
0	204 ]
0	205 )
-0.30103	21 -
-0.30103	21 ]
-0.30103	22 )
-0.30103	22 *
0	23 ;
0	234 ;
-0.544068	24 )
-0.845098	24 ,
-0.845098	24 ;
-0.845098	24 </s>
-0.845098	24 O3NF
-0.845098	24 ]
0	25 ;
0	250 ,
-0.845098	255 )
-0.845098	255 ,
-0.845098	255 -
-0.845098	255 :
-0.544068	255 ;
-0.845098	255 ?
-0.30103	256 ,
-0.60206	256 -
-0.60206	256 ;
0	256L +
0	257 ,
0	258063 &
-0.30103	26 ,
-0.30103	26 ]
0	27 )
0	275 )
0	276 )
0	28 &
0	287 )
0	2L )
0	2l NUO
-1.60206	3 &
-1.90309	3 (
-0.6243364	3 )	-0.08000751
-0.9488475	3 *	-0.1006814
-1.20412	3 +	-0.6706183
-1.057992	3 ,	-0.1317814
-1.20412	3 -	-0.2175274
-1.90309	3 4
-1.60206	3 :
-1	3 ;
-1.90309	3 </s>
-1.90309	3 ?
-1.90309	3 A
-1.90309	3 B
-0.69897	3 ]	-0.280754
-1.90309	3 _z
0	3' Q
0	3.135045272e9 ,
0	3.9999e5 )
-0.845098	30 &&
-0.845098	30 *
-0.845098	30 +
-0.544068	30 ;
-0.845098	30 ?
-0.845098	30 ]
0	304 -
0	308438 *
-0.60206	31 )
-0.1249387	31 ;
-0.5282738	32 )	-0.1390301
-0.9542425	32 +	-0.4147249
-0.8293038	32 ,
-1.431364	32 -
-1.431364	32 :
-0.7323937	32 ;	-0.03489736
-1.130334	32 <<	-0.4212635
-1.130334	32 ]	-0.4219501
-1.431364	32 |
-0.30103	32768 )
-0.30103	32768 ,
0	3285377520 }
0	33 )
-0.30103	333 *
-0.30103	333 ;
0	3352537 *
-0.4771213	34 <
-0.4771213	34 </s>
-0.4771213	34 m
-0.69897	35 )
-0.69897	35 -
-0.69897	35 :
-0.69897	35 ?
-0.69897	35 R
-0.4771213	36 -
-0.1760913	36 :
-0.30103	37 +
-0.30103	37 ;
-0.30103	38 )
-0.30103	38 *
0	384 )
0	39 ;
0	3920 )
-1.886491	4 &
-1.886491	4 &&
-0.5247629	4 )	-0.3713019
-0.9834008	4 *	-0.1006526
-1.284431	4 +	-0.5543248
-0.9834008	4 ,
-1.108339	4 -
-1.886491	4 :
-1.108339	4 ;
-1.886491	4 <
-1.886491	4 </s>
-1.886491	4 ?
-1.886491	4 SNH
-0.8073095	4 ]	-0.4042934
-1.409369	4 |
0	4.023233417e9 ,
0	4.294967296e9 ,
0	4.5 )
0	4.503599627370496e15 ,
0	4.522871578970112e217 ;
0	4.6727004911171048e-153 ;
-0.20412	40 )	-0.09423237
-0.90309	40 :
-0.90309	40 ;
-0.90309	40 ?
0	4092 ^
0	41 )	-0.3495049
0	41088 ,
0	4190208 |
0	4194304 </s>
-0.09691001	42 )	-0.1734136
-0.69897	42 ;
0	44 +
0	45 )
0	48 ;
0	480 ,
0	488848 *
0	4L +
-0.30103	4u )
-0.30103	4u ;
-1.579784	5 %
-1.278754	5 &&
-0.4336556	5 )	-0.4751146
-1.278754	5 *
-0.9777236	5 ,
-1.579784	5 -
-1.579784	5 ;
-1.579784	5 </s>
-1.102662	5 ?
-1.579784	5 OMaMch
-0.6766936	5 ]	0.007686824
0	50 ;
0	5000 +
0	504 *
0	508 ]
0	51 )
-0.60206	512 *
-0.60206	512 +
-0.60206	512 ;
-0.60206	512 </s>
0	512L )
0	516 ]
-0.30103	5200 ;
-0.30103	5200 ]
0	5298487 :
0	55 ?
-0.4771213	56 )
-0.1760913	56 ;	-0.4299941
0	57 ;
-0.30103	58 :
-0.30103	58 >
-0.30103	59 ;
-0.30103	59 ==
0	5toG57j/3" </s>
-1.30103	6 %
-1.30103	6 &
-1.60206	6 &&
-0.6478175	6 )	-0.3151214
-1.124939	6 *	-0.4725255
-1.124939	6 ,	-0.5877134
-1.60206	6 -
-1.60206	6 /
-1.60206	6 :
-1.124939	6 ;
-1.60206	6 <
-1.30103	6 </s>
-1.60206	6 >
-1.30103	6 ?
-1.60206	6 N
-1.60206	6 O
-1	6 ]	-0.2458588
-1.60206	6 sN
-1.60206	6 yN
-0.146128	60 )	-0.2703236
-0.544068	60 *	-0.4405777
-0.1760913	61 :
-0.4771213	61 ;
-0.30103	62 ;
-0.30103	62 ?
-0.30103	63 )	-0.4712293
-0.60206	63 ,
-0.60206	63 <<
0	63504 ;
-1.079181	64 &
-0.7781513	64 )
-1.079181	64 *
-0.3802112	64 ,
-1.079181	64 :
-1.079181	64 ;
-1.079181	64 </s>
0	64u )
0	65280 )
0	65307 ;
-0.30103	65536 ;
-0.30103	65536 ]
0	65544 >
0	667 ,
0	67 *
0	69 j
0	6990400 ;
-1.518514	7 &
-1.518514	7 &&
-0.819544	7 )	-0.2175151
-1.217484	7 *
-0.916454	7 ,
-1.518514	7 -
-1.518514	7 7
-1.518514	7 :
-1.217484	7 ;
-1.518514	7 <
-1.217484	7 </s>
-1.518514	7 ?
-1.041393	7 O
-1.518514	7 OMQ
-1.518514	7 ON8r
-0.819544	7 ]	-0.1666776
-1.518514	7 sN
0	7.5 )
0	7.90055321525613e115 ;
0	70 )
-0.30103	74 )
-0.30103	74 </s>
0	75 ?
0	76 )
-0.60206	768 ;
-0.60206	768 </s>
-0.30103	768 ]
-0.30103	77 ;
-0.30103	77 O
-0.60206	79 )
-0.60206	79 ;
-0.60206	79 ]
-0.60206	79 b
-1.255273	8 &
-1.732394	8 &&
-0.6910011	8 )	-0.1386721
-1.255273	8 +
-0.6184504	8 ,	-0.1329449
-1.431364	8 :
-0.9542425	8 ;	-0.2869126
-1.732394	8 <
-1.431364	8 >>	-0.451314
-1.431364	8 ?
-1.130334	8 ]
-1.732394	8 _a
-1.732394	8 b
-1.732394	8 j
-1.732394	8 k9
-1.431364	8 |	-0.4593925
0	8.44396048e8 ,
-1.146128	80 )
-0.146128	80 +	-0.9801807
-1.146128	80 ,
-1.146128	80 ;
-1.146128	80 ]
0	8000 </s>
-0.4771213	81 )
-0.4771213	81 -
-0.4771213	81 /
0	82 ;
0	84 )
-0.4771213	85 *
-0.4771213	85 +
-0.4771213	85 <<
-0.30103	86400 )
-0.30103	86400 -
0	88 )
0	881 ,
0	89 ?
0	8u +
-1.113943	9 %
-0.5118834	9 )	-0.3255797
-1.113943	9 *
-1.414973	9 +
-1.113943	9 ,
-1.113943	9 -
-1.113943	9 ;	-0.4624586
-1.414973	9 <<
-1.113943	9 ?
-1.414973	9 g
-1.414973	9 j_la
-1.414973	9 j_laaaN
-1.414973	9 slltwzh
-0.30103	90 )
-0.30103	90 ;
0	91 )
-0.69897	92 &&
-0.69897	92 )
-0.69897	92 +
-0.39794	92 ;
0	93 ,
0	96 ^
-0.4771213	97 +
-0.1760913	97 ]
0	98 +
0	9858122 :
0	99 ]	-0.3444957
0	9999 ]
0	99999 )
-1.721536	: !
-2.198657	: ""
-2.198657	: ")$"
-2.198657	: "Q(j"
-2.198657	: "Q(jam"
-1.721536	: %
-1.897627	: &
-2.198657	: '='
-0.8369293	: (	-0.291541
-1.499687	: *	-0.3776641
-1.897627	: -
-0.8764378	: 0	-0.5391607
-1.897627	: 1
-2.198657	: 12365733
-2.198657	: 2
-2.198657	: 24
-2.198657	: 32
-2.198657	: 3352537
-2.198657	: 5
-1.897627	: 6
-2.198657	: 65536
-2.198657	: 69
-2.198657	: 79
-1.084714	: </s>
-2.198657	: B
-2.198657	: C
-2.198657	: EOF
-2.198657	: G
-1.897627	: I	-0.3730327
-2.198657	: N
-2.198657	: O
-2.198657	: P
-2.198657	: R
-2.198657	: S
-1.897627	: T
-2.198657	: V
-1.897627	: _	-0.4244149
-2.198657	: _Zadat57
-2.198657	: _c
-2.198657	: a
-1.897627	: b
-2.198657	: break
-1.721536	: c
-2.198657	: case
-1.721536	: d
-1.897627	: e
-2.198657	: f
-2.198657	: fopen
-1.897627	: g
-1.721536	: gln	-0.30103
-2.198657	: goto
-1.897627	: h
-1.897627	: i
-2.198657	: j
-2.198657	: k8b
-2.198657	: l
-1.897627	: m
-2.198657	: main
-2.198657	: n
-2.198657	: p
-2.198657	: putchar
-2.198657	: q
-1.897627	: r	-0.4552194
-2.198657	: switch
-1.721536	: u	-0.4134522
-1.596597	: v	-0.2519806
-2.198657	: w
-2.198657	: webso
-2.198657	: x
-1.897627	: ~
0	:23h)QN<' /
-2.392697	; !	-0.6741464
-3.091667	; %
-3.091667	; &
-3.091667	; '(
-2.392697	; (	-0.2092114
-1.478883	; )	-0.4231361
-1.790637	; *	-0.331374
-2.091667	; ++	-0.9678152
-3.091667	; --
-3.091667	; 0
-2.137424	; ;	-0.2674093
-0.4561832	; </s>
-2.392697	; A	-0.6054397
-2.313516	; B	-0.7331243
-2.091667	; D	-0.1663314
-2.313516	; E	-0.6742551
-2.790637	; F	-0.4118545
-2.313516	; G	0.39794
-2.614546	; H	-0.5362427
-2.489607	; I	-0.5157002
-2.489607	; J	0
-2.188577	; K	-0.2352127
-2.313516	; L	-0.4582359
-3.091667	; M
-3.091667	; N
-2.392697	; O
-2.188577	; P	-0.7647873
-2.790637	; Q
-3.091667	; Q_
-2.246569	; R	-0.2312465
-3.091667	; SDL_BlitSurface
-3.091667	; SDL_Delay
-3.091667	; SDL_Event
-3.091667	; SDL_FillRect
-3.091667	; SDL_Flip
-3.091667	; SDL_Init
-3.091667	; SDL_LoadWAV
-3.091667	; SDL_MixAudio
-3.091667	; SDL_OpenAudio
-3.091667	; SDL_PauseAudio
-2.489607	; T	-0.2398932
-1.836394	; U	-0.396088
-1.977724	; V	-0.1606868
-1.861218	; W	-1.039041
-3.091667	; Window
-2.790637	; X	-0.4307525
-3.091667	; XEvent
-3.091667	; XImage
-3.091667	; XSelectInput
-2.790637	; Y	-0.4323089
-2.137424	; _	-0.1007924
-3.091667	; __
-1.861218	; a	-0.4164416
-1.560188	; b	-0.2618855
-3.091667	; bA
-3.091667	; ba
-3.091667	; bc
-2.614546	; bh	0.1249388
-3.091667	; bj
-2.489607	; break	0.5314789
-3.091667	; bz
-2.188577	; c	-0.125656
-2.392697	; case
-2.246569	; char	0.1439066
-1.861218	; d	-0.3873093
-2.790637	; default	0
-2.392697	; e	-0.1555047
-2.614546	; else
-3.091667	; extern
-2.137424	; f	-0.4166405
-3.091667	; fgets
-2.489607	; float
-1.600305	; for	0
-3.091667	; fread
-2.392697	; g	-0.3836996
-2.790637	; goto
-3.091667	; h
-1.861218	; i	-0.6261787
-1.977724	; if	0.436285
-1.977724	; int	-0.1420702
-2.050274	; j	-0.3074451
-2.012486	; k	-0.3709565
-2.392697	; l	-0.3309932
-2.489607	; long	-0.1434221
-2.246569	; m	-0.1737116
-2.790637	; main	0.8016324
-3.091667	; memcpy
-3.091667	; mvaddstr
-3.091667	; mvinsch
-2.050274	; n	-0.4850901
-2.012486	; o	-0.5954696
-1.977724	; p	-0.4747416
-3.091667	; putchar
-2.313516	; q	-0.258278
-2.188577	; r	-0.2058962
-3.091667	; refresh
-2.012486	; return	-0.2466723
-1.977724	; s	-0.3488546
-2.614546	; struct
-3.091667	; switch
-2.246569	; t	-0.2749735
-3.091667	; typedef
-1.915576	; u	-0.9866357
-2.392697	; v	-0.1680529
-2.614546	; void	-0.4014006
-2.012486	; w	-0.4011451
-2.489607	; while	0
-2.188577	; x	-0.5076388
-2.313516	; xor	-0.7829501
-2.392697	; y	-0.6320232
-1.915576	; z	-0.3915998
-3.091667	; {
-3.091667	; |
-0.9878632	; }	-0.1102545
0	;b' %
-2.167317	< %
-2.167317	< (
-2.167317	< *
-2.167317	< /
-0.9631974	< 0	-0.8494904
-2.167317	< 11
-2.167317	< 127
-2.167317	< 13
-1.866287	< 14	0
-2.167317	< 16
-1.866287	< 18
-1.565257	< 2	-0.5142444
-1.866287	< 20	-0.3521825
-1.565257	< 3
-2.167317	< 30
-2.167317	< 32
-2.167317	< 4
-1.866287	< 5
-2.167317	< 5200
-2.167317	< 57
-1.690196	< 6
-1.866287	< 60	0.06694677
-2.167317	< 61
-1.866287	< 62
-2.167317	< 7
-2.167317	< 74
-2.167317	< 75
-2.167317	< 77
-1.866287	< 79
-2.167317	< 80
-2.167317	< 82
-2.167317	< 91
-2.167317	< 92
-1.468347	< </s>
-1.866287	< A	-0.4191293
-1.866287	< B
-1.565257	< D	-0.2455126
-1.866287	< E
-2.167317	< L
-2.167317	< M
-2.167317	< O
-2.167317	< Q
-2.167317	< SPEED
-2.167317	< U
-2.167317	< W
-1.468347	< a	-0.2051431
-2.167317	< abs
-2.167317	< asn
-1.690196	< b
-2.167317	< b4
-1.690196	< c
-1.690196	< d
-1.866287	< f	-0.4456042
-2.167317	< h
-1.389166	< i	-0.1440761
-2.167317	< j
-2.167317	< kP8
-2.167317	< l
-1.866287	< m
-1.389166	< n	-0.1273993
-1.389166	< not	-0.6128908
-2.167317	< p
-1.468347	< s	-0.6716039
-2.167317	< script
-1.866287	< t	-0.4556703
-1.866287	< u
-1.565257	< v
-1.866287	< x
-2.167317	< y
-2.167317	< ~
-1.064458	<< (
-1.462398	<< 1
-1.763428	<< 14
-1.763428	<< 15
-1.462398	<< 18
-1.763428	<< 23
-1.763428	<< 24
-1.763428	<< 30
-1.286307	<< 32	-0.3881802
-1.286307	<< 4	-0.3230243
-1.763428	<< 40
-1.763428	<< 5
-1.462398	<< 56	0
-1.462398	<< 6	-0.443263
-1.763428	<< 60
-1.763428	<< 7
-0.91833	<< 8	-0.4027389
-1.462398	<< </s>
-1.763428	<< Q_
-1.462398	<< a
-1.763428	<< b
-1.462398	<< f	-0.4116197
-1.763428	<< i
-1.286307	<< l	-0.4543781
-1.763428	<< n
-1.462398	<< s
-1.161368	<< t
-1.462398	<< u	-0.4429072
-1.763428	<< unk
-1.763428	<< z
0	<<= b
-0.9542425	<= 24
-0.9542425	<= D
-0.9542425	<= L
-0.9542425	<= Q
-0.9542425	<= f
-0.9542425	<= k
-0.9542425	<= m
-0.9542425	<= optind
-0.9542425	<= q
0	<P~6" </s>
-2.739177	<s> !
-3.040207	<s> !=
-2.739177	<s> "
-3.040207	<s> "!:E%;!ea!!!WqE0z!f/y}!%!!Qi6!uzt!n}?]!bl!ak!SetR<"
-3.040207	<s> "!pv!;!Hm%Ro4"
-3.040207	<s> "%d
-3.040207	<s> "%f,%f,"
-3.040207	<s> "*_[512],**p=_,**d,b,q;for(b=0;b"
-3.040207	<s> "*p=#b,P[9999],*d=P,*e[]="
-3.040207	<s> "/"
-3.040207	<s> "258EAFA5-"
-3.040207	<s> "::::::::::::?_::::\"::.::::@:::'::-::::::::;!:):::::,:::::"
-3.040207	<s> ";;"
-3.040207	<s> ";Gam"
-3.040207	<s> ";GlockQ18"
-3.040207	<s> ";^Q<d|8=o;]Q<dj8<Pk8<c]'?;QQdi8?P'Q)d8<9`8?c;Qdh8=P']Q<`c8>PQ9_8"
-3.040207	<s> "<o_Q<o_QBdo`QQ';`Q=9`]8=bobQ_o_Q<o]8=';bQC(88cQ`bcgQ>oP']8<;cQ>98)^Q?''oc`Q>"
-3.040207	<s> "=(p-_+1)*9%512]=(O*)p;"
-3.040207	<s> ">b;og8=''`Q<`b8?'QQ9_8?c;dPe8dQa8<P]Q<``8=;'f8>QQ`]8?ocQQ_8=''_Q`8aQ"
-3.040207	<s> "?guhljL!^P%
-3.040207	<s> "CYOUQWIN!]Q=;of8BQQ)88bc]QA98P'Qo]8>oQQ_8CP;QQ98b`_8@P8(Q`]'^Q=`']QB)88"
-3.040207	<s> "M@K~|JOEF\\^~_NHI]"
-3.040207	<s> "Zj$x!~V!n&g8!cK!
-3.040207	<s> "bQQ]`8J;QQ`88bc99bd(`8iQ@''QQo^8E'`8c;QQ'Q``8?QQ`'kQ<o]8B9PQQ`';_Q<`_8<cbQ"
-3.040207	<s> "e.6!r!%l6G!n~^<i=%pEwL%P!'<!FQt%u
-3.040207	<s> "e:|
-3.040207	<s> "etu"
-3.040207	<s> "med);"
-3.040207	<s> "oc']Q]8<;cQ>`8bbQA``QQ''`Q?88P;dQ=`)nQ?*/;;"
-3.040207	<s> "oid
-2.262055	<s> %
-2.739177	<s> &
-2.563085	<s> &&	-0.2937308
-3.040207	<s> '7M{N^kh
-3.040207	<s> 'c'
-1.563085	<s> (	-0.09170011
-1.625233	<s> )	-0.1299261
-2.438147	<s> *
-2.563085	<s> +
-1.961025	<s> ++	-0.3480265
-2.739177	<s> +=
-1.697784	<s> ,	-0.08570173
-2.040207	<s> -	-0.2028041
-2.438147	<s> --
-3.040207	<s> -=
-2.739177	<s> .
-2.739177	<s> /
-2.341237	<s> 0	-0.2680939
-3.040207	<s> 0xffff
-2.563085	<s> 1
-3.040207	<s> 10
-3.040207	<s> 1152
-3.040207	<s> 128
-3.040207	<s> 15
-3.040207	<s> 16
-3.040207	<s> 16711935
-2.438147	<s> 2	-0.1466163
-3.040207	<s> 25
-3.040207	<s> 333
-2.739177	<s> 4
-3.040207	<s> 45
-3.040207	<s> 5
-3.040207	<s> 6
-3.040207	<s> 63504
-3.040207	<s> 64
-3.040207	<s> 65307
-2.438147	<s> 7
-2.563085	<s> 8
-3.040207	<s> 81
-3.040207	<s> 92
-3.040207	<s> 96
-2.438147	<s> :	-0.2327067
-1.809758	<s> ;	-0.08776514
-2.739177	<s> <
-2.438147	<s> <<
-1.864115	<s> =	-0.1162376
-2.739177	<s> >
-2.341237	<s> >>
-2.341237	<s> ?
-2.262055	<s> A	-0.1180993
-3.040207	<s> Alan
-2.563085	<s> B
-2.563085	<s> C
-3.040207	<s> COLS
-2.739177	<s> D	-0.4502491
-2.085964	<s> E	-0.3732251
-2.563085	<s> F	-0.4118545
-2.563085	<s> FILE	0
-2.739177	<s> G
-2.262055	<s> H	-0.7353993
-1.998814	<s> I	-0.1668397
-2.739177	<s> J
-2.195109	<s> K	-0.1611339
-2.341237	<s> L
-2.195109	<s> M	-0.1918855
-3.040207	<s> MkQN
-2.438147	<s> N	-0.0983797
-2.563085	<s> O
-3.040207	<s> O1
-3.040207	<s> O2
-3.040207	<s> O7
-3.040207	<s> O8
-3.040207	<s> O_
-3.040207	<s> On
-2.341237	<s> P	-0.2596373
-2.438147	<s> Q	-0.2691826
-3.040207	<s> Q1
-3.040207	<s> Q2
-3.040207	<s> Q3
-3.040207	<s> QO
-2.563085	<s> R
-3.040207	<s> S
-3.040207	<s> SDL_PollEvent
-3.040207	<s> SDL_Surface
-2.137117	<s> T
-2.438147	<s> U	-0.2521814
-3.040207	<s> Upgrade
-2.262055	<s> V	-0.1432987
-2.085964	<s> W	-0.4618045
-2.563085	<s> X
-3.040207	<s> XPutImage
-1.926263	<s> Y	-0.5090355
-2.137117	<s> Z	-0.2513422
-2.438147	<s> [
-2.438147	<s> ]	-0.4969782
-2.739177	<s> _
-3.040207	<s> _0
-1.926263	<s> a	-0.1813915
-3.040207	<s> ageX
-2.739177	<s> ala
-2.438147	<s> and	-0.2747011
-2.563085	<s> asn	0.2108533
-2.040207	<s> b	-0.3451492
-3.040207	<s> bB
-3.040207	<s> bC
-3.040207	<s> be
-3.040207	<s> bl
-3.040207	<s> bn
-2.195109	<s> break	0.327359
-3.040207	<s> bt
-2.739177	<s> bu
-3.040207	<s> by
-2.438147	<s> c	-0.5645976
-3.040207	<s> c8
-3.040207	<s> case
-2.563085	<s> char	0.03476211
-2.085964	<s> const	-0.4247332
-1.836087	<s> d	-0.7756907
-3.040207	<s> default
-2.438147	<s> do	0
-3.040207	<s> double
-1.717987	<s> e	-0.4683473
-1.577809	<s> efine
-2.739177	<s> else	-0.3853509
-3.040207	<s> er
-2.438147	<s> err	0
-3.040207	<s> errx
-2.739177	<s> exit	0
-2.438147	<s> f	-0.2355284
-1.717987	<s> for	-0.06942141
-3.040207	<s> fputc
-2.341237	<s> free	0
-2.739177	<s> fseek	0
-1.593049	<s> g	-0.9922255
-3.040207	<s> getchar
-2.438147	<s> gly	0
-2.040207	<s> h	-0.1519576
-1.642267	<s> i	-0.9423229
-1.427423	<s> if	-0.07302094
-1.678479	<s> int	-0.1801041
-2.341237	<s> j	-0.6777807
-2.341237	<s> k
-1.961025	<s> l	-0.2128939
-3.040207	<s> lf
-2.563085	<s> long
-2.563085	<s> lys
-2.563085	<s> m
-3.040207	<s> mR8
-2.438147	<s> main	0.5797836
-2.563085	<s> met	-0.3679768
-3.040207	<s> mva
-2.341237	<s> n
-2.739177	<s> ndif	0
-3.040207	<s> new
-2.085964	<s> not	-0.7119349
-1.717987	<s> o	-0.7455639
-3.040207	<s> oM
-3.040207	<s> ocket
-3.040207	<s> on
-2.739177	<s> op	-0.30103
-3.040207	<s> open
-3.040207	<s> optind
-2.262055	<s> p	-0.3863966
-2.739177	<s> phe	0
-2.262055	<s> printf	0
-3.040207	<s> pt
-2.739177	<s> putchar	0
-2.739177	<s> puts	0.3679768
-2.438147	<s> q
-2.341237	<s> r
-3.040207	<s> rQ
-3.040207	<s> rea
-1.961025	<s> return	-0.07058106
-2.739177	<s> rewind	0
-3.040207	<s> rror
-1.894079	<s> s	-0.7145986
-2.438147	<s> sec	-0.3467875
-3.040207	<s> signal
-3.040207	<s> sin
-2.341237	<s> static	0.07918125
-3.040207	<s> stdin
-3.040207	<s> strchr
-2.739177	<s> switch	0
-2.137117	<s> t	-0.4388567
-3.040207	<s> tf
-2.341237	<s> thr	-0.09691003
-3.040207	<s> tr
-3.040207	<s> type
-1.998814	<s> typedef	0.005603909
-2.739177	<s> tyr	-0.2552725
-2.085964	<s> u	-0.345552
-2.195109	<s> unsigned	-0.06694677
-2.341237	<s> v
-2.739177	<s> val
-2.341237	<s> void	-0.30103
-3.040207	<s> volatile
-2.137117	<s> w	-0.4929155
-1.961025	<s> while	0
-2.563085	<s> x
-1.998814	<s> y	-0.4503281
-2.195109	<s> z	-0.754437
-1.864115	<s> {	-0.7180629
-1.121129	<s> }	-0.5024629
-2.739177	<s> ~
-2.225826	= !
-2.924796	= "
-2.924796	= "<;iQ=/*do<;dQ=ook8?boc;aQ=odr8>oc;_Q<ox8>oc"
-2.924796	= "NBLF\1Nblfgjmf\1"
-2.924796	= "\n\n\n"
-2.924796	= "syntax_error!"
-2.623766	= &	-0.4699427
-2.623766	= '128'
-2.924796	= 'width:256px;height:256px'
-1.271583	= (	-0.2835938
-1.602577	= *	-0.5531161
-2.924796	= ,
-1.563068	= -	-0.3698921
-2.924796	= --
-2.924796	= .1
-0.9705535	= 0	-1.175983
-2.924796	= 040
-2.924796	= 0u
-2.924796	= 0x1
-2.924796	= 0x820008202625a0
-1.563068	= 1	-0.8067805
-2.924796	= 1.159922023e9
-2.322736	= 10	-0.2340832
-2.924796	= 1024
-2.924796	= 112
-2.924796	= 12
-2.924796	= 12359778
-2.924796	= 13000
-2.623766	= 14695981039346656037ULL	0
-2.924796	= 16
-2.924796	= 17
-2.924796	= 196
-2.924796	= 1LL
-2.447675	= 2	-0.426396
-2.924796	= 2.271681097355226e15
-2.924796	= 234
-2.924796	= 250
-2.447675	= 255
-2.924796	= 256
-2.924796	= 26
-2.146645	= 3	-0.6879746
-2.924796	= 3.135045272e9
-2.924796	= 30
-2.447675	= 32
-2.924796	= 32768
-2.924796	= 333
-2.924796	= 34
-2.924796	= 37
-2.225826	= 4	-0.6910011
-2.924796	= 4.023233417e9
-2.924796	= 4.294967296e9
-2.924796	= 4.503599627370496e15
-2.924796	= 40
-2.924796	= 41088
-2.924796	= 48
-2.924796	= 480
-2.623766	= 5	-0.4288166
-2.924796	= 50
-2.924796	= 5000
-2.924796	= 512
-2.322736	= 6	-0.2671717
-2.924796	= 64
-2.924796	= 6990400
-2.146645	= 7	-0.1199753
-2.447675	= 8	-0.3575113
-2.924796	= 8.44396048e8
-2.924796	= 80
-2.924796	= 9
-1.694347	= </s>
-1.602577	= A	-0.4580474
-1.845615	= B	-0.4637572
-2.021706	= C	-0.3120254
-2.924796	= COLS
-2.146645	= D	-0.3802112
-2.225826	= E	-0.1832193
-2.146645	= F	-0.3350145
-2.146645	= H	-0.07748145
-2.225826	= I	-0.3760382
-2.924796	= J
-2.079698	= K	-0.3713565
-2.322736	= L	-0.2723848
-2.924796	= LINES
-2.322736	= M	-0.5228788
-1.845615	= N	-0.5387782
-1.924796	= O	-0.4544213
-2.924796	= O0
-2.924796	= O5
-2.447675	= OO	-0.39794
-2.623766	= O_	0.4771213
-2.924796	= O_o
-2.447675	= P
-1.924796	= Q	-0.5421839
-2.924796	= Q7
-2.924796	= Q8
-2.447675	= Q_	0
-2.447675	= R	-0.4490925
-2.322736	= S
-2.924796	= SDL_CreateRGBSurface
-2.924796	= SDL_SetVideoMode
-1.970554	= T	-0.1681224
-2.924796	= TIMESTEP
-2.924796	= U
-2.447675	= W
-2.924796	= X
-2.924796	= XCreateImage
-2.924796	= XCreateSimpleWindow
-2.924796	= XLookupKeysym
-2.924796	= XOpenDisplay
-2.924796	= Y
-2.623766	= Z	-0.4140695
-1.970554	= _	-0.7843116
-2.924796	= _0
-2.623766	= _Q
-2.447675	= __	-0.4227636
-2.924796	= __TIME__
-2.924796	= _b
-1.778668	= a	-0.2102226
-1.810853	= b	-0.2040733
-2.924796	= b5g
-2.623766	= bA
-2.924796	= bB
-2.924796	= bC
-2.623766	= bE	-0.07918125
-2.924796	= ba
-2.924796	= bb
-2.924796	= bf
-2.924796	= bl
-2.924796	= bm
-2.079698	= bp	0
-2.924796	= bs
-2.924796	= buf
-2.924796	= bx
-2.924796	= by
-2.623766	= bz
-1.748705	= c	-0.1776268
-2.447675	= calloc	0
-2.924796	= cos
-1.694347	= d	-0.5584328
-1.720676	= e	-0.5343082
-2.623766	= exp	0
-1.694347	= f	-0.7489629
-2.924796	= fgetc
-2.924796	= fopen
-2.623766	= fread	0
-2.924796	= function
-2.322736	= g	-0.5655432
-2.924796	= getch
-2.447675	= getchar	0
-2.924796	= getopt
-2.322736	= gln	-0.39794
-1.970554	= h	-0.5474088
-2.623766	= his
-1.924796	= i	-0.2496018
-1.883403	= j	-0.4083835
-2.322736	= k
-2.322736	= l
-2.924796	= lv
-2.079698	= m	-0.1166731
-2.924796	= main
-2.623766	= malloc	0
-2.021706	= n	-0.2966208
-2.924796	= new
-2.924796	= nk
-2.447675	= not	-0.3698528
-1.720676	= o	-0.3550797
-2.924796	= op
-2.021706	= p	-0.5450839
-2.623766	= pow	0
-2.924796	= pyl
-2.322736	= q	-0.5812099
-2.225826	= r	-0.184707
-2.924796	= rand
-2.924796	= read
-2.322736	= realloc	0
-2.924796	= round
-2.021706	= s	-0.09402727
-2.447675	= sizeof	0.2108533
-2.924796	= sqrt
-2.924796	= strrchr
-2.924796	= system
-2.146645	= t	-0.421366
-2.924796	= tmpfile
-2.021706	= trp	-0.3802113
-1.845615	= u	-0.4637573
-2.623766	= unk	-0.39794
-1.810853	= v	-0.4690829
-2.924796	= w
-2.924796	= window
-1.970554	= x	-0.2295671
-2.924796	= xle
-1.970554	= y	-0.2060545
-2.146645	= z	-0.4306638
-2.021706	= {
-1.454845	== '\n'	0
-1.755875	== (
-1.454845	== *
-1.454845	== -
-1.755875	== 0
-1.454845	== 1
-1.454845	== 10
-1.755875	== 2
-1.755875	== 27
-1.755875	== 275
-1.755875	== 276
-1.454845	== 3
-1.755875	== 32
-1.454845	== 35
-1.755875	== 4
-1.454845	== 5	-0.2775489
-1.755875	== 6
-1.755875	== 8
-1.755875	== 81
-1.755875	== 9
-1.755875	== 92
-1.755875	== </s>
-1.755875	== B
-1.454845	== D
-1.454845	== NULL	0
-1.454845	== T	-0.4057654
-1.153815	== a	-0.2871536
-1.755875	== arg
-1.278754	== b	-0.4611332
-1.454845	== c
-1.755875	== cys
-1.755875	== gln
-1.755875	== h
-1.454845	== n
-1.755875	== not
-1.755875	== r
-1.454845	== u
-1.755875	== ~
-1.273001	> (
-1.875061	> ->
-0.9719713	> 0	-0.2793524
-1.875061	> 1
-1.875061	> 12
-1.875061	> 1600
-1.875061	> 197
-1.176091	> 2	-0.4584892
-1.875061	> 20
-1.875061	> 255
-1.875061	> 3
-1.875061	> 30
-1.875061	> 31
-1.875061	> 32
-1.574031	> 4
-1.273001	> 5	-0.2653144
-1.875061	> 55
-1.39794	> 6
-1.875061	> 64
-1.574031	> 7
-1.875061	> 76
-1.574031	> 9
-1.875061	> 92
-1.875061	> <
-1.574031	> </s>
-1.875061	> B
-1.875061	> BUFSIZ
-1.875061	> F
-1.875061	> H
-1.875061	> I
-1.875061	> Q0
-1.574031	> QQ	-0.30103
-1.875061	> _
-1.875061	> a
-1.875061	> bs
-1.875061	> c
-1.875061	> d_C
-1.875061	> e
-1.875061	> glu
-1.875061	> h
-1.574031	> i
-1.875061	> l
-1.875061	> lrand48
-1.875061	> p
-1.875061	> q
-1.875061	> s
-1.875061	> t
-1.875061	> v
-1.875061	> w
-1.875061	> x
-0.845098	>= (
-0.544068	>= 0
-0.845098	>= 2
-0.845098	>= LINES
-0.845098	>= Q
-0.845098	>= d
-1.238882	>> (
-1.716003	>> ++
-1.716003	>> 12
-1.414973	>> 14	0
-1.238882	>> 2	-0.3227075
-1.716003	>> 20
-1.716003	>> 28
-1.716003	>> 3
-1.414973	>> 31	0.1249388
-1.414973	>> 32	-0.4436975
-1.716003	>> 38
-1.414973	>> 4
-1.238882	>> 40	-0.1760913
-1.716003	>> 5
-1.716003	>> 56
-1.414973	>> 6
-0.7160034	>> 8	-0.4717261
-1.238882	>> </s>
-1.414973	>> a	-0.4518154
-1.716003	>> f
-1.716003	>> lys
-1.716003	>> n
-1.414973	>> s
-1.716003	>> u
-1.414973	>> unk	-0.1760913
-1.414973	>> z	-0.2293368
-0.4771213	>>= 4
-0.4771213	>>= 7
-0.4771213	>>= e
-2.11059	? !
-1.80956	? ""	-0.3309932
-2.11059	? ";"
-2.11059	? "{;}"
-2.11059	? "}$"
-1.80956	? &
-2.11059	? '
-2.11059	? '|'
-1.332438	? (
-1.332438	? *
-1.633469	? ++
-2.11059	? -
-1.633469	? --	-0.4227636
-1.069197	? 0	-1.043605
-1.633469	? 1	-0.5906004
-2.11059	? 124
-2.11059	? 1l
-2.11059	? 255
-2.11059	? 256
-1.80956	? 3
-2.11059	? 32
-1.80956	? 8	-0.4607309
-2.11059	? 9858122
-1.80956	? </s>
-1.80956	? D
-1.80956	? E	-0.3732251
-2.11059	? F
-2.11059	? FILENAME_MAX
-1.80956	? G	0.1127043
-2.11059	? H
-2.11059	? H_1
-1.80956	? I	-0.4626434
-1.80956	? L	-0.4517538
-1.80956	? O
-2.11059	? RGB
-2.11059	? S
-1.41162	? T	-0.5783961
-2.11059	? U
-2.11059	? _k
-1.80956	? a
-1.633469	? d
-2.11059	? e
-1.80956	? g
-1.633469	? glu	-0.4471581
-2.11059	? h
-1.633469	? i	-0.4726897
-1.633469	? k
-1.41162	? n
-1.633469	? o	-0.521831
-1.633469	? p	-0.3863966
-2.11059	? putchar
-2.11059	? q
-2.11059	? r
-1.633469	? s	-0.3892338
-2.11059	? strlen
-2.11059	? t
-1.80956	? u
-1.265492	? v	-0.4707501
-2.11059	? w
-2.11059	? x
-2.11059	? ~
0	?" "8!@dP,!!o+fb"
-1.10721	A )	-0.09423237
-1.80618	A +
-1.80618	A +=
-0.9610819	A ,	-0.1251436
-1.80618	A -
-0.90309	A ->	-0.7693774
-0.60206	A ;	-0.1544094
-1.80618	A </s>
-0.90309	A =	-0.5682435
-1.80618	A J
-1.80618	A L
-1.80618	A R
-0.6922366	A [	-0.7890638
0	Acce </s>
0	Alan Turing
-0.819544	B &	-0.07500817
-1.518514	B &&
-0.7781513	B (	-0.43306
-0.9744459	B )	-0.679054
-1.120574	B +	-0.6825175
-1.217484	B ,
-0.916454	B ->	-0.7693774
-1.819544	B :
-1.120574	B ;	-0.03489736
-1.819544	B </s>
-1.217484	B =
-1.819544	B ==
-1.819544	B J
-1.819544	B L
-1.120574	B R	-0.4692959
0	BUFSIZ )
-1.414973	C &
-0.6368221	C (	-0.5750134
-1.017033	C )	-0.2703236
-1.238882	C *	-0.4740628
-1.414973	C +
-1.716003	C +=
-1.113943	C ,
-1.414973	C -
-1.414973	C /	-0.4362163
-1.716003	C :
-1.238882	C ;
-1.716003	C <
-1.414973	C =
-1.414973	C ==
-1.113943	C >
-1.716003	C J
-1.716003	C R
-1.716003	C [
-1.716003	C ^
-1.716003	C a
-1.716003	C p
-0.30103	COLS -
-0.30103	COLS /
-1.69897	D %
-1.09691	D &&	-0.1176395
-1.221849	D (
-1.39794	D )
-1.221849	D +
-1.69897	D ,
-1.69897	D -=
-1.69897	D ;
-1.39794	D </s>
-0.9208187	D =	-0.1693256
-1.69897	D ?
-1.69897	D L
-1.09691	D [	-0.2943484
-1.69897	D ]
-0.9208187	D c	-0.4155252
-0.9208187	D d	-0.433268
-1	D e	-0.6842468
-1.39794	D f
0	DefaultGC (
0	DefaultVisual (
0	Display *
-1.070038	E (	-0.2987295
-1.070038	E )
-0.6720979	E *	-0.6582625
-1.672098	E *=
-1.672098	E +
-1.371068	E ++
-1.672098	E +=
-0.8939466	E ,	-0.1738091
-0.8269998	E ;	-0.5833778
-1.672098	E </s>
-0.6720979	E =	-0.1502293
0	E0 (
0	E3 (	-0.4678454
-0.3424227	EOF )	-0.1514488
-1.041393	EOF +
-0.7403627	EOF ;
-0.5642715	EOF ]	-0.5520489
0	ETIANMSURWDKGOHVF:L:PJBXCYZQ::54:3:::2&:+::::16=/:::(:7:::8:90" </s>
0	EX (
-1.332438	F %
-1.332438	F &
-0.5542872	F (	-0.248852
-1.633469	F )
-1.156347	F *	-0.4405777
-1.633469	F +
-0.9344984	F ,	-0.2126473
-0.9344984	F -	-0.6240675
-1.633469	F /
-1.633469	F :
-1.633469	F ;
-1.332438	F <
-0.8553172	F =
-1.633469	F >>
0	F0 (	-0.4590509
0	F1 (	-0.4590509
0	F2 (
0	FILE *	-0.389477
0	FILENAME_MAX :
0	FV (
-0.1290947	G (	-0.2742741
-1.544068	G )
-1.544068	G ,
-0.69897	G [
-1.50515	H %
-1.50515	H &
-1.80618	H (
-1.50515	H )
-1.028029	H *	-0.158997
-1.80618	H +
-1.80618	H ++
-0.90309	H ,	-0.1754231
-1.50515	H -
-1.80618	H --
-1.329059	H /
-0.6922366	H ;	-0.6099874
-1.80618	H <
-1.80618	H </s>
-1.80618	H <<
-0.8519375	H =
-1.80618	H >>
-1.50515	H ?
-1.80618	H C
-1.80618	H R
-1.50515	H ]	-0.3444957
-1.80618	H char
-1.80618	H long
-1.80618	H short
0	HP (
0	HY (
0	H_1 )
-1.78533	I &
-0.6713865	I (	-0.1547563
-1.308209	I )	-0.4067213
-1.78533	I *
-1.308209	I +
-1.78533	I ++
-1.4843	I ,
-1.4843	I -	-0.4727999
-1.4843	I :
-1.007179	I ;	0.01086015
-1.78533	I <
-0.7439371	I =
-1.18327	I ==
-1.78533	I ?
-1.18327	I H
-1.78533	I [
-1.78533	I char
-1.78533	I int
-1.78533	I jmp_buf
-1.78533	I long
-1.78533	I void
-0.30103	J (	-0.144815
-1.447158	J ,
-1.447158	J ;
-1.146128	J </s>
-1.146128	J =
-0.748188	J [
-1.447158	J l
-1.146128	J }
-1.50515	K !=	-0.4336556
-1.80618	K %
-0.7647873	K (	-0.5319606
-0.90309	K )	-0.6352555
-1.80618	K *
-1.50515	K ++
-1.80618	K +=
-1.20412	K ,
-1.80618	K -
-0.575731	K ->	-0.5410241
-1.20412	K ;	-0.1140786
-1.80618	K <
-1.50515	K </s>
-0.9610819	K =	-0.1424981
-1.50515	K ?
0	KrgR'8@c]!%-q9V.3fa[E8X%dY'w!#H <P~6"
-2.149219	L %=
-2.149219	L (
-1.194977	L )	-0.122669
-1.070038	L *	-0.2603225
-1.848189	L +
-2.149219	L ++
-0.4416489	L ,	-0.7563897
-1.246129	L -	-0.1376507
-2.149219	L ;
-2.149219	L <
-2.149219	L </s>
-1.547159	L =
-1.848189	L ==
-2.149219	L >
-1.848189	L >>
-2.149219	L >>=
-2.149219	L ?
-2.149219	L T
-2.149219	L [
-1.371068	L ]	-0.6869184
-2.149219	L a
-1.107826	L d	-0.8881125
-1.304121	L e	-0.6812412
-1.547159	L f
-2.149219	L m
-2.149219	L n
-1.194977	L t	-0.1546403
-0.4771213	LINES -
-0.4771213	LINES ;
-0.4771213	LINES ||
0	LP (
0	L_tmpnam )
-1.556303	M &&
-0.4771213	M (	-0.2781494
-1.079181	M )
-1.556303	M *=
-1.556303	M +=
-0.9542425	M ,
-1.556303	M -=
-1.556303	M .
-1.255273	M ;
-1.556303	M <
-1.255273	M </s>
-0.9542425	M =
-1.556303	M ==
-1.556303	M >
-1.556303	M qN
0	M8q;k' N_7vN
0	MJ 24
0	MK6lM L
0	McPc %
0	MkQN 77
-1.770852	N %
-1.770852	N &
-0.4284293	N (	-0.2007346
-0.9927008	N )	-0.3732251
-1.770852	N *
-1.770852	N +
-0.7294593	N ,	-1.037652
-1.293731	N ;
-1.770852	N <
-1.469822	N </s>
-1.168792	N =
-1.770852	N McPc
-1.469822	N [
-1.469822	N ]
-1.770852	N oNS
0	N4 RlMG
0	N8b %
0	N9 m
0	N9b %
0	NULL )	-0.5316601
0	NUO <
0	N_1' 5
0	N_7vN 'nSM8
-1.681241	O %
-1.982271	O &
-1.982271	O &&
-0.8361432	O (	-0.3454416
-0.9408786	O )	-0.2424216
-1.982271	O *
-1.380211	O +
-1.50515	O ++
-1.380211	O ,
-1.50515	O --	-0.3716111
-1.681241	O ->
-1.982271	O 8
-1.50515	O :
-1.283301	O ;	-0.1747216
-1.50515	O <	-0.4681664
-1.681241	O </s>
-0.60206	O =	-0.4041949
-1.681241	O ?
-1.982271	O G
-1.982271	O Q
-1.982271	O S
-1.982271	O ^
-1.982271	O ckQaOrON
-1.982271	O j
-1.982271	O jQ
-1.982271	O sM
-1.982271	O {
-1.982271	O ~
-0.4149733	O0 +=	-0.3821457
-1.113943	O0 ,
-0.5118834	O0 -	-0.2981538
-0.6368221	O0 =
-0.845098	O1 )
-0.845098	O1 *
-0.544068	O1 ,
-0.845098	O1 =
-0.845098	O1 >
-0.845098	O1 ]
-0.845098	O2 *
-0.845098	O2 ,
-0.845098	O2 -
-0.845098	O2 /
-0.544068	O2 =
-0.845098	O2 >
-0.4771213	O3 )
-0.7781513	O3 -
-0.7781513	O3 /
-0.7781513	O3 </s>
-0.7781513	O3 =
0	O3NF (
-0.39794	O4 *
-0.69897	O4 +
-0.69897	O4 =
-0.69897	O4 |
-0.4771213	O5 )
-0.7781513	O5 +
-0.4771213	O5 ,
-0.7781513	O5 [
-0.60206	O6 +
-0.30103	O6 ,
-0.60206	O6 =
-0.60206	O7 )
-0.60206	O7 ,
-0.60206	O7 =
-0.60206	O7 Q
-0.4771213	O8 *
-0.4771213	O8 +
-0.4771213	O8 =
-0.1760913	O9 --
-0.4771213	O9 =
0	OMQ ]
0	OMaMch &
0	OMp RmPQ
0	ON8r %
-0.7781513	OO )
-1.079181	OO +=
-0.7781513	OO ,
-0.7781513	OO -
-1.079181	OO <
-0.7781513	OO =
-1.079181	OO ==
-1.079181	OO >
0	O^ln ;b'
-0.9542425	O_ &
-0.05115252	O_ (	-0.4203606
-0.1249387	O_o )
-0.60206	O_o ,
0	OaaD %
0	Ok </s>
0	On %
0	OsR _
-0.5642715	P (	-0.1637912
-0.5295093	P )	-0.3445734
-1.643453	P +=
-1.166331	P ,
-1.342423	P 1	-0.3640817
-1.166331	P ;	-0.2901699
-1.342423	P =
-1.643453	P >=
-1.643453	P M
-1.643453	P U
-1.643453	P [
-1.643453	P _d
-1.643453	P _i
-1.643453	P i
-1.643453	P q
-1.995635	Q &
-1.995635	Q &&
-0.6339074	Q (	-0.28873
-0.8495072	Q )	-0.2080295
-1.518514	Q *	-0.4686582
-1.518514	Q ,
-1.995635	Q -
-1.393575	Q ;	-0.4151086
-1.694605	Q </s>
-1.995635	Q <=
-1.217484	Q =
-1.995635	Q ?
-1.995635	Q O
-1.995635	Q OO
-1.995635	Q Ok
-1.995635	Q Q4
-1.150537	Q [	-0.880988
-0.7915152	Q ]	-0.0175126
-1.217484	Q ^
-1.995635	Q __
-1.995635	Q _k
-1.995635	Q main
-1.694605	Q write	0
-1.995635	Q x
-1.079181	Q0 &&
-0.7781513	Q0 )
-0.60206	Q0 +
-0.7781513	Q0 +=
-1.079181	Q0 ,
-0.60206	Q0 =	-0.4279652
-0.7781513	Q1 )
-0.4771213	Q1 ,
-0.30103	Q1 =
-0.845098	Q2 &&
-0.845098	Q2 *
-0.544068	Q2 +	-0.429386
-0.845098	Q2 ,
-0.544068	Q2 =
-0.7781513	Q3 %
-0.4771213	Q3 ,	-0.4757534
-0.4771213	Q3 =
-0.7781513	Q3 >>
-0.60206	Q4 &&
-0.60206	Q4 ,
-0.60206	Q4 --
-0.60206	Q4 =
-0.60206	Q5 +
-0.30103	Q5 ,
-0.60206	Q5 =
-0.60206	Q6 +=
-0.60206	Q6 ,
-0.60206	Q6 </s>
-0.60206	Q6 =
-0.60206	Q7 )
-0.60206	Q7 ;
-0.60206	Q7 =
-0.60206	Q7 O
-0.4771213	Q8 ,
-0.4771213	Q8 ;
-0.4771213	Q8 =
-0.30103	Q9 ,
-0.30103	Q9 =
0	QH (
0	QL (
-0.7781513	QO &&
-0.60206	QO *
-1.079181	QO +
-0.7781513	QO ,
-0.4771213	QO =
-0.4771213	QQ )
-0.9542425	QQ *
-0.4771213	QQ +	-0.4147249
-0.9542425	QQ ,
-0.9542425	QQ =
0	QR (	-0.4590509
0	QS (	-0.4590509
0	Q_ (	-0.1751068
0	Qr h
-1.447158	R !
-1.20412	R %	-0.08975157
-1.271067	R (
-0.3864602	R )	-0.6177697
-1.572097	R *
-2.049218	R +
-2.049218	R ++
-2.049218	R +=
-1.271067	R ,	-0.4599422
-1.572097	R --	-0.5477024
-2.049218	R ;
-2.049218	R <
-1.271067	R </s>
-2.049218	R =
-2.049218	R A
-1.748188	R D
-1.447158	R K	-0.6170659
-2.049218	R N
-2.049218	R ]
-1.748188	R a
-2.049218	R c
-1.748188	R g
-2.049218	R i
-1.572097	R j	-0.4449366
-2.049218	R k
-2.049218	R l
-2.049218	R n
-2.049218	R o
-2.049218	R s
-1.748188	R v
0	R8 /
0	RAFT )
0	RGB )
0	RI4 4
0	RM ;
0	RMPmSk U
0	RP (
0	RlMG /
0	RmM </s>
0	RmPQ O
0	RootWindow (
-1.643453	S (
-1.041393	S )
-1.342423	S +
-0.9444827	S ,
-1.643453	S :
-0.60206	S ;	-0.2841794
-1.166331	S =
-1.342423	S ?	-0.4599532
-1.643453	S [
-0.6892102	S ]	-0.8457506
-1.643453	S d
-1.643453	S j
-1.643453	S s
-1.643453	S u
-1.643453	S {
0	SDL_AudioSpec bu
0	SDL_BlitSurface (
0	SDL_CreateRGBSurface (
0	SDL_Delay (
0	SDL_Event bE
0	SDL_FillRect (
0	SDL_Flip (
0	SDL_Init (
0	SDL_LoadWAV (
0	SDL_MixAudio (
0	SDL_OpenAudio (
0	SDL_PauseAudio (
0	SDL_PollEvent (
0	SDL_Rect </s>
0	SDL_SetVideoMode (
0	SDL_Surface *
0	SEEK_SET )	-0.3495049
0	SNH %
0	SOPm R8
0	SPEED *
0	Sec -
0	SlM90 %
0	So long
-1.518514	T (
-1.393575	T )
-1.995635	T *
-0.819544	T ++	-0.3112491
-1.995635	T +=
-1.217484	T ,	-0.1719747
-1.694605	T -
-1.518514	T --	-0.4597472
-1.296665	T :	-0.3839743
-1.296665	T ;	-0.6904472
-1.694605	T <
-1.217484	T </s>
-0.8816918	T =	-0.3269233
-1.296665	T ==	-0.1902498
-1.995635	T I
-1.995635	T Q
-1.995635	T R
-0.9542425	T [	-0.216008
-1.995635	T ]
-1.995635	T _
-1.393575	T d	-0.6413285
-1.995635	T f
-1.393575	T l	-0.6422424
-1.995635	T mR
-1.995635	T {
-1.995635	T |
0	TIMESTEP ,
0	TIOCGWINSZ ,
0	TMP_MAX )
0	TmS </s>
0	TmSt 6
0	Turing (
0	Type =
-1.371068	U (
-1.371068	U )
-1.672098	U *=
-1.672098	U +
-1.672098	U +=
-0.8939466	U ,
-1.672098	U 7
-0.4168254	U ;	-0.3803368
-1.672098	U </s>
-0.9731278	U =
-1.672098	U L
-1.672098	U i
-1.194977	U int	-0.4307525
-1.371068	U j	-0.3853509
-1.672098	U l
-1.672098	U u
0	UV_DROP :
0	Uint8Array (
0	Upgrade :
-1.041393	V !
-1.740363	V )
-0.7861202	V *	-0.214565
-1.263241	V ,
-1.740363	V ->
-1.439333	V ;
-1.740363	V </s>
-1.138303	V =
-1.138303	V F	-0.5568632
-1.740363	V _b
-1.740363	V _c
-1.740363	V _f
-1.138303	V a
-1.740363	V b
-1.740363	V c
-1.439333	V d
-1.439333	V e
-1.740363	V f
-1.740363	V i
-1.740363	V j
-1.740363	V n
-1.439333	V o
-1.740363	V p
-1.740363	V r
-1.740363	V w
-1.740363	V y
-1.439333	V z	-0.2293368
-0.4480189	W (	-0.214301
-0.9251401	W )	-0.1123767
-1.5272	W *	-0.4552457
-1.703291	W +
-2.004321	W +=
-1.305351	W ,	-0.6916245
-1.5272	W -	-0.410652
-1.402261	W --	-0.4965498
-1.5272	W /
-0.890378	W ;	-0.4003107
-2.004321	W </s>
-1.5272	W =
-2.004321	W ==
-1.159223	W R	-0.3357921
-2.004321	W S
-1.305351	W [	-0.3895718
-2.004321	W ]
-0.30103	WebSocket (
-0.30103	WebSocket -
0	Window u
-1.897627	X !=
-1.897627	X &
-1.596597	X (
-0.6671782	X )	-0.2229035
-1.596597	X *
-1.420506	X +
-0.6671782	X ,	-0.05562397
-1.897627	X -
-1.897627	X --
-1.897627	X /
-1.897627	X :
-1.295567	X ;	-0.1140786
-1.897627	X <
-1.119476	X </s>
-0.9945371	X =	-0.1160699
-1.596597	X S	-0.3521825
-0.9945371	X [	-0.1216108
-1.897627	X ]
-1.897627	X h
-1.897627	X v
0	XCheckWindowEvent (
0	XCreateImage (
0	XCreateSimpleWindow </s>
0	XEvent M
0	XImage *
0	XLookupKeysym (
0	XMapWindow (
0	XOpenDisplay (
0	XPutImage (
0	XSelectInput (
-1.0086	Y (	-0.6680693
-1.10551	Y )	-0.4744436
-1.230449	Y *
-1.70757	Y *=
-1.40654	Y +	-0.4147249
-1.70757	Y +=
-1.40654	Y ,
-1.70757	Y -
-1.40654	Y ->
-0.8624721	Y ;	-0.7161386
-0.6661775	Y =	-0.1853125
-1.40654	Y S	-0.4357286
-0.7533277	Y [	-0.4462098
-1.70757	Y a
-0.8692317	Z (	-0.2125729
-1.267172	Z )	-0.3495049
-1.267172	Z *=
-1.568202	Z +
-1.267172	Z +=
-0.8692317	Z ,	-0.2117163
-1.568202	Z -
-1.568202	Z -=
-0.8692317	Z ;	-0.5049301
-0.7900504	Z =	-0.1651091
-1.568202	Z ?
-1.568202	Z W
-1.568202	Z e
-1.568202	Z g
-1.568202	Z h
-1.568202	Z k
-1.568202	Z n
-1.816241	[ (
-1.64015	[ *	-0.4568453
-2.418301	[ +
-1.24221	[ -	-0.3038872
-1.464059	[ 0	-0.9851084
-2.418301	[ 01
-1.163029	[ 1	-1.156663
-2.418301	[ 17
-1.515211	[ 2	-0.9073436
-2.418301	[ 204
-1.418301	[ 3	-0.90309
-2.117271	[ 32	-0.4436975
-2.418301	[ 36
-1.376909	[ 4	-1.005604
-1.719331	[ 5	-0.6754889
-2.418301	[ 516
-2.418301	[ 5200
-1.94118	[ 6	-0.5563025
-2.418301	[ 65536
-2.117271	[ 7	-0.4057654
-1.94118	[ 8	-0.5686362
-2.418301	[ 80
-2.418301	[ 9
-2.117271	[ 97	0
-2.418301	[ 99
-2.418301	[ 9999
-1.64015	[ </s>
-2.418301	[ B
-2.117271	[ EOF	-0.3388186
-2.117271	[ H	-0.463333
-1.515211	[ L	-0.4070834
-2.117271	[ O	-0.4586379
-2.418301	[ Q6
-2.117271	[ W	-0.464026
-2.117271	[ X
-1.464059	[ ]	-0.7955751
-2.418301	[ _Q
-2.418301	[ a
-2.418301	[ b
-2.418301	[ bi
-2.117271	[ c
-1.573203	[ d	-0.2331109
-2.418301	[ e
-2.418301	[ f
-1.719331	[ g	-0.6349321
-1.816241	[ h	-0.5840867
-1.33912	[ i	-1.025264
-1.64015	[ j	-0.7384785
-1.64015	[ k	-0.2850419
-2.117271	[ l
-2.117271	[ leu	-0.1760913
-2.117271	[ m	-0.4626434
-1.816241	[ n	-0.2943994
-2.117271	[ not
-2.418301	[ o
-1.816241	[ optind	-0.2218488
-1.816241	[ p	-0.2902171
-1.719331	[ r	-0.184707
-2.418301	[ s
-2.117271	[ t
-2.418301	[ tgANs
-2.117271	[ u	-0.4637573
-1.515211	[ v	-0.8145319
-2.418301	[ val
-2.117271	[ x
-1.075879	[ xor	-1.070243
-2.117271	[ y
-2.117271	[ ~
0	[-d] file1
0	\"" "%s"
0	\n\t" ,
-1.852785	] !=	-0.2575643
-2.153815	] %
-1.977724	] &	-0.4699427
-2.454845	] &&
-2.454845	] '2O
-2.454845	] '_3a
-2.153815	] (
-0.9496949	] )	-0.4143569
-1.551755	] *	-0.2010616
-2.153815	] *=	-0.4578161
-1.500602	] +
-1.977724	] ++
-1.609747	] +=	-0.3055305
-0.923366	] ,	-0.2078156
-1.852785	] -
-2.454845	] --
-2.153815	] -=
-1.375664	] .	-1.035558
-2.454845	] /
-2.454845	] 0
-2.454845	] 6
-1.755875	] :	-0.1535254
-0.9634832	] ;	-0.2487231
-2.454845	] <
-1.609747	] </s>
-2.454845	] <<
-0.5797836	] =	-0.4353555
-1.852785	] ==	-0.2855178
-1.676694	] >	-0.146128
-2.454845	] >=
-2.153815	] >>
-2.153815	] ?
-2.454845	] OsR
-2.454845	] [
-2.454845	] ]
-1.977724	] ^
-2.454845	] _o
-2.153815	] g	-0.4700594
-2.454845	] h
-2.454845	] k
-2.454845	] k_
-2.454845	] l
-2.454845	] l_
-1.977724	] |
-2.454845	] |=
-2.454845	] }
-1.623249	^ %
-1.623249	^ 'h(Q]0h#
-1.322219	^ (
-1.623249	^ )
-1.623249	^ *
-1.623249	^ -
-1.623249	^ --
-1.623249	^ /
-1.623249	^ 024
-1.623249	^ 0xfc0
-1.623249	^ 1
-1.623249	^ 10
-1.322219	^ 2
-1.623249	^ 20
-1.623249	^ 255
-1.623249	^ 3
-1.623249	^ 35
-1.623249	^ 3920
-1.623249	^ 4
-1.623249	^ 40
-1.322219	^ 6
-1.623249	^ 61
-1.623249	^ 9
-1.623249	^ I
-1.623249	^ OaaD
-1.623249	^ d
-1.623249	^ f
-1.623249	^ h
-1.322219	^ k
-1.146128	^ l
-1.623249	^ og
-1.146128	^ p	-0.5531267
-1.623249	^ t
-1.623249	^ ~
-0.69897	^= *
-0.69897	^= 20
-0.69897	^= _
-0.69897	^= k
-0.69897	^= y
-2.021189	_ %
-0.4897104	_ (	-0.6367824
-0.9420081	_ )	-0.4886706
-2.021189	_ *
-2.021189	_ +
-2.021189	_ ++
-1.419129	_ ,
-2.021189	_ /
-2.021189	_ 6
-2.021189	_ :
-1.720159	_ ;
-1.322219	_ </s>
-1.720159	_ =
-2.021189	_ >>
-2.021189	_ ?
-2.021189	_ C
-2.021189	_ E
-2.021189	_ N
-2.021189	_ O
-2.021189	_ [
-2.021189	_ ^=
-2.021189	_ _8
-1.720159	_ a
-1.419129	_ b	-0.2656133
-2.021189	_ c
-2.021189	_ d
-2.021189	_ f
-2.021189	_ g
-1.720159	_ n	-0.4134522
-2.021189	_ o
-1.720159	_ p
-2.021189	_ pQaM8m
-1.720159	_ r
-1.118099	_ s	-0.7863612
-2.021189	_ v
-1.720159	_ w
-2.021189	_ {
0	_){putchar(_);}O" "\40main(){O"
-0.9542425	_0 &&
-0.9542425	_0 )
-0.6532125	_0 *
-0.9542425	_0 +=
-0.9542425	_0 ,
-0.9542425	_0 /
-0.6532125	_0 =	-0.4279652
0	_8 (
0	_KK3 +
-0.69897	_O %
-1	_O %=
-0.69897	_O )	-0.4677812
-1	_O +
-1	_O +=
-0.69897	_O =
-1	_O >
-0.5228788	_Q %	-0.4695019
-1	_Q )
-0.69897	_Q +=
-1	_Q /
-1	_Q </s>
-0.69897	_Q =
0	_Zadat57 <
-0.9294189	__ &	-0.4589473
-1.230449	__ &&
-0.9294189	__ )
-1.230449	__ *
-1.230449	__ +
-0.9294189	__ +=	-0.4279032
-1.230449	__ ,
-1.230449	__ ;
-1.230449	__ </s>
-1.230449	__ <<
-0.9294189	__ =
-1.230449	__ >>
-1.230449	__ >>=
0	__LINE__ *
-0.30103	__STDC_VERSION__ &&
-0.30103	__STDC_VERSION__ >
-0.30103	__STDC__ )
-0.30103	__STDC__ </s>
0	__TIME__ ;
-0.30103	_a %
-0.30103	_a </s>
0	_b (
0	_c (
0	_d (
-0.30103	_f (
-0.30103	_f </s>
0	_h *
0	_i (
-0.30103	_k (
-0.30103	_k :
0	_o ptj9
0	_t <
0	_z (
-2.201397	a %
-2.201397	a %=
-1.599337	a &
-2.201397	a &&
-2.201397	a &=
-1.724276	a (	-0.5927841
-0.9461246	a )	-0.09282511
-1.247155	a *	-0.6345303
-1.900367	a *=
-1.599337	a +
-1.900367	a ++	-0.4020566
-2.201397	a +=
-1.025306	a ,	-0.04116341
-1.502427	a -	-0.2072738
-1.900367	a --
-1.423246	a ->	-0.6943126
-2.201397	a .
-1.724276	a /	-0.4571502
-2.201397	a /=
-1.122216	a ;	0.06201267
-1.724276	a <	-0.4681664
-1.247155	a </s>
-2.201397	a <<
-0.9003671	a =	-0.150751
-1.599337	a >>
-2.201397	a ?
-1.599337	a L	-0.5667843
-1.900367	a S
-1.900367	a W
-2.201397	a X
-1.900367	a Z
-1.247155	a [	-0.333555
-1.502427	a ]	-0.08922321
-2.201397	a {
-1.724276	a |
0	abs (	-0.4593925
0	ageX -
-0.544068	ala *	-0.4732949
-0.845098	ala ;
-0.845098	ala asn
-0.3679768	ala not	-0.4405275
-0.1890562	and )	-0.3750471
-1.230449	and *
-1.531479	and ;
-1.531479	and asp
-1.531479	and gln
-1.230449	and his	-0.2340832
-1.531479	and pyl
-1.531479	and sec
-1.531479	and tla
-1.531479	and tyr
-1.531479	and xle
-0.09691001	arg )
-0.69897	arg =
-1.113943	asn ,
-0.07255067	asn .	-0.7976295
-1.113943	asn ;
-0.1760913	asp -	-0.4742451
-0.4771213	asp =
-0.60206	asx )
-0.60206	asx +
-0.60206	asx =
-0.60206	asx >
0	ay </s>
-1.37501	b !	-0.3275481
-2.220108	b %
-2.220108	b &
-1.919078	b &&
-1.618048	b (
-1.106165	b )	-0.32075
-2.220108	b *
-1.919078	b *=
-2.220108	b +
-2.220108	b ++
-1.220108	b ,	-0.1470932
-1.919078	b --
-1.441957	b ->	-0.40824
-2.220108	b .
-0.9896592	b ;	-0.3401791
-1.742987	b <
-1.37501	b </s>
-1.742987	b <<	-0.4618813
-0.9413545	b =	-0.1811114
-2.220108	b >
-1.919078	b >>
-1.742987	b ?
-1.441957	b B	-0.7737421
-2.220108	b D
-1.441957	b I	-0.4476663
-2.220108	b O
-2.220108	b P
-1.521138	b W	-0.1906552
-1.37501	b X	-0.0997593
-2.220108	b Z
-1.220108	b [	-0.9582755
-1.742987	b ]
-1.742987	b ^
-1.618048	b bf	-0.3187588
-2.220108	b bg
-2.220108	b bt
-2.220108	b h
-2.220108	b j
-2.220108	b kg
-2.220108	b n
-2.220108	b o
-1.919078	b q
-2.220108	b u
-2.220108	b ||
0	b1g (
0	b4 </s>
0	b5g (
-0.69897	bA ,
-0.69897	bA ;
-0.69897	bA <<
-0.39794	bA =	-0.4760872
-0.60206	bB )
-0.60206	bB ;
-0.30103	bB =
-0.60206	bC *
-0.60206	bC ,
-0.60206	bC /
-0.60206	bC =
-0.4771213	bD *
-0.4771213	bD ,
-0.4771213	bD =
-0.69897	bE )
-0.2218488	bE .
-0.69897	bE ;
0	b\nq(%s)\n" </s>
0	ba (
-0.7781513	bb )
-0.7781513	bb +
-0.7781513	bb +=
-0.7781513	bb ;
-0.4771213	bb =
0	bc (
-0.1760913	bd (
-0.4771213	bd </s>
-0.90309	be )
-0.60206	be ,	-0.4762098
-0.20412	be ;	-0.6897294
-0.60206	bf &&	-0.582316
-0.4771213	bf )	-0.23063
-0.4771213	bf ;	-0.288906
-1.079181	bf =
-0.60206	bg &&
-0.60206	bg )
-0.60206	bg ;
-0.60206	bg =
-0.1249387	bh (	-0.4735008
-0.60206	bh </s>
0	bh' l
-0.30103	bi )
-0.30103	bi ]
0	binary "
0	bj (	-0.5927841
-0.60206	bk &&
-0.30103	bk ,
-0.60206	bk ;
-0.1760913	bl (	-0.4462205
-0.4771213	bl }
-0.30103	bm =
-0.30103	bm ==
-0.30103	bn ,
-0.30103	bn =
-0.30103	bo )
-0.30103	bo =
0	bp (
-0.30103	bq (
-0.30103	bq }
0	br ,
-0.02632894	break ;	-0.636849
-1.230449	break H
-0.1760913	bs )
-0.4771213	bs ;
-0.7781513	bt ,
-0.4771213	bt ;
-0.4771213	bt =
-0.7781513	bt >
-0.7781513	bu *
-0.4771213	bu ,
-0.4771213	bu =
-0.7781513	bu >
-0.60206	buf )
-0.60206	buf ,
-0.60206	buf ;
-0.60206	buf [
-0.30103	bv ,
-0.30103	bv ;
0	bw ,
-0.30103	bx )
-0.30103	bx ;
-0.7781513	by ,
-0.7781513	by =
-0.30103	by ?	-0.4384136
-0.7781513	by ||
-0.69897	bz </s>
-0.69897	bz <<
-0.39794	bz =
-0.69897	bz >>
-2.082785	c "
-2.082785	c %
-2.082785	c &
-1.781755	c &&
-0.9366573	c )	-0.8300561
-1.304634	c *
-1.383815	c +	-0.2137004
-1.605664	c ++
-0.968842	c ,	-0.1033447
-1.304634	c -	-0.1570466
-2.082785	c --
-2.082785	c -=
-1.781755	c .
-2.082785	c /
-1.383815	c :	-0.2135234
-1.082785	c ;	-0.09408762
-1.605664	c <
-1.480725	c </s>
-0.7817554	c =	-0.3237902
-1.480725	c ==
-1.781755	c >
-1.781755	c ?
-2.082785	c L
-2.082785	c R
-1.605664	c W
-1.781755	c Y
-2.082785	c Z
-1.781755	c ]
-1.781755	c ^
-2.082785	c |
-2.082785	c ||
-0.30103	c8 +
-0.30103	c8 7
0	c9 .
0	cN mkM
0	c_X </s>
0	c_kah%0d9`b' /
0	calloc (
-1	case 'd'
-1	case 0
-1	case 10
-1	case 123
-1	case 35
-0.69897	case 36	0
-1	case 40
-1	case 58
-1	case 61
0	cb ,
-0.1597008	char *	-0.4245378
-1.591065	char J
-1.591065	char L
-1.591065	char N
-1.591065	char O
-1.591065	char X
-1.591065	char buf
-1.290035	char c
-1.591065	char o
-1.591065	char p
-1.591065	char pro
-1.591065	char ser
0	ckQaOrON epne
0	close (
-1.041393	const ala	-0.2340832
-0.4973246	const and	-0.1197991
-1.342423	const char
-1.342423	const gln
-1.041393	const his	-0.2340832
-1.041393	const not	-0.449969
-0.8653014	const pro	-0.20412
-1.041393	const ser
-1.041393	const thr
0	continue ;
0	cos (
0	cq *
0	crea "
0	curs_set (
-0.7781513	cys )
-0.4771213	cys -
-0.7781513	cys =
-0.4771213	cys >>	-0.451314
-1.071882	d )	-0.4464149
-1.549003	d *
-1.645913	d *=
-1.469822	d +	-0.1545789
-1.946943	d ++
-1.206581	d +=	-0.1641099
-0.9055506	d ,	-0.3161506
-1.469822	d -
-1.469822	d -=	-0.3877208
-2.247973	d .
-2.247973	d /
-1.770852	d /=
-2.247973	d 9
-1.946943	d :
-0.925754	d ;	-0.08654237
-1.770852	d <
-1.946943	d </s>
-2.247973	d <<
-2.247973	d <=
-0.867762	d =	-0.2942644
-2.247973	d ==
-2.247973	d >
-2.247973	d >=
-1.946943	d >>
-1.770852	d ?
-2.247973	d R
-1.168792	d W	-0.3301324
-1.770852	d X
-1.549003	d Y	-0.6146491
-1.946943	d [
-1.645913	d ]	-0.2823478
-2.247973	d ^
-2.247973	d xv
-2.247973	d |
-1.946943	d ||
0	d2 xa6
0	d77sNOsd 8
-0.60206	d8 (
-0.60206	d8 ,
-0.60206	d8 _
-0.60206	d8 a
0	d8ak =
0	dA )
0	dB )
0	dC </s>
0	d_C f3
0	dat </s>
0	data )
0	default :
0	defined __STDC_VERSION__
0	do {	-0.5419717
0	double </s>
0	dstr )	-0.4646227
0	dup (
0	dup2 (
-1.477121	e (	-0.2924232
-1.079181	e )	-0.4740301
-1.60206	e *
-2.079181	e *=
-1.778151	e +
-1.234083	e +=
-0.9652379	e ,	-0.2502431
-2.079181	e -
-1.778151	e -=
-1	e ->	-0.4712916
-1.60206	e .
-1.778151	e /
-2.079181	e :
-0.8239087	e ;	-0.5112607
-1.778151	e <
-1.778151	e </s>
-2.079181	e <<=
-0.8487324	e =	-0.2484874
-2.079181	e >
-2.079181	e >>
-1.778151	e W
-1.778151	e Y	-0.3928004
-1.079181	e [	-0.06599855
-2.079181	e ]
-2.079181	e kf
-2.079181	e {
0	eep ,
-1.462398	efine D
-1.462398	efine E
-1.462398	efine E0
-1.462398	efine EX
-1.462398	efine F0
-1.462398	efine F1
-1.462398	efine F2
-1.462398	efine FV
-1.462398	efine H
-1.462398	efine HP
-1.462398	efine HY
-1.462398	efine I
-1.462398	efine K
-1.462398	efine LP
-1.462398	efine M
-1.462398	efine N
-1.462398	efine O
-1.462398	efine P
-1.462398	efine Q
-1.462398	efine QH
-1.462398	efine QL
-1.462398	efine R
-1.462398	efine RP
-1.462398	efine S
-1.462398	efine T
-1.462398	efine U
-1.462398	efine W
-1.462398	efine Z
-1.462398	efine break
-0.7201593	else </s>
-1.322219	else V
-1.322219	else goto
-1.322219	else z
-0.1760913	else {	-0.115068
0	elta_u )
0	elta_v )
0	epne luelue
0	er </s>
0	err (	-0.7718786
0	errx (
0	exit (	-0.6906975
0	exp (	-0.5994299
0	extern void
-2	f &
-1.522879	f &&	-0.2937308
-0.9586073	f (	-0.3348178
-0.8538719	f )	-0.1245536
-1.69897	f *
-2	f +
-1.154902	f ,	-0.1383193
-1.522879	f -	-0.4655007
-0.8538719	f ;	0.1200046
-1.69897	f <
-2	f <<
-0.8860567	f =	-0.1428534
-2	f ==
-2	f >
-1.154902	f ?	-0.1218982
-2	f EOF
-1.045758	f L	-0.9647241
-2	f R
-1.69897	f X
-2	f Z
-1.69897	f ]
-2	f defined
-1.69897	f |	-0.4502491
0	f3 ]
0	fabs (
0	fclose (
0	fgetc (
0	fgets (
0	file1 file2"
0	file2" ,
0	flash (
-0.845098	float </s>
-0.845098	float C
-0.845098	float I
-0.845098	float K
-0.845098	float N
-0.845098	float V
-0.845098	float a
0	float_ )
0	flu ,
0	fopen (
-0.02380292	for (	-0.6282374
-1.273001	for </s>
0	fputc (
0	fread (
0	free (	-0.3913347
0	fscanf (
0	fseek (
0	function (
-1.792392	g %
-1.6163	g &
-2.093422	g &&
-1.394452	g (	-0.213242
-1.31527	g )	-0.23063
-1.093422	g *	-0.5081555
-1.491362	g *=
-1.248324	g +	-0.1379797
-1.6163	g ++	-0.5698754
-1.792392	g +=
-1.190332	g ,	-0.1157372
-2.093422	g --
-1.491362	g -=
-2.093422	g /
-1.792392	g 9
-2.093422	g :
-0.7316939	g ;	-0.5727165
-1.491362	g <	-0.2950807
-2.093422	g </s>
-2.093422	g <<
-0.6620579	g =	-0.3293894
-2.093422	g ==
-2.093422	g >>
-2.093422	g Q
-2.093422	g [
-2.093422	g ]
-1.792392	g ^
-2.093422	g ||
0	getC "
0	getch (
-0.1249387	getchar (	-0.5711593
-0.60206	getchar ;
0	getopt (
-0.50515	gln )	-0.5532114
-0.30103	gln ;	-0.7672911
-0.90309	gln =
-1.20412	gln ==
-0.30103	glu )	-0.5532114
-0.5228788	glu :	-0.5937346
-1	glu <<
-1	glu =
-0.30103	glx %
-0.30103	glx =
0	gly (	-0.8411469
0	goofy !
-0.1249387	goto O	-0.5788302
-0.60206	goto o
-1.170262	h %
-1.869232	h &
-1.869232	h &&
-1.869232	h 'lQ
-1.09108	h (	-0.7655139
-1.568202	h )
-1.39211	h *	-0.5943732
-1.869232	h *=
-1.568202	h +	-0.429386
-1.869232	h ++
-1.869232	h +=
-1.170262	h ,	-0.2191087
-1.170262	h -	-0.2072738
-1.39211	h .	-0.43533
-1.869232	h /
-1.869232	h 9
-1.024134	h ;	-0.3571166
-1.869232	h </s>
-1.024134	h <<	-0.09027022
-0.827839	h =	-0.1831888
-1.869232	h >
-1.869232	h >>
-1.869232	h ?
-1.869232	h Q
-1.869232	h ^
-1.869232	h ^=
-1.869232	h b
-1.568202	h |
0	halting )
0	height =
-0.3679768	his )	-0.3495049
-0.845098	his ;
-0.3679768	his [	-0.4619405
0	ho )
0	href .
-1.516315	i %	-0.2895502
-1.817345	i &
-1.817345	i &&
-0.8320682	i (	-0.7275718
-1.180523	i )	-0.1387425
-1.391376	i *	-0.1141387
-2.294466	i *=
-1.516315	i +	-0.1712206
-1.595496	i ++	-0.1467841
-1.817345	i +=
-1.064017	i ,	-0.1869113
-1.391376	i -	-0.2923438
-2.294466	i --
-1.391376	i /	-0.2654538
-1.993436	i :
-1.148338	i ;	-0.004934117
-1.064017	i <	-0.1014766
-2.294466	i </s>
-2.294466	i <=
-0.817345	i =	-0.1492116
-2.294466	i ==
-1.993436	i >
-1.817345	i >>
-1.817345	i ?
-1.993436	i R
-1.692406	i S	-0.5026754
-1.595496	i ]	-0.1701244
-2.294466	i |
-0.01240926	if (	-0.3633636
-1.550228	if </s>
-0.69897	ile !=
-0.69897	ile +
-0.69897	ile --
-0.69897	ile ;
-0.69897	ile =
0	in tYv
0	initscr (
-1.295567	int )	-0.3004135
-1.119476	int *
-1.119476	int </s>
-1.897627	int F
-1.897627	int G
-1.897627	int H
-1.420506	int I
-1.897627	int K
-1.897627	int L
-1.897627	int M
-1.897627	int P
-1.897627	int Q
-1.596597	int X
-1.897627	int a
-1.897627	int bk
-1.897627	int bm
-1.897627	int bs
-1.897627	int bt
-1.897627	int bw
-1.897627	int by
-1.420506	int c	-0.4277596
-1.897627	int h
-0.9945371	int i	-0.7933152
-1.420506	int j	-0.3853509
-1.420506	int k
-1.295567	int l	-0.2392228
-1.052529	int main	0.4336556
-1.897627	int met
-1.897627	int o
-1.897627	int op
-1.897627	int p
-1.897627	int puts
-1.897627	int t
-1.596597	int u
-1.897627	int v
-1.420506	int x	-0.3701109
-1.596597	int y	-0.4265649
0	int_ )
0	intw )
0	ioctl (
0	ipt >
-1.498311	j %	-0.5787887
-1.498311	j &&
-1.058978	j )	-0.3393316
-1.799341	j *
-1.623249	j *=
-1.255273	j +	-0.354865
-2.100371	j ++
-1.623249	j +=
-0.7993405	j ,	-0.3042552
-1.322219	j -	-0.1615162
-2.100371	j /
-1.799341	j /=
-1.799341	j :
-1.146128	j ;	-0.3914923
-1.146128	j <
-1.799341	j </s>
-0.7201593	j =	-0.2107036
-2.100371	j ==
-1.799341	j >
-1.401401	j ?
-1.401401	j S	-0.5149098
-2.100371	j ]
-2.100371	j kd
-2.100371	j ||
0	jQ O7
0	j_la _
0	j_laaaN :
0	jmp_buf J
-1.919078	k %
-1.919078	k &
-1.618048	k (
-0.8398969	k )	-0.0316233
-1.919078	k *
-1.919078	k *=
-1.220108	k +
-1.441957	k ++	-0.4020566
-1.919078	k +=
-0.7729501	k ,	-0.3939521
-1.317018	k -	-0.2923438
-1.919078	k --
-1.919078	k -=
-1.441957	k /	-0.3728293
-1.919078	k :
-1.441957	k ;
-1.618048	k <
-1.441957	k </s>
-0.8051347	k =	-0.06478729
-1.919078	k >
-1.919078	k >>
-1.919078	k >>=
-1.919078	k R
-1.441957	k ]	-0.5833778
-1.919078	k ^
-1.919078	k ^=
-1.919078	k g
-1.919078	k |=
0	k8b %
0	k9 b1g
0	kP8 ;
0	k_ 7
0	kccMcOP &
0	kckQ ,
0	kd 7
0	ket Sec
-0.30103	key .
-0.30103	key :
0	keysym .
0	kf _a
0	kg </s>
-1.690196	l %	-0.4207448
-1.991226	l &&
-1.690196	l (
-0.9120448	l )	-0.5097456
-1.213075	l *
-1.991226	l *=
-1.690196	l +
-1.991226	l ++
-1.389166	l +=
-0.8772827	l ,
-1.292256	l -	-0.1553795
-1.991226	l -=
-1.991226	l /
-0.845098	l ;	-0.3450521
-1.690196	l <
-1.690196	l </s>
-1.991226	l <<
-0.845098	l =	-0.1369077
-1.991226	l ==
-1.991226	l >
-1.991226	l >>
-1.690196	l S
