
\data\
ngram 1=796

\1-grams:
-2.40001	!
-2.935123	!=
-2.794945	"
-4.257342	"!:E%;!ea!!!WqE0z!f/y}!%!!Qi6!uzt!n}?]!bl!ak!SetR<"
-4.257342	"!pv!;!Hm%Ro4"
-3.558372	""
-3.780221	"#"
-4.257342	"%."
-4.257342	"%c"
-3.956312	"%d
-4.257342	"%d,%dd%d\n"
-4.257342	"%d\n"
-4.257342	"%da%d,%d\n"
-4.257342	"%da%d\n"
-4.257342	"%dd%d\n"
-4.257342	"%f,%f,"
-3.558372	"%s"
-4.257342	"('A)"
-3.956312	"('A`)"
-4.257342	"(A`)"
-4.257342	"(O**"
-4.257342	")"
-4.257342	");"
-4.257342	"*"
-4.257342	"*_[512],**p=_,**d,b,q;for(b=0;b"
-4.257342	"*p=#b,P[9999],*d=P,*e[]="
-4.257342	"++<512;p=_+q)_[q"
-4.257342	"-"
-4.257342	"/"
-4.257342	"/*;;
-4.257342	"11\x80"
-4.257342	"258EAFA5-"
-4.257342	"8!@dP,!!o+fb"
-4.257342	"::::::::::::?_::::\"::.::::@:::'::-::::::::;!:):::::,:::::"
-3.780221	";"
-4.257342	";;"
-4.257342	";Gam"
-4.257342	";GlockQ18"
-4.257342	";Heca"
-4.257342	";Time:Q"
-4.257342	";^Q<d|8=o;]Q<dj8<Pk8<c]'?;QQdi8?P'Q)d8<9`8?c;Qdh8=P']Q<`c8>PQ9_8"
-4.257342	"<
-4.257342	"<;iQ=/*do<;dQ=ook8?boc;aQ=odr8>oc;_Q<ox8>oc"
-4.257342	"<o_Q<o_QBdo`QQ';`Q=9`]8=bobQ_o_Q<o]8=';bQC(88cQ`bcgQ>oP']8<;cQ>98)^Q?''oc`Q>"
-4.257342	"=(p-_+1)*9%512]=(O*)p;"
-3.780221	">
-4.257342	">b;og8=''`Q<`b8?'QQ9_8?c;dPe8dQa8<P]Q<``8=;'f8>QQ`]8?ocQQ_8=''_Q`8aQ"
-4.257342	"?guhljL!^P%
-4.257342	"@CADBEHI"
-4.257342	"C:"
-4.257342	"CYOUQWIN!]Q=;of8BQQ)88bc]QA98P'Qo]8>oQQ_8CP;QQ98b`_8@P8(Q`]'^Q=`']QB)88"
-4.257342	"E914-47DA-95CA-C5AB0DC85B"
-4.257342	"HTTP/1.1
-4.257342	"M@K~|JOEF\\^~_NHI]"
-3.655282	"Q"
-4.257342	"Q(j"
-4.257342	"Q(jam"
-4.257342	"Zj$x!~V!n&g8!cK!
-4.257342	"\",\"%s\",\"%s\"},
-4.257342	"\40main(){O"
-4.257342	"\n"
-4.257342	"\n\n\n"
-4.257342	"\xe2%c%c\r\n"
-4.257342	"a"
-4.257342	"bQQ]`8J;QQ`88bc99bd(`8iQ@''QQo^8E'`8c;QQ'Q``8?QQ`'kQ<o]8B9PQQ`';_Q<`_8<cbQ"
-3.956312	"d"
-4.257342	"e.6!r!%l6G!n~^<i=%pEwL%P!'<!FQt%u
-4.257342	"e:|
-4.257342	"eQII:"
-4.257342	"eQover."
-4.257342	"etu"
-4.257342	"f\n"
-4.257342	"fl!"
-4.257342	"hello
-4.257342	"laugh"
-4.257342	"m"
-4.257342	"me"
-4.257342	"med);"
-4.257342	"n:}nkD!Q!kN"
-4.257342	"o("
-4.257342	"oc']Q]8<;cQ>`8bbQA``QQ''`Q?88P;dQ=`)nQ?*/;;"
-4.257342	"oid
-3.655282	"r"
-4.257342	"rn+0;}\n"
-4.257342	"syntax_error!"
-4.257342	"t"
-4.257342	"throw
-4.257342	"usage:
-4.257342	"{;}"
-4.257342	"{\"%s\",
-4.257342	"|~0y'vWtA@:LcO9d}y.!uL!Gd+ml(<+Ds!J"
-2.348857	%
-3.655282	%=
-4.257342	%d\n"
-4.257342	%s
-4.257342	%u/%u
-2.236153	&
-2.317823	&&
-4.257342	&=
-3.354253	'
-3.558372	','
-3.956312	'128'
-4.257342	'2d'
-4.257342	'='
-3.956312	'\n'
-2.752192	'_'
-4.257342	'a'
-4.257342	'b5sc!e"
-4.257342	'c'
-4.257342	'd'
-4.257342	'width:256px;height:256px'
-4.257342	'ws'
-4.257342	'|'
-1.107816	(
-1.090912	)
-1.534709	*
-2.594585	*=
-4.257342	*m,!*m?H:"
-1.850802	+
-2.204264	++
-4.257342	+99*!
-2.223919	+=
-1.190272	,
-4.257342	,101
-1.794945	-
-2.623874	--
-2.644559	-=
-2.376529	->
-2.227959	.
-3.780221	...
-3.780221	.05
-3.780221	.1
-4.257342	.27
-3.780221	.5
-2.359715	/
-3.412245	/=
-1.907094	0
-3.780221	0.5
-4.257342	0.7
-4.257342	01
-4.257342	02
-4.257342	024
-4.257342	03
-4.257342	040
-4.257342	061
-4.257342	075
-3.956312	0u
-4.257342	0x1
-4.257342	0x3f0
-4.257342	0x67452301
-4.257342	0x820008202625a0
-4.257342	0x98BADCFE
-4.257342	0xEFCDAB89
-4.257342	0xf
-4.257342	0xfc0
-4.257342	0xfe0
-4.257342	0xff00ff00ff
-4.257342	0xffff
-2.004489	1
-4.257342	1.159922023e9
-3.956312	1.3
-3.956312	1.5
-4.257342	1.6937441874215991e190
-3.21595	10
-4.257342	1008
-4.257342	101
-3.780221	1023
-4.257342	1024
-4.257342	1024.
-3.780221	11
-4.257342	1103515245
-4.257342	112
-3.3031	12
-4.257342	12359778
-4.257342	12365733
-4.257342	124
-4.257342	127
-3.655282	128
-4.257342	128L
-3.956312	13
-4.257342	13000
-4.257342	138
-3.479191	14
-4.257342	14202379
-3.956312	14695981039346656037ULL
-3.412245	15
-4.257342	1500
-4.257342	158
-2.978589	16
-4.257342	1600
-3.780221	16711935
-4.257342	16774143
-3.956312	16u
-3.956312	17
-4.257342	176
-3.558372	18
-4.257342	19
-4.257342	1912
-4.257342	19205553
-4.257342	193
-4.257342	1933008
-4.257342	194
-4.257342	1954
-4.257342	196
-4.257342	197
-4.257342	198
-3.956312	1LL
-3.956312	1u
-2.200438	2
-3.956312	2.
-4.257342	2.271681097355226e15
-3.354253	20
-4.257342	204
-4.257342	205
-3.956312	22
-4.257342	23
-4.257342	234
-3.412245	24
-4.257342	25
-4.257342	250
-3.412245	255
-3.655282	256
-4.257342	256L
-4.257342	257
-4.257342	258063
-3.956312	26
-4.257342	27
-4.257342	275
-4.257342	276
-4.257342	28
-4.257342	287
-4.257342	2L
-2.388111	3
-4.257342	3.135045272e9
-4.257342	3.9999e5
-3.412245	30
-4.257342	304
-4.257342	308438
-3.655282	31
-2.877131	32
-3.956312	32768
-4.257342	3285377520
-3.956312	33
-3.956312	333
-4.257342	3352537
-4.257342	34
-3.956312	35
-3.956312	37
-3.956312	38
-4.257342	384
-4.257342	39
-4.257342	3920
-2.406084	4
-4.257342	4.023233417e9
-4.257342	4.294967296e9
-4.257342	4.5
-4.257342	4.503599627370496e15
-4.257342	4.522871578970112e217
-4.257342	4.6727004911171048e-153
-3.479191	40
-4.257342	4092
-3.956312	41
-4.257342	41088
-3.956312	4190208
-4.257342	4194304
-3.558372	42
-4.257342	44
-3.956312	45
-4.257342	48
-4.257342	480
-4.257342	488848
-4.257342	4L
-3.956312	4u
-2.713274	5
-4.257342	50
-4.257342	504
-4.257342	508
-4.257342	51
-3.655282	512
-4.257342	512L
-4.257342	516
-3.956312	5200
-4.257342	5298487
-3.780221	56
-4.257342	57
-4.257342	58
-3.956312	59
-4.257342	5toG57j/3"
-2.780221	6
-3.354253	60
-4.257342	60.
-4.257342	61
-3.956312	62
-3.655282	63
-4.257342	63504
-3.178161	64
-4.257342	64u
-4.257342	65280
-4.257342	65307
-3.956312	65536
-4.257342	65544
-4.257342	67
-4.257342	6990400
-2.895615	7
-4.257342	7.5
-4.257342	7.90055321525613e115
-4.257342	70
-3.956312	74
-4.257342	75
-4.257342	76
-3.655282	768
-4.257342	77
-3.780221	79
-2.558372	8
-4.257342	8.44396048e8
-3.111214	80
-4.257342	8000
-3.780221	81
-4.257342	82
-4.257342	84
-3.780221	85
-3.956312	86400
-4.257342	88
-4.257342	881
-4.257342	8u
-3.053223	9
-3.956312	90
-4.257342	91
-3.956312	92
-4.257342	96
-3.780221	97
-4.257342	9858122
-4.257342	99
-4.257342	9999
-4.257342	99999
-2.174557	:
-1.239058	;
-2.185461	<
-1.227148	</s>
-2.48649	<<
-4.257342	<<=
-3.3031	<=
-4.257342	<P~6"
-99	<s>
-99	<unk>
-1.392831	=
-2.558372	==
-2.406084	>
-3.479191	>=
-2.549772	>>
-3.780221	>>=
-2.200438	?
-4.257342	?"
-2.567147	A
-4.257342	Acce
-4.257342	Alan
-2.51698	B
-4.257342	BUFSIZ
-2.655282	C
-3.956312	COLS
-2.780221	D
-4.257342	DefaultGC
-4.257342	DefaultVisual
-4.257342	Display
-2.61389	E
-4.257342	E0
-3.956312	E3
-3.21595	EOF
-4.257342	ETIANMSURWDKGOHVF:L:PJBXCYZQ::54:3:::2&:+::::16=/:::(:7:::8:90"
-4.257342	EX
-2.644559	F
-3.956312	F0
-3.956312	F1
-4.257342	F2
-3.558372	FILE
-4.257342	FILENAME_MAX
-4.257342	FV
-3.956312	F_
-2.752192	G
-2.501468	H
-4.257342	HP
-4.257342	HY
-2.501468	I
-2.91492	J
-2.493915	K
-4.257342	KrgR'8@c]!%-q9V.3fa[E8X%dY'w!#H
-2.21595	L
-3.780221	LINES
-4.257342	LP
-4.257342	L_tmpnam
-2.859402	M
-2.634093	N
-3.780221	NULL
-2.39402	O
-3.143399	O0
-3.412245	O1
-3.412245	O2
-3.479191	O3
-3.558372	O4
-3.479191	O5
-3.655282	O6
-3.780221	O7
-3.780221	O8
-3.780221	O9
-3.178161	OO
-3.354253	O_
-3.655282	O_o
-2.644559	P
-2.359715	Q
-3.178161	Q0
-3.479191	Q1
-3.412245	Q2
-3.479191	Q3
-3.655282	Q4
-3.655282	Q5
-3.655282	Q6
-3.780221	Q7
-3.780221	Q8
-3.956312	Q9
-4.257342	QH
-4.257342	QL
-3.178161	QO
-3.3031	QQ
-3.956312	QR
-3.956312	QS
-3.479191	Q_
-2.31286	R
-4.257342	RAFT
-4.257342	RGB
-4.257342	RP
-4.257342	RootWindow
-3.081251	S
-4.257342	SDL_AudioSpec
-4.257342	SDL_BlitSurface
-4.257342	SDL_CreateRGBSurface
-4.257342	SDL_Delay
-4.257342	SDL_Event
-4.257342	SDL_FillRect
-4.257342	SDL_Flip
-4.257342	SDL_Init
-4.257342	SDL_LoadWAV
-4.257342	SDL_MixAudio
-4.257342	SDL_OpenAudio
-4.257342	SDL_PauseAudio
-4.257342	SDL_PollEvent
-4.257342	SDL_Rect
-4.257342	SDL_SetVideoMode
-4.257342	SDL_Surface
-3.956312	SEEK_SET
-4.257342	SPEED
-4.257342	Sec
-4.257342	So
-2.275071	T
-4.257342	TIMESTEP
-4.257342	TIOCGWINSZ
-4.257342	TMP_MAX
-4.257342	Turing
-4.257342	Type
-2.91492	U
-4.257342	UV_DROP
-4.257342	Uint8Array
-4.257342	Upgrade
-2.70104	V
-2.464951	W
-3.956312	WebSocket
-4.257342	Window
-2.533067	X
-4.257342	XCheckWindowEvent
-4.257342	XCreateImage
-4.257342	XCreateSimpleWindow
-4.257342	XEvent
-4.257342	XImage
-4.257342	XLookupKeysym
-4.257342	XMapWindow
-4.257342	XOpenDisplay
-4.257342	XPutImage
-4.257342	XSelectInput
-2.666278	Y
-2.895615	Z
-1.796445	[
-4.257342	[-d]
-4.257342	\""
-1.796445	]
-2.935123	^
-3.558372	^=
-1.548073	_
-4.257342	_){putchar(_);}O"
-3.3031	_0
-3.257343	_O
-3.257343	_Q
-2.40001	__
-4.257342	__LINE__
-3.956312	__STDC_VERSION__
-3.956312	__STDC__
-4.257342	__TIME__
-4.257342	__VA_ARGS__
-3.780221	___
-2.956312	____
-3.956312	_b
-3.956312	_c
-3.956312	_d
-3.655282	_f
-3.956312	_i
-3.956312	_k
-2.095974	a
-3.956312	a_
-3.956312	abs
-4.257342	ageX
-3.412245	ala
-2.725864	and
-3.956312	ar
-3.558372	arg
-3.655282	argh
-3.143399	asn
-3.780221	asp
-3.655282	asx
-3.956312	au
-2.136769	b
-3.558372	bA
-3.655282	bB
-3.655282	bC
-3.780221	bD
-3.558372	bE
-4.257342	b\nq(%s)\n"
-3.780221	ba
-3.479191	bb
-3.558372	bc
-3.780221	bd
-3.354253	be
-3.178161	bf
-3.655282	bg
-3.780221	bh
-3.956312	bi
-4.257342	binary
-3.780221	bj
-3.655282	bk
-3.956312	bl
-3.956312	bm
-3.956312	bn
-3.956312	bo
-3.354253	bp
-3.956312	bq
-3.956312	br
-3.21595	break
-3.780221	bs
-3.479191	bt
-3.479191	bu
-3.655282	buf
-3.956312	bv
-4.257342	bw
-3.956312	bx
-3.479191	by
-3.558372	bz
-2.388111	c
-3.780221	calloc
-4.257342	case
-4.257342	cb
-4.257342	ch
-2.810184	char
-4.257342	close
-2.91492	const
-4.257342	continue
-3.780221	cos
-4.257342	crea
-4.257342	curs_set
-3.479191	cys
-2.232037	d
-4.257342	dA
-4.257342	dB
-4.257342	dC
-4.257342	dat
-4.257342	data
-4.257342	default
-4.257342	defined
-3.558372	do
-4.257342	double
-3.956312	dstr
-4.257342	dup
-3.956312	dup2
-2.236153	e
-4.257342	eep
-2.794945	efine
-3.00207	else
-4.257342	elta_u
-4.257342	elta_v
-4.257342	er
-3.558372	err
-4.257342	errx
-3.558372	exit
-3.780221	exp
-3.780221	extern
-2.244505	f
-4.257342	fabs
-4.257342	fclose
-4.257342	fgetc
-4.257342	fgets
-4.257342	file1
-4.257342	file2"
-4.257342	flash
-3.412245	float
-4.257342	float_
-4.257342	flu
-3.780221	fopen
-2.412245	for
-4.257342	fputc
-3.780221	fread
-3.479191	free
-4.257342	fscanf
-3.956312	fseek
-4.257342	function
-3.655282	fw
-2.236153	g
-4.257342	getC
-4.257342	getch
-3.655282	getchar
-4.257342	getopt
-3.053223	gln
-3.257343	glu
-3.956312	glx
-3.479191	gly
-4.257342	go
-4.257342	goofy
-2.437799	h
-4.257342	halting
-4.257342	height
-3.412245	his
-4.257342	ho
-4.257342	href
-2.006922	i
-2.418494	if
-3.558372	ile
-4.257342	initscr
-2.48649	int
-4.257342	int_
-4.257342	intw
-4.257342	ioctl
-4.257342	ipt
-2.248742	j
-4.257342	jmp_buf
-2.354253	k
-4.257342	ket
-3.956312	key
-4.257342	keysym
-2.333063	l
-4.257342	le
-4.257342	lea
-3.655282	leu
-4.257342	location
-2.895615	long
-4.257342	longjmp
-4.257342	lrand48
-3.956312	lu
-3.780221	lv
-3.3031	lys
-2.451163	m
-4.257342	mageData
-2.978589	main
-3.956312	malloc
-4.257342	memset
-3.3031	met
-4.257342	mva
-4.257342	mvaddstr
-3.956312	mvinch
-4.257342	mvinsch
-2.196645	n
-3.956312	ndif
-3.956312	new
-2.261707	not
-4.257342	np
-2.087081	o
-4.257342	o(O
-4.257342	ocket
-4.257342	oec
-3.956312	of
-4.257342	offsetLeft
-4.257342	offsetTop
-4.257342	on
-4.257342	onmousemove
-4.257342	ontext
-3.3031	op
-4.257342	open
-3.479191	optind
-2.28886	p
-4.257342	pageY
-3.655282	phe
-4.257342	pixels
-3.780221	pow
-4.257342	pread
-4.257342	prin
-3.178161	printf
-3.558372	pro
-4.257342	pt
-4.257342	pu
-4.257342	putImageData
-3.354253	putchar
-3.479191	puts
-3.956312	pyl
-2.576101	q
-2.634093	r
-3.956312	rand
-4.257342	rea
-4.257342	read
-3.956312	realloc
-4.257342	refresh
-2.895615	return
-3.956312	rewind
-4.257342	round
-4.257342	rror
-2.388111	s
-4.257342	scanf
-4.257342	scr
-4.257342	script
-3.3031	sec
-4.257342	send
-3.21595	ser
-4.257342	set
-4.257342	setjmp
-4.257342	shi
-3.956312	short
-3.956312	si
-4.257342	signal
-3.956312	sin
-4.257342	size_t
-3.143399	sizeof
-4.257342	slice
-4.257342	sprintf
-4.257342	sqrt
-3.479191	static
-3.956312	stdin
-4.257342	stdout
-4.257342	strcmp
-3.956312	strlen
-4.257342	strrchr
-4.257342	strtol
-3.479191	struct
-4.257342	style
-4.257342	subs
-4.257342	switch
-4.257342	sym
-3.558372	sym_
-2.451163	t
-4.257342	tape
-4.257342	tch
-4.257342	teI
-4.257342	tf
-3.354253	thr
-4.257342	timeout
-3.655282	tla
-4.257342	tmpfile
-4.257342	to
-4.257342	tr
-3.257343	trp
-4.257342	typ
-3.956312	type
-3.143399	typedef
-3.257343	tyr
-2.208124	u
-4.257342	ub
-3.956312	union
-3.178161	unk
-3.3031	unsigned
-4.257342	up"
-4.257342	upgrade
-4.257342	usl
-4.257342	usleep
-2.3031	v
-4.257342	va_arg
-4.257342	va_end
-4.257342	va_list
-4.257342	va_start
-4.257342	vad
-2.810184	val
-2.956312	void
-4.257342	voidw
-4.257342	volatile
-4.257342	vpr
-2.40001	w
-4.257342	webso
-2.91492	while
-4.257342	width
-4.257342	window
-4.257342	world!"
-3.780221	write
-2.327924	x
-4.257342	xkey
-3.956312	xle
-2.60413	xor
-2.3031	y
-2.418494	z
-3.956312	ze
-1.889987	{
-2.585245	|
-3.956312	|=
-2.935123	||
-1.893731	}
-2.752192	~

\end\
